svm_type c_svc
kernel_type rbf
gamma 0.0625
nr_class 2
total_sv 567
rho 10.4648
label 1 0
probA -4.34828
probB 0.220867
nr_sv 260 307
SV
2 1:0.66666667 2:0.66666667 3:0.30660377 4:0.47167325 5:0.59751958 47:1 127:1 138:1 
0.1722620458422982 1:0.41666667 2:0.41666667 3:0.22012579 4:0.36438923 5:0.59663894 62:1 85:1 102:1 252:1 
2 1:0.41666667 2:0.41666667 3:0.45073375 4:0.42650104 5:0.61266652 120:1 157:1 233:1 
2 1:0.41666667 2:0.41666667 3:0.22012579 4:0.36438923 5:0.59663894 138:1 158:1 193:1 252:1 
2 1:0.58333333 2:0.58333333 3:0.47169811 4:0.33333333 5:0.63002306 128:1 162:1 233:1 253:1 
2 1:0.5 2:0.5 3:0.35849057 4:0.21627648 5:0.66057312 126:1 138:1 210:1 253:1 
0.5568730309856433 1:0.66666667 2:0.66666667 3:0.47428986 4:0.36231884 5:0.63638053 42:1 154:1 221:1 246:1 
2 1:0.58333333 2:0.58333333 3:0.37735849 4:0.30434783 5:0.64299981 6:1 42:1 219:1 247:1 
1.038562967524491 1:0.5 2:0.5 3:0.41509434 4:0.29988852 5:0.71072134 184:1 222:1 234:1 
0.5193693136310076 1:0.41666667 2:0.41666667 3:0.51572327 4:0.58163576 5:0.60658213 23:1 101:1 180:1 255:1 
1.285582515879406 1:0.66666667 2:0.66666667 3:0.48379294 4:0.6284585 5:0.60044477 22:1 164:1 191:1 255:1 
0.6883007680779549 1:0.5 2:0.5 3:0.44025157 4:0.49802372 5:0.6079271 79:1 112:1 191:1 255:1 
2 1:0.41666667 2:0.41666667 3:0.41461055 4:0.34782609 5:0.65811966 15:1 172:1 229:1 247:1 
1.124279844474333 1:0.58333333 2:0.58333333 3:0.3081761 4:0.47826087 5:0.59390097 50:1 105:1 171:1 246:1 
2 1:0.66666667 2:0.66666667 3:0.39465409 4:0.32298137 5:0.68372585 50:1 173:1 198:1 248:1 
1.412873383350844 1:0.58333333 2:0.58333333 3:0.37735849 4:0.58695652 5:0.59249195 106:1 171:1 230:1 
2 1:0.91666667 2:0.91666667 3:0.43561735 4:0.47826087 5:0.60947432 32:1 80:1 106:1 248:1 
1.673678167114999 1:0.58333333 2:0.58333333 3:0.44654088 4:0.36956522 5:0.64885266 17:1 59:1 198:1 246:1 
0.422841476804873 1:0.58333333 2:0.58333333 3:0.44654088 4:0.69565217 5:0.5727657 83:1 111:1 224:1 251:1 
2 1:0.83333333 2:0.83333333 3:0.50419287 4:0.26086957 5:0.57981079 142:1 176:1 222:1 250:1 
0.5348054356937866 1:0.58333333 2:0.58333333 3:0.3081761 4:0.58695652 5:0.64885266 121:1 143:1 175:1 251:1 
2 1:0.5 2:0.5 3:0.39712489 4:0.45410628 5:0.59722222 121:1 137:1 222:1 251:1 
0.577144766973416 1:0.66666667 2:0.66666667 3:0.36006289 4:0.38509317 5:0.59495773 112:1 175:1 223:1 251:1 
0.8559697269639288 1:0.66666667 2:0.66666667 3:0.47680818 4:0.43167702 5:0.63854921 15:1 128:1 224:1 
0.01261582845037508 1:0.66666667 2:0.66666667 3:0.54166667 4:0.55590062 5:0.62930254 17:1 34:1 214:1 256:1 
0.5117124139210806 1:0.58333333 2:0.58333333 3:0.44654088 4:0.58695652 5:0.61503623 16:1 21:1 35:1 257:1 
2 1:0.41666667 2:0.41666667 3:0.39465409 4:0.30191548 5:0.62152778 12:1 31:1 51:1 77:1 78:1 102:1 253:1 
2 1:0.41666667 2:0.41666667 3:0.18710692 4:0.30191548 5:0.56657609 12:1 31:1 52:1 55:1 181:1 253:1 
2 1:0.5 2:0.5 3:0.33805031 4:0.41897233 5:0.5998161 92:1 102:1 120:1 245:1 254:1 264:1 
0.1205298415844362 1:0.33333333 2:0.33333333 3:0.46383648 4:0.32580463 5:0.63103865 52:1 54:1 208:1 252:1 
2 1:0.66666667 2:0.66666667 3:0.41061925 4:0.37549407 5:0.61234207 32:1 56:1 75:1 78:1 153:1 253:1 
2 1:0.41666667 2:0.41666667 3:0.39465409 4:0.30191548 5:0.62152778 18:1 51:1 54:1 76:1 153:1 253:1 
0.1550270086106057 1:0.5 2:0.5 3:0.24371069 4:0.41897233 5:0.58828777 13:1 19:1 122:1 243:1 
0.2105376211305397 1:0.5 2:0.5 3:0.42348008 4:0.63115146 5:0.67656334 47:1 167:1 204:1 257:1 
1.906912168429484 1:0.58333333 2:0.58333333 3:0.27358491 4:0.41137124 5:0.84963768 81:1 91:1 205:1 256:1 
0.2740271921838136 1:0.5 2:0.5 3:0.65408805 4:0.44481605 5:0.68478261 64:1 161:1 166:1 256:1 
0.5754521176640103 1:0.5 2:0.5 3:0.44339623 4:0.43924192 5:0.71533267 76:1 162:1 191:1 
0.4352293495236785 1:0.5 2:0.5 3:0.6509434 4:0.50613155 5:0.66038098 41:1 75:1 137:1 
1.032488859076894 1:0.5 2:0.5 3:0.54716981 4:0.43924192 5:0.79776021 40:1 76:1 191:1 248:1 
2 1:0.66666667 2:0.66666667 3:0.34884926 4:0.61352657 5:0.48425307 120:1 130:1 237:1 
2 1:0.25 2:0.25 3:0.29725257 4:0.69565217 5:0.55585749 12:1 87:1 93:1 192:1 208:1 255:1 
2 1:0.16666667 2:0.16666667 3:0.38125975 4:0.52657005 5:0.43931159 12:1 76:1 183:1 208:1 255:1 
0.5277602345929677 1:0.5 2:0.5 3:0.27419177 4:0.91304348 5:0.57769726 12:1 19:1 39:1 93:1 192:1 225:1 255:1 
2 1:0.41666667 2:0.41666667 3:0.46410421 4:0.62318841 5:0.56319267 12:1 20:1 41:1 88:1 93:1 219:1 255:1 
2 1:0.25 2:0.25 3:0.43561735 4:0.58695652 5:0.54317633 12:1 20:1 40:1 87:1 243:1 255:1 
2 1:0.33333333 2:0.33333333 3:0.28860477 4:0.54037267 5:0.43591486 12:1 18:1 76:1 192:1 225:1 255:1 
2 1:0.66666667 2:0.66666667 3:0.36643496 4:0.62318841 5:0.54528986 12:1 18:1 41:1 95:1 127:1 225:1 
2 1:0.33333333 2:0.33333333 3:0.35346326 4:0.54037267 5:0.46365489 14:1 75:1 111:1 126:1 255:1 
2 1:0.25 2:0.25 3:0.36643496 4:0.47826087 5:0.60235507 14:1 64:1 95:1 123:1 160:1 256:1 
0.03712501182341816 1:0.5 2:0.5 3:0.33184376 4:0.56521739 5:0.49667874 14:1 41:1 160:1 192:1 225:1 
0.9876259513314011 1:0.33333333 2:0.33333333 3:0.35346326 4:0.29192547 5:0.64858847 14:1 40:1 64:1 76:1 93:1 256:1 
2 1:0.41666667 2:0.41666667 3:0.34201764 4:0.47826087 5:0.60235507 14:1 19:1 39:1 75:1 88:1 93:1 256:1 
1.897583485861467 1:0.5 2:0.5 3:0.33184376 4:0.56521739 5:0.49667874 14:1 19:1 39:1 208:1 225:1 255:1 
0.3894259487719237 1:0.66666667 2:0.66666667 3:0.36643496 4:0.62318841 5:0.54528986 14:1 19:1 76:1 93:1 226:1 255:1 
2 1:0.83333333 2:0.83333333 3:0.34756703 4:0.043478261 5:0.62252964 14:1 19:1 76:1 93:1 128:1 225:1 
2 1:0.58333333 2:0.58333333 3:0.32274081 4:0.69565217 5:0.55897216 14:1 19:1 41:1 93:1 192:1 207:1 
0.07455745958331098 1:0.66666667 2:0.66666667 3:0.36643496 4:0.62318841 5:0.54528986 14:1 19:1 41:1 93:1 148:1 225:1 255:1 
2 1:0.58333333 2:0.58333333 3:0.43197617 4:0.47826087 5:0.60235507 14:1 19:1 41:1 113:1 183:1 
0.1799817849476584 1:0.41666667 2:0.41666667 3:0.28097436 4:0.47826087 5:0.60235507 14:1 19:1 40:1 63:1 93:1 192:1 256:1 
0.7389752777758226 1:0.5 2:0.5 3:0.33184376 4:0.56521739 5:0.49667874 14:1 19:1 40:1 93:1 111:1 219:1 
2 1:0.5 2:0.5 3:0.33184376 4:0.39130435 5:0.7080314 14:1 18:1 39:1 93:1 111:1 126:1 
2 1:0.33333333 2:0.33333333 3:0.35346326 4:0.54037267 5:0.46365489 14:1 18:1 39:1 207:1 257:1 276:1 
2 1:0.33333333 2:0.33333333 3:0.35346326 4:0.66459627 5:0.55612168 14:1 18:1 111:1 219:1 227:1 255:1 
0.9534811887743202 1:0.41666667 2:0.41666667 3:0.28097436 4:0.33333333 5:0.67508525 14:1 18:1 76:1 93:1 192:1 256:1 
1.463629448372234 1:0.33333333 2:0.33333333 3:0.35346326 4:0.66459627 5:0.55612168 87:1 93:1 124:1 192:1 255:1 
1.234736636356709 1:0.25 2:0.25 3:0.36643496 4:0.47826087 5:0.60235507 112:1 192:1 243:1 256:1 
1.024552899183083 1:0.25 2:0.25 3:0.36643496 4:0.58695652 5:0.52626812 88:1 95:1 192:1 208:1 255:1 
0.447768077333566 1:0.58333333 2:0.58333333 3:0.48659384 4:0.47826087 5:0.60235507 19:1 51:1 65:1 93:1 112:1 257:1 
2 1:0.41666667 2:0.41666667 3:0.46410421 4:0.33333333 5:0.64151748 19:1 40:1 53:1 64:1 88:1 93:1 255:1 
1.019898245254955 1:0.41666667 2:0.41666667 3:0.46410421 4:0.33333333 5:0.64151748 20:1 75:1 160:1 208:1 
1.94025028967033 1:0.5 2:0.5 3:0.38949575 4:0.39130435 5:0.69041868 20:1 87:1 93:1 244:1 265:1 
1.057479928295653 1:0.33333333 2:0.33333333 3:0.41832175 4:0.41614907 5:0.71331522 20:1 76:1 160:1 192:1 255:1 
2 1:0.41666667 2:0.41666667 3:0.40306093 4:0.47826087 5:0.60235507 20:1 52:1 75:1 93:1 192:1 256:1 
1.978775855412662 1:0.75 2:0.75 3:0.50479974 4:0.043478261 5:0.61292271 20:1 52:1 128:1 225:1 257:1 
2 1:0.58333333 2:0.58333333 3:0.48659384 4:0.26086957 5:0.6257151 20:1 41:1 88:1 93:1 172:1 225:1 256:1 
1.577488549057601 1:0.5 2:0.5 3:0.44714774 4:0.2173913 5:0.6258387 18:1 76:1 93:1 244:1 257:1 
2 1:0.083333333 2:0.083333333 3:0.31853945 4:0.56521739 5:0.49261427 13:1 39:1 51:1 64:1 192:1 255:1 
2 1:0.33333333 2:0.33333333 3:0.35346326 4:0.66459627 5:0.55612168 13:1 41:1 192:1 227:1 255:1 
2 1:0.58333333 2:0.58333333 3:0.37735849 4:0.69565217 5:0.56564645 13:1 19:1 63:1 93:1 227:1 257:1 
0.2944890949290817 1:0.58333333 2:0.58333333 3:0.37735849 4:0.26086957 5:0.63906369 13:1 19:1 75:1 93:1 128:1 256:1 
2 1:0.66666667 2:0.66666667 3:0.26266137 4:0.33333333 5:0.67844203 13:1 19:1 194:1 209:1 225:1 266:1 
2 1:0.25 2:0.25 3:0.36643496 4:0.15217391 5:0.62771739 13:1 19:1 52:1 88:1 160:1 256:1 
0.1934511101122504 1:0.5 2:0.5 3:0.33184376 4:0.2173913 5:0.63758052 13:1 19:1 40:1 225:1 244:1 
2 1:0.5 2:0.5 3:0.44714774 4:0.2173913 5:0.6258387 13:1 20:1 41:1 128:1 192:1 256:1 
0.2219490196182291 1:0.25 2:0.25 3:0.36643496 4:0.26086957 5:0.64039855 13:1 18:1 88:1 183:1 256:1 
2 1:0.41666667 2:0.41666667 3:0.40306093 4:0.043478261 5:0.61913896 13:1 18:1 52:1 126:1 257:1 
2 1:0.25 2:0.25 3:0.29725257 4:0.47826087 5:0.60235507 13:1 18:1 40:1 93:1 192:1 207:1 255:1 
0.8685238584829694 1:0.33333333 2:0.33333333 3:0.20174165 4:0.43143813 5:0.5901752 12:1 45:1 84:1 144:1 162:1 253:1 
2 1:0.25 2:0.25 3:0.27092404 4:0.37888199 5:0.59950994 12:1 86:1 123:1 216:1 222:1 253:1 
2 1:0.66666667 2:0.66666667 3:0.32034004 4:0.46859903 5:0.59848553 12:1 86:1 92:1 164:1 
1.595630528835951 1:0.25 2:0.25 3:0.38622803 4:0.37888199 5:0.61183885 12:1 76:1 123:1 235:1 252:1 265:1 
0.6574814435882668 1:0.41666667 2:0.41666667 3:0.42815675 4:0.49275362 5:0.60522607 12:1 20:1 75:1 216:1 236:1 252:1 
0.7809970609233027 1:0.41666667 2:0.41666667 3:0.2394775 4:0.34782609 5:0.59830907 12:1 20:1 37:1 84:1 223:1 253:1 
0.09702420435009301 1:0.5 2:0.5 3:0.35740203 4:0.40711462 5:0.605926 12:1 20:1 37:1 84:1 164:1 
2 1:0.41666667 2:0.41666667 3:0.2394775 4:0.34782609 5:0.59830907 12:1 18:1 84:1 146:1 200:1 253:1 
2 1:0.33333333 2:0.33333333 3:0.40928882 4:0.36454849 5:0.61634267 14:1 76:1 124:1 216:1 
0.7300608936348618 1:0.5 2:0.5 3:0.09796807 4:0.40711462 5:0.58101658 14:1 19:1 38:1 84:1 234:1 264:1 
2 1:0.58333333 2:0.58333333 3:0.21770682 4:0.39130435 5:0.59321001 14:1 20:1 38:1 216:1 236:1 253:1 
2 1:0.41666667 2:0.41666667 3:0.42815675 4:0.49275362 5:0.60522607 36:1 46:1 64:1 75:1 266:1 
2 1:0.33333333 2:0.33333333 3:0.40928882 4:0.49832776 5:0.60349682 36:1 75:1 144:1 188:1 252:1 
2 1:0.41666667 2:0.41666667 3:0.52249637 4:0.49275362 5:0.61214307 47:1 65:1 75:1 222:1 264:1 
0.5056574587998865 1:0.58333333 2:0.58333333 3:0.37735849 4:0.56521739 5:0.59808737 45:1 63:1 144:1 152:1 
2 1:0.41666667 2:0.41666667 3:0.14513788 4:0.49275362 5:0.58447508 45:1 84:1 146:1 180:1 253:1 
2 1:0.66666667 2:0.66666667 3:0.39446403 4:0.46859903 5:0.60430851 45:1 76:1 128:1 200:1 252:1 
2 1:0.41666667 2:0.41666667 3:0.52249637 4:0.56521739 5:0.60695532 46:1 75:1 123:1 128:1 144:1 252:1 
2 1:0.41666667 2:0.41666667 3:0.33381713 4:0.56521739 5:0.59542699 46:1 84:1 180:1 188:1 216:1 252:1 
1.304367614408923 1:0.33333333 2:0.33333333 3:0.30551524 4:0.43143813 5:0.59933381 63:1 84:1 162:1 216:1 254:1 
1.483521011722616 1:0.41666667 2:0.41666667 3:0.61683599 4:0.49275362 5:0.61906006 63:1 77:1 125:1 252:1 
0.1986945984059266 1:0.5 2:0.5 3:0.35740203 4:0.40711462 5:0.605926 75:1 182:1 186:1 
1.671951211274397 1:0.58333333 2:0.58333333 3:0.37735849 4:0.47826087 5:0.60235507 86:1 125:1 236:1 252:1 
0.320930838270804 1:0.33333333 2:0.33333333 3:0.40928882 4:0.43143813 5:0.60849243 85:1 123:1 144:1 236:1 252:1 
2 1:0.33333333 2:0.33333333 3:0.40928882 4:0.36454849 5:0.61634267 76:1 84:1 152:1 217:1 252:1 
2 1:0.16666667 2:0.16666667 3:0.48711901 4:0.39130435 5:0.62064521 64:1 75:1 180:1 216:1 253:1 
2 1:0.41666667 2:0.41666667 3:0.42815675 4:0.42028986 5:0.61127844 64:1 84:1 164:1 180:1 200:1 216:1 
2 1:0.25 2:0.25 3:0.38622803 4:0.31677019 5:0.62211293 13:1 18:1 36:1 123:1 222:1 252:1 
0.4434363558816783 1:0.5 2:0.5 3:0.40406493 4:0.64389234 5:0.61359095 12:1 47:1 63:1 116:1 
2 1:0.58333333 2:0.58333333 3:0.49944506 4:0.33333333 5:0.61913896 40:1 46:1 101:1 116:1 253:1 
1.339708778037059 1:0.66666667 2:0.66666667 3:0.46892342 4:0.5942029 5:0.61913896 29:1 45:1 65:1 116:1 264:1 
2 1:0.41666667 2:0.41666667 3:0.2785265 4:0.56609574 5:0.44535024 12:1 24:1 30:1 76:1 105:1 251:1 
2 1:0.33333333 2:0.33333333 3:0.30997305 4:0.38164251 5:0.58753294 12:1 26:1 30:1 42:1 75:1 88:1 
0.7650788882139038 1:0.75 2:0.75 3:0.38662399 4:0.71290545 5:0.55234752 12:1 44:1 58:1 105:1 251:1 
0.004046947429644313 1:0.75 2:0.75 3:0.38662399 4:0.34023464 5:0.57084088 12:1 32:1 44:1 211:1 
2 1:0.58333333 2:0.58333333 3:0.3032345 4:0.57487923 5:0.48007246 12:1 30:1 42:1 57:1 107:1 251:1 
0.9544090223173001 1:0.66666667 2:0.66666667 3:0.20934412 4:0.4178744 5:0.62077295 14:1 26:1 43:1 100:1 249:1 
2 1:0.75 2:0.75 3:0.19204852 4:0.34023464 5:0.59858092 14:1 25:1 31:1 43:1 117:1 
2 1:0.66666667 2:0.66666667 3:0.34770889 4:0.4178744 5:0.58695652 57:1 105:1 210:1 232:1 
2 1:0.66666667 2:0.66666667 3:0.48607367 4:0.6352657 5:0.57004831 32:1 58:1 76:1 107:1 251:1 
1.960784583848102 1:0.75 2:0.75 3:0.45148248 4:0.34023464 5:0.5615942 32:1 42:1 57:1 89:1 
1.978772779271346 1:0.41666667 2:0.41666667 3:0.36500449 4:0.64514712 5:0.54222021 13:1 100:1 107:1 119:1 251:1 
2 1:0.25 2:0.25 3:0.3114705 4:0.80676329 5:0.7148752 12:1 71:1 120:1 168:1 240:1 
2 1:0.25 2:0.25 3:0.3114705 4:0.61352657 5:0.81270129 12:1 69:1 84:1 100:1 156:1 241:1 
2 1:0.66666667 2:0.66666667 3:0.2802604 4:0.56521739 5:0.69041868 12:1 69:1 109:1 176:1 213:1 
0.02293872122449096 1:0.33333333 2:0.33333333 3:0.3312369 4:0.7826087 5:0.72000805 12:1 108:1 135:1 215:1 254:1 
1.198823657363564 1:0.5 2:0.5 3:0.36379332 4:0.42028986 5:0.64006702 12:1 122:1 136:1 176:1 
0.1793217607170269 1:0.58333333 2:0.58333333 3:0.43501048 4:0.65217391 5:0.79609501 12:1 101:1 176:1 215:1 
1.930684957471043 1:0.16666667 2:0.16666667 3:0.36848895 4:0.73913043 5:0.73309566 12:1 100:1 108:1 143:1 156:1 252:1 
2 1:0.25 2:0.25 3:0.38559449 4:0.61352657 5:0.85346216 12:1 100:1 109:1 120:1 143:1 
2 1:0.58333333 2:0.58333333 3:0.3197065 4:0.65217391 5:0.76086957 14:1 24:1 41:1 143:1 176:1 254:1 
1.924807234933012 1:0.5 2:0.5 3:0.30275003 4:0.42028986 5:0.65125628 24:1 110:1 121:1 176:1 
1.172304648457408 1:0.58333333 2:0.58333333 3:0.43501048 4:0.47826087 5:0.58474235 24:1 41:1 44:1 176:1 252:1 
0.6077293199421103 1:0.66666667 2:0.66666667 3:0.22564272 4:1 5:0.69876155 26:1 69:1 143:1 213:1 252:1 
2 1:0.66666667 2:0.66666667 3:0.33487808 4:0.34782609 5:0.66038435 26:1 101:1 122:1 176:1 
0.9299568286027068 1:0.5 2:0.5 3:0.36379332 4:0.71014493 5:0.74077034 39:1 70:1 141:1 241:1 252:1 
2 1:0.33333333 2:0.33333333 3:0.40041929 4:0.67391304 5:0.76650564 71:1 101:1 168:1 240:1 253:1 
2 1:0.58333333 2:0.58333333 3:0.43501048 4:0.47826087 5:0.58474235 71:1 85:1 101:1 176:1 
2 1:0.5 2:0.5 3:0.30275003 4:0.56521739 5:0.69041868 69:1 84:1 101:1 122:1 241:1 
0.4955922468649176 1:0.58333333 2:0.58333333 3:0.26205451 4:0.65217391 5:0.74325684 69:1 99:1 141:1 242:1 253:1 
0.9640944006886827 1:0.41666667 2:0.41666667 3:0.34853249 4:0.50310559 5:0.57945853 69:1 85:1 100:1 168:1 
2 1:0.58333333 2:0.58333333 3:0.37735849 4:0.65217391 5:0.77848229 70:1 86:1 101:1 122:1 136:1 142:1 252:1 
2 1:0.25 2:0.25 3:0.45971848 4:0.80676329 5:0.73117955 99:1 120:1 135:1 143:1 252:1 
2 1:0.33333333 2:0.33333333 3:0.3312369 4:0.67391304 5:0.74959742 99:1 120:1 141:1 156:1 253:1 
2 1:0.58333333 2:0.58333333 3:0.26205451 4:0.65217391 5:0.74325684 99:1 170:1 213:1 254:1 
2 1:0.16666667 2:0.16666667 3:0.28866312 4:0.65217391 5:0.75138579 108:1 120:1 192:1 240:1 253:1 
2 1:0.5 2:0.5 3:0.36379332 4:0.71014493 5:0.74077034 108:1 143:1 176:1 204:1 
0.8857814106457942 1:0.5 2:0.5 3:0.30275003 4:0.56521739 5:0.69041868 110:1 120:1 176:1 240:1 
1.095545443462403 1:0.58333333 2:0.58333333 3:0.26205451 4:0.82608696 5:0.7080314 141:1 156:1 214:1 228:1 254:1 
2 1:0.33333333 2:0.33333333 3:0.46960168 4:0.56521739 5:0.69041868 101:1 120:1 135:1 229:1 
0.7644492076768583 1:0.58333333 2:0.58333333 3:0.37735849 4:0.47826087 5:0.60235507 101:1 176:1 242:1 252:1 
0.1832292210838606 1:0.33333333 2:0.33333333 3:0.40041929 4:0.56521739 5:0.69041868 101:1 121:1 168:1 252:1 
1.066113669467406 1:0.5 2:0.5 3:0.4248366 4:0.27536232 5:0.65964822 85:1 136:1 176:1 
0.9605561354539123 1:0.58333333 2:0.58333333 3:0.43501048 4:0.65217391 5:0.79609501 65:1 70:1 215:1 253:1 
0.5302410376149261 1:0.5 2:0.5 3:0.4248366 4:0.56521739 5:0.69041868 65:1 86:1 135:1 
2 1:0.5 2:0.5 3:0.4248366 4:0.56521739 5:0.69041868 64:1 70:1 86:1 101:1 122:1 136:1 142:1 252:1 
0.4463545977831744 1:0.33333333 2:0.33333333 3:0.40041929 4:0.23913043 5:0.66505636 64:1 109:1 174:1 253:1 
1.42404684065979 1:0.41666667 2:0.41666667 3:0.283674 4:0.50310559 5:0.60719857 43:1 204:1 228:1 241:1 
1.790617400435126 1:0.58333333 2:0.58333333 3:0.3197065 4:0.65217391 5:0.76086957 44:1 71:1 215:1 253:1 278:1 
2 1:0.75 2:0.75 3:0.2966457 4:0.42028986 5:0.6523752 44:1 141:1 158:1 214:1 253:1 
1.503531272395825 1:0.41666667 2:0.41666667 3:0.34853249 4:0.50310559 5:0.57945853 42:1 99:1 141:1 156:1 253:1 
0.5496344800996267 1:0.58333333 2:0.58333333 3:0.3197065 4:0.47826087 5:0.61996779 42:1 100:1 141:1 215:1 254:1 
2 1:0.41666667 2:0.41666667 3:0.41339099 4:0.50310559 5:0.5517185 41:1 43:1 63:1 192:1 253:1 
1.706599309344633 1:0.58333333 2:0.58333333 3:0.37735849 4:0.65217391 5:0.77848229 40:1 71:1 176:1 215:1 254:1 
0.1599540037372325 1:0.41666667 2:0.41666667 3:0.21881551 4:0.50310559 5:0.63493861 25:1 170:1 204:1 254:1 
2 1:0.41666667 2:0.41666667 3:0.283674 4:0.50310559 5:0.60719857 13:1 24:1 141:1 176:1 192:1 253:1 
0.870565719742559 1:0.58333333 2:0.58333333 3:0.26205451 4:0.47826087 5:0.63758052 13:1 69:1 176:1 206:1 252:1 
0.6667632791331092 1:0.41666667 2:0.41666667 3:0.34853249 4:0.62732919 5:0.80137882 13:1 42:1 143:1 215:1 252:1 
1.420508877814689 1:0.41666667 2:0.41666667 3:0.41339099 4:0.62732919 5:0.82911886 13:1 41:1 204:1 214:1 252:1 
0.2074256641820409 1:0.75 2:0.75 3:0.24563351 4:0.84057971 5:0.65152892 14:1 117:1 131:1 249:1 
2 1:0.41666667 2:0.41666667 3:0.47502775 4:0.4057971 5:0.603474 25:1 40:1 53:1 100:1 249:1 
2 1:0.25 2:0.25 3:0.50943396 4:0.51449275 5:0.62022398 12:1 24:1 39:1 52:1 63:1 236:1 
0.3309923097674056 1:0.25 2:0.25 3:0.41509434 4:0.58695652 5:0.59428524 12:1 24:1 51:1 63:1 229:1 250:1 
2 1:0.41666667 2:0.41666667 3:0.31349782 4:0.54347826 5:0.58308946 12:1 26:1 40:1 195:1 206:1 250:1 
0.9394047778319655 1:0.41666667 2:0.41666667 3:0.47314949 4:0.7173913 5:0.59223453 12:1 39:1 195:1 215:1 250:1 
1.760057338171015 1:0.25 2:0.25 3:0.32075472 4:0.44202899 5:0.59428524 12:1 25:1 40:1 64:1 235:1 251:1 264:1 
2 1:0.58333333 2:0.58333333 3:0.37735849 4:0.69565217 5:0.58544686 14:1 24:1 41:1 119:1 236:1 251:1 
2 1:0.41666667 2:0.41666667 3:0.31349782 4:0.54347826 5:0.58308946 14:1 26:1 51:1 64:1 68:1 204:1 251:1 
2 1:0.25 2:0.25 3:0.41509434 4:0.58695652 5:0.59428524 14:1 26:1 40:1 51:1 63:1 195:1 251:1 
2 1:0.58333333 2:0.58333333 3:0.37735849 4:0.47826087 5:0.60235507 14:1 25:1 53:1 65:1 158:1 250:1 
2 1:0.41666667 2:0.41666667 3:0.63280116 4:0.54347826 5:0.63186315 24:1 39:1 53:1 65:1 196:1 250:1 
2 1:0.66666667 2:0.66666667 3:0.40330189 4:0.68012422 5:0.58808877 24:1 51:1 117:1 140:1 250:1 
2 1:0.33333333 2:0.33333333 3:0.36006289 4:0.72529644 5:0.58345075 24:1 111:1 204:1 215:1 228:1 250:1 
2 1:0.5 2:0.5 3:0.27358491 4:0.4178744 5:0.57699275 13:1 26:1 40:1 175:1 204:1 250:1 
2 1:0.41666667 2:0.41666667 3:0.23367199 4:0.63043478 5:0.57292828 13:1 25:1 119:1 132:1 213:1 251:1 
2 1:0.41666667 2:0.41666667 3:0.23367199 4:0.43478261 5:0.5835772 14:1 24:1 36:1 44:1 174:1 252:1 
2 1:0.33333333 2:0.33333333 3:0.27358491 4:0.45849802 5:0.58967391 36:1 68:1 85:1 123:1 228:1 254:1 
2 1:0.33333333 2:0.33333333 3:0.36006289 4:0.53754941 5:0.59797705 36:1 44:1 84:1 92:1 111:1 228:1 252:1 
0.6357656321090689 1:0.33333333 2:0.33333333 3:0.27358491 4:0.45849802 5:0.58967391 85:1 228:1 239:1 253:1 
2 1:0.41666667 2:0.41666667 3:0.23367199 4:0.34782609 5:0.57748049 85:1 91:1 220:1 230:1 252:1 
1.516520422128683 1:0.33333333 2:0.33333333 3:0.27358491 4:0.45849802 5:0.58967391 66:1 84:1 91:1 111:1 252:1 276:1 
0.5580716698582275 1:0.16666667 2:0.16666667 3:0.16981132 4:0.36120401 5:0.56219807 13:1 25:1 36:1 42:1 252:1 264:1 
1.583681912429036 1:0.33333333 2:0.33333333 3:0.33245646 4:0.7515528 5:0.73394242 12:1 47:1 60:1 96:1 179:1 246:1 
0.02186269154134308 1:0.41666667 2:0.41666667 3:0.34956199 4:0.42305038 5:0.61597977 12:1 85:1 153:1 208:1 246:1 
0.0477778010296025 1:0.58333333 2:0.58333333 3:0.24764151 4:0.47826087 5:0.62084843 14:1 25:1 46:1 61:1 153:1 
0.5834313747821432 1:0.41666667 2:0.41666667 3:0.34956199 4:0.51966874 5:0.59424064 24:1 46:1 73:1 192:1 246:1 
2 1:0.58333333 2:0.58333333 3:0.3125 4:0.60248447 5:0.53762832 45:1 60:1 72:1 154:1 246:1 
2 1:0.66666667 2:0.66666667 3:0.32776082 4:0.66459627 5:0.64858847 37:1 46:1 108:1 153:1 179:1 248:1 
2 1:0.58333333 2:0.58333333 3:0.37735849 4:0.22981366 5:0.62877415 37:1 46:1 109:1 128:1 246:1 
0.787830820853951 1:0.5 2:0.5 3:0.2952044 4:0.33850932 5:0.62886222 13:1 25:1 46:1 122:1 246:1 
0.5614427408698529 1:0.5 2:0.5 3:0.15683962 4:0.78881988 5:0.63009511 12:1 24:1 36:1 213:1 249:1 266:1 
0.4852603326798243 1:0.16666667 2:0.16666667 3:0.28891509 4:0.78881988 5:0.63009511 12:1 24:1 60:1 72:1 120:1 
1.815304636101166 1:0.16666667 2:0.16666667 3:0.38325472 4:0.78881988 5:0.63009511 12:1 24:1 96:1 108:1 208:1 251:1 
1.877218364078649 1:0.41666667 2:0.41666667 3:0.27543801 4:0.93374741 5:0.67085598 12:1 24:1 96:1 155:1 165:1 251:1 
2 1:0.5 2:0.5 3:0.2952044 4:0.68012422 5:0.57091636 12:1 38:1 72:1 153:1 244:1 250:1 
1.398900962244272 1:0.25 2:0.25 3:0.22602201 4:0.82834557 5:0.74633907 12:1 60:1 96:1 120:1 153:1 276:1 
0.7189777202108928 1:0.5 2:0.5 3:0.2952044 4:0.78881988 5:0.63009511 12:1 62:1 179:1 207:1 249:1 
2 1:0.66666667 2:0.66666667 3:0.14463097 4:0.78881988 5:0.63009511 14:1 26:1 38:1 46:1 120:1 153:1 251:1 
2 1:0.58333333 2:0.58333333 3:0.24764151 4:0.60248447 5:0.60235507 14:1 25:1 46:1 61:1 153:1 251:1 
2 1:0.33333333 2:0.33333333 3:0.41228229 4:0.70186335 5:0.52035431 24:1 97:1 231:1 251:1 
0.08649558853819551 1:0.58333333 2:0.58333333 3:0.3125 4:0.85093168 5:0.74105525 36:1 46:1 72:1 165:1 251:1 
1.75951843987023 1:0.41666667 2:0.41666667 3:0.42368598 4:0.7405107 5:0.42629076 47:1 108:1 208:1 251:1 
2 1:0.66666667 2:0.66666667 3:0.32776082 4:0.78881988 5:0.63009511 47:1 122:1 154:1 251:1 
0.1984705392335923 1:0.58333333 2:0.58333333 3:0.3125 4:0.72670807 5:0.51913496 45:1 60:1 72:1 154:1 
2 1:0.58333333 2:0.58333333 3:0.3125 4:0.97515528 5:0.66708182 45:1 60:1 84:1 179:1 215:1 250:1 
2 1:0.75 2:0.75 3:0.39897799 4:0.8757764 5:0.73577144 46:1 60:1 154:1 166:1 251:1 
2 1:0.33333333 2:0.33333333 3:0.33245646 4:0.96273292 5:0.67277209 72:1 144:1 167:1 179:1 192:1 251:1 
1.425181655282605 1:0.66666667 2:0.66666667 3:0.32776082 4:0.78881988 5:0.63009511 37:1 46:1 108:1 153:1 179:1 250:1 
0.03367131840566068 1:0.41666667 2:0.41666667 3:0.34956199 4:0.64389234 5:0.57574728 25:1 46:1 97:1 108:1 251:1 
0.9094377557212108 1:0.66666667 2:0.66666667 3:0.47248428 4:0.61801242 5:0.58667975 34:1 112:1 190:1 251:1 
2 1:0.75 2:0.75 3:0.25120237 4:0.36956522 5:0.61076774 86:1 206:1 235:1 250:1 
0.5898097110607229 1:0.66666667 2:0.66666667 3:0.3427673 4:0.49378882 5:0.60517311 101:1 206:1 235:1 251:1 
1.080275023902759 1:0.5 2:0.5 3:0.56513926 4:0.56280193 5:0.58071659 53:1 99:1 112:1 250:1 
0.1632131090761758 1:0.58333333 2:0.58333333 3:0.51572327 4:0.58695652 5:0.58403784 53:1 112:1 191:1 250:1 
0.8629751930542187 1:0.58333333 2:0.58333333 3:0.37735849 4:0.76811594 5:0.89583333 12:1 34:1 179:1 207:1 249:1 
1.252486381011769 1:0.33333333 2:0.33333333 3:0.45148248 4:0.79227053 5:0.84148551 12:1 96:1 155:1 207:1 251:1 
0.4127842153187898 1:0.41666667 2:0.41666667 3:0.45148248 4:0.5221783 5:0.58152174 12:1 96:1 102:1 208:1 250:1 
2 1:0.5 2:0.5 3:0.37165665 4:0.4589372 5:0.6065589 14:1 25:1 34:1 208:1 
0.4828878286967003 1:0.5 2:0.5 3:0.45148248 4:0.71980676 5:0.65126812 24:1 155:1 207:1 250:1 
0.3215884595832489 1:0.58333333 2:0.58333333 3:0.3032345 4:0.57487923 5:0.58333333 35:1 50:1 54:1 251:1 
0.4471903081263253 1:0.75 2:0.75 3:0.45148248 4:0.40924776 5:0.60688406 34:1 56:1 208:1 250:1 
0.03904176109285622 1:0.5 2:0.5 3:0.29183081 4:0.54589372 5:0.59639771 72:1 217:1 225:1 241:1 250:1 
2 1:0.58333333 2:0.58333333 3:0.37735849 4:0.47826087 5:0.60235507 56:1 72:1 122:1 208:1 250:1 
2 1:0.5 2:0.5 3:0.37165665 4:0.37198068 5:0.6177362 54:1 72:1 82:1 97:1 104:1 217:1 
1.815893074459147 1:0.5 2:0.5 3:0.29183081 4:0.54589372 5:0.59639771 54:1 72:1 242:1 250:1 276:1 
2 1:0.5 2:0.5 3:0.45148248 4:0.28502415 5:0.61956522 54:1 102:1 208:1 
2 1:0.33333333 2:0.33333333 3:0.45148248 4:0.647343 5:0.46105072 13:1 155:1 207:1 216:1 
2 1:0.58333333 2:0.58333333 3:0.3032345 4:0.57487923 5:0.58333333 13:1 56:1 129:1 144:1 251:1 
2 1:0.41666667 2:0.41666667 3:0.45148248 4:0.44312692 5:0.60144928 13:1 54:1 83:1 102:1 131:1 208:1 
0.9648223083866012 1:0.58333333 2:0.58333333 3:0.45718433 4:0.47826087 5:0.60235507 63:1 164:1 198:1 251:1 
2 1:0.66666667 2:0.66666667 3:0.18919759 4:0.42995169 5:0.68387681 127:1 157:1 163:1 249:1 264:1 
0.8524099772766447 1:0.75 2:0.75 3:0.37203677 4:0.47826087 5:0.60235507 128:1 142:1 162:1 249:1 264:1 
2 1:0.75 2:0.75 3:0.2908805 4:0.61812101 5:0.54423309 12:1 57:1 129:1 227:1 248:1 
1.332168241077388 1:0.5 2:0.5 3:0.55031447 4:0.51648352 5:0.52838164 39:1 75:1 226:1 246:1 
2 1:0.58333333 2:0.58333333 3:0.37735849 4:0.58695652 5:0.58423913 119:1 189:1 239:1 256:1 
1.958345246605971 1:0.5 2:0.5 3:0.45148248 4:0.40153453 5:0.60235507 155:1 174:1 198:1 256:1 
2 1:0.66666667 2:0.66666667 3:0.58119946 4:0.44927536 5:0.4834692 54:1 130:1 238:1 256:1 
2 1:0.75 2:0.75 3:0.50913447 4:0.41614907 5:0.57769726 54:1 103:1 166:1 257:1 
1.509032135545216 1:0.58333333 2:0.58333333 3:0.52560647 4:0.47826087 5:0.60235507 25:1 166:1 238:1 256:1 
0.02693352547339061 1:0.91666667 2:0.91666667 3:0.24764151 4:0.62507058 5:0.30910326 9:1 57:1 176:1 250:1 
2 1:0.66666667 2:0.66666667 3:0.37735849 4:0.61264822 5:0.33288043 10:1 24:1 44:1 59:1 73:1 92:1 251:1 
1.513357391559802 1:0.66666667 2:0.66666667 3:0.21770682 4:0.61264822 5:0.30849359 26:1 38:1 239:1 250:1 
2 1:0.58333333 2:0.58333333 3:0.20440252 4:0.47826087 5:0.48611111 26:1 37:1 43:1 59:1 
-2 1:0.33333333 2:0.33333333 3:0.36006289 4:0.41897233 5:0.59767512 49:1 100:1 120:1 176:1 244:1 
-0.7050070220213613 1:0.75 2:0.75 3:0.2467344 4:0.55072464 5:0.59033901 19:1 32:1 47:1 104:1 122:1 192:1 
-2 1:0.58333333 2:0.58333333 3:0.67385445 4:0.42391304 5:0.49365942 24:1 32:1 53:1 166:1 222:1 256:1 
-0.04327230965787077 1:0.41666667 2:0.41666667 3:0.60232221 4:0.43478261 5:0.63391017 20:1 39:1 63:1 106:1 204:1 220:1 246:1 
-0.1753096408600876 1:0.41666667 2:0.41666667 3:0.29350105 4:0.4057971 5:0.5504776 14:1 18:1 76:1 121:1 156:1 203:1 248:1 
-1.502249860527737 1:0.66666667 2:0.66666667 3:0.25096759 4:0.20158103 5:0.59405193 18:1 32:1 78:1 90:1 122:1 153:1 253:1 
-0.1302282462083787 1:0.5 2:0.5 3:0.33805031 4:0.41897233 5:0.5998161 13:1 92:1 155:1 213:1 229:1 245:1 253:1 
-0.1788649542859575 1:0.41666667 2:0.41666667 3:0.56603774 4:0.30227743 5:0.65211902 6:1 18:1 46:1 66:1 208:1 231:1 252:1 
-1.386201842102189 1:0.33333333 2:0.33333333 3:0.35714286 4:0.42995169 5:0.61236001 12:1 54:1 102:1 120:1 170:1 208:1 
-2 1:0.41666667 2:0.41666667 3:0.55525606 4:0.52657005 5:0.65942029 87:1 155:1 191:1 198:1 256:1 
-0.9733446510496422 1:0.5 2:0.5 3:0.36379332 4:0.71014493 5:0.74077034 39:1 43:1 69:1 99:1 143:1 205:1 
-0.7726141103298397 1:0.33333333 2:0.33333333 3:0.26280323 4:0.50241546 5:0.61091897 25:1 56:1 73:1 120:1 146:1 216:1 
-0.8353237887965107 1:0.33333333 2:0.33333333 3:0.34853249 4:0.20158103 5:0.59405193 19:1 52:1 54:1 78:1 121:1 135:1 253:1 
-1.243442940146812 1:0.66666667 2:0.66666667 3:0.33666297 4:0.36231884 5:0.62390476 51:1 56:1 117:1 181:1 188:1 218:1 
-0.7257837903451654 1:0.58333333 2:0.58333333 3:0.3197065 4:1 5:0.70450886 26:1 70:1 99:1 135:1 141:1 213:1 252:1 
-0.2581681764081643 1:0.41666667 2:0.41666667 3:0.27543801 4:0.51966874 5:0.6078276 25:1 61:1 84:1 122:1 209:1 213:1 
-1.314745530697079 1:0.58333333 2:0.58333333 3:0.37735849 4:0.57487923 5:0.56974638 14:1 102:1 131:1 178:1 208:1 251:1 
-2 1:0.58333333 2:0.58333333 3:0.46383648 4:0.55731225 5:0.60696793 53:1 56:1 135:1 155:1 182:1 
-0.6068470646534366 1:0.66666667 2:0.66666667 3:0.2802604 4:0.13043478 5:0.67873866 42:1 137:1 175:1 206:1 242:1 
-0.1066857764254566 1:0.25 2:0.25 3:0.50479974 4:0.15217391 5:0.61644525 18:1 41:1 88:1 126:1 171:1 220:1 256:1 
-0.1748767982864948 1:0.58333333 2:0.58333333 3:0.37735849 4:0.4057971 5:0.57641634 7:1 56:1 91:1 112:1 148:1 203:1 252:1 
-1.611262985406736 1:0.41666667 2:0.41666667 3:0.45148248 4:0.72419851 5:0.5615942 12:1 32:1 59:1 87:1 143:1 208:1 251:1 
-0.8417388550569529 1:0.75 2:0.75 3:0.40638607 4:0.37681159 5:0.61472585 19:1 60:1 68:1 162:1 209:1 212:1 
-1.111339732485131 1:0.33333333 2:0.33333333 3:0.37735849 4:0.40485601 5:0.616093 23:1 36:1 114:1 162:1 216:1 241:1 257:1 
-2 1:0.41666667 2:0.41666667 3:0.17819706 4:0.4057971 5:0.5504776 12:1 85:1 121:1 189:1 246:1 
-2 1:0.41666667 2:0.41666667 3:0.30285438 4:0.7173913 5:0.61736653 12:1 111:1 121:1 158:1 214:1 251:1 
-1.864797076426279 1:0.5 2:0.5 3:0.42314095 4:0.93374741 5:0.66370951 12:1 99:1 106:1 118:1 168:1 251:1 
-0.5885411904595462 1:0.33333333 2:0.33333333 3:0.59973046 4:0.63294314 5:0.71105072 12:1 59:1 76:1 147:1 219:1 226:1 
-1.613719203197802 1:0.25 2:0.25 3:0.36643496 4:0.15217391 5:0.62771739 14:1 64:1 88:1 126:1 172:1 244:1 
-2 1:0.5 2:0.5 3:0.33184376 4:0.56521739 5:0.49667874 14:1 19:1 76:1 93:1 207:1 219:1 
-1.609878868272621 1:0.41666667 2:0.41666667 3:0.46410421 4:0.33333333 5:0.64151748 14:1 41:1 88:1 127:1 159:1 173:1 256:1 
-1.422763124633586 1:0.83333333 2:0.83333333 3:0.44276201 4:0.42995169 5:0.59907822 70:1 93:1 137:1 224:1 238:1 253:1 
-2 1:0.41666667 2:0.41666667 3:0.56603774 4:0.42650104 5:0.62252964 6:1 180:1 207:1 233:1 
-0.187613064818247 1:0.58333333 2:0.58333333 3:0.37735849 4:0.67149758 5:0.4067029 12:1 33:1 48:1 54:1 179:1 209:1 250:1 
-0.2933936907791726 1:0.5 2:0.5 3:0.44714774 4:0.2173913 5:0.6258387 19:1 76:1 111:1 127:1 148:1 185:1 
-0.4235864372611403 1:0.75 2:0.75 3:0.2966457 4:0.13043478 5:0.67773752 43:1 101:1 176:1 194:1 206:1 
-0.551575614315496 1:0.33333333 2:0.33333333 3:0.30997305 4:0.52657005 5:0.5615942 12:1 43:1 156:1 174:1 231:1 243:1 
-2 1:0.33333333 2:0.33333333 3:0.35714286 4:0.57487923 5:0.57345191 14:1 54:1 72:1 179:1 208:1 240:1 
-0.4446444319443515 1:0.83333333 2:0.83333333 3:0.25628931 4:0.52766798 5:0.5912339 19:1 31:1 104:1 122:1 155:1 164:1 252:1 
-0.847265856647455 1:0.33333333 2:0.33333333 3:0.38534107 4:0.45150502 5:0.60558343 39:1 65:1 107:1 146:1 229:1 241:1 
-2 1:0.41666667 2:0.41666667 3:0.2394775 4:0.27536232 5:0.60695532 12:1 19:1 37:1 64:1 86:1 164:1 253:1 
-0.07075327968474393 1:0.58333333 2:0.58333333 3:0.45718433 4:0.2173913 5:0.5820327 18:1 42:1 80:1 107:1 220:1 241:1 248:1 
-2 1:0.5 2:0.5 3:0.29183081 4:0.54589372 5:0.59639771 24:1 33:1 54:1 146:1 207:1 
-2 1:0.66666667 2:0.66666667 3:0.45196695 4:0.88405797 5:0.67087201 51:1 56:1 117:1 131:1 243:1 250:1 
-1.414549381048276 1:0.5 2:0.5 3:0.35740203 4:0.48616601 5:0.60039058 20:1 38:1 65:1 123:1 163:1 180:1 252:1 
-1.448158938443742 1:0.33333333 2:0.33333333 3:0.48113208 4:0.61660079 5:0.59859769 17:1 59:1 72:1 132:1 173:1 216:1 
-2 1:0.33333333 2:0.33333333 3:0.40431267 4:0.59903382 5:0.54430171 24:1 57:1 100:1 207:1 232:1 251:1 
-2 1:0.58333333 2:0.58333333 3:0.44654088 4:0.36956522 5:0.63194444 13:1 68:1 84:1 113:1 174:1 190:1 
-0.3512239358423374 1:0.41666667 2:0.41666667 3:0.61084906 4:0.53177258 5:0.72441123 64:1 127:1 183:1 190:1 219:1 255:1 
-1.813329092561382 1:0.58333333 2:0.58333333 3:0.3032345 4:0.67149758 5:0.44746377 12:1 34:1 154:1 217:1 227:1 242:1 
-0.7156042483852184 1:0.33333333 2:0.33333333 3:0.51886792 4:0.36231884 5:0.62829381 20:1 54:1 88:1 90:1 147:1 195:1 252:1 
-2 1:0.58333333 2:0.58333333 3:0.47169811 4:0.55072464 5:0.60408432 47:1 104:1 128:1 192:1 207:1 
-0.8948119302341325 1:0.16666667 2:0.16666667 3:0.61683599 4:0.44927536 5:0.62424781 63:1 75:1 125:1 144:1 198:1 216:1 252:1 
-1.357639583000156 1:0.41666667 2:0.41666667 3:0.47314949 4:0.63043478 5:0.59731512 25:1 40:1 119:1 173:1 204:1 215:1 250:1 
-1.557892148700305 1:0.58333333 2:0.58333333 3:0.24764151 4:0.47826087 5:0.61345109 38:1 126:1 146:1 178:1 192:1 
-1.279918867287013 1:0.75 2:0.75 3:0.35074988 4:0.54347826 5:0.59612288 8:1 20:1 155:1 230:1 240:1 248:1 
-0.3546866106130831 1:0.66666667 2:0.66666667 3:0.34591195 4:0.37285903 5:0.51204985 18:1 54:1 91:1 147:1 166:1 223:1 252:1 
-1.466532289089302 1:0.66666667 2:0.66666667 3:0.40016587 4:0.65217391 5:0.59561966 41:1 106:1 127:1 144:1 153:1 219:1 
-1.088730120920056 1:0.41666667 2:0.41666667 3:0.14263252 4:0.5221783 5:0.63028382 15:1 61:1 175:1 206:1 218:1 252:1 
-2 1:0.66666667 2:0.66666667 3:0.47124888 4:0.61111111 5:0.55948068 17:1 71:1 94:1 119:1 176:1 253:1 
-2 1:0.66666667 2:0.66666667 3:0.22564272 4:0.34782609 5:0.67373294 42:1 71:1 85:1 141:1 158:1 176:1 254:1 
-2 1:0.33333333 2:0.33333333 3:0.40700809 4:0.39046823 5:0.72101449 91:1 160:1 184:1 206:1 220:1 255:1 
-2 1:0.83333333 2:0.83333333 3:0.37735849 4:0.43873518 5:0.25362319 44:1 59:1 92:1 176:1 
-2 1:0.41666667 2:0.41666667 3:0.40306093 4:0.1884058 5:0.6275309 18:1 40:1 127:1 183:1 208:1 225:1 256:1 
-1.292450999343035 1:0.25 2:0.25 3:0.22602201 4:0.62507058 5:0.5323445 36:1 73:1 98:1 109:1 144:1 215:1 
-1.389171949329052 1:0.25 2:0.25 3:0.38622803 4:0.44099379 5:0.60567439 12:1 47:1 63:1 76:1 180:1 223:1 253:1 
-2 1:0.58333333 2:0.58333333 3:0.29753266 4:0.39130435 5:0.60133895 12:1 38:1 76:1 92:1 151:1 
-0.240374769596611 1:0.41666667 2:0.41666667 3:0.54421014 4:0.62318841 5:0.64151748 41:1 51:1 100:1 105:1 168:1 244:1 250:1 
-0.2606772252887621 1:0.33333333 2:0.33333333 3:0.54803873 4:0.66459627 5:0.58386171 41:1 75:1 113:1 183:1 220:1 225:1 255:1 
-0.1816285157107132 1:0.58333333 2:0.58333333 3:0.24764151 4:0.85093168 5:0.6763285 38:1 108:1 155:1 166:1 179:1 194:1 
-0.1909543872964239 1:0.75 2:0.75 3:0.36500449 4:0.24989021 5:0.6348128 19:1 31:1 92:1 138:1 162:1 209:1 252:1 
-2 1:0.41666667 2:0.41666667 3:0.283674 4:0.25465839 5:0.67377466 26:1 40:1 44:1 109:1 170:1 253:1 
-0.1408359808094392 1:0.58333333 2:0.58333333 3:0.25527192 4:0.33333333 5:0.63312553 26:1 54:1 107:1 117:1 169:1 186:1 
-0.3892208874764919 1:0.33333333 2:0.33333333 3:0.39479943 4:0.1884058 5:0.63272592 39:1 64:1 76:1 103:1 234:1 253:1 
-0.5036314650563101 1:0.58333333 2:0.58333333 3:0.45718433 4:0.39130435 5:0.61759685 46:1 65:1 76:1 144:1 187:1 236:1 253:1 
-0.4190492013985514 1:0.33333333 2:0.33333333 3:0.33245646 4:0.78881988 5:0.63009511 37:1 61:1 72:1 166:1 179:1 192:1 251:1 
-1.11713057388083 1:0.75 2:0.75 3:0.37328894 4:0.80434783 5:0.60517311 53:1 71:1 86:1 178:1 213:1 251:1 
-2 1:0.66666667 2:0.66666667 3:0.40016587 4:0.4589372 5:0.60648922 7:1 65:1 155:1 164:1 229:1 
-2 1:0.41666667 2:0.41666667 3:0.40206649 4:0.36407554 5:0.60574342 40:1 136:1 170:1 217:1 224:1 
-1.839119585612087 1:0.33333333 2:0.33333333 3:0.16846361 4:0.647343 5:0.56480567 25:1 33:1 50:1 96:1 192:1 216:1 
-2 1:0.5 2:0.5 3:0.35759209 4:0.4057971 5:0.61352657 15:1 105:1 172:1 194:1 198:1 
-0.5560455939583411 1:0.41666667 2:0.41666667 3:0.55525606 4:0.47826087 5:0.60235507 24:1 51:1 131:1 166:1 198:1 222:1 256:1 
-0.3022942522579171 1:0.33333333 2:0.33333333 3:0.40041929 4:0.56521739 5:0.69041868 14:1 24:1 101:1 109:1 137:1 143:1 253:1 
-0.1572692656304446 1:0.5 2:0.5 3:0.62264151 4:0.50055741 5:0.64477931 56:1 75:1 149:1 166:1 196:1 203:1 253:1 
-1.603872918733948 1:0.33333333 2:0.33333333 3:0.53878407 4:0.45652174 5:0.5805153 24:1 40:1 44:1 101:1 136:1 215:1 253:1 
-2 1:0.41666667 2:0.41666667 3:0.35141509 4:0.58974359 5:0.66100543 13:1 76:1 167:1 191:1 237:1 255:1 
-0.6704375211547295 1:0.41666667 2:0.41666667 3:0.22012579 4:0.42650104 5:0.59294027 60:1 127:1 156:1 164:1 193:1 252:1 
-1.149637258442148 1:0.58333333 2:0.58333333 3:0.2908805 4:0.7944664 5:0.28591318 11:1 24:1 154:1 168:1 237:1 251:1 
-0.340908346668013 1:0.33333333 2:0.33333333 3:0.39465409 4:0.45849802 5:0.60763889 15:1 107:1 115:1 133:1 172:1 228:1 
-0.3940753732969371 1:0.41666667 2:0.41666667 3:0.55525606 4:0.52657005 5:0.65942029 25:1 53:1 69:1 87:1 131:1 220:1 
-2 1:0.5 2:0.5 3:0.30275003 4:0.56521739 5:0.69041868 13:1 101:1 170:1 214:1 240:1 254:1 
-2 1:0.33333333 2:0.33333333 3:0.51306241 4:0.29765886 5:0.64695861 13:1 18:1 76:1 108:1 123:1 200:1 
-0.5072205129364705 1:0.5 2:0.5 3:0.18957772 4:0.70772947 5:0.59334023 33:1 48:1 144:1 204:1 215:1 235:1 
-1.49391303465888 1:0.66666667 2:0.66666667 3:0.3427673 4:0.61801242 5:0.60517311 24:1 34:1 63:1 70:1 206:1 235:1 
-2 1:0.41666667 2:0.41666667 3:0.1048218 4:0.42650104 5:0.58307715 18:1 45:1 61:1 120:1 158:1 252:1 
-0.3924241107618738 1:0.33333333 2:0.33333333 3:0.33245646 4:0.61490683 5:0.58741813 14:1 26:1 37:1 192:1 208:1 243:1 250:1 
-1.000483469457491 1:0.41666667 2:0.41666667 3:0.39332366 4:0.2826087 5:0.54041249 26:1 39:1 52:1 90:1 229:1 236:1 
-1.221232323402297 1:0.33333333 2:0.33333333 3:0.61683599 4:0.49832776 5:0.61848364 46:1 63:1 75:1 108:1 124:1 128:1 252:1 
-0.05712387956654909 1:0.91666667 2:0.91666667 3:0.39383049 4:0.4589372 5:0.60430086 56:1 82:1 104:1 177:1 207:1 250:1 
-0.3783328297265643 1:0.58333333 2:0.58333333 3:0.15498652 4:0.76811594 5:0.77355072 26:1 50:1 177:1 192:1 226:1 240:1 251:1 
-1.10066575838645 1:0.41666667 2:0.41666667 3:0.38461538 4:0.62318841 5:0.61100132 12:1 65:1 111:1 115:1 191:1 217:1 251:1 
-2 1:0.58333333 2:0.58333333 3:0.43840178 4:0.33333333 5:0.61634165 13:1 52:1 118:1 186:1 250:1 
-2 1:0.33333333 2:0.33333333 3:0.37735849 4:0.68718238 5:0.30910326 24:1 36:1 59:1 84:1 204:1 238:1 
-1.99567363828857 1:0.16666667 2:0.16666667 3:0.29596744 4:0.61001318 5:0.60253268 14:1 39:1 75:1 179:1 192:1 219:1 253:1 
-0.3006143865572213 1:0.5 2:0.5 3:0.35849057 4:0.35005574 5:0.61347167 20:1 92:1 120:1 138:1 192:1 210:1 252:1 
-2 1:0.66666667 2:0.66666667 3:0.23584906 4:0.72352285 5:0.57641634 12:1 21:1 93:1 131:1 227:1 
-0.07702105503204693 1:0.5 2:0.5 3:0.64420485 4:0.61111111 5:0.61775362 41:1 51:1 90:1 171:1 197:1 214:1 251:1 
-2 1:0.58333333 2:0.58333333 3:0.63679245 4:0.47826087 5:0.63722826 75:1 111:1 142:1 162:1 200:1 257:1 
-2 1:0.83333333 2:0.83333333 3:0.35740203 4:0.44099379 5:0.60320861 46:1 187:1 224:1 236:1 253:1 
-0.6710619736362528 1:0.5 2:0.5 3:0.38949575 4:0.56521739 5:0.51429147 14:1 20:1 193:1 209:1 225:1 243:1 255:1 
-2 1:0.5 2:0.5 3:0.21200498 4:0.4589372 5:0.6228168 13:1 54:1 81:1 96:1 103:1 216:1 
-2 1:0.5 2:0.5 3:0.36438679 4:0.46273292 5:0.60473279 96:1 121:1 128:1 208:1 213:1 
-2 1:0.33333333 2:0.33333333 3:0.26205451 4:0.56521739 5:0.69041868 25:1 69:1 86:1 99:1 228:1 253:1 
-2 1:0.75 2:0.75 3:0.30410655 4:0.65942029 5:0.57979007 14:1 26:1 91:1 140:1 195:1 215:1 250:1 
-2 1:0.5 2:0.5 3:0.20934412 4:0.69565217 5:0.57729469 31:1 48:1 57:1 72:1 107:1 228:1 
-0.651477633838222 1:0.58333333 2:0.58333333 3:0.28301887 4:0.1884058 5:0.66460804 32:1 122:1 138:1 162:1 234:1 253:1 
-2 1:0.58333333 2:0.58333333 3:0.18867925 4:0.26086957 5:0.55912385 13:1 18:1 42:1 86:1 162:1 225:1 
-1.470828458720648 1:0.16666667 2:0.16666667 3:0.37735849 4:0.49498328 5:0.60144928 24:1 36:1 112:1 123:1 135:1 158:1 
-2 1:0.5 2:0.5 3:0.44714774 4:0.56521739 5:0.53190419 41:1 64:1 128:1 192:1 225:1 255:1 
-0.9392140495033081 1:0.33333333 2:0.33333333 3:0.46020295 4:0.47826087 5:0.58716965 40:1 54:1 101:1 131:1 144:1 169:1 
-2 1:0.41666667 2:0.41666667 3:0.5251475 4:0.47826087 5:0.60235507 41:1 112:1 127:1 183:1 245:1 255:1 
-0.4241534016947802 1:0.33333333 2:0.33333333 3:0.38607896 4:0.47826087 5:0.60075661 54:1 85:1 169:1 216:1 231:1 250:1 
-1.504786034091478 1:0.58333333 2:0.58333333 3:0.3197065 4:0.82608696 5:0.71390231 26:1 41:1 70:1 143:1 204:1 242:1 
-1.108351818875376 1:0.5 2:0.5 3:0.24371069 4:0.41897233 5:0.58828777 12:1 32:1 55:1 75:1 187:1 229:1 252:1 
-2 1:0.5 2:0.5 3:0.39712489 4:0.26086957 5:0.58635266 16:1 122:1 136:1 176:1 222:1 
-0.5632795703391188 1:0.41666667 2:0.41666667 3:0.572697 4:0.44202899 5:0.64450128 39:1 46:1 77:1 88:1 116:1 232:1 252:1 
-0.8251215499647788 1:0.66666667 2:0.66666667 3:0.2952044 4:0.63354037 5:0.71146588 35:1 121:1 141:1 160:1 175:1 201:1 251:1 
-0.9526083776882006 1:0.66666667 2:0.66666667 3:0.29753266 4:0.61264822 5:0.32068701 43:1 120:1 140:1 192:1 238:1 251:1 
-2 1:0.83333333 2:0.83333333 3:0.37735849 4:0.43873518 5:0.25362319 44:1 58:1 128:1 168:1 174:1 250:1 
-0.9013135885510783 1:0.5 2:0.5 3:0.35849057 4:0.41694537 5:0.60562143 46:1 68:1 157:1 192:1 208:1 235:1 252:1 
-2 1:0.41666667 2:0.41666667 3:0.2785265 4:0.36407554 5:0.62543612 14:1 25:1 50:1 102:1 208:1 
-1.087637730914551 1:0.58333333 2:0.58333333 3:0.43501048 4:1 5:0.71155395 39:1 43:1 71:1 101:1 143:1 215:1 
-0.6902634724173112 1:0.5 2:0.5 3:0.42314095 4:0.436853 5:0.60453076 40:1 51:1 55:1 117:1 205:1 233:1 
-0.07548777200589978 1:0.83333333 2:0.83333333 3:0.32067544 4:0.42995169 5:0.61026748 17:1 69:1 85:1 94:1 175:1 189:1 
-0.2174848902239802 1:0.41666667 2:0.41666667 3:0.35558781 4:0.42028986 5:0.59171354 42:1 85:1 91:1 107:1 208:1 219:1 
-1.349144326815525 1:0.41666667 2:0.41666667 3:0.61683599 4:0.49275362 5:0.61906006 36:1 46:1 63:1 75:1 124:1 200:1 
-0.8492536300457315 1:0.83333333 2:0.83333333 3:0.3081761 4:0.65612648 5:0.30857488 10:1 154:1 212:1 228:1 237:1 
-0.366794473561697 1:0.41666667 2:0.41666667 3:0.30285438 4:0.54347826 5:0.60923758 25:1 112:1 172:1 189:1 204:1 213:1 
-0.9258208778953941 1:0.41666667 2:0.41666667 3:0.29350105 4:0.4057971 5:0.5504776 90:1 120:1 138:1 157:1 203:1 
-0.5110722827713552 1:0.5 2:0.5 3:0.36438679 4:0.44720497 5:0.61054499 24:1 46:1 86:1 97:1 154:1 208:1 246:1 
-0.6246873208092143 1:0.25 2:0.25 3:0.23734651 4:0.42028986 5:0.66324477 26:1 100:1 121:1 141:1 192:1 205:1 253:1 
-0.7940850561855526 1:0.41666667 2:0.41666667 3:0.46250605 4:0.7173913 5:0.56859284 14:1 24:1 101:1 112:1 173:1 215:1 251:1 
-2 1:0.5 2:0.5 3:0.48799945 4:0.93374741 5:0.66925751 12:1 99:1 107:1 118:1 233:1 251:1 
-0.3176969628720445 1:0.33333333 2:0.33333333 3:0.3312369 4:0.56521739 5:0.69041868 43:1 101:1 108:1 135:1 206:1 240:1 253:1 
-2 1:0.33333333 2:0.33333333 3:0.40041929 4:0.34782609 5:0.6523752 12:1 100:1 142:1 174:1 205:1 253:1 
-0.7748656222646056 1:0.75 2:0.75 3:0.2467344 4:0.28985507 5:0.60862914 8:1 30:1 127:1 158:1 210:1 
-0.8469920681724112 1:0.66666667 2:0.66666667 3:0.38880411 4:0.4989648 5:0.59932465 26:1 37:1 46:1 109:1 166:1 233:1 250:1 
-0.5151105276971265 1:0.41666667 2:0.41666667 3:0.29350105 4:0.3436853 5:0.52581979 13:1 76:1 84:1 163:1 181:1 226:1 246:1 
-0.3535550004441753 1:0.58333333 2:0.58333333 3:0.37735849 4:0.47826087 5:0.60235507 45:1 87:1 104:1 179:1 232:1 235:1 253:1 
-2 1:0.41666667 2:0.41666667 3:0.42815675 4:0.49275362 5:0.60522607 38:1 75:1 125:1 180:1 188:1 252:1 
-0.1833801831200255 1:0.66666667 2:0.66666667 3:0.51886792 4:0.21475626 5:0.62829381 18:1 34:1 126:1 149:1 150:1 236:1 253:1 
-0.6587819751942686 1:0.66666667 2:0.66666667 3:0.24393531 4:0.50241546 5:0.61322464 14:1 54:1 103:1 130:1 155:1 216:1 
-2 1:0.5 2:0.5 3:0.45148248 4:0.4589372 5:0.59842995 13:1 54:1 120:1 130:1 208:1 250:1 
-0.3793589299696783 1:0.33333333 2:0.33333333 3:0.35714286 4:0.71980676 5:0.65126812 12:1 26:1 131:1 169:1 207:1 227:1 
-0.0897541926956564 1:0.16666667 2:0.16666667 3:0.52950773 4:0.42995169 5:0.68387681 76:1 89:1 111:1 125:1 160:1 192:1 256:1 
-0.7769395068796821 1:0.41666667 2:0.41666667 3:0.31349782 4:0.26086957 5:0.58967391 13:1 36:1 67:1 124:1 175:1 220:1 
-2 1:0.5 2:0.5 3:0.42677448 4:0.6352657 5:0.76690821 14:1 52:1 101:1 130:1 143:1 192:1 
-0.1304902947950515 1:0.41666667 2:0.41666667 3:0.45148248 4:0.83838384 5:0.76751208 13:1 35:1 83:1 207:1 216:1 226:1 251:1 
-1.400556729958539 1:0.66666667 2:0.66666667 3:0.37735849 4:0.5256917 5:0.41213768 11:1 37:1 73:1 176:1 238:1 250:1 
-1.752452944559741 1:0.75 2:0.75 3:0.35074988 4:0.43478261 5:0.60316797 8:1 65:1 153:1 230:1 241:1 248:1 
-0.6076906158055347 1:0.75 2:0.75 3:0.55829705 4:0.43478261 5:0.62853029 41:1 65:1 106:1 188:1 229:1 248:1 
-2 1:0.58333333 2:0.58333333 3:0.43501048 4:0.30434783 5:0.65519324 42:1 109:1 137:1 143:1 176:1 
-1.013077625410167 1:0.5 2:0.5 3:0.43171608 4:0.30917874 5:0.73580918 80:1 97:1 140:1 181:1 216:1 245:1 
-2 1:0.41666667 2:0.41666667 3:0.47824948 4:0.7515528 5:0.74589875 12:1 63:1 70:1 101:1 228:1 
-1.627978960559926 1:0.66666667 2:0.66666667 3:0.45148248 4:0.56521739 5:0.60235507 119:1 129:1 175:1 221:1 239:1 256:1 
-0.01077069072560968 1:0.75 2:0.75 3:0.35486886 4:0.4057971 5:0.61815745 25:1 106:1 117:1 188:1 205:1 250:1 
-0.2691029521502537 1:0.66666667 2:0.66666667 3:0.46858802 4:0.37198068 5:0.62177745 19:1 36:1 65:1 77:1 152:1 164:1 253:1 
-0.323325666009583 1:0.41666667 2:0.41666667 3:0.45148248 4:0.72419851 5:0.5615942 12:1 32:1 59:1 87:1 101:1 192:1 251:1 
-0.9742288979902316 1:0.41666667 2:0.41666667 3:0.55525606 4:0.42995169 5:0.54528986 10:1 25:1 30:1 52:1 71:1 198:1 255:1 
-0.7317450742413504 1:0.25 2:0.25 3:0.50479974 4:0.15217391 5:0.61644525 19:1 52:1 76:1 88:1 149:1 184:1 256:1 
-0.004449500256047233 1:0.75 2:0.75 3:0.3032345 4:0.68028107 5:0.30253623 11:1 59:1 128:1 210:1 237:1 251:1 
-0.7591803463225097 1:0.58333333 2:0.58333333 3:0.18867925 4:0.33333333 5:0.56777009 19:1 64:1 86:1 91:1 138:1 180:1 
-0.1331415033752812 1:0.5 2:0.5 3:0.51886792 4:0.56744705 5:0.62829381 20:1 117:1 167:1 183:1 197:1 219:1 253:1 
-1.774040580872364 1:0.25 2:0.25 3:0.36643496 4:0.47826087 5:0.60235507 13:1 64:1 76:1 93:1 184:1 227:1 255:1 
-2 1:0.41666667 2:0.41666667 3:0.30285438 4:0.54347826 5:0.60923758 12:1 122:1 136:1 142:1 204:1 234:1 
-2 1:0.58333333 2:0.58333333 3:0.37735849 4:0.47826087 5:0.60235507 109:1 176:1 192:1 212:1 239:1 
-1.922638230177742 1:0.58333333 2:0.58333333 3:0.37735849 4:0.47826087 5:0.60235507 12:1 18:1 63:1 76:1 201:1 213:1 248:1 
-2 1:0.16666667 2:0.16666667 3:0.38125975 4:0.71980676 5:0.56974638 12:1 64:1 95:1 183:1 207:1 255:1 
-1.781893910792451 1:0.5 2:0.5 3:0.3427673 4:0.852657 5:0.60517311 35:1 111:1 143:1 189:1 205:1 251:1 
-0.5974434315185289 1:0.58333333 2:0.58333333 3:0.37735849 4:0.57487923 5:0.52083333 59:1 76:1 89:1 117:1 141:1 157:1 
-2 1:0.5 2:0.5 3:0.43356918 4:0.77329193 5:0.74158364 72:1 154:1 179:1 215:1 244:1 
-2 1:0.5 2:0.5 3:0.37735849 4:0.65612648 5:0.31702899 72:1 155:1 168:1 176:1 228:1 250:1 
-2 1:0.66666667 2:0.66666667 3:0.37735849 4:0.5256917 5:0.41213768 24:1 92:1 120:1 138:1 154:1 250:1 
-1.452730976036748 1:0.66666667 2:0.66666667 3:0.27472527 4:0.51690821 5:0.68805741 20:1 57:1 86:1 122:1 195:1 222:1 251:1 
-0.2665156046103844 1:0.58333333 2:0.58333333 3:0.25527192 4:0.62318841 5:0.64151748 14:1 25:1 107:1 118:1 187:1 204:1 
-1.054729626547679 1:0.5 2:0.5 3:0.46226415 4:0.48383501 5:0.60811924 30:1 46:1 84:1 164:1 180:1 231:1 
-2 1:0.5 2:0.5 3:0.41061925 4:0.60474308 5:0.50765282 12:1 18:1 39:1 76:1 129:1 238:1 251:1 
-1.037563201655318 1:0.41666667 2:0.41666667 3:0.36514983 4:0.44202899 5:0.59377664 39:1 45:1 75:1 146:1 160:1 234:1 
-0.1109377541506979 1:0.33333333 2:0.33333333 3:0.25263062 4:0.70186335 5:0.569128 12:1 25:1 74:1 145:1 207:1 213:1 251:1 
-0.2074751553432043 1:0.41666667 2:0.41666667 3:0.61949686 4:0.44785649 5:0.64504831 22:1 77:1 99:1 143:1 198:1 241:1 256:1 
-0.07100841532381046 1:0.5 2:0.5 3:0.37165665 4:0.4589372 5:0.6065589 13:1 104:1 169:1 179:1 209:1 218:1 
-0.6079966512924529 1:0.58333333 2:0.58333333 3:0.31631521 4:0.91304348 5:0.65550405 14:1 24:1 101:1 105:1 130:1 168:1 251:1 
-2 1:0.41666667 2:0.41666667 3:0.28097436 4:0.33333333 5:0.67508525 14:1 76:1 93:1 124:1 126:1 192:1 
-1.848658188716642 1:0.58333333 2:0.58333333 3:0.45148248 4:0.28502415 5:0.5615942 30:1 42:1 100:1 158:1 233:1 250:1 
-2 1:0.33333333 2:0.33333333 3:0.39479943 4:0.47826087 5:0.605552 27:1 39:1 159:1 205:1 235:1 
-0.2308727965869891 1:0.83333333 2:0.83333333 3:0.3081761 4:0.54743083 5:0.36352657 72:1 128:1 139:1 176:1 239:1 250:1 
-2 1:0.41666667 2:0.41666667 3:0.47502775 4:0.84057971 5:0.67956095 12:1 41:1 84:1 99:1 106:1 119:1 
-2 1:0.41666667 2:0.41666667 3:0.27543801 4:0.61628709 5:0.52630586 12:1 36:1 97:1 128:1 144:1 153:1 
-2 1:0.33333333 2:0.33333333 3:0.28860477 4:0.78881988 5:0.56906703 12:1 52:1 93:1 123:1 192:1 225:1 255:1 
-1.851307046621963 1:0.5 2:0.5 3:0.44388002 4:0.48616601 5:0.60684857 12:1 46:1 75:1 125:1 164:1 182:1 253:1 
-0.66709591571363 1:0.5 2:0.5 3:0.31132075 4:0.43366778 5:0.57334212 49:1 127:1 147:1 151:1 219:1 
-2 1:0.33333333 2:0.33333333 3:0.18577649 4:0.7993311 5:0.53044872 12:1 84:1 105:1 120:1 195:1 239:1 251:1 
-2 1:0.33333333 2:0.33333333 3:0.28860477 4:0.41614907 5:0.76879529 13:1 19:1 87:1 93:1 193:1 208:1 255:1 
-1.486344052431255 1:0.41666667 2:0.41666667 3:0.33542977 4:0.36438923 5:0.60896785 30:1 46:1 60:1 120:1 138:1 210:1 252:1 
-2 1:0.58333333 2:0.58333333 3:0.28301887 4:0.4057971 5:0.5504776 40:1 44:1 84:1 139:1 156:1 163:1 
-2 1:0.5 2:0.5 3:0.50275157 4:0.78881988 5:0.63009511 120:1 166:1 209:1 243:1 251:1 
-0.2949087751854855 1:0.5 2:0.5 3:0.65408805 4:0.50692785 5:0.75875604 12:1 32:1 47:1 63:1 126:1 221:1 257:1 
-2 1:0.58333333 2:0.58333333 3:0.22911051 4:0.67149758 5:0.61865942 15:1 62:1 93:1 119:1 222:1 237:1 252:1 
-0.5363484504815667 1:0.41666667 2:0.41666667 3:0.26748058 4:0.51449275 5:0.61615516 12:1 26:1 54:1 85:1 130:1 157:1 251:1 
-2 1:0.5 2:0.5 3:0.22602201 4:0.46273292 5:0.61600493 14:1 26:1 37:1 120:1 126:1 154:1 
-1.893836487418088 1:0.66666667 2:0.66666667 3:0.38230009 4:0.28502415 5:0.62379227 13:1 55:1 102:1 130:1 209:1 
-2 1:0.66666667 2:0.66666667 3:0.39446403 4:0.56521739 5:0.59913253 20:1 47:1 86:1 125:1 188:1 252:1 
-0.03659626901747769 1:0.75 2:0.75 3:0.40041929 4:0.42028986 5:0.63335346 41:1 70:1 110:1 136:1 142:1 175:1 
-1.46640585761254 1:0.5 2:0.5 3:0.26864331 4:0.65942029 5:0.61876006 12:1 26:1 86:1 111:1 191:1 234:1 250:1 
-0.9803189252154817 1:0.33333333 2:0.33333333 3:0.59299191 4:0.23671498 5:0.54862484 30:1 42:1 76:1 88:1 101:1 208:1 
-0.4017527963943034 1:0.75 2:0.75 3:0.42677448 4:0.5221783 5:0.6035628 22:1 43:1 78:1 133:1 142:1 190:1 255:1 
-2 1:0.41666667 2:0.41666667 3:0.36514983 4:0.33333333 5:0.61913896 13:1 40:1 116:1 206:1 231:1 
-2 1:0.41666667 2:0.41666667 3:0.46410421 4:0.62318841 5:0.56319267 12:1 20:1 93:1 111:1 171:1 185:1 256:1 
-1.737841516897425 1:0.25 2:0.25 3:0.48113208 4:0.67499508 5:0.68478261 12:1 47:1 64:1 75:1 167:1 227:1 255:1 
-0.4732127400941855 1:0.5 2:0.5 3:0.20440252 4:0.39225991 5:0.62701288 13:1 23:1 42:1 129:1 148:1 241:1 247:1 
-1.808622719979688 1:0.41666667 2:0.41666667 3:0.47824948 4:0.50310559 5:0.52397846 64:1 137:1 142:1 157:1 192:1 
-1.632501900462392 1:0.5 2:0.5 3:0.43356918 4:0.57142857 5:0.58359752 45:1 61:1 97:1 233:1 245:1 251:1 
-0.1895102508885841 1:0.25 2:0.25 3:0.53384247 4:0.42028986 5:0.60889694 13:1 39:1 42:1 101:1 135:1 169:1 
-2 1:0.58333333 2:0.58333333 3:0.43840178 4:0.47826087 5:0.61354433 14:1 116:1 128:1 161:1 171:1 252:1 
-2 1:0.33333333 2:0.33333333 3:0.35346326 4:0.16770186 5:0.63009511 14:1 18:1 40:1 88:1 93:1 184:1 256:1 
-1.876233249710402 1:0.25 2:0.25 3:0.50479974 4:0.58695652 5:0.56008454 39:1 75:1 93:1 111:1 172:1 185:1 256:1 
-2 1:0.33333333 2:0.33333333 3:0.20174165 4:0.43143813 5:0.5901752 14:1 36:1 75:1 85:1 199:1 216:1 
-0.2112623177766386 1:0.33333333 2:0.33333333 3:0.36006289 4:0.61660079 5:0.59613191 90:1 111:1 123:1 189:1 228:1 239:1 252:1 
-0.2544576385336416 1:0.5 2:0.5 3:0.4913954 4:0.61352657 5:0.57378763 12:1 137:1 142:1 193:1 209:1 251:1 
-2 1:0.58333333 2:0.58333333 3:0.37735849 4:0.69565217 5:0.56564645 19:1 76:1 89:1 93:1 192:1 225:1 255:1 
-2 1:0.66666667 2:0.66666667 3:0.41127143 4:0.76811594 5:0.61561642 45:1 75:1 128:1 171:1 177:1 
-0.4561145566023352 1:0.58333333 2:0.58333333 3:0.3032345 4:0.38164251 5:0.62215321 14:1 25:1 56:1 73:1 122:1 209:1 250:1 
-0.731864882820259 1:0.58333333 2:0.58333333 3:0.48113208 4:0.5451505 5:0.51992754 41:1 42:1 147:1 179:1 187:1 227:1 
-0.9298531072936094 1:0.33333333 2:0.33333333 3:0.19287212 4:0.34782609 5:0.67773752 42:1 85:1 100:1 110:1 122:1 206:1 252:1 
-2 1:0.75 2:0.75 3:0.24563351 4:0.84057971 5:0.65152892 26:1 41:1 84:1 105:1 129:1 249:1 
-0.08309582148005003 1:0.83333333 2:0.83333333 3:0.34770889 4:0.51170569 5:0.51992754 26:1 131:1 140:1 223:1 237:1 257:1 
-0.9365721236728121 1:0.66666667 2:0.66666667 3:0.41127143 4:0.42028986 5:0.60152624 27:1 102:1 115:1 178:1 236:1 252:1 
-0.2076846781009719 1:0.58333333 2:0.58333333 3:0.44654088 4:0.80434783 5:0.60517311 111:1 173:1 179:1 190:1 204:1 235:1 251:1 
-1.850949419123342 1:0.58333333 2:0.58333333 3:0.37735849 4:0.47826087 5:0.60235507 77:1 79:1 135:1 164:1 230:1 252:1 
-0.7011961020691556 1:0.41666667 2:0.41666667 3:0.15384615 4:0.52173913 5:0.57748049 13:1 24:1 91:1 219:1 230:1 237:1 252:1 
-0.2009871700189701 1:0.5 2:0.5 3:0.31132075 4:0.56744705 5:0.60474308 19:1 35:1 112:1 117:1 203:1 219:1 253:1 
-2 1:0.41666667 2:0.41666667 3:0.42815675 4:0.42028986 5:0.61127844 14:1 47:1 75:1 124:1 152:1 253:1 
-2 1:0.66666667 2:0.66666667 3:0.41061925 4:0.37549407 5:0.61234207 12:1 32:1 53:1 153:1 162:1 188:1 253:1 
-2 1:0.41666667 2:0.41666667 3:0.27543801 4:0.54727398 5:0.60563859 14:1 25:1 108:1 165:1 208:1 
-0.3263326561192719 1:0.66666667 2:0.66666667 3:0.49044509 4:0.54940711 5:0.60929371 92:1 154:1 207:1 230:1 245:1 
-1.51271067068937 1:0.58333333 2:0.58333333 3:0.37735849 4:0.5326087 5:0.56612319 24:1 87:1 139:1 199:1 239:1 257:1 
-1.712844457344503 1:0.41666667 2:0.41666667 3:0.34956199 4:0.61628709 5:0.48554499 72:1 108:1 166:1 194:1 243:1 246:1 
-1.431909310199546 1:0.33333333 2:0.33333333 3:0.40041929 4:0.45652174 5:0.61433172 25:1 41:1 44:1 100:1 192:1 242:1 252:1 
-1.71464140994534 1:0.5 2:0.5 3:0.46892342 4:0.27122153 5:0.61913896 46:1 64:1 88:1 146:1 232:1 236:1 
-0.8891952950377282 1:0.16666667 2:0.16666667 3:0.22768505 4:0.44927536 5:0.59182439 13:1 36:1 47:1 75:1 108:1 217:1 254:1 
-0.03376324059761666 1:0.25 2:0.25 3:0.59299191 4:0.33333333 5:0.62829381 111:1 183:1 196:1 220:1 222:1 234:1 
-0.09885533389598346 1:0.25 2:0.25 3:0.3836478 4:0.55072464 5:0.61599693 17:1 50:1 64:1 120:1 196:1 243:1 
-1.113080904319659 1:0.5 2:0.5 3:0.44339623 4:0.57302118 5:0.58344862 19:1 39:1 77:1 84:1 191:1 239:1 246:1 
-0.2231434027227403 1:0.58333333 2:0.58333333 3:0.26205451 4:0.65217391 5:0.74325684 65:1 86:1 110:1 122:1 143:1 214:1 253:1 
-2 1:0.75 2:0.75 3:0.45230608 4:0.42028986 5:0.62384259 41:1 101:1 176:1 213:1 
-0.3828886499014011 1:0.33333333 2:0.33333333 3:0.41832175 4:0.29192547 5:0.63934179 13:1 113:1 126:1 149:1 193:1 255:1 
-0.9674752103325593 1:0.66666667 2:0.66666667 3:0.22564272 4:0.56521739 5:0.69041868 12:1 41:1 43:1 86:1 158:1 214:1 254:1 
-2 1:0.5 2:0.5 3:0.15683962 4:0.89751553 5:0.65545743 38:1 45:1 60:1 120:1 153:1 192:1 251:1 
-2 1:0.41666667 2:0.41666667 3:0.46410421 4:0.47826087 5:0.60235507 13:1 20:1 51:1 63:1 126:1 227:1 257:1 
-0.9437106087913122 1:0.33333333 2:0.33333333 3:0.30660377 4:0.37681159 5:0.60456467 20:1 85:1 102:1 120:1 156:1 192:1 
-0.06598654437720231 1:0.16666667 2:0.16666667 3:0.37735849 4:0.3481977 5:0.71331522 12:1 63:1 90:1 126:1 160:1 205:1 256:1 
-0.2883696816204142 1:0.5 2:0.5 3:0.25471698 4:0.41694537 5:0.59646282 45:1 61:1 158:1 231:1 236:1 253:1 
-1.335992992972992 1:0.5 2:0.5 3:0.24170675 4:0.56521739 5:0.69041868 69:1 108:1 193:1 214:1 230:1 241:1 
-2 1:0.5 2:0.5 3:0.43722787 4:0.41501976 5:0.61690589 76:1 80:1 122:1 219:1 
-0.9462291346323827 1:0.33333333 2:0.33333333 3:0.31195497 4:0.76811594 5:0.66869139 13:1 24:1 51:1 86:1 105:1 231:1 251:1 
-1.290743790263362 1:0.66666667 2:0.66666667 3:0.41156956 4:0.52657005 5:0.64311594 39:1 64:1 81:1 128:1 141:1 198:1 251:1 
-2 1:0.58333333 2:0.58333333 3:0.43501048 4:0.65217391 5:0.79609501 12:1 41:1 43:1 101:1 215:1 
-1.01910738176254 1:0.5 2:0.5 3:0.54716981 4:0.43924192 5:0.79776021 12:1 18:1 76:1 92:1 135:1 215:1 248:1 
-0.8889377628493844 1:0.25 2:0.25 3:0.61683599 4:0.37888199 5:0.63649666 64:1 77:1 108:1 123:1 180:1 198:1 
-1.7359616250195 1:0.16666667 2:0.16666667 3:0.22012579 4:0.34612106 5:0.59810667 18:1 60:1 84:1 120:1 138:1 156:1 253:1 
-0.6566597920805015 1:0.75 2:0.75 3:0.20174165 4:0.45652174 5:0.58947069 18:1 45:1 75:1 163:1 182:1 223:1 
-2 1:0.33333333 2:0.33333333 3:0.48318024 4:0.29192547 5:0.63009511 20:1 41:1 112:1 193:1 244:1 255:1 
-2 1:0.25 2:0.25 3:0.62443845 4:0.39130435 5:0.54951691 24:1 52:1 87:1 138:1 222:1 256:1 
-0.7981677023726838 1:0.5 2:0.5 3:0.42314095 4:0.436853 5:0.60453076 24:1 54:1 118:1 169:1 244:1 250:1 
-2 1:0.33333333 2:0.33333333 3:0.60796646 4:0.67391304 5:0.81723027 39:1 63:1 101:1 137:1 252:1 
-1.402437148288204 1:0.5 2:0.5 3:0.087657233 4:0.57142857 5:0.62586806 26:1 37:1 74:1 85:1 122:1 153:1 251:1 
-2 1:0.33333333 2:0.33333333 3:0.3312369 4:0.45652174 5:0.63123994 14:1 24:1 99:1 176:1 193:1 253:1 
-0.52677593575841 1:0.58333333 2:0.58333333 3:0.11792453 4:0.60248447 5:0.62084843 72:1 96:1 122:1 127:1 144:1 165:1 247:1 
-0.2193843637634258 1:0.33333333 2:0.33333333 3:0.41832175 4:0.66459627 5:0.56536836 12:1 75:1 149:1 194:1 220:1 226:1 255:1 
-0.07689589622489412 1:0.33333333 2:0.33333333 3:0.48318024 4:0.41614907 5:0.68557518 19:1 51:1 65:1 113:1 193:1 220:1 255:1 
-2 1:0.66666667 2:0.66666667 3:0.45148248 4:0.61111111 5:0.52445652 12:1 82:1 102:1 207:1 226:1 250:1 
-2 1:0.25 2:0.25 3:0.61683599 4:0.37888199 5:0.63649666 64:1 76:1 123:1 152:1 180:1 252:1 
-0.4803088060565108 1:0.66666667 2:0.66666667 3:0.10557053 4:0.39371981 5:0.63717794 14:1 49:1 81:1 98:1 104:1 218:1 
-1.395103284777447 1:0.41666667 2:0.41666667 3:0.40306093 4:0.1884058 5:0.6275309 19:1 52:1 93:1 113:1 193:1 244:1 256:1 
-2 1:0.33333333 2:0.33333333 3:0.23783098 4:0.57487923 5:0.60075661 14:1 25:1 86:1 99:1 145:1 251:1 
-2 1:0.58333333 2:0.58333333 3:0.43840178 4:0.1884058 5:0.62473359 116:1 126:1 204:1 232:1 236:1 
-0.04936367202666162 1:0.75 2:0.75 3:0.40584536 4:0.69565217 5:0.5727657 35:1 64:1 81:1 137:1 141:1 165:1 
-2 1:0.33333333 2:0.33333333 3:0.43632075 4:0.43478261 5:0.61056901 46:1 156:1 192:1 210:1 231:1 253:1 
-0.6025781996605509 1:0.66666667 2:0.66666667 3:0.46816038 4:0.32298137 5:0.67289402 55:1 92:1 173:1 190:1 220:1 253:1 
-0.4067725930458464 1:0.75 2:0.75 3:0.3217655 4:0.58868185 5:0.50611413 31:1 58:1 117:1 175:1 192:1 243:1 
-2 1:0.5 2:0.5 3:0.35828246 4:0.5610766 5:0.55829737 26:1 40:1 53:1 129:1 145:1 251:1 
-0.1369534778677511 1:0.58333333 2:0.58333333 3:0.56603774 4:0.55072464 5:0.60984848 20:1 46:1 60:1 209:1 231:1 236:1 252:1 
-2 1:0.25 2:0.25 3:0.1212938 4:0.44202899 5:0.58418423 60:1 84:1 103:1 120:1 157:1 252:1 
-1.816621230982445 1:0.58333333 2:0.58333333 3:0.53701016 4:0.30434783 5:0.64808041 20:1 65:1 75:1 85:1 200:1 222:1 
-2 1:0.58333333 2:0.58333333 3:0.22911051 4:0.57487923 5:0.59692029 13:1 34:1 83:1 103:1 122:1 216:1 
-2 1:0.33333333 2:0.33333333 3:0.38607896 4:0.57487923 5:0.51923487 54:1 157:1 204:1 231:1 251:1 
-2 1:0.5 2:0.5 3:0.30275003 4:0.27536232 5:0.67083748 14:1 25:1 43:1 108:1 136:1 176:1 
-1.731205763189664 1:0.58333333 2:0.58333333 3:0.3197065 4:0.47826087 5:0.61996779 14:1 24:1 70:1 100:1 176:1 194:1 
-2 1:0.41666667 2:0.41666667 3:0.33542977 4:0.48861284 5:0.59869376 47:1 84:1 156:1 208:1 211:1 
-0.3764722342661147 1:0.41666667 2:0.41666667 3:0.60232221 4:0.36231884 5:0.65984891 19:1 39:1 65:1 76:1 107:1 220:1 246:1 
-0.5183993968211407 1:0.58333333 2:0.58333333 3:0.52560647 4:0.47826087 5:0.52083333 13:1 32:1 44:1 77:1 119:1 207:1 
-1.133199512588401 1:0.75 2:0.75 3:0.40638607 4:0.46376812 5:0.60558079 8:1 19:1 46:1 66:1 128:1 207:1 252:1 
-1.51780034264056 1:0.5 2:0.5 3:0.30275003 4:0.56521739 5:0.69041868 14:1 24:1 71:1 101:1 176:1 194:1 253:1 
-0.7925600043236372 1:0.66666667 2:0.66666667 3:0.27901098 4:0.71014493 5:0.67674292 14:1 53:1 105:1 117:1 216:1 232:1 249:1 
-1.040843656577958 1:0.33333333 2:0.33333333 3:0.40928882 4:0.29765886 5:0.6304731 13:1 18:1 37:1 47:1 76:1 200:1 252:1 
-0.2148938821874412 1:0.5 2:0.5 3:0.46892342 4:0.76811594 5:0.61913896 39:1 46:1 161:1 179:1 206:1 231:1 
-1.480182014504904 1:0.5 2:0.5 3:0.29183081 4:0.37198068 5:0.62383292 13:1 55:1 102:1 208:1 242:1 251:1 
