svm_type c_svc
kernel_type rbf
gamma 0.0625
nr_class 2
total_sv 554
rho 10.7277
label 1 0
probA -4.31066
probB 0.355867
nr_sv 252 302
SV
1.164958207616698 1:0.57142857 2:0.57142857 3:0.32696391 4:0.40552585 5:0.63247446 47:1 127:1 138:1 
1.360576124283186 1:0.35714286 2:0.35714286 3:0.21797594 4:0.30392157 5:0.6316703 62:1 85:1 102:1 252:1 
0.007925305467762631 1:0.35714286 2:0.35714286 3:0.50861052 4:0.3627451 5:0.6463059 120:1 157:1 233:1 
2 1:0.35714286 2:0.35714286 3:0.21797594 4:0.30392157 5:0.6316703 138:1 158:1 193:1 252:1 
1.79960240250571 1:0.5 2:0.5 3:0.53503185 4:0.2745098 5:0.66215505 128:1 162:1 233:1 253:1 
1.533091992410866 1:0.42857143 2:0.42857143 3:0.39235669 4:0.16365008 5:0.69005188 126:1 138:1 210:1 253:1 
0.9346164082224963 1:0.57142857 2:0.57142857 3:0.43595188 4:0.40552585 5:0.63837158 92:1 122:1 233:1 
1.351751545911421 1:0.42857143 2:0.42857143 3:0.60057706 4:0.42673797 5:0.64866069 39:1 65:1 107:1 246:1 
2 1:0.57142857 2:0.57142857 3:0.53829822 4:0.30196078 5:0.66796038 42:1 154:1 221:1 246:1 
2 1:0.5 2:0.5 3:0.41613588 4:0.24705882 5:0.67400479 6:1 42:1 219:1 247:1 
1.294377720830594 1:0.5 2:0.5 3:0.41613588 4:0.54901961 5:0.64873299 165:1 203:1 221:1 252:1 
1.072909010651333 1:0.42857143 2:0.42857143 3:0.46369427 4:0.2428356 5:0.7358448 184:1 222:1 234:1 
1.447632675250905 1:0.35714286 2:0.35714286 3:0.59051663 4:0.5096668 5:0.64074993 23:1 101:1 180:1 255:1 
2 1:0.57142857 2:0.57142857 3:0.55027492 4:0.47165775 5:0.64164069 23:1 44:1 190:1 256:1 
0.5531010561055121 1:0.57142857 2:0.57142857 3:0.55027492 4:0.5540107 5:0.6351456 22:1 164:1 191:1 255:1 
0.3971683636420145 1:0.42857143 2:0.42857143 3:0.49539986 4:0.43048128 5:0.64197809 79:1 112:1 191:1 255:1 
1.550860068609748 1:0.35714286 2:0.35714286 3:0.46308454 4:0.28823529 5:0.6878115 15:1 172:1 229:1 247:1 
0.8380308363730721 1:0.5 2:0.5 3:0.32894551 4:0.41176471 5:0.62917011 50:1 105:1 171:1 246:1 
1.023710469873623 1:0.57142857 2:0.57142857 3:0.43793347 4:0.26470588 5:0.71119382 50:1 173:1 198:1 248:1 
1.56692266860268 1:0.5 2:0.5 3:0.41613588 4:0.51470588 5:0.62788347 106:1 171:1 230:1 
2 1:0.78571429 2:0.78571429 3:0.48955935 4:0.41176471 5:0.64339094 32:1 80:1 106:1 248:1 
0.3549328753390648 1:0.5 2:0.5 3:0.50332626 4:0.30882353 5:0.67934932 17:1 59:1 198:1 246:1 
0.6947836725118824 1:0.42857143 2:0.42857143 3:0.44104742 4:0.38888889 5:0.63220292 121:1 137:1 222:1 251:1 
1.85761262874566 1:0.57142857 2:0.57142857 3:0.39433829 4:0.32352941 5:0.6301351 112:1 175:1 223:1 251:1 
1.484532184758892 1:0.5 2:0.5 3:0.41613588 4:0.30882353 5:0.62788347 65:1 121:1 175:1 
1.036919693906839 1:0.57142857 2:0.57142857 3:0.62321302 4:0.48529412 5:0.66149711 17:1 34:1 214:1 256:1 
0.3988059284483219 1:0.5 2:0.5 3:0.50332626 4:0.51470588 5:0.64846981 16:1 21:1 35:1 257:1 
2 1:0.35714286 2:0.35714286 3:0.43793347 4:0.24475524 5:0.65439757 12:1 31:1 51:1 77:1 78:1 102:1 253:1 
2 1:0.35714286 2:0.35714286 3:0.17636235 4:0.24475524 5:0.60421836 12:1 31:1 52:1 55:1 181:1 253:1 
2 1:0.42857143 2:0.42857143 3:0.3665959 4:0.35561497 5:0.63457152 92:1 102:1 120:1 245:1 254:1 264:1 
2 1:0.57142857 2:0.57142857 3:0.45805433 4:0.3144385 5:0.64600963 32:1 56:1 75:1 78:1 153:1 253:1 
2 1:0.35714286 2:0.35714286 3:0.43793347 4:0.24475524 5:0.65439757 18:1 51:1 54:1 76:1 153:1 253:1 
1.248509994468447 1:0.42857143 2:0.42857143 3:0.4742628 4:0.55656109 5:0.70465337 47:1 167:1 204:1 257:1 
2 1:0.5 2:0.5 3:0.28535032 4:0.34841629 5:0.86269644 81:1 91:1 205:1 256:1 
0.6066572788914906 1:0.42857143 2:0.42857143 3:0.76489738 4:0.3800905 5:0.71215881 64:1 161:1 166:1 256:1 
0.7402871386097566 1:0.5 2:0.5 3:0.54692144 4:0.28506787 5:0.71215881 30:1 139:1 160:1 257:1 
0.6824336675540745 1:0.28571429 2:0.28571429 3:0.6403397 4:0.3800905 5:0.71215881 30:1 64:1 75:1 255:1 
0.7726409173626414 1:0.35714286 2:0.35714286 3:0.54692144 4:0.29773756 5:0.71215881 13:1 140:1 220:1 256:1 
1.049113161293524 1:0.42857143 2:0.42857143 3:0.76093418 4:0.43815988 5:0.68987643 41:1 75:1 137:1 
1.2880881232532 1:0.42857143 2:0.42857143 3:0.63014862 4:0.37481146 5:0.81532446 40:1 76:1 191:1 248:1 
0.6412596728875514 1:0.57142857 2:0.57142857 3:0.56475584 4:0.38057041 5:0.74874051 18:1 63:1 214:1 248:1 
1.377930829637316 1:0.57142857 2:0.57142857 3:0.38020578 4:0.53986928 5:0.52904498 120:1 130:1 237:1 
2 1:0.14285714 2:0.14285714 3:0.42105263 4:0.45751634 5:0.48800662 12:1 76:1 183:1 208:1 255:1 
1.184431352174611 1:0.28571429 2:0.28571429 3:0.38602078 4:0.47058824 5:0.51023573 12:1 64:1 95:1 126:1 255:1 
2 1:0.35714286 2:0.35714286 3:0.52546127 4:0.54901961 5:0.60112879 12:1 20:1 41:1 88:1 93:1 219:1 255:1 
0.5142305945054423 1:0.42857143 2:0.42857143 3:0.57674973 4:0.49411765 5:0.58864075 12:1 20:1 40:1 51:1 65:1 93:1 257:1 
2 1:0.21428571 2:0.21428571 3:0.48955935 4:0.51470588 5:0.58285084 12:1 20:1 40:1 87:1 243:1 255:1 
2 1:0.57142857 2:0.57142857 3:0.40236898 4:0.54901961 5:0.58478081 12:1 18:1 41:1 95:1 127:1 225:1 
1.423062558351808 1:0.28571429 2:0.28571429 3:0.38602078 4:0.47058824 5:0.51023573 14:1 75:1 111:1 126:1 255:1 
2 1:0.21428571 2:0.21428571 3:0.40236898 4:0.41176471 5:0.63688999 14:1 64:1 95:1 123:1 160:1 256:1 
0.4626323326346695 1:0.42857143 2:0.42857143 3:0.35877379 4:0.49411765 5:0.54039151 14:1 41:1 160:1 192:1 225:1 
1.23287841716775 1:0.35714286 2:0.35714286 3:0.37159591 4:0.41176471 5:0.63688999 14:1 19:1 39:1 75:1 88:1 93:1 256:1 
2 1:0.42857143 2:0.42857143 3:0.35877379 4:0.49411765 5:0.54039151 14:1 19:1 39:1 208:1 225:1 255:1 
1.50938166414463 1:0.71428571 2:0.71428571 3:0.37858979 5:0.65531243 14:1 19:1 76:1 93:1 128:1 225:1 
2 1:0.57142857 2:0.57142857 3:0.40236898 4:0.54901961 5:0.58478081 14:1 19:1 41:1 93:1 148:1 225:1 255:1 
2 1:0.5 2:0.5 3:0.48497039 4:0.41176471 5:0.63688999 14:1 19:1 41:1 113:1 183:1 
1.625964099339875 1:0.35714286 2:0.35714286 3:0.29466322 4:0.41176471 5:0.63688999 14:1 19:1 40:1 63:1 93:1 192:1 256:1 
0.8047551769205763 1:0.42857143 2:0.42857143 3:0.35877379 4:0.32941176 5:0.73338848 14:1 18:1 39:1 93:1 111:1 126:1 
1.583880995516859 1:0.28571429 2:0.28571429 3:0.38602078 4:0.47058824 5:0.51023573 14:1 18:1 39:1 207:1 257:1 276:1 
2 1:0.28571429 2:0.28571429 3:0.38602078 4:0.58823529 5:0.59467191 14:1 18:1 111:1 219:1 227:1 255:1 
0.3525642386802919 1:0.21428571 2:0.21428571 3:0.40236898 4:0.41176471 5:0.63688999 112:1 192:1 243:1 256:1 
2 1:0.21428571 2:0.21428571 3:0.40236898 4:0.51470588 5:0.56741108 88:1 95:1 192:1 208:1 255:1 
1.811838502990247 1:0.5 2:0.5 3:0.55380489 4:0.41176471 5:0.63688999 19:1 51:1 65:1 93:1 112:1 257:1 
2 1:0.35714286 2:0.35714286 3:0.52546127 4:0.2745098 5:0.67265119 19:1 40:1 53:1 64:1 88:1 93:1 255:1 
0.1929023392888178 1:0.35714286 2:0.35714286 3:0.44852859 4:0.2745098 5:0.68286868 19:1 40:1 52:1 219:1 
2 1:0.35714286 2:0.35714286 3:0.52546127 4:0.2745098 5:0.67265119 20:1 75:1 160:1 208:1 
0.8994236831888401 1:0.42857143 2:0.42857143 3:0.43143244 4:0.32941176 5:0.71730539 20:1 87:1 93:1 244:1 265:1 
0.1166682128610499 1:0.35714286 2:0.35714286 3:0.44852859 4:0.41176471 5:0.63688999 20:1 52:1 75:1 93:1 192:1 256:1 
1.381045504029578 1:0.64285714 2:0.64285714 3:0.57674973 5:0.64653984 20:1 52:1 128:1 225:1 257:1 
2 1:0.5 2:0.5 3:0.55380489 4:0.20588235 5:0.65822124 20:1 41:1 88:1 93:1 172:1 225:1 256:1 
2 1:0.071428571 2:0.071428571 3:0.34200641 4:0.49411765 5:0.53668003 13:1 39:1 51:1 64:1 192:1 255:1 
0.8561419605994977 1:0.5 2:0.5 3:0.41613588 4:0.61764706 5:0.60336947 13:1 19:1 63:1 93:1 227:1 257:1 
2 1:0.57142857 2:0.57142857 3:0.27158342 4:0.2745098 5:0.7063689 13:1 19:1 194:1 209:1 225:1 266:1 
2 1:0.21428571 2:0.21428571 3:0.40236898 4:0.10294118 5:0.66004963 13:1 19:1 52:1 88:1 160:1 256:1 
2 1:0.42857143 2:0.42857143 3:0.35877379 4:0.16470588 5:0.66905615 13:1 19:1 40:1 225:1 244:1 
2 1:0.42857143 2:0.42857143 3:0.50409108 4:0.16470588 5:0.6583341 13:1 20:1 41:1 128:1 192:1 256:1 
0.1398870653593095 1:0.21428571 2:0.21428571 3:0.40236898 4:0.20588235 5:0.67162945 13:1 18:1 88:1 183:1 256:1 
1.716310130841133 1:0.35714286 2:0.35714286 3:0.44852859 5:0.65221622 13:1 18:1 52:1 126:1 257:1 
2 1:0.21428571 2:0.21428571 3:0.3151786 4:0.41176471 5:0.63688999 13:1 18:1 40:1 93:1 192:1 207:1 255:1 
2 1:0.28571429 2:0.28571429 3:0.19480647 4:0.36742081 5:0.62576792 12:1 45:1 84:1 144:1 162:1 253:1 
2 1:0.28571429 2:0.28571429 3:0.45637759 4:0.43076923 5:0.63793258 12:1 75:1 180:1 236:1 252:1 
1.39677745026932 1:0.57142857 2:0.57142857 3:0.34427568 4:0.40261438 5:0.63335651 12:1 86:1 92:1 164:1 
0.855411024235477 1:0.42857143 2:0.42857143 3:0.39098481 4:0.41925134 5:0.63509611 12:1 92:1 144:1 200:1 252:1 
1.580396858024117 1:0.21428571 2:0.21428571 3:0.42731413 4:0.31764706 5:0.64555011 12:1 76:1 123:1 235:1 252:1 265:1 
1.44452960893933 1:0.35714286 2:0.35714286 3:0.48015679 4:0.4254902 5:0.63951165 12:1 20:1 75:1 216:1 236:1 252:1 
1.056649235534367 1:0.35714286 2:0.35714286 3:0.24236485 4:0.28823529 5:0.63319538 12:1 20:1 37:1 84:1 223:1 253:1 
0.250559854595275 1:0.42857143 2:0.42857143 3:0.39098481 4:0.34438503 5:0.64015079 12:1 20:1 37:1 84:1 164:1 
2 1:0.35714286 2:0.35714286 3:0.24236485 4:0.28823529 5:0.63319538 12:1 18:1 84:1 146:1 200:1 253:1 
1.956053518251089 1:0.42857143 2:0.42857143 3:0.064020905 4:0.34438503 5:0.61740472 14:1 19:1 38:1 84:1 234:1 264:1 
1.828124535443772 1:0.5 2:0.5 3:0.21492732 4:0.32941176 5:0.62853916 14:1 20:1 38:1 216:1 236:1 253:1 
1.639677591759205 1:0.35714286 2:0.35714286 3:0.48015679 4:0.4254902 5:0.63951165 36:1 46:1 64:1 75:1 266:1 
2 1:0.28571429 2:0.28571429 3:0.45637759 4:0.43076923 5:0.63793258 36:1 75:1 144:1 188:1 252:1 
2 1:0.35714286 2:0.35714286 3:0.59905275 4:0.4254902 5:0.64582791 47:1 65:1 75:1 222:1 264:1 
1.367839936535989 1:0.5 2:0.5 3:0.41613588 4:0.49411765 5:0.63299294 45:1 63:1 144:1 152:1 
1.413434348374386 1:0.35714286 2:0.35714286 3:0.12346889 4:0.4254902 5:0.62056285 45:1 84:1 146:1 180:1 253:1 
1.204796043126639 1:0.57142857 2:0.57142857 3:0.43769394 4:0.40261438 5:0.63867377 45:1 76:1 128:1 200:1 252:1 
2 1:0.35714286 2:0.35714286 3:0.59905275 4:0.49411765 5:0.64109071 46:1 75:1 123:1 128:1 144:1 252:1 
2 1:0.35714286 2:0.35714286 3:0.36126082 4:0.49411765 5:0.63056361 46:1 84:1 180:1 188:1 216:1 252:1 
1.827865375168221 1:0.28571429 2:0.28571429 3:0.32559203 4:0.36742081 5:0.63413112 63:1 84:1 162:1 216:1 254:1 
0.8585503102676983 1:0.42857143 2:0.42857143 3:0.60896075 4:0.41925134 5:0.64689037 63:1 77:1 152:1 276:1 
2 1:0.35714286 2:0.35714286 3:0.71794872 4:0.4254902 5:0.65214418 63:1 77:1 125:1 252:1 
0.4574071428779667 1:0.28571429 2:0.28571429 3:0.45637759 4:0.3040724 5:0.64966279 75:1 144:1 222:1 265:1 
1.95888538529038 1:0.42857143 2:0.42857143 3:0.39098481 4:0.34438503 5:0.64015079 75:1 182:1 186:1 
0.9532746758375088 1:0.5 2:0.5 3:0.41613588 4:0.41176471 5:0.63688999 86:1 125:1 236:1 252:1 
2 1:0.28571429 2:0.28571429 3:0.45637759 4:0.36742081 5:0.64249433 85:1 123:1 144:1 236:1 252:1 
2 1:0.28571429 2:0.28571429 3:0.45637759 4:0.3040724 5:0.64966279 76:1 84:1 152:1 217:1 252:1 
2 1:0.14285714 2:0.14285714 3:0.55446676 4:0.32941176 5:0.65359165 64:1 75:1 180:1 216:1 253:1 
2 1:0.35714286 2:0.35714286 3:0.48015679 4:0.35686275 5:0.64503838 64:1 84:1 164:1 180:1 200:1 216:1 
1.067347075363328 1:0.21428571 2:0.21428571 3:0.42731413 4:0.25882353 5:0.65493191 13:1 18:1 36:1 123:1 222:1 252:1 
0.6821598939612515 1:0.42857143 2:0.42857143 3:0.44979393 4:0.56862745 5:0.64715005 12:1 47:1 63:1 116:1 
2 1:0.5 2:0.5 3:0.57000125 4:0.2745098 5:0.65221622 40:1 46:1 101:1 116:1 253:1 
1.227838497160018 1:0.57142857 2:0.57142857 3:0.53153491 4:0.52156863 5:0.65221622 29:1 45:1 65:1 116:1 264:1 
2 1:0.35714286 2:0.35714286 3:0.2915782 4:0.49494949 5:0.49352082 12:1 24:1 30:1 76:1 105:1 251:1 
2 1:0.28571429 2:0.28571429 3:0.33121019 4:0.32026144 5:0.62335514 12:1 26:1 30:1 42:1 75:1 88:1 
1.33143975842248 1:0.64285714 2:0.64285714 3:0.42781316 4:0.63398693 5:0.59122553 12:1 44:1 58:1 105:1 251:1 
2 1:0.5 2:0.5 3:0.32271762 4:0.50326797 5:0.52522746 12:1 30:1 42:1 57:1 107:1 251:1 
0.5279255713575913 1:0.57142857 2:0.57142857 3:0.20438783 4:0.35457516 5:0.6537083 14:1 26:1 43:1 100:1 249:1 
1.16205658984492 1:0.57142857 2:0.57142857 3:0.20438783 4:0.35457516 5:0.6537083 14:1 25:1 31:1 211:1 251:1 
2 1:0.64285714 2:0.64285714 3:0.18259023 4:0.28104575 5:0.63344362 14:1 25:1 31:1 43:1 117:1 
2 1:0.57142857 2:0.57142857 3:0.37876858 4:0.35457516 5:0.62282878 57:1 105:1 210:1 232:1 
0.3247355413436374 1:0.57142857 2:0.57142857 3:0.46595895 4:0.45751634 5:0.59966915 42:1 77:1 107:1 141:1 
2 1:0.57142857 2:0.57142857 3:0.55314933 4:0.56045752 5:0.60738903 32:1 58:1 76:1 107:1 251:1 
0.5850418840991071 1:0.57142857 2:0.57142857 3:0.2915782 4:0.35457516 5:0.63826854 25:1 31:1 42:1 57:1 251:1 
0.8893168367094914 1:0.35714286 2:0.35714286 3:0.40056617 4:0.56981581 5:0.58197776 13:1 100:1 107:1 119:1 251:1 
0.07851813736307127 1:0.35714286 2:0.35714286 3:0.37980656 4:0.43529412 5:0.61598199 12:1 24:1 100:1 141:1 176:1 253:1 
2 1:0.21428571 2:0.21428571 3:0.33309743 4:0.72287582 5:0.7396379 12:1 71:1 120:1 168:1 240:1 
2 1:0.21428571 2:0.21428571 3:0.33309743 4:0.53986928 5:0.82896793 12:1 69:1 84:1 100:1 156:1 241:1 
2 1:0.57142857 2:0.57142857 3:0.29376342 4:0.49411765 5:0.71730539 12:1 69:1 109:1 176:1 213:1 
0.9021702890870338 1:0.28571429 2:0.28571429 3:0.35800896 4:0.7 5:0.74432497 12:1 108:1 135:1 215:1 254:1 
2 1:0.21428571 2:0.21428571 3:0.51993395 4:0.53986928 5:0.90340961 12:1 101:1 135:1 241:1 252:1 
1.233117489143437 1:0.35714286 2:0.35714286 3:0.37980656 4:0.67058824 5:0.75107986 12:1 101:1 141:1 156:1 240:1 
2 1:0.14285714 2:0.14285714 3:0.40495763 4:0.65882353 5:0.75627594 12:1 100:1 108:1 143:1 156:1 252:1 
2 1:0.21428571 2:0.21428571 3:0.42651569 4:0.53986928 5:0.86618877 12:1 100:1 109:1 120:1 143:1 
2 1:0.5 2:0.5 3:0.34347724 4:0.57647059 5:0.78163772 14:1 24:1 41:1 143:1 176:1 254:1 
1.162620719804056 1:0.42857143 2:0.42857143 3:0.32210705 4:0.35686275 5:0.68154419 24:1 110:1 121:1 176:1 
1.341960619701231 1:0.5 2:0.5 3:0.48879453 4:0.41176471 5:0.62080691 24:1 41:1 44:1 176:1 252:1 
1.522773833294154 1:0.57142857 2:0.57142857 3:0.22492892 4:0.90588235 5:0.7249237 26:1 69:1 143:1 213:1 252:1 
2 1:0.57142857 2:0.57142857 3:0.36259793 4:0.28823529 5:0.68987951 26:1 101:1 122:1 176:1 
0.1532056243301351 1:0.42857143 2:0.42857143 3:0.39903973 4:0.63137255 5:0.76328408 39:1 70:1 141:1 241:1 252:1 
0.2605228673904108 1:0.21428571 2:0.21428571 3:0.42651569 4:0.63137255 5:0.76693319 71:1 84:1 100:1 240:1 252:1 
2 1:0.28571429 2:0.28571429 3:0.44519934 4:0.59705882 5:0.7867843 71:1 101:1 168:1 240:1 253:1 
2 1:0.5 2:0.5 3:0.48879453 4:0.41176471 5:0.62080691 71:1 85:1 101:1 176:1 
2 1:0.42857143 2:0.42857143 3:0.32210705 4:0.49411765 5:0.71730539 69:1 84:1 101:1 122:1 241:1 
0.3267443909135637 1:0.5 2:0.5 3:0.27081859 4:0.57647059 5:0.76555464 69:1 99:1 141:1 242:1 253:1 
2 1:0.35714286 2:0.35714286 3:0.37980656 4:0.43529412 5:0.61598199 69:1 85:1 100:1 168:1 
2 1:0.5 2:0.5 3:0.41613588 4:0.57647059 5:0.7977208 70:1 86:1 101:1 122:1 136:1 142:1 252:1 
2 1:0.21428571 2:0.21428571 3:0.51993395 4:0.72287582 5:0.75452624 99:1 120:1 135:1 143:1 252:1 
1.995024565922815 1:0.28571429 2:0.28571429 3:0.35800896 4:0.59705882 5:0.77134455 99:1 120:1 141:1 156:1 253:1 
0.2669353429359619 1:0.5 2:0.5 3:0.27081859 4:0.57647059 5:0.76555464 99:1 170:1 213:1 254:1 
2 1:0.14285714 2:0.14285714 3:0.30435335 4:0.57647059 5:0.7729776 108:1 120:1 192:1 240:1 253:1 
1.570270206629249 1:0.42857143 2:0.42857143 3:0.39903973 4:0.63137255 5:0.76328408 108:1 143:1 176:1 204:1 
2 1:0.42857143 2:0.42857143 3:0.32210705 4:0.49411765 5:0.71730539 110:1 120:1 176:1 240:1 
2 1:0.5 2:0.5 3:0.27081859 4:0.74117647 5:0.73338848 141:1 156:1 214:1 228:1 254:1 
0.3053759451505231 1:0.28571429 2:0.28571429 3:0.27081859 4:0.49411765 5:0.71730539 109:1 156:1 242:1 252:1 
2 1:0.28571429 2:0.28571429 3:0.53238971 4:0.49411765 5:0.71730539 101:1 120:1 135:1 229:1 
0.4020351303804621 1:0.28571429 2:0.28571429 3:0.44519934 4:0.49411765 5:0.71730539 101:1 121:1 168:1 252:1 
0.9050689785223797 1:0.5 2:0.5 3:0.34347724 4:0.41176471 5:0.65297307 65:1 206:1 242:1 
2 1:0.42857143 2:0.42857143 3:0.47597241 4:0.49411765 5:0.71730539 64:1 70:1 86:1 101:1 122:1 136:1 142:1 252:1 
0.99885512140525 1:0.28571429 2:0.28571429 3:0.44519934 4:0.18529412 5:0.69414576 64:1 109:1 174:1 253:1 
0.7492104870774271 1:0.5 2:0.5 3:0.34347724 4:0.57647059 5:0.78163772 44:1 71:1 215:1 253:1 278:1 
2 1:0.64285714 2:0.64285714 3:0.31441378 4:0.35686275 5:0.68256594 44:1 141:1 158:1 214:1 253:1 
0.9163717675338606 1:0.64285714 2:0.64285714 3:0.249021 4:0.35686275 5:0.6912508 44:1 206:1 213:1 254:1 
1.054399219604843 1:0.35714286 2:0.35714286 3:0.37980656 4:0.43529412 5:0.61598199 42:1 99:1 141:1 156:1 253:1 
0.4278053932566077 1:0.5 2:0.5 3:0.34347724 4:0.41176471 5:0.65297307 42:1 100:1 141:1 215:1 254:1 
2 1:0.42857143 2:0.42857143 3:0.39903973 4:0.49411765 5:0.71730539 42:1 65:1 141:1 156:1 252:1 
2 1:0.35714286 2:0.35714286 3:0.46154753 4:0.43529412 5:0.59065114 41:1 43:1 63:1 192:1 253:1 
1.181536772702409 1:0.5 2:0.5 3:0.41613588 4:0.57647059 5:0.7977208 40:1 71:1 176:1 215:1 254:1 
0.2533269190633968 1:0.35714286 2:0.35714286 3:0.37980656 4:0.31764706 5:0.68353093 25:1 39:1 175:1 253:1 
2 1:0.35714286 2:0.35714286 3:0.29806558 4:0.43529412 5:0.64131284 13:1 24:1 141:1 176:1 192:1 253:1 
2 1:0.5 2:0.5 3:0.27081859 4:0.41176471 5:0.66905615 13:1 69:1 176:1 206:1 252:1 
1.787214861308655 1:0.35714286 2:0.35714286 3:0.37980656 4:0.55294118 5:0.8186288 13:1 42:1 143:1 215:1 252:1 
2 1:0.35714286 2:0.35714286 3:0.46154753 4:0.55294118 5:0.84395965 13:1 41:1 204:1 214:1 252:1 
2 1:0.35714286 2:0.35714286 3:0.53922818 4:0.34313725 5:0.63791174 25:1 40:1 53:1 100:1 249:1 
2 1:0.21428571 2:0.21428571 3:0.58259023 4:0.44607843 5:0.65320701 12:1 24:1 39:1 52:1 63:1 236:1 
2 1:0.21428571 2:0.21428571 3:0.46369427 4:0.51470588 5:0.62952102 12:1 24:1 51:1 63:1 229:1 250:1 
2 1:0.35714286 2:0.35714286 3:0.33565246 4:0.47352941 5:0.61929758 12:1 26:1 40:1 195:1 206:1 250:1 
2 1:0.21428571 2:0.21428571 3:0.3447983 4:0.37745098 5:0.62952102 12:1 25:1 40:1 64:1 235:1 251:1 264:1 
2 1:0.5 2:0.5 3:0.41613588 4:0.61764706 5:0.62145023 14:1 24:1 41:1 119:1 236:1 251:1 
2 1:0.35714286 2:0.35714286 3:0.33565246 4:0.47352941 5:0.61929758 14:1 26:1 51:1 64:1 68:1 204:1 251:1 
2 1:0.21428571 2:0.21428571 3:0.46369427 4:0.51470588 5:0.62952102 14:1 26:1 40:1 51:1 63:1 195:1 251:1 
2 1:0.5 2:0.5 3:0.41613588 4:0.41176471 5:0.63688999 14:1 25:1 53:1 65:1 158:1 250:1 
2 1:0.35714286 2:0.35714286 3:0.73806957 4:0.47352941 5:0.66383534 24:1 39:1 53:1 65:1 196:1 250:1 
2 1:0.57142857 2:0.57142857 3:0.44883227 4:0.60294118 5:0.6238627 24:1 51:1 117:1 140:1 250:1 
2 1:0.28571429 2:0.28571429 3:0.39433829 4:0.64572193 5:0.61962749 24:1 111:1 204:1 215:1 228:1 250:1 
2 1:0.42857143 2:0.42857143 3:0.28535032 4:0.35457516 5:0.61373036 13:1 26:1 40:1 175:1 204:1 250:1 
2 1:0.35714286 2:0.35714286 3:0.23504818 4:0.55588235 5:0.61001888 13:1 25:1 119:1 132:1 213:1 251:1 
1.646492762881708 1:0.35714286 2:0.35714286 3:0.23504818 4:0.37058824 5:0.61974295 14:1 24:1 36:1 44:1 174:1 252:1 
2 1:0.28571429 2:0.28571429 3:0.28535032 4:0.39304813 5:0.62531017 24:1 84:1 92:1 229:1 252:1 
2 1:0.28571429 2:0.28571429 3:0.28535032 4:0.39304813 5:0.62531017 36:1 68:1 85:1 123:1 228:1 254:1 
2 1:0.28571429 2:0.28571429 3:0.39433829 4:0.46791444 5:0.6328922 36:1 44:1 84:1 92:1 111:1 228:1 252:1 
2 1:0.35714286 2:0.35714286 3:0.23504818 4:0.28823529 5:0.61417573 85:1 91:1 220:1 230:1 252:1 
2 1:0.28571429 2:0.28571429 3:0.28535032 4:0.39304813 5:0.62531017 66:1 84:1 91:1 111:1 252:1 276:1 
0.8821463016489078 1:0.57142857 2:0.57142857 3:0.3670913 4:0.38235294 5:0.63375379 44:1 189:1 229:1 
0.7199573740756864 1:0.14285714 2:0.14285714 3:0.15456476 4:0.30090498 5:0.60022057 13:1 25:1 36:1 42:1 252:1 264:1 
2 1:0.28571429 2:0.28571429 3:0.35954597 4:0.67058824 5:0.75704916 12:1 47:1 60:1 96:1 179:1 246:1 
2 1:0.35714286 2:0.35714286 3:0.38110403 4:0.35947712 5:0.6493314 12:1 85:1 153:1 208:1 246:1 
0.2203071796712033 1:0.35714286 2:0.35714286 3:0.38110403 4:0.45098039 5:0.62948029 24:1 46:1 73:1 192:1 246:1 
2 1:0.5 2:0.5 3:0.3343949 4:0.52941176 5:0.57778467 45:1 60:1 72:1 154:1 246:1 
0.3144140985759934 1:0.57142857 2:0.57142857 3:0.35362808 4:0.58823529 5:0.67910808 46:1 73:1 153:1 167:1 
2 1:0.57142857 2:0.57142857 3:0.35362808 4:0.58823529 5:0.67910808 37:1 46:1 108:1 153:1 179:1 248:1 
2 1:0.5 2:0.5 3:0.41613588 4:0.17647059 5:0.66101461 37:1 46:1 109:1 128:1 246:1 
2 1:0.42857143 2:0.42857143 3:0.31259731 4:0.27941176 5:0.66109503 13:1 25:1 46:1 122:1 246:1 
2 1:0.14285714 2:0.14285714 3:0.42356688 4:0.70588235 5:0.66222084 12:1 24:1 96:1 108:1 208:1 251:1 
2 1:0.35714286 2:0.35714286 3:0.28768577 4:0.84313725 5:0.69944169 12:1 24:1 96:1 155:1 165:1 251:1 
2 1:0.42857143 2:0.42857143 3:0.31259731 4:0.60294118 5:0.60818169 12:1 38:1 72:1 153:1 244:1 250:1 
0.07541878876458229 1:0.28571429 2:0.28571429 3:0.35954597 4:0.78823529 5:0.74016193 12:1 47:1 60:1 96:1 179:1 
0.2954847555039622 1:0.28571429 2:0.28571429 3:0.35954597 4:0.78823529 5:0.74016193 12:1 46:1 60:1 96:1 144:1 251:1 
1.366547348351879 1:0.21428571 2:0.21428571 3:0.22540694 4:0.74331551 5:0.76836918 12:1 60:1 96:1 120:1 153:1 276:1 
1.846493252674265 1:0.42857143 2:0.42857143 3:0.31259731 4:0.70588235 5:0.66222084 12:1 62:1 179:1 207:1 249:1 
2 1:0.57142857 2:0.57142857 3:0.12283002 4:0.70588235 5:0.66222084 14:1 26:1 38:1 46:1 120:1 153:1 251:1 
0.5470410729735938 1:0.5 2:0.5 3:0.25265393 4:0.52941176 5:0.63688999 14:1 25:1 46:1 61:1 153:1 251:1 
1.644066717958741 1:0.5 2:0.5 3:0.3343949 4:0.76470588 5:0.76354425 36:1 46:1 72:1 165:1 251:1 
0.9388009551852078 1:0.35714286 2:0.35714286 3:0.47452229 4:0.66013072 5:0.47611663 47:1 108:1 208:1 251:1 
0.7656253057106015 1:0.57142857 2:0.57142857 3:0.35362808 4:0.70588235 5:0.66222084 47:1 122:1 154:1 251:1 
2 1:0.5 2:0.5 3:0.3343949 4:0.88235294 5:0.69599531 45:1 60:1 84:1 179:1 215:1 250:1 
2 1:0.64285714 2:0.64285714 3:0.44338287 4:0.78823529 5:0.75871933 46:1 60:1 154:1 166:1 251:1 
2 1:0.28571429 2:0.28571429 3:0.35954597 4:0.87058824 5:0.70119139 72:1 144:1 167:1 179:1 192:1 251:1 
1.29684490892777 1:0.57142857 2:0.57142857 3:0.35362808 4:0.70588235 5:0.66222084 37:1 46:1 108:1 153:1 179:1 250:1 
0.2556537605149689 1:0.5 2:0.5 3:0.41613588 4:0.29411765 5:0.64412738 37:1 46:1 109:1 128:1 
0.3872148019000421 1:0.35714286 2:0.35714286 3:0.38110403 4:0.56862745 5:0.61259305 25:1 46:1 97:1 108:1 251:1 
1.59338433380643 1:0.57142857 2:0.57142857 3:0.53602265 4:0.54411765 5:0.62257605 34:1 112:1 190:1 251:1 
2 1:0.64285714 2:0.64285714 3:0.25714167 4:0.30882353 5:0.64457203 86:1 206:1 235:1 250:1 
0.4610432489274263 1:0.57142857 2:0.57142857 3:0.37254069 4:0.42647059 5:0.63946328 101:1 206:1 235:1 251:1 
1.172565533513869 1:0.42857143 2:0.42857143 3:0.65279547 4:0.49183007 5:0.61713078 53:1 99:1 112:1 250:1 
0.5119070202496044 1:0.5 2:0.5 3:0.59051663 4:0.51470588 5:0.62016359 53:1 112:1 191:1 250:1 
2 1:0.35714286 2:0.35714286 3:0.32223855 4:0.47352941 5:0.64317476 25:1 112:1 206:1 251:1 
0.2938104830285475 1:0.5 2:0.5 3:0.41613588 4:0.68627451 5:0.90488007 12:1 34:1 179:1 207:1 249:1 
1.709535134667039 1:0.28571429 2:0.28571429 3:0.50955414 4:0.70915033 5:0.85525227 12:1 96:1 155:1 207:1 251:1 
1.679866237075174 1:0.35714286 2:0.35714286 3:0.50955414 4:0.4533571 5:0.617866 12:1 96:1 102:1 208:1 250:1 
1.607444428672854 1:0.42857143 2:0.42857143 3:0.40894986 4:0.39346405 5:0.64072872 14:1 25:1 34:1 208:1 
1.464198672621716 1:0.42857143 2:0.42857143 3:0.30834558 4:0.47581699 5:0.63145002 72:1 217:1 225:1 241:1 250:1 
2 1:0.5 2:0.5 3:0.41613588 4:0.41176471 5:0.63688999 56:1 72:1 122:1 208:1 250:1 
2 1:0.42857143 2:0.42857143 3:0.40894986 4:0.31111111 5:0.65093529 54:1 72:1 82:1 97:1 104:1 217:1 
0.3933484025699598 1:0.42857143 2:0.42857143 3:0.30834558 4:0.47581699 5:0.63145002 54:1 72:1 242:1 250:1 276:1 
0.3469463661967406 1:0.42857143 2:0.42857143 3:0.50955414 4:0.22875817 5:0.65260546 54:1 102:1 208:1 
2 1:0.28571429 2:0.28571429 3:0.50955414 4:0.57189542 5:0.50785773 13:1 155:1 207:1 216:1 
2 1:0.5 2:0.5 3:0.32271762 4:0.50326797 5:0.61952026 13:1 56:1 129:1 144:1 251:1 
2 1:0.35714286 2:0.35714286 3:0.50955414 4:0.37849079 5:0.63606286 13:1 54:1 83:1 102:1 131:1 208:1 
0.2781576768337504 1:0.28571429 2:0.28571429 3:0.36583374 4:0.50678733 5:0.63688999 63:1 184:1 240:1 249:1 264:1 
1.480572357457768 1:0.5 2:0.5 3:0.51674016 4:0.41176471 5:0.63688999 63:1 164:1 198:1 251:1 
2 1:0.57142857 2:0.57142857 3:0.17899722 4:0.36601307 5:0.71133168 127:1 157:1 163:1 249:1 264:1 
0.973468633479869 1:0.64285714 2:0.64285714 3:0.30714791 4:0.54422049 5:0.58381583 12:1 57:1 129:1 227:1 248:1 
2 1:0.42857143 2:0.42857143 3:0.63411182 4:0.4479638 5:0.56934105 39:1 75:1 226:1 246:1 
2 1:0.5 2:0.5 3:0.41613588 4:0.51470588 5:0.62034739 119:1 189:1 239:1 256:1 
2 1:0.42857143 2:0.42857143 3:0.50955414 4:0.33910035 5:0.63688999 155:1 174:1 198:1 256:1 
2 1:0.57142857 2:0.57142857 3:0.67303609 4:0.38431373 5:0.5283292 54:1 130:1 238:1 256:1 
1.558013812458661 1:0.64285714 2:0.64285714 3:0.58221279 4:0.35294118 5:0.61437368 54:1 103:1 166:1 257:1 
1.416811458105423 1:0.5 2:0.5 3:0.6029724 4:0.41176471 5:0.63688999 25:1 166:1 238:1 256:1 
0.1006492825856308 1:0.64285714 2:0.64285714 3:0.41613588 4:0.51158645 5:0.40529363 11:1 58:1 176:1 
2 1:0.57142857 2:0.57142857 3:0.41613588 4:0.53903743 5:0.39081886 10:1 24:1 44:1 59:1 73:1 92:1 251:1 
0.6233361833507463 1:0.57142857 2:0.57142857 3:0.21492732 4:0.53903743 5:0.36854998 26:1 38:1 239:1 250:1 
2 1:0.5 2:0.5 3:0.19815994 4:0.41176471 5:0.53074166 26:1 37:1 43:1 59:1 
-0.299418427426911 1:0.42857143 2:0.42857143 3:0.47597241 4:0.35686275 5:0.66110922 65:1 110:1 121:1 137:1 214:1 253:1 
-0.00841902426523939 1:0.28571429 2:0.28571429 3:0.24028975 4:0.41176471 5:0.66024425 13:1 25:1 84:1 157:1 188:1 218:1 251:1 
-2 1:0.35714286 2:0.35714286 3:0.46308454 4:0.45294118 5:0.63585078 59:1 96:1 140:1 156:1 172:1 
-0.6113181023793437 1:0.21428571 2:0.21428571 3:0.43198868 4:0.58333333 5:0.63156795 24:1 63:1 71:1 112:1 172:1 206:1 
-2 1:0.14285714 2:0.14285714 3:0.59259259 4:0.58169935 5:0.53919677 27:1 40:1 136:1 143:1 204:1 252:1 
-2 1:0.28571429 2:0.28571429 3:0.44519934 4:0.59705882 5:0.7867843 25:1 71:1 100:1 168:1 214:1 228:1 
-1.381065884069567 1:0.71428571 2:0.71428571 3:0.27081859 4:0.49411765 5:0.71730539 41:1 43:1 69:1 142:1 158:1 206:1 
-1.966626946927533 1:0.35714286 2:0.35714286 3:0.54328851 4:0.55294118 5:0.86929051 12:1 42:1 101:1 135:1 176:1 215:1 252:1 
-2 1:0.14285714 2:0.14285714 3:0.40495763 4:0.41176471 5:0.63936431 64:1 109:1 135:1 168:1 241:1 254:1 
-2 1:0.5 2:0.5 3:0.41613588 4:0.53846154 5:0.69710505 30:1 47:1 165:1 191:1 255:1 
-2 1:0.35714286 2:0.35714286 3:0.44852859 4:0.54901961 5:0.5909113 12:1 20:1 63:1 148:1 227:1 
-0.2890863760224288 1:0.42857143 2:0.42857143 3:0.61429582 4:0.36185383 5:0.67092764 23:1 42:1 101:1 191:1 222:1 241:1 257:1 
-2 1:0.42857143 2:0.42857143 3:0.47218684 4:0.62908497 5:0.62436488 24:1 51:1 68:1 197:1 206:1 215:1 251:1 
-0.5010965157870017 1:0.35714286 2:0.35714286 3:0.43625674 4:0.37058824 5:0.64201183 12:1 66:1 190:1 207:1 221:1 230:1 253:1 
-2 1:0.42857143 2:0.42857143 3:0.22540694 4:0.48529412 5:0.64050868 12:1 46:1 85:1 97:1 146:1 165:1 
-2 1:0.42857143 2:0.42857143 3:0.5529051 4:0.63137255 5:0.78371906 14:1 24:1 41:1 65:1 101:1 143:1 
-2 1:0.42857143 2:0.42857143 3:0.30834558 4:0.39346405 5:0.64815168 54:1 102:1 192:1 216:1 225:1 241:1 250:1 
-2 1:0.64285714 2:0.64285714 3:0.38023396 4:0.48039216 5:0.62775102 57:1 72:1 80:1 106:1 200:1 217:1 
-0.6295842147443621 1:0.57142857 2:0.57142857 3:0.67374381 4:0.45543672 5:0.66028356 12:1 20:1 75:1 136:1 190:1 238:1 248:1 
-1.500993536647459 1:0.5 2:0.5 3:0.30714791 4:0.41176471 5:0.58381583 25:1 37:1 59:1 86:1 128:1 238:1 
-0.8232274330001685 1:0.5 2:0.5 3:0.013718765 4:0.32941176 5:0.61369324 86:1 126:1 146:1 182:1 235:1 252:1 
-2 1:0.28571429 2:0.28571429 3:0.45637759 4:0.36742081 5:0.64249433 12:1 76:1 125:1 144:1 180:1 235:1 
-0.08944690321462814 1:0.21428571 2:0.21428571 3:0.48955935 4:0.30882353 5:0.69092914 13:1 18:1 51:1 148:1 209:1 227:1 256:1 
-0.4364941296184189 1:0.57142857 2:0.57142857 3:0.43769394 4:0.31111111 5:0.6471814 75:1 126:1 164:1 188:1 199:1 216:1 
-0.05063091973860023 1:0.5 2:0.5 3:0.30714791 4:0.56149733 5:0.37151916 44:1 58:1 72:1 108:1 127:1 204:1 251:1 
-0.5233685498992001 1:0.64285714 2:0.64285714 3:0.30330128 4:0.61764706 5:0.61838499 17:1 58:1 79:1 98:1 105:1 180:1 
-0.5101635226211179 1:0.42857143 2:0.42857143 3:0.53153491 4:0.33333333 5:0.65221622 27:1 46:1 102:1 116:1 161:1 192:1 253:1 
-2 1:0.57142857 2:0.57142857 3:0.59447983 4:0.43815988 5:0.58951801 14:1 23:1 40:1 77:1 130:1 248:1 
-0.4765385957136866 1:0.5 2:0.5 3:0.41613588 4:0.68627451 5:0.7084124 12:1 53:1 107:1 130:1 182:1 186:1 251:1 
-2 1:0.57142857 2:0.57142857 3:0.48549186 4:0.46167558 5:0.64996115 76:1 119:1 166:1 201:1 234:1 
-0.6380110788111176 1:0.57142857 2:0.57142857 3:0.36484743 4:0.63137255 5:0.72090044 107:1 117:1 156:1 188:1 205:1 250:1 
-1.483737401967011 1:0.42857143 2:0.42857143 3:0.53446568 4:0.57189542 5:0.6843121 16:1 112:1 161:1 165:1 203:1 251:1 
-2 1:0.71428571 2:0.71428571 3:0.29988205 4:0.63823529 5:0.65554637 26:1 122:1 143:1 177:1 214:1 250:1 
-0.2649175855069969 1:0.28571429 2:0.28571429 3:0.61958009 4:0.28823529 5:0.66712618 65:1 101:1 109:1 135:1 174:1 253:1 
-2 1:0.85714286 2:0.85714286 3:0.25186416 4:0.49411765 5:0.71730539 44:1 70:1 141:1 175:1 213:1 254:1 
-1.960010600183369 1:0.42857143 2:0.42857143 3:0.17834395 4:0.37433155 5:0.318445 43:1 108:1 205:1 229:1 237:1 
-1.70618970589963 1:0.21428571 2:0.21428571 3:0.25265393 4:0.45668449 5:0.42700579 36:1 84:1 153:1 168:1 205:1 229:1 
-2 1:0.28571429 2:0.28571429 3:0.58716316 4:0.24072398 5:0.67761977 13:1 18:1 64:1 75:1 188:1 252:1 
-2 1:0.57142857 2:0.57142857 3:0.43750607 4:0.79607843 5:0.6940953 39:1 53:1 55:1 105:1 131:1 251:1 
-1.716001778848524 1:0.35714286 2:0.35714286 3:0.41613588 4:0.31463047 5:0.63688999 12:1 93:1 102:1 148:1 150:1 219:1 246:1 
-0.5672404454081278 1:0.35714286 2:0.35714286 3:0.70677046 4:0.67058824 5:0.78485433 41:1 63:1 101:1 135:1 142:1 192:1 
-1.22644505778461 1:0.35714286 2:0.35714286 3:0.48793972 4:0.58333333 5:0.64964293 40:1 45:1 75:1 116:1 179:1 231:1 252:1 
-1.100292489000581 1:0.21428571 2:0.21428571 3:0.42731413 4:0.37647059 5:0.63992103 37:1 63:1 84:1 123:1 146:1 164:1 252:1 
-0.2397969436160178 1:0.57142857 2:0.57142857 3:0.24798301 4:0.64052288 5:0.681555 12:1 74:1 103:1 131:1 144:1 178:1 250:1 
-0.5169670607463144 1:0.5 2:0.5 3:0.50332626 4:0.30882353 5:0.61373036 40:1 92:1 195:1 213:1 229:1 236:1 
-2 1:0.28571429 2:0.28571429 3:0.067374381 4:0.46791444 5:0.61014613 12:1 24:1 37:1 158:1 230:1 239:1 
-1.441348117631936 1:0.5 2:0.5 3:0.51674016 4:0.41176471 5:0.64245721 20:1 36:1 65:1 144:1 164:1 236:1 252:1 
-2 1:0.5 2:0.5 3:0.32271762 4:0.41176471 5:0.67411084 13:1 26:1 30:1 117:1 243:1 250:1 
-0.7000423284432683 1:0.57142857 2:0.57142857 3:0.56475584 4:0.38057041 5:0.74874051 19:1 63:1 77:1 102:1 137:1 225:1 
-0.2569430245801615 1:0.35714286 2:0.35714286 3:0.40056617 4:0.4533571 5:0.62848084 12:1 54:1 194:1 208:1 226:1 240:1 
-2 1:0.28571429 2:0.28571429 3:0.35954597 4:0.62352941 5:0.58427976 12:1 36:1 109:1 165:1 179:1 208:1 
-0.2905517502492826 1:0.42857143 2:0.42857143 3:0.57183298 4:0.56045752 5:0.82437276 29:1 101:1 120:1 131:1 216:1 224:1 
-1.063468306044257 1:0.64285714 2:0.64285714 3:0.41613588 4:0.42008318 5:0.5789909 10:1 24:1 58:1 73:1 92:1 176:1 
-1.076053332378435 1:0.14285714 2:0.14285714 3:0.20374907 4:0.32941176 5:0.70060373 14:1 26:1 100:1 121:1 192:1 205:1 253:1 
-0.159329446069978 1:0.5 2:0.5 3:0.97664544 4:0.41176471 5:0.63688999 51:1 56:1 88:1 131:1 166:1 222:1 257:1 
-0.0727978575355961 1:0.5 2:0.5 3:0.29723992 4:0.41176471 5:0.63057373 8:1 19:1 47:1 122:1 156:1 208:1 
-0.6936744022855953 1:0.57142857 2:0.57142857 3:0.33517339 4:0.84640523 5:0.72401434 82:1 130:1 155:1 179:1 216:1 242:1 251:1 
-0.7913258973133249 1:0.35714286 2:0.35714286 3:0.56368882 4:0.28823529 5:0.71008038 15:1 28:1 105:1 157:1 173:1 246:1 
-1.565865368503161 1:0.57142857 2:0.57142857 3:0.27669539 4:0.31372549 5:0.66122748 46:1 74:1 84:1 128:1 145:1 153:1 246:1 
-0.1725018953866993 1:0.64285714 2:0.64285714 3:0.50955414 4:0.51633987 5:0.59966915 32:1 57:1 76:1 117:1 207:1 212:1 251:1 
-2 1:0.57142857 2:0.57142857 3:0.21797594 4:0.33065954 5:0.62994711 20:1 60:1 127:1 211:1 253:1 
-0.4046737620465555 1:0.21428571 2:0.21428571 3:0.51993395 4:0.53986928 5:0.90340961 25:1 65:1 100:1 108:1 135:1 141:1 252:1 
-2 1:0.5 2:0.5 3:0.48879453 4:0.082352941 5:0.6980057 41:1 44:1 109:1 176:1 229:1 
-2 1:0.35714286 2:0.35714286 3:0.2915782 4:0.52822341 5:0.61078945 25:1 34:1 122:1 145:1 179:1 216:1 
-0.8097338446836648 1:0.42857143 2:0.42857143 3:0.72526539 4:0.36953243 5:0.68566559 18:1 111:1 119:1 184:1 197:1 236:1 
-0.9236446043454842 1:0.35714286 2:0.35714286 3:0.54692144 4:0.62714932 5:0.71215881 12:1 47:1 63:1 161:1 225:1 239:1 255:1 
-1.935640523125194 1:0.57142857 2:0.57142857 3:0.41613588 4:0.45668449 5:0.46319272 24:1 36:1 44:1 128:1 155:1 210:1 250:1 
-0.4140952037925542 1:0.64285714 2:0.64285714 3:0.41100704 4:0.58333333 5:0.63435454 25:1 111:1 141:1 190:1 213:1 236:1 251:1 
-2 1:0.28571429 2:0.28571429 3:0.26355272 4:0.60828877 5:0.65715467 14:1 25:1 120:1 171:1 215:1 
-2 1:0.64285714 2:0.64285714 3:0.43625674 4:0.49411765 5:0.60348667 14:1 43:1 75:1 92:1 107:1 238:1 
-0.9972119978688194 1:0.21428571 2:0.21428571 3:0.22590234 4:0.44607843 5:0.60583503 12:1 25:1 86:1 171:1 196:1 230:1 251:1 
-0.01739972089912411 1:0.35714286 2:0.35714286 3:0.30638576 4:0.41176471 5:0.63688999 142:1 156:1 162:1 184:1 228:1 242:1 
-2 1:0.35714286 2:0.35714286 3:0.46154753 4:0.31764706 5:0.67508731 25:1 42:1 101:1 252:1 
-1.55265905329466 1:0.071428571 2:0.071428571 3:0.48879453 4:0.30695187 5:0.67484606 13:1 25:1 63:1 100:1 193:1 253:1 
-0.5529155979590987 1:0.21428571 2:0.21428571 3:0.48123277 4:0.2745098 5:0.65221622 13:1 40:1 89:1 144:1 172:1 178:1 253:1 
-0.5986871274089602 1:0.28571429 2:0.28571429 3:0.35800896 4:0.49411765 5:0.71730539 26:1 40:1 42:1 99:1 215:1 242:1 252:1 
-1.99812964098051 1:0.35714286 2:0.35714286 3:0.33565246 4:0.45294118 5:0.62902165 12:1 38:1 90:1 123:1 189:1 219:1 
-0.1570234764466854 1:0.64285714 2:0.64285714 3:0.30330128 4:0.34313725 5:0.63541413 30:1 50:1 58:1 72:1 116:1 139:1 
-1.568933819868147 1:0.42857143 2:0.42857143 3:0.17899722 4:0.47581699 5:0.65734555 45:1 62:1 137:1 156:1 175:1 216:1 253:1 
-0.1041751354365824 1:0.14285714 2:0.14285714 3:0.41613588 4:0.47727273 5:0.43424318 36:1 84:1 109:1 120:1 169:1 192:1 250:1 
-0.1122054850261453 1:0.28571429 2:0.28571429 3:0.37980656 4:0.032085561 5:0.61804981 18:1 30:1 78:1 162:1 181:1 208:1 253:1 
-2 1:0.35714286 2:0.35714286 3:0.46154753 4:0.31764706 5:0.67508731 24:1 40:1 42:1 101:1 175:1 252:1 
-0.09285418947833833 1:0.21428571 2:0.21428571 3:0.72753008 4:0.49411765 5:0.68513923 24:1 54:1 88:1 119:1 131:1 219:1 255:1 
-1.20710688136441 1:0.5 2:0.5 3:0.41613588 4:0.24705882 5:0.67400479 8:1 65:1 78:1 97:1 153:1 228:1 246:1 
-0.3850065199489774 1:0.57142857 2:0.57142857 3:0.10898797 4:0.25579323 5:0.6253979 7:1 61:1 91:1 138:1 192:1 211:1 
-0.6918482699600709 1:0.28571429 2:0.28571429 3:0.45010616 4:0.32026144 5:0.60756448 24:1 31:1 76:1 88:1 157:1 244:1 250:1 
-0.005232506431076268 1:0.28571429 2:0.28571429 3:0.27176221 4:0.36601307 5:0.65392135 13:1 49:1 55:1 72:1 102:1 168:1 
-0.1681052295446825 1:0.21428571 2:0.21428571 3:0.41613588 4:0.40178253 5:0.75268817 25:1 36:1 73:1 85:1 176:1 228:1 251:1 
-0.3499610642274583 1:0.42857143 2:0.42857143 3:0.39903973 4:0.76862745 5:0.74029474 101:1 142:1 175:1 192:1 215:1 240:1 252:1 
-1.324906805282711 1:0.42857143 2:0.42857143 3:0.31259731 4:0.60294118 5:0.60818169 13:1 46:1 73:1 121:1 167:1 179:1 249:1 
-1.508392123065434 1:0.14285714 2:0.14285714 3:0.50556191 4:0.65882353 5:0.76741038 12:1 39:1 99:1 168:1 176:1 228:1 252:1 
-2 1:0.14285714 2:0.14285714 3:0.54692144 4:0.41528406 5:0.6108354 13:1 39:1 75:1 220:1 240:1 246:1 
-0.7542995261725215 1:0.35714286 2:0.35714286 3:0.67932664 4:0.68627451 5:0.62922688 41:1 95:1 113:1 125:1 219:1 255:1 
-1.235621511519003 1:0.14285714 2:0.14285714 3:0.77423921 4:0.30414439 5:0.68444996 12:1 51:1 75:1 186:1 208:1 245:1 253:1 
-2 1:0.42857143 2:0.42857143 3:0.19815994 4:0.50678733 5:0.63688999 12:1 148:1 165:1 227:1 242:1 
-1.504818062263808 1:0.57142857 2:0.57142857 3:0.43056076 4:0.84313725 5:0.71841702 37:1 46:1 96:1 155:1 166:1 178:1 251:1 
-2 1:0.5 2:0.5 3:0.3392032 4:0.41176471 5:0.62667251 14:1 41:1 88:1 127:1 177:1 192:1 
-2 1:0.42857143 2:0.42857143 3:0.28535032 4:0.44607843 5:0.61373036 24:1 63:1 91:1 134:1 205:1 250:1 
-2 1:0.64285714 2:0.64285714 3:0.1478578 4:0.51470588 5:0.5982906 14:1 81:1 158:1 162:1 189:1 251:1 
-2 1:0.14285714 2:0.14285714 3:0.42105263 4:0.64052288 5:0.60711332 12:1 64:1 95:1 183:1 207:1 255:1 
-0.6338981506820127 1:0.21428571 2:0.21428571 3:0.37876858 4:0.48215184 5:0.62133995 26:1 54:1 96:1 120:1 207:1 217:1 
-1.047692730440766 1:0.42857143 2:0.42857143 3:0.37876858 4:0.5375817 5:0.62117452 25:1 51:1 134:1 175:1 195:1 215:1 250:1 
-2 1:0.21428571 2:0.21428571 3:0.50955414 4:0.7355455 5:0.80700303 24:1 72:1 120:1 155:1 207:1 251:1 
-2 1:0.35714286 2:0.35714286 3:0.2915782 4:0.4533571 5:0.63909567 13:1 72:1 153:1 170:1 208:1 
-0.4626063157854776 1:0.21428571 2:0.21428571 3:0.31422505 4:0.32598039 5:0.5613204 6:1 49:1 54:1 76:1 119:1 195:1 252:1 
-0.1064803320383098 1:0.28571429 2:0.28571429 3:0.80849257 4:0.75802139 5:0.85175995 51:1 63:1 101:1 111:1 137:1 179:1 251:1 
-1.015998965628177 1:0.78571429 2:0.78571429 3:0.3343949 4:0.6684492 5:0.35390819 11:1 38:1 44:1 58:1 154:1 250:1 
-0.05743818836403775 1:0.28571429 2:0.28571429 3:0.40764331 4:0.43464052 5:0.63598767 28:1 39:1 113:1 158:1 170:1 253:1 
-0.05367130891521863 1:0.35714286 2:0.35714286 3:0.46154753 4:0.55294118 5:0.84395965 24:1 65:1 70:1 86:1 99:1 205:1 
-0.8395819613489055 1:0.57142857 2:0.57142857 3:0.11641897 4:0.45588235 5:0.70082024 38:1 100:1 141:1 158:1 223:1 237:1 252:1 
-1.422603072944048 1:0.5 2:0.5 3:0.30714791 4:0.18716578 5:0.26537083 42:1 139:1 169:1 174:1 210:1 251:1 
-0.6040898116529907 1:0.64285714 2:0.64285714 3:0.32271762 4:0.42008318 5:0.54177006 10:1 86:1 154:1 193:1 210:1 250:1 
-1.132063358425536 1:0.35714286 2:0.35714286 3:0.40056617 4:0.4533571 5:0.62848084 12:1 34:1 50:1 54:1 145:1 208:1 251:1 
-0.4141250083108228 1:0.28571429 2:0.28571429 3:0.34469839 4:0.32026144 5:0.57777453 12:1 29:1 116:1 145:1 192:1 232:1 254:1 
-1.426041423867703 1:0.57142857 2:0.57142857 3:0.32696391 4:0.25579323 5:0.64662757 19:1 66:1 84:1 164:1 208:1 211:1 
-0.2989333462720513 1:0.42857143 2:0.42857143 3:0.4846426 4:0.61764706 5:0.62641301 48:1 58:1 107:1 116:1 171:1 228:1 
-0.6938542143990569 1:0.28571429 2:0.28571429 3:0.68776743 4:0.44977376 5:0.6517854 20:1 39:1 63:1 107:1 120:1 220:1 
-1.418173444739749 1:0.57142857 2:0.57142857 3:0.3155316 4:0.37433155 5:0.318445 58:1 85:1 109:1 128:1 237:1 
-2 1:0.071428571 2:0.071428571 3:0.34200641 4:0.24705882 5:0.68699497 12:1 52:1 112:1 148:1 193:1 256:1 
-0.4206721989938468 1:0.57142857 2:0.57142857 3:0.3670913 4:0.25 5:0.5883995 39:1 68:1 91:1 172:1 230:1 235:1 
-1.993118726557444 1:0.57142857 2:0.57142857 3:0.45887626 4:0.35686275 5:0.63613314 29:1 41:1 115:1 146:1 236:1 252:1 
-0.4691285386002638 1:0.64285714 2:0.64285714 3:0.1358811 4:0.60308972 5:0.34822167 26:1 38:1 57:1 72:1 155:1 212:1 250:1 
-2 1:0.14285714 2:0.14285714 3:0.30435335 4:0.41176471 5:0.66163319 13:1 25:1 108:1 193:1 252:1 
-0.07643766250243039 1:0.42857143 2:0.42857143 3:0.26157113 4:0.48039216 5:0.62636288 47:1 84:1 127:1 164:1 180:1 192:1 
-2 1:0.35714286 2:0.35714286 3:0.2915782 4:0.4533571 5:0.63909567 14:1 54:1 96:1 129:1 168:1 208:1 
-2 1:0.5 2:0.5 3:0.53503185 4:0.41176471 5:0.64320626 47:1 92:1 207:1 234:1 
-0.9665350243453161 1:0.35714286 2:0.35714286 3:0.28535032 4:0.53270259 5:0.37866005 25:1 36:1 84:1 108:1 176:1 237:1 251:1 
-0.3368966101313885 1:0.57142857 2:0.57142857 3:0.55782024 4:0.67647059 5:0.55920871 35:1 143:1 159:1 166:1 176:1 222:1 251:1 
-1.904242949807948 1:0.35714286 2:0.35714286 3:0.43625674 4:0.55588235 5:0.6248648 24:1 40:1 53:1 63:1 206:1 213:1 251:1 
-2 1:0.35714286 2:0.35714286 3:0.7104034 4:0.40754148 5:0.8207196 19:1 47:1 64:1 76:1 159:1 257:1 
-2 1:0.42857143 2:0.42857143 3:0.63411182 4:0.33031674 5:0.61437368 93:1 147:1 152:1 208:1 220:1 246:1 
-2 1:0.64285714 2:0.64285714 3:0.5759849 4:0.35686275 5:0.64782649 41:1 42:1 65:1 142:1 214:1 
-2 1:0.28571429 2:0.28571429 3:0.38602078 4:0.47058824 5:0.51023573 183:1 194:1 219:1 256:1 
-0.07621478956266191 1:0.42857143 2:0.42857143 3:0.48081006 4:0.55816993 5:0.59610613 29:1 39:1 84:1 142:1 222:1 237:1 252:1 
-0.5179700112584984 1:0.5 2:0.5 3:0.22929936 4:0.41176471 5:0.71133168 24:1 31:1 57:1 175:1 193:1 208:1 251:1 
-1.776391897100042 1:0.35714286 2:0.35714286 3:0.2915782 4:0.56981581 5:0.56428637 12:1 31:1 75:1 192:1 211:1 231:1 251:1 
-0.8737628629980749 1:0.14285714 2:0.14285714 3:0.10474168 4:0.3790107 5:0.60463193 38:1 111:1 133:1 158:1 216:1 240:1 256:1 
-0.4378942284759658 1:0.28571429 2:0.28571429 3:0.56075453 4:0.58823529 5:0.67910808 46:1 60:1 84:1 144:1 233:1 243:1 246:1 
-1.229621688056401 1:0.28571429 2:0.28571429 3:0.56900212 4:0.52614379 5:0.61545981 24:1 44:1 75:1 119:1 135:1 208:1 
-1.13844567672523 1:0.35714286 2:0.35714286 3:0.27765705 4:0.54901961 5:0.67265119 26:1 39:1 86:1 100:1 117:1 156:1 
-1.982366513795741 1:0.21428571 2:0.21428571 3:0.23967917 4:0.53986928 5:0.79174708 40:1 85:1 110:1 143:1 192:1 240:1 254:1 
-2 1:0.28571429 2:0.28571429 3:0.45637759 4:0.3040724 5:0.64966279 85:1 92:1 123:1 126:1 144:1 252:1 
-0.2783122659952187 1:0.5 2:0.5 3:0.53503185 4:0.48039216 5:0.63846906 8:1 46:1 60:1 128:1 180:1 209:1 252:1 
-0.4238944071763531 1:0.5 2:0.5 3:0.41613588 4:0.3368984 5:0.6399228 32:1 51:1 154:1 162:1 187:1 228:1 253:1 
-0.5294589005951106 1:0.28571429 2:0.28571429 3:0.53238971 4:0.49411765 5:0.71730539 41:1 101:1 110:1 120:1 137:1 192:1 253:1 
-2 1:0.35714286 2:0.35714286 3:0.27765705 4:0.65196078 5:0.69581083 13:1 86:1 99:1 105:1 144:1 251:1 
-2 1:0.42857143 2:0.42857143 3:0.16462518 4:0.50160428 5:0.61833259 96:1 107:1 126:1 153:1 230:1 240:1 
-0.09772894954138676 1:0.5 2:0.5 3:0.26227051 4:0.2745098 5:0.65221622 13:1 116:1 126:1 177:1 192:1 235:1 252:1 
-0.5821774529292207 1:0.28571429 2:0.28571429 3:0.43625674 4:0.39909502 5:0.62857628 19:1 85:1 121:1 147:1 195:1 221:1 
-1.598563682681621 1:0.35714286 2:0.35714286 3:0.21797594 4:0.18627451 5:0.64855754 6:1 19:1 31:1 61:1 192:1 208:1 253:1 
-1.157720033017534 1:0.42857143 2:0.42857143 3:0.14687149 4:0.49019608 5:0.67265119 14:1 25:1 54:1 117:1 156:1 182:1 251:1 
-2 1:0.5 2:0.5 3:0.78980892 4:0.30882353 5:0.5872622 52:1 70:1 88:1 140:1 223:1 256:1 
-1.265981267983495 1:0.5 2:0.5 3:0.41613588 4:0.41176471 5:0.63688999 19:1 187:1 207:1 214:1 243:1 253:1 
-0.3243315179115879 1:0.28571429 2:0.28571429 4:0.31568627 5:0.61478307 19:1 84:1 122:1 157:1 192:1 234:1 252:1 
-1.633693507761129 1:0.28571429 2:0.28571429 3:0.25128013 4:0.68627451 5:0.63980927 47:1 144:1 179:1 206:1 219:1 252:1 
-2 1:0.35714286 2:0.35714286 3:0.46154753 4:0.43529412 5:0.59065114 12:1 39:1 42:1 101:1 122:1 176:1 252:1 
-2 1:0.28571429 2:0.28571429 3:0.63124371 4:0.58823529 5:0.62000276 41:1 75:1 88:1 93:1 113:1 183:1 255:1 
-0.192304161786685 1:0.5 2:0.5 3:0.41613588 4:0.68627451 5:0.7084124 53:1 56:1 72:1 105:1 131:1 156:1 
-0.8259126752436862 1:0.42857143 2:0.42857143 3:0.60438783 4:0.49286988 5:0.64509863 53:1 120:1 137:1 153:1 180:1 245:1 
-2 1:0.42857143 2:0.42857143 4:0.41704374 5:0.61478307 19:1 45:1 62:1 84:1 120:1 162:1 252:1 
-2 1:0.64285714 2:0.64285714 3:0.50955414 4:0.34640523 5:0.64102564 13:1 56:1 154:1 209:1 226:1 
-2 1:0.28571429 2:0.28571429 3:0.75796178 4:0.41176471 5:0.68228814 56:1 75:1 87:1 112:1 185:1 252:1 
-0.8066868158643165 1:0.35714286 2:0.35714286 3:0.46154753 4:0.43529412 5:0.59065114 25:1 101:1 137:1 141:1 156:1 229:1 
-1.22362498592265 1:0.57142857 2:0.57142857 3:0.47362404 4:0.44836601 5:0.64070751 14:1 41:1 76:1 91:1 131:1 224:1 251:1 
-2 1:0.42857143 2:0.42857143 3:0.2796015 4:0.47581699 5:0.64621111 111:1 189:1 204:1 218:1 222:1 
-1.428483104281786 1:0.35714286 2:0.35714286 3:0.43625674 4:0.28823529 5:0.65871349 136:1 173:1 174:1 189:1 229:1 252:1 
-2 1:0.5 2:0.5 3:0.41613588 4:0.41176471 5:0.63688999 41:1 118:1 182:1 217:1 
-0.4384176007661247 1:0.42857143 2:0.42857143 3:0.65392781 4:0.35369532 5:0.65659908 20:1 30:1 180:1 209:1 233:1 252:1 
-0.1367656061707946 1:0.57142857 2:0.57142857 3:0.39433829 4:0.55882353 5:0.71119382 50:1 82:1 111:1 121:1 176:1 201:1 251:1 
-2 1:0.35714286 2:0.35714286 3:0.50955414 4:0.30362448 5:0.64617223 13:1 34:1 102:1 169:1 208:1 
-0.1007911609276389 1:0.35714286 2:0.35714286 3:0.52546127 4:0.41176471 5:0.63688999 20:1 41:1 75:1 193:1 225:1 243:1 256:1 
-0.7194851957831674 1:0.35714286 2:0.35714286 3:0.50759432 4:0.35686275 5:0.611382 13:1 18:1 85:1 106:1 160:1 219:1 250:1 
-1.572061162505531 1:0.21428571 2:0.21428571 3:0.33309743 4:0.63137255 5:0.75452624 64:1 84:1 99:1 110:1 122:1 143:1 252:1 
-2 1:0.42857143 2:0.42857143 3:0.37876858 4:0.35457516 5:0.6509512 51:1 112:1 138:1 175:1 206:1 251:1 
-2 1:0.35714286 2:0.35714286 3:0.29806558 4:0.55294118 5:0.79329795 12:1 43:1 109:1 176:1 215:1 240:1 252:1 
-2 1:0.5 2:0.5 3:0.29723992 4:0.20588235 5:0.65425972 19:1 120:1 126:1 210:1 234:1 
-2 1:0.42857143 2:0.42857143 3:0.16824168 4:0.35686275 5:0.70197916 13:1 26:1 141:1 176:1 194:1 204:1 253:1 
-1.65164094016647 1:0.28571429 2:0.28571429 3:0.19480647 4:0.17737557 5:0.64249433 13:1 85:1 163:1 181:1 234:1 252:1 
-0.2976005484186781 1:0.35714286 2:0.35714286 3:0.50955414 4:0.37849079 5:0.63606286 13:1 54:1 83:1 102:1 155:1 208:1 
-2 1:0.42857143 2:0.42857143 3:0.38499646 4:0.46895425 5:0.6010477 37:1 53:1 120:1 130:1 163:1 252:1 
-0.9394634197130847 1:0.57142857 2:0.57142857 3:0.10898797 4:0.25579323 5:0.6253979 18:1 31:1 127:1 194:1 234:1 252:1 
-0.3353055334118047 1:0.21428571 2:0.21428571 3:0.72753008 4:0.32941176 5:0.58864075 24:1 52:1 54:1 88:1 90:1 191:1 256:1 
-1.015902917486351 1:0.57142857 2:0.57142857 3:0.33517339 4:0.43464052 5:0.63909567 12:1 26:1 54:1 82:1 208:1 226:1 249:1 
-0.2151711210667899 1:0.28571429 2:0.28571429 3:0.39433829 4:0.34625668 5:0.66680452 64:1 133:1 140:1 158:1 195:1 228:1 
-0.7714767460320946 1:0.42857143 2:0.42857143 3:0.61429582 4:0.43048128 5:0.6525052 23:1 100:1 133:1 190:1 224:1 255:1 
-1.63715954826133 1:0.35714286 2:0.35714286 3:0.43625674 4:0.47352941 5:0.63043202 12:1 63:1 139:1 156:1 196:1 236:1 251:1 
-2 1:0.21428571 2:0.21428571 3:0.43198868 4:0.51470588 5:0.63419973 52:1 84:1 100:1 122:1 143:1 172:1 
-2 1:0.35714286 2:0.35714286 3:0.56871904 4:0.37145208 5:0.65081334 13:1 20:1 32:1 51:1 120:1 245:1 252:1 
-2 1:0.42857143 2:0.42857143 3:0.50955414 4:0.43598616 5:0.63688999 30:1 52:1 131:1 167:1 
-1.368439617701011 1:0.28571429 2:0.28571429 3:0.34469839 4:0.41176471 5:0.62740233 12:1 64:1 87:1 160:1 177:1 194:1 
-0.8718479744505003 1:0.42857143 2:0.42857143 3:0.41613588 4:0.5802139 5:0.37634409 10:1 84:1 92:1 108:1 228:1 239:1 
-0.1790424058254254 1:0.28571429 2:0.28571429 3:0.40127389 4:0.48039216 5:0.61123017 40:1 63:1 84:1 122:1 180:1 215:1 248:1 
-0.73592489705196 1:0.64285714 2:0.64285714 3:0.38779226 4:0.1372549 5:0.66198557 53:1 56:1 146:1 186:1 206:1 250:1 
-2 1:0.42857143 2:0.42857143 3:0.47383539 4:0.37254902 5:0.63887673 26:1 40:1 180:1 188:1 233:1 
-1.839171744194227 1:0.5 2:0.5 3:0.6029724 4:0.51470588 5:0.65343259 11:1 51:1 69:1 88:1 130:1 199:1 255:1 
-0.9731128998122976 1:0.5 2:0.5 3:0.41613588 4:0.61764706 5:0.63174341 64:1 111:1 158:1 179:1 213:1 236:1 251:1 
-0.2580716577608573 1:0.5 2:0.5 3:0.41613588 4:0.63636364 5:0.36393714 44:1 59:1 72:1 84:1 128:1 239:1 251:1 
-2 1:0.28571429 2:0.28571429 3:0.2589417 4:0.50588235 5:0.62343588 12:1 62:1 72:1 109:1 153:1 244:1 
-2 1:0.5 2:0.5 3:0.55380489 4:0.41176471 5:0.63688999 95:1 128:1 221:1 244:1 
-2 1:0.35714286 2:0.35714286 3:0.59051663 4:0.5096668 5:0.64074993 23:1 101:1 132:1 180:1 190:1 256:1 
-2 1:0.28571429 2:0.28571429 3:0.1358811 4:0.35237557 5:0.66997519 12:1 103:1 120:1 186:1 208:1 241:1 
-1.937640288921119 1:0.5 2:0.5 3:0.15456476 4:0.41176471 5:0.65232975 14:1 26:1 112:1 141:1 157:1 206:1 250:1 
-2 1:0.5 2:0.5 3:0.51674016 4:0.41176471 5:0.64245721 46:1 63:1 75:1 187:1 236:1 253:1 
-2 1:0.28571429 2:0.28571429 3:0.32696391 4:0.48039216 5:0.62925784 47:1 60:1 84:1 120:1 192:1 236:1 
-2 1:0.42857143 2:0.42857143 3:0.3665959 4:0.42424242 5:0.63325563 12:1 55:1 120:1 154:1 209:1 253:1 
-0.1105525281929754 1:0.42857143 2:0.42857143 3:0.48879453 4:0.50678733 5:0.63688999 23:1 77:1 121:1 150:1 179:1 227:1 
-1.346201592637953 1:0.28571429 2:0.28571429 3:0.52054452 4:0.59477124 5:0.82153457 39:1 73:1 101:1 107:1 145:1 251:1 
-2 1:0.5 2:0.5 3:0.41613588 4:0.41176471 5:0.63688999 19:1 76:1 83:1 127:1 160:1 225:1 255:1 
-0.2796938601097033 1:0.57142857 2:0.57142857 3:0.67303609 4:0.43921569 5:0.74545079 51:1 56:1 70:1 119:1 174:1 199:1 255:1 
-1.427599405799042 1:0.5 2:0.5 3:0.41613588 4:0.32026144 5:0.6120761 13:1 26:1 58:1 88:1 118:1 174:1 
-1.135712930614589 1:0.42857143 2:0.42857143 3:0.13821656 4:0.70588235 5:0.66222084 26:1 38:1 96:1 146:1 153:1 243:1 251:1 
-2 1:0.64285714 2:0.64285714 3:0.63075834 4:0.49411765 5:0.64249433 46:1 65:1 84:1 125:1 128:1 200:1 
-2 1:0.35714286 2:0.35714286 3:0.50861052 4:0.30392157 5:0.65418661 18:1 84:1 92:1 193:1 233:1 252:1 
-0.04447690479322928 1:0.71428571 2:0.71428571 3:0.15456476 4:0.5802139 5:0.35318445 11:1 24:1 57:1 139:1 212:1 230:1 250:1 
-0.3350118948567098 1:0.35714286 2:0.35714286 3:0.46154753 4:0.31764706 5:0.67508731 39:1 64:1 86:1 100:1 176:1 213:1 253:1 
-1.389480094623436 1:0.42857143 2:0.42857143 3:0.43143244 4:0.49411765 5:0.55647459 14:1 64:1 113:1 127:1 183:1 225:1 255:1 
-2 1:0.5 2:0.5 3:0.34730137 4:0.61764706 5:0.59727482 14:1 63:1 93:1 225:1 256:1 
-1.467881245445002 1:0.71428571 2:0.71428571 3:0.50332626 4:0.32754011 5:0.66969948 44:1 164:1 190:1 218:1 222:1 257:1 
-0.1218545601550075 1:0.42857143 2:0.42857143 3:0.34906636 4:0.38181818 5:0.63886945 39:1 76:1 91:1 121:1 129:1 222:1 251:1 
-2 1:0.35714286 2:0.35714286 3:0.2915782 4:0.37849079 5:0.65122691 14:1 25:1 33:1 96:1 102:1 208:1 
-2 1:0.5 2:0.5 3:0.41613588 4:0.41176471 5:0.63688999 14:1 24:1 32:1 76:1 117:1 244:1 250:1 
-1.325157135344703 1:0.57142857 2:0.57142857 3:0.23779193 4:0.30090498 5:0.65268065 13:1 41:1 103:1 122:1 129:1 186:1 
-0.1821070963300627 1:0.35714286 2:0.35714286 3:0.50955414 4:0.52822341 5:0.57540667 13:1 83:1 120:1 208:1 226:1 241:1 250:1 
-2 1:0.28571429 2:0.28571429 3:0.50332626 4:0.43048128 5:0.63110008 16:1 28:1 99:1 
-0.5781031714879684 1:0.64285714 2:0.64285714 3:0.29806558 4:0.62352941 5:0.59788852 45:1 61:1 122:1 154:1 167:1 178:1 
-0.8751843297402472 1:0.28571429 2:0.28571429 3:0.65590941 4:0.39304813 5:0.66294458 17:1 29:1 48:1 132:1 171:1 246:1 
-0.2065642873755682 1:0.35714286 2:0.35714286 3:0.52182118 4:0.39215686 5:0.64931783 20:1 35:1 75:1 126:1 184:1 203:1 253:1 
-0.1071207177351345 1:0.071428571 2:0.071428571 3:0.48879453 4:0.5315508 5:0.92960206 12:1 63:1 100:1 135:1 192:1 206:1 253:1 
-0.4026235143061565 1:0.5 2:0.5 3:0.54692144 4:0.53846154 5:0.71215881 46:1 91:1 167:1 204:1 220:1 238:1 255:1 
-0.9455170603127246 1:0.71428571 2:0.71428571 3:0.50955414 4:0.36601307 5:0.63813069 56:1 82:1 102:1 154:1 207:1 250:1 
-1.614372519184825 1:0.35714286 2:0.35714286 3:0.33565246 4:0.39117647 5:0.6248648 12:1 39:1 85:1 91:1 133:1 236:1 251:1 
-2 1:0.5 2:0.5 3:0.41613588 4:0.2745098 5:0.65221622 14:1 40:1 45:1 64:1 116:1 
-0.2041707462114175 1:0.28571429 2:0.28571429 3:0.50955414 4:0.22875817 5:0.65260546 49:1 54:1 102:1 145:1 208:1 
-2 1:0.35714286 2:0.35714286 3:0.18748979 4:0.2745098 5:0.66057598 12:1 21:1 157:1 162:1 198:1 217:1 
-2 1:0.42857143 2:0.42857143 3:0.50955414 4:0.31111111 5:0.64536807 13:1 54:1 72:1 104:1 209:1 
-1.315477533823235 1:0.35714286 2:0.35714286 3:0.50861052 4:0.30392157 5:0.65418661 8:1 84:1 127:1 207:1 232:1 253:1 
-0.1668226907904796 1:0.42857143 2:0.42857143 3:0.44104742 4:0.38888889 5:0.63220292 112:1 135:1 141:1 159:1 175:1 222:1 
-2 1:0.35714286 2:0.35714286 3:0.36126082 4:0.28823529 5:0.64372249 12:1 20:1 38:1 75:1 90:1 181:1 
-0.6043677660466243 1:0.42857143 2:0.42857143 3:0.29723992 4:0.5802139 5:0.36581698 59:1 84:1 92:1 108:1 204:1 237:1 
-1.955145385934717 1:0.57142857 2:0.57142857 3:0.61776362 4:0.30882353 5:0.62860721 53:1 112:1 190:1 232:1 235:1 250:1 
-0.5900035406929524 1:0.57142857 2:0.57142857 3:0.35745005 4:0.39679144 5:0.63301945 20:1 31:1 76:1 91:1 155:1 207:1 254:1 
-2 1:0.35714286 2:0.35714286 3:0.46154753 4:0.082352941 5:0.69921193 42:1 85:1 100:1 176:1 253:1 
-2 1:0.5 2:0.5 3:0.53503185 4:0.20588235 5:0.68584104 18:1 30:1 138:1 233:1 236:1 252:1 
-0.102814280416765 1:0.5 2:0.5 3:0.41613588 4:0.48039216 5:0.6332055 7:1 46:1 156:1 180:1 233:1 236:1 252:1 
-2 1:0.5 2:0.5 3:0.50332626 4:0.41176471 5:0.64460987 27:1 80:1 105:1 171:1 198:1 
-1.65956943542429 1:0.35714286 2:0.35714286 3:0.50955414 4:0.67795603 5:1 144:1 155:1 208:1 226:1 240:1 251:1 
-0.0435836728337348 1:0.5 2:0.5 3:0.30714791 4:0.41176471 5:0.58381583 25:1 38:1 42:1 58:1 140:1 228:1 251:1 
-2 1:0.5 2:0.5 3:0.74309979 4:0.41176471 5:0.66873449 44:1 77:1 101:1 180:1 200:1 255:1 
-2 1:0.35714286 2:0.35714286 3:0.54692144 4:0.40754148 5:0.71215881 63:1 76:1 81:1 160:1 225:1 256:1 
-0.4927988190996306 1:0.57142857 2:0.57142857 3:0.34607219 4:0.60392157 5:0.62138131 24:1 51:1 119:1 129:1 165:1 189:1 257:1 
-0.3397214337635467 1:0.28571429 2:0.28571429 3:0.39065817 4:0.50326797 5:0.61049703 13:1 72:1 103:1 120:1 208:1 227:1 
-2 1:0.5 2:0.5 3:0.59051663 4:0.41176471 5:0.66776951 12:1 40:1 64:1 68:1 140:1 214:1 251:1 
-0.3025778909817809 1:0.71428571 2:0.71428571 3:0.35568877 4:0.36601307 5:0.64834817 34:1 54:1 102:1 154:1 216:1 225:1 250:1 
-2 1:0.78571429 2:0.78571429 3:0.58775495 4:0.57647059 5:0.63706465 20:1 106:1 154:1 164:1 221:1 
-1.916223993335155 1:0.5 2:0.5 3:0.41613588 4:0.59477124 5:0.5872622 12:1 26:1 44:1 118:1 143:1 232:1 251:1 
-0.5486774679795706 1:0.57142857 2:0.57142857 3:0.25085742 4:0.40261438 5:0.62803925 45:1 85:1 92:1 152:1 180:1 223:1 252:1 
-1.135654916241684 1:0.28571429 2:0.28571429 3:0.63124371 4:0.58823529 5:0.62000276 41:1 75:1 93:1 113:1 124:1 243:1 255:1 
-1.912921282859304 1:0.28571429 2:0.28571429 3:0.50955414 4:0.30090498 5:0.62861869 13:1 40:1 102:1 121:1 219:1 248:1 
-2 1:0.5 2:0.5 3:0.61734444 4:0.49411765 5:0.64190049 46:1 75:1 108:1 125:1 152:1 
-1.057567047818638 1:0.42857143 2:0.42857143 3:0.58141434 4:0.55816993 5:0.57383725 17:1 40:1 94:1 111:1 119:1 223:1 252:1 
-0.9707070325550401 1:0.42857143 2:0.42857143 3:0.52314225 4:0.41704374 5:0.64215355 104:1 122:1 192:1 209:1 231:1 
-2 1:0.64285714 2:0.64285714 3:0.45637759 4:0.49411765 5:0.63477445 14:1 46:1 65:1 123:1 163:1 224:1 
-1.421873436949619 1:0.5 2:0.5 3:0.67770701 4:0.34841629 5:0.63688999 30:1 64:1 114:1 191:1 238:1 257:1 
-0.616654917522784 1:0.14285714 2:0.14285714 3:0.50556191 4:0.65882353 5:0.76741038 39:1 44:1 108:1 135:1 204:1 228:1 252:1 
-0.02859663649182887 1:0.35714286 2:0.35714286 3:0.53686102 4:0.28823529 5:0.68098238 113:1 136:1 176:1 219:1 230:1 253:1 
-2 1:0.35714286 2:0.35714286 3:0.54692144 4:0.29773756 5:0.71215881 19:1 75:1 126:1 138:1 184:1 255:1 
-2 1:0.64285714 2:0.64285714 3:0.41613588 4:0.42008318 5:0.5789909 92:1 128:1 176:1 204:1 239:1 
-2 1:0.35714286 2:0.35714286 3:0.62641855 4:0.54901961 5:0.67265119 12:1 101:1 106:1 231:1 244:1 
-2 1:0.42857143 2:0.42857143 3:0.39903973 4:0.49411765 5:0.71730539 65:1 69:1 84:1 108:1 121:1 176:1 
-0.5572956181736644 1:0.42857143 2:0.42857143 3:0.17834395 4:0.51158645 5:0.37371231 38:1 192:1 204:1 212:1 230:1 239:1 
-0.2242815665814743 1:0.42857143 2:0.42857143 3:0.49158909 4:0.50160428 5:0.63602398 63:1 107:1 122:1 164:1 204:1 221:1 
-2 1:0.5 2:0.5 3:0.54692144 4:0.47511312 5:0.71215881 19:1 47:1 75:1 104:1 167:1 256:1 
-2 1:0.35714286 2:0.35714286 3:0.29806558 4:0.55294118 5:0.79329795 12:1 71:1 122:1 135:1 176:1 206:1 253:1 
-0.9998521469981023 1:0.35714286 2:0.35714286 3:0.22407317 4:0.23333333 5:0.63412325 6:1 19:1 76:1 144:1 229:1 242:1 
-2 1:0.42857143 2:0.42857143 3:0.39903973 4:0.63137255 5:0.76328408 65:1 69:1 84:1 137:1 206:1 252:1 
-0.4520821965627114 1:0.64285714 2:0.64285714 3:0.38499646 4:0.36185383 5:0.64047422 56:1 112:1 141:1 164:1 189:1 241:1 
-1.444152122450871 1:0.35714286 2:0.35714286 3:0.37876858 4:0.41176471 5:0.63688999 24:1 31:1 71:1 155:1 198:1 220:1 256:1 
-1.02663864678573 1:0.57142857 2:0.57142857 3:0.72526539 4:0.31146305 5:0.66478683 14:1 32:1 65:1 92:1 160:1 166:1 256:1 
-2 1:0.42857143 2:0.42857143 3:0.13078556 4:0.41704374 5:0.62162569 46:1 60:1 156:1 194:1 235:1 253:1 
-0.3666634961861985 1:0.42857143 2:0.42857143 3:0.47218684 4:0.35457516 5:0.68817204 24:1 41:1 85:1 113:1 140:1 158:1 
-2 1:0.28571429 2:0.28571429 3:0.27081859 4:0.49411765 5:0.71730539 14:1 24:1 99:1 170:1 214:1 229:1 253:1 
-2 1:0.28571429 2:0.28571429 3:0.38602078 4:0.47058824 5:0.51023573 14:1 40:1 95:1 184:1 207:1 225:1 256:1 
-2 1:0.5 2:0.5 3:0.48879453 4:0.24705882 5:0.68513923 12:1 44:1 65:1 69:1 101:1 174:1 253:1 
-0.6074934181878051 1:0.42857143 2:0.42857143 3:0.30834558 4:0.39346405 5:0.64815168 13:1 55:1 103:1 120:1 209:1 216:1 
-0.8821121517882337 1:0.5 2:0.5 3:0.41613588 4:0.41176471 5:0.63688999 19:1 33:1 49:1 77:1 112:1 119:1 
-2 1:0.14285714 2:0.14285714 3:0.67374381 4:0.51268743 5:0.6363887 12:1 39:1 75:1 135:1 180:1 
-0.3418907901521435 1:0.28571429 2:0.28571429 3:0.43793347 4:0.39304813 5:0.64171492 49:1 106:1 132:1 173:1 192:1 216:1 246:1 
-2 1:0.21428571 2:0.21428571 3:0.3343949 4:0.47593583 5:0.62603391 12:1 25:1 73:1 144:1 
-0.582361636766453 1:0.5 2:0.5 3:0.41613588 4:0.36029412 5:0.66997519 26:1 55:1 87:1 90:1 130:1 256:1 
-0.3921585026187143 1:0.5 2:0.5 3:0.21492732 4:0.41176471 5:0.62575555 47:1 84:1 182:1 187:1 236:1 253:1 
-1.132272281424736 1:0.42857143 2:0.42857143 3:0.48697806 4:0.80882353 5:0.74713951 46:1 60:1 72:1 155:1 166:1 244:1 251:1 
-2 1:0.35714286 2:0.35714286 3:0.48015679 4:0.28823529 5:0.6542496 12:1 18:1 63:1 77:1 162:1 182:1 
-1.590765477800453 1:0.42857143 2:0.42857143 3:0.49936306 4:0.43815988 5:0.63969722 18:1 41:1 75:1 156:1 191:1 225:1 246:1 
-0.8803376149267758 1:0.35714286 2:0.35714286 3:0.41613588 4:0.36953243 5:0.63688999 13:1 42:1 76:1 95:1 147:1 187:1 
-0.5392961470806102 1:0.35714286 2:0.35714286 3:0.52182118 4:0.2745098 5:0.66057598 6:1 87:1 111:1 126:1 151:1 196:1 
-0.716242712328195 1:0.071428571 2:0.071428571 3:0.5977825 4:0.5315508 5:0.98267622 24:1 39:1 63:1 84:1 100:1 205:1 
-2 1:0.35714286 2:0.35714286 3:0.36126082 4:0.28823529 5:0.64372249 12:1 36:1 64:1 86:1 188:1 198:1 
-2 1:0.21428571 2:0.21428571 3:0.49087049 4:0.41880342 5:0.63027295 28:1 85:1 111:1 136:1 141:1 253:1 
-0.194363540831188 1:0.5 2:0.5 3:0.41613588 4:0.41176471 5:0.63688999 8:1 84:1 92:1 104:1 120:1 192:1 
-1.244570891658865 1:0.28571429 2:0.28571429 3:0.42712626 4:0.77777778 5:0.6949837 51:1 72:1 101:1 129:1 144:1 156:1 251:1 
-0.3089555742027179 1:0.21428571 2:0.21428571 3:0.22929936 4:0.60884867 5:0.65177833 60:1 86:1 111:1 156:1 169:1 238:1 252:1 
-1.318947651976121 1:0.35714286 2:0.35714286 3:0.28768577 4:0.45098039 5:0.64188723 13:1 37:1 108:1 144:1 166:1 213:1 246:1 
