svm_type c_svc
kernel_type rbf
gamma 0.0625
nr_class 2
total_sv 551
rho 10.3802
label 1 0
probA -4.3628
probB 0.287496
nr_sv 252 299
SV
1.224483796547604 1:0.57142857 2:0.57142857 3:0.33478261 4:0.42207792 5:0.52646808 47:1 127:1 138:1 
0.2914433188895771 1:0.57142857 2:0.57142857 3:0.55797101 4:0.42207792 5:0.5380234 46:1 128:1 233:1 253:1 
2 1:0.35714286 2:0.35714286 3:0.22318841 4:0.31632653 5:0.52568022 62:1 85:1 102:1 252:1 
2 1:0.35714286 2:0.35714286 3:0.52077295 4:0.37755102 5:0.54001932 120:1 157:1 233:1 
2 1:0.35714286 2:0.35714286 3:0.22318841 4:0.31632653 5:0.52568022 138:1 158:1 193:1 252:1 
2 1:0.5 2:0.5 3:0.54782609 4:0.28571429 5:0.55554737 128:1 162:1 233:1 253:1 
0.9600064804957719 1:0.42857143 2:0.42857143 3:0.40173913 4:0.17032967 5:0.58287903 126:1 138:1 210:1 253:1 
2 1:0.57142857 2:0.57142857 3:0.44637681 4:0.42207792 5:0.53224574 92:1 122:1 233:1 
2 1:0.42857143 2:0.42857143 3:0.61493868 4:0.44415584 5:0.54232639 39:1 65:1 107:1 246:1 
1.059664863779903 1:0.57142857 2:0.57142857 3:0.55117057 4:0.31428571 5:0.56123509 42:1 154:1 221:1 246:1 
2 1:0.5 2:0.5 3:0.42608696 4:0.25714286 5:0.56715705 6:1 42:1 219:1 247:1 
0.0468824248429997 1:0.42857143 2:0.42857143 3:0.47478261 4:0.45054945 5:0.53925151 34:1 48:1 77:1 253:1 
2 1:0.35714286 2:0.35714286 3:0.60463768 4:0.53046953 5:0.5345759 23:1 101:1 180:1 255:1 
0.9543228983689455 1:0.57142857 2:0.57142857 3:0.56343367 4:0.49090909 5:0.53544861 23:1 44:1 190:1 256:1 
0.9161831686298121 1:0.42857143 2:0.42857143 3:0.62898551 4:0.51948052 5:0.53706842 22:1 75:1 191:1 256:1 
1.25636613903584 1:0.57142857 2:0.57142857 3:0.56343367 4:0.57662338 5:0.52908511 22:1 164:1 191:1 255:1 
0.2347249556109356 1:0.28571429 2:0.28571429 3:0.27729469 4:0.4174397 5:0.51734798 180:1 218:1 241:1 255:1 
1.101112610742208 1:0.35714286 2:0.35714286 3:0.47415831 4:0.3 5:0.58068404 15:1 172:1 229:1 247:1 
2 1:0.57142857 2:0.57142857 3:0.4484058 4:0.2755102 5:0.60359265 50:1 173:1 198:1 248:1 
0.296340810319612 1:0.42857143 2:0.42857143 3:0.40057971 4:0.45238095 5:0.52620205 105:1 171:1 216:1 246:1 
1.553054197151607 1:0.78571429 2:0.78571429 3:0.50126621 4:0.42857143 5:0.53716341 32:1 80:1 106:1 248:1 
0.7583897711853684 1:0.5 2:0.5 3:0.51536232 4:0.32142857 5:0.5723933 17:1 59:1 198:1 246:1 
1.528338080665356 1:0.5 2:0.5 3:0.51536232 4:0.64285714 5:0.50432199 83:1 111:1 224:1 251:1 
0.5252600973007887 1:0.71428571 2:0.71428571 3:0.58975845 4:0.21428571 5:0.51062489 142:1 176:1 222:1 250:1 
1.994646877333166 1:0.57142857 2:0.57142857 3:0.40376812 4:0.33673469 5:0.52417612 112:1 175:1 223:1 251:1 
0.4608804339065569 1:0.5 2:0.5 3:0.42608696 4:0.32142857 5:0.52197011 65:1 121:1 175:1 
0.2111509846215009 1:0.57142857 2:0.57142857 3:0.55442029 4:0.38265306 5:0.56317531 15:1 128:1 224:1 
0.507695132606885 1:0.57142857 2:0.57142857 3:0.47072464 4:0.62755102 5:0.53835764 17:1 21:1 213:1 255:1 
2 1:0.57142857 2:0.57142857 3:0.63811594 4:0.50510204 5:0.55490276 17:1 34:1 214:1 256:1 
2 1:0.5 2:0.5 3:0.51536232 4:0.53571429 5:0.54213938 16:1 21:1 35:1 257:1 
2 1:0.35714286 2:0.35714286 3:0.4484058 4:0.25474525 5:0.54794706 12:1 31:1 51:1 77:1 78:1 102:1 253:1 
2 1:0.35714286 2:0.35714286 3:0.18057971 4:0.25474525 5:0.49878444 12:1 31:1 52:1 55:1 181:1 253:1 
1.239535243272462 1:0.42857143 2:0.42857143 3:0.37536232 4:0.44155844 5:0.52723344 12:1 18:1 92:1 155:1 252:1 
2 1:0.42857143 2:0.42857143 3:0.37536232 4:0.37012987 5:0.52852267 92:1 102:1 120:1 245:1 254:1 264:1 
2 1:0.57142857 2:0.57142857 3:0.4690078 4:0.32727273 5:0.53972904 32:1 56:1 75:1 78:1 153:1 253:1 
2 1:0.35714286 2:0.35714286 3:0.4484058 4:0.25474525 5:0.54794706 18:1 51:1 54:1 76:1 153:1 253:1 
0.7376950791537727 1:0.42857143 2:0.42857143 3:0.48560386 4:0.57927786 5:0.5971847 47:1 167:1 204:1 257:1 
2 1:0.5 2:0.5 3:0.29217391 4:0.36263736 5:0.75202593 81:1 91:1 205:1 256:1 
0.9017694525746166 1:0.42857143 2:0.42857143 3:0.78318841 4:0.3956044 5:0.60453809 64:1 161:1 166:1 256:1 
0.7711120886537571 1:0.28571429 2:0.28571429 3:0.57826087 4:0.38571429 5:0.69710476 63:1 76:1 84:1 246:1 
0.1660644840572934 1:0.42857143 2:0.42857143 3:0.77913043 4:0.45604396 5:0.58270714 41:1 75:1 137:1 
0.9495529624263046 1:0.42857143 2:0.42857143 3:0.64521739 4:0.39010989 5:0.70561367 40:1 76:1 191:1 248:1 
0.6153932195575843 1:0.57142857 2:0.57142857 3:0.57826087 4:0.3961039 5:0.64037867 18:1 63:1 214:1 248:1 
0.7195037876318956 1:0.42857143 2:0.42857143 3:0.3574136 4:0.63116883 5:0.46340163 77:1 84:1 131:1 249:1 264:1 
1.696743968800979 1:0.14285714 2:0.14285714 3:0.43112128 4:0.47619048 5:0.38492707 12:1 76:1 183:1 208:1 255:1 
0.3977352129285179 1:0.42857143 2:0.42857143 3:0.29295703 4:0.85714286 5:0.50873402 12:1 19:1 39:1 93:1 192:1 225:1 255:1 
1.334227615387692 1:0.35714286 2:0.35714286 3:0.53802665 4:0.57142857 5:0.49575746 12:1 20:1 41:1 88:1 93:1 219:1 255:1 
0.5838897775425012 1:0.42857143 2:0.42857143 3:0.59054157 4:0.51428571 5:0.48352242 12:1 20:1 40:1 51:1 65:1 93:1 257:1 
1.557595248956485 1:0.21428571 2:0.21428571 3:0.50126621 4:0.53571429 5:0.47784981 12:1 20:1 40:1 87:1 243:1 255:1 
0.990085496493522 1:0.28571429 2:0.28571429 3:0.31155606 4:0.48979592 5:0.38188817 12:1 18:1 76:1 192:1 225:1 255:1 
2 1:0.57142857 2:0.57142857 3:0.41199085 4:0.57142857 5:0.47974068 12:1 18:1 41:1 95:1 127:1 225:1 
0.4192617844487244 1:0.28571429 2:0.28571429 3:0.39525172 4:0.48979592 5:0.40670583 14:1 75:1 111:1 126:1 255:1 
1.562192725349719 1:0.21428571 2:0.21428571 3:0.41199085 4:0.42857143 5:0.53079417 14:1 64:1 95:1 123:1 160:1 256:1 
2 1:0.42857143 2:0.42857143 3:0.36735317 4:0.51428571 5:0.43625068 14:1 41:1 160:1 192:1 225:1 
0.6002279166845484 1:0.35714286 2:0.35714286 3:0.3804819 4:0.42857143 5:0.53079417 14:1 19:1 39:1 75:1 88:1 93:1 256:1 
1.51079767923272 1:0.42857143 2:0.42857143 3:0.36735317 4:0.51428571 5:0.43625068 14:1 19:1 39:1 208:1 225:1 255:1 
2 1:0.71428571 2:0.71428571 3:0.38764302 5:0.54884338 14:1 19:1 76:1 93:1 128:1 225:1 
1.249081583363032 1:0.5 2:0.5 3:0.35560641 4:0.64285714 5:0.49198157 14:1 19:1 41:1 93:1 192:1 207:1 
1.087929243979728 1:0.57142857 2:0.57142857 3:0.41199085 4:0.57142857 5:0.47974068 14:1 19:1 41:1 93:1 148:1 225:1 255:1 
1.425065577545566 1:0.5 2:0.5 3:0.49656751 4:0.42857143 5:0.53079417 14:1 19:1 41:1 113:1 183:1 
0.3726468606498728 1:0.35714286 2:0.35714286 3:0.30170952 4:0.42857143 5:0.53079417 14:1 19:1 40:1 63:1 93:1 192:1 256:1 
2 1:0.42857143 2:0.42857143 3:0.36735317 4:0.34285714 5:0.62533766 14:1 18:1 39:1 93:1 111:1 126:1 
1.850251614852099 1:0.28571429 2:0.28571429 3:0.39525172 4:0.48979592 5:0.40670583 14:1 18:1 39:1 207:1 257:1 276:1 
2 1:0.28571429 2:0.28571429 3:0.39525172 4:0.6122449 5:0.48943139 14:1 18:1 111:1 219:1 227:1 255:1 
1.641965171706411 1:0.21428571 2:0.21428571 3:0.41199085 4:0.42857143 5:0.53079417 112:1 192:1 243:1 256:1 
2 1:0.21428571 2:0.21428571 3:0.41199085 4:0.53571429 5:0.46272285 88:1 95:1 192:1 208:1 255:1 
1.433485783669607 1:0.5 2:0.5 3:0.56704805 4:0.42857143 5:0.53079417 19:1 51:1 65:1 93:1 112:1 257:1 
1.729187611796404 1:0.35714286 2:0.35714286 3:0.53802665 4:0.28571429 5:0.56583087 19:1 40:1 53:1 64:1 88:1 93:1 255:1 
0.6311551496462007 1:0.35714286 2:0.35714286 3:0.53802665 4:0.28571429 5:0.56583087 20:1 75:1 160:1 208:1 
0.5623168302593259 1:0.42857143 2:0.42857143 3:0.4417493 4:0.34285714 5:0.60958041 20:1 87:1 93:1 244:1 265:1 
0.9545054935716758 1:0.35714286 2:0.35714286 3:0.45925427 4:0.42857143 5:0.53079417 20:1 52:1 75:1 93:1 192:1 256:1 
2 1:0.64285714 2:0.64285714 3:0.59054157 5:0.54024851 20:1 52:1 128:1 225:1 257:1 
2 1:0.5 2:0.5 3:0.56704805 4:0.21428571 5:0.55169325 20:1 41:1 88:1 93:1 172:1 225:1 256:1 
1.016805316583487 1:0.42857143 2:0.42857143 3:0.51614544 4:0.17142857 5:0.55180383 18:1 76:1 93:1 244:1 257:1 
2 1:0.071428571 2:0.071428571 3:0.35018483 4:0.51428571 5:0.43261439 13:1 39:1 51:1 64:1 192:1 255:1 
0.3560078039687358 1:0.42857143 2:0.42857143 3:0.4417493 4:0.34285714 5:0.60958041 13:1 40:1 76:1 93:1 225:1 257:1 
0.2580700399466773 1:0.5 2:0.5 3:0.42608696 4:0.64285714 5:0.49795274 13:1 19:1 63:1 93:1 227:1 257:1 
2 1:0.57142857 2:0.57142857 3:0.2780778 4:0.28571429 5:0.59886548 13:1 19:1 194:1 209:1 225:1 266:1 
1.080887661047911 1:0.21428571 2:0.21428571 3:0.41199085 4:0.10714286 5:0.5534846 13:1 19:1 52:1 88:1 160:1 256:1 
2 1:0.42857143 2:0.42857143 3:0.36735317 4:0.17142857 5:0.56230866 13:1 19:1 40:1 225:1 244:1 
2 1:0.42857143 2:0.42857143 3:0.51614544 4:0.17142857 5:0.55180383 13:1 20:1 41:1 128:1 192:1 256:1 
0.9034366757503454 1:0.21428571 2:0.21428571 3:0.41199085 4:0.21428571 5:0.56482982 13:1 18:1 88:1 183:1 256:1 
2 1:0.35714286 2:0.35714286 3:0.45925427 5:0.5458099 13:1 18:1 52:1 126:1 257:1 
2 1:0.21428571 2:0.21428571 3:0.32271548 4:0.42857143 5:0.53079417 13:1 18:1 40:1 93:1 192:1 207:1 255:1 
0.445565787896547 1:0.28571429 2:0.28571429 3:0.19946488 4:0.38241758 5:0.51989742 12:1 45:1 84:1 144:1 162:1 253:1 
0.9043882954985714 1:0.28571429 2:0.28571429 3:0.46729097 4:0.44835165 5:0.53181563 12:1 75:1 180:1 236:1 252:1 
0.8102815545973884 1:0.071428571 2:0.071428571 3:0.35250836 4:0.46071429 5:0.52559576 12:1 84:1 108:1 123:1 216:1 252:1 
2 1:0.21428571 2:0.21428571 3:0.28874025 4:0.33061224 5:0.52824876 12:1 86:1 123:1 216:1 222:1 253:1 
1.499693937454426 1:0.57142857 2:0.57142857 3:0.35250836 4:0.41904762 5:0.52733227 12:1 86:1 92:1 164:1 
2 1:0.21428571 2:0.21428571 3:0.43753252 4:0.33061224 5:0.53927884 12:1 76:1 123:1 235:1 252:1 265:1 
1.001397461548817 1:0.35714286 2:0.35714286 3:0.4916388 4:0.44285714 5:0.53336271 12:1 20:1 75:1 216:1 236:1 252:1 
0.2361450957120722 1:0.35714286 2:0.35714286 3:0.24816054 4:0.3 5:0.52717441 12:1 20:1 37:1 84:1 223:1 253:1 
1.365317939030553 1:0.35714286 2:0.35714286 3:0.24816054 4:0.3 5:0.52717441 12:1 18:1 84:1 146:1 200:1 253:1 
0.1370363028719272 1:0.35714286 2:0.35714286 3:0.24816054 4:0.22857143 5:0.53490978 12:1 18:1 84:1 222:1 235:1 253:1 
0.5532085781308488 1:0.21428571 2:0.21428571 3:0.13994797 4:0.39183673 5:0.51611568 14:1 38:1 84:1 124:1 252:1 264:1 
0.8893096050398802 1:0.28571429 2:0.28571429 3:0.46729097 4:0.31648352 5:0.54330819 14:1 76:1 124:1 216:1 
0.1479681539844755 1:0.42857143 2:0.42857143 3:0.065551839 4:0.35844156 5:0.51170365 14:1 19:1 38:1 84:1 234:1 264:1 
1.575103069906184 1:0.5 2:0.5 3:0.22006689 4:0.34285714 5:0.52261252 14:1 20:1 38:1 216:1 236:1 253:1 
2 1:0.35714286 2:0.35714286 3:0.4916388 4:0.44285714 5:0.53336271 36:1 46:1 64:1 75:1 266:1 
2 1:0.28571429 2:0.28571429 3:0.46729097 4:0.44835165 5:0.53181563 36:1 75:1 144:1 188:1 252:1 
2 1:0.35714286 2:0.35714286 3:0.61337793 4:0.44285714 5:0.53955101 47:1 65:1 75:1 222:1 264:1 
1.77626767659304 1:0.5 2:0.5 3:0.42608696 4:0.51428571 5:0.52697606 45:1 63:1 144:1 152:1 
2 1:0.35714286 2:0.35714286 3:0.1264214 4:0.44285714 5:0.5147978 45:1 84:1 146:1 180:1 253:1 
1.520952455542304 1:0.57142857 2:0.57142857 3:0.44816054 4:0.41904762 5:0.53254181 45:1 76:1 128:1 200:1 252:1 
2 1:0.35714286 2:0.35714286 3:0.61337793 4:0.51428571 5:0.53490978 46:1 75:1 123:1 128:1 144:1 252:1 
2 1:0.35714286 2:0.35714286 3:0.36989967 4:0.51428571 5:0.52459595 46:1 84:1 180:1 188:1 216:1 252:1 
2 1:0.28571429 2:0.28571429 3:0.33337793 4:0.38241758 5:0.52809119 63:1 84:1 162:1 216:1 254:1 
1.843175222551889 1:0.42857143 2:0.42857143 3:0.62352285 4:0.43636364 5:0.54059194 63:1 77:1 152:1 276:1 
2 1:0.35714286 2:0.35714286 3:0.73511706 4:0.44285714 5:0.54573931 63:1 77:1 125:1 252:1 
0.5806208067760709 1:0.42857143 2:0.42857143 3:0.40033445 4:0.35844156 5:0.5339889 75:1 182:1 186:1 
1.202100834521583 1:0.28571429 2:0.28571429 3:0.46729097 4:0.38241758 5:0.53628496 85:1 123:1 144:1 236:1 252:1 
2 1:0.28571429 2:0.28571429 3:0.46729097 4:0.31648352 5:0.54330819 76:1 84:1 152:1 217:1 252:1 
2 1:0.14285714 2:0.14285714 3:0.56772575 4:0.34285714 5:0.54715746 64:1 75:1 180:1 216:1 253:1 
2 1:0.35714286 2:0.35714286 3:0.4916388 4:0.37142857 5:0.53877747 64:1 84:1 164:1 180:1 200:1 216:1 
0.4058869999503092 1:0.21428571 2:0.21428571 3:0.28874025 4:0.33061224 5:0.52824876 13:1 36:1 84:1 109:1 
1.445669928456309 1:0.21428571 2:0.21428571 3:0.43753252 4:0.26938776 5:0.54847057 13:1 18:1 36:1 123:1 222:1 252:1 
0.9605224161597186 1:0.57142857 2:0.57142857 3:0.61864166 4:0.37142857 5:0.56156714 65:1 101:1 128:1 
2 1:0.5 2:0.5 3:0.58363171 4:0.28571429 5:0.5458099 40:1 46:1 101:1 116:1 253:1 
0.7640844604433106 1:0.57142857 2:0.57142857 3:0.54424552 4:0.54285714 5:0.5458099 29:1 45:1 65:1 116:1 264:1 
1.539451765088345 1:0.35714286 2:0.35714286 3:0.29855072 4:0.51515152 5:0.39032955 12:1 24:1 30:1 76:1 105:1 251:1 
2 1:0.28571429 2:0.28571429 3:0.33913043 4:0.33333333 5:0.51753352 12:1 26:1 30:1 42:1 75:1 88:1 
0.6858355636475236 1:0.64285714 2:0.64285714 3:0.43804348 4:0.29251701 5:0.50259995 12:1 32:1 44:1 211:1 
1.320796135667894 1:0.5 2:0.5 3:0.33043478 4:0.52380952 5:0.42139384 12:1 30:1 42:1 57:1 107:1 251:1 
2 1:0.57142857 2:0.57142857 3:0.20927536 4:0.36904762 5:0.54727175 14:1 26:1 43:1 100:1 249:1 
2 1:0.64285714 2:0.64285714 3:0.18695652 4:0.29251701 5:0.52741761 14:1 25:1 31:1 43:1 117:1 
2 1:0.57142857 2:0.57142857 3:0.38782609 4:0.36904762 5:0.51701783 57:1 105:1 210:1 232:1 
2 1:0.57142857 2:0.57142857 3:0.47710145 4:0.47619048 5:0.49432739 42:1 77:1 107:1 141:1 
2 1:0.57142857 2:0.57142857 3:0.56637681 4:0.58333333 5:0.50189087 32:1 58:1 76:1 107:1 251:1 
0.2929164155325948 1:0.64285714 2:0.64285714 3:0.52173913 4:0.29251701 5:0.49432739 32:1 42:1 57:1 89:1 
0.05316817816324164 1:0.57142857 2:0.57142857 3:0.29855072 4:0.36904762 5:0.53214479 25:1 31:1 42:1 57:1 251:1 
2 1:0.21428571 2:0.21428571 3:0.3410628 4:0.75238095 5:0.63146047 12:1 71:1 120:1 168:1 240:1 
1.379711061717394 1:0.21428571 2:0.21428571 3:0.3410628 4:0.56190476 5:0.71898073 12:1 69:1 84:1 100:1 156:1 241:1 
2 1:0.57142857 2:0.57142857 3:0.3007882 4:0.51428571 5:0.60958041 12:1 69:1 109:1 176:1 213:1 
0.5606517312382693 1:0.28571429 2:0.28571429 3:0.36657005 4:0.72857143 5:0.63605258 12:1 108:1 135:1 215:1 254:1 
1.888993208837906 1:0.35714286 2:0.35714286 3:0.38888889 4:0.69795918 5:0.64267063 12:1 101:1 141:1 156:1 240:1 
0.8206006985045698 1:0.5 2:0.5 3:0.50048309 4:0.6 5:0.7041239 12:1 101:1 176:1 215:1 
2 1:0.14285714 2:0.14285714 3:0.4146414 4:0.68571429 5:0.64776143 12:1 100:1 108:1 143:1 156:1 252:1 
2 1:0.21428571 2:0.21428571 3:0.43671498 4:0.56190476 5:0.75544751 12:1 100:1 109:1 120:1 143:1 
2 1:0.5 2:0.5 3:0.35169082 4:0.6 5:0.6726094 14:1 24:1 41:1 143:1 176:1 254:1 
1.070975239992589 1:0.28571429 2:0.28571429 3:0.45584541 4:0.72857143 5:0.64361606 24:1 84:1 101:1 143:1 252:1 
2 1:0.42857143 2:0.42857143 3:0.32980961 4:0.37142857 5:0.5745437 24:1 110:1 121:1 176:1 
2 1:0.5 2:0.5 3:0.50048309 4:0.42857143 5:0.51503692 24:1 41:1 44:1 176:1 252:1 
1.946633978253385 1:0.57142857 2:0.57142857 3:0.23030765 4:0.94285714 5:0.61704437 26:1 69:1 143:1 213:1 252:1 
2 1:0.57142857 2:0.57142857 3:0.37126875 4:0.3 5:0.58271015 26:1 101:1 122:1 176:1 
0.5208192243572892 1:0.21428571 2:0.21428571 3:0.43671498 4:0.65714286 5:0.65820277 71:1 84:1 100:1 240:1 252:1 
0.4161313631666517 1:0.35714286 2:0.35714286 3:0.47258454 4:0.69795918 5:0.65094318 71:1 108:1 137:1 252:1 
2 1:0.28571429 2:0.28571429 3:0.45584541 4:0.62142857 5:0.67765172 71:1 101:1 168:1 240:1 253:1 
2 1:0.5 2:0.5 3:0.50048309 4:0.42857143 5:0.51503692 71:1 85:1 101:1 176:1 
2 1:0.42857143 2:0.42857143 3:0.32980961 4:0.51428571 5:0.60958041 69:1 84:1 101:1 122:1 241:1 
0.4480203796418569 1:0.5 2:0.5 3:0.27729469 4:0.6 5:0.65685215 69:1 99:1 141:1 242:1 253:1 
0.6232695286922932 1:0.35714286 2:0.35714286 3:0.38888889 4:0.45306122 5:0.51030974 69:1 85:1 100:1 168:1 
2 1:0.5 2:0.5 3:0.42608696 4:0.6 5:0.68836665 70:1 86:1 101:1 122:1 136:1 142:1 252:1 
2 1:0.21428571 2:0.21428571 3:0.53236715 4:0.75238095 5:0.64604718 99:1 120:1 135:1 143:1 252:1 
2 1:0.28571429 2:0.28571429 3:0.36657005 4:0.62142857 5:0.66252476 99:1 120:1 141:1 156:1 253:1 
0.6270581450397272 1:0.5 2:0.5 3:0.27729469 4:0.6 5:0.65685215 99:1 170:1 213:1 254:1 
2 1:0.14285714 2:0.14285714 3:0.31163136 4:0.6 5:0.66412473 108:1 120:1 192:1 240:1 253:1 
1.180779521493995 1:0.42857143 2:0.42857143 3:0.40858198 4:0.65714286 5:0.6546276 108:1 143:1 176:1 204:1 
1.38183129234161 1:0.42857143 2:0.42857143 3:0.25103723 4:0.37142857 5:0.58455419 108:1 175:1 242:1 253:1 
2 1:0.42857143 2:0.42857143 3:0.32980961 4:0.51428571 5:0.60958041 110:1 120:1 176:1 240:1 
1.392407600194608 1:0.5 2:0.5 3:0.27729469 4:0.77142857 5:0.62533766 141:1 156:1 214:1 228:1 254:1 
1.217705242721723 1:0.28571429 2:0.28571429 3:0.27729469 4:0.51428571 5:0.60958041 109:1 156:1 242:1 252:1 
2 1:0.28571429 2:0.28571429 3:0.54512077 4:0.51428571 5:0.60958041 101:1 120:1 135:1 229:1 
0.4897618478484714 1:0.42857143 2:0.42857143 3:0.48735436 4:0.51428571 5:0.60958041 101:1 143:1 205:1 
0.9531857641217403 1:0.5 2:0.5 3:0.42608696 4:0.42857143 5:0.53079417 101:1 176:1 242:1 252:1 
2 1:0.28571429 2:0.28571429 3:0.45584541 4:0.51428571 5:0.60958041 101:1 121:1 168:1 252:1 
2 1:0.42857143 2:0.42857143 3:0.48735436 4:0.51428571 5:0.60958041 64:1 70:1 86:1 101:1 122:1 136:1 142:1 252:1 
2 1:0.28571429 2:0.28571429 3:0.45584541 4:0.19285714 5:0.58688997 64:1 109:1 174:1 253:1 
1.289784050927411 1:0.35714286 2:0.35714286 3:0.30519324 4:0.69795918 5:0.63439807 43:1 108:1 215:1 252:1 276:1 
1.57913899659278 1:0.35714286 2:0.35714286 3:0.30519324 4:0.45306122 5:0.53512741 43:1 204:1 228:1 241:1 
2 1:0.5 2:0.5 3:0.35169082 4:0.6 5:0.6726094 44:1 71:1 215:1 253:1 278:1 
2 1:0.64285714 2:0.64285714 3:0.32193237 4:0.37142857 5:0.57554475 44:1 141:1 158:1 214:1 253:1 
1.095030033805585 1:0.35714286 2:0.35714286 3:0.38888889 4:0.45306122 5:0.51030974 42:1 99:1 141:1 156:1 253:1 
0.1205109781987654 1:0.5 2:0.5 3:0.35169082 4:0.42857143 5:0.54655141 42:1 100:1 141:1 215:1 254:1 
0.4736293583219525 1:0.42857143 2:0.42857143 3:0.40858198 4:0.51428571 5:0.60958041 42:1 65:1 141:1 156:1 252:1 
2 1:0.35714286 2:0.35714286 3:0.47258454 4:0.45306122 5:0.48549208 41:1 43:1 63:1 192:1 253:1 
2 1:0.5 2:0.5 3:0.42608696 4:0.6 5:0.68836665 40:1 71:1 176:1 215:1 254:1 
1.691882075960216 1:0.35714286 2:0.35714286 3:0.30519324 4:0.45306122 5:0.53512741 13:1 24:1 141:1 176:1 192:1 253:1 
1.005319703353529 1:0.35714286 2:0.35714286 3:0.47258454 4:0.5755102 5:0.73366874 13:1 41:1 204:1 214:1 252:1 
2 1:0.35714286 2:0.35714286 3:0.55212276 4:0.35714286 5:0.53179521 25:1 40:1 53:1 100:1 249:1 
2 1:0.21428571 2:0.21428571 3:0.59652174 4:0.46428571 5:0.54678061 12:1 24:1 39:1 52:1 63:1 236:1 
2 1:0.21428571 2:0.21428571 3:0.47478261 4:0.53571429 5:0.52357448 12:1 24:1 51:1 63:1 229:1 250:1 
2 1:0.35714286 2:0.35714286 3:0.34367893 4:0.49285714 5:0.51355816 12:1 26:1 40:1 195:1 206:1 250:1 
0.4752288298716107 1:0.35714286 2:0.35714286 3:0.549699 4:0.66428571 5:0.52173981 12:1 39:1 195:1 215:1 250:1 
1.719652022376394 1:0.21428571 2:0.21428571 3:0.35304348 4:0.39285714 5:0.52357448 12:1 25:1 40:1 64:1 235:1 251:1 264:1 
1.55848327773921 1:0.5 2:0.5 3:0.42608696 4:0.64285714 5:0.51566721 14:1 24:1 41:1 119:1 236:1 251:1 
2 1:0.35714286 2:0.35714286 3:0.34367893 4:0.49285714 5:0.51355816 14:1 26:1 51:1 64:1 68:1 204:1 251:1 
2 1:0.21428571 2:0.21428571 3:0.47478261 4:0.53571429 5:0.52357448 14:1 26:1 40:1 51:1 63:1 195:1 251:1 
2 1:0.5 2:0.5 3:0.42608696 4:0.42857143 5:0.53079417 14:1 25:1 53:1 65:1 158:1 250:1 
2 1:0.35714286 2:0.35714286 3:0.75571906 4:0.49285714 5:0.55719362 24:1 39:1 53:1 65:1 196:1 250:1 
1.662353885633436 1:0.57142857 2:0.57142857 3:0.45956522 4:0.62755102 5:0.51803079 24:1 51:1 117:1 140:1 250:1 
2 1:0.28571429 2:0.28571429 3:0.40376812 4:0.67207792 5:0.51388139 24:1 111:1 204:1 215:1 228:1 250:1 
2 1:0.42857143 2:0.42857143 3:0.29217391 4:0.36904762 5:0.50810373 13:1 26:1 40:1 175:1 204:1 250:1 
2 1:0.35714286 2:0.35714286 3:0.2406689 4:0.57857143 5:0.50446744 13:1 25:1 119:1 132:1 213:1 251:1 
2 1:0.35714286 2:0.35714286 3:0.2406689 4:0.38571429 5:0.51399451 14:1 24:1 36:1 44:1 174:1 252:1 
2 1:0.28571429 2:0.28571429 3:0.29217391 4:0.40909091 5:0.51944895 36:1 68:1 85:1 123:1 228:1 254:1 
2 1:0.28571429 2:0.28571429 3:0.40376812 4:0.48701299 5:0.52687736 36:1 44:1 84:1 92:1 111:1 228:1 252:1 
2 1:0.35714286 2:0.35714286 3:0.2406689 4:0.3 5:0.50854008 85:1 91:1 220:1 230:1 252:1 
2 1:0.28571429 2:0.28571429 3:0.29217391 4:0.40909091 5:0.51944895 66:1 84:1 91:1 111:1 252:1 276:1 
2 1:0.28571429 2:0.28571429 3:0.36814381 4:0.69795918 5:0.64851899 12:1 47:1 60:1 96:1 179:1 246:1 
0.362495453072256 1:0.35714286 2:0.35714286 3:0.39021739 4:0.37414966 5:0.54298352 12:1 85:1 153:1 208:1 246:1 
1.183928886616208 1:0.35714286 2:0.35714286 3:0.39021739 4:0.46938776 5:0.52353458 24:1 46:1 73:1 192:1 246:1 
2 1:0.5 2:0.5 3:0.3423913 4:0.55102041 5:0.47288628 45:1 60:1 72:1 154:1 246:1 
2 1:0.57142857 2:0.57142857 3:0.3620844 4:0.6122449 5:0.57215694 37:1 46:1 108:1 153:1 179:1 248:1 
2 1:0.5 2:0.5 3:0.42608696 4:0.18367347 5:0.55443004 37:1 46:1 109:1 128:1 246:1 
2 1:0.42857143 2:0.42857143 3:0.32007246 4:0.29081633 5:0.55450882 13:1 25:1 46:1 122:1 246:1 
0.5028781500150102 1:0.42857143 2:0.42857143 3:0.14152174 4:0.73469388 5:0.55561183 12:1 24:1 36:1 213:1 249:1 266:1 
0.2713386652212349 1:0.14285714 2:0.14285714 3:0.31195652 4:0.73469388 5:0.55561183 12:1 24:1 60:1 72:1 120:1 
2 1:0.14285714 2:0.14285714 3:0.43369565 4:0.73469388 5:0.55561183 12:1 24:1 96:1 108:1 208:1 251:1 
2 1:0.35714286 2:0.35714286 3:0.29456522 4:0.87755102 5:0.59207861 12:1 24:1 96:1 155:1 165:1 251:1 
2 1:0.42857143 2:0.42857143 3:0.32007246 4:0.62755102 5:0.50266748 12:1 38:1 72:1 153:1 244:1 250:1 
1.815942059537137 1:0.28571429 2:0.28571429 3:0.36814381 4:0.82040816 5:0.63197388 12:1 47:1 60:1 96:1 179:1 
0.569991178779682 1:0.21428571 2:0.21428571 3:0.2307971 4:0.77365492 5:0.65960967 12:1 60:1 96:1 120:1 153:1 276:1 
0.6282384318813038 1:0.42857143 2:0.42857143 3:0.32007246 4:0.73469388 5:0.55561183 12:1 62:1 179:1 207:1 249:1 
2 1:0.57142857 2:0.57142857 3:0.12576726 4:0.73469388 5:0.55561183 14:1 26:1 38:1 46:1 120:1 153:1 251:1 
1.3600573718016 1:0.5 2:0.5 3:0.3423913 4:0.79591837 5:0.6548825 36:1 46:1 72:1 165:1 251:1 
0.1264570074138406 1:0.35714286 2:0.35714286 3:0.48586957 4:0.68707483 5:0.37327796 47:1 108:1 208:1 251:1 
2 1:0.57142857 2:0.57142857 3:0.3620844 4:0.73469388 5:0.55561183 47:1 122:1 154:1 251:1 
2 1:0.5 2:0.5 3:0.3423913 4:0.91836735 5:0.58870205 45:1 60:1 84:1 179:1 215:1 250:1 
2 1:0.64285714 2:0.64285714 3:0.45398551 4:0.82040816 5:0.65015532 46:1 60:1 154:1 166:1 251:1 
2 1:0.28571429 2:0.28571429 3:0.36814381 4:0.90612245 5:0.59379286 72:1 144:1 167:1 179:1 192:1 251:1 
1.997407056071745 1:0.57142857 2:0.57142857 3:0.3620844 4:0.73469388 5:0.55561183 37:1 46:1 108:1 153:1 179:1 250:1 
1.010015267025553 1:0.35714286 2:0.35714286 3:0.39021739 4:0.59183673 5:0.50698947 25:1 46:1 97:1 108:1 251:1 
1.477732277687809 1:0.64285714 2:0.64285714 3:0.26329071 4:0.32142857 5:0.53832057 86:1 206:1 235:1 250:1 
0.641071425695472 1:0.42857143 2:0.42857143 3:0.6684058 4:0.51190476 5:0.51143526 53:1 99:1 112:1 250:1 
2 1:0.5 2:0.5 3:0.42608696 4:0.71428571 5:0.79335494 12:1 34:1 179:1 207:1 249:1 
0.05851366529887578 1:0.35714286 2:0.35714286 3:0.29855072 4:0.70562771 5:0.78254997 12:1 83:1 96:1 216:1 249:1 
0.741874363047309 1:0.28571429 2:0.28571429 3:0.52173913 4:0.73809524 5:0.74473258 12:1 96:1 155:1 207:1 251:1 
2 1:0.35714286 2:0.35714286 3:0.52173913 4:0.47186147 5:0.51215559 12:1 96:1 102:1 208:1 250:1 
0.3748304317939921 1:0.64285714 2:0.64285714 3:0.52173913 4:0.36054422 5:0.53484603 34:1 56:1 208:1 250:1 
2 1:0.42857143 2:0.42857143 3:0.31571906 4:0.4952381 5:0.52546441 72:1 217:1 225:1 241:1 250:1 
2 1:0.5 2:0.5 3:0.42608696 4:0.42857143 5:0.53079417 56:1 72:1 122:1 208:1 250:1 
2 1:0.42857143 2:0.42857143 3:0.4187291 4:0.32380952 5:0.54455492 54:1 72:1 82:1 97:1 104:1 217:1 
0.2316755317956715 1:0.42857143 2:0.42857143 3:0.31571906 4:0.4952381 5:0.52546441 54:1 72:1 242:1 250:1 276:1 
2 1:0.42857143 2:0.42857143 3:0.52173913 4:0.23809524 5:0.54619125 54:1 102:1 208:1 
2 1:0.28571429 2:0.28571429 3:0.52173913 4:0.5952381 5:0.40437601 13:1 155:1 207:1 216:1 
2 1:0.5 2:0.5 3:0.52173913 4:0.33333333 5:0.53808752 13:1 104:1 208:1 250:1 
1.073860861695882 1:0.5 2:0.5 3:0.33043478 4:0.52380952 5:0.51377634 13:1 56:1 129:1 144:1 251:1 
2 1:0.35714286 2:0.35714286 3:0.52173913 4:0.39393939 5:0.52998379 13:1 54:1 83:1 102:1 131:1 208:1 
0.2139185192389195 1:0.28571429 2:0.28571429 3:0.37458194 4:0.52747253 5:0.53079417 63:1 184:1 240:1 249:1 264:1 
1.727169060981109 1:0.57142857 2:0.57142857 3:0.18327759 4:0.38095238 5:0.60372771 127:1 157:1 163:1 249:1 264:1 
0.6232415089308444 1:0.64285714 2:0.64285714 3:0.41921962 4:0.42857143 5:0.53079417 128:1 142:1 162:1 249:1 264:1 
1.133572611436194 1:0.64285714 2:0.64285714 3:0.31449275 4:0.56643357 5:0.47879525 12:1 57:1 129:1 227:1 248:1 
1.462947860423809 1:0.42857143 2:0.42857143 3:0.64927536 4:0.46624804 5:0.46461372 39:1 75:1 226:1 246:1 
0.3582883860843848 1:0.5 2:0.5 3:0.42608696 4:0.375 5:0.56320908 26:1 221:1 223:1 256:1 
2 1:0.5 2:0.5 3:0.42608696 4:0.53571429 5:0.51458671 119:1 189:1 239:1 256:1 
2 1:0.42857143 2:0.42857143 3:0.52173913 4:0.35294118 5:0.53079417 155:1 174:1 198:1 256:1 
2 1:0.57142857 2:0.57142857 3:0.68913043 4:0.4 5:0.42443274 54:1 130:1 238:1 256:1 
2 1:0.64285714 2:0.64285714 3:0.59613527 4:0.36734694 5:0.50873402 54:1 103:1 166:1 257:1 
2 1:0.5 2:0.5 3:0.6173913 4:0.42857143 5:0.53079417 25:1 166:1 238:1 256:1 
2 1:0.57142857 2:0.57142857 3:0.42608696 4:0.56103896 5:0.28970827 10:1 24:1 44:1 59:1 73:1 92:1 251:1 
0.5458970287362833 1:0.57142857 2:0.57142857 3:0.22006689 4:0.56103896 5:0.26789054 26:1 38:1 239:1 250:1 
1.189386720692923 1:0.5 2:0.5 3:0.20289855 4:0.42857143 5:0.42679633 26:1 37:1 43:1 59:1 
-2 1:0.35714286 2:0.35714286 3:0.3926087 4:0.30989011 5:0.6399919 19:1 64:1 102:1 205:1 255:1 
-0.1492471488345155 1:0.42857143 2:0.42857143 3:0.17226485 4:0.51428571 5:0.60958041 25:1 69:1 86:1 99:1 175:1 192:1 254:1 
-0.6768808376276882 1:0.28571429 2:0.28571429 3:0.36657005 4:0.19285714 5:0.59193229 25:1 85:1 100:1 122:1 169:1 176:1 
-0.6412821644219107 1:0.42857143 2:0.42857143 3:0.61884058 4:0.22727273 5:0.60071951 54:1 92:1 136:1 138:1 209:1 252:1 
-2 1:0.21428571 2:0.21428571 3:0.28672044 4:0.37142857 5:0.49126557 12:1 88:1 115:1 172:1 192:1 252:1 
-0.3761092651665516 1:0.42857143 2:0.42857143 3:0.46054987 4:0.10204082 5:0.55408245 40:1 103:1 116:1 146:1 160:1 232:1 
-2 1:0.35714286 2:0.35714286 3:0.39021739 4:0.65986395 5:0.71802404 12:1 60:1 108:1 128:1 153:1 243:1 
-0.8687599759238427 1:0.28571429 2:0.28571429 3:0.58231884 4:0.36038961 5:0.59035656 48:1 123:1 145:1 183:1 222:1 236:1 257:1 
-0.8191828965906832 1:0.71428571 2:0.71428571 3:0.25429062 4:0.18367347 5:0.5617074 45:1 110:1 122:1 128:1 245:1 247:1 
-0.01750314713362917 1:0.57142857 2:0.57142857 3:0.72028986 4:0.32467532 5:0.60599921 19:1 77:1 88:1 92:1 112:1 118:1 
-0.7220738874365397 1:0.57142857 2:0.57142857 3:0.6664437 4:0.31948052 5:0.60817438 77:1 78:1 164:1 190:1 200:1 240:1 256:1 
-2 1:0.35714286 2:0.35714286 3:0.28429668 4:0.57142857 5:0.56583087 12:1 54:1 86:1 101:1 206:1 216:1 251:1 
-0.2899114184834983 1:0.28571429 2:0.28571429 3:0.52173913 4:0.40601504 5:0.53079417 11:1 25:1 87:1 138:1 191:1 222:1 256:1 
-0.6474042293516358 1:0.35714286 2:0.35714286 3:0.55628019 4:0.5755102 5:0.7584864 71:1 101:1 137:1 143:1 193:1 253:1 
-0.04074855341269947 1:0.35714286 2:0.35714286 3:0.4484058 4:0.58441558 5:0.52903836 137:1 155:1 207:1 215:1 230:1 252:1 
-0.2027964038196897 1:0.28571429 2:0.28571429 3:0.65565217 4:0.3956044 5:0.60453809 13:1 31:1 47:1 64:1 76:1 159:1 257:1 
-0.08777889314720205 1:0.35714286 2:0.35714286 3:0.15826087 4:0.55444555 5:0.263047 84:1 120:1 175:1 192:1 206:1 239:1 
-2 1:0.57142857 2:0.57142857 3:0.34503432 4:0.57142857 5:0.47123177 14:1 127:1 173:1 192:1 225:1 
-1.221097135564037 1:0.5 2:0.5 3:0.42608696 4:0.21428571 5:0.46117578 14:1 18:1 76:1 162:1 181:1 238:1 248:1 
-0.6766936224768756 1:0.5 2:0.5 3:0.42608696 4:1 5:0.57750977 12:1 99:1 105:1 119:1 130:1 156:1 250:1 
-2 1:0.42857143 2:0.42857143 3:0.25103723 4:0.51428571 5:0.60958041 26:1 65:1 194:1 213:1 228:1 253:1 
-0.3858718338959132 1:0.28571429 2:0.28571429 3:0.52173913 4:0.52380952 5:0.48946515 13:1 24:1 102:1 155:1 208:1 240:1 250:1 
-1.190010556486793 1:0.5 2:0.5 3:0.54782609 4:0.42857143 5:0.56173567 41:1 63:1 92:1 158:1 227:1 246:1 
-0.9251633307063621 1:0.42857143 2:0.42857143 3:0.54724638 4:0.5952381 5:0.57725554 17:1 83:1 122:1 195:1 245:1 
-0.697178823458461 1:0.28571429 2:0.28571429 3:0.6286445 4:0.52380952 5:0.383497 12:1 26:1 51:1 100:1 233:1 244:1 250:1 
-1.090514889092565 1:0.57142857 2:0.57142857 3:0.1115942 4:0.26623377 5:0.5195349 19:1 30:1 60:1 67:1 127:1 138:1 252:1 
-0.2499746566926089 1:0.28571429 2:0.28571429 3:0.53299233 4:0.52380952 5:0.41996377 26:1 40:1 53:1 119:1 205:1 231:1 
-0.267412035449677 1:0.21428571 2:0.21428571 3:0.37028986 4:0.26233766 5:0.61635602 21:1 37:1 42:1 112:1 133:1 181:1 255:1 
-0.6995332452522035 1:0.42857143 2:0.42857143 3:0.0066889632 4:0.4952381 5:0.558191 26:1 72:1 98:1 217:1 225:1 242:1 
-0.2237650469258612 1:0.21428571 2:0.21428571 3:0.39175028 4:0.53877551 5:0.5236428 63:1 75:1 96:1 107:1 182:1 228:1 
-0.6273740526409783 1:0.35714286 2:0.35714286 3:0.58403567 4:0.47142857 5:0.52068528 28:1 34:1 121:1 143:1 160:1 221:1 
-0.4280125017880522 1:0.5 2:0.5 3:0.42608696 4:0.17142857 5:0.51261272 18:1 42:1 122:1 188:1 219:1 241:1 248:1 
-1.833563865993325 1:0.42857143 2:0.42857143 3:0.49862319 4:0.52040816 5:0.5140127 96:1 128:1 165:1 208:1 232:1 251:1 
-2 1:0.35714286 2:0.35714286 3:0.22149758 4:0.5755102 5:0.65921574 14:1 24:1 110:1 168:1 205:1 214:1 
-0.4100400823057327 1:0.64285714 2:0.64285714 3:0.56 4:0.35664336 5:0.60453809 13:1 31:1 92:1 140:1 159:1 225:1 257:1 
-1.491558907635772 1:0.28571429 2:0.28571429 3:0.18057971 4:0.40909091 5:0.50904916 26:1 36:1 54:1 123:1 175:1 228:1 252:1 
-0.01703548416954398 1:0.28571429 2:0.28571429 3:0.42608696 4:0.23376623 5:0.5099946 54:1 132:1 143:1 157:1 162:1 198:1 256:1 
-0.9335323671913199 1:0.42857143 2:0.42857143 3:0.42608696 4:0.67532468 5:0.26134522 59:1 108:1 176:1 204:1 228:1 239:1 250:1 
-2 1:0.28571429 2:0.28571429 3:0.26985507 4:0.55519481 5:0.54371511 26:1 100:1 111:1 120:1 141:1 157:1 
-0.3125322715364899 1:0.42857143 2:0.42857143 3:0.32980961 4:0.22857143 5:0.59206205 42:1 65:1 108:1 174:1 213:1 229:1 254:1 
-0.8518334317838624 1:0.5 2:0.5 3:0.33681159 4:0.53571429 5:0.53709706 26:1 71:1 101:1 112:1 122:1 213:1 
-1.435465400585039 1:0.5 2:0.5 3:0.23478261 4:0.42857143 5:0.53079417 26:1 69:1 88:1 155:1 198:1 223:1 255:1 
-2 1:0.35714286 2:0.35714286 3:0.4916388 4:0.37142857 5:0.53877747 14:1 47:1 75:1 124:1 152:1 253:1 
-0.06086052478691859 1:0.35714286 2:0.35714286 3:0.62523969 4:0.49285714 5:0.55472094 17:1 22:1 48:1 123:1 145:1 236:1 255:1 
-1.339648505675217 1:0.28571429 2:0.28571429 3:0.69391304 4:0.51623377 5:0.55915721 15:1 23:1 75:1 101:1 157:1 257:1 
-2 1:0.42857143 2:0.42857143 3:0.56886189 4:0.51020408 5:0.44174254 13:1 41:1 130:1 180:1 233:1 
-2 1:0.5 2:0.5 3:0.42608696 4:0.53571429 5:0.55726634 63:1 77:1 81:1 121:1 201:1 
-0.06712494761250716 1:0.21428571 2:0.21428571 3:0.43671498 4:0.56190476 5:0.75544751 12:1 25:1 65:1 71:1 99:1 194:1 253:1 
-0.7692796546151198 1:0.5 2:0.5 3:0.52173913 4:0.42857143 5:0.49432739 44:1 88:1 100:1 105:1 171:1 211:1 251:1 
-2 1:0.35714286 2:0.35714286 3:0.4484058 4:0.32067932 5:0.53811453 14:1 53:1 55:1 207:1 244:1 253:1 
-1.442363890042103 1:0.42857143 2:0.42857143 3:0.57913043 4:0.46428571 5:0.5445705 41:1 111:1 134:1 173:1 205:1 250:1 
-0.7380859161158209 1:0.42857143 2:0.42857143 3:0.52173913 4:0.25210084 5:0.53079417 30:1 90:1 175:1 198:1 220:1 255:1 
-1.087743591099821 1:0.21428571 2:0.21428571 3:0.43671498 4:0.56190476 5:0.75544751 12:1 63:1 84:1 99:1 176:1 194:1 253:1 
-0.4235654948270341 1:0.5 2:0.5 3:0.22006689 4:0.51428571 5:0.51824897 46:1 86:1 108:1 180:1 187:1 236:1 252:1 
-2 1:0.35714286 2:0.35714286 3:0.39021739 4:0.46938776 5:0.52353458 72:1 84:1 97:1 178:1 246:1 
-1.234419540228701 1:0.28571429 2:0.28571429 3:0.33337793 4:0.44835165 5:0.52511164 12:1 38:1 125:1 144:1 164:1 180:1 252:1 
-1.067140244842642 1:0.57142857 2:0.57142857 3:0.62086957 4:0.3956044 5:0.60453809 14:1 32:1 46:1 83:1 140:1 184:1 256:1 
-1.048526682409201 1:0.64285714 2:0.64285714 3:0.21319955 4:0.38571429 5:0.51639446 7:1 153:1 163:1 181:1 188:1 228:1 
-1.062235510326317 1:0.5 2:0.5 3:0.091304348 4:0.42857143 5:0.50850891 91:1 120:1 153:1 182:1 214:1 229:1 253:1 
-1.724887523536413 1:0.42857143 2:0.42857143 3:0.35169082 4:0.58869702 5:0.50873402 23:1 39:1 83:1 95:1 242:1 246:1 
-0.1614444873495079 1:0.42857143 2:0.42857143 3:0.47478261 4:0.31868132 5:0.48025637 6:1 77:1 126:1 196:1 201:1 252:1 
-1.367128620854301 1:0.42857143 2:0.42857143 3:0.31571906 4:0.4952381 5:0.52546441 13:1 72:1 82:1 102:1 177:1 192:1 
-2 1:0.28571429 2:0.28571429 3:0.46086957 4:0.47619048 5:0.49432739 13:1 24:1 76:1 141:1 207:1 233:1 
-2 1:0.28571429 2:0.28571429 3:0.60120401 4:0.25054945 5:0.57069879 12:1 64:1 76:1 152:1 188:1 216:1 253:1 
-0.5875453061557823 1:0.21428571 2:0.21428571 3:0.43671498 4:0.37142857 5:0.56095804 13:1 26:1 39:1 43:1 64:1 99:1 253:1 
-1.984498458986822 1:0.42857143 2:0.42857143 3:0.40147059 4:0.63265306 5:0.64028387 86:1 117:1 216:1 231:1 244:1 250:1 
-0.15256625918097 1:0.35714286 2:0.35714286 3:0.55628019 4:0.69795918 5:0.65921574 24:1 39:1 70:1 137:1 157:1 215:1 
-2 1:0.42857143 2:0.42857143 3:0.26421405 4:0.3047619 5:0.52159955 26:1 136:1 158:1 174:1 
-2 1:0.21428571 2:0.21428571 3:0.43753252 4:0.33061224 5:0.53927884 36:1 75:1 85:1 92:1 216:1 253:1 
-2 1:0.57142857 2:0.57142857 3:0.52173913 4:0.3452381 5:0.5367369 34:1 56:1 102:1 179:1 208:1 
-2 1:0.28571429 2:0.28571429 3:0.18801932 4:0.62142857 5:0.63227084 12:1 122:1 204:1 230:1 240:1 
-2 1:0.21428571 2:0.21428571 3:0.32271548 4:0.53571429 5:0.44759589 14:1 52:1 93:1 124:1 192:1 243:1 255:1 
-0.3775766547431712 1:0.5 2:0.5 3:0.3423913 4:0.67346939 5:0.45634117 73:1 96:1 153:1 165:1 179:1 244:1 250:1 
-0.1439756942315071 1:0.28571429 2:0.28571429 3:0.45584541 4:0.51428571 5:0.60958041 24:1 40:1 71:1 99:1 176:1 194:1 253:1 
-0.4464503554798591 1:0.5 2:0.5 3:0.42608696 4:0.64285714 5:0.51566721 12:1 51:1 86:1 118:1 197:1 230:1 250:1 
-0.05299437310581076 1:0.57142857 2:0.57142857 3:0.66956522 4:0.5 5:0.53749816 46:1 128:1 156:1 209:1 231:1 236:1 
-2 1:0.21428571 2:0.21428571 3:0.43671498 4:0.46666667 5:0.46371331 12:1 40:1 43:1 71:1 85:1 100:1 252:1 
-0.3564727411988127 1:0.42857143 2:0.42857143 3:0.48617614 4:0.62337662 5:0.54119395 23:1 40:1 82:1 191:1 217:1 240:1 250:1 
-0.9269514190417117 1:0.42857143 2:0.42857143 3:0.51614544 4:0.34285714 5:0.59382316 41:1 127:1 147:1 193:1 209:1 
-1.618452245573694 1:0.57142857 2:0.57142857 3:0.44637681 4:0.34415584 5:0.53884878 8:1 18:1 32:1 84:1 92:1 156:1 
-1.577002527748441 1:0.57142857 2:0.57142857 3:0.57826087 4:0.31818182 5:0.32838515 14:1 40:1 42:1 65:1 77:1 225:1 248:1 
-0.3716246574807184 1:0.35714286 2:0.35714286 3:0.52173913 4:0.39393939 5:0.52998379 13:1 56:1 102:1 131:1 208:1 216:1 
-1.169957660253743 1:0.35714286 2:0.35714286 3:0.45925427 4:0.14285714 5:0.55331776 14:1 18:1 52:1 193:1 226:1 244:1 257:1 
-1.639519105002831 1:0.42857143 2:0.42857143 3:0.31571906 4:0.4952381 5:0.52546441 13:1 26:1 35:1 54:1 207:1 225:1 
-2 1:0.57142857 2:0.57142857 3:0.33478261 4:0.34415584 5:0.53142036 32:1 60:1 68:1 91:1 102:1 252:1 
-0.6049637453717774 1:0.28571429 2:0.28571429 3:0.36814381 4:0.52653061 5:0.49579489 47:1 60:1 96:1 194:1 244:1 246:1 
-1.135847365799681 1:0.28571429 2:0.28571429 3:0.257289 4:0.42857143 5:0.50934312 12:1 27:1 114:1 146:1 172:1 179:1 254:1 
-2 1:0.28571429 2:0.28571429 3:0.7236715 4:0.35621521 5:0.58720511 8:1 75:1 100:1 180:1 222:1 255:1 
-2 1:0.28571429 2:0.28571429 3:0.85652174 4:0.4962406 5:0.62061048 24:1 51:1 102:1 167:1 219:1 257:1 
-1.058651781686189 1:0.42857143 2:0.42857143 3:0.78318841 4:0.51805338 5:0.63762831 46:1 64:1 75:1 82:1 184:1 225:1 255:1 
-0.9321725297880127 1:0.35714286 2:0.35714286 3:0.24816054 4:0.44285714 5:0.5209861 14:1 65:1 84:1 164:1 180:1 218:1 252:1 
-2 1:0.5 2:0.5 3:0.31449275 4:0.42857143 5:0.52039438 115:1 132:1 142:1 218:1 256:1 
-0.3116798150515913 1:0.71428571 2:0.71428571 3:0.37458194 4:0.52747253 5:0.53079417 23:1 57:1 93:1 166:1 177:1 208:1 246:1 
-1.75534774847852 1:0.42857143 2:0.42857143 3:0.57275362 4:0.41666667 5:0.52289625 24:1 52:1 101:1 112:1 190:1 235:1 
-0.1796376661381737 1:0.28571429 2:0.28571429 3:0.57416388 4:0.69795918 5:0.69215445 24:1 46:1 72:1 167:1 231:1 243:1 246:1 
-2 1:0.57142857 2:0.57142857 3:0.37126875 4:0.085714286 5:0.59614528 42:1 101:1 141:1 176:1 194:1 253:1 
-1.363073959895836 1:0.28571429 2:0.28571429 3:0.44668896 4:0.28351648 5:0.50860242 18:1 40:1 42:1 90:1 121:1 183:1 251:1 
-0.7106063423700336 1:0.35714286 2:0.35714286 3:0.52173913 4:0.43722944 5:0.49432739 24:1 42:1 76:1 119:1 210:1 243:1 250:1 
-0.1994095772156326 1:0.5 2:0.5 3:0.42608696 4:0.32142857 5:0.53835764 21:1 33:1 48:1 88:1 186:1 222:1 257:1 
-1.244632425294554 1:0.14285714 2:0.14285714 3:0.73511706 4:0.45714286 5:0.54443025 12:1 47:1 63:1 75:1 125:1 216:1 253:1 
-0.864720339917778 1:0.42857143 2:0.42857143 3:0.49623188 4:0.26190476 5:0.65018909 32:1 58:1 172:1 198:1 217:1 228:1 
-2 1:0.5 2:0.5 3:0.50485934 4:0.71428571 5:0.61087806 12:1 118:1 130:1 144:1 233:1 
-2 1:0.57142857 2:0.57142857 3:0.54724638 4:0.23809524 5:0.53214479 17:1 40:1 176:1 223:1 
-1.281806133413877 1:0.28571429 2:0.28571429 3:0.45584541 4:0.72857143 5:0.64361606 24:1 65:1 71:1 109:1 143:1 168:1 
-1.914322785458201 1:0.21428571 2:0.21428571 3:0.3423913 4:0.57328386 5:0.41616018 24:1 46:1 60:1 108:1 121:1 144:1 246:1 
-0.4834011743936381 1:0.78571429 2:0.78571429 3:0.20289855 4:0.66233766 5:0.5099946 22:1 38:1 43:1 141:1 158:1 190:1 
-0.06526551220657334 1:0.57142857 2:0.57142857 3:0.36869565 4:0.66666667 5:0.54538088 39:1 62:1 95:1 191:1 223:1 238:1 
-0.007476154763413787 1:0.35714286 2:0.35714286 3:0.4628474 4:0.67857143 5:0.61877522 99:1 131:1 168:1 182:1 245:1 
-2 1:0.57142857 2:0.57142857 3:0.51222985 4:0.51428571 5:0.60958041 101:1 109:1 142:1 176:1 215:1 
-0.3162446526794425 1:0.42857143 2:0.42857143 3:0.68753623 4:0.54761905 5:0.53557922 15:1 48:1 80:1 106:1 171:1 245:1 
-2 1:0.35714286 2:0.35714286 3:0.52173913 4:0.62770563 5:0.26256078 12:1 35:1 83:1 208:1 
-2 1:0.5 2:0.5 3:0.11705686 4:0.42857143 5:0.51443087 46:1 110:1 151:1 182:1 216:1 253:1 
-2 1:0.42857143 2:0.42857143 3:0.66956522 4:0.43406593 5:0.54265508 20:1 46:1 180:1 208:1 233:1 252:1 
-1.66184110671274 1:0.71428571 2:0.71428571 3:0.48560386 4:0.64285714 5:0.52007924 58:1 79:1 105:1 173:1 245:1 
-0.3624609174880721 1:0.35714286 2:0.35714286 3:0.30519324 4:0.33061224 5:0.58476274 39:1 43:1 109:1 170:1 174:1 252:1 
-1.228055070742944 1:0.78571429 2:0.78571429 3:0.4871701 4:0.32142857 5:0.52883695 33:1 53:1 69:1 112:1 189:1 236:1 250:1 
-0.9615103193153696 1:0.42857143 2:0.42857143 3:0.49862319 4:0.82653061 5:0.61375608 96:1 155:1 167:1 179:1 243:1 248:1 
-0.6771484417215996 1:0.5 2:0.5 3:0.23478261 4:0.52380952 5:0.52593193 12:1 54:1 82:1 98:1 155:1 218:1 
-0.1424670110071325 1:0.5 2:0.5 3:0.32307692 4:0.6 5:0.52533973 21:1 75:1 83:1 191:1 199:1 229:1 
-2 1:0.57142857 2:0.57142857 3:0.45956522 4:0.2755102 5:0.56908428 44:1 66:1 90:1 189:1 207:1 
-2 1:0.35714286 2:0.35714286 3:0.38888889 4:0.45306122 5:0.51030974 24:1 42:1 101:1 170:1 215:1 253:1 
-0.5803626480024591 1:0.5 2:0.5 3:0.57487923 4:0.42857143 5:0.49927967 40:1 101:1 137:1 176:1 204:1 213:1 
-0.1481449826976975 1:0.5 2:0.5 3:0.52173913 4:0.42857143 5:0.52350081 56:1 104:1 120:1 155:1 208:1 
-0.3499275104418241 1:0.35714286 2:0.35714286 3:0.52077295 4:0.19387755 5:0.58634563 6:1 66:1 140:1 156:1 232:1 253:1 
-2 1:0.64285714 2:0.64285714 3:0.18801932 4:0.65714286 5:0.62659824 108:1 141:1 175:1 213:1 242:1 
-0.3744391420254907 1:0.35714286 2:0.35714286 3:0.42608696 4:0.75224775 5:0.25232061 11:1 59:1 84:1 168:1 228:1 238:1 251:1 
-0.3585241480739312 1:0.42857143 2:0.42857143 3:0.50724638 4:0.37662338 5:0.54867148 22:1 76:1 78:1 143:1 189:1 217:1 256:1 
-2 1:0.35714286 2:0.35714286 3:0.47258454 4:0.69795918 5:0.65094318 12:1 24:1 39:1 99:1 176:1 213:1 
-2 1:0.28571429 2:0.28571429 3:0.39525172 4:0.48979592 5:0.40670583 40:1 63:1 193:1 225:1 255:1 
-1.544641492680077 1:0.28571429 2:0.28571429 3:0.53299233 4:0.33333333 5:0.53665745 40:1 53:1 54:1 180:1 186:1 216:1 
-0.3168943099079626 1:0.35714286 2:0.35714286 3:0.41033248 4:0.28571429 5:0.5458099 27:1 65:1 116:1 146:1 193:1 253:1 
-0.5982201136922161 1:0.78571429 2:0.78571429 3:0.13391304 4:0.5 5:0.51480772 8:1 20:1 46:1 62:1 122:1 235:1 254:1 
-0.01953035987123782 1:0.28571429 2:0.28571429 3:0.46729097 4:0.11868132 5:0.73293542 18:1 37:1 109:1 125:1 145:1 164:1 253:1 
-2 1:0.42857143 2:0.42857143 3:0.49862319 4:0.52040816 5:0.5140127 13:1 46:1 84:1 166:1 208:1 
-0.1000820740628733 1:0.28571429 2:0.28571429 3:0.37458194 4:0.59340659 5:0.53079417 100:1 142:1 183:1 216:1 228:1 242:1 251:1 
-2 1:0.5 2:0.5 3:0.42608696 4:0.42857143 5:0.53079417 6:1 46:1 60:1 104:1 252:1 
-0.2340482809906637 1:0.5 2:0.5 3:0.30434783 4:0.21428571 5:0.54781199 18:1 30:1 120:1 164:1 210:1 235:1 252:1 
-2 1:0.42857143 2:0.42857143 3:0.52173913 4:0.55462185 5:0.53079417 11:1 129:1 155:1 220:1 255:1 
-0.9221830497208428 1:0.42857143 2:0.42857143 3:0.2307971 4:0.73469388 5:0.55561183 12:1 26:1 97:1 154:1 167:1 194:1 251:1 
-1.095422272979905 1:0.57142857 2:0.57142857 3:0.32307692 4:0.47532468 5:0.33879815 109:1 128:1 176:1 192:1 239:1 249:1 
-0.7696628106043077 1:0.35714286 2:0.35714286 3:0.75571906 4:0.66428571 5:0.53264867 51:1 63:1 119:1 171:1 197:1 214:1 
-0.5610615446785974 1:0.42857143 2:0.42857143 3:0.52173913 4:0.45378151 5:0.53079417 24:1 55:1 87:1 191:1 198:1 238:1 256:1 
-1.240111044420682 1:0.42857143 2:0.42857143 3:0.53565217 4:0.5 5:0.53182555 46:1 84:1 120:1 156:1 233:1 236:1 
-1.761976414000712 1:0.21428571 2:0.21428571 3:0.40790872 4:0.57142857 5:0.56583087 14:1 26:1 51:1 99:1 168:1 244:1 
-2 1:0.5 2:0.5 3:0.22006689 4:0.42857143 5:0.5198853 20:1 45:1 76:1 108:1 182:1 218:1 
-1.800566920716988 1:0.57142857 2:0.57142857 3:0.54381271 4:0.22857143 5:0.57248161 65:1 76:1 126:1 224:1 236:1 254:1 
-2 1:0.28571429 2:0.28571429 3:0.27729469 4:0.51205937 5:0.29601117 36:1 84:1 109:1 192:1 230:1 250:1 
-2 1:0.071428571 2:0.071428571 3:0.42608696 4:0.32446501 5:0.53079417 13:1 40:1 76:1 120:1 148:1 241:1 246:1 
-2 1:0.14285714 2:0.14285714 3:0.48985507 4:0.34090909 5:0.55861696 36:1 54:1 75:1 156:1 217:1 256:1 
-2 1:0.42857143 2:0.42857143 3:0.50334448 4:0.44415584 5:0.53489798 65:1 75:1 107:1 153:1 205:1 246:1 
-0.1851413566621929 1:0.21428571 2:0.21428571 3:0.51091875 4:0.74285714 5:0.6040119 24:1 41:1 107:1 168:1 216:1 243:1 
-0.4343759774162992 1:0.28571429 2:0.28571429 3:0.054731458 4:0.52380952 5:0.60229765 12:1 73:1 158:1 168:1 206:1 217:1 249:1 
-2 1:0.57142857 2:0.57142857 3:0.35250836 4:0.41904762 5:0.52733227 20:1 45:1 84:1 144:1 152:1 224:1 253:1 
-1.373097398323622 1:0.5 2:0.5 3:0.52909699 4:0.6 5:0.54715746 22:1 111:1 116:1 156:1 162:1 191:1 251:1 
-1.108610392840068 1:0.21428571 2:0.21428571 3:0.52173913 4:0.5018315 5:0.50081037 13:1 96:1 102:1 144:1 179:1 208:1 
-1.641735678160826 1:0.57142857 2:0.57142857 3:0.25391304 4:0.45238095 5:0.54051864 72:1 104:1 153:1 194:1 217:1 250:1 
-1.257456399514821 1:0.5 2:0.5 3:0.42608696 4:0.33333333 5:0.50648298 24:1 30:1 44:1 158:1 209:1 210:1 251:1 
-1.350362011559391 1:0.35714286 2:0.35714286 3:0.48586957 4:0.49659864 5:0.51914506 13:1 25:1 154:1 166:1 192:1 244:1 
-2 1:0.5 2:0.5 3:0.64927536 4:0.25714286 5:0.56756108 40:1 101:1 137:1 176:1 
-1.71950153610145 1:0.5 2:0.5 3:0.51536232 4:0.42857143 5:0.54592112 21:1 64:1 168:1 214:1 234:1 257:1 
-0.8366226818585167 1:0.64285714 2:0.64285714 3:0.52173913 4:0.36054422 5:0.53484603 56:1 104:1 154:1 208:1 227:1 
-0.6160622131897528 1:0.5 2:0.5 3:0.63210702 4:0.42857143 5:0.53079417 75:1 99:1 116:1 128:1 200:1 229:1 251:1 
-2 1:0.21428571 2:0.21428571 3:0.66956522 4:0.44642857 5:0.54155002 156:1 192:1 207:1 233:1 252:1 
-2 1:0.35714286 2:0.35714286 3:0.38888889 4:0.82040816 5:0.62943454 24:1 41:1 86:1 135:1 143:1 215:1 254:1 
-1.82114007326458 1:0.28571429 2:0.28571429 3:0.36814381 4:0.52653061 5:0.49579489 25:1 38:1 72:1 120:1 166:1 208:1 
-2 1:0.21428571 2:0.21428571 3:0.47478261 4:0.53571429 5:0.52357448 12:1 51:1 63:1 196:1 215:1 229:1 249:1 
-2 1:0.5 2:0.5 3:0.31449275 4:0.35064935 5:0.52336575 14:1 18:1 32:1 51:1 91:1 155:1 253:1 
-1.323861765545504 1:0.071428571 2:0.071428571 3:0.69820972 4:0.64285714 5:0.70506765 12:1 39:1 51:1 99:1 204:1 244:1 
-2 1:0.64285714 2:0.64285714 3:0.46729097 4:0.51428571 5:0.52872148 46:1 84:1 92:1 164:1 236:1 252:1 
-1.640138672991689 1:0.5 2:0.5 3:0.32307692 4:0.42857143 5:0.52352159 39:1 43:1 106:1 146:1 228:1 246:1 
-2 1:0.35714286 2:0.35714286 3:0.3804819 4:0.28571429 5:0.58585184 13:1 19:1 88:1 95:1 127:1 183:1 256:1 
-1.013157737842616 1:0.64285714 2:0.64285714 3:0.4385247 4:0.5 5:0.53685314 12:1 29:1 115:1 161:1 177:1 235:1 
-0.25539146665185 1:0.57142857 2:0.57142857 3:0.32307692 4:0.47532468 5:0.33879815 10:1 72:1 84:1 128:1 210:1 230:1 250:1 
-1.71899860035799 1:0.21428571 2:0.21428571 3:0.3423913 4:0.69573284 5:0.39961507 12:1 85:1 96:1 108:1 178:1 193:1 251:1 
-1.533851688290759 1:0.071428571 2:0.071428571 3:0.52173913 4:0.6952381 5:1 12:1 120:1 169:1 192:1 207:1 216:1 251:1 
-2 1:0.5 2:0.5 3:0.42608696 4:0.35714286 5:0.53620893 20:1 104:1 120:1 180:1 210:1 
-2 1:0.85714286 2:0.85714286 3:0.2685422 4:0.38961039 5:0.21880065 43:1 154:1 176:1 211:1 250:1 
-2 1:0.42857143 2:0.42857143 3:0.4187291 4:0.4952381 5:0.51455554 12:1 35:1 102:1 217:1 250:1 
-2 1:0.14285714 2:0.14285714 3:0.43265132 4:0.32467532 5:0.49381098 13:1 40:1 75:1 88:1 179:1 193:1 
-0.563978559779398 1:0.35714286 2:0.35714286 3:0.48586957 4:0.65986395 5:0.75449082 24:1 96:1 120:1 128:1 215:1 233:1 
-2 1:0.42857143 2:0.42857143 3:0.51614544 4:0.51428571 5:0.46776517 41:1 93:1 112:1 125:1 192:1 225:1 256:1 
-0.9720032448228508 1:0.071428571 2:0.071428571 3:0.36163683 4:0.35714286 5:0.49939764 13:1 27:1 40:1 76:1 159:1 206:1 252:1 
-1.972669048393729 1:0.42857143 2:0.42857143 3:0.42608696 4:0.67532468 5:0.26134522 108:1 155:1 192:1 212:1 239:1 251:1 
-0.2727910981535308 1:0.21428571 2:0.21428571 3:0.52173913 4:0.6996337 5:0.94327391 25:1 73:1 131:1 179:1 207:1 216:1 251:1 
-2 1:0.35714286 2:0.35714286 3:0.55628019 4:0.5755102 5:0.7584864 24:1 41:1 63:1 71:1 109:1 176:1 
-0.4756186304445756 1:0.64285714 2:0.64285714 3:0.56787724 4:0.32142857 5:0.50810373 63:1 138:1 173:1 176:1 235:1 250:1 
-0.6922563364978459 1:0.5 2:0.5 3:0.42608696 4:0.35714286 5:0.53620893 46:1 84:1 91:1 121:1 162:1 233:1 
-0.3945299457205187 1:0.28571429 2:0.28571429 3:0.7236715 4:0.4174397 5:0.56146828 8:1 36:1 54:1 75:1 99:1 255:1 
-1.186456525259685 1:0.42857143 2:0.42857143 3:0.32980961 4:0.51428571 5:0.60958041 101:1 158:1 170:1 174:1 215:1 252:1 
-2 1:0.57142857 2:0.57142857 3:0.33478261 4:0.26623377 5:0.54033446 20:1 104:1 122:1 138:1 162:1 252:1 
-1.494833741331491 1:0.35714286 2:0.35714286 3:0.34367893 4:0.32142857 5:0.50810373 13:1 25:1 85:1 140:1 175:1 195:1 251:1 
-0.7377810323266503 1:0.14285714 2:0.14285714 3:0.23294314 4:0.28571429 5:0.52689814 13:1 36:1 63:1 85:1 181:1 187:1 252:1 
-0.1529976384251768 1:0.57142857 2:0.57142857 3:0.3574136 4:0.49090909 5:0.52090346 23:1 38:1 79:1 113:1 200:1 242:1 255:1 
-2 1:0.35714286 2:0.35714286 3:0.29855072 4:0.54978355 5:0.5052224 13:1 24:1 72:1 104:1 122:1 216:1 250:1 
-2 1:0.42857143 2:0.42857143 3:0.52173913 4:0.40952381 5:0.52728255 13:1 102:1 131:1 209:1 
-0.7938021317245337 1:0.5 2:0.5 3:0.42608696 4:0.80952381 5:0.56969206 60:1 95:1 119:1 176:1 191:1 239:1 
-0.4018948035216871 1:0.35714286 2:0.35714286 3:0.68309179 4:0.40816327 5:0.56503037 54:1 75:1 88:1 119:1 128:1 221:1 252:1 
-2 1:0.71428571 2:0.71428571 3:0.43171355 4:0.66666667 5:0.54538088 17:1 69:1 93:1 118:1 238:1 252:1 
-0.7470995333953651 1:0.42857143 2:0.42857143 3:0.28874025 4:0.35844156 5:0.52656049 38:1 86:1 108:1 123:1 128:1 224:1 253:1 
-0.04897787535087098 1:0.5 2:0.5 3:0.66956522 4:0.35714286 5:0.56947105 20:1 54:1 89:1 119:1 126:1 185:1 252:1 
-1.218920467476547 1:0.21428571 2:0.21428571 3:0.53768116 4:0.31948052 5:0.58090222 23:1 36:1 100:1 112:1 181:1 222:1 
-2 1:0.57142857 2:0.57142857 3:0.24347826 4:0.38461538 5:0.55400029 14:1 93:1 102:1 165:1 186:1 207:1 
-0.07101617464965397 1:0.35714286 2:0.35714286 3:0.67892977 4:0.28571429 5:0.49211728 41:1 42:1 99:1 112:1 164:1 229:1 
-0.1774984652600304 1:0.71428571 2:0.71428571 3:0.25429062 4:0.94897959 5:0.57651092 38:1 45:1 153:1 165:1 179:1 233:1 251:1 
-1.43917658756595 1:0.28571429 2:0.28571429 3:0.39525172 4:0.12244898 5:0.55561183 13:1 18:1 126:1 148:1 183:1 225:1 256:1 
-0.1065051821126181 1:0.21428571 2:0.21428571 3:0.3410628 4:0.65714286 5:0.64604718 26:1 99:1 143:1 156:1 168:1 229:1 
-2 1:0.57142857 2:0.57142857 3:0.52173913 4:0.34285714 5:0.53079417 10:1 31:1 54:1 71:1 102:1 256:1 
-0.01051422944258909 1:0.21428571 2:0.21428571 3:0.52173913 4:0.43589744 5:0.52188006 12:1 54:1 102:1 144:1 168:1 208:1 
-2 1:0.42857143 2:0.42857143 3:0.25362319 4:0.51298701 5:0.5202716 14:1 18:1 51:1 122:1 154:1 215:1 252:1 
-0.6163028644081677 1:0.57142857 2:0.57142857 3:0.47023411 4:0.57142857 5:0.54294976 41:1 44:1 63:1 163:1 189:1 228:1 251:1 
-1.324165456252545 1:0.5 2:0.5 3:0.73511706 4:0.51428571 5:0.5400667 46:1 63:1 77:1 123:1 128:1 152:1 252:1 
-2 1:0.64285714 2:0.64285714 3:0.3998295 4:0.67857143 5:0.59363778 38:1 101:1 142:1 179:1 237:1 
-2 1:0.5 2:0.5 3:0.42608696 4:0.52380952 5:0.50162075 54:1 81:1 155:1 208:1 227:1 
-0.3193585364362617 1:0.21428571 2:0.21428571 3:0.1192029 4:0.4174397 5:0.56175716 13:1 38:1 86:1 96:1 120:1 145:1 246:1 
-1.667854433688559 1:0.71428571 2:0.71428571 3:0.52173913 4:0.46153846 5:0.53079417 26:1 103:1 154:1 166:1 238:1 256:1 
-0.1493719149960515 1:0.21428571 2:0.21428571 3:0.38782609 4:0.43589744 5:0.53241491 13:1 24:1 102:1 144:1 170:1 208:1 
-2 1:0.64285714 2:0.64285714 3:0.46300534 4:0.42857143 5:0.53079417 14:1 77:1 128:1 225:1 
-2 1:0.14285714 2:0.14285714 3:0.47072464 4:0.47802198 5:0.53381956 27:1 49:1 64:1 111:1 220:1 
-2 1:0.5 2:0.5 3:0.57487923 4:0.25714286 5:0.57281349 39:1 43:1 64:1 101:1 176:1 
-2 1:0.5 2:0.5 3:0.53768116 4:0.27272727 5:0.55803169 52:1 56:1 76:1 122:1 164:1 
-2 1:0.28571429 2:0.28571429 3:0.33478261 4:0.27142857 5:0.53952409 6:1 47:1 84:1 157:1 234:1 253:1 
-2 1:0.42857143 2:0.42857143 3:0.40033445 4:0.43636364 5:0.52903663 14:1 19:1 46:1 77:1 124:1 180:1 252:1 
-0.036881258520415 1:0.42857143 2:0.42857143 3:0.34086957 4:0.25274725 5:0.70148814 19:1 117:1 126:1 148:1 219:1 234:1 253:1 
-2 1:0.071428571 2:0.071428571 3:0.48337596 4:0.42857143 5:0.53807452 12:1 29:1 39:1 64:1 76:1 204:1 252:1 
-1.343123554086723 1:0.35714286 2:0.35714286 3:0.64147157 4:0.51428571 5:0.49806757 12:1 41:1 85:1 149:1 160:1 239:1 250:1 
-2 1:0.21428571 2:0.21428571 3:0.53768116 4:0.31948052 5:0.58090222 75:1 111:1 114:1 133:1 242:1 256:1 
-0.6353653367351336 1:0.64285714 2:0.64285714 3:0.15640097 4:0.30612245 5:0.54930893 73:1 127:1 153:1 177:1 193:1 249:1 
-2 1:0.35714286 2:0.35714286 3:0.41033248 4:0.5 5:0.53446468 63:1 179:1 232:1 235:1 252:1 
-1.000157822233914 1:0.28571429 2:0.28571429 3:0.45584541 4:0.51428571 5:0.60958041 25:1 71:1 100:1 135:1 214:1 242:1 253:1 
-2 1:0.64285714 2:0.64285714 3:0.3315601 4:0.21428571 5:0.51944895 24:1 44:1 55:1 66:1 175:1 
-1.302794900712152 1:0.71428571 2:0.71428571 3:0.58060201 4:0.52747253 5:0.53079417 22:1 41:1 83:1 93:1 103:1 149:1 
-0.3300946418092275 1:0.5 2:0.5 3:0.58363171 4:0.28571429 5:0.5458099 29:1 45:1 87:1 128:1 220:1 234:1 
-1.647569895835609 1:0.42857143 2:0.42857143 3:0.26782609 4:0.36813187 5:0.52552265 7:1 47:1 156:1 208:1 211:1 253:1 
-0.9459188895722053 1:0.42857143 2:0.42857143 3:0.40934783 4:0.84183673 5:0.62368314 12:1 120:1 154:1 165:1 192:1 209:1 251:1 
-1.905165273046414 1:0.35714286 2:0.35714286 3:0.56 4:0.48131868 5:0.60453809 47:1 63:1 138:1 219:1 225:1 256:1 
-0.4077771619756896 1:0.5 2:0.5 3:0.33681159 4:0.42857143 5:0.51566721 52:1 67:1 90:1 134:1 204:1 214:1 251:1 
-0.4514093132124987 1:0.28571429 2:0.28571429 3:0.36657005 4:0.51428571 5:0.60958041 26:1 40:1 44:1 71:1 205:1 228:1 252:1 
-2 1:0.42857143 2:0.42857143 3:0.32007246 4:0.84183673 5:0.60855619 12:1 37:1 122:1 155:1 166:1 179:1 251:1 
-2 1:0.64285714 2:0.64285714 3:0.35434783 4:0.41496599 5:0.54396272 25:1 31:1 42:1 57:1 117:1 245:1 251:1 
-0.508645517861003 1:0.5 2:0.5 3:0.6173913 4:0.42857143 5:0.45786062 44:1 59:1 76:1 88:1 117:1 233:1 
-1.452885830646255 1:0.57142857 2:0.57142857 3:0.27391304 4:0.4025974 5:0.50200138 119:1 127:1 151:1 196:1 235:1 252:1 
-0.007630419975361006 1:0.21428571 2:0.21428571 3:0.56557971 4:0.4174397 5:0.52015802 36:1 61:1 109:1 209:1 232:1 
-1.31933717857896 1:0.57142857 2:0.57142857 3:0.54884058 4:0.56632653 5:0.51677021 34:1 52:1 122:1 215:1 233:1 250:1 
-1.631725264304017 1:0.42857143 2:0.42857143 3:0.40147059 4:0.87755102 5:0.58072147 12:1 107:1 118:1 168:1 243:1 249:1 
-2 1:0.5 2:0.5 3:0.52909699 4:0.51428571 5:0.53133961 12:1 47:1 123:1 128:1 200:1 224:1 252:1 
-2 1:0.21428571 2:0.21428571 3:0.62801932 4:0.65714286 5:0.68251396 12:1 39:1 44:1 101:1 108:1 135:1 252:1 
-2 1:0.42857143 2:0.42857143 3:0.38782609 4:0.27380952 5:0.47163695 64:1 85:1 91:1 175:1 195:1 
-0.8453487887378051 1:0.57142857 2:0.57142857 3:0.28331202 4:0.87755102 5:0.59064854 25:1 47:1 84:1 153:1 166:1 179:1 249:1 
-0.4272362084946086 1:0.42857143 2:0.42857143 3:0.63439614 4:0.64050235 5:0.61005312 12:1 83:1 161:1 166:1 191:1 227:1 256:1 
-0.2925829029355314 1:0.14285714 2:0.14285714 3:0.52173913 4:0.54421769 5:0.47528363 25:1 72:1 169:1 208:1 227:1 240:1 
-1.549596601340732 1:0.42857143 2:0.42857143 3:0.59054157 4:0.68571429 5:0.51503692 19:1 53:1 125:1 159:1 183:1 225:1 255:1 
-0.1477089129384337 1:0.57142857 2:0.57142857 3:0.52173913 4:0.88095238 5:0.63128039 12:1 82:1 155:1 178:1 207:1 226:1 251:1 
-0.09199686820132781 1:0.42857143 2:0.42857143 3:0.50334448 4:0.28831169 5:0.56461164 6:1 75:1 128:1 146:1 221:1 229:1 
-1.149306955842997 1:0.21428571 2:0.21428571 3:0.42608696 4:0.41818182 5:0.64424635 25:1 109:1 192:1 204:1 229:1 238:1 
-0.2762966954704226 1:0.42857143 2:0.42857143 3:0.56612674 4:0.8 5:0.64211449 65:1 71:1 99:1 143:1 214:1 229:1 
-2 1:0.071428571 2:0.071428571 3:0.38888889 4:0.47532468 5:0.45358365 12:1 71:1 109:1 136:1 157:1 240:1 253:1 
-2 1:0.5 2:0.5 3:0.42608696 4:0.49450549 5:0.53079417 21:1 75:1 120:1 188:1 240:1 248:1 
-1.11474640001901 1:0.5 2:0.5 3:0.57487923 4:0.25714286 5:0.57281349 41:1 43:1 101:1 121:1 137:1 
-0.2166514787606303 1:0.57142857 2:0.57142857 3:0.25685619 4:0.22857143 5:0.53601484 37:1 76:1 151:1 182:1 187:1 236:1 
-0.2387635096783595 1:0.35714286 2:0.35714286 3:0.48586957 4:0.68707483 5:0.37327796 36:1 46:1 108:1 146:1 207:1 245:1 
-0.03882646571765618 1:0.21428571 2:0.21428571 3:0.59054157 4:0.42857143 5:0.53079417 51:1 88:1 127:1 171:1 185:1 207:1 256:1 
-2 1:0.42857143 2:0.42857143 3:0.56612674 4:0.65714286 5:0.67464857 65:1 84:1 101:1 143:1 
-2 1:0.5 2:0.5 3:0.27729469 4:0.6 5:0.65685215 12:1 43:1 70:1 86:1 204:1 
-0.5738907928376126 1:0.42857143 2:0.42857143 3:0.32980961 4:0.8 5:0.62709876 26:1 44:1 108:1 143:1 168:1 214:1 252:1 
-2 1:0.28571429 2:0.28571429 3:0.36657005 4:0.51428571 5:0.60958041 12:1 101:1 110:1 120:1 143:1 174:1 253:1 
-2 1:0.21428571 2:0.21428571 3:0.30489868 4:0.57142857 5:0.56583087 12:1 25:1 72:1 86:1 99:1 145:1 250:1 
-2 1:0.57142857 2:0.57142857 3:0.22477977 4:0.82857143 5:0.57108329 105:1 119:1 129:1 146:1 169:1 251:1 
-2 1:0.35714286 2:0.35714286 3:0.68115942 4:0.47186147 5:0.50378174 17:1 28:1 39:1 62:1 113:1 
-2 1:0.14285714 2:0.14285714 3:0.40033445 4:0.34285714 5:0.53533953 12:1 18:1 36:1 75:1 126:1 144:1 252:1 
-1.322054184112577 1:0.35714286 2:0.35714286 3:0.36989967 4:0.44285714 5:0.52717441 45:1 63:1 77:1 110:1 123:1 146:1 253:1 
-0.2930382495880979 1:0.5 2:0.5 3:0.30434783 4:0.35714286 5:0.52847355 46:1 68:1 84:1 138:1 194:1 210:1 252:1 
-2 1:0.64285714 2:0.64285714 3:0.25752508 4:0.32857143 5:0.52731655 92:1 128:1 139:1 158:1 181:1 
-1.939081854775823 1:0.28571429 2:0.28571429 3:0.50849498 4:0.46153846 5:0.60453809 64:1 101:1 156:1 191:1 198:1 240:1 
-0.04943958416521664 1:0.28571429 2:0.28571429 3:0.29217391 4:0.44805195 5:0.54592112 49:1 100:1 120:1 167:1 175:1 196:1 
-0.1372937645185189 1:0.35714286 2:0.35714286 3:0.41014493 4:0.39393939 5:0.53741221 13:1 50:1 82:1 102:1 168:1 208:1 
-2 1:0.21428571 2:0.21428571 3:0.30489868 4:0.4 5:0.54946757 25:1 74:1 84:1 217:1 232:1 
-0.8696603042057095 1:0.28571429 2:0.28571429 3:0.50217391 4:0.5 5:0.5304074 47:1 60:1 140:1 180:1 231:1 252:1 
-2 1:0.5 2:0.5 3:0.52909699 4:0.42857143 5:0.50897644 18:1 107:1 160:1 165:1 184:1 250:1 
-0.7293245505146068 1:0.5 2:0.5 3:0.35169082 4:0.25714286 5:0.58857074 26:1 40:1 44:1 142:1 174:1 206:1 252:1 
-2 1:0.21428571 2:0.21428571 3:0.58632479 4:0.26938776 5:0.56317733 18:1 37:1 64:1 77:1 84:1 252:1 
-2 1:0.57142857 2:0.57142857 3:0.38929766 4:0.27619048 5:0.51265428 14:1 18:1 43:1 92:1 131:1 208:1 
-1.357760136461062 1:0.5 2:0.5 3:0.50485934 4:0.71428571 5:0.61087806 12:1 41:1 53:1 74:1 107:1 118:1 
-1.314931020257484 1:0.57142857 2:0.57142857 3:0.62695652 4:0.38265306 5:0.60737439 12:1 41:1 92:1 173:1 174:1 214:1 
-0.2534360313721936 1:0.5 2:0.5 3:0.33681159 4:0.64285714 5:0.51377634 15:1 59:1 80:1 96:1 105:1 180:1 247:1 
-1.609112031691668 1:0.5 2:0.5 3:0.57487923 4:0.42857143 5:0.49927967 41:1 44:1 101:1 120:1 136:1 141:1 
-0.8213425840478845 1:0.5 2:0.5 3:0.42608696 4:0.33333333 5:0.54329706 14:1 54:1 72:1 104:1 154:1 208:1 
-1.078274072565911 1:0.35714286 2:0.35714286 3:0.48102564 4:0.47142857 5:0.53159415 16:1 120:1 135:1 176:1 195:1 223:1 
-2 1:0.5 2:0.5 3:0.35169082 4:0.42857143 5:0.54655141 14:1 24:1 41:1 44:1 122:1 
-2 1:0.5 2:0.5 3:0.56704805 4:0.21428571 5:0.55169325 19:1 65:1 126:1 149:1 192:1 257:1 
-0.6181072147686125 1:0.64285714 2:0.64285714 3:0.051505017 4:0.41428571 5:0.51186233 19:1 31:1 120:1 127:1 180:1 211:1 
-2 1:0.5 2:0.5 3:0.35169082 4:0.6 5:0.6726094 26:1 70:1 109:1 143:1 
-2 1:0.35714286 2:0.35714286 3:0.58403567 4:0.47142857 5:0.52068528 28:1 34:1 76:1 111:1 174:1 251:1 
-1.940360681380279 1:0.071428571 2:0.071428571 3:0.40934783 4:0.56985871 5:0.51136548 12:1 36:1 73:1 97:1 108:1 232:1 
-2 1:0.35714286 2:0.35714286 3:0.45925427 4:0.42857143 5:0.53079417 76:1 93:1 123:1 126:1 219:1 225:1 256:1 
-1.233618676567401 1:0.57142857 2:0.57142857 3:0.48746377 4:0.45918367 5:0.52913965 16:1 165:1 202:1 220:1 223:1 251:1 
-1.72579963796071 1:0.42857143 2:0.42857143 3:0.40173913 4:0.3021978 5:0.54073965 30:1 61:1 68:1 120:1 128:1 192:1 
-0.4131184403203801 1:0.28571429 2:0.28571429 3:0.36814381 4:0.64897959 5:0.47924978 13:1 47:1 85:1 97:1 120:1 167:1 250:1 
-0.2367780468804938 1:0.64285714 2:0.64285714 3:0.64996635 4:0.071428571 5:0.53685314 88:1 116:1 128:1 178:1 221:1 236:1 253:1 
-2 1:0.14285714 2:0.14285714 3:0.50334448 4:0.48571429 5:0.53195117 39:1 96:1 107:1 144:1 219:1 241:1 
