svm_type c_svc
kernel_type rbf
gamma 0.0625
nr_class 2
total_sv 564
rho 10.5409
label 1 0
probA -4.27301
probB 0.262933
nr_sv 266 298
SV
1.010875916948 1:0.61538462 2:0.61538462 3:0.34957489 4:0.42207792 5:0.62597779 47:1 127:1 138:1 
1.162148815918632 1:0.38461538 2:0.38461538 3:0.24046218 4:0.31632653 5:0.62515942 62:1 85:1 102:1 252:1 
2 1:0.38461538 2:0.38461538 3:0.5314294 4:0.37755102 5:0.64005374 120:1 157:1 233:1 
0.5806497776755101 1:0.38461538 2:0.38461538 3:0.24046218 4:0.31632653 5:0.62515942 138:1 158:1 193:1 252:1 
1.322684739591468 1:0.53846154 2:0.53846154 3:0.55788097 4:0.28571429 5:0.65618304 128:1 162:1 233:1 253:1 
1.720054658353296 1:0.46153846 2:0.46153846 3:0.41504251 4:0.17032967 5:0.684573 126:1 138:1 210:1 253:1 
1.97735327637489 1:0.61538462 2:0.61538462 3:0.4586876 4:0.42207792 5:0.63197916 92:1 122:1 233:1 
0.4088052286217289 1:0.46153846 2:0.46153846 3:0.6235012 4:0.44415584 5:0.64245014 39:1 65:1 107:1 246:1 
1.55768766326147 1:0.61538462 2:0.61538462 3:0.56115108 4:0.31428571 5:0.662091 42:1 154:1 221:1 246:1 
2 1:0.53846154 2:0.53846154 3:0.43884892 4:0.25714286 5:0.66824225 6:1 42:1 219:1 247:1 
1.227202678956038 1:0.46153846 2:0.46153846 3:0.48646174 4:0.45054945 5:0.6392562 34:1 48:1 77:1 253:1 
1.724411515469247 1:0.53846154 2:0.53846154 3:0.43884892 4:0.57142857 5:0.64252372 165:1 203:1 221:1 252:1 
1.462447969194245 1:0.38461538 2:0.38461538 3:0.61342926 4:0.53046953 5:0.63439955 23:1 101:1 180:1 255:1 
0.4799000817648753 1:0.61538462 2:0.61538462 3:0.57314149 4:0.49090909 5:0.63530605 23:1 44:1 190:1 256:1 
1.058506088426467 1:0.46153846 2:0.46153846 3:0.63723567 4:0.51948052 5:0.63698857 22:1 75:1 191:1 256:1 
0.6665597831274085 1:0.61538462 2:0.61538462 3:0.57314149 4:0.57662338 5:0.62869615 22:1 164:1 191:1 255:1 
2 1:0.38461538 2:0.38461538 3:0.48585132 4:0.3 5:0.68229302 15:1 172:1 229:1 247:1 
2 1:0.53846154 2:0.53846154 3:0.35155875 4:0.42857143 5:0.62261504 50:1 105:1 171:1 246:1 
0.7433723578804728 1:0.61538462 2:0.61538462 3:0.46067146 4:0.2755102 5:0.70608866 50:1 173:1 198:1 248:1 
0.9866024364771481 1:0.46153846 2:0.46153846 3:0.41390887 4:0.45238095 5:0.62570146 105:1 171:1 216:1 246:1 
0.5782819989522986 1:0.61538462 2:0.61538462 3:0.46067146 4:0.2755102 5:0.70608866 140:1 181:1 200:1 
1.728770211771766 1:0.84615385 2:0.84615385 3:0.51235643 4:0.42857143 5:0.63708725 32:1 80:1 106:1 248:1 
0.4650000021072208 1:0.53846154 2:0.53846154 3:0.52613909 4:0.32142857 5:0.67368126 17:1 59:1 198:1 246:1 
1.452037427821592 1:0.53846154 2:0.53846154 3:0.52613909 4:0.64285714 5:0.60297419 83:1 111:1 224:1 251:1 
0.4960201822242138 1:0.53846154 2:0.53846154 3:0.35155875 4:0.53571429 5:0.67368126 121:1 143:1 175:1 251:1 
0.6675512556428828 1:0.46153846 2:0.46153846 3:0.37026379 4:0.30952381 5:0.62461921 121:1 196:1 222:1 249:1 
0.9024580579319589 1:0.46153846 2:0.46153846 3:0.46378897 4:0.4047619 5:0.62570146 121:1 137:1 222:1 251:1 
1.038373947132773 1:0.61538462 2:0.61538462 3:0.41702638 4:0.33673469 5:0.62359708 112:1 175:1 223:1 251:1 
0.4314832754665076 1:0.53846154 2:0.53846154 3:0.43884892 4:0.32142857 5:0.62130565 65:1 121:1 175:1 
1.067803036340505 1:0.61538462 2:0.61538462 3:0.56432854 4:0.38265306 5:0.66410634 15:1 128:1 224:1 
0.4838357829367864 1:0.61538462 2:0.61538462 3:0.64616307 4:0.50510204 5:0.65551347 17:1 34:1 214:1 256:1 
1.188917265362405 1:0.53846154 2:0.53846154 3:0.52613909 4:0.53571429 5:0.64225589 16:1 21:1 35:1 257:1 
2 1:0.38461538 2:0.38461538 3:0.46067146 4:0.25474525 5:0.64828844 12:1 31:1 51:1 77:1 78:1 102:1 253:1 
2 1:0.38461538 2:0.38461538 3:0.19880096 4:0.25474525 5:0.59722222 12:1 31:1 52:1 55:1 181:1 253:1 
2 1:0.46153846 2:0.46153846 3:0.38925223 4:0.37012987 5:0.62811193 92:1 102:1 120:1 245:1 254:1 264:1 
2 1:0.61538462 2:0.61538462 3:0.48081535 4:0.32727273 5:0.63975222 32:1 56:1 75:1 78:1 153:1 253:1 
1.170413629691162 1:0.53846154 2:0.53846154 3:0.43884892 4:0.42857143 5:0.63047138 20:1 51:1 54:1 153:1 252:1 
2 1:0.38461538 2:0.38461538 3:0.46067146 4:0.25474525 5:0.64828844 18:1 51:1 54:1 76:1 153:1 253:1 
0.1104645836176041 1:0.46153846 2:0.46153846 3:0.27022019 4:0.37012987 5:0.61739873 13:1 19:1 122:1 243:1 
0.1303797595124832 1:0.53846154 2:0.53846154 3:0.30791367 4:0.36263736 5:0.86026936 81:1 91:1 205:1 256:1 
0.537675339134393 1:0.46153846 2:0.46153846 3:0.78800959 4:0.3956044 5:0.70707071 64:1 161:1 166:1 256:1 
0.06878095084129107 1:0.53846154 2:0.53846154 3:0.56978417 4:0.2967033 5:0.70707071 30:1 139:1 160:1 257:1 
1.812219630669839 1:0.46153846 2:0.46153846 3:0.65310661 4:0.39010989 5:0.81205999 40:1 76:1 191:1 248:1 
0.5386236272961555 1:0.46153846 2:0.46153846 3:0.37170264 4:0.63116883 5:0.56046937 77:1 84:1 131:1 249:1 264:1 
2 1:0.15384615 2:0.15384615 3:0.4437713 4:0.47619048 5:0.47895623 12:1 76:1 183:1 208:1 255:1 
1.332791911696037 1:0.38461538 2:0.38461538 3:0.54829944 4:0.57142857 5:0.59407804 12:1 20:1 41:1 88:1 93:1 219:1 255:1 
1.303145985922245 1:0.46153846 2:0.46153846 3:0.5996466 4:0.51428571 5:0.58136925 12:1 20:1 40:1 51:1 65:1 93:1 257:1 
2 1:0.23076923 2:0.23076923 3:0.51235643 4:0.53571429 5:0.57547699 12:1 20:1 40:1 87:1 243:1 255:1 
0.6733080988899013 1:0.30769231 2:0.30769231 3:0.32686482 4:0.48979592 5:0.47579966 12:1 18:1 76:1 192:1 225:1 255:1 
2 1:0.61538462 2:0.61538462 3:0.42506626 4:0.57142857 5:0.57744108 12:1 18:1 41:1 95:1 127:1 225:1 
2 1:0.30769231 2:0.30769231 3:0.40869936 4:0.48979592 5:0.50157828 14:1 75:1 111:1 126:1 255:1 
1.838054117871429 1:0.23076923 2:0.23076923 3:0.42506626 4:0.42857143 5:0.63047138 14:1 64:1 95:1 123:1 160:1 256:1 
0.7963607625315148 1:0.46153846 2:0.46153846 3:0.38142118 4:0.51428571 5:0.53226712 14:1 41:1 160:1 192:1 225:1 
1.573445094561455 1:0.38461538 2:0.38461538 3:0.39425797 4:0.42857143 5:0.63047138 14:1 19:1 39:1 75:1 88:1 93:1 256:1 
0.8299314730011993 1:0.46153846 2:0.46153846 3:0.38142118 4:0.51428571 5:0.53226712 14:1 19:1 39:1 208:1 225:1 255:1 
2 1:0.76923077 2:0.76923077 3:0.40125985 5:0.64921947 14:1 19:1 76:1 93:1 128:1 225:1 
0.6569598550501384 1:0.53846154 2:0.53846154 3:0.36993563 4:0.64285714 5:0.59015595 14:1 19:1 41:1 93:1 192:1 207:1 
2 1:0.53846154 2:0.53846154 3:0.50776221 4:0.42857143 5:0.63047138 14:1 19:1 41:1 113:1 183:1 
0.4657463592586923 1:0.38461538 2:0.38461538 3:0.31723723 4:0.42857143 5:0.63047138 14:1 19:1 40:1 63:1 93:1 192:1 256:1 
0.2892267652321864 1:0.46153846 2:0.46153846 3:0.38142118 4:0.51428571 5:0.53226712 14:1 19:1 40:1 93:1 111:1 219:1 
2 1:0.46153846 2:0.46153846 3:0.38142118 4:0.34285714 5:0.72867565 14:1 18:1 39:1 93:1 111:1 126:1 
1.517462073868337 1:0.30769231 2:0.30769231 3:0.40869936 4:0.48979592 5:0.50157828 14:1 18:1 39:1 207:1 257:1 276:1 
2 1:0.30769231 2:0.30769231 3:0.40869936 4:0.6122449 5:0.58750701 14:1 18:1 111:1 219:1 227:1 255:1 
2 1:0.23076923 2:0.23076923 3:0.42506626 4:0.42857143 5:0.63047138 112:1 192:1 243:1 256:1 
0.5984649830925368 1:0.23076923 2:0.23076923 3:0.42506626 4:0.53571429 5:0.55976431 88:1 95:1 192:1 208:1 255:1 
0.6290078382448575 1:0.53846154 2:0.53846154 3:0.5766755 4:0.42857143 5:0.63047138 19:1 51:1 65:1 93:1 112:1 257:1 
1.184246828039391 1:0.38461538 2:0.38461538 3:0.54829944 4:0.28571429 5:0.66686473 19:1 40:1 53:1 64:1 88:1 93:1 255:1 
2 1:0.38461538 2:0.38461538 3:0.54829944 4:0.28571429 5:0.66686473 20:1 75:1 160:1 208:1 
0.1040609015919582 1:0.46153846 2:0.46153846 3:0.45416299 4:0.34285714 5:0.71230827 20:1 87:1 93:1 244:1 265:1 
1.589911106696736 1:0.38461538 2:0.38461538 3:0.4712787 4:0.42857143 5:0.63047138 20:1 52:1 75:1 93:1 192:1 256:1 
2 1:0.69230769 2:0.69230769 3:0.5996466 5:0.64029181 20:1 52:1 128:1 225:1 257:1 
2 1:0.53846154 2:0.53846154 3:0.5766755 4:0.21428571 5:0.65217969 20:1 41:1 88:1 93:1 172:1 225:1 256:1 
2 1:0.076923077 2:0.076923077 3:0.36463461 4:0.51428571 5:0.52849003 13:1 39:1 51:1 64:1 192:1 255:1 
1.033571266152415 1:0.30769231 2:0.30769231 3:0.40869936 4:0.6122449 5:0.58750701 13:1 41:1 192:1 227:1 255:1 
0.8478411290486486 1:0.46153846 2:0.46153846 3:0.45416299 4:0.34285714 5:0.71230827 13:1 40:1 76:1 93:1 225:1 257:1 
1.793885873218189 1:0.53846154 2:0.53846154 3:0.43884892 4:0.64285714 5:0.59635832 13:1 19:1 63:1 93:1 227:1 257:1 
0.3009746555134424 1:0.53846154 2:0.53846154 3:0.43884892 4:0.21428571 5:0.66458444 13:1 19:1 75:1 93:1 128:1 256:1 
0.1873430947739667 1:0.53846154 2:0.53846154 3:0.30102234 4:0.64285714 5:0.58395357 13:1 19:1 95:1 192:1 225:1 
2 1:0.61538462 2:0.61538462 3:0.29413101 4:0.28571429 5:0.70117845 13:1 19:1 194:1 209:1 225:1 266:1 
1.199234506245972 1:0.23076923 2:0.23076923 3:0.42506626 4:0.10714286 5:0.6540404 13:1 19:1 52:1 88:1 160:1 256:1 
2 1:0.46153846 2:0.46153846 3:0.38142118 4:0.17142857 5:0.66320614 13:1 19:1 40:1 225:1 244:1 
0.1528178425177844 1:0.53846154 2:0.53846154 3:0.43884892 4:0.42857143 5:0.63047138 13:1 20:1 51:1 93:1 225:1 256:1 
2 1:0.46153846 2:0.46153846 3:0.52690479 4:0.17142857 5:0.65229455 13:1 20:1 41:1 128:1 192:1 256:1 
2 1:0.23076923 2:0.23076923 3:0.42506626 4:0.21428571 5:0.66582492 13:1 18:1 88:1 183:1 256:1 
1.774569313552553 1:0.38461538 2:0.38461538 3:0.4712787 5:0.64606853 13:1 18:1 52:1 126:1 257:1 
2 1:0.23076923 2:0.23076923 3:0.33777609 4:0.42857143 5:0.63047138 13:1 18:1 40:1 93:1 192:1 207:1 255:1 
0.9374107564182746 1:0.30769231 2:0.30769231 3:0.21726619 4:0.38241758 5:0.61915271 12:1 45:1 84:1 144:1 162:1 253:1 
2 1:0.23076923 2:0.23076923 3:0.30455635 4:0.33061224 5:0.62782742 12:1 86:1 123:1 216:1 222:1 253:1 
2 1:0.61538462 2:0.61538462 3:0.36690647 4:0.41904762 5:0.62687544 12:1 86:1 92:1 164:1 
0.6495860057224609 1:0.46153846 2:0.46153846 3:0.41366906 4:0.43636364 5:0.62864579 12:1 92:1 144:1 200:1 252:1 
1.52765860603973 1:0.23076923 2:0.23076923 3:0.45003997 4:0.33061224 5:0.63928458 12:1 76:1 123:1 235:1 252:1 265:1 
1.927682480844673 1:0.38461538 2:0.38461538 3:0.5029431 4:0.44285714 5:0.63313938 12:1 20:1 75:1 216:1 236:1 252:1 
2 1:0.38461538 2:0.38461538 3:0.26487901 4:0.3 5:0.62671146 12:1 18:1 84:1 146:1 200:1 253:1 
0.8798933511386555 1:0.38461538 2:0.38461538 3:0.26487901 4:0.37142857 5:0.62269401 14:1 84:1 108:1 200:1 253:1 
0.03095149001470854 1:0.46153846 2:0.46153846 3:0.086330935 4:0.35844156 5:0.61064167 14:1 19:1 38:1 84:1 234:1 264:1 
2 1:0.53846154 2:0.53846154 3:0.23741007 4:0.34285714 5:0.62197293 14:1 20:1 38:1 216:1 236:1 253:1 
1.13551245259505 1:0.38461538 2:0.38461538 3:0.5029431 4:0.44285714 5:0.63313938 36:1 46:1 64:1 75:1 266:1 
2 1:0.30769231 2:0.30769231 3:0.47913669 4:0.44835165 5:0.6315324 36:1 75:1 144:1 188:1 252:1 
2 1:0.38461538 2:0.38461538 3:0.62197515 4:0.44285714 5:0.63956729 47:1 65:1 75:1 222:1 264:1 
0.2922088930924288 1:0.53846154 2:0.53846154 3:0.43884892 4:0.51428571 5:0.62650544 45:1 63:1 144:1 152:1 
2 1:0.38461538 2:0.38461538 3:0.14584696 4:0.44285714 5:0.61385563 45:1 84:1 146:1 180:1 253:1 
0.7486584607809406 1:0.69230769 2:0.69230769 3:0.47913669 4:0.51428571 5:0.62831844 45:1 77:1 224:1 
2 1:0.61538462 2:0.61538462 3:0.46043165 4:0.41904762 5:0.63228669 45:1 76:1 128:1 200:1 252:1 
2 1:0.38461538 2:0.38461538 3:0.62197515 4:0.51428571 5:0.63474636 46:1 75:1 123:1 128:1 144:1 252:1 
2 1:0.38461538 2:0.38461538 3:0.38391105 4:0.51428571 5:0.62403316 46:1 84:1 180:1 188:1 216:1 252:1 
1.642038741289109 1:0.30769231 2:0.30769231 3:0.34820144 4:0.38241758 5:0.62766375 63:1 84:1 162:1 216:1 254:1 
0.5277707035381755 1:0.46153846 2:0.46153846 3:0.63189448 4:0.43636364 5:0.64064853 63:1 77:1 152:1 276:1 
2 1:0.38461538 2:0.38461538 3:0.74100719 4:0.44285714 5:0.64599521 63:1 77:1 125:1 252:1 
0.261463901757867 1:0.30769231 2:0.30769231 3:0.21726619 4:0.44835165 5:0.61760525 75:1 108:1 218:1 254:1 264:1 
1.104555124708843 1:0.30769231 2:0.30769231 3:0.47913669 4:0.31648352 5:0.64346996 75:1 144:1 222:1 265:1 
0.07142044344703033 1:0.46153846 2:0.46153846 3:0.41366906 4:0.35844156 5:0.63378982 75:1 182:1 186:1 
1.32730769076509 1:0.30769231 2:0.30769231 3:0.47913669 4:0.38241758 5:0.63617478 85:1 123:1 144:1 236:1 252:1 
1.195562153338906 1:0.30769231 2:0.30769231 3:0.47913669 4:0.31648352 5:0.64346996 76:1 84:1 152:1 217:1 252:1 
2 1:0.15384615 2:0.15384615 3:0.57733813 4:0.34285714 5:0.64746827 64:1 75:1 180:1 216:1 253:1 
2 1:0.38461538 2:0.38461538 3:0.5029431 4:0.37142857 5:0.6387638 64:1 84:1 164:1 180:1 200:1 216:1 
0.392422433682052 1:0.23076923 2:0.23076923 3:0.30455635 4:0.33061224 5:0.62782742 13:1 36:1 84:1 109:1 
2 1:0.23076923 2:0.23076923 3:0.45003997 4:0.26938776 5:0.64883222 13:1 18:1 36:1 123:1 222:1 252:1 
0.1034384382199093 1:0.46153846 2:0.46153846 3:0.47254549 4:0.59183673 5:0.6409128 12:1 47:1 63:1 116:1 
1.409596291209319 1:0.53846154 2:0.53846154 3:0.59289039 4:0.28571429 5:0.64606853 40:1 46:1 101:1 116:1 253:1 
0.6427473121806466 1:0.61538462 2:0.61538462 3:0.55438003 4:0.54285714 5:0.64606853 29:1 45:1 65:1 116:1 264:1 
2 1:0.38461538 2:0.38461538 3:0.31414868 4:0.51515152 5:0.4845679 12:1 24:1 30:1 76:1 105:1 251:1 
2 1:0.30769231 2:0.30769231 3:0.35382603 4:0.33333333 5:0.61669728 12:1 26:1 30:1 42:1 75:1 88:1 
0.3615469102148151 1:0.69230769 2:0.69230769 3:0.45053957 4:0.65986395 5:0.58399972 12:1 44:1 58:1 105:1 251:1 
1.556168374194293 1:0.53846154 2:0.53846154 3:0.34532374 4:0.52380952 5:0.51683502 12:1 30:1 42:1 57:1 107:1 251:1 
0.300997124443444 1:0.61538462 2:0.61538462 3:0.22685851 4:0.36904762 5:0.64758698 14:1 26:1 43:1 100:1 249:1 
1.475918826280466 1:0.61538462 2:0.61538462 3:0.22685851 4:0.36904762 5:0.64758698 14:1 25:1 31:1 211:1 251:1 
2 1:0.69230769 2:0.69230769 3:0.20503597 4:0.29251701 5:0.62696409 14:1 25:1 31:1 43:1 117:1 
2 1:0.61538462 2:0.61538462 3:0.40143885 4:0.36904762 5:0.61616162 57:1 105:1 210:1 232:1 
0.6228662935177746 1:0.61538462 2:0.61538462 3:0.40143885 4:0.58333333 5:0.56902357 44:1 117:1 156:1 251:1 
0.7445485402059061 1:0.61538462 2:0.61538462 3:0.48872902 4:0.47619048 5:0.59259259 42:1 77:1 107:1 141:1 
2 1:0.61538462 2:0.61538462 3:0.57601918 4:0.58333333 5:0.60044893 32:1 58:1 76:1 107:1 251:1 
0.1347328075625938 1:0.61538462 2:0.61538462 3:0.31414868 4:0.36904762 5:0.6318743 25:1 31:1 42:1 57:1 251:1 
1.642447685658962 1:0.38461538 2:0.38461538 3:0.42326139 4:0.59307359 5:0.57458848 13:1 100:1 107:1 119:1 251:1 
2 1:0.23076923 2:0.23076923 3:0.35571543 4:0.75238095 5:0.73503554 12:1 71:1 120:1 168:1 240:1 
2 1:0.23076923 2:0.23076923 3:0.35571543 4:0.56190476 5:0.82594463 12:1 69:1 84:1 100:1 156:1 241:1 
2 1:0.61538462 2:0.61538462 3:0.3163364 4:0.51428571 5:0.71230827 12:1 69:1 109:1 176:1 213:1 
0.4108718825395845 1:0.30769231 2:0.30769231 3:0.38065548 4:0.72857143 5:0.73980546 12:1 108:1 135:1 215:1 254:1 
2 1:0.38461538 2:0.38461538 3:0.40247802 4:0.69795918 5:0.74667976 12:1 101:1 141:1 156:1 240:1 
2 1:0.15384615 2:0.15384615 3:0.42765787 4:0.68571429 5:0.75196768 12:1 100:1 108:1 143:1 156:1 252:1 
0.7796535505407166 1:0.23076923 2:0.23076923 3:0.44924061 4:0.56190476 5:0.86382342 12:1 100:1 109:1 120:1 143:1 
1.894044875809992 1:0.53846154 2:0.53846154 3:0.36610711 4:0.6 5:0.77777778 14:1 24:1 41:1 143:1 176:1 254:1 
2 1:0.38461538 2:0.38461538 3:0.32064349 4:0.82040816 5:0.72777544 24:1 71:1 84:1 143:1 254:1 
2 1:0.46153846 2:0.46153846 3:0.34471247 4:0.37142857 5:0.67591492 24:1 110:1 121:1 176:1 
0.660935590927229 1:0.61538462 2:0.61538462 3:0.24742311 4:0.94285714 5:0.72006124 26:1 69:1 143:1 213:1 252:1 
1.353623210266757 1:0.61538462 2:0.61538462 3:0.38524969 4:0.3 5:0.68439758 26:1 101:1 122:1 176:1 
0.4185253455621297 1:0.46153846 2:0.46153846 3:0.4217332 4:0.65714286 5:0.75909971 39:1 70:1 141:1 241:1 252:1 
0.4584304528451229 1:0.23076923 2:0.23076923 3:0.44924061 4:0.65714286 5:0.76281332 71:1 84:1 100:1 240:1 252:1 
0.5965524481704494 1:0.38461538 2:0.38461538 3:0.32064349 4:0.5755102 5:0.78964413 71:1 108:1 242:1 253:1 
0.6127773441583534 1:0.38461538 2:0.38461538 3:0.48431255 4:0.69795918 5:0.75527263 71:1 108:1 137:1 252:1 
2 1:0.30769231 2:0.30769231 3:0.46794564 4:0.62142857 5:0.78301534 71:1 101:1 168:1 240:1 253:1 
2 1:0.53846154 2:0.53846154 3:0.51159073 4:0.42857143 5:0.614104 71:1 85:1 101:1 176:1 
2 1:0.46153846 2:0.46153846 3:0.34471247 4:0.51428571 5:0.71230827 69:1 84:1 101:1 122:1 241:1 
1.629526576248452 1:0.53846154 2:0.53846154 3:0.29336531 4:0.6 5:0.7614104 69:1 99:1 141:1 242:1 253:1 
0.004363057350297461 1:0.38461538 2:0.38461538 3:0.40247802 4:0.45306122 5:0.60919379 69:1 85:1 100:1 168:1 
2 1:0.53846154 2:0.53846154 3:0.43884892 4:0.6 5:0.79414516 70:1 86:1 101:1 122:1 136:1 142:1 252:1 
2 1:0.30769231 2:0.30769231 3:0.46794564 4:0.51428571 5:0.71230827 99:1 108:1 121:1 
2 1:0.23076923 2:0.23076923 3:0.54276579 4:0.75238095 5:0.75018706 99:1 120:1 135:1 143:1 252:1 
2 1:0.30769231 2:0.30769231 3:0.38065548 4:0.62142857 5:0.76730266 99:1 120:1 141:1 156:1 253:1 
0.4658369672106527 1:0.53846154 2:0.53846154 3:0.29336531 4:0.6 5:0.7614104 99:1 170:1 213:1 254:1 
2 1:0.15384615 2:0.15384615 3:0.32693845 4:0.6 5:0.76896457 108:1 120:1 192:1 240:1 253:1 
1.152200146975001 1:0.46153846 2:0.46153846 3:0.4217332 4:0.65714286 5:0.75909971 108:1 143:1 176:1 204:1 
0.5878468962683433 1:0.46153846 2:0.46153846 3:0.26769173 4:0.37142857 5:0.68631302 108:1 175:1 242:1 253:1 
0.3304610822840359 1:0.46153846 2:0.46153846 3:0.34471247 4:0.51428571 5:0.71230827 110:1 120:1 176:1 240:1 
1.663737506302738 1:0.53846154 2:0.53846154 3:0.29336531 4:0.77142857 5:0.72867565 141:1 156:1 214:1 228:1 254:1 
0.5260417025818381 1:0.30769231 2:0.30769231 3:0.29336531 4:0.51428571 5:0.71230827 109:1 156:1 242:1 252:1 
2 1:0.30769231 2:0.30769231 3:0.55523581 4:0.51428571 5:0.71230827 101:1 120:1 135:1 229:1 
2 1:0.30769231 2:0.30769231 3:0.46794564 4:0.51428571 5:0.71230827 101:1 121:1 168:1 252:1 
0.4872958391437643 1:0.53846154 2:0.53846154 3:0.36610711 4:0.42857143 5:0.64683876 65:1 206:1 242:1 
2 1:0.46153846 2:0.46153846 3:0.49875394 4:0.51428571 5:0.71230827 64:1 70:1 86:1 101:1 122:1 136:1 142:1 252:1 
2 1:0.38461538 2:0.38461538 3:0.32064349 4:0.69795918 5:0.73808689 43:1 108:1 215:1 252:1 276:1 
2 1:0.38461538 2:0.38461538 3:0.32064349 4:0.45306122 5:0.63497241 43:1 204:1 228:1 241:1 
2 1:0.53846154 2:0.53846154 3:0.36610711 4:0.6 5:0.77777778 44:1 71:1 215:1 253:1 278:1 
0.5541890514392417 1:0.69230769 2:0.69230769 3:0.33701039 4:0.37142857 5:0.67695473 44:1 141:1 158:1 214:1 253:1 
0.4001577765063086 1:0.38461538 2:0.38461538 3:0.40247802 4:0.45306122 5:0.60919379 42:1 99:1 141:1 156:1 253:1 
2 1:0.38461538 2:0.38461538 3:0.48431255 4:0.45306122 5:0.58341517 41:1 43:1 63:1 192:1 253:1 
2 1:0.53846154 2:0.53846154 3:0.43884892 4:0.6 5:0.79414516 40:1 71:1 176:1 215:1 254:1 
2 1:0.38461538 2:0.38461538 3:0.32064349 4:0.45306122 5:0.63497241 13:1 24:1 141:1 176:1 192:1 253:1 
1.624898405933402 1:0.53846154 2:0.53846154 3:0.29336531 4:0.42857143 5:0.66320614 13:1 69:1 176:1 206:1 252:1 
1.842159083837161 1:0.38461538 2:0.38461538 3:0.40247802 4:0.5755102 5:0.81542275 13:1 42:1 143:1 215:1 252:1 
1.702828868118841 1:0.38461538 2:0.38461538 3:0.48431255 4:0.5755102 5:0.84120137 13:1 41:1 204:1 214:1 252:1 
2 1:0.38461538 2:0.38461538 3:0.5620821 4:0.35714286 5:0.63151119 25:1 40:1 53:1 100:1 249:1 
2 1:0.23076923 2:0.23076923 3:0.60549379 4:0.46428571 5:0.64707683 12:1 24:1 39:1 52:1 63:1 236:1 
2 1:0.23076923 2:0.23076923 3:0.48646174 4:0.53571429 5:0.62297215 12:1 24:1 51:1 63:1 229:1 250:1 
2 1:0.38461538 2:0.38461538 3:0.35827338 4:0.49285714 5:0.61256799 12:1 26:1 40:1 195:1 206:1 250:1 
0.3939196033639726 1:0.38461538 2:0.38461538 3:0.55971223 4:0.66428571 5:0.62106643 12:1 39:1 195:1 215:1 250:1 
1.716993537519761 1:0.23076923 2:0.23076923 3:0.36742969 4:0.39285714 5:0.62297215 12:1 25:1 40:1 64:1 235:1 251:1 264:1 
1.309038206210734 1:0.53846154 2:0.53846154 3:0.43884892 4:0.64285714 5:0.6147587 14:1 24:1 41:1 119:1 236:1 251:1 
2 1:0.38461538 2:0.38461538 3:0.35827338 4:0.49285714 5:0.61256799 14:1 26:1 51:1 64:1 68:1 204:1 251:1 
2 1:0.23076923 2:0.23076923 3:0.48646174 4:0.53571429 5:0.62297215 14:1 26:1 40:1 51:1 63:1 195:1 251:1 
2 1:0.53846154 2:0.53846154 3:0.43884892 4:0.42857143 5:0.63047138 14:1 25:1 53:1 65:1 158:1 250:1 
2 1:0.38461538 2:0.38461538 3:0.76115108 4:0.49285714 5:0.65789303 24:1 39:1 53:1 65:1 196:1 250:1 
2 1:0.61538462 2:0.61538462 3:0.47158273 4:0.62755102 5:0.6172138 24:1 51:1 117:1 140:1 250:1 
2 1:0.30769231 2:0.30769231 3:0.41702638 4:0.67207792 5:0.61290373 24:1 111:1 204:1 215:1 228:1 250:1 
2 1:0.46153846 2:0.46153846 3:0.30791367 4:0.36904762 5:0.60690236 13:1 26:1 40:1 175:1 204:1 250:1 
2 1:0.38461538 2:0.38461538 3:0.25755396 4:0.57857143 5:0.60312527 13:1 25:1 119:1 132:1 213:1 251:1 
2 1:0.38461538 2:0.38461538 3:0.25755396 4:0.38571429 5:0.61302124 14:1 24:1 36:1 44:1 174:1 252:1 
1.045119765198579 1:0.30769231 2:0.30769231 3:0.30791367 4:0.40909091 5:0.61868687 24:1 84:1 92:1 229:1 252:1 
2 1:0.30769231 2:0.30769231 3:0.30791367 4:0.40909091 5:0.61868687 36:1 68:1 85:1 123:1 228:1 254:1 
2 1:0.30769231 2:0.30769231 3:0.41702638 4:0.48701299 5:0.62640292 36:1 44:1 84:1 92:1 111:1 228:1 252:1 
1.030832530623076 1:0.30769231 2:0.30769231 3:0.30791367 4:0.40909091 5:0.61868687 85:1 228:1 239:1 253:1 
2 1:0.38461538 2:0.38461538 3:0.25755396 4:0.3 5:0.60735561 85:1 91:1 220:1 230:1 252:1 
1.383396322820346 1:0.30769231 2:0.30769231 3:0.30791367 4:0.40909091 5:0.61868687 66:1 84:1 91:1 111:1 252:1 276:1 
0.5698187942209597 1:0.15384615 2:0.15384615 3:0.17697842 4:0.31318681 5:0.59315376 13:1 25:1 36:1 42:1 252:1 264:1 
2 1:0.30769231 2:0.30769231 3:0.38219424 4:0.69795918 5:0.75275458 12:1 47:1 60:1 96:1 179:1 246:1 
0.868051216024362 1:0.38461538 2:0.38461538 3:0.40377698 4:0.37414966 5:0.64313272 12:1 85:1 153:1 208:1 246:1 
1.845977932818977 1:0.38461538 2:0.38461538 3:0.40377698 4:0.46938776 5:0.6229307 24:1 46:1 73:1 192:1 246:1 
2 1:0.53846154 2:0.53846154 3:0.35701439 4:0.55102041 5:0.57032127 45:1 60:1 72:1 154:1 246:1 
0.7453273903818102 1:0.61538462 2:0.61538462 3:0.37626957 4:0.6122449 5:0.67343575 46:1 73:1 153:1 167:1 
2 1:0.61538462 2:0.61538462 3:0.37626957 4:0.6122449 5:0.67343575 37:1 46:1 108:1 153:1 179:1 248:1 
1.257166007203431 1:0.53846154 2:0.53846154 3:0.43884892 4:0.18367347 5:0.65502245 37:1 46:1 109:1 128:1 246:1 
1.70846057788168 1:0.38461538 2:0.38461538 3:0.3102518 4:0.46938776 5:0.63555696 13:1 24:1 84:1 153:1 246:1 
2 1:0.46153846 2:0.46153846 3:0.33519185 4:0.29081633 5:0.65510428 13:1 25:1 46:1 122:1 246:1 
1.349607319395449 1:0.46153846 2:0.46153846 3:0.16061151 4:0.73469388 5:0.65625 12:1 24:1 36:1 213:1 249:1 266:1 
0.2061020771514545 1:0.15384615 2:0.15384615 3:0.32725638 4:0.73469388 5:0.65625 12:1 24:1 60:1 72:1 120:1 
2 1:0.15384615 2:0.15384615 3:0.44628842 4:0.73469388 5:0.65625 12:1 24:1 96:1 108:1 208:1 251:1 
2 1:0.38461538 2:0.38461538 3:0.3102518 4:0.87755102 5:0.69412879 12:1 24:1 96:1 155:1 165:1 251:1 
2 1:0.46153846 2:0.46153846 3:0.33519185 4:0.62755102 5:0.60125561 12:1 38:1 72:1 153:1 244:1 250:1 
0.08109289533847472 1:0.30769231 2:0.30769231 3:0.38219424 4:0.82040816 5:0.73556883 12:1 47:1 60:1 96:1 179:1 
1.606005702727669 1:0.23076923 2:0.23076923 3:0.24790168 4:0.77365492 5:0.76427469 12:1 60:1 96:1 120:1 153:1 276:1 
0.4677882523963213 1:0.46153846 2:0.46153846 3:0.33519185 4:0.73469388 5:0.65625 12:1 62:1 179:1 207:1 249:1 
2 1:0.61538462 2:0.61538462 3:0.14520736 4:0.73469388 5:0.65625 14:1 26:1 38:1 46:1 120:1 153:1 251:1 
1.048014609346009 1:0.53846154 2:0.53846154 3:0.27517986 4:0.55102041 5:0.63047138 14:1 25:1 46:1 61:1 153:1 251:1 
2 1:0.53846154 2:0.53846154 3:0.35701439 4:0.79591837 5:0.75936448 36:1 46:1 72:1 165:1 251:1 
2 1:0.38461538 2:0.38461538 3:0.49730216 4:0.68707483 5:0.46685606 47:1 108:1 208:1 251:1 
2 1:0.61538462 2:0.61538462 3:0.37626957 4:0.73469388 5:0.65625 47:1 122:1 154:1 251:1 
2 1:0.53846154 2:0.53846154 3:0.35701439 4:0.91836735 5:0.69062149 45:1 60:1 84:1 179:1 215:1 250:1 
2 1:0.69230769 2:0.69230769 3:0.4661271 4:0.82040816 5:0.75445426 46:1 60:1 154:1 166:1 251:1 
2 1:0.30769231 2:0.30769231 3:0.38219424 4:0.90612245 5:0.69590941 72:1 144:1 167:1 179:1 192:1 251:1 
2 1:0.61538462 2:0.61538462 3:0.37626957 4:0.73469388 5:0.65625 37:1 46:1 108:1 153:1 179:1 250:1 
1.140185693377348 1:0.38461538 2:0.38461538 3:0.40377698 4:0.59183673 5:0.60574495 25:1 46:1 97:1 108:1 251:1 
1.070529095196884 1:0.61538462 2:0.61538462 3:0.5588729 4:0.56632653 5:0.61590441 34:1 112:1 190:1 251:1 
2 1:0.69230769 2:0.69230769 3:0.27967273 4:0.32142857 5:0.63828921 86:1 206:1 235:1 250:1 
2 1:0.46153846 2:0.46153846 3:0.67577938 4:0.51190476 5:0.61036289 53:1 99:1 112:1 250:1 
1.777144015690804 1:0.53846154 2:0.53846154 3:0.61342926 4:0.53571429 5:0.61344931 53:1 112:1 191:1 250:1 
1.780349837546339 1:0.53846154 2:0.53846154 3:0.43884892 4:0.71428571 5:0.90319865 12:1 34:1 179:1 207:1 249:1 
0.2549903572700244 1:0.30769231 2:0.30769231 3:0.5323741 4:0.73809524 5:0.8526936 12:1 96:1 155:1 207:1 251:1 
1.94766495644892 1:0.46153846 2:0.46153846 3:0.43165468 4:0.40952381 5:0.63437797 14:1 25:1 34:1 208:1 
0.3130097170038199 1:0.46153846 2:0.46153846 3:0.5323741 4:0.66666667 5:0.67592593 24:1 155:1 207:1 250:1 
1.305731825934973 1:0.38461538 2:0.38461538 3:0.5323741 4:0.47186147 5:0.61111111 24:1 102:1 208:1 251:1 
0.4781649246992231 1:0.53846154 2:0.53846154 3:0.34532374 4:0.52380952 5:0.61279461 35:1 50:1 54:1 251:1 
0.06489338772630915 1:0.69230769 2:0.69230769 3:0.5323741 4:0.36054422 5:0.63468013 34:1 56:1 208:1 250:1 
0.5526063083238825 1:0.46153846 2:0.46153846 3:0.33093525 4:0.4952381 5:0.62493525 72:1 217:1 225:1 241:1 250:1 
2 1:0.53846154 2:0.53846154 3:0.43884892 4:0.42857143 5:0.63047138 56:1 72:1 122:1 208:1 250:1 
2 1:0.46153846 2:0.46153846 3:0.43165468 4:0.32380952 5:0.64476496 54:1 72:1 82:1 97:1 104:1 217:1 
2 1:0.46153846 2:0.46153846 3:0.5323741 4:0.23809524 5:0.64646465 54:1 102:1 208:1 
1.388384790762036 1:0.53846154 2:0.53846154 3:0.43884892 4:0.42857143 5:0.63047138 13:1 35:1 54:1 250:1 
0.6869358271466355 1:0.23076923 2:0.23076923 3:0.40143885 4:0.56776557 5:0.57379349 13:1 144:1 192:1 216:1 
2 1:0.30769231 2:0.30769231 3:0.5323741 4:0.5952381 5:0.49915825 13:1 155:1 207:1 216:1 
1.748645420527425 1:0.53846154 2:0.53846154 3:0.5323741 4:0.33333333 5:0.63804714 13:1 104:1 208:1 250:1 
2 1:0.53846154 2:0.53846154 3:0.34532374 4:0.52380952 5:0.61279461 13:1 56:1 129:1 144:1 251:1 
2 1:0.38461538 2:0.38461538 3:0.5323741 4:0.39393939 5:0.62962963 13:1 54:1 83:1 102:1 131:1 208:1 
0.6275120142139902 1:0.30769231 2:0.30769231 3:0.38848921 4:0.52747253 5:0.63047138 63:1 184:1 240:1 249:1 264:1 
1.91727557347233 1:0.61538462 2:0.61538462 3:0.20143885 4:0.38095238 5:0.70622896 127:1 157:1 163:1 249:1 264:1 
0.714846815468257 1:0.69230769 2:0.69230769 3:0.43213429 4:0.42857143 5:0.63047138 128:1 142:1 162:1 249:1 264:1 
1.371010461352215 1:0.69230769 2:0.69230769 3:0.32973621 4:0.56643357 5:0.57645903 12:1 57:1 129:1 227:1 248:1 
1.447213192931778 1:0.46153846 2:0.46153846 3:0.65707434 4:0.46624804 5:0.5617284 39:1 75:1 226:1 246:1 
1.457414947894348 1:0.38461538 2:0.38461538 3:0.92517986 4:0.47619048 5:0.78956229 51:1 89:1 191:1 256:1 
2 1:0.53846154 2:0.53846154 3:0.43884892 4:0.53571429 5:0.61363636 119:1 189:1 239:1 256:1 
1.764377108784057 1:0.46153846 2:0.46153846 3:0.5323741 4:0.35294118 5:0.63047138 155:1 174:1 198:1 256:1 
2 1:0.61538462 2:0.61538462 3:0.69604317 4:0.4 5:0.51999158 54:1 130:1 238:1 256:1 
2 1:0.69230769 2:0.69230769 3:0.60511591 4:0.36734694 5:0.60755705 54:1 103:1 166:1 257:1 
2 1:0.53846154 2:0.53846154 3:0.62589928 4:0.42857143 5:0.63047138 25:1 166:1 238:1 256:1 
0.1436465942950522 1:0.69230769 2:0.69230769 3:0.43884892 4:0.53246753 5:0.39478114 11:1 58:1 176:1 
2 1:0.61538462 2:0.61538462 3:0.43884892 4:0.56103896 5:0.38005051 10:1 24:1 44:1 59:1 73:1 92:1 251:1 
0.3408681125846615 1:0.61538462 2:0.61538462 3:0.23741007 4:0.56103896 5:0.35738798 26:1 38:1 239:1 250:1 
2 1:0.53846154 2:0.53846154 3:0.2206235 4:0.42857143 5:0.52244669 26:1 37:1 43:1 59:1 
-2 1:0.23076923 2:0.23076923 3:0.40143885 4:0.76556777 5:0.77805836 12:1 26:1 155:1 168:1 207:1 216:1 251:1 
-2 1:0.30769231 2:0.30769231 3:0.55523581 4:0.83571429 5:0.74111485 12:1 63:1 70:1 135:1 143:1 192:1 
-0.726162868424739 1:0.30769231 2:0.30769231 3:0.58363309 4:0.18367347 5:0.64850697 25:1 97:1 128:1 232:1 244:1 246:1 
-2 1:0.61538462 2:0.61538462 3:0.36941356 4:0.55194805 5:0.59306448 14:1 75:1 164:1 189:1 215:1 
-0.03177581380668748 1:0.23076923 2:0.23076923 3:0.51235643 4:0.21428571 5:0.65796857 14:1 64:1 75:1 124:1 126:1 185:1 256:1 
-1.293818613471211 1:0.76923077 2:0.76923077 3:0.5988809 4:0.57857143 5:0.62872553 53:1 92:1 140:1 195:1 214:1 249:1 
-0.6800746203205953 1:0.53846154 2:0.53846154 3:0.71942446 4:0.42857143 5:0.51683502 87:1 172:1 176:1 233:1 245:1 249:1 
-1.165289133471064 3:0.6107841 4:0.37142857 5:0.63999422 12:1 40:1 64:1 85:1 99:1 193:1 253:1 
-0.1796688588763342 1:0.23076923 2:0.23076923 3:0.3028123 4:0.23214286 5:0.64164371 19:1 61:1 121:1 156:1 210:1 232:1 252:1 
-0.2354682528565771 1:0.46153846 2:0.46153846 3:0.33093525 4:0.23809524 5:0.65552966 13:1 54:1 103:1 122:1 208:1 241:1 250:1 
-1.897802462027183 1:0.53846154 2:0.53846154 3:0.13076598 4:0.71428571 5:0.66166568 26:1 84:1 105:1 129:1 146:1 156:1 
-0.6069697573957766 1:0.53846154 2:0.53846154 3:0.19334532 4:0.30612245 5:0.6631243 46:1 62:1 73:1 97:1 127:1 194:1 
-0.1344988333231435 1:0.30769231 2:0.30769231 3:0.6352518 4:0.51623377 5:0.63930976 113:1 119:1 132:1 157:1 173:1 195:1 
-0.06837299002293053 2:9.8212037e-17 3:0.29250952 4:0.38461538 5:0.59500231 13:1 40:1 87:1 145:1 159:1 204:1 252:1 
-1.180011778537491 1:0.61538462 2:0.61538462 3:0.5323741 4:0.34285714 5:0.63047138 31:1 52:1 54:1 69:1 174:1 238:1 255:1 
-1.754173962921747 1:0.38461538 2:0.38461538 3:0.58657074 4:0.47142857 5:0.63696797 15:1 59:1 116:1 181:1 243:1 
-0.01731970949044352 1:0.38461538 2:0.38461538 3:0.74100719 4:0.37142857 5:0.65483359 65:1 77:1 108:1 123:1 128:1 198:1 252:1 
-0.1867076804335328 1:0.46153846 2:0.46153846 3:0.37026379 4:0.5 5:0.65347924 27:1 111:1 122:1 136:1 175:1 201:1 
-2 1:0.46153846 2:0.46153846 3:0.51159073 4:0.52747253 5:0.63047138 23:1 104:1 120:1 220:1 227:1 
-2 1:0.38461538 2:0.38461538 3:0.33304266 4:0.41836735 5:0.60517634 18:1 75:1 121:1 182:1 203:1 
-2 1:0.53846154 2:0.53846154 3:0.20078483 4:0.42857143 5:0.61761555 122:1 139:1 156:1 164:1 192:1 
-2 1:0.15384615 2:0.15384615 3:0.69675169 4:0.43277311 5:0.69356018 12:1 39:1 63:1 76:1 157:1 
-0.422338958388554 1:0.53846154 2:0.53846154 3:0.43884892 4:0.67346939 5:0.80232884 46:1 72:1 108:1 128:1 155:1 215:1 246:1 
-0.5407357084870383 1:0.23076923 2:0.23076923 3:0.63629097 4:0.46666667 5:0.48503554 12:1 65:1 101:1 109:1 137:1 156:1 253:1 
-0.06738015578135755 1:0.46153846 2:0.46153846 3:0.3912361 4:0.45604396 5:0.60779512 14:1 40:1 75:1 180:1 202:1 213:1 246:1 
-0.6207561776798701 1:0.53846154 2:0.53846154 3:0.43884892 4:0.58441558 5:0.37121212 24:1 92:1 140:1 204:1 228:1 238:1 251:1 
-0.4074515638914185 1:0.61538462 2:0.61538462 3:0.5588729 4:0.68877551 5:0.58153292 14:1 35:1 64:1 70:1 190:1 233:1 251:1 
-1.963780056832795 1:0.46153846 2:0.46153846 3:0.41477994 4:0.51020408 5:0.58952887 13:1 84:1 101:1 105:1 188:1 204:1 
-0.9177054816888159 1:0.46153846 2:0.46153846 3:0.30455635 4:0.43636364 5:0.62264442 47:1 84:1 146:1 164:1 200:1 216:1 253:1 
-1.270435966094679 1:0.23076923 2:0.23076923 3:0.38429257 4:0.37662338 5:0.6309624 42:1 111:1 134:1 156:1 216:1 241:1 257:1 
-1.53403247256238 1:0.46153846 2:0.46153846 3:0.33093525 4:0.23809524 5:0.65552966 13:1 55:1 102:1 208:1 218:1 
-0.593039207775272 1:0.46153846 2:0.46153846 3:0.26769173 4:0.65714286 5:0.73830351 26:1 43:1 63:1 206:1 215:1 240:1 
-1.875231306575349 1:0.46153846 2:0.46153846 3:0.50828428 4:0.44155844 5:0.63480767 12:1 30:1 77:1 92:1 120:1 154:1 252:1 
-2 1:0.46153846 2:0.46153846 3:0.43165468 4:0.40952381 5:0.63437797 13:1 26:1 35:1 102:1 209:1 
-0.1090883287929598 1:0.61538462 2:0.61538462 3:0.48081535 4:0.24155844 5:0.65674912 12:1 54:1 92:1 164:1 181:1 188:1 
-2 1:0.61538462 2:0.61538462 3:0.37410072 4:0.31428571 5:0.63683847 19:1 40:1 128:1 153:1 229:1 240:1 248:1 
-2 1:0.30769231 2:0.30769231 3:0.58992806 4:0.41538462 5:0.5964776 12:1 39:1 44:1 85:1 185:1 220:1 
-2 1:0.46153846 2:0.46153846 3:0.67238841 4:0.68571429 5:0.6195598 20:1 41:1 75:1 93:1 111:1 183:1 257:1 
-1.19360717092728 1:0.38461538 2:0.38461538 3:0.54829944 4:0.57142857 5:0.59407804 20:1 159:1 171:1 183:1 225:1 256:1 
-1.408747002958596 1:0.69230769 2:0.69230769 3:0.25179856 4:0.4829932 5:0.6456229 86:1 117:1 143:1 175:1 238:1 253:1 
-2 1:0.46153846 2:0.46153846 3:0.43165468 4:0.40952381 5:0.63437797 54:1 103:1 155:1 208:1 216:1 
-2 1:0.46153846 2:0.46153846 3:0.49875394 4:0.65714286 5:0.76949781 12:1 41:1 71:1 84:1 101:1 176:1 254:1 
-0.6260232342143758 1:0.46153846 2:0.46153846 3:0.20143885 4:0.66666667 5:0.6456229 27:1 95:1 143:1 158:1 170:1 218:1 
-0.2780712320337703 1:0.38461538 2:0.38461538 3:0.74100719 4:0.51428571 5:0.64010295 36:1 46:1 63:1 75:1 125:1 224:1 252:1 
-0.9211891647363781 1:0.61538462 2:0.61538462 3:0.20143885 4:0.57142857 5:0.60521886 14:1 81:1 143:1 185:1 230:1 242:1 
-0.4575653596435559 1:0.23076923 2:0.23076923 3:0.30455635 4:0.26938776 5:0.633556 64:1 86:1 110:1 123:1 145:1 150:1 252:1 
-0.8894160452061747 1:0.38461538 2:0.38461538 3:0.3002116 4:0.46428571 5:0.6432957 14:1 26:1 73:1 188:1 217:1 243:1 251:1 
-0.5054491791906043 1:0.076923077 2:0.076923077 3:0.74100719 4:0.24642857 5:0.68920509 36:1 64:1 76:1 123:1 126:1 144:1 253:1 
-2 1:0.38461538 2:0.38461538 3:0.62532018 4:0.28571429 5:0.65646663 41:1 52:1 77:1 126:1 207:1 
-2 1:0.46153846 2:0.46153846 3:0.65083933 4:0.5 5:0.61560045 65:1 77:1 112:1 135:1 141:1 
-2 1:0.53846154 2:0.53846154 3:0.52613909 4:0.42857143 5:0.62261504 35:1 112:1 160:1 166:1 175:1 
-0.2835295777134727 1:0.69230769 2:0.69230769 3:0.45899281 4:0.51428571 5:0.5964776 20:1 44:1 84:1 91:1 107:1 159:1 249:1 
-2 1:0.38461538 2:0.38461538 3:0.64148681 4:0.35930736 5:0.57458848 30:1 59:1 76:1 89:1 244:1 
-0.23452261297152 1:0.46153846 2:0.46153846 3:0.08175278 4:0.53246753 5:0.34657178 24:1 38:1 59:1 91:1 108:1 230:1 
-1.776581725978445 1:0.38461538 2:0.38461538 3:0.3102518 4:0.46938776 5:0.63555696 25:1 46:1 72:1 108:1 121:1 153:1 246:1 
-1.616988798225556 1:0.38461538 2:0.38461538 3:0.482494 4:0.26673327 5:0.7620651 76:1 114:1 134:1 200:1 240:1 256:1 
-1.425068026106726 1:0.38461538 2:0.38461538 3:0.3102518 4:0.65986395 5:0.78707211 72:1 108:1 120:1 153:1 165:1 208:1 
-1.454124136578292 1:0.69230769 2:0.69230769 3:0.27403532 4:0.32857143 5:0.62685911 32:1 46:1 67:1 84:1 139:1 162:1 253:1 
-0.802633886665261 1:0.23076923 2:0.23076923 3:0.35382603 4:0.41071429 5:0.61593205 18:1 75:1 120:1 138:1 156:1 180:1 
-0.9264324164300807 1:0.38461538 2:0.38461538 3:0.6940048 4:0.55714286 5:0.61430545 27:1 34:1 64:1 111:1 197:1 222:1 251:1 
-2 1:0.46153846 2:0.46153846 3:0.49496403 4:0.36904762 5:0.68265993 53:1 92:1 133:1 196:1 206:1 251:1 
-2 1:0.38461538 2:0.38461538 3:0.42326139 4:0.28138528 5:0.60339506 25:1 43:1 88:1 210:1 232:1 251:1 
-2 1:0.38461538 2:0.38461538 3:0.56614708 4:0.69795918 5:0.76386551 39:1 63:1 70:1 101:1 122:1 252:1 
-1.307599905814987 1:0.53846154 2:0.53846154 3:0.71450208 4:0.64285714 5:0.62116782 53:1 77:1 149:1 185:1 225:1 255:1 
-2 1:0.61538462 2:0.61538462 3:0.47703837 4:0.56632653 5:0.62449729 13:1 53:1 111:1 177:1 213:1 250:1 
-0.3705792073156217 1:0.38461538 2:0.38461538 3:0.042075431 4:0.41836735 5:0.51351903 14:1 75:1 84:1 122:1 157:1 201:1 246:1 
-2 1:0.30769231 2:0.30769231 3:0.5323741 4:0.30952381 5:0.64057239 24:1 54:1 102:1 208:1 241:1 
-2 1:0.30769231 2:0.30769231 3:0.41702638 4:0.56493506 5:0.62468824 12:1 24:1 124:1 189:1 219:1 239:1 
-2 1:0.30769231 2:0.30769231 3:0.48291367 4:0.64897959 5:0.55426865 13:1 120:1 155:1 232:1 251:1 
-2 1:0.38461538 2:0.38461538 3:0.40247802 4:0.5755102 5:0.81542275 12:1 63:1 69:1 99:1 176:1 194:1 253:1 
-0.3327053176349538 1:0.61538462 2:0.61538462 3:0.3163364 4:0.085714286 5:0.70145411 42:1 65:1 110:1 121:1 176:1 213:1 254:1 
-0.5627947816117455 1:0.69230769 2:0.69230769 3:0.47479193 4:0.5 5:0.63936753 34:1 122:1 159:1 175:1 245:1 249:1 
-2 1:0.53846154 2:0.53846154 3:0.29336531 4:0.42857143 5:0.66320614 43:1 101:1 110:1 215:1 242:1 253:1 
-2 1:0.53846154 2:0.53846154 3:0.27517986 4:0.55102041 5:0.63047138 25:1 84:1 146:1 153:1 178:1 
-2 1:0.30769231 2:0.30769231 3:0.55523581 4:0.62142857 5:0.79872802 12:1 24:1 39:1 71:1 101:1 174:1 
-0.3537899182643894 1:0.38461538 2:0.38461538 3:0.39917157 4:0.28571429 5:0.65457606 8:1 48:1 148:1 195:1 222:1 235:1 253:1 
-1.21099947607099 1:0.30769231 2:0.30769231 3:0.26426859 4:0.43831169 5:0.60231949 123:1 144:1 158:1 170:1 215:1 222:1 256:1 
-0.485590216230482 1:0.69230769 2:0.69230769 3:0.15827338 4:0.72294372 5:0.32804233 10:1 26:1 38:1 58:1 72:1 237:1 251:1 
-2 1:0.61538462 2:0.61538462 3:0.53298538 4:0.65714286 5:0.74870161 53:1 56:1 107:1 118:1 144:1 
-1.565626804576446 1:0.46153846 2:0.46153846 3:0.66954436 4:0.55952381 5:0.65347924 15:1 35:1 88:1 215:1 224:1 257:1 
-1.386439173208923 1:0.38461538 2:0.38461538 3:0.40247802 4:0.5755102 5:0.81542275 65:1 99:1 109:1 141:1 156:1 242:1 
-2 1:0.38461538 2:0.38461538 3:0.51073494 4:0.71428571 5:0.64410444 12:1 29:1 47:1 179:1 192:1 233:1 
-0.6084611866456552 1:0.46153846 2:0.46153846 3:0.42248201 4:0.6122449 5:0.67343575 46:1 74:1 84:1 146:1 233:1 243:1 
-2 1:0.46153846 2:0.46153846 3:0.38142118 4:0.17142857 5:0.66320614 13:1 19:1 52:1 126:1 183:1 225:1 
-1.277812156038846 1:0.38461538 2:0.38461538 3:0.48431255 4:0.45306122 5:0.58341517 40:1 136:1 142:1 175:1 192:1 228:1 
-2 1:0.69230769 2:0.69230769 3:0.33363309 4:0.36054422 5:0.64046717 69:1 176:1 191:1 223:1 253:1 
-2 1:0.076923077 2:0.076923077 3:0.62070344 4:0.55324675 5:0.98237 12:1 64:1 101:1 108:1 120:1 136:1 252:1 
-1.397719854846049 1:0.30769231 2:0.30769231 3:0.11151079 4:0.58441558 5:0.6129349 14:1 51:1 120:1 155:1 180:1 215:1 254:1 
-2 1:0.38461538 2:0.38461538 3:0.43884892 4:0.62037962 5:0.36111111 24:1 108:1 128:1 192:1 239:1 251:1 
-1.311318159492694 1:0.38461538 2:0.38461538 3:0.12320144 4:0.56462585 5:0.63555696 45:1 60:1 86:1 96:1 108:1 122:1 246:1 
-2 1:0.30769231 2:0.30769231 3:0.28147482 4:0.6122449 5:0.67343575 13:1 24:1 72:1 96:1 166:1 194:1 
-0.9402643953684079 1:0.69230769 2:0.69230769 3:0.34642404 4:0.17857143 5:0.60170331 13:1 67:1 91:1 158:1 176:1 196:1 250:1 
-2 1:0.30769231 2:0.30769231 3:0.41334205 4:0.45238095 5:0.62771656 12:1 25:1 54:1 102:1 216:1 240:1 250:1 
-2 1:0.38461538 2:0.38461538 3:0.40247802 4:0.45306122 5:0.60919379 13:1 40:1 43:1 101:1 141:1 240:1 252:1 
-0.4789871782261177 1:0.38461538 2:0.38461538 3:0.49256595 4:0.38571429 5:0.62185962 49:1 100:1 122:1 136:1 176:1 221:1 251:1 
-2 1:0.69230769 2:0.69230769 3:0.25755396 4:0.42857143 5:0.63047138 14:1 21:1 40:1 115:1 189:1 
-1.698050710457594 1:0.23076923 2:0.23076923 3:0.32035548 4:0.82857143 5:0.67819599 13:1 84:1 107:1 119:1 144:1 156:1 251:1 
-0.2648853721460702 1:0.46153846 2:0.46153846 3:0.30167866 4:0.51190476 5:0.64066592 25:1 84:1 120:1 190:1 206:1 234:1 250:1 
-0.003905710151862979 1:0.38461538 2:0.38461538 3:0.38750176 4:0.35714286 5:0.64722387 40:1 84:1 130:1 169:1 186:1 217:1 249:1 
-0.2725637187348733 1:0.46153846 2:0.46153846 3:0.49704237 4:0.33437991 5:0.72998504 13:1 30:1 128:1 140:1 206:1 219:1 255:1 
-2 1:0.69230769 2:0.69230769 3:0.74100719 4:0.51428571 5:0.64010295 20:1 46:1 65:1 75:1 125:1 236:1 
-2 1:0.69230769 2:0.69230769 3:0.49256595 4:0.38571429 5:0.63908314 20:1 78:1 128:1 154:1 228:1 
-2 1:0.61538462 2:0.61538462 3:0.29924884 4:0.46938776 5:0.6370424 122:1 127:1 144:1 154:1 167:1 246:1 
-1.417279477725569 1:0.53846154 2:0.53846154 3:0.35155875 4:0.42857143 5:0.62261504 12:1 43:1 68:1 86:1 171:1 176:1 252:1 
-0.2264806880764775 1:0.30769231 2:0.30769231 3:0.73042742 4:0.23809524 5:0.63439719 40:1 52:1 54:1 101:1 205:1 245:1 
-2 1:0.46153846 2:0.46153846 3:0.33519185 4:0.62755102 5:0.60125561 36:1 73:1 108:1 153:1 178:1 
-1.692323321586428 1:0.61538462 2:0.61538462 3:0.67691302 4:0.34415584 5:0.65426997 6:1 20:1 209:1 233:1 236:1 252:1 
-2 1:0.38461538 2:0.38461538 3:0.74100719 4:0.37142857 5:0.65483359 64:1 77:1 92:1 108:1 123:1 
-2 1:0.23076923 2:0.23076923 3:0.35571543 4:0.27619048 5:0.689581 25:1 85:1 109:1 174:1 215:1 253:1 
-0.1685971163341655 1:0.46153846 2:0.46153846 3:0.43165468 4:0.4952381 5:0.61360399 13:1 34:1 55:1 72:1 208:1 216:1 250:1 
-2 1:0.30769231 2:0.30769231 3:0.42396991 4:0.27142857 5:0.54543541 13:1 18:1 76:1 121:1 180:1 248:1 
-2 1:0.46153846 2:0.46153846 3:0.43165468 4:0.58095238 5:0.55128205 14:1 24:1 54:1 131:1 208:1 226:1 251:1 
-1.237729792228732 1:0.38461538 2:0.38461538 3:0.64937227 4:0.67857143 5:0.75328448 24:1 39:1 99:1 118:1 233:1 
-2 1:0.30769231 2:0.30769231 3:0.49053389 4:0.36734694 5:0.73358586 20:1 52:1 76:1 192:1 219:1 225:1 256:1 
-1.077961122524374 1:0.69230769 2:0.69230769 3:0.56642686 4:0.3 5:0.65385155 46:1 64:1 77:1 152:1 200:1 223:1 253:1 
-1.254805983717185 1:0.38461538 2:0.38461538 3:0.57913669 4:0.39393939 5:0.62247475 17:1 40:1 46:1 70:1 157:1 169:1 253:1 
-0.9544372884712523 1:0.53846154 2:0.53846154 3:0.62589928 4:0.52380952 5:0.63047138 43:1 99:1 135:1 142:1 233:1 
-1.720190826266275 1:0.53846154 2:0.53846154 3:0.51159073 4:0.42857143 5:0.614104 41:1 44:1 99:1 141:1 157:1 176:1 252:1 
-0.2442240363631594 1:0.38461538 2:0.38461538 3:0.20994114 4:0.57142857 5:0.6063667 111:1 114:1 158:1 191:1 216:1 228:1 249:1 
-0.8681677992482113 1:0.46153846 2:0.46153846 3:0.31981687 4:0.38961039 5:0.30639731 84:1 109:1 170:1 193:1 212:1 250:1 
-2 1:0.69230769 2:0.69230769 3:0.34532374 4:0.53246753 5:0.38215488 44:1 58:1 72:1 139:1 228:1 250:1 
-0.1174742422221425 1:0.84615385 2:0.84615385 3:0.4661271 4:0.29499072 5:0.6862023 8:1 56:1 80:1 114:1 141:1 189:1 256:1 
-2 1:0.38461538 2:0.38461538 3:0.33615461 4:0.28571429 5:0.64606853 14:1 40:1 65:1 128:1 144:1 206:1 253:1 
-0.06327539166735918 1:0.46153846 2:0.46153846 3:0.65310661 4:0.32417582 5:0.35246403 18:1 40:1 64:1 92:1 156:1 203:1 248:1 
-2 1:0.23076923 2:0.23076923 3:0.48986266 4:0.44642857 5:0.6320237 46:1 60:1 181:1 192:1 207:1 252:1 
-0.2623302830782505 1:0.69230769 2:0.69230769 3:0.2206235 4:0.56709957 5:0.60886644 23:1 36:1 79:1 141:1 182:1 224:1 
-2 1:0.61538462 2:0.61538462 3:0.42506626 4:0.57142857 5:0.57744108 19:1 77:1 93:1 194:1 219:1 225:1 256:1 
-0.2637672190164372 1:0.38461538 2:0.38461538 3:0.42326139 4:0.39393939 5:0.63734568 13:1 54:1 72:1 103:1 120:1 208:1 250:1 
-1.46124203250467 1:0.46153846 2:0.46153846 3:0.34471247 4:0.37142857 5:0.67591492 13:1 42:1 101:1 175:1 192:1 213:1 252:1 
-2 1:0.38461538 2:0.38461538 3:0.57913669 4:0.39393939 5:0.62247475 16:1 47:1 112:1 222:1 238:1 253:1 
-1.665582095083769 1:0.46153846 2:0.46153846 3:0.5323741 4:0.40952381 5:0.62682379 34:1 54:1 102:1 120:1 208:1 251:1 
-2 1:0.30769231 2:0.30769231 3:0.44985188 4:0.52380952 5:0.55322836 24:1 51:1 85:1 101:1 218:1 
-0.2965877646970774 1:0.38461538 2:0.38461538 3:0.56978417 4:0.42417582 5:0.70707071 19:1 63:1 76:1 82:1 167:1 205:1 256:1 
-1.413765391393457 1:0.30769231 2:0.30769231 3:0.39520384 4:0.55519481 5:0.63309016 12:1 33:1 84:1 112:1 121:1 136:1 250:1 
-0.8518724156690337 1:0.38461538 2:0.38461538 3:0.43884892 4:0.62037962 5:0.36111111 25:1 58:1 72:1 120:1 154:1 192:1 251:1 
-1.240846976203623 1:0.46153846 2:0.46153846 3:0.43884892 4:0.53246753 5:0.39478114 11:1 73:1 128:1 192:1 239:1 
-1.212089235854648 1:0.30769231 2:0.30769231 3:0.29431001 4:0.52380952 5:0.61968167 14:1 24:1 35:1 48:1 73:1 102:1 
-1.635138876002568 1:0.53846154 2:0.53846154 3:0.34532374 4:0.71428571 5:0.86531987 12:1 26:1 50:1 83:1 130:1 209:1 251:1 
-2 1:0.53846154 2:0.53846154 3:0.35701439 4:0.42857143 5:0.63906425 38:1 108:1 153:1 209:1 246:1 
-0.7614275664844737 1:0.30769231 2:0.30769231 3:0.15827338 4:0.4739011 5:0.73148148 12:1 75:1 83:1 121:1 177:1 241:1 246:1 
-0.4206133882999415 1:0.30769231 2:0.30769231 3:0.61739699 4:0.6 5:0.65457606 35:1 147:1 183:1 202:1 219:1 252:1 
-2 1:0.46153846 2:0.46153846 3:0.57844901 4:0.63265306 5:0.79575782 24:1 51:1 118:1 233:1 
-0.3978382716226813 1:0.61538462 2:0.61538462 3:0.74833224 4:0.3956044 5:0.70707071 76:1 140:1 185:1 206:1 238:1 257:1 
-2 1:0.30769231 2:0.30769231 3:0.3563267 4:0.71428571 5:0.69211725 12:1 40:1 107:1 117:1 145:1 156:1 251:1 
-2 1:0.30769231 2:0.30769231 3:0.43884892 4:0.34090909 5:0.64814815 14:1 28:1 64:1 108:1 164:1 253:1 
-2 1:0.53846154 2:0.53846154 3:0.43884892 4:0.25714286 5:0.68502931 43:1 100:1 137:1 176:1 242:1 252:1 
-2 1:0.30769231 2:0.30769231 3:0.63690224 4:0.52380952 5:0.47747079 12:1 40:1 101:1 168:1 244:1 250:1 
-2 1:0.46153846 2:0.46153846 3:0.30887643 4:0.34693878 5:0.56873267 14:1 75:1 126:1 179:1 205:1 235:1 
-0.3499563064967369 1:0.53846154 2:0.53846154 3:0.2206235 4:0.42857143 5:0.52244669 72:1 84:1 176:1 205:1 211:1 230:1 250:1 
-2 1:0.53846154 2:0.53846154 3:0.34532374 4:0.61904762 5:0.60774411 39:1 71:1 86:1 93:1 119:1 222:1 
-2 1:0.46153846 2:0.46153846 3:0.15317201 4:0.23626374 5:0.62329354 66:1 85:1 163:1 181:1 211:1 252:1 
-2 1:0.53846154 2:0.53846154 3:0.43884892 4:0.42857143 5:0.63047138 13:1 101:1 143:1 176:1 213:1 253:1 
-0.3983998916944967 1:0.46153846 2:0.46153846 3:0.41477994 4:0.75510204 5:0.69264335 25:1 51:1 84:1 101:1 105:1 119:1 249:1 
-2 1:0.46153846 2:0.46153846 3:0.38142118 4:0.85714286 5:0.61083053 14:1 93:1 111:1 171:1 225:1 243:1 
-0.1523725749164881 1:0.53846154 2:0.53846154 3:0.62589928 4:0.48214286 5:0.66414141 9:1 24:1 87:1 154:1 222:1 238:1 256:1 
-2 1:0.46153846 2:0.46153846 3:0.38925223 4:0.22727273 5:0.63882512 54:1 78:1 92:1 208:1 230:1 252:1 
-1.015203488966737 1:0.23076923 2:0.23076923 3:0.71092217 4:0.44642857 5:0.66579941 20:1 49:1 75:1 111:1 147:1 195:1 
-2 1:0.38461538 2:0.38461538 3:0.46067146 4:0.51848152 5:0.62971891 13:1 20:1 51:1 75:1 153:1 215:1 252:1 
-2 1:0.53846154 2:0.53846154 3:0.53956835 4:0.085714286 5:0.61064167 18:1 76:1 90:1 162:1 200:1 
-0.3510235158988783 1:0.53846154 2:0.53846154 3:0.62589928 4:0.375 5:0.59680135 24:1 30:1 51:1 91:1 118:1 198:1 257:1 
-0.4318311539798584 1:0.76923077 2:0.76923077 3:0.24329627 4:0.33333333 5:0.50306091 19:1 117:1 150:1 165:1 201:1 222:1 253:1 
-1.046269112895127 1:0.23076923 2:0.23076923 3:0.52179433 4:0.74285714 5:0.70652414 13:1 24:1 39:1 51:1 130:1 144:1 251:1 
-2 1:0.53846154 2:0.53846154 3:0.50776221 4:0.21428571 5:0.65838207 14:1 19:1 40:1 94:1 161:1 172:1 
-2 1:0.30769231 2:0.30769231 3:0.28920863 4:0.44917582 5:0.60606061 12:1 75:1 127:1 204:1 256:1 
-1.495372806923914 1:0.30769231 2:0.30769231 3:0.46085485 4:0.23809524 5:0.68394732 76:1 88:1 99:1 102:1 115:1 252:1 
-2 1:0.53846154 2:0.53846154 3:0.43884892 4:0.33333333 5:0.64345839 13:1 34:1 54:1 129:1 208:1 
-1.12026565952636 1:0.30769231 2:0.30769231 3:0.55523581 4:0.51428571 5:0.71230827 41:1 71:1 100:1 121:1 204:1 214:1 253:1 
-0.5109763915610681 1:0.69230769 2:0.69230769 3:0.34532374 4:0.43722944 5:0.53367003 24:1 42:1 92:1 120:1 127:1 154:1 250:1 
-0.1486321973330843 1:0.53846154 2:0.53846154 3:0.52613909 4:0.64285714 5:0.60952114 120:1 137:1 141:1 171:1 214:1 234:1 251:1 
-0.0880780453561197 1:0.61538462 2:0.61538462 3:0.4586876 4:0.18831169 5:0.67999014 8:1 68:1 120:1 126:1 138:1 210:1 
-1.055362926177768 1:0.46153846 2:0.46153846 3:0.43884892 4:0.46103896 5:0.48316498 10:1 24:1 84:1 120:1 174:1 212:1 
-2 1:0.46153846 2:0.46153846 3:0.5323741 4:0.60504202 5:0.63047138 51:1 71:1 119:1 165:1 191:1 256:1 
-0.777277217264247 1:0.38461538 2:0.38461538 3:0.5314294 4:0.5 5:0.630888 47:1 60:1 84:1 120:1 233:1 236:1 
-2 1:0.30769231 2:0.30769231 3:0.35382603 4:0.54761905 5:0.54438323 12:1 24:1 30:1 99:1 211:1 243:1 251:1 
-1.111947422778632 1:0.53846154 2:0.53846154 3:0.78800959 4:0.42857143 5:0.69332211 13:1 41:1 51:1 65:1 68:1 173:1 250:1 
-2 1:0.61538462 2:0.61538462 3:0.5588729 4:0.81122449 5:0.6846474 24:1 34:1 53:1 71:1 143:1 250:1 
-0.5404584608690477 1:0.38461538 2:0.38461538 3:0.6901388 4:0.53061224 5:0.66030465 112:1 118:1 147:1 166:1 195:1 252:1 
-1.795858221310241 1:0.38461538 2:0.38461538 3:0.33141487 4:0.23571429 5:0.67232151 50:1 75:1 145:1 186:1 235:1 256:1 
-2 1:0.38461538 2:0.38461538 3:0.40377698 4:0.68707483 5:0.50473485 25:1 36:1 108:1 166:1 179:1 
-0.09894130707793458 1:0.69230769 2:0.69230769 3:0.65371703 4:0.40714286 5:0.64468582 20:1 46:1 65:1 90:1 125:1 128:1 252:1 
-2 1:0.53846154 2:0.53846154 3:0.34532374 4:0.23809524 5:0.65488215 14:1 26:1 56:1 104:1 121:1 208:1 
-0.5415404626522122 1:0.46153846 2:0.46153846 3:0.30455635 4:0.43636364 5:0.62264442 20:1 45:1 145:1 180:1 216:1 224:1 252:1 
-1.076804008683637 1:0.38461538 2:0.38461538 3:0.29234794 4:0.65714286 5:0.55630312 12:1 57:1 76:1 121:1 131:1 239:1 251:1 
-0.1048723374862728 1:0.61538462 2:0.61538462 3:0.56780031 4:0.42207792 5:0.63798053 20:1 47:1 104:1 181:1 233:1 
-0.5167388365019602 1:0.69230769 2:0.69230769 3:0.31798561 4:0.49285714 5:0.61944229 7:1 65:1 80:1 96:1 153:1 228:1 247:1 
-0.9323246932370823 1:0.38461538 2:0.38461538 3:0.46067146 4:0.38661339 5:0.63369809 12:1 32:1 155:1 162:1 186:1 243:1 252:1 
-2 1:0.61538462 2:0.61538462 3:0.29924884 4:0.75510204 5:0.70982909 12:1 26:1 36:1 45:1 154:1 166:1 
-0.5474619264884711 1:0.15384615 2:0.15384615 3:0.41366906 4:0.28571429 5:0.64220733 13:1 37:1 75:1 108:1 144:1 164:1 253:1 
-0.3311487095480906 1:0.61538462 2:0.61538462 3:0.13669065 4:0.56103896 5:0.34605672 38:1 59:1 84:1 206:1 212:1 249:1 
-0.8350623556544745 1:0.53846154 2:0.53846154 3:0.20078483 4:0.42857143 5:0.61761555 47:1 61:1 68:1 91:1 192:1 235:1 252:1 
-2 1:0.23076923 2:0.23076923 3:0.54276579 4:0.46666667 5:0.52291433 13:1 40:1 71:1 85:1 99:1 
-2 1:0.61538462 2:0.61538462 3:0.57314149 4:0.40519481 5:0.64852586 22:1 190:1 198:1 217:1 224:1 255:1 
-2 1:0.30769231 2:0.30769231 3:0.40869936 4:0.73469388 5:0.60469276 12:1 95:1 113:1 193:1 227:1 255:1 
-0.3631842556923628 1:0.30769231 2:0.30769231 3:0.66330935 4:0.50274725 5:0.72390572 92:1 167:1 183:1 204:1 219:1 256:1 
-2 1:0.46153846 2:0.46153846 3:0.43884892 4:0.67532468 5:0.35058923 10:1 192:1 204:1 228:1 239:1 250:1 
-1.605955741645461 1:0.38461538 2:0.38461538 3:0.32897319 4:0.5 5:0.61440159 14:1 64:1 115:1 183:1 216:1 240:1 250:1 
-2 1:0.46153846 2:0.46153846 3:0.5323741 4:0.66666667 5:0.67592593 24:1 56:1 82:1 168:1 207:1 251:1 
-0.7035629542833787 1:0.69230769 2:0.69230769 3:0.47992665 4:0.5 5:0.62636991 58:1 80:1 105:1 180:1 244:1 248:1 
-0.7413690249137244 1:0.23076923 2:0.23076923 3:0.50402031 4:0.2 5:0.65739979 41:1 64:1 88:1 145:1 172:1 206:1 
-0.05597065838859708 1:0.53846154 2:0.53846154 3:0.43884892 4:0.42857143 5:0.63047138 25:1 35:1 54:1 102:1 131:1 250:1 
-0.8395198452928868 1:0.53846154 2:0.53846154 3:0.70071942 4:0.49450549 5:0.73260382 12:1 46:1 63:1 92:1 126:1 239:1 257:1 
-2 1:0.30769231 2:0.30769231 3:0.47913669 4:0.38241758 5:0.63617478 13:1 36:1 46:1 85:1 123:1 200:1 252:1 
-2 1:0.53846154 2:0.53846154 3:0.34532374 4:0.52380952 5:0.51683502 13:1 31:1 75:1 105:1 251:1 
-1.718442320786689 1:0.30769231 2:0.30769231 3:0.35155875 4:0.48701299 5:0.61840629 28:1 59:1 134:1 180:1 192:1 
-0.1308349706419025 1:0.53846154 2:0.53846154 3:0.65707434 4:0.42857143 5:0.65207632 37:1 75:1 113:1 158:1 190:1 200:1 257:1 
-0.1991176298050595 1:0.23076923 2:0.23076923 3:0.42506626 4:0.10714286 5:0.6540404 19:1 52:1 76:1 126:1 193:1 244:1 255:1 
-2 1:0.38461538 2:0.38461538 3:0.43884892 4:0.48851149 5:0.43406285 24:1 109:1 205:1 238:1 251:1 
-2 1:0.53846154 2:0.53846154 3:0.27517986 4:0.67346939 5:0.7507716 36:1 46:1 60:1 165:1 194:1 
-2 1:0.61538462 2:0.61538462 3:0.46067146 4:0.52040816 5:0.62359708 57:1 105:1 171:1 245:1 246:1 
-2 1:0.53846154 2:0.53846154 3:0.64028777 4:0.34285714 5:0.65218963 20:1 75:1 123:1 224:1 236:1 253:1 
-0.183779902543673 1:0.38461538 2:0.38461538 3:0.53285372 4:0.49285714 5:0.64399335 17:1 50:1 123:1 183:1 204:1 223:1 257:1 
-1.788199873032636 1:0.30769231 2:0.30769231 3:0.85971223 4:0.63157895 5:0.6615694 51:1 71:1 167:1 191:1 219:1 255:1 
-1.679757217682295 1:0.30769231 2:0.30769231 3:0.49053389 4:0.12244898 5:0.65109428 18:1 88:1 126:1 148:1 184:1 225:1 255:1 
-0.6309431834770107 1:0.53846154 2:0.53846154 3:0.43884892 4:0.52380952 5:0.62037037 62:1 135:1 143:1 176:1 216:1 224:1 
-0.8096561896266019 1:0.61538462 2:0.61538462 3:0.34957489 4:0.34415584 5:0.63112182 20:1 32:1 84:1 104:1 138:1 156:1 254:1 
-2 1:0.46153846 2:0.46153846 3:0.33519185 4:0.71938776 5:0.72843013 47:1 84:1 144:1 165:1 
-0.7706039801006583 1:0.30769231 2:0.30769231 3:0.16927634 4:0.52380952 5:0.66686473 26:1 54:1 144:1 168:1 204:1 218:1 
-0.1718493966476343 1:0.76923077 2:0.76923077 3:0.48986266 4:0.5 5:0.62901745 8:1 20:1 46:1 92:1 163:1 207:1 252:1 
-0.2024373258604472 1:0.53846154 2:0.53846154 3:0.34532374 4:0.23809524 5:0.65488215 13:1 54:1 102:1 129:1 208:1 249:1 
-0.8961229849703229 1:0.38461538 2:0.38461538 3:0.40377698 4:0.46938776 5:0.6229307 13:1 45:1 60:1 108:1 128:1 232:1 
-2 1:0.30769231 2:0.30769231 3:0.46085485 4:0.42857143 5:0.63344227 13:1 45:1 63:1 172:1 221:1 252:1 
-0.6083971081244499 1:0.30769231 2:0.30769231 3:0.72981615 4:0.35621521 5:0.68906659 6:1 76:1 101:1 181:1 191:1 255:1 
-2 1:0.76923077 2:0.76923077 3:0.43114685 4:0.71428571 5:0.70221826 106:1 117:1 188:1 251:1 
-0.01818593846419642 1:0.69230769 2:0.69230769 3:0.34532374 4:0.62770563 5:0.35185185 59:1 92:1 109:1 154:1 237:1 251:1 
-2 1:0.53846154 2:0.53846154 3:0.43884892 4:0.71428571 5:0.90319865 12:1 34:1 83:1 217:1 227:1 250:1 
-0.6308052069232631 1:0.23076923 2:0.23076923 3:0.44924061 4:0.56190476 5:0.86382342 25:1 65:1 100:1 206:1 215:1 240:1 252:1 
-1.40048653869409 1:0.53846154 2:0.53846154 3:0.35155875 4:0.64285714 5:0.6409465 24:1 33:1 63:1 69:1 112:1 177:1 
-0.5675438035594016 1:0.69230769 2:0.69230769 3:0.31798561 4:0.27857143 5:0.63515497 7:1 19:1 78:1 106:1 122:1 219:1 246:1 
-1.904281518979364 1:0.53846154 2:0.53846154 3:0.43884892 4:0.25714286 5:0.60780886 42:1 86:1 160:1 208:1 224:1 249:1 
-0.04183633876813539 1:0.38461538 2:0.38461538 3:0.56614708 4:0.33061224 5:0.66075103 13:1 41:1 44:1 65:1 71:1 109:1 253:1 
-2 1:0.38461538 2:0.38461538 3:0.39425797 4:0.42857143 5:0.63047138 12:1 112:1 127:1 183:1 225:1 256:1 
-1.935434762275905 1:0.61538462 2:0.61538462 3:0.18705036 4:0.31428571 5:0.61158594 98:1 122:1 153:1 188:1 229:1 246:1 
-1.914450203829061 1:0.38461538 2:0.38461538 3:0.23880895 4:0.33061224 5:0.69512252 14:1 25:1 43:1 108:1 174:1 228:1 
-0.07823717168584726 1:0.38461538 2:0.38461538 3:0.40247802 4:0.45306122 5:0.60919379 43:1 100:1 120:1 193:1 214:1 228:1 
-1.33186941130769 1:0.53846154 2:0.53846154 3:0.27517986 4:0.55102041 5:0.59609989 38:1 47:1 97:1 166:1 192:1 247:1 
-0.857029755009867 1:0.38461538 2:0.38461538 3:0.66043165 4:0.32142857 5:0.60690236 13:1 39:1 53:1 197:1 229:1 236:1 
-0.4692374749074751 1:0.38461538 2:0.38461538 3:0.66043165 4:0.32142857 5:0.60690236 25:1 51:1 63:1 138:1 173:1 236:1 
-1.195257982911518 1:0.30769231 2:0.30769231 3:0.50431655 4:0.63311688 5:0.61508605 24:1 63:1 122:1 136:1 173:1 179:1 
-2 1:0.30769231 2:0.30769231 3:0.74100719 4:0.44835165 5:0.64545955 47:1 63:1 75:1 123:1 126:1 
-0.1900728679201471 1:0.61538462 2:0.61538462 3:0.5323741 4:0.3452381 5:0.63664422 13:1 56:1 82:1 102:1 209:1 251:1 
-2 1:0.46153846 2:0.46153846 3:0.5323741 4:0.4952381 5:0.60227273 13:1 178:1 208:1 227:1 
-2 1:0.53846154 2:0.53846154 3:0.5323741 4:0.42857143 5:0.59259259 14:1 32:1 42:1 76:1 143:1 209:1 251:1 
-0.1753583833329228 1:0.69230769 2:0.69230769 3:0.27264628 4:0.57142857 5:0.66686473 53:1 105:1 129:1 146:1 157:1 249:1 
-0.006953797857363555 1:0.23076923 2:0.23076923 3:0.7116307 4:0.54805195 5:0.6389973 75:1 101:1 180:1 190:1 216:1 240:1 255:1 
-0.9571878497620672 1:0.61538462 2:0.61538462 3:0.38273381 4:0.55952381 5:0.62205387 17:1 93:1 117:1 191:1 204:1 224:1 253:1 
-0.3815285856210665 1:0.46153846 2:0.46153846 3:0.54597776 4:0.36813187 5:0.64201782 32:1 46:1 84:1 92:1 157:1 232:1 252:1 
-2 1:0.30769231 2:0.30769231 3:0.46794564 4:0.62142857 5:0.78301534 12:1 71:1 100:1 137:1 156:1 213:1 253:1 
-2 1:0.61538462 2:0.61538462 3:0.34957489 4:0.18831169 5:0.66198602 18:1 62:1 90:1 128:1 210:1 
-1.402729655577643 1:0.30769231 2:0.30769231 3:0.6352518 4:0.40909091 5:0.65109428 37:1 42:1 111:1 171:1 191:1 221:1 
-0.0108951803895486 1:0.38461538 2:0.38461538 3:0.47242206 4:0.36428571 5:0.64142493 28:1 100:1 122:1 142:1 164:1 217:1 252:1 
-0.4783297908778273 1:0.46153846 2:0.46153846 3:0.78800959 4:0.33437991 5:0.63832772 18:1 46:1 76:1 126:1 184:1 190:1 255:1 
-2 1:0.38461538 2:0.38461538 3:0.40377698 4:0.59183673 5:0.60574495 13:1 37:1 46:1 60:1 165:1 208:1 251:1 
-0.03173096015864828 1:0.23076923 2:0.23076923 3:0.60549379 4:0.5 5:0.6387741 24:1 113:1 123:1 135:1 209:1 230:1 252:1 
-2 1:0.53846154 2:0.53846154 3:0.31981687 4:0.35714286 5:0.62806091 31:1 102:1 207:1 254:1 
-0.5051078574417186 2:9.8212037e-17 3:0.30455635 4:0.31260504 5:0.62919137 13:1 36:1 76:1 144:1 180:1 216:1 253:1 
-0.3409571123914302 1:0.46153846 2:0.46153846 3:0.33093525 4:0.66666667 5:0.67592593 98:1 122:1 155:1 168:1 207:1 250:1 
-2 1:0.23076923 2:0.23076923 3:0.48646174 4:0.39285714 5:0.65511172 25:1 51:1 86:1 172:1 195:1 
-0.5255414334753097 1:0.53846154 2:0.53846154 3:0.58433253 4:0.25714286 5:0.67411772 41:1 42:1 71:1 101:1 157:1 176:1 
-2 1:0.53846154 2:0.53846154 3:0.59289039 4:0.71428571 5:0.72405427 41:1 130:1 168:1 243:1 250:1 
-0.7226367440620742 1:0.38461538 2:0.38461538 3:0.48431255 4:0.45306122 5:0.58341517 41:1 86:1 100:1 157:1 214:1 228:1 
-0.8559149821588019 1:0.23076923 2:0.23076923 3:0.16606715 4:0.41298701 5:0.6104798 12:1 136:1 163:1 180:1 215:1 229:1 252:1 
-0.1602703987913315 1:0.38461538 2:0.38461538 3:0.5323741 4:0.23809524 5:0.64646465 54:1 102:1 121:1 208:1 241:1 250:1 
-1.390161471342952 1:0.46153846 2:0.46153846 3:0.52690479 4:0.51428571 5:0.56500187 19:1 75:1 88:1 94:1 183:1 225:1 256:1 
-2 1:0.61538462 2:0.61538462 3:0.56780031 4:0.34415584 5:0.64655392 18:1 104:1 212:1 231:1 
-2 1:0.23076923 2:0.23076923 3:0.24839765 4:0.35714286 5:0.61065197 14:1 25:1 36:1 44:1 84:1 111:1 253:1 
-1.481283681903049 1:0.53846154 2:0.53846154 3:0.53956835 4:0.6 5:0.62744971 39:1 44:1 107:1 120:1 153:1 221:1 
-2 1:0.53846154 2:0.53846154 3:0.35155875 4:0.75 5:0.6815376 38:1 131:1 142:1 179:1 216:1 
-1.331058666639053 1:0.38461538 2:0.38461538 3:0.68531528 4:0.39285714 5:0.66963755 14:1 65:1 88:1 159:1 173:1 221:1 
-0.5286915010559793 1:0.38461538 2:0.38461538 3:0.5029431 4:0.3 5:0.64813785 13:1 76:1 125:1 144:1 151:1 188:1 252:1 
-1.407420228257046 1:0.61538462 2:0.61538462 3:0.3912361 4:0.32417582 5:0.75528007 14:1 31:1 64:1 91:1 161:1 165:1 256:1 
-1.634340113406645 1:0.46153846 2:0.46153846 3:0.032156093 4:0.37012987 5:0.59597235 12:1 31:1 121:1 153:1 181:1 187:1 252:1 
-2 1:0.46153846 2:0.46153846 3:0.41504251 4:0.3021978 5:0.64080196 6:1 84:1 90:1 128:1 180:1 
-1.424726768752187 1:0.46153846 2:0.46153846 3:0.43884892 4:0.74675325 5:0.34175084 11:1 59:1 72:1 120:1 155:1 250:1 
-1.085528023771904 1:0.23076923 2:0.23076923 3:0.4661271 4:0.69573284 5:0.44020062 24:1 46:1 60:1 73:1 108:1 207:1 
-0.0158110546100632 1:0.15384615 2:0.15384615 3:0.046043165 4:0.24725275 5:0.46548822 13:1 25:1 38:1 84:1 124:1 230:1 253:1 
-2 1:0.38461538 2:0.38461538 3:0.41137999 4:0.22857143 5:0.60852994 18:1 40:1 86:1 184:1 222:1 
-0.544129612467163 1:0.69230769 2:0.69230769 3:0.27403532 4:0.15714286 5:0.66462998 6:1 18:1 32:1 104:1 158:1 235:1 253:1 
-1.889140320890981 1:0.46153846 2:0.46153846 3:0.41504251 4:0.43406593 5:0.6288644 47:1 92:1 122:1 138:1 231:1 252:1 
-0.6940256132649999 1:0.23076923 2:0.23076923 3:0.68693677 4:0.53571429 5:0.60690236 39:1 75:1 113:1 183:1 245:1 256:1 
-1.187306385092568 1:0.23076923 2:0.23076923 3:0.5323741 4:0.43589744 5:0.62121212 24:1 54:1 96:1 102:1 208:1 216:1 
-0.3884745095622307 1:0.53846154 2:0.53846154 3:0.51586966 4:0.14285714 5:0.65126758 14:1 89:1 116:1 145:1 161:1 234:1 
-0.3774145784374043 1:0.38461538 2:0.38461538 3:0.35827338 4:0.3 5:0.63001813 12:1 113:1 157:1 175:1 229:1 238:1 253:1 
-0.3674118086583593 1:0.23076923 2:0.23076923 3:0.26219025 4:0.46666667 5:0.63655069 39:1 100:1 122:1 192:1 206:1 242:1 253:1 
-0.5175037474321913 1:0.46153846 2:0.46153846 3:0.26769173 4:0.65714286 5:0.73830351 26:1 71:1 168:1 176:1 215:1 230:1 253:1 
-1.090426730098109 1:0.38461538 2:0.38461538 3:0.26487901 4:0.37142857 5:0.62269401 36:1 46:1 76:1 86:1 182:1 234:1 252:1 
-0.4580947898626145 1:0.15384615 2:0.15384615 3:0.79736211 4:0.53084416 5:0.64680536 12:1 51:1 77:1 135:1 207:1 215:1 252:1 
-1.265507882572911 1:0.38461538 2:0.38461538 3:0.15697442 4:0.45306122 5:0.68652965 14:1 25:1 44:1 108:1 206:1 242:1 252:1 
-1.379120728960896 1:0.46153846 2:0.46153846 3:0.26030085 4:0.39010989 5:0.58226201 14:1 40:1 84:1 92:1 180:1 213:1 246:1 
-0.7515951109340262 1:0.53846154 2:0.53846154 3:0.28480745 4:0.42857143 5:0.60967518 13:1 87:1 103:1 115:1 179:1 206:1 
-1.805251164942538 1:0.15384615 2:0.15384615 3:0.049160671 4:0.37012987 5:0.59750281 12:1 75:1 122:1 162:1 180:1 229:1 252:1 
-1.320749454309717 1:0.53846154 2:0.53846154 3:0.43884892 4:0.52380952 5:0.60016835 13:1 48:1 55:1 130:1 207:1 250:1 
-0.9798785344256752 1:0.61538462 2:0.61538462 3:0.14520736 4:0.59183673 5:0.64065285 38:1 45:1 60:1 110:1 128:1 146:1 251:1 
-2 1:0.53846154 2:0.53846154 3:0.43884892 4:0.42857143 5:0.63047138 23:1 55:1 143:1 200:1 241:1 256:1 
-1.639879813457162 1:0.30769231 2:0.30769231 3:0.25755396 4:0.52747253 5:0.60493827 12:1 157:1 191:1 200:1 216:1 229:1 251:1 
-1.71322733599986 1:0.69230769 2:0.69230769 3:0.34532374 4:0.43722944 5:0.53367003 11:1 138:1 154:1 210:1 237:1 
-2 1:0.61538462 2:0.61538462 3:0.45416299 4:0.51428571 5:0.71230827 41:1 43:1 142:1 193:1 214:1 252:1 
-2 1:0.38461538 2:0.38461538 3:0.4712787 4:0.42857143 5:0.63047138 13:1 41:1 53:1 93:1 192:1 244:1 
-1.0928003944978 1:0.15384615 2:0.15384615 3:0.44526732 4:0.32467532 5:0.59205618 12:1 63:1 99:1 160:1 232:1 235:1 253:1 
