svm_type c_svc
kernel_type rbf
gamma 0.0625
nr_class 2
total_sv 556
rho 10.8011
label 1 0
probA -4.57587
probB 0.216868
nr_sv 253 303
SV
2 1:0.61538462 2:0.61538462 3:0.33098224 4:0.42207792 5:0.65258922 47:1 127:1 138:1 
0.05797594727570732 1:0.38461538 2:0.38461538 3:0.47625682 4:0.37755102 5:0.66566367 120:1 157:1 233:1 
2 1:0.38461538 2:0.38461538 3:0.24381749 4:0.31632653 5:0.65182908 138:1 158:1 193:1 252:1 
0.7550801467757535 1:0.53846154 2:0.53846154 3:0.49738767 4:0.28571429 5:0.68064539 128:1 162:1 233:1 253:1 
1.656038159787486 1:0.46153846 2:0.46153846 3:0.38328109 4:0.17032967 5:0.70701542 126:1 138:1 210:1 253:1 
0.9949759445629868 1:0.61538462 2:0.61538462 3:0.41814699 4:0.42207792 5:0.6581636 92:1 122:1 233:1 
0.9731767059191158 1:0.46153846 2:0.46153846 3:0.54980843 4:0.44415584 5:0.66788958 39:1 65:1 107:1 246:1 
2 1:0.61538462 2:0.61538462 3:0.5 4:0.31428571 5:0.686133 42:1 154:1 221:1 246:1 
2 1:0.53846154 2:0.53846154 3:0.40229885 4:0.25714286 5:0.69184659 6:1 42:1 219:1 247:1 
0.05233727658852921 1:0.46153846 2:0.46153846 3:0.44033438 4:0.45054945 5:0.66492288 34:1 48:1 77:1 253:1 
1.434978042614769 1:0.53846154 2:0.53846154 3:0.40229885 4:0.57142857 5:0.66795792 165:1 203:1 221:1 252:1 
0.3677804633463874 1:0.38461538 2:0.38461538 3:0.54176245 4:0.53046953 5:0.66041178 23:1 101:1 180:1 255:1 
2 1:0.61538462 2:0.61538462 3:0.50957854 4:0.49090909 5:0.66125378 23:1 44:1 190:1 256:1 
0.5780928651741265 1:0.46153846 2:0.46153846 3:0.56078022 4:0.51948052 5:0.66281659 22:1 75:1 191:1 256:1 
2 1:0.61538462 2:0.61538462 3:0.50957854 4:0.57662338 5:0.65511417 22:1 164:1 191:1 255:1 
1.307232145787049 1:0.30769231 2:0.30769231 3:0.28607918 4:0.4174397 5:0.64379 180:1 218:1 241:1 255:1 
1.85814044738125 1:0.46153846 2:0.46153846 3:0.4656914 4:0.44805195 5:0.66157272 79:1 112:1 191:1 255:1 
1.522942420741825 1:0.53846154 2:0.53846154 3:0.4894636 4:0.50649351 5:0.65819651 78:1 142:1 191:1 255:1 
1.203317316216593 1:0.38461538 2:0.38461538 3:0.43984674 4:0.3 5:0.70489766 15:1 172:1 229:1 247:1 
1.714170825540317 1:0.61538462 2:0.61538462 3:0.4197318 4:0.2755102 5:0.72700026 50:1 173:1 198:1 248:1 
1.245762277731959 1:0.61538462 2:0.61538462 3:0.4197318 4:0.2755102 5:0.72700026 140:1 181:1 200:1 
1.261431502024957 1:0.84615385 2:0.84615385 3:0.46102037 4:0.42857143 5:0.66290825 32:1 80:1 106:1 248:1 
2 1:0.53846154 2:0.53846154 3:0.47203065 4:0.32142857 5:0.69689862 17:1 59:1 198:1 246:1 
0.9546900590415136 1:0.76923077 2:0.76923077 3:0.53014049 4:0.21428571 5:0.63730345 142:1 176:1 222:1 250:1 
0.7729353909554922 1:0.46153846 2:0.46153846 3:0.34750958 4:0.30952381 5:0.6513273 121:1 196:1 222:1 249:1 
2 1:0.46153846 2:0.46153846 3:0.42222222 4:0.4047619 5:0.65233255 121:1 137:1 222:1 251:1 
2 1:0.61538462 2:0.61538462 3:0.3848659 4:0.33673469 5:0.6503779 112:1 175:1 223:1 251:1 
2 1:0.53846154 2:0.53846154 3:0.40229885 4:0.32142857 5:0.6482495 65:1 121:1 175:1 
0.3954027177681019 1:0.46153846 2:0.46153846 3:0.34750958 4:0.4047619 5:0.6593693 64:1 121:1 165:1 
1.046096572884128 1:0.53846154 2:0.53846154 3:0.47203065 4:0.53571429 5:0.66770915 16:1 21:1 35:1 257:1 
2 1:0.38461538 2:0.38461538 3:0.4197318 4:0.25474525 5:0.67331248 12:1 31:1 51:1 77:1 78:1 102:1 253:1 
2 1:0.38461538 2:0.38461538 3:0.2105364 4:0.25474525 5:0.62587959 12:1 31:1 52:1 55:1 181:1 253:1 
2 1:0.46153846 2:0.46153846 3:0.36267851 4:0.37012987 5:0.65457152 92:1 102:1 120:1 245:1 254:1 264:1 
0.1487274764076233 1:0.30769231 2:0.30769231 3:0.4894636 4:0.27829314 5:0.68152202 52:1 54:1 208:1 252:1 
2 1:0.61538462 2:0.61538462 3:0.43582375 4:0.32727273 5:0.66538361 32:1 56:1 75:1 78:1 153:1 253:1 
0.3213374404028779 1:0.53846154 2:0.53846154 3:0.40229885 4:0.42857143 5:0.6567631 20:1 51:1 54:1 153:1 252:1 
2 1:0.38461538 2:0.38461538 3:0.4197318 4:0.25474525 5:0.67331248 18:1 51:1 54:1 76:1 153:1 253:1 
0.7166138935595271 1:0.46153846 2:0.46153846 3:0.26758969 4:0.37012987 5:0.64462056 13:1 19:1 122:1 243:1 
1.420046590031429 1:0.46153846 2:0.46153846 3:0.44878672 4:0.57927786 5:0.72081777 47:1 167:1 204:1 257:1 
1.711890338305562 1:0.53846154 2:0.53846154 3:0.29770115 4:0.36263736 5:0.8702111 81:1 91:1 205:1 256:1 
2 1:0.46153846 2:0.46153846 3:0.68122605 4:0.3956044 5:0.72791243 64:1 161:1 166:1 256:1 
1.278065165434471 1:0.61538462 2:0.61538462 3:0.45935214 4:0.32417582 5:0.74283887 19:1 76:1 127:1 257:1 
0.03063981994157248 1:0.61538462 2:0.61538462 3:0.37356322 4:0.56190476 5:0.55482047 120:1 130:1 237:1 
1.026679361996411 1:0.46153846 2:0.46153846 3:0.348659 4:0.63116883 5:0.59174168 77:1 84:1 131:1 249:1 264:1 
2 1:0.15384615 2:0.15384615 3:0.40623109 4:0.47619048 5:0.51602815 12:1 76:1 183:1 208:1 255:1 
0.7820422406491667 1:0.30769231 2:0.30769231 3:0.37821385 4:0.48979592 5:0.53704066 12:1 64:1 95:1 126:1 255:1 
1.415938306553012 1:0.46153846 2:0.46153846 3:0.29831283 4:0.85714286 5:0.63547911 12:1 19:1 39:1 93:1 192:1 225:1 255:1 
0.9003194064392736 1:0.38461538 2:0.38461538 3:0.48973346 4:0.57142857 5:0.62295911 12:1 20:1 41:1 88:1 93:1 219:1 255:1 
0.6712410826024594 1:0.46153846 2:0.46153846 3:0.53075217 4:0.51428571 5:0.61115455 12:1 20:1 40:1 51:1 65:1 93:1 257:1 
2 1:0.23076923 2:0.23076923 3:0.46102037 4:0.53571429 5:0.60568152 12:1 20:1 40:1 87:1 243:1 255:1 
2 1:0.61538462 2:0.61538462 3:0.39128857 4:0.57142857 5:0.60750586 12:1 18:1 41:1 95:1 127:1 225:1 
2 1:0.30769231 2:0.30769231 3:0.37821385 4:0.48979592 5:0.53704066 14:1 75:1 111:1 126:1 255:1 
2 1:0.23076923 2:0.23076923 3:0.39128857 4:0.42857143 5:0.6567631 14:1 64:1 95:1 123:1 160:1 256:1 
1.70242532543541 1:0.38461538 2:0.38461538 3:0.36667734 4:0.42857143 5:0.6567631 14:1 19:1 39:1 75:1 88:1 93:1 256:1 
2 1:0.46153846 2:0.46153846 3:0.35642267 4:0.51428571 5:0.565546 14:1 19:1 39:1 208:1 225:1 255:1 
0.1220092537205757 1:0.46153846 2:0.46153846 3:0.29831283 4:0.68571429 5:0.62128978 14:1 19:1 51:1 75:1 93:1 192:1 
0.2077885244818059 1:0.84615385 2:0.84615385 3:0.36400221 4:0.42857143 5:0.6567631 14:1 19:1 93:1 127:1 225:1 257:1 
2 1:0.76923077 2:0.76923077 3:0.3722708 5:0.67417727 14:1 19:1 76:1 93:1 128:1 225:1 
2 1:0.53846154 2:0.53846154 3:0.34724743 4:0.64285714 5:0.61931608 14:1 19:1 41:1 93:1 192:1 207:1 
1.084930500423006 1:0.61538462 2:0.61538462 3:0.39128857 4:0.57142857 5:0.60750586 14:1 19:1 41:1 93:1 148:1 225:1 255:1 
2 1:0.53846154 2:0.53846154 3:0.45735027 4:0.42857143 5:0.6567631 14:1 19:1 41:1 113:1 183:1 
0.3436463269282185 1:0.38461538 2:0.38461538 3:0.30514928 4:0.42857143 5:0.6567631 14:1 19:1 40:1 63:1 93:1 192:1 256:1 
2 1:0.46153846 2:0.46153846 3:0.35642267 4:0.34285714 5:0.74798019 14:1 18:1 39:1 93:1 111:1 126:1 
2 1:0.30769231 2:0.30769231 3:0.37821385 4:0.48979592 5:0.53704066 14:1 18:1 39:1 207:1 257:1 276:1 
2 1:0.30769231 2:0.30769231 3:0.37821385 4:0.6122449 5:0.61685562 14:1 18:1 111:1 219:1 227:1 255:1 
0.3215363890351238 1:0.23076923 2:0.23076923 3:0.39128857 4:0.42857143 5:0.6567631 112:1 192:1 243:1 256:1 
1.991450783418832 1:0.23076923 2:0.23076923 3:0.39128857 4:0.53571429 5:0.59108679 88:1 95:1 192:1 208:1 255:1 
2 1:0.53846154 2:0.53846154 3:0.51240169 4:0.42857143 5:0.6567631 19:1 51:1 65:1 93:1 112:1 257:1 
2 1:0.38461538 2:0.38461538 3:0.48973346 4:0.28571429 5:0.69056708 19:1 40:1 53:1 64:1 88:1 93:1 255:1 
1.034611201577274 1:0.38461538 2:0.38461538 3:0.48973346 4:0.28571429 5:0.69056708 20:1 75:1 160:1 208:1 
1.141990697463502 1:0.46153846 2:0.46153846 3:0.4145325 4:0.34285714 5:0.73277734 20:1 87:1 93:1 244:1 265:1 
1.473886162602352 1:0.30769231 2:0.30769231 3:0.44358742 4:0.36734694 5:0.75254105 20:1 76:1 160:1 192:1 255:1 
0.8692729079661625 1:0.38461538 2:0.38461538 3:0.4282054 4:0.42857143 5:0.6567631 20:1 52:1 75:1 93:1 192:1 256:1 
2 1:0.69230769 2:0.69230769 3:0.53075217 5:0.66588481 20:1 52:1 128:1 225:1 257:1 
2 1:0.53846154 2:0.53846154 3:0.51240169 4:0.21428571 5:0.67692688 20:1 41:1 88:1 93:1 172:1 225:1 256:1 
2 1:0.076923077 2:0.076923077 3:0.3430127 4:0.51428571 5:0.56203765 13:1 39:1 51:1 64:1 192:1 255:1 
0.8846129543885397 1:0.53846154 2:0.53846154 3:0.40229885 4:0.64285714 5:0.62507716 13:1 19:1 63:1 93:1 227:1 257:1 
0.6082266919018229 1:0.53846154 2:0.53846154 3:0.40229885 4:0.21428571 5:0.68844904 13:1 19:1 75:1 93:1 128:1 256:1 
0.3184268327967089 1:0.53846154 2:0.53846154 3:0.29219601 4:0.64285714 5:0.613555 13:1 19:1 95:1 192:1 225:1 
2 1:0.61538462 2:0.61538462 3:0.28669087 4:0.28571429 5:0.72243941 13:1 19:1 194:1 209:1 225:1 266:1 
2 1:0.23076923 2:0.23076923 3:0.39128857 4:0.10714286 5:0.6786552 13:1 19:1 52:1 88:1 160:1 256:1 
1.445914629214813 1:0.46153846 2:0.46153846 3:0.35642267 4:0.17142857 5:0.6871688 13:1 19:1 40:1 225:1 244:1 
2 1:0.46153846 2:0.46153846 3:0.47264233 4:0.17142857 5:0.67703356 13:1 20:1 41:1 128:1 192:1 256:1 
2 1:0.38461538 2:0.38461538 3:0.4282054 5:0.67125052 13:1 18:1 52:1 126:1 257:1 
2 1:0.23076923 2:0.23076923 3:0.32155677 4:0.42857143 5:0.6567631 13:1 18:1 40:1 93:1 192:1 207:1 255:1 
2 1:0.30769231 2:0.30769231 3:0.22528736 4:0.38241758 5:0.64624974 12:1 45:1 84:1 144:1 162:1 253:1 
1.781310802523362 1:0.076923077 2:0.076923077 3:0.34482759 4:0.46071429 5:0.65174759 12:1 84:1 108:1 123:1 216:1 252:1 
2 1:0.23076923 2:0.23076923 3:0.29501916 4:0.33061224 5:0.65430725 12:1 86:1 123:1 216:1 222:1 253:1 
2 1:0.61538462 2:0.61538462 3:0.34482759 4:0.41904762 5:0.653423 12:1 86:1 92:1 164:1 
2 1:0.23076923 2:0.23076923 3:0.41123883 4:0.33061224 5:0.66494925 12:1 76:1 123:1 235:1 252:1 265:1 
0.8923478354514269 1:0.38461538 2:0.38461538 3:0.45350052 4:0.44285714 5:0.65924127 12:1 20:1 75:1 216:1 236:1 252:1 
1.076413473627072 1:0.38461538 2:0.38461538 3:0.26332288 4:0.3 5:0.65327069 12:1 20:1 37:1 84:1 223:1 253:1 
0.8286799747538025 1:0.46153846 2:0.46153846 3:0.38218391 4:0.35844156 5:0.65984543 12:1 20:1 37:1 84:1 164:1 
2 1:0.38461538 2:0.38461538 3:0.26332288 4:0.3 5:0.65327069 12:1 18:1 84:1 146:1 200:1 253:1 
0.008626355380329589 1:0.38461538 2:0.38461538 3:0.26332288 4:0.37142857 5:0.64953908 14:1 84:1 108:1 200:1 253:1 
1.775111688009974 1:0.30769231 2:0.30769231 3:0.43448276 4:0.31648352 5:0.66883683 14:1 76:1 124:1 216:1 
2 1:0.46153846 2:0.46153846 3:0.12068966 4:0.35844156 5:0.63834426 14:1 19:1 38:1 84:1 234:1 264:1 
2 1:0.53846154 2:0.53846154 3:0.24137931 4:0.34285714 5:0.64886931 14:1 20:1 38:1 216:1 236:1 253:1 
2 1:0.38461538 2:0.38461538 3:0.45350052 4:0.44285714 5:0.65924127 36:1 46:1 64:1 75:1 266:1 
2 1:0.30769231 2:0.30769231 3:0.43448276 4:0.44835165 5:0.65774862 36:1 75:1 144:1 188:1 252:1 
2 1:0.38461538 2:0.38461538 3:0.54858934 4:0.44285714 5:0.66521184 47:1 65:1 75:1 222:1 264:1 
0.157274576828875 1:0.53846154 2:0.53846154 3:0.40229885 4:0.51428571 5:0.65307933 45:1 63:1 144:1 152:1 
2 1:0.38461538 2:0.38461538 3:0.16823406 4:0.44285714 5:0.64132955 45:1 84:1 146:1 180:1 253:1 
0.251126692124033 1:0.69230769 2:0.69230769 3:0.43448276 4:0.51428571 5:0.65476334 45:1 77:1 224:1 
2 1:0.61538462 2:0.61538462 3:0.41954023 4:0.41904762 5:0.65844925 45:1 76:1 128:1 200:1 252:1 
2 1:0.38461538 2:0.38461538 3:0.54858934 4:0.51428571 5:0.66073391 46:1 75:1 123:1 128:1 144:1 252:1 
0.4072787322292885 1:0.30769231 2:0.30769231 3:0.32988506 4:0.44835165 5:0.6512805 46:1 84:1 180:1 216:1 253:1 
2 1:0.38461538 2:0.38461538 3:0.3584117 4:0.51428571 5:0.65078295 46:1 84:1 180:1 188:1 216:1 252:1 
2 1:0.30769231 2:0.30769231 3:0.32988506 4:0.38241758 5:0.65415522 63:1 84:1 162:1 216:1 254:1 
2 1:0.38461538 2:0.38461538 3:0.64367816 4:0.44285714 5:0.67118241 63:1 77:1 125:1 252:1 
0.2491887243611846 1:0.53846154 2:0.53846154 3:0.40229885 4:0.42857143 5:0.6567631 86:1 125:1 236:1 252:1 
1.003607714056426 1:0.30769231 2:0.30769231 3:0.43448276 4:0.38241758 5:0.6620607 85:1 123:1 144:1 236:1 252:1 
2 1:0.30769231 2:0.30769231 3:0.43448276 4:0.31648352 5:0.66883683 76:1 84:1 152:1 217:1 252:1 
2 1:0.15384615 2:0.15384615 3:0.51293103 4:0.34285714 5:0.67255067 64:1 75:1 180:1 216:1 253:1 
2 1:0.38461538 2:0.38461538 3:0.45350052 4:0.37142857 5:0.66446552 64:1 84:1 164:1 180:1 200:1 216:1 
1.07910031975161 1:0.23076923 2:0.23076923 3:0.29501916 4:0.33061224 5:0.65430725 13:1 36:1 84:1 109:1 
1.514548680123009 1:0.23076923 2:0.23076923 3:0.41123883 4:0.26938776 5:0.67381757 13:1 18:1 36:1 123:1 222:1 252:1 
1.494273373740072 1:0.53846154 2:0.53846154 3:0.52535497 4:0.28571429 5:0.67125052 40:1 46:1 101:1 116:1 253:1 
1.737270129263708 1:0.61538462 2:0.61538462 3:0.49459094 4:0.54285714 5:0.67125052 29:1 45:1 65:1 116:1 264:1 
1.827747888320014 1:0.38461538 2:0.38461538 3:0.30268199 4:0.51515152 5:0.52124055 12:1 24:1 30:1 76:1 105:1 251:1 
2 1:0.30769231 2:0.30769231 3:0.33437827 4:0.33333333 5:0.64396901 12:1 26:1 30:1 42:1 75:1 88:1 
0.6435618213453345 1:0.69230769 2:0.69230769 3:0.41163793 4:0.29251701 5:0.62956085 12:1 32:1 44:1 211:1 
1.322681239293042 1:0.53846154 2:0.53846154 3:0.32758621 4:0.52380952 5:0.55121188 12:1 30:1 42:1 57:1 107:1 251:1 
1.201914270373964 1:0.61538462 2:0.61538462 3:0.23295019 4:0.36904762 5:0.67266093 14:1 26:1 43:1 100:1 249:1 
0.02801915618505502 1:0.61538462 2:0.61538462 3:0.23295019 4:0.36904762 5:0.67266093 14:1 25:1 31:1 211:1 251:1 
2 1:0.69230769 2:0.69230769 3:0.21551724 4:0.29251701 5:0.65350534 14:1 25:1 31:1 43:1 117:1 
2 1:0.61538462 2:0.61538462 3:0.37241379 4:0.36904762 5:0.64347146 57:1 105:1 210:1 232:1 
0.5287458001500089 1:0.61538462 2:0.61538462 3:0.37241379 4:0.58333333 5:0.59968726 44:1 117:1 156:1 251:1 
1.771256100136474 1:0.61538462 2:0.61538462 3:0.44214559 4:0.47619048 5:0.62157936 42:1 77:1 107:1 141:1 
2 1:0.61538462 2:0.61538462 3:0.51187739 4:0.58333333 5:0.62887673 32:1 58:1 76:1 107:1 251:1 
1.571234915644629 1:0.69230769 2:0.69230769 3:0.47701149 4:0.29251701 5:0.62157936 32:1 42:1 57:1 89:1 
1.638628874228651 1:0.38461538 2:0.38461538 3:0.38984674 4:0.59307359 5:0.60485622 13:1 100:1 107:1 119:1 251:1 
0.5808754875328879 1:0.38461538 2:0.38461538 3:0.37324393 4:0.45306122 5:0.63699939 12:1 24:1 100:1 141:1 176:1 253:1 
2 1:0.23076923 2:0.23076923 3:0.33588761 4:0.75238095 5:0.75388759 12:1 71:1 120:1 168:1 240:1 
2 1:0.23076923 2:0.23076923 3:0.33588761 4:0.56190476 5:0.83832856 12:1 69:1 84:1 100:1 156:1 241:1 
2 1:0.61538462 2:0.61538462 3:0.30442966 4:0.51428571 5:0.73277734 12:1 69:1 109:1 176:1 213:1 
1.33274730052157 1:0.30769231 2:0.30769231 3:0.35581098 4:0.72857143 5:0.75831813 12:1 108:1 135:1 215:1 254:1 
0.7947723958564755 1:0.38461538 2:0.38461538 3:0.37324393 4:0.69795918 5:0.76470333 12:1 101:1 141:1 156:1 240:1 
2 1:0.15384615 2:0.15384615 3:0.39335888 4:0.68571429 5:0.76961502 12:1 100:1 108:1 143:1 156:1 252:1 
2 1:0.23076923 2:0.23076923 3:0.41060026 4:0.56190476 5:0.87351229 12:1 100:1 109:1 120:1 143:1 
2 1:0.53846154 2:0.53846154 3:0.34418902 4:0.6 5:0.79358874 14:1 24:1 41:1 143:1 176:1 254:1 
2 1:0.46153846 2:0.46153846 3:0.32709789 4:0.37142857 5:0.69897336 24:1 110:1 121:1 176:1 
0.1855392482615345 1:0.53846154 2:0.53846154 3:0.46040868 4:0.42857143 5:0.64156025 24:1 41:1 44:1 176:1 252:1 
0.1684781213779787 1:0.61538462 2:0.61538462 3:0.24937823 4:0.94285714 5:0.73997869 26:1 69:1 143:1 213:1 252:1 
2 1:0.61538462 2:0.61538462 3:0.35948108 4:0.3 5:0.70685248 26:1 101:1 122:1 176:1 
0.4861903843931772 1:0.46153846 2:0.46153846 3:0.38862595 4:0.65714286 5:0.77623961 39:1 70:1 141:1 241:1 252:1 
1.747747033060413 1:0.23076923 2:0.23076923 3:0.41060026 4:0.65714286 5:0.77968899 71:1 84:1 100:1 240:1 252:1 
2 1:0.30769231 2:0.30769231 3:0.42554278 4:0.62142857 5:0.79845365 71:1 101:1 168:1 240:1 253:1 
2 1:0.53846154 2:0.53846154 3:0.46040868 4:0.42857143 5:0.64156025 71:1 85:1 101:1 176:1 
2 1:0.46153846 2:0.46153846 3:0.32709789 4:0.51428571 5:0.73277734 69:1 84:1 101:1 122:1 241:1 
1.70085604461245 1:0.38461538 2:0.38461538 3:0.37324393 4:0.45306122 5:0.63699939 69:1 85:1 100:1 168:1 
2 1:0.53846154 2:0.53846154 3:0.40229885 4:0.6 5:0.80879159 70:1 86:1 101:1 122:1 136:1 142:1 252:1 
2 1:0.23076923 2:0.23076923 3:0.4853129 4:0.75238095 5:0.76796108 99:1 120:1 135:1 143:1 252:1 
2 1:0.30769231 2:0.30769231 3:0.35581098 4:0.62142857 5:0.78385892 99:1 120:1 141:1 156:1 253:1 
1.317511261106358 1:0.53846154 2:0.53846154 3:0.28607918 4:0.6 5:0.77838589 99:1 170:1 213:1 254:1 
2 1:0.15384615 2:0.15384615 3:0.31289911 4:0.6 5:0.78540259 108:1 120:1 192:1 240:1 253:1 
1.487347893242898 1:0.46153846 2:0.46153846 3:0.38862595 4:0.65714286 5:0.77623961 108:1 143:1 176:1 204:1 
1.394171646107599 1:0.53846154 2:0.53846154 3:0.28607918 4:0.77142857 5:0.74798019 141:1 156:1 214:1 228:1 254:1 
2 1:0.30769231 2:0.30769231 3:0.49527458 4:0.51428571 5:0.73277734 101:1 120:1 135:1 229:1 
0.3784015080173766 1:0.30769231 2:0.30769231 3:0.42554278 4:0.51428571 5:0.73277734 101:1 121:1 168:1 252:1 
2 1:0.46153846 2:0.46153846 3:0.45015401 4:0.51428571 5:0.73277734 64:1 70:1 86:1 101:1 122:1 136:1 142:1 252:1 
1.574818285423421 1:0.30769231 2:0.30769231 3:0.42554278 4:0.19285714 5:0.71088524 64:1 109:1 174:1 253:1 
2 1:0.53846154 2:0.53846154 3:0.34418902 4:0.6 5:0.79358874 44:1 71:1 215:1 253:1 278:1 
2 1:0.69230769 2:0.69230769 3:0.32094508 4:0.37142857 5:0.69993919 44:1 141:1 158:1 214:1 253:1 
1.013089589409384 1:0.69230769 2:0.69230769 3:0.26864623 4:0.37142857 5:0.70814873 44:1 206:1 213:1 254:1 
1.011671731581947 1:0.38461538 2:0.38461538 3:0.37324393 4:0.45306122 5:0.63699939 42:1 99:1 141:1 156:1 253:1 
1.888249806292875 1:0.53846154 2:0.53846154 3:0.34418902 4:0.42857143 5:0.67196595 42:1 100:1 141:1 215:1 254:1 
1.691935933772898 1:0.46153846 2:0.46153846 3:0.38862595 4:0.51428571 5:0.73277734 42:1 65:1 141:1 156:1 252:1 
1.656715098431107 1:0.38461538 2:0.38461538 3:0.4386175 4:0.45306122 5:0.6130549 41:1 43:1 63:1 192:1 253:1 
0.7995022714421021 1:0.53846154 2:0.53846154 3:0.40229885 4:0.6 5:0.80879159 40:1 71:1 176:1 215:1 254:1 
2 1:0.38461538 2:0.38461538 3:0.30787037 4:0.45306122 5:0.66094388 13:1 24:1 141:1 176:1 192:1 253:1 
2 1:0.53846154 2:0.53846154 3:0.28607918 4:0.42857143 5:0.6871688 13:1 69:1 176:1 206:1 252:1 
1.697628836459077 1:0.38461538 2:0.38461538 3:0.37324393 4:0.5755102 5:0.82855529 13:1 42:1 143:1 215:1 252:1 
0.9938698673210373 1:0.38461538 2:0.38461538 3:0.4386175 4:0.5755102 5:0.85249978 13:1 41:1 204:1 214:1 252:1 
0.2170899123313179 1:0.53846154 2:0.53846154 3:0.52535497 4:0.42857143 5:0.63744653 12:1 41:1 52:1 56:1 250:1 
2 1:0.38461538 2:0.38461538 3:0.50074375 4:0.35714286 5:0.65772892 25:1 40:1 53:1 100:1 249:1 
2 1:0.23076923 2:0.23076923 3:0.5354232 4:0.46428571 5:0.67218708 12:1 24:1 39:1 52:1 63:1 236:1 
2 1:0.23076923 2:0.23076923 3:0.44033438 4:0.53571429 5:0.64979743 12:1 24:1 51:1 63:1 229:1 250:1 
1.272074170591831 1:0.38461538 2:0.38461538 3:0.33793103 4:0.49285714 5:0.64013352 12:1 26:1 40:1 195:1 206:1 250:1 
1.176903857576308 1:0.23076923 2:0.23076923 3:0.34524556 4:0.39285714 5:0.64979743 12:1 25:1 40:1 64:1 235:1 251:1 264:1 
1.189773319570454 1:0.53846154 2:0.53846154 3:0.40229885 4:0.64285714 5:0.64216836 14:1 24:1 41:1 119:1 236:1 251:1 
2 1:0.38461538 2:0.38461538 3:0.33793103 4:0.49285714 5:0.64013352 14:1 26:1 51:1 64:1 68:1 204:1 251:1 
2 1:0.23076923 2:0.23076923 3:0.44033438 4:0.53571429 5:0.64979743 14:1 26:1 40:1 51:1 63:1 195:1 251:1 
2 1:0.53846154 2:0.53846154 3:0.40229885 4:0.42857143 5:0.6567631 14:1 25:1 53:1 65:1 158:1 250:1 
2 1:0.38461538 2:0.38461538 3:0.65977011 4:0.49285714 5:0.68223372 24:1 39:1 53:1 65:1 196:1 250:1 
2 1:0.61538462 2:0.61538462 3:0.42844828 4:0.62755102 5:0.64444879 24:1 51:1 117:1 140:1 250:1 
2 1:0.30769231 2:0.30769231 3:0.3848659 4:0.67207792 5:0.64044537 24:1 111:1 204:1 215:1 228:1 250:1 
2 1:0.46153846 2:0.46153846 3:0.29770115 4:0.36904762 5:0.63487099 13:1 26:1 40:1 175:1 204:1 250:1 
2 1:0.38461538 2:0.38461538 3:0.25747126 4:0.57857143 5:0.63136264 13:1 25:1 119:1 132:1 213:1 251:1 
2 1:0.38461538 2:0.38461538 3:0.25747126 4:0.38571429 5:0.64055452 14:1 24:1 36:1 44:1 174:1 252:1 
2 1:0.30769231 2:0.30769231 3:0.29770115 4:0.40909091 5:0.64581704 24:1 84:1 92:1 229:1 252:1 
2 1:0.30769231 2:0.30769231 3:0.29770115 4:0.40909091 5:0.64581704 36:1 68:1 85:1 123:1 228:1 254:1 
2 1:0.30769231 2:0.30769231 3:0.3848659 4:0.48701299 5:0.6529841 36:1 44:1 84:1 92:1 111:1 228:1 252:1 
0.02197044616991522 1:0.30769231 2:0.30769231 3:0.29770115 4:0.40909091 5:0.64581704 85:1 228:1 239:1 253:1 
2 1:0.38461538 2:0.38461538 3:0.25747126 4:0.3 5:0.63529199 85:1 91:1 220:1 230:1 252:1 
2 1:0.30769231 2:0.30769231 3:0.29770115 4:0.40909091 5:0.64581704 66:1 84:1 91:1 111:1 252:1 276:1 
2 1:0.30769231 2:0.30769231 3:0.35704023 4:0.69795918 5:0.77034592 12:1 47:1 60:1 96:1 179:1 246:1 
2 1:0.38461538 2:0.38461538 3:0.37428161 4:0.46938776 5:0.64975893 24:1 46:1 73:1 192:1 246:1 
2 1:0.53846154 2:0.53846154 3:0.33692529 4:0.55102041 5:0.60089262 45:1 60:1 72:1 154:1 246:1 
1.342969625406832 1:0.61538462 2:0.61538462 3:0.3523073 4:0.6122449 5:0.69667058 46:1 73:1 153:1 167:1 
2 1:0.61538462 2:0.61538462 3:0.3523073 4:0.6122449 5:0.69667058 37:1 46:1 108:1 153:1 179:1 248:1 
2 1:0.53846154 2:0.53846154 3:0.40229885 4:0.18367347 5:0.67956737 37:1 46:1 109:1 128:1 246:1 
1.968960110909463 1:0.46153846 2:0.46153846 3:0.31949234 4:0.29081633 5:0.67964338 13:1 25:1 46:1 122:1 246:1 
0.1226854154176032 1:0.46153846 2:0.46153846 3:0.18002874 4:0.73469388 5:0.68070758 12:1 24:1 36:1 213:1 249:1 266:1 
0.3958296433377659 1:0.15384615 2:0.15384615 3:0.31315308 4:0.73469388 5:0.68070758 12:1 24:1 60:1 72:1 120:1 
2 1:0.15384615 2:0.15384615 3:0.4082419 4:0.73469388 5:0.68070758 12:1 24:1 96:1 108:1 208:1 251:1 
2 1:0.38461538 2:0.38461538 3:0.29956897 4:0.87755102 5:0.71589132 12:1 24:1 96:1 155:1 165:1 251:1 
2 1:0.46153846 2:0.46153846 3:0.31949234 4:0.62755102 5:0.62962601 12:1 38:1 72:1 153:1 244:1 250:1 
0.1708969996822113 1:0.30769231 2:0.30769231 3:0.35704023 4:0.82040816 5:0.75438293 12:1 47:1 60:1 96:1 179:1 
0.2893171357505647 1:0.30769231 2:0.30769231 3:0.35704023 4:0.82040816 5:0.75438293 12:1 46:1 60:1 96:1 144:1 251:1 
1.460204571427059 1:0.23076923 2:0.23076923 3:0.24976054 4:0.77365492 5:0.78104639 12:1 60:1 96:1 120:1 153:1 276:1 
1.391846199996875 1:0.46153846 2:0.46153846 3:0.31949234 4:0.73469388 5:0.68070758 12:1 62:1 179:1 207:1 249:1 
2 1:0.61538462 2:0.61538462 3:0.16772312 4:0.73469388 5:0.68070758 14:1 26:1 38:1 46:1 120:1 153:1 251:1 
1.841106880183906 1:0.53846154 2:0.53846154 3:0.27155172 4:0.55102041 5:0.6567631 14:1 25:1 46:1 61:1 153:1 251:1 
1.752525113303445 1:0.53846154 2:0.53846154 3:0.33692529 4:0.79591837 5:0.77648554 36:1 46:1 72:1 165:1 251:1 
2 1:0.53846154 2:0.53846154 3:0.33692529 4:0.91836735 5:0.71263357 45:1 60:1 84:1 179:1 215:1 250:1 
2 1:0.69230769 2:0.69230769 3:0.42409004 4:0.82040816 5:0.77192468 46:1 60:1 154:1 166:1 251:1 
2 1:0.30769231 2:0.30769231 3:0.35704023 4:0.90612245 5:0.71754526 72:1 144:1 167:1 179:1 192:1 251:1 
2 1:0.61538462 2:0.61538462 3:0.3523073 4:0.73469388 5:0.68070758 37:1 46:1 108:1 153:1 179:1 250:1 
1.129463832549148 1:0.53846154 2:0.53846154 3:0.40229885 4:0.30612245 5:0.66360438 37:1 46:1 109:1 128:1 
0.8910340673460495 1:0.38461538 2:0.38461538 3:0.37428161 4:0.59183673 5:0.63379593 25:1 46:1 97:1 108:1 251:1 
2 1:0.61538462 2:0.61538462 3:0.49818008 4:0.56632653 5:0.64323256 34:1 112:1 190:1 251:1 
2 1:0.69230769 2:0.69230769 3:0.27514086 4:0.32142857 5:0.66402469 86:1 206:1 235:1 250:1 
1.587194859063136 1:0.61538462 2:0.61538462 3:0.36743295 4:0.44387755 5:0.65919555 101:1 206:1 235:1 251:1 
0.4546207692792879 1:0.46153846 2:0.46153846 3:0.59157088 4:0.51190476 5:0.63808531 53:1 99:1 112:1 250:1 
1.743977406027244 1:0.53846154 2:0.53846154 3:0.54176245 4:0.53571429 5:0.64095213 53:1 112:1 191:1 250:1 
1.754681432194185 1:0.53846154 2:0.53846154 3:0.40229885 4:0.71428571 5:0.910086 12:1 34:1 179:1 207:1 249:1 
2 1:0.38461538 2:0.38461538 3:0.47701149 4:0.47186147 5:0.6387803 12:1 96:1 102:1 208:1 250:1 
0.2586215234151621 1:0.46153846 2:0.46153846 3:0.31609195 4:0.40952381 5:0.66740843 24:1 54:1 218:1 
1.022843358784109 1:0.53846154 2:0.53846154 3:0.32758621 4:0.52380952 5:0.64034402 35:1 50:1 54:1 251:1 
2 1:0.69230769 2:0.69230769 3:0.47701149 4:0.36054422 5:0.6606724 34:1 56:1 208:1 250:1 
1.397730310420633 1:0.46153846 2:0.46153846 3:0.31609195 4:0.4952381 5:0.65162086 72:1 217:1 225:1 241:1 250:1 
2 1:0.53846154 2:0.53846154 3:0.40229885 4:0.42857143 5:0.6567631 56:1 72:1 122:1 208:1 250:1 
2 1:0.46153846 2:0.46153846 3:0.39655172 4:0.32380952 5:0.67003969 54:1 72:1 82:1 97:1 104:1 217:1 
1.216668028253507 1:0.46153846 2:0.46153846 3:0.31609195 4:0.4952381 5:0.65162086 54:1 72:1 242:1 250:1 276:1 
2 1:0.46153846 2:0.46153846 3:0.47701149 4:0.23809524 5:0.67161845 54:1 102:1 208:1 
0.8678204785076347 1:0.53846154 2:0.53846154 3:0.40229885 4:0.42857143 5:0.6567631 13:1 35:1 54:1 250:1 
2 1:0.30769231 2:0.30769231 3:0.47701149 4:0.5952381 5:0.53479281 13:1 155:1 207:1 216:1 
2 1:0.53846154 2:0.53846154 3:0.32758621 4:0.52380952 5:0.64034402 13:1 56:1 129:1 144:1 251:1 
2 1:0.38461538 2:0.38461538 3:0.47701149 4:0.39393939 5:0.65598124 13:1 54:1 83:1 102:1 131:1 208:1 
2 1:0.61538462 2:0.61538462 3:0.21264368 4:0.38095238 5:0.72713057 127:1 157:1 163:1 249:1 264:1 
0.7183453328238403 1:0.69230769 2:0.69230769 3:0.39693487 4:0.42857143 5:0.6567631 128:1 142:1 162:1 249:1 264:1 
0.7212932761180568 1:0.69230769 2:0.69230769 3:0.3151341 4:0.56643357 5:0.60659369 12:1 57:1 129:1 227:1 248:1 
2 1:0.46153846 2:0.46153846 3:0.57662835 4:0.46624804 5:0.59291113 39:1 75:1 226:1 246:1 
0.3920502147734068 1:0.46153846 2:0.46153846 3:0.651341 4:0.35294118 5:0.60507341 51:1 138:1 222:1 257:1 
0.4442556795465497 1:0.38461538 2:0.38461538 3:0.7908046 4:0.47619048 5:0.80453479 51:1 89:1 191:1 256:1 
0.1353485951465491 1:0.53846154 2:0.53846154 3:0.40229885 4:0.53571429 5:0.64112588 119:1 189:1 239:1 256:1 
0.7537768788474323 1:0.46153846 2:0.46153846 3:0.47701149 4:0.35294118 5:0.6567631 155:1 174:1 198:1 256:1 
2 1:0.61538462 2:0.61538462 3:0.60775862 4:0.4 5:0.55414386 54:1 130:1 238:1 256:1 
2 1:0.69230769 2:0.69230769 3:0.53512133 4:0.36734694 5:0.63547911 54:1 103:1 166:1 257:1 
2 1:0.61538462 2:0.61538462 3:0.40229885 4:0.56103896 5:0.4241595 10:1 24:1 44:1 59:1 73:1 92:1 251:1 
0.6989141959594383 1:0.61538462 2:0.61538462 3:0.24137931 4:0.56103896 5:0.4031094 26:1 38:1 239:1 250:1 
0.1327959690991999 1:0.53846154 2:0.53846154 3:0.22796935 4:0.42857143 5:0.55642429 26:1 37:1 43:1 59:1 
-0.00393980168623064 1:0.53846154 2:0.53846154 3:0.40229885 4:0.42857143 5:0.6567631 13:1 21:1 39:1 42:1 75:1 200:1 249:1 
-0.8834016655569225 1:0.61538462 2:0.61538462 3:0.56896552 4:0.41904762 5:0.66850175 20:1 38:1 65:1 77:1 123:1 188:1 
-0.4444504157049087 1:0.38461538 2:0.38461538 3:0.24869383 4:0.38571429 5:0.64419682 63:1 78:1 98:1 144:1 153:1 228:1 246:1 
-0.4875144926387003 1:0.23076923 2:0.23076923 3:0.46206897 4:0.43589744 5:0.65050821 16:1 28:1 168:1 204:1 224:1 253:1 
-2 1:0.30769231 2:0.30769231 3:0.32758621 4:0.42032967 5:0.67240031 12:1 76:1 167:1 186:1 240:1 246:1 
-1.95142683388961 1:0.46153846 2:0.46153846 3:0.59157088 4:0.60714286 5:0.62401181 53:1 112:1 190:1 204:1 233:1 251:1 
-1.77229224754981 1:0.61538462 2:0.61538462 3:0.34683037 4:0.47402597 5:0.62870693 18:1 75:1 103:1 122:1 227:1 238:1 
-2 1:0.38461538 2:0.38461538 3:0.4282054 4:0.28571429 5:0.70022536 40:1 64:1 93:1 149:1 193:1 225:1 256:1 
-2 1:0.53846154 2:0.53846154 3:0.21771467 4:0.42857143 5:0.68573794 26:1 86:1 117:1 169:1 
-1.91876788805405 1:0.53846154 2:0.53846154 3:0.40229885 4:0.6 5:0.80879159 39:1 44:1 101:1 170:1 215:1 254:1 
-2 1:0.69230769 2:0.69230769 3:0.53075217 5:0.66588481 19:1 41:1 128:1 160:1 225:1 245:1 
-1.033612600769172 1:0.38461538 2:0.38461538 3:0.2105364 4:0.51848152 5:0.64312792 12:1 30:1 91:1 155:1 180:1 215:1 252:1 
-2 1:0.61538462 2:0.61538462 3:0.33098224 4:0.34415584 5:0.65736726 140:1 164:1 181:1 235:1 252:1 
-0.8929991086449136 1:0.46153846 2:0.46153846 3:0.26556983 4:0.51428571 5:0.73277734 39:1 43:1 109:1 122:1 213:1 228:1 
-1.711974321827164 1:0.46153846 2:0.46153846 3:0.21800766 4:0.41666667 5:0.66924805 14:1 25:1 35:1 85:1 158:1 234:1 250:1 
-1.612407156216092 1:0.76923077 2:0.76923077 3:0.33256705 4:0.49675325 5:0.45061246 92:1 154:1 175:1 204:1 212:1 251:1 
-1.611525526080435 1:0.76923077 2:0.76923077 3:0.42744253 4:0.36734694 5:0.63281861 22:1 42:1 115:1 142:1 198:1 251:1 
-2 1:0.38461538 2:0.38461538 3:0.54176245 4:0.3986014 5:0.67938494 76:1 114:1 191:1 200:1 216:1 255:1 
-1.29600162386731 1:0.46153846 2:0.46153846 3:0.44878672 4:0.3956044 5:0.72791243 13:1 31:1 81:1 104:1 160:1 219:1 255:1 
-0.5340435868181954 1:0.15384615 2:0.15384615 3:0.47381865 4:0.34285714 5:0.68541462 13:1 24:1 63:1 100:1 176:1 193:1 253:1 
-1.192416591365986 1:0.38461538 2:0.38461538 3:0.47701149 4:0.47186147 5:0.6387803 13:1 72:1 102:1 130:1 179:1 208:1 
-0.5672565553328123 1:0.61538462 2:0.61538462 3:0.26781609 4:0.45238095 5:0.66614543 56:1 102:1 129:1 144:1 153:1 216:1 
-1.877743000487435 1:0.46153846 2:0.46153846 3:0.44878672 4:0.51805338 5:0.71727044 18:1 32:1 75:1 167:1 206:1 227:1 255:1 
-2 1:0.38461538 2:0.38461538 3:0.29956897 4:0.65986395 5:0.80222179 12:1 24:1 46:1 60:1 109:1 153:1 
-2 1:0.53846154 2:0.53846154 3:0.34077079 4:0.71428571 5:0.71471278 26:1 107:1 117:1 144:1 244:1 250:1 
-0.861083021980236 1:0.38461538 2:0.38461538 3:0.33256705 4:0.46453546 5:0.64685953 23:1 43:1 75:1 111:1 134:1 158:1 256:1 
-1.437221409928242 1:0.69230769 2:0.69230769 3:0.42424242 4:0.37142857 5:0.6475776 20:1 55:1 92:1 219:1 235:1 252:1 
-0.1739498193344733 1:0.69230769 2:0.69230769 3:0.32094508 4:0.65714286 5:0.7656155 39:1 44:1 69:1 86:1 142:1 213:1 253:1 
-0.637138111940268 1:0.46153846 2:0.46153846 3:0.38922414 4:0.52040816 5:0.64786943 24:1 96:1 128:1 145:1 153:1 244:1 250:1 
-0.5002873369956468 1:0.46153846 2:0.46153846 3:0.069487983 4:0.3021978 5:0.63586609 19:1 31:1 61:1 85:1 192:1 235:1 252:1 
-0.9302259874922422 1:0.53846154 2:0.53846154 3:0.70114943 4:0.42857143 5:0.6567631 51:1 89:1 138:1 200:1 237:1 255:1 
-0.8872360489322337 1:0.69230769 2:0.69230769 3:0.38362069 4:0.4829932 5:0.6548736 15:1 27:1 93:1 175:1 224:1 237:1 
-0.4380975003208299 1:0.46153846 2:0.46153846 3:0.24976054 4:0.62755102 5:0.64422075 98:1 108:1 121:1 153:1 165:1 208:1 251:1 
-0.06859611014741751 1:0.76923077 2:0.76923077 3:0.39224138 4:0.69795918 5:0.60922496 14:1 58:1 84:1 106:1 122:1 166:1 250:1 
-2 1:0.53846154 2:0.53846154 3:0.34724743 4:0.64285714 5:0.61931608 13:1 19:1 77:1 93:1 192:1 225:1 255:1 
-2 1:0.61538462 2:0.61538462 3:0.29077924 4:0.59183673 5:0.6469036 26:1 36:1 46:1 61:1 128:1 213:1 251:1 
-1.686248008449214 1:0.61538462 2:0.61538462 3:0.32183908 4:0.38961039 5:0.35574668 10:1 108:1 140:1 170:1 174:1 
-2 1:0.30769231 2:0.30769231 3:0.4894636 4:0.21706865 5:0.71344801 51:1 121:1 136:1 138:1 164:1 253:1 
-2 1:0.53846154 2:0.53846154 3:0.27924273 4:0.57142857 5:0.69056708 26:1 101:1 107:1 206:1 218:1 
-2 1:0.53846154 2:0.53846154 3:0.40229885 4:0.33333333 5:0.66882609 14:1 54:1 96:1 102:1 209:1 250:1 
-1.837793570042488 1:0.46153846 2:0.46153846 3:0.51168207 4:0.37142857 5:0.66999852 42:1 101:1 137:1 205:1 215:1 
-1.853638404064443 1:0.46153846 2:0.46153846 3:0.23563218 4:0.40952381 5:0.67442513 13:1 54:1 97:1 129:1 216:1 249:1 
-1.829784192386966 1:0.23076923 2:0.23076923 3:0.53075217 4:0.32142857 5:0.69324993 12:1 52:1 88:1 126:1 209:1 221:1 255:1 
-1.031254349575929 1:0.46153846 2:0.46153846 3:0.43716475 4:0.46428571 5:0.66406046 33:1 49:1 123:1 156:1 224:1 257:1 
-2 1:0.38461538 2:0.38461538 3:0.37614943 4:0.36703297 5:0.83053167 14:1 64:1 138:1 161:1 206:1 255:1 
-1.291794979621462 1:0.61538462 2:0.61538462 3:0.32183908 4:0.64675325 5:0.39433853 57:1 72:1 155:1 205:1 238:1 250:1 
-1.416906605855037 1:0.61538462 2:0.61538462 3:0.54493208 4:0.24675325 5:0.67915275 8:1 20:1 87:1 91:1 150:1 196:1 
-2 1:0.46153846 2:0.46153846 3:0.43582375 4:0.47532468 5:0.67535735 19:1 77:1 122:1 148:1 159:1 251:1 
-0.5000147344183767 1:0.69230769 2:0.69230769 3:0.37324393 4:0.65714286 5:0.77382504 41:1 44:1 142:1 175:1 213:1 240:1 252:1 
-0.4794383794448971 1:0.23076923 2:0.23076923 3:0.14420063 4:0.33928571 5:0.64212098 62:1 85:1 120:1 194:1 231:1 253:1 
-0.5461062691565908 1:0.76923077 2:0.76923077 3:0.40229885 4:0.28246753 5:0.24628616 44:1 58:1 73:1 92:1 212:1 
-0.1951411045264878 1:0.076923077 2:0.076923077 3:0.50393224 4:0.42857143 5:0.6567631 12:1 41:1 87:1 183:1 208:1 244:1 256:1 
-2 1:0.46153846 2:0.46153846 3:0.36384381 4:0.34693878 5:0.62336154 76:1 116:1 127:1 144:1 252:1 
-2 1:0.46153846 2:0.46153846 3:0.31609195 4:0.40952381 5:0.66740843 14:1 72:1 102:1 208:1 218:1 250:1 
-2 1:0.23076923 2:0.23076923 3:0.37060258 4:0.46428571 5:0.64847063 13:1 28:1 121:1 130:1 216:1 252:1 
-2 1:0.46153846 2:0.46153846 3:0.31609195 4:0.40952381 5:0.66740843 12:1 54:1 102:1 131:1 218:1 
-2 1:0.30769231 2:0.30769231 3:0.37821385 4:0.48979592 5:0.53704066 14:1 111:1 126:1 183:1 243:1 
-2 1:0.38461538 2:0.38461538 3:0.56936462 4:0.33061224 5:0.67690687 39:1 44:1 65:1 101:1 109:1 253:1 
-2 1:0.46153846 2:0.46153846 3:0.40229885 4:0.6038961 5:0.41047694 36:1 44:1 59:1 155:1 204:1 
-0.3592961115370529 1:0.46153846 2:0.46153846 3:0.40229885 4:0.6038961 5:0.41047694 10:1 36:1 59:1 154:1 204:1 229:1 
-2 1:0.61538462 2:0.61538462 3:0.44358742 5:0.67044566 14:1 19:1 52:1 93:1 124:1 128:1 257:1 
-2 1:0.46153846 2:0.46153846 3:0.51381846 4:0.26530612 5:0.66662259 12:1 40:1 53:1 56:1 157:1 188:1 
-1.430948940170373 1:0.38461538 2:0.38461538 3:0.56417625 4:0.51515152 5:0.67174876 24:1 32:1 59:1 77:1 88:1 207:1 
-2 1:0.38461538 2:0.38461538 3:0.47739464 4:0.32142857 5:0.66406046 23:1 49:1 100:1 222:1 257:1 
-0.6406663813049515 1:0.61538462 2:0.61538462 3:0.16772312 4:0.46938776 5:0.68218315 14:1 45:1 127:1 145:1 165:1 192:1 
-2 1:0.61538462 2:0.61538462 3:0.47701149 4:0.28571429 5:0.6567631 31:1 52:1 69:1 138:1 176:1 256:1 
-2 1:0.69230769 2:0.69230769 3:0.29501916 4:0.51428571 5:0.64746597 14:1 46:1 75:1 151:1 187:1 
-0.2701612187533194 1:0.38461538 2:0.38461538 3:0.1059387 4:0.32067932 5:0.6211363 13:1 19:1 75:1 121:1 139:1 230:1 252:1 
-2 1:0.46153846 2:0.46153846 3:0.23563218 4:0.4952381 5:0.66214591 12:1 55:1 72:1 103:1 216:1 241:1 250:1 
-0.6379832204820295 1:0.53846154 2:0.53846154 3:0.28607918 4:0.25714286 5:0.71757449 42:1 101:1 141:1 158:1 194:1 229:1 
-2 1:0.46153846 2:0.46153846 3:0.26758969 4:0.2987013 5:0.64213282 13:1 20:1 92:1 122:1 229:1 252:1 
-0.5088155352201793 1:0.46153846 2:0.46153846 3:0.43678161 4:0.73333333 5:0.61807101 12:1 59:1 89:1 119:1 158:1 209:1 251:1 
-1.773698650130059 1:0.46153846 2:0.46153846 3:0.24976054 4:0.39795918 5:0.67842716 38:1 60:1 109:1 146:1 166:1 246:1 
-1.034685143209565 1:0.46153846 2:0.46153846 3:0.45210728 4:0.67857143 5:0.72843367 52:1 89:1 108:1 129:1 143:1 203:1 
-1.488036809746763 1:0.15384615 2:0.15384615 3:0.42720307 4:0.54421769 5:0.63891061 40:1 60:1 70:1 112:1 168:1 216:1 253:1 
-0.4170812250421799 1:0.61538462 2:0.61538462 3:0.20114943 4:0.21904762 5:0.63922135 42:1 79:1 97:1 153:1 230:1 241:1 248:1 
-1.688435715059804 1:0.30769231 2:0.30769231 3:0.35704023 4:0.6122449 5:0.69667058 13:1 47:1 73:1 108:1 153:1 207:1 
-0.2994986543991859 1:0.61538462 2:0.61538462 3:0.12835249 4:0.3452381 5:0.6868213 26:1 50:1 54:1 81:1 103:1 120:1 
-0.07875855684156015 1:0.46153846 2:0.46153846 3:0.24976054 4:0.30612245 5:0.67158587 25:1 38:1 121:1 128:1 153:1 193:1 
-2 1:0.38461538 2:0.38461538 3:0.34378265 4:0.24285714 5:0.68400065 18:1 78:1 107:1 126:1 229:1 240:1 
-2 1:0.30769231 2:0.30769231 3:0.47701149 4:0.38095238 5:0.65793589 13:1 54:1 208:1 216:1 
-0.916175983399945 1:0.46153846 2:0.46153846 3:0.47264233 4:0.34285714 5:0.71757449 76:1 93:1 125:1 127:1 160:1 183:1 
-0.7114030136635071 1:0.30769231 2:0.30769231 3:0.4894636 4:0.4619666 5:0.66236643 12:1 75:1 120:1 135:1 187:1 245:1 
-2 1:0.15384615 2:0.15384615 3:0.38218391 4:0.34285714 5:0.66114853 13:1 37:1 46:1 108:1 123:1 217:1 252:1 
-0.9628530882081539 1:0.23076923 2:0.23076923 3:0.4894636 4:0.43376623 5:0.66601512 75:1 99:1 133:1 141:1 156:1 241:1 257:1 
-0.3086134057711122 1:0.53846154 2:0.53846154 3:0.46382691 4:0.42857143 5:0.64710482 24:1 41:1 130:1 182:1 186:1 233:1 
-2 1:0.53846154 2:0.53846154 3:0.56321839 4:0.34285714 5:0.67693611 65:1 77:1 144:1 222:1 236:1 
-1.008037960295839 1:0.53846154 2:0.53846154 3:0.25287356 4:0.33333333 5:0.67083659 41:1 69:1 85:1 156:1 175:1 223:1 253:1 
-0.6547561378647164 1:0.15384615 2:0.15384615 3:0.43716475 4:0.50274725 5:0.55095126 29:1 51:1 108:1 120:1 217:1 222:1 252:1 
-1.593789936239607 1:0.30769231 2:0.30769231 3:0.28683386 4:0.52380952 5:0.64674106 13:1 24:1 54:1 120:1 129:1 216:1 
-1.885834555841823 1:0.38461538 2:0.38461538 3:0.55021479 4:0.47959184 5:0.66519377 20:1 39:1 64:1 75:1 84:1 201:1 
-2 1:0.30769231 2:0.30769231 3:0.42554278 4:0.72857143 5:0.7656155 24:1 39:1 63:1 71:1 108:1 176:1 254:1 
-2 1:0.23076923 2:0.23076923 3:0.39128857 4:0.32142857 5:0.72243941 12:1 19:1 64:1 95:1 172:1 244:1 256:1 
-0.4437969080341355 1:0.46153846 2:0.46153846 3:0.21212121 4:0.53246753 5:0.4079892 24:1 57:1 73:1 92:1 194:1 228:1 251:1 
-2 1:0.38461538 2:0.38461538 3:0.40229885 4:0.35664336 36:1 84:1 92:1 109:1 210:1 
-2 1:0.46153846 2:0.46153846 3:0.45015401 4:0.37142857 5:0.6796568 25:1 101:1 122:1 135:1 176:1 
-0.9873682349432898 1:0.076923077 2:0.076923077 3:0.32958387 4:0.64285714 5:0.73534638 24:1 52:1 72:1 84:1 144:1 169:1 251:1 
-0.928916476570896 1:0.23076923 2:0.23076923 3:0.33256705 4:0.42081448 5:0.57284337 14:1 102:1 159:1 183:1 205:1 255:1 
-0.09574596150221271 1:0.38461538 2:0.38461538 3:0.37060258 4:0.28571429 5:0.67915275 8:1 48:1 148:1 195:1 222:1 235:1 253:1 
-2 1:0.53846154 2:0.53846154 3:0.33692529 4:0.42857143 5:0.66155199 38:1 73:1 146:1 166:1 245:1 
-1.227616048150573 1:0.30769231 2:0.30769231 3:0.14661558 4:0.40714286 5:0.72547998 25:1 85:1 108:1 141:1 158:1 170:1 253:1 
-2 1:0.61538462 2:0.61538462 3:0.29077924 4:0.73469388 5:0.68070758 24:1 46:1 61:1 165:1 179:1 213:1 
-0.2258768652764744 1:0.53846154 2:0.53846154 3:0.56321839 4:0.25714286 5:0.69623203 76:1 123:1 128:1 188:1 217:1 236:1 
-0.05305683439612646 1:0.30769231 2:0.30769231 3:0.47701149 4:0.31578947 5:0.6567631 24:1 52:1 54:1 91:1 174:1 219:1 256:1 
-0.218014785737113 1:0.61538462 2:0.61538462 3:0.41814699 4:0.18831169 5:0.70275863 30:1 46:1 61:1 68:1 90:1 162:1 
-2 1:0.076923077 2:0.076923077 3:0.42347247 4:0.42857143 5:0.6567631 12:1 39:1 76:1 184:1 208:1 255:1 
-0.7526513505389221 1:0.38461538 2:0.38461538 3:0.43716475 4:0.3986014 5:0.66515507 22:1 36:1 162:1 180:1 200:1 240:1 256:1 
-0.6094326273568726 1:0.53846154 2:0.53846154 3:0.48275862 4:0.25714286 5:0.64097552 40:1 43:1 76:1 82:1 112:1 127:1 
-1.230917204534286 1:0.53846154 2:0.53846154 3:0.40229885 4:0.53571429 5:0.68230388 28:1 63:1 81:1 111:1 141:1 175:1 
-2 1:0.46153846 2:0.46153846 3:0.46934866 4:0.43636364 5:0.66064177 13:1 45:1 75:1 125:1 164:1 252:1 
-2 1:0.38461538 2:0.38461538 3:0.4386175 4:0.5755102 5:0.85249978 42:1 65:1 69:1 84:1 101:1 192:1 252:1 
-1.040948639350703 1:0.46153846 2:0.46153846 3:0.29501916 4:0.35844156 5:0.65267837 13:1 46:1 84:1 146:1 162:1 200:1 252:1 
-2 1:0.38461538 2:0.38461538 3:0.36128014 4:0.67857143 5:0.72705392 51:1 56:1 74:1 84:1 168:1 251:1 
-2 1:0.61538462 2:0.61538462 3:0.40727969 4:0.45238095 5:0.65155069 54:1 131:1 177:1 208:1 250:1 
-1.960033902285336 1:0.61538462 2:0.61538462 3:0.30205939 4:0.68877551 5:0.68314004 26:1 64:1 84:1 141:1 179:1 214:1 249:1 
-2 1:0.38461538 2:0.38461538 3:0.45350052 4:0.3 5:0.67317261 12:1 85:1 123:1 162:1 200:1 224:1 252:1 
-2 1:0.23076923 2:0.23076923 3:0.41060026 4:0.65714286 5:0.77968899 12:1 39:1 86:1 99:1 143:1 229:1 
-2 1:0.46153846 2:0.46153846 3:0.4656914 4:0.30519481 5:0.7113275 37:1 42:1 76:1 79:1 191:1 257:1 
-1.091502327253196 1:0.23076923 2:0.23076923 3:0.46102037 4:0.64285714 5:0.63122231 12:1 64:1 77:1 171:1 183:1 225:1 255:1 
-2 1:0.30769231 2:0.30769231 3:0.49527458 4:0.62142857 5:0.81304839 42:1 63:1 71:1 101:1 192:1 240:1 
-2 1:0.30769231 2:0.30769231 3:0.47701149 4:0.66666667 5:0.69898358 12:1 24:1 34:1 48:1 96:1 208:1 250:1 
-2 1:0.46153846 2:0.46153846 3:0.31949234 4:0.6122449 5:0.69667058 24:1 46:1 86:1 96:1 121:1 178:1 
-0.7616634328214418 1:0.23076923 2:0.23076923 3:0.30395913 4:0.42857143 5:0.6567631 13:1 39:1 44:1 156:1 229:1 241:1 251:1 
-1.280074484840189 1:0.38461538 2:0.38461538 3:0.2105364 4:0.25474525 5:0.62587959 12:1 78:1 163:1 181:1 230:1 244:1 
-0.8099529103849815 1:0.61538462 2:0.61538462 3:0.30268199 4:0.58333333 5:0.58509252 24:1 57:1 76:1 141:1 171:1 211:1 249:1 
-2 1:0.53846154 2:0.53846154 3:0.32758621 4:0.71428571 5:0.87490227 35:1 50:1 179:1 192:1 250:1 
-0.4363286651473087 1:0.38461538 2:0.38461538 3:0.4386175 4:0.45306122 5:0.6130549 24:1 41:1 43:1 109:1 137:1 215:1 253:1 
-0.6328384914252352 1:0.30769231 2:0.30769231 3:0.31284029 4:0.48979592 5:0.51309617 14:1 75:1 95:1 124:1 127:1 192:1 256:1 
-0.8963169813901872 1:0.38461538 2:0.38461538 3:0.59979101 4:0.42857143 5:0.6567631 12:1 23:1 64:1 76:1 101:1 198:1 250:1 
-1.659061853092008 1:0.23076923 2:0.23076923 3:0.40229885 4:0.53246753 5:0.43784206 84:1 120:1 192:1 205:1 239:1 
-0.4180368042847925 1:0.46153846 2:0.46153846 3:0.64367816 4:0.43636364 5:0.67179053 12:1 65:1 77:1 108:1 125:1 200:1 
-0.8354395592171008 1:0.38461538 2:0.38461538 3:0.42911877 4:0.45 5:0.64062469 13:1 38:1 89:1 100:1 156:1 202:1 
-2 1:0.38461538 2:0.38461538 3:0.38984674 4:0.51515152 5:0.57140996 12:1 100:1 106:1 172:1 175:1 192:1 251:1 
-0.5602182071079445 1:0.38461538 2:0.38461538 3:0.12759782 4:0.25510204 5:0.64296075 19:1 30:1 66:1 86:1 181:1 192:1 252:1 
-2 1:0.46153846 2:0.46153846 3:0.38862595 4:0.37142857 5:0.68931508 12:1 41:1 100:1 141:1 176:1 194:1 253:1 
-2 1:0.69230769 2:0.69230769 3:0.43155695 4:0.41428571 5:0.65954745 20:1 92:1 127:1 192:1 233:1 
-2 1:0.69230769 2:0.69230769 3:0.53512133 4:0.6122449 5:0.66385776 51:1 69:1 154:1 190:1 237:1 255:1 
-1.03877294220957 1:0.76923077 2:0.76923077 3:0.23132184 4:0.36734694 5:0.70465207 14:1 21:1 100:1 115:1 163:1 189:1 
-0.9124974120261516 1:0.53846154 2:0.53846154 3:0.32758621 4:0.61904762 5:0.63565285 16:1 60:1 71:1 95:1 117:1 223:1 
-1.395445107210084 1:0.61538462 2:0.61538462 3:0.31949234 4:0.45918367 5:0.67112979 16:1 120:1 141:1 175:1 203:1 223:1 
-1.097751758384902 1:0.38461538 2:0.38461538 3:0.40229885 4:0.62037962 5:0.40656763 25:1 58:1 72:1 120:1 154:1 192:1 251:1 
-0.1246173780146464 1:0.53846154 2:0.53846154 3:0.40229885 4:0.74025974 5:0.38919295 10:1 24:1 58:1 72:1 108:1 238:1 251:1 
-0.9975752962553737 1:0.38461538 2:0.38461538 3:0.30268199 4:0.47186147 5:0.65884806 14:1 24:1 54:1 131:1 146:1 208:1 
-0.3874146471197779 1:0.15384615 2:0.15384615 3:0.55427842 4:0.42857143 5:0.6170018 40:1 63:1 101:1 109:1 135:1 242:1 253:1 
-1.553308681382089 1:0.30769231 2:0.30769231 3:0.42554278 4:0.40714286 5:0.66710103 12:1 41:1 85:1 101:1 193:1 206:1 
-1.138148465877364 1:0.46153846 2:0.46153846 3:0.40229885 4:0.46103896 5:0.51993745 25:1 108:1 140:1 193:1 238:1 251:1 
-2 1:0.53846154 2:0.53846154 3:0.34724743 4:0.42857143 5:0.6567631 88:1 93:1 124:1 127:1 192:1 225:1 
-0.286849496214346 1:0.84615385 2:0.84615385 3:0.36909323 4:0.75238095 5:0.70124229 70:1 93:1 117:1 143:1 190:1 238:1 253:1 
-0.1169742023735558 1:0.46153846 2:0.46153846 3:0.44033438 4:0.38461538 5:0.6554363 112:1 117:1 149:1 184:1 223:1 252:1 
-0.2311734249500601 1:0.46153846 2:0.46153846 3:0.55651341 4:0.43636364 5:0.66621615 47:1 65:1 125:1 180:1 234:1 
-0.3232027974882835 1:0.23076923 2:0.23076923 3:0.39128857 4:0.64285714 5:0.62392494 12:1 88:1 194:1 207:1 219:1 226:1 255:1 
-0.03067570238583092 1:0.53846154 2:0.53846154 3:0.54176245 4:0.21428571 5:0.63122231 15:1 29:1 57:1 80:1 138:1 172:1 246:1 
-2 1:0.69230769 2:0.69230769 3:0.35696239 4:0.28571429 5:0.67125052 46:1 126:1 146:1 235:1 
-0.5969693810063629 1:0.46153846 2:0.46153846 3:0.29770115 4:0.26190476 5:0.64581704 24:1 138:1 158:1 174:1 189:1 208:1 
-2 1:0.30769231 2:0.30769231 3:0.29770115 4:0.40909091 5:0.64581704 14:1 24:1 42:1 84:1 219:1 238:1 253:1 
-0.8010796375126461 1:0.46153846 2:0.46153846 3:0.31949234 4:0.71938776 5:0.74775215 24:1 60:1 108:1 128:1 155:1 165:1 
-1.158674142827093 1:0.30769231 2:0.30769231 3:0.47701149 4:0.30952381 5:0.66614543 13:1 49:1 54:1 102:1 208:1 251:1 
-0.2823352214948986 1:0.23076923 2:0.23076923 3:0.33588761 4:0.27619048 5:0.7116671 25:1 71:1 100:1 170:1 174:1 241:1 253:1 
-0.03482145715353603 1:0.61538462 2:0.61538462 3:0.34626437 4:0.57142857 5:0.63623925 24:1 70:1 117:1 131:1 222:1 239:1 
-0.4019670913971202 1:0.53846154 2:0.53846154 3:0.021943574 4:0.5 5:0.63337835 7:1 45:1 60:1 120:1 163:1 180:1 254:1 
-0.6082511876111811 1:0.46153846 2:0.46153846 3:0.45776733 4:0.44155844 5:0.66079086 12:1 54:1 104:1 135:1 154:1 180:1 
-0.8621681928460539 1:0.53846154 2:0.53846154 3:0.54176245 4:0.21428571 5:0.58378942 25:1 63:1 68:1 112:1 140:1 236:1 
-2 1:0.23076923 2:0.23076923 3:0.52745849 4:0.51428571 5:0.65962825 14:1 47:1 63:1 75:1 84:1 123:1 
-0.5941659043654269 1:0.15384615 2:0.15384615 3:0.53927203 4:0.26298701 5:0.69650769 13:1 20:1 52:1 75:1 181:1 244:1 252:1 
-2 1:0.61538462 2:0.61538462 3:0.47701149 4:0.45238095 5:0.64425332 12:1 34:1 102:1 208:1 226:1 250:1 
-0.5219489488062011 1:0.23076923 2:0.23076923 3:0.35747126 4:0.56776557 5:0.64712015 40:1 47:1 85:1 112:1 143:1 170:1 252:1 
-2 1:0.53846154 2:0.53846154 3:0.40229885 4:0.28571429 5:0.67069443 84:1 92:1 211:1 232:1 236:1 253:1 
-2 1:0.53846154 2:0.53846154 3:0.47701149 4:0.42857143 5:0.64972635 54:1 104:1 155:1 179:1 208:1 
-1.013903453768469 1:0.61538462 2:0.61538462 3:0.60048397 4:0.28571429 5:0.67318217 19:1 40:1 65:1 125:1 221:1 225:1 257:1 
-2 1:0.38461538 2:0.38461538 3:0.29154834 4:0.67857143 5:0.71245918 14:1 24:1 51:1 117:1 145:1 168:1 250:1 
-0.3041421048944981 1:0.61538462 2:0.61538462 3:0.3848659 4:0.33673469 5:0.6503779 65:1 83:1 122:1 136:1 175:1 223:1 
-1.367791272283018 1:0.69230769 2:0.69230769 3:0.51304936 4:0.46428571 5:0.66867498 41:1 68:1 91:1 171:1 197:1 249:1 
-2 1:0.38461538 2:0.38461538 3:0.30514928 4:0.71428571 5:0.62537368 14:1 64:1 93:1 192:1 219:1 225:1 255:1 
-1.454590537474795 1:0.23076923 2:0.23076923 3:0.39128857 4:0.10714286 5:0.6786552 13:1 18:1 40:1 127:1 148:1 183:1 256:1 
-1.329537267956348 1:0.30769231 2:0.30769231 3:0.5243295 4:0.43831169 5:0.6807836 17:1 23:1 76:1 100:1 206:1 255:1 
-0.2111705923352377 1:0.38461538 2:0.38461538 3:0.2467433 4:0.57857143 5:0.67498313 13:1 26:1 121:1 143:1 177:1 231:1 
-0.1236603194969871 1:0.61538462 2:0.61538462 3:0.45023946 4:0.58163265 5:0.70305577 65:1 121:1 141:1 165:1 196:1 202:1 251:1 
-1.834983689737635 1:0.46153846 2:0.46153846 3:0.30721003 4:0.67532468 5:0.38933115 38:1 59:1 84:1 228:1 239:1 250:1 
-0.4508364039218972 1:0.46153846 2:0.46153846 3:0.30721003 4:0.53246753 5:0.42291563 11:1 24:1 38:1 84:1 109:1 176:1 250:1 
-0.265255984838562 1:0.38461538 2:0.38461538 3:0.6289272 4:0.32067932 5:0.69228564 12:1 53:1 136:1 138:1 188:1 209:1 252:1 
-2 1:0.46153846 2:0.46153846 3:0.53639847 4:0.46753247 5:0.7571019 12:1 41:1 112:1 143:1 162:1 200:1 251:1 
-2 1:0.30769231 2:0.30769231 3:0.53908046 4:0.51428571 5:0.66023636 47:1 65:1 75:1 144:1 180:1 
-0.01897695841161794 1:0.46153846 2:0.46153846 3:0.46934866 4:0.43636364 5:0.66064177 20:1 63:1 84:1 92:1 123:1 187:1 252:1 
-0.6705861060420579 1:0.61538462 2:0.61538462 3:0.36426332 4:0.32417582 5:0.77269173 13:1 19:1 91:1 138:1 185:1 191:1 
-2 1:0.38461538 2:0.38461538 3:0.62904911 4:0.31428571 5:0.7063903 41:1 76:1 78:1 120:1 221:1 
-1.040312591264775 1:0.30769231 2:0.30769231 3:0.46172936 4:0.32857143 5:0.6700725 30:1 68:1 120:1 156:1 192:1 208:1 
-2 1:0.38461538 2:0.38461538 3:0.56417625 4:0.35930736 5:0.60485622 42:1 58:1 88:1 100:1 232:1 251:1 
-1.594855329433854 1:0.30769231 2:0.30769231 3:0.37324393 4:0.33951763 5:0.6566907 12:1 30:1 53:1 79:1 180:1 243:1 253:1 
-2 1:0.30769231 2:0.30769231 3:0.73850575 4:0.4962406 5:0.74341934 11:1 24:1 51:1 87:1 198:1 257:1 
-0.7761348731533335 1:0.46153846 2:0.46153846 3:0.36206897 4:0.23376623 5:0.6567631 22:1 42:1 100:1 163:1 229:1 241:1 
-2 1:0.38461538 2:0.38461538 3:0.22181654 4:0.46428571 5:0.68326971 14:1 55:1 73:1 169:1 204:1 251:1 
-2 1:0.53846154 2:0.53846154 3:0.40229885 4:0.61904762 5:0.60046912 28:1 71:1 93:1 168:1 176:1 191:1 
-2 1:0.53846154 2:0.53846154 3:0.40229885 4:0.53571429 5:0.6482495 80:1 107:1 156:1 173:1 194:1 
-0.4980584499020811 1:0.23076923 2:0.23076923 3:0.58109834 4:0.33061224 5:0.61809328 40:1 59:1 76:1 90:1 148:1 160:1 
-0.4242421306929625 1:0.76923077 2:0.76923077 3:0.29770115 4:0.40714286 5:0.63487099 14:1 53:1 67:1 86:1 92:1 175:1 251:1 
-1.15748094213392 1:0.46153846 2:0.46153846 3:0.47701149 4:0.4952381 5:0.63057076 13:1 24:1 82:1 102:1 154:1 208:1 251:1 
-1.073713201536602 1:0.69230769 2:0.69230769 3:0.43155695 4:0.32857143 5:0.66744124 19:1 46:1 66:1 162:1 209:1 236:1 252:1 
-0.6431807769795905 1:0.46153846 2:0.46153846 3:0.64794497 4:0.37012987 5:0.68442438 20:1 32:1 51:1 120:1 137:1 245:1 253:1 
-1.190367557093709 1:0.23076923 2:0.23076923 3:0.57662835 4:0.47012987 5:0.66825408 12:1 51:1 76:1 155:1 209:1 215:1 253:1 
-0.5656378269745896 1:0.53846154 2:0.53846154 3:0.40229885 4:0.49450549 5:0.6567631 13:1 39:1 44:1 83:1 179:1 187:1 
-2 1:0.53846154 2:0.53846154 3:0.28607918 4:0.42857143 5:0.6871688 26:1 44:1 70:1 121:1 206:1 252:1 
-2 1:0.30769231 2:0.30769231 3:0.46172936 4:0.38571429 5:0.66385315 127:1 157:1 207:1 231:1 252:1 
-0.4090810345623934 1:0.76923077 2:0.76923077 3:0.32319135 4:0.47619048 5:0.62157936 31:1 58:1 105:1 141:1 158:1 232:1 
-0.8314252143499329 1:0.69230769 2:0.69230769 3:0.46455939 4:0.39393939 5:0.66366953 14:1 30:1 53:1 91:1 137:1 154:1 
-0.6376110572370071 1:0.30769231 2:0.30769231 3:0.41108857 4:0.52380952 5:0.58501587 14:1 41:1 52:1 119:1 169:1 217:1 251:1 
-0.2193199613382524 1:0.53846154 2:0.53846154 3:0.6637931 4:0.35064935 5:0.68973156 53:1 92:1 135:1 140:1 245:1 253:1 
-2 1:0.30769231 2:0.30769231 3:0.47701149 4:0.45112782 5:0.6567631 25:1 51:1 54:1 119:1 167:1 256:1 
-0.7172011660018281 1:0.53846154 2:0.53846154 3:0.57662835 4:0.25714286 5:0.69223641 41:1 44:1 63:1 101:1 174:1 214:1 253:1 
-1.739117945601076 1:0.30769231 2:0.30769231 3:0.37821385 4:0.48979592 5:0.53704066 14:1 19:1 39:1 65:1 147:1 193:1 255:1 
-1.667356335177904 1:0.69230769 2:0.69230769 3:0.53075217 4:0.42857143 5:0.6567631 14:1 18:1 94:1 161:1 185:1 226:1 
-0.8716332413790426 1:0.46153846 2:0.46153846 3:0.24976054 4:0.6122449 5:0.69667058 47:1 60:1 74:1 146:1 167:1 246:1 
-1.955863044839985 1:0.61538462 2:0.61538462 3:0.49693487 4:0.45238095 5:0.6452958 39:1 46:1 169:1 176:1 190:1 
-0.7160757890845106 1:0.38461538 2:0.38461538 3:0.48973346 4:0.57142857 5:0.62295911 14:1 53:1 95:1 185:1 207:1 244:1 
-2 1:0.61538462 2:0.61538462 3:0.63209683 4:0.4025974 5:0.69587588 20:1 56:1 77:1 111:1 202:1 253:1 
-2 1:0.38461538 2:0.38461538 3:0.47625682 4:0.43877551 5:0.66069741 46:1 121:1 156:1 207:1 
-1.467258740403193 1:0.23076923 2:0.23076923 3:0.38810007 4:0.48571429 5:0.63794183 25:1 100:1 105:1 204:1 216:1 232:1 
-1.157754275003058 1:0.38461538 2:0.38461538 3:0.37060258 4:0.34693878 5:0.61530078 6:1 19:1 50:1 87:1 111:1 184:1 
-0.2837540767407059 1:0.61538462 2:0.61538462 3:0.22925118 4:0.59183673 5:0.65656188 37:1 46:1 120:1 165:1 177:1 194:1 
-2 1:0.53846154 2:0.53846154 3:0.40229885 4:0.67346939 5:0.56098514 46:1 72:1 166:1 194:1 232:1 251:1 
-2 1:0.76923077 2:0.76923077 3:0.34516565 4:0.66666667 5:0.67083659 45:1 70:1 119:1 176:1 191:1 254:1 
-1.02951542393021 1:0.76923077 2:0.76923077 3:0.33256705 4:0.28246753 5:0.2608809 84:1 128:1 139:1 176:1 210:1 250:1 
-2 1:0.61538462 2:0.61538462 3:0.58098659 4:0.33673469 5:0.63601121 17:1 35:1 161:1 176:1 222:1 
-0.4368721251717892 1:0.53846154 2:0.53846154 3:0.40229885 4:0.53571429 5:0.69324993 68:1 88:1 158:1 179:1 203:1 224:1 252:1 
-2 1:0.53846154 2:0.53846154 3:0.47203065 4:0.53571429 5:0.65797932 56:1 84:1 190:1 221:1 228:1 
-2 1:0.38461538 2:0.38461538 3:0.50470219 4:0.5 5:0.7015424 12:1 22:1 64:1 101:1 143:1 217:1 
-1.988944277393446 1:0.46153846 2:0.46153846 3:0.31949234 4:0.6122449 5:0.69667058 86:1 96:1 165:1 207:1 215:1 246:1 
-2 1:0.61538462 2:0.61538462 3:0.37060258 4:0.24675325 5:0.77949155 6:1 55:1 112:1 223:1 
-1.385445173262435 1:0.30769231 2:0.30769231 3:0.35581098 4:0.62142857 5:0.78385892 12:1 41:1 100:1 158:1 170:1 215:1 252:1 
-2 1:0.30769231 2:0.30769231 3:0.42554278 4:0.3 5:0.69993919 26:1 64:1 99:1 176:1 193:1 253:1 
-2 1:0.38461538 2:0.38461538 3:0.30268199 4:0.51515152 5:0.52124055 12:1 24:1 31:1 99:1 211:1 243:1 
-0.05884243830499766 1:0.46153846 2:0.46153846 3:0.51187739 4:0.6547619 5:0.66908671 34:1 50:1 75:1 99:1 215:1 236:1 255:1 
-0.1013102835279775 1:0.46153846 2:0.46153846 3:0.51724138 4:0.56190476 5:0.63210441 43:1 87:1 143:1 173:1 192:1 244:1 250:1 
-0.0902738152233617 1:0.53846154 2:0.53846154 3:0.50689655 4:0.36263736 5:0.72791243 19:1 46:1 64:1 76:1 139:1 239:1 256:1 
-1.263190096018149 1:0.69230769 2:0.69230769 3:0.19017764 4:0.41428571 5:0.64375988 20:1 32:1 122:1 158:1 192:1 235:1 
-1.854339615674498 1:0.53846154 2:0.53846154 3:0.27155172 4:0.55102041 5:0.62483711 14:1 108:1 122:1 153:1 207:1 214:1 246:1 
-2 1:0.46153846 2:0.46153846 3:0.24976054 4:0.50510204 5:0.66018374 60:1 84:1 97:1 122:1 128:1 153:1 
-2 1:0.38461538 2:0.38461538 3:0.42720307 4:0.47186147 5:0.65076883 27:1 112:1 118:1 216:1 222:1 254:1 
-0.9430930004433972 1:0.53846154 2:0.53846154 3:0.52535497 4:0.28571429 5:0.67125052 39:1 116:1 128:1 145:1 221:1 
-0.7203028323534351 1:0.30769231 2:0.30769231 3:0.42554278 4:0.19285714 5:0.71088524 44:1 65:1 121:1 205:1 241:1 253:1 
-0.4726658554102413 1:0.46153846 2:0.46153846 3:0.29847025 4:0.34693878 5:0.59941705 12:1 116:1 126:1 146:1 179:1 234:1 252:1 
-2 1:0.46153846 2:0.46153846 3:0.39655172 4:0.40952381 5:0.66039173 13:1 56:1 72:1 217:1 226:1 
-1.463264743931715 1:0.61538462 2:0.61538462 3:0.41938998 4:0.48571429 5:0.62975568 53:1 118:1 129:1 144:1 186:1 
-0.1002963868426717 1:0.84615385 2:0.84615385 3:0.55172414 4:0.38461538 5:0.63330727 23:1 42:1 94:1 166:1 188:1 248:1 
-2 1:0.53846154 2:0.53846154 3:0.56321839 4:0.51428571 5:0.66149937 20:1 47:1 75:1 123:1 128:1 
-0.7138875323698035 1:0.15384615 2:0.15384615 3:0.31289911 4:0.77142857 5:0.75031909 24:1 71:1 109:1 168:1 215:1 228:1 252:1 
-1.252454713375022 1:0.46153846 2:0.46153846 3:0.49459094 4:0.2244898 5:0.67125052 29:1 76:1 89:1 102:1 115:1 252:1 
-2 1:0.30769231 2:0.30769231 3:0.22528736 4:0.44835165 5:0.64481238 36:1 84:1 110:1 123:1 151:1 252:1 
-0.7288307356520934 1:0.23076923 2:0.23076923 3:0.59247649 4:0.39285714 5:0.67235293 46:1 120:1 157:1 207:1 231:1 253:1 
-2 1:0.23076923 2:0.23076923 3:0.41497736 4:0.60714286 5:0.65173234 12:1 52:1 112:1 135:1 141:1 156:1 
-0.6967384849528802 1:0.15384615 2:0.15384615 3:0.51293103 4:0.22857143 5:0.6999158 37:1 64:1 75:1 92:1 109:1 216:1 253:1 
-2 1:0.53846154 2:0.53846154 3:0.32183908 4:0.25714286 5:0.66465688 18:1 45:1 64:1 86:1 188:1 198:1 252:1 
-0.4265407067976523 1:0.53846154 2:0.53846154 3:0.21212121 4:0.35714286 5:0.64706091 7:1 19:1 60:1 84:1 233:1 235:1 253:1 
-1.378524116578436 1:0.46153846 2:0.46153846 3:0.25966562 4:0.32417582 5:0.61198379 13:1 63:1 85:1 90:1 122:1 225:1 248:1 
-0.2851375495342157 1:0.38461538 2:0.38461538 3:0.61278958 4:0.28571429 5:0.67125052 41:1 75:1 113:1 126:1 172:1 185:1 
-0.9130483808860181 1:0.38461538 2:0.38461538 3:0.63764368 4:0.42417582 5:0.83053167 13:1 32:1 47:1 65:1 160:1 191:1 256:1 
-2 1:0.30769231 2:0.30769231 3:0.37821385 4:0.36734694 5:0.77648554 14:1 19:1 40:1 88:1 95:1 183:1 256:1 
-2 1:0.23076923 2:0.23076923 3:0.4853129 4:0.27619048 5:0.69759361 12:1 100:1 109:1 137:1 174:1 253:1 
-1.219860206389458 1:0.61538462 2:0.61538462 3:0.36206897 4:0.57142857 5:0.6567631 14:1 42:1 128:1 142:1 191:1 216:1 251:1 
-1.119070121973382 1:0.46153846 2:0.46153846 3:0.49459094 4:0.10204082 5:0.67125052 40:1 45:1 64:1 114:1 128:1 220:1 
-0.5568510950638385 1:0.38461538 2:0.38461538 3:0.4386175 4:0.5755102 5:0.85249978 41:1 65:1 86:1 99:1 143:1 242:1 253:1 
-2 1:0.30769231 2:0.30769231 3:0.42554278 4:0.72857143 5:0.7656155 99:1 108:1 135:1 213:1 228:1 
-0.9592408280844837 1:0.69230769 2:0.69230769 3:0.46455939 4:0.48917749 5:0.65964853 32:1 53:1 56:1 120:1 153:1 188:1 252:1 
-0.5615084585607502 1:0.46153846 2:0.46153846 3:0.47701149 4:0.55462185 5:0.6567631 9:1 24:1 71:1 167:1 219:1 222:1 257:1 
-1.616062954896272 1:0.46153846 2:0.46153846 3:0.55651341 4:0.43636364 5:0.66621615 46:1 75:1 125:1 164:1 180:1 253:1 
-0.321520639488212 1:0.30769231 2:0.30769231 3:0.57433454 4:0.36734694 5:0.70465207 13:1 20:1 63:1 89:1 123:1 184:1 257:1 
-0.2019804360371884 1:0.69230769 2:0.69230769 3:0.26952777 4:0.57142857 5:0.69056708 26:1 105:1 117:1 218:1 244:1 250:1 
-1.001727345153782 1:0.61538462 2:0.61538462 3:0.51187739 4:0.36904762 5:0.61428199 13:1 105:1 137:1 142:1 173:1 210:1 
-1.09940900277034 1:0.23076923 2:0.23076923 3:0.54901961 4:0.48571429 5:0.59584163 12:1 41:1 73:1 84:1 100:1 244:1 250:1 
-0.4378944465814839 1:0.61538462 2:0.61538462 3:0.36743295 4:0.44387755 5:0.65919555 71:1 113:1 122:1 157:1 214:1 235:1 
-0.9658063997351997 1:0.23076923 2:0.23076923 3:0.3151341 4:0.2987013 5:0.64959604 12:1 53:1 75:1 121:1 139:1 229:1 253:1 
-2 1:0.46153846 2:0.46153846 3:0.39655172 4:0.40952381 5:0.66039173 13:1 34:1 54:1 207:1 218:1 
-0.1540179284580134 1:0.46153846 2:0.46153846 3:0.57164751 4:0.4047619 5:0.63825906 63:1 112:1 137:1 175:1 244:1 250:1 
-0.45935196595746 1:0.46153846 2:0.46153846 3:0.29501916 4:0.28051948 5:0.65841202 12:1 38:1 91:1 124:1 164:1 186:1 252:1 
-2 1:0.46153846 2:0.46153846 3:0.24976054 4:0.84183673 5:0.71719442 36:1 45:1 62:1 72:1 120:1 166:1 251:1 
-0.7722629368641928 1:0.30769231 2:0.30769231 3:0.651907 4:0.44285714 5:0.71460303 40:1 65:1 84:1 120:1 135:1 140:1 
-0.5286967239525285 1:0.30769231 2:0.30769231 3:0.64636015 4:0.28246753 5:0.43419338 40:1 51:1 66:1 157:1 172:1 197:1 250:1 
-2 1:0.69230769 2:0.69230769 3:0.3659802 4:0.69795918 5:0.77268482 128:1 153:1 165:1 215:1 231:1 
-0.9413159638580063 1:0.38461538 2:0.38461538 3:0.2454023 4:0.48131868 5:0.65949961 12:1 45:1 126:1 184:1 204:1 237:1 255:1 
-0.2519638337784966 1:0.23076923 2:0.23076923 3:0.14420063 4:0.39285714 5:0.64107849 6:1 45:1 60:1 84:1 121:1 156:1 252:1 
-1.135838322924035 1:0.38461538 2:0.38461538 3:0.2105364 4:0.38661339 5:0.63943185 13:1 18:1 164:1 180:1 215:1 230:1 252:1 
-0.7519250450661401 1:0.30769231 2:0.30769231 3:0.4375 4:0.82040816 5:0.77543303 12:1 73:1 155:1 179:1 192:1 243:1 250:1 
-2 1:0.30769231 2:0.30769231 3:0.25966562 4:0.5 5:0.61198379 12:1 19:1 75:1 84:1 156:1 239:1 246:1 
-0.278804222026359 1:0.53846154 2:0.53846154 3:0.29219601 4:0.85714286 5:0.63515905 14:1 95:1 127:1 171:1 194:1 225:1 255:1 
-0.08710897663688032 1:0.38461538 2:0.38461538 3:0.47701149 4:0.23809524 5:0.67161845 13:1 54:1 73:1 102:1 208:1 250:1 
-0.5860644053221513 1:0.30769231 2:0.30769231 3:0.47203065 4:0.51623377 5:0.65493875 13:1 86:1 111:1 171:1 196:1 215:1 250:1 
-1.303502718481399 1:0.46153846 2:0.46153846 3:0.29501916 4:0.43636364 5:0.64949302 12:1 36:1 46:1 76:1 151:1 187:1 252:1 
-2 1:0.38461538 2:0.38461538 3:0.24381749 4:0.25510204 5:0.65715008 91:1 120:1 126:1 138:1 180:1 253:1 
-2 1:0.53846154 2:0.53846154 3:0.40229885 4:0.6 5:0.80879159 12:1 39:1 44:1 142:1 206:1 
-0.7290397567619867 1:0.69230769 2:0.69230769 3:0.41163793 4:0.60544218 5:0.53137217 34:1 104:1 130:1 153:1 208:1 240:1 251:1 
-1.885161783636765 1:0.38461538 2:0.38461538 3:0.40961338 4:0.42857143 5:0.6567631 14:1 42:1 64:1 76:1 111:1 143:1 249:1 
-0.9005418403789716 1:0.30769231 2:0.30769231 3:0.42946708 4:0.47619048 5:0.62157936 13:1 25:1 30:1 59:1 75:1 233:1 251:1 
-2 1:0.76923077 2:0.76923077 3:0.49281609 4:0.6122449 5:0.67272609 12:1 44:1 82:1 116:1 142:1 251:1 
-0.6461040628227127 1:0.46153846 2:0.46153846 3:0.28831418 4:0.28831169 5:0.65594448 7:1 43:1 64:1 120:1 182:1 220:1 
-1.473353853018525 1:0.30769231 2:0.30769231 3:0.27045301 4:0.42857143 5:0.63606678 12:1 65:1 179:1 192:1 205:1 235:1 253:1 
-0.3712925099464285 1:0.53846154 2:0.53846154 3:0.51240169 4:0.21428571 5:0.67692688 14:1 19:1 65:1 149:1 184:1 209:1 
-2 1:0.38461538 2:0.38461538 3:0.42720307 4:0.70562771 5:0.7711754 71:1 111:1 118:1 191:1 217:1 252:1 
-0.5811904420970643 1:0.53846154 2:0.53846154 3:0.16091954 4:0.42857143 5:0.635713 65:1 96:1 163:1 182:1 230:1 242:1 
-2 1:0.46153846 2:0.46153846 3:0.29501916 4:0.28051948 5:0.65841202 19:1 37:1 84:1 164:1 180:1 234:1 
-2 1:0.38461538 2:0.38461538 3:0.43887147 4:0.17142857 5:0.63922135 19:1 63:1 78:1 181:1 220:1 246:1 
-0.4922205908816341 1:0.38461538 2:0.38461538 3:0.60613027 4:0.3 5:0.63385357 100:1 112:1 161:1 174:1 220:1 250:1 
-0.2351732740881228 1:0.38461538 2:0.38461538 3:0.56936462 4:0.69795918 5:0.78864782 65:1 101:1 136:1 142:1 215:1 228:1 252:1 
-2 1:0.61538462 2:0.61538462 3:0.41954023 4:0.51428571 5:0.65398148 46:1 84:1 125:1 152:1 187:1 252:1 
-0.4263767555206425 1:0.38461538 2:0.38461538 3:0.4282054 4:0.14285714 5:0.67849423 40:1 64:1 127:1 148:1 220:1 225:1 
