svm_type c_svc
kernel_type rbf
gamma 0.0625
nr_class 2
total_sv 546
rho 10.4445
label 1 0
probA -4.49541
probB 0.162123
nr_sv 250 296
SV
1.137943195755769 1:0.61538462 2:0.61538462 3:0.35923754 4:0.44200627 5:0.61187505 47:1 127:1 138:1 
0.6190971145517236 1:0.38461538 2:0.38461538 3:0.24633431 4:0.33990148 5:0.61102582 62:1 85:1 102:1 252:1 
0.7083890794177664 1:0.38461538 2:0.38461538 3:0.54740958 4:0.39901478 5:0.62648173 120:1 157:1 233:1 
2 1:0.38461538 2:0.38461538 3:0.24633431 4:0.33990148 5:0.61102582 138:1 158:1 193:1 252:1 
1.366464924653123 1:0.53846154 2:0.53846154 3:0.57478006 4:0.31034483 5:0.64321921 128:1 162:1 233:1 253:1 
1.580649750974023 1:0.46153846 2:0.46153846 3:0.42697947 4:0.19893899 5:0.67267963 126:1 138:1 210:1 253:1 
1.416105571180148 1:0.61538462 2:0.61538462 3:0.47214076 4:0.44200627 5:0.6181027 92:1 122:1 233:1 
1.637703275469517 1:0.46153846 2:0.46153846 3:0.6426799 4:0.46332288 5:0.6289685 39:1 65:1 107:1 246:1 
2 1:0.61538462 2:0.61538462 3:0.57816377 4:0.33793103 5:0.64934992 42:1 154:1 221:1 246:1 
2 1:0.53846154 2:0.53846154 3:0.4516129 4:0.28275862 5:0.65573312 6:1 42:1 219:1 247:1 
0.3763461876134156 1:0.46153846 2:0.46153846 3:0.50087977 4:0.46949602 5:0.62565412 34:1 48:1 77:1 253:1 
0.2746437870924644 1:0.38461538 2:0.38461538 3:0.63225806 4:0.54666024 5:0.62061435 23:1 101:1 180:1 255:1 
1.029767730601721 1:0.61538462 2:0.61538462 3:0.59057072 4:0.50846395 5:0.62155504 23:1 44:1 190:1 256:1 
0.4530223073644939 1:0.46153846 2:0.46153846 3:0.6568915 4:0.46708464 5:0.63302849 22:1 36:1 112:1 257:1 
1.299269014866828 1:0.61538462 2:0.61538462 3:0.59057072 4:0.59122257 5:0.6146959 22:1 164:1 191:1 255:1 
0.773047900816201 1:0.30769231 2:0.30769231 3:0.30107527 4:0.43752799 5:0.60204461 180:1 218:1 241:1 255:1 
0.7041689071870197 1:0.46153846 2:0.46153846 3:0.53372434 4:0.46708464 5:0.62191135 79:1 112:1 191:1 255:1 
2 1:0.38461538 2:0.38461538 3:0.50024814 4:0.32413793 5:0.67031367 15:1 172:1 229:1 247:1 
2 1:0.61538462 2:0.61538462 3:0.47419355 4:0.30049261 5:0.69500655 50:1 173:1 198:1 248:1 
2 1:0.84615385 2:0.84615385 3:0.52767402 4:0.44827586 5:0.62340339 32:1 80:1 106:1 248:1 
0.5216842727548547 1:0.53846154 2:0.53846154 3:0.54193548 4:0.34482759 5:0.6613772 17:1 59:1 198:1 246:1 
0.1808179546799927 1:0.53846154 2:0.53846154 3:0.54193548 4:0.65517241 5:0.58800408 83:1 111:1 224:1 251:1 
0.1266215194613933 1:0.46153846 2:0.46153846 3:0.38064516 4:0.33333333 5:0.61046524 121:1 196:1 222:1 249:1 
1.47436533060456 1:0.46153846 2:0.46153846 3:0.47741935 4:0.42528736 5:0.6115883 121:1 137:1 222:1 251:1 
0.6337185614952346 1:0.61538462 2:0.61538462 3:0.42903226 4:0.35960591 5:0.60940457 112:1 175:1 223:1 251:1 
0.6707059178798616 1:0.61538462 2:0.61538462 3:0.66612903 4:0.52216749 5:0.64252438 17:1 34:1 214:1 256:1 
1.5488911967449 1:0.53846154 2:0.53846154 3:0.54193548 4:0.55172414 5:0.62876692 16:1 21:1 35:1 257:1 
2 1:0.38461538 2:0.38461538 3:0.47419355 4:0.28044369 5:0.63502693 12:1 31:1 51:1 77:1 78:1 102:1 253:1 
2 1:0.38461538 2:0.38461538 3:0.20322581 4:0.28044369 5:0.58203523 12:1 31:1 52:1 55:1 181:1 253:1 
2 1:0.46153846 2:0.46153846 3:0.40029326 4:0.39184953 5:0.61408965 92:1 102:1 120:1 245:1 254:1 264:1 
2 1:0.61538462 2:0.61538462 3:0.49503722 4:0.35047022 5:0.62616885 32:1 56:1 75:1 78:1 153:1 253:1 
2 1:0.38461538 2:0.38461538 3:0.47419355 4:0.28044369 5:0.63502693 18:1 51:1 54:1 76:1 153:1 253:1 
0.3953060938162165 1:0.46153846 2:0.46153846 3:0.2771261 4:0.39184953 5:0.60297251 13:1 19:1 122:1 243:1 
0.6595969288195082 1:0.46153846 2:0.46153846 3:0.51182796 4:0.59378552 5:0.68809951 47:1 167:1 204:1 257:1 
1.322207981823449 1:0.61538462 2:0.61538462 3:0.5255132 4:0.41644562 5:0.69602562 45:1 91:1 220:1 257:1 
2 1:0.53846154 2:0.53846154 3:0.31612903 4:0.38461538 5:0.85500073 81:1 91:1 205:1 256:1 
0.8838303173873097 1:0.46153846 2:0.46153846 3:0.81290323 4:0.41644562 5:0.69602562 64:1 161:1 166:1 256:1 
0.743174224962987 1:0.30769231 2:0.30769231 3:0.60557185 4:0.40689655 5:0.79580196 63:1 76:1 84:1 246:1 
1.431096205608686 1:0.46153846 2:0.46153846 3:0.80879765 4:0.47480106 5:0.67249434 41:1 75:1 137:1 
2 1:0.46153846 2:0.46153846 3:0.67331378 4:0.41114058 5:0.8049736 40:1 76:1 191:1 248:1 
0.3924654270995564 1:0.61538462 2:0.61538462 3:0.41439206 4:0.57701149 5:0.50264847 120:1 130:1 237:1 
0.3174835320043488 1:0.23076923 2:0.23076923 3:0.34702886 4:0.65517241 5:0.57169894 12:1 87:1 93:1 192:1 208:1 255:1 
2 1:0.15384615 2:0.15384615 3:0.45670628 4:0.49425287 5:0.45930994 12:1 76:1 183:1 208:1 255:1 
0.7009459369446993 1:0.38461538 2:0.38461538 3:0.56486567 4:0.5862069 5:0.57877249 12:1 20:1 41:1 88:1 93:1 219:1 255:1 
1.08842907302423 1:0.46153846 2:0.46153846 3:0.6179966 4:0.53103448 5:0.56558451 12:1 20:1 40:1 51:1 65:1 93:1 257:1 
2 1:0.23076923 2:0.23076923 3:0.52767402 4:0.55172414 5:0.55947008 12:1 20:1 40:1 87:1 243:1 255:1 
0.8803622240928721 1:0.30769231 2:0.30769231 3:0.33573854 4:0.50738916 5:0.45603436 12:1 18:1 76:1 192:1 225:1 255:1 
2 1:0.61538462 2:0.61538462 3:0.43735144 4:0.5862069 5:0.56150823 12:1 18:1 41:1 95:1 127:1 225:1 
2 1:0.30769231 2:0.30769231 3:0.42041596 4:0.50738916 5:0.48278498 14:1 75:1 111:1 126:1 255:1 
1.805368810017101 1:0.23076923 2:0.23076923 3:0.43735144 4:0.44827586 5:0.61653807 14:1 64:1 95:1 123:1 160:1 256:1 
0.1201110837874696 1:0.46153846 2:0.46153846 3:0.39219015 4:0.53103448 5:0.51463095 14:1 41:1 160:1 192:1 225:1 
1.069102997726946 1:0.30769231 2:0.30769231 3:0.42041596 4:0.27093596 5:0.66112243 14:1 40:1 64:1 76:1 93:1 256:1 
1.663767030343174 1:0.38461538 2:0.38461538 3:0.40547289 4:0.44827586 5:0.61653807 14:1 19:1 39:1 75:1 88:1 93:1 256:1 
2 1:0.46153846 2:0.46153846 3:0.39219015 4:0.53103448 5:0.51463095 14:1 19:1 39:1 208:1 225:1 255:1 
0.1028912863121055 1:0.61538462 2:0.61538462 3:0.43735144 4:0.5862069 5:0.56150823 14:1 19:1 76:1 93:1 226:1 255:1 
2 1:0.76923077 2:0.76923077 3:0.41271801 4:0.034482759 5:0.63599307 14:1 19:1 76:1 93:1 128:1 225:1 
0.8673218934850165 1:0.53846154 2:0.53846154 3:0.3803056 4:0.65517241 5:0.57470252 14:1 19:1 41:1 93:1 192:1 207:1 
1.876584765210614 1:0.61538462 2:0.61538462 3:0.43735144 4:0.5862069 5:0.56150823 14:1 19:1 41:1 93:1 148:1 225:1 255:1 
1.822620202956444 1:0.53846154 2:0.53846154 3:0.5229202 4:0.44827586 5:0.61653807 14:1 19:1 41:1 113:1 183:1 
2 1:0.46153846 2:0.46153846 3:0.39219015 4:0.36551724 5:0.71844519 14:1 18:1 39:1 93:1 111:1 126:1 
2 1:0.30769231 2:0.30769231 3:0.42041596 4:0.50738916 5:0.48278498 14:1 18:1 39:1 207:1 257:1 276:1 
2 1:0.30769231 2:0.30769231 3:0.42041596 4:0.62561576 5:0.57195371 14:1 18:1 111:1 219:1 227:1 255:1 
1.180824492347932 1:0.23076923 2:0.23076923 3:0.43735144 4:0.44827586 5:0.61653807 112:1 192:1 243:1 256:1 
1.861436186857835 1:0.23076923 2:0.23076923 3:0.43735144 4:0.55172414 5:0.54316494 88:1 95:1 192:1 208:1 255:1 
1.36084528607214 1:0.53846154 2:0.53846154 3:0.5942275 4:0.44827586 5:0.61653807 19:1 51:1 65:1 93:1 112:1 257:1 
2 1:0.38461538 2:0.38461538 3:0.56486567 4:0.31034483 5:0.65430365 19:1 40:1 53:1 64:1 88:1 93:1 255:1 
2 1:0.38461538 2:0.38461538 3:0.56486567 4:0.31034483 5:0.65430365 20:1 75:1 160:1 208:1 
0.3749314905682272 1:0.46153846 2:0.46153846 3:0.46745897 4:0.36551724 5:0.70146067 20:1 87:1 93:1 244:1 265:1 
1.529236143184282 1:0.30769231 2:0.30769231 3:0.50509338 4:0.38916256 5:0.72354054 20:1 76:1 160:1 192:1 255:1 
0.8219252502665668 1:0.38461538 2:0.38461538 3:0.48516928 4:0.44827586 5:0.61653807 20:1 52:1 75:1 93:1 192:1 256:1 
2 1:0.69230769 2:0.69230769 3:0.6179966 4:0.034482759 5:0.62672878 20:1 52:1 128:1 225:1 257:1 
2 1:0.53846154 2:0.53846154 3:0.5942275 4:0.24137931 5:0.63906491 20:1 41:1 88:1 93:1 172:1 225:1 256:1 
2 1:0.076923077 2:0.076923077 3:0.37482043 4:0.53103448 5:0.51071145 13:1 39:1 51:1 64:1 192:1 255:1 
1.017081850270966 1:0.46153846 2:0.46153846 3:0.46745897 4:0.36551724 5:0.70146067 13:1 40:1 76:1 93:1 225:1 257:1 
0.4560477670850306 1:0.53846154 2:0.53846154 3:0.4516129 4:0.65517241 5:0.58113875 13:1 19:1 63:1 93:1 227:1 257:1 
0.5731207676008635 1:0.53846154 2:0.53846154 3:0.4516129 4:0.24137931 5:0.65193738 13:1 19:1 75:1 93:1 128:1 256:1 
2 1:0.61538462 2:0.61538462 3:0.30186757 4:0.31034483 5:0.6899112 13:1 19:1 194:1 209:1 225:1 266:1 
1.746652030319402 1:0.23076923 2:0.23076923 3:0.43735144 4:0.13793103 5:0.64099578 13:1 19:1 52:1 88:1 160:1 256:1 
2 1:0.46153846 2:0.46153846 3:0.54272779 4:0.2 5:0.6391841 13:1 20:1 41:1 128:1 192:1 256:1 
0.1465708888856047 1:0.23076923 2:0.23076923 3:0.43735144 4:0.24137931 5:0.65322463 13:1 18:1 88:1 183:1 256:1 
1.453920330737844 1:0.38461538 2:0.38461538 3:0.48516928 4:0.034482759 5:0.63272332 13:1 18:1 52:1 126:1 257:1 
2 1:0.23076923 2:0.23076923 3:0.34702886 4:0.44827586 5:0.61653807 13:1 18:1 40:1 93:1 192:1 207:1 255:1 
2 1:0.30769231 2:0.30769231 3:0.22233251 4:0.40371353 5:0.60479262 12:1 45:1 84:1 144:1 162:1 253:1 
0.400568221324842 1:0.076923077 2:0.076923077 3:0.37717122 4:0.47931034 5:0.61093478 12:1 84:1 108:1 123:1 216:1 252:1 
1.672638727368183 1:0.23076923 2:0.23076923 3:0.31265509 4:0.35369458 5:0.61379442 12:1 86:1 123:1 216:1 222:1 253:1 
1.815286449143991 1:0.61538462 2:0.61538462 3:0.37717122 4:0.43908046 5:0.61280654 12:1 86:1 92:1 164:1 
2 1:0.23076923 2:0.23076923 3:0.46319272 4:0.35369458 5:0.62568358 12:1 76:1 123:1 235:1 252:1 265:1 
1.097419687746686 1:0.38461538 2:0.38461538 3:0.51793368 4:0.46206897 5:0.61930667 12:1 20:1 75:1 216:1 236:1 252:1 
1.692468400338493 1:0.38461538 2:0.38461538 3:0.27159937 4:0.32413793 5:0.61263638 12:1 18:1 84:1 146:1 200:1 253:1 
0.4973424764476975 1:0.38461538 2:0.38461538 3:0.27159937 4:0.39310345 5:0.60846745 14:1 84:1 108:1 200:1 253:1 
1.754014829027734 1:0.30769231 2:0.30769231 3:0.49330025 4:0.34005305 5:0.63002676 14:1 76:1 124:1 216:1 
1.114029692649042 1:0.46153846 2:0.46153846 3:0.086848635 4:0.38056426 5:0.59596067 14:1 19:1 38:1 84:1 234:1 264:1 
1.23967440843292 1:0.53846154 2:0.53846154 3:0.24317618 4:0.36551724 5:0.60771918 14:1 20:1 38:1 216:1 236:1 253:1 
1.635275776373265 1:0.38461538 2:0.38461538 3:0.51793368 4:0.46206897 5:0.61930667 36:1 46:1 64:1 75:1 266:1 
2 1:0.30769231 2:0.30769231 3:0.49330025 4:0.46737401 5:0.61763909 36:1 75:1 144:1 188:1 252:1 
2 1:0.38461538 2:0.38461538 3:0.64110083 4:0.46206897 5:0.62597695 47:1 65:1 75:1 222:1 264:1 
0.311308930708764 1:0.53846154 2:0.53846154 3:0.4516129 4:0.53103448 5:0.61242259 45:1 63:1 144:1 152:1 
2 1:0.38461538 2:0.38461538 3:0.14843221 4:0.46206897 5:0.59929581 45:1 84:1 146:1 180:1 253:1 
2 1:0.61538462 2:0.61538462 3:0.47394541 4:0.43908046 5:0.61842183 45:1 76:1 128:1 200:1 252:1 
2 1:0.38461538 2:0.38461538 3:0.64110083 4:0.53103448 5:0.62097424 46:1 75:1 123:1 128:1 144:1 252:1 
2 1:0.38461538 2:0.38461538 3:0.39476652 4:0.53103448 5:0.6098571 46:1 84:1 180:1 188:1 216:1 252:1 
0.6626916013044056 1:0.30769231 2:0.30769231 3:0.35781638 4:0.40371353 5:0.61362457 63:1 84:1 162:1 216:1 254:1 
1.586799218496392 1:0.38461538 2:0.38461538 3:0.76426799 4:0.46206897 5:0.63264723 63:1 77:1 125:1 252:1 
0.2714750508003443 1:0.30769231 2:0.30769231 3:0.22233251 4:0.46737401 5:0.60318681 75:1 108:1 218:1 254:1 264:1 
0.1110314480932617 1:0.30769231 2:0.30769231 3:0.49330025 4:0.34005305 5:0.63002676 75:1 144:1 222:1 265:1 
0.2729483175976376 1:0.46153846 2:0.46153846 3:0.42555831 4:0.38056426 5:0.61998163 75:1 182:1 186:1 
0.0615999089988952 1:0.53846154 2:0.53846154 3:0.4516129 4:0.44827586 5:0.61653807 86:1 125:1 236:1 252:1 
0.8076644659481319 1:0.30769231 2:0.30769231 3:0.49330025 4:0.40371353 5:0.62245652 85:1 123:1 144:1 236:1 252:1 
2 1:0.30769231 2:0.30769231 3:0.49330025 4:0.34005305 5:0.63002676 76:1 84:1 152:1 217:1 252:1 
2 1:0.15384615 2:0.15384615 3:0.59491315 4:0.36551724 5:0.63417584 64:1 75:1 180:1 216:1 253:1 
2 1:0.38461538 2:0.38461538 3:0.51793368 4:0.39310345 5:0.62514316 64:1 84:1 164:1 180:1 200:1 216:1 
1.781896298092086 1:0.23076923 2:0.23076923 3:0.31265509 4:0.35369458 5:0.61379442 13:1 36:1 84:1 109:1 
1.720762559396356 1:0.23076923 2:0.23076923 3:0.46319272 4:0.29458128 5:0.63559122 13:1 18:1 36:1 123:1 222:1 252:1 
1.245874711892482 1:0.53846154 2:0.53846154 3:0.61100569 4:0.31034483 5:0.63272332 40:1 46:1 101:1 116:1 253:1 
1.150798456897386 1:0.61538462 2:0.61538462 3:0.5711575 4:0.55862069 5:0.63272332 29:1 45:1 65:1 116:1 264:1 
2 1:0.38461538 2:0.38461538 3:0.32258065 4:0.53187043 5:0.46513321 12:1 24:1 30:1 76:1 105:1 251:1 
2 1:0.30769231 2:0.30769231 3:0.36363636 4:0.35632184 5:0.6022446 12:1 26:1 30:1 42:1 75:1 88:1 
1.02725365797379 1:0.53846154 2:0.53846154 3:0.35483871 4:0.54022989 5:0.49861697 12:1 30:1 42:1 57:1 107:1 251:1 
2 1:0.61538462 2:0.61538462 3:0.23225806 4:0.3908046 5:0.63429902 14:1 26:1 43:1 100:1 249:1 
0.616698851347333 1:0.61538462 2:0.61538462 3:0.23225806 4:0.3908046 5:0.63429902 14:1 25:1 31:1 211:1 251:1 
2 1:0.69230769 2:0.69230769 3:0.20967742 4:0.31691297 5:0.61289853 14:1 25:1 31:1 43:1 117:1 
2 1:0.61538462 2:0.61538462 3:0.41290323 4:0.3908046 5:0.60168875 57:1 105:1 210:1 232:1 
0.8671041841474239 1:0.61538462 2:0.61538462 3:0.50322581 4:0.49425287 5:0.57723104 42:1 77:1 107:1 141:1 
2 1:0.61538462 2:0.61538462 3:0.59354839 4:0.59770115 5:0.58538361 32:1 58:1 76:1 107:1 251:1 
0.2062537840554181 1:0.61538462 2:0.61538462 3:0.32258065 4:0.3908046 5:0.61799389 25:1 31:1 42:1 57:1 251:1 
1.420636598038113 1:0.38461538 2:0.38461538 3:0.43548387 4:0.60710554 5:0.55854807 13:1 100:1 107:1 119:1 251:1 
1.71931000583571 1:0.23076923 2:0.23076923 3:0.3655914 4:0.76091954 5:0.72504489 12:1 71:1 120:1 168:1 240:1 
2 1:0.23076923 2:0.23076923 3:0.3655914 4:0.57701149 5:0.81938176 12:1 69:1 84:1 100:1 156:1 241:1 
1.579125154395038 1:0.61538462 2:0.61538462 3:0.32484437 4:0.53103448 5:0.70146067 12:1 69:1 109:1 176:1 213:1 
0.8928710470051793 1:0.30769231 2:0.30769231 3:0.39139785 4:0.73793103 5:0.72999466 12:1 108:1 135:1 215:1 254:1 
1.593446482166719 1:0.38461538 2:0.38461538 3:0.41397849 4:0.70837438 5:0.73712816 12:1 101:1 141:1 156:1 240:1 
2 1:0.15384615 2:0.15384615 3:0.44003309 4:0.69655172 5:0.74261547 12:1 100:1 108:1 143:1 156:1 252:1 
2 1:0.23076923 2:0.23076923 3:0.46236559 4:0.57701149 5:0.8586888 12:1 100:1 109:1 120:1 143:1 
2 1:0.53846154 2:0.53846154 3:0.37634409 4:0.6137931 5:0.76939875 14:1 24:1 41:1 143:1 176:1 254:1 
1.669076767502437 1:0.30769231 2:0.30769231 3:0.48172043 4:0.73793103 5:0.73814723 24:1 84:1 101:1 143:1 252:1 
2 1:0.46153846 2:0.46153846 3:0.3542062 4:0.39310345 5:0.66369509 24:1 110:1 121:1 176:1 
2 1:0.61538462 2:0.61538462 3:0.25353707 4:0.94482759 5:0.70950597 26:1 69:1 143:1 213:1 252:1 
2 1:0.61538462 2:0.61538462 3:0.39615167 4:0.32413793 5:0.67249759 26:1 101:1 122:1 176:1 
0.5663246459257376 1:0.46153846 2:0.46153846 3:0.43390259 4:0.66896552 5:0.75001641 39:1 70:1 141:1 241:1 252:1 
0.4075099166828167 1:0.23076923 2:0.23076923 3:0.46236559 4:0.66896552 5:0.75387004 71:1 84:1 100:1 240:1 252:1 
1.877354121120762 1:0.38461538 2:0.38461538 3:0.49865591 4:0.70837438 5:0.74604503 71:1 108:1 137:1 252:1 
2 1:0.30769231 2:0.30769231 3:0.48172043 4:0.63448276 5:0.77483379 71:1 101:1 168:1 240:1 253:1 
2 1:0.53846154 2:0.53846154 3:0.52688172 4:0.44827586 5:0.59955355 71:1 85:1 101:1 176:1 
2 1:0.46153846 2:0.46153846 3:0.3542062 4:0.53103448 5:0.70146067 69:1 84:1 101:1 122:1 241:1 
1.877603892219934 1:0.38461538 2:0.38461538 3:0.41397849 4:0.47192118 5:0.59445819 69:1 85:1 100:1 168:1 
2 1:0.53846154 2:0.53846154 3:0.4516129 4:0.6137931 5:0.78638327 70:1 86:1 101:1 122:1 136:1 142:1 252:1 
0.4821409738656905 1:0.30769231 2:0.30769231 3:0.48172043 4:0.53103448 5:0.70146067 99:1 108:1 121:1 
2 1:0.23076923 2:0.23076923 3:0.55913978 4:0.76091954 5:0.7407677 99:1 120:1 135:1 143:1 252:1 
0.273533073068199 1:0.30769231 2:0.30769231 3:0.39139785 4:0.63448276 5:0.75852866 99:1 120:1 141:1 156:1 253:1 
1.412438881274494 1:0.53846154 2:0.53846154 3:0.30107527 4:0.6137931 5:0.75241423 99:1 170:1 213:1 254:1 
2 1:0.15384615 2:0.15384615 3:0.33581472 4:0.6137931 5:0.76025324 108:1 120:1 192:1 240:1 253:1 
2 1:0.46153846 2:0.46153846 3:0.43390259 4:0.66896552 5:0.75001641 108:1 143:1 176:1 204:1 
0.8115024350737939 1:0.46153846 2:0.46153846 3:0.3542062 4:0.53103448 5:0.70146067 110:1 120:1 176:1 240:1 
1.872092319704926 1:0.53846154 2:0.53846154 3:0.30107527 4:0.77931034 5:0.71844519 141:1 156:1 214:1 228:1 254:1 
0.1019817538767189 1:0.30769231 2:0.30769231 3:0.30107527 4:0.53103448 5:0.70146067 109:1 156:1 242:1 252:1 
2 1:0.30769231 2:0.30769231 3:0.57204301 4:0.53103448 5:0.70146067 101:1 120:1 135:1 229:1 
2 1:0.30769231 2:0.30769231 3:0.48172043 4:0.53103448 5:0.70146067 101:1 121:1 168:1 252:1 
1.22513451843988 1:0.46153846 2:0.46153846 3:0.51359899 4:0.53103448 5:0.70146067 65:1 86:1 135:1 
2 1:0.46153846 2:0.46153846 3:0.51359899 4:0.53103448 5:0.70146067 64:1 70:1 86:1 101:1 122:1 136:1 142:1 252:1 
0.4294879678586124 1:0.30769231 2:0.30769231 3:0.48172043 4:0.22068966 5:0.67700296 64:1 109:1 174:1 253:1 
1.320731854041596 1:0.38461538 2:0.38461538 3:0.32930108 4:0.70837438 5:0.72821129 43:1 108:1 215:1 252:1 276:1 
0.5028628841507725 1:0.38461538 2:0.38461538 3:0.32930108 4:0.47192118 5:0.62120881 43:1 204:1 228:1 241:1 
1.408505665202862 1:0.53846154 2:0.53846154 3:0.37634409 4:0.6137931 5:0.76939875 44:1 71:1 215:1 253:1 278:1 
2 1:0.69230769 2:0.69230769 3:0.34623656 4:0.39310345 5:0.66477411 44:1 141:1 158:1 214:1 253:1 
2 1:0.38461538 2:0.38461538 3:0.41397849 4:0.47192118 5:0.59445819 42:1 99:1 141:1 156:1 253:1 
1.311865898809627 1:0.46153846 2:0.46153846 3:0.43390259 4:0.53103448 5:0.70146067 42:1 65:1 141:1 156:1 252:1 
1.837872850850273 1:0.38461538 2:0.38461538 3:0.49865591 4:0.47192118 5:0.56770758 41:1 43:1 63:1 192:1 253:1 
1.265409005082886 1:0.53846154 2:0.53846154 3:0.4516129 4:0.6137931 5:0.78638327 40:1 71:1 176:1 215:1 254:1 
1.22664513057694 1:0.38461538 2:0.38461538 3:0.32930108 4:0.47192118 5:0.62120881 13:1 24:1 141:1 176:1 192:1 253:1 
1.620302179237123 1:0.38461538 2:0.38461538 3:0.41397849 4:0.59014778 5:0.80846314 13:1 42:1 143:1 215:1 252:1 
2 1:0.38461538 2:0.38461538 3:0.49865591 4:0.59014778 5:0.83521376 13:1 41:1 204:1 214:1 252:1 
2 1:0.38461538 2:0.38461538 3:0.57912713 4:0.37931034 5:0.61761709 25:1 40:1 53:1 100:1 249:1 
2 1:0.23076923 2:0.23076923 3:0.62404692 4:0.48275862 5:0.63376964 12:1 24:1 39:1 52:1 63:1 236:1 
0.6992034685761789 1:0.23076923 2:0.23076923 3:0.50087977 4:0.55172414 5:0.60875607 12:1 24:1 51:1 63:1 229:1 250:1 
2 1:0.38461538 2:0.38461538 3:0.36823821 4:0.51034483 5:0.59795962 12:1 26:1 40:1 195:1 206:1 250:1 
1.898558954153543 1:0.23076923 2:0.23076923 3:0.37771261 4:0.4137931 5:0.60875607 12:1 25:1 40:1 64:1 235:1 251:1 264:1 
2 1:0.53846154 2:0.53846154 3:0.4516129 4:0.65517241 5:0.60023293 14:1 24:1 41:1 119:1 236:1 251:1 
2 1:0.38461538 2:0.38461538 3:0.36823821 4:0.51034483 5:0.59795962 14:1 26:1 51:1 64:1 68:1 204:1 251:1 
2 1:0.23076923 2:0.23076923 3:0.50087977 4:0.55172414 5:0.60875607 14:1 26:1 40:1 51:1 63:1 195:1 251:1 
2 1:0.53846154 2:0.53846154 3:0.4516129 4:0.44827586 5:0.61653807 14:1 25:1 53:1 65:1 158:1 250:1 
2 1:0.38461538 2:0.38461538 3:0.78511166 4:0.51034483 5:0.64499367 24:1 39:1 53:1 65:1 196:1 250:1 
0.6157582702220733 1:0.61538462 2:0.61538462 3:0.48548387 4:0.64039409 5:0.60278061 24:1 51:1 117:1 140:1 250:1 
2 1:0.30769231 2:0.30769231 3:0.42903226 4:0.68338558 5:0.59830802 24:1 111:1 204:1 215:1 228:1 250:1 
2 1:0.46153846 2:0.46153846 3:0.31612903 4:0.3908046 5:0.59208036 13:1 26:1 40:1 175:1 204:1 250:1 
2 1:0.38461538 2:0.38461538 3:0.26401985 4:0.59310345 5:0.58816086 13:1 25:1 119:1 132:1 213:1 251:1 
2 1:0.38461538 2:0.38461538 3:0.26401985 4:0.40689655 5:0.59842996 14:1 24:1 36:1 44:1 174:1 252:1 
2 1:0.30769231 2:0.30769231 3:0.31612903 4:0.42946708 5:0.60430922 24:1 84:1 92:1 229:1 252:1 
2 1:0.30769231 2:0.30769231 3:0.31612903 4:0.42946708 5:0.60430922 36:1 68:1 85:1 123:1 228:1 254:1 
2 1:0.30769231 2:0.30769231 3:0.42903226 4:0.50470219 5:0.6123162 36:1 44:1 84:1 92:1 111:1 228:1 252:1 
2 1:0.38461538 2:0.38461538 3:0.26401985 4:0.32413793 5:0.5925507 85:1 91:1 220:1 230:1 252:1 
2 1:0.30769231 2:0.30769231 3:0.31612903 4:0.42946708 5:0.60430922 66:1 84:1 91:1 111:1 252:1 276:1 
0.6677102682092833 1:0.15384615 2:0.15384615 3:0.18064516 4:0.33687003 5:0.57781336 13:1 25:1 36:1 42:1 252:1 264:1 
2 1:0.30769231 2:0.30769231 3:0.39299007 4:0.70837438 5:0.74343203 12:1 47:1 60:1 96:1 179:1 246:1 
1.535481762860686 1:0.38461538 2:0.38461538 3:0.41532258 4:0.39573071 5:0.62967681 12:1 85:1 153:1 208:1 246:1 
0.1576021724107055 1:0.53846154 2:0.53846154 3:0.28225806 4:0.44827586 5:0.63437182 14:1 25:1 46:1 61:1 153:1 
1.037501279182665 1:0.38461538 2:0.38461538 3:0.41532258 4:0.48768473 5:0.60871306 24:1 46:1 73:1 192:1 246:1 
2 1:0.53846154 2:0.53846154 3:0.36693548 4:0.56650246 5:0.55411996 45:1 60:1 72:1 154:1 246:1 
2 1:0.61538462 2:0.61538462 3:0.38685958 4:0.62561576 5:0.66112243 37:1 46:1 108:1 153:1 179:1 248:1 
2 1:0.53846154 2:0.53846154 3:0.4516129 4:0.21182266 5:0.64201485 37:1 46:1 109:1 128:1 246:1 
0.3699431827470019 1:0.38461538 2:0.38461538 3:0.31854839 4:0.48768473 5:0.6218154 13:1 24:1 84:1 153:1 246:1 
1.699636541261954 1:0.46153846 2:0.46153846 3:0.34435484 4:0.31527094 5:0.64209977 13:1 25:1 46:1 122:1 246:1 
1.539739756050005 1:0.46153846 2:0.46153846 3:0.16370968 4:0.74384236 5:0.64328869 12:1 24:1 36:1 213:1 249:1 266:1 
2 1:0.15384615 2:0.15384615 3:0.45931085 4:0.74384236 5:0.64328869 12:1 24:1 96:1 108:1 208:1 251:1 
2 1:0.38461538 2:0.38461538 3:0.31854839 4:0.8817734 5:0.68259572 12:1 24:1 96:1 155:1 165:1 251:1 
1.02232458624179 1:0.46153846 2:0.46153846 3:0.34435484 4:0.64039409 5:0.5862207 12:1 38:1 72:1 153:1 244:1 250:1 
0.6341141407744313 1:0.23076923 2:0.23076923 3:0.25403226 4:0.78145992 5:0.75538652 12:1 60:1 96:1 120:1 153:1 276:1 
0.6175870612098976 1:0.46153846 2:0.46153846 3:0.34435484 4:0.74384236 5:0.64328869 12:1 62:1 179:1 207:1 249:1 
2 1:0.61538462 2:0.61538462 3:0.1477704 4:0.74384236 5:0.64328869 14:1 26:1 38:1 46:1 120:1 153:1 251:1 
1.209778574267919 1:0.53846154 2:0.53846154 3:0.28225806 4:0.56650246 5:0.61653807 14:1 25:1 46:1 61:1 153:1 251:1 
1.760397276742009 1:0.38461538 2:0.38461538 3:0.51209677 4:0.69786535 5:0.44675353 47:1 108:1 208:1 251:1 
0.9200524972569617 1:0.61538462 2:0.61538462 3:0.38685958 4:0.74384236 5:0.64328869 47:1 122:1 154:1 251:1 
0.9562605668975621 1:0.53846154 2:0.53846154 3:0.36693548 4:0.68472906 5:0.53628621 45:1 60:1 72:1 154:1 
2 1:0.53846154 2:0.53846154 3:0.36693548 4:0.92118227 5:0.67895618 45:1 60:1 84:1 179:1 215:1 250:1 
2 1:0.69230769 2:0.69230769 3:0.47983871 4:0.82660099 5:0.74519581 46:1 60:1 154:1 166:1 251:1 
2 1:0.30769231 2:0.30769231 3:0.39299007 4:0.90935961 5:0.68444349 72:1 144:1 167:1 179:1 192:1 251:1 
1.098779581139391 1:0.61538462 2:0.61538462 3:0.38685958 4:0.74384236 5:0.64328869 37:1 46:1 108:1 153:1 179:1 250:1 
0.5593994217440681 1:0.38461538 2:0.38461538 3:0.41532258 4:0.60591133 5:0.59087931 25:1 46:1 97:1 108:1 251:1 
2 1:0.61538462 2:0.61538462 3:0.57580645 4:0.58128079 5:0.60142185 34:1 112:1 190:1 251:1 
2 1:0.69230769 2:0.69230769 3:0.28690702 4:0.34482759 5:0.62465068 86:1 206:1 235:1 250:1 
1.190146167904856 1:0.61538462 2:0.61538462 3:0.40645161 4:0.46305419 5:0.61925559 101:1 206:1 235:1 251:1 
2 1:0.46153846 2:0.46153846 3:0.69677419 4:0.52873563 5:0.59567137 53:1 99:1 112:1 250:1 
0.7575609631984239 1:0.53846154 2:0.53846154 3:0.63225806 4:0.55172414 5:0.59887417 53:1 112:1 191:1 250:1 
1.436063814518779 1:0.53846154 2:0.53846154 3:0.4516129 4:0.72413793 5:0.8995487 12:1 34:1 179:1 207:1 249:1 
2 1:0.38461538 2:0.38461538 3:0.5483871 4:0.49007315 5:0.59644781 12:1 96:1 102:1 208:1 250:1 
1.381040315409409 1:0.46153846 2:0.46153846 3:0.44416873 4:0.42988506 5:0.62059196 14:1 25:1 34:1 208:1 
0.7946453478092483 1:0.46153846 2:0.46153846 3:0.5483871 4:0.67816092 5:0.66370651 24:1 155:1 207:1 250:1 
0.1928232933402552 1:0.38461538 2:0.38461538 3:0.5483871 4:0.49007315 5:0.59644781 24:1 102:1 208:1 251:1 
2 1:0.69230769 2:0.69230769 3:0.5483871 4:0.38259442 5:0.62090552 34:1 56:1 208:1 250:1 
2 1:0.53846154 2:0.53846154 3:0.4516129 4:0.44827586 5:0.61653807 56:1 72:1 122:1 208:1 250:1 
2 1:0.46153846 2:0.46153846 3:0.44416873 4:0.34712644 5:0.63137059 54:1 72:1 82:1 97:1 104:1 217:1 
2 1:0.46153846 2:0.46153846 3:0.5483871 4:0.26436782 5:0.63313437 54:1 102:1 208:1 
0.05927122255846641 1:0.38461538 2:0.38461538 3:0.5483871 4:0.49007315 5:0.59644781 25:1 35:1 208:1 
0.04580510003148774 1:0.53846154 2:0.53846154 3:0.4516129 4:0.44827586 5:0.61653807 13:1 35:1 54:1 250:1 
2 1:0.30769231 2:0.30769231 3:0.5483871 4:0.6091954 5:0.48027369 13:1 155:1 207:1 216:1 
0.9621043401513828 1:0.53846154 2:0.53846154 3:0.5483871 4:0.35632184 5:0.62439948 13:1 104:1 208:1 250:1 
2 1:0.53846154 2:0.53846154 3:0.35483871 4:0.54022989 5:0.59819479 13:1 56:1 129:1 144:1 251:1 
2 1:0.38461538 2:0.38461538 3:0.5483871 4:0.41483804 5:0.61566458 13:1 54:1 83:1 102:1 131:1 208:1 
0.07960007699929755 1:0.30769231 2:0.30769231 3:0.39950372 4:0.54376658 5:0.61653807 63:1 184:1 240:1 249:1 264:1 
1.555490465835621 1:0.61538462 2:0.61538462 3:0.20595533 4:0.40229885 5:0.69515213 127:1 157:1 163:1 249:1 264:1 
1.065181587045809 1:0.69230769 2:0.69230769 3:0.44466501 4:0.44827586 5:0.61653807 128:1 142:1 162:1 249:1 264:1 
0.6875713348367104 1:0.69230769 2:0.69230769 3:0.33870968 4:0.58138413 5:0.56048915 12:1 57:1 129:1 227:1 248:1 
2 1:0.46153846 2:0.46153846 3:0.67741935 4:0.48465328 5:0.54520309 39:1 75:1 226:1 246:1 
0.1140600632497722 1:0.53846154 2:0.53846154 3:0.4516129 4:0.39655172 5:0.65147765 26:1 221:1 223:1 256:1 
1.657951229784652 1:0.53846154 2:0.53846154 3:0.4516129 4:0.55172414 5:0.59906828 119:1 189:1 239:1 256:1 
1.622560665118555 1:0.46153846 2:0.46153846 3:0.5483871 4:0.37525355 5:0.61653807 155:1 174:1 198:1 256:1 
2 1:0.61538462 2:0.61538462 3:0.71774194 4:0.42068966 5:0.50189256 54:1 130:1 238:1 256:1 
2 1:0.69230769 2:0.69230769 3:0.62365591 4:0.38916256 5:0.59275974 54:1 103:1 166:1 257:1 
2 1:0.61538462 2:0.61538462 3:0.4516129 4:0.57617555 5:0.35667492 10:1 24:1 44:1 59:1 73:1 92:1 251:1 
1.079582813349064 1:0.61538462 2:0.61538462 3:0.24317618 4:0.57617555 5:0.33315789 26:1 38:1 239:1 250:1 
1.428259447743769 1:0.53846154 2:0.53846154 3:0.22580645 4:0.44827586 5:0.50444024 26:1 37:1 43:1 59:1 
-0.6381518216903308 1:0.38461538 2:0.38461538 3:0.72425846 4:0.44827586 5:0.61653807 41:1 75:1 93:1 113:1 172:1 185:1 256:1 
-0.7093917652451979 1:0.46153846 2:0.46153846 3:0.52258065 4:0.56321839 5:0.61046524 49:1 58:1 106:1 180:1 216:1 245:1 
-0.4486668170100866 1:0.53846154 2:0.53846154 3:0.32844575 4:0.37931034 5:0.55817308 7:1 75:1 91:1 112:1 127:1 252:1 
-1.926125959992953 1:0.46153846 2:0.46153846 3:0.56246334 4:0.4535809 5:0.62209664 46:1 158:1 162:1 207:1 233:1 252:1 
-0.7318027346692139 1:0.46153846 2:0.46153846 3:0.28784119 4:0.32873563 5:0.60662732 13:1 26:1 30:1 158:1 176:1 232:1 251:1 
-0.0281373345728139 1:0.53846154 2:0.53846154 3:0.54193548 4:0.24137931 5:0.58800408 16:1 32:1 105:1 180:1 198:1 244:1 248:1 
-1.207026158477522 1:0.38461538 2:0.38461538 3:0.095796676 4:0.33990148 5:0.59913666 18:1 45:1 61:1 86:1 120:1 210:1 252:1 
-2 1:0.61538462 2:0.61538462 3:0.28039702 4:0.34712644 5:0.61168348 86:1 164:1 180:1 188:1 198:1 254:1 
-0.907267950015014 1:0.30769231 2:0.30769231 3:0.5597723 4:0.54022989 5:0.49707552 12:1 39:1 100:1 118:1 169:1 186:1 251:1 
-2 1:0.69230769 2:0.69230769 3:0.43548387 4:0.50679206 5:0.61414637 14:1 19:1 31:1 77:1 154:1 243:1 
-0.3946166500796653 1:0.38461538 2:0.38461538 3:0.34535104 4:0.20689655 5:0.67348617 14:1 27:1 114:1 206:1 232:1 234:1 
-2 1:0.69230769 2:0.69230769 3:0.35993209 4:0.44827586 5:0.61653807 19:1 93:1 127:1 194:1 227:1 256:1 
-2 1:0.38461538 2:0.38461538 3:0.75268817 4:0.35369458 5:0.63012569 41:1 65:1 85:1 101:1 136:1 
-0.2563976060978042 1:0.53846154 2:0.53846154 3:0.4516129 4:0.63218391 5:0.56412869 32:1 75:1 117:1 194:1 231:1 251:1 
-2 1:0.84615385 2:0.84615385 3:0.17204301 4:0.42988506 5:0.64106048 54:1 81:1 177:1 225:1 249:1 
-0.4533581841446581 1:0.38461538 2:0.38461538 3:0.41055718 4:0.36945813 5:0.57021665 88:1 119:1 151:1 165:1 184:1 196:1 253:1 
-2 1:0.30769231 2:0.30769231 3:0.30107527 4:0.32413793 5:0.68107924 13:1 26:1 40:1 43:1 108:1 229:1 
-0.6571753130747262 1:0.53846154 2:0.53846154 3:0.76426799 4:0.6137931 5:0.65769287 41:1 101:1 185:1 191:1 228:1 250:1 
-0.2027892410768197 1:0.23076923 2:0.23076923 3:0.72748504 4:0.39310345 5:0.66799886 75:1 88:1 100:1 161:1 173:1 179:1 253:1 
-2 1:0.61538462 2:0.61538462 3:0.45806452 4:0.67816092 5:0.66370651 12:1 35:1 81:1 130:1 208:1 250:1 
-1.630730762200708 1:0.38461538 2:0.38461538 3:0.20322581 4:0.47142513 5:0.59969913 12:1 76:1 155:1 187:1 213:1 228:1 253:1 
-2 1:0.61538462 2:0.61538462 3:0.24633431 4:0.29153605 5:0.61561164 30:1 122:1 138:1 211:1 236:1 252:1 
-2 1:0.46153846 2:0.46153846 3:0.42670778 4:0.408867 5:0.62755303 25:1 41:1 118:1 181:1 218:1 
-1.383001408301483 1:0.53846154 2:0.53846154 3:0.63225806 4:0.44827586 5:0.60566798 26:1 53:1 112:1 190:1 233:1 
-2 1:0.30769231 2:0.30769231 3:0.30205279 4:0.47126437 5:0.62479652 13:1 25:1 34:1 121:1 146:1 216:1 
-0.7499590700774464 1:0.30769231 2:0.30769231 3:0.60215054 4:0.43752799 5:0.63374905 23:1 36:1 100:1 162:1 191:1 198:1 255:1 
-1.623106765200072 1:0.46153846 2:0.46153846 3:0.42670778 4:0.5270936 5:0.57405179 53:1 86:1 117:1 157:1 232:1 251:1 
-1.923801769505788 1:0.23076923 2:0.23076923 3:0.43735144 4:0.34482759 5:0.6899112 13:1 88:1 95:1 124:1 127:1 183:1 256:1 
-0.9826799577895734 1:0.53846154 2:0.53846154 3:0.27096774 4:0.44827586 5:0.60023293 38:1 56:1 124:1 158:1 237:1 252:1 
-1.134999435721135 1:0.53846154 2:0.53846154 3:0.36693548 4:0.80295567 5:0.75029116 45:1 61:1 108:1 155:1 178:1 251:1 
-0.5419227802994852 1:0.76923077 2:0.76923077 3:0.30815939 4:0.72413793 5:0.67264693 101:1 105:1 129:1 187:1 206:1 251:1 
-0.6432497639332004 1:0.38461538 2:0.38461538 3:0.60967742 4:0.28044369 5:0.66152278 54:1 92:1 135:1 138:1 207:1 253:1 
-1.505219171341297 1:0.30769231 2:0.30769231 3:0.57204301 4:0.32413793 5:0.65662154 24:1 41:1 44:1 63:1 109:1 174:1 253:1 
-0.07352724850736261 1:0.46153846 2:0.46153846 3:0.40029326 4:0.18495298 5:0.60853108 20:1 30:1 54:1 122:1 136:1 162:1 252:1 
-2 1:0.61538462 2:0.61538462 3:0.45806452 4:0.67816092 5:0.66370651 34:1 82:1 96:1 208:1 225:1 240:1 250:1 
-2 1:0.38461538 2:0.38461538 3:0.25502846 4:0.4137931 5:0.57565533 12:1 88:1 103:1 115:1 144:1 252:1 
-0.403029704281454 1:0.076923077 2:0.076923077 3:0.63978495 4:0.56865204 5:0.98170525 39:1 63:1 84:1 100:1 136:1 206:1 252:1 
-0.8326832551747572 1:0.92307692 2:0.92307692 3:0.29222011 4:0.27272727 5:0.2101085 43:1 128:1 153:1 174:1 212:1 250:1 
-2 1:0.23076923 2:0.23076923 3:0.58709677 4:0.34342331 5:0.69602562 12:1 18:1 31:1 64:1 76:1 159:1 256:1 
-2 1:0.76923077 2:0.76923077 3:0.37760911 4:0.40229885 5:0.62416826 70:1 141:1 157:1 190:1 223:1 
-0.981959878819254 1:0.46153846 2:0.46153846 3:0.62531017 4:0.26018809 5:0.5941185 64:1 111:1 128:1 162:1 200:1 217:1 
-1.767879105079003 1:0.38461538 2:0.38461538 3:0.36823821 4:0.48965517 5:0.60822872 12:1 36:1 173:1 175:1 229:1 238:1 252:1 
-0.03531737574666911 1:0.46153846 2:0.46153846 3:0.67096774 4:0.33333333 5:0.59361937 17:1 112:1 136:1 142:1 160:1 175:1 
-0.945614734221663 1:0.69230769 2:0.69230769 3:0.28107376 4:0.35172414 5:0.6127896 31:1 127:1 164:1 208:1 211:1 252:1 
-1.303708458752544 1:0.46153846 2:0.46153846 3:0.16422287 4:0.32915361 5:0.57744279 6:1 37:1 133:1 141:1 158:1 189:1 256:1 
-1.507171460478592 1:0.61538462 2:0.61538462 3:0.6674938 4:0.53103448 5:0.62216536 46:1 63:1 77:1 125:1 152:1 218:1 
-0.9215389983109585 1:0.53846154 2:0.53846154 3:0.63225806 4:0.44827586 5:0.63284321 92:1 138:1 190:1 207:1 219:1 
-2 1:0.46153846 2:0.46153846 3:0.75558313 4:0.46332288 5:0.63697549 20:1 65:1 75:1 107:1 221:1 241:1 
-2 1:0.38461538 2:0.38461538 3:0.18064516 4:0.50614902 5:0.35973213 84:1 91:1 110:1 204:1 229:1 251:1 
-0.05466941850474054 1:0.76923077 2:0.76923077 3:0.48172043 4:0.67586207 5:0.60227107 35:1 143:1 190:1 206:1 236:1 250:1 
-0.7098410503160378 1:0.46153846 2:0.46153846 3:0.34435484 4:0.53694581 5:0.6147547 38:1 108:1 128:1 144:1 208:1 213:1 
-1.86306614808566 1:0.38461538 2:0.38461538 3:0.54740958 4:0.51724138 5:0.6169704 47:1 60:1 92:1 192:1 209:1 252:1 
-2 1:0.53846154 2:0.53846154 3:0.25806452 4:0.54022989 5:0.63226088 69:1 85:1 93:1 168:1 191:1 222:1 
-1.888956106269303 1:0.46153846 2:0.46153846 3:0.59354839 4:0.3908046 5:0.66399767 34:1 49:1 88:1 145:1 214:1 257:1 
-2 1:0.46153846 2:0.46153846 3:0.61532258 4:0.64039409 5:0.53730528 120:1 154:1 208:1 215:1 244:1 250:1 
-1.622069256863738 1:0.46153846 2:0.46153846 3:0.80879765 4:0.47480106 5:0.67249434 20:1 39:1 63:1 76:1 92:1 215:1 
-0.2962691967953222 1:0.53846154 2:0.53846154 3:0.35483871 4:0.44827586 5:0.62439948 13:1 33:1 50:1 54:1 130:1 208:1 251:1 
-2 1:0.46153846 2:0.46153846 3:0.25403226 4:0.62561576 5:0.66112243 14:1 72:1 98:1 155:1 215:1 246:1 
-2 1:0.23076923 2:0.23076923 3:0.3655914 4:0.30114943 5:0.67787645 12:1 25:1 44:1 109:1 174:1 192:1 253:1 
-0.8482111190333478 1:0.38461538 2:0.38461538 3:0.79032258 4:0.51618037 5:0.38724705 12:1 39:1 58:1 186:1 207:1 221:1 
-0.8101014446995839 1:0.23076923 2:0.23076923 3:0.6179966 4:0.75862069 5:0.60295045 51:1 65:1 87:1 159:1 183:1 225:1 255:1 
-0.1022255746014217 1:0.23076923 2:0.23076923 3:0.52767402 4:0.55172414 5:0.55947008 39:1 51:1 148:1 161:1 193:1 225:1 255:1 
-2 1:0.46153846 2:0.46153846 3:0.69326542 4:0.69655172 5:0.60521506 41:1 75:1 93:1 111:1 185:1 257:1 
-0.1385414943308458 1:0.38461538 2:0.38461538 3:0.74516129 4:0.47142513 5:0.63502693 20:1 51:1 92:1 136:1 155:1 243:1 252:1 
-0.05027059932078128 1:0.46153846 2:0.46153846 3:0.52258065 4:0.37931034 5:0.64041345 27:1 32:1 50:1 80:1 171:1 192:1 246:1 
-0.5052050382911075 1:0.61538462 2:0.61538462 3:0.39950372 4:0.67816092 5:0.61653807 21:1 40:1 83:1 128:1 189:1 240:1 251:1 
-0.120138787151709 1:0.53846154 2:0.53846154 3:0.55583127 4:0.53103448 5:0.61751795 8:1 107:1 154:1 162:1 219:1 240:1 
-0.8934532478651319 1:0.46153846 2:0.46153846 3:0.5711575 4:0.48768473 5:0.63272332 45:1 64:1 100:1 104:1 179:1 231:1 
-0.6823089936718573 1:0.53846154 2:0.53846154 3:0.36129032 4:0.34482759 5:0.59208036 25:1 51:1 86:1 91:1 197:1 235:1 
-0.5658765137221614 1:0.84615385 2:0.84615385 3:0.51730205 4:0.4137931 5:0.62308483 20:1 46:1 68:1 209:1 212:1 235:1 253:1 
-2 1:0.53846154 2:0.53846154 3:0.30107527 4:0.44827586 5:0.65050711 12:1 42:1 65:1 69:1 86:1 170:1 
-2 1:0.53846154 2:0.53846154 3:0.64516129 4:0.63218391 5:0.47503276 40:1 111:1 118:1 143:1 190:1 
-2 1:0.30769231 2:0.30769231 3:0.33573854 4:0.62561576 5:0.56303683 12:1 19:1 39:1 51:1 93:1 193:1 255:1 
-2 1:0.61538462 2:0.61538462 3:0.50509338 4:0.86206897 5:0.601252 20:1 53:1 93:1 111:1 192:1 225:1 
-1.466443543244473 1:0.30769231 2:0.30769231 3:0.4629981 4:0.54022989 5:0.53638255 24:1 40:1 99:1 117:1 186:1 204:1 
-0.2280245880893703 1:0.30769231 2:0.30769231 3:0.65654649 4:0.54022989 5:0.45776849 26:1 51:1 99:1 217:1 232:1 245:1 250:1 
-1.895708225488336 1:0.46153846 2:0.46153846 3:0.42697947 4:0.51724138 5:0.61153536 20:1 46:1 60:1 84:1 182:1 233:1 252:1 
-1.09230566658577 1:0.30769231 2:0.30769231 3:0.19648094 4:0.6091954 5:0.64893659 47:1 95:1 168:1 175:1 205:1 216:1 253:1 
-1.138753335634957 1:0.076923077 2:0.076923077 3:0.52688172 4:0.56865204 5:0.92565633 12:1 24:1 41:1 99:1 156:1 193:1 253:1 
-2 1:0.61538462 2:0.61538462 3:0.49112903 4:0.58128079 5:0.61033872 34:1 85:1 143:1 173:1 249:1 
-2 1:0.46153846 2:0.46153846 3:0.6568915 4:0.39811912 5:0.65248349 76:1 142:1 156:1 200:1 256:1 
-0.1429456956470141 1:0.46153846 2:0.46153846 3:0.76426799 4:0.53103448 5:0.62653281 46:1 65:1 75:1 108:1 125:1 188:1 252:1 
-0.02741651602449935 1:0.69230769 2:0.69230769 3:0.28107376 4:0.51724138 5:0.60495059 20:1 46:1 84:1 127:1 158:1 164:1 252:1 
-2 1:0.38461538 2:0.38461538 3:0.41532258 4:0.85550082 5:0.69256806 12:1 24:1 47:1 60:1 155:1 166:1 
-0.01637758287977573 1:0.69230769 2:0.69230769 3:0.14516129 4:0.41483804 5:0.59280827 51:1 91:1 139:1 153:1 187:1 230:1 253:1 
-2 1:0.46153846 2:0.46153846 3:0.44416873 4:0.34712644 5:0.63137059 14:1 24:1 54:1 102:1 208:1 250:1 
-2 1:0.53846154 2:0.53846154 3:0.66004963 4:0.6137931 5:0.61810587 41:1 65:1 106:1 120:1 153:1 219:1 
-2 1:0.23076923 2:0.23076923 3:0.84677419 4:0.32288401 5:0.67731839 53:1 76:1 135:1 208:1 253:1 
-1.206138401473512 1:0.46153846 2:0.46153846 3:0.43390259 4:0.66896552 5:0.75001641 71:1 99:1 176:1 215:1 230:1 241:1 
-2 1:0.46153846 2:0.46153846 3:0.42580645 4:0.65517241 5:0.60110642 59:1 107:1 173:1 218:1 228:1 
-0.3646044880481324 1:0.30769231 2:0.30769231 3:0.6014268 4:0.54285714 5:0.53177878 12:1 96:1 145:1 166:1 208:1 243:1 248:1 
-2 1:0.38461538 2:0.38461538 3:0.41397849 4:0.59014778 5:0.80846314 43:1 101:1 108:1 168:1 252:1 
-0.3136811711768508 1:0.61538462 2:0.61538462 3:0.39950372 4:0.67816092 5:0.61653807 13:1 23:1 81:1 128:1 191:1 240:1 250:1 
-2 1:0.46153846 2:0.46153846 3:0.33995037 4:0.26436782 5:0.64254118 13:1 55:1 102:1 170:1 208:1 
-2 1:0.30769231 2:0.30769231 3:0.26686217 4:0.24137931 5:0.56651094 13:1 18:1 42:1 84:1 120:1 138:1 246:1 
-1.153931950761075 1:0.46153846 2:0.46153846 3:0.32844575 4:0.54858934 5:0.35528527 10:1 36:1 84:1 120:1 128:1 170:1 
-0.6384030197966489 1:0.38461538 2:0.38461538 3:0.43567362 4:0.20689655 5:0.65718103 12:1 65:1 75:1 102:1 115:1 126:1 253:1 
-0.301920482724096 1:0.30769231 2:0.30769231 3:0.39299007 4:0.62561576 5:0.66112243 25:1 47:1 84:1 109:1 207:1 213:1 
-0.1564850288162954 1:0.30769231 2:0.30769231 3:0.56451613 4:0.24406628 5:0.67986606 13:1 76:1 78:1 135:1 164:1 229:1 
-2 1:0.30769231 2:0.30769231 3:0.48172043 4:0.53103448 5:0.70146067 24:1 44:1 109:1 137:1 156:1 252:1 
-2 1:0.38461538 2:0.38461538 3:0.41397849 4:0.35369458 5:0.66579318 71:1 85:1 100:1 176:1 194:1 253:1 
-2 1:0.76923077 2:0.76923077 3:0.36129032 4:0.32413793 5:0.63895764 17:1 80:1 134:1 139:1 247:1 
-0.1095113160119105 1:0.38461538 2:0.38461538 3:0.32258065 4:0.64054336 5:0.43951085 13:1 120:1 155:1 207:1 218:1 225:1 
-2 1:0.23076923 2:0.23076923 3:0.52767402 4:0.44827586 5:0.61653807 41:1 52:1 123:1 127:1 148:1 192:1 255:1 
-2 1:0.38461538 2:0.38461538 3:0.43548387 4:0.49007315 5:0.60765759 13:1 102:1 144:1 168:1 178:1 
-0.9738442198599939 1:0.69230769 2:0.69230769 3:0.29435484 4:0.50082102 5:0.61912214 14:1 34:1 54:1 122:1 207:1 225:1 250:1 
-0.6377455114010321 1:0.46153846 2:0.46153846 3:0.53372434 4:0.46708464 5:0.62191135 7:1 101:1 111:1 182:1 191:1 256:1 
-1.763890107618365 1:0.38461538 2:0.38461538 3:0.58333333 4:0.59014778 5:0.86196438 26:1 39:1 71:1 100:1 136:1 142:1 
-1.511525968404031 1:0.23076923 2:0.23076923 3:0.14112903 4:0.6309897 5:0.62460572 14:1 24:1 36:1 97:1 108:1 194:1 
-0.4395863824467284 1:0.53846154 2:0.53846154 3:0.54193548 4:0.34482759 5:0.6613772 32:1 79:1 132:1 140:1 171:1 244:1 
-0.608625559314641 1:0.30769231 2:0.30769231 3:0.56451613 4:0.36229288 5:0.63230941 12:1 138:1 155:1 162:1 207:1 245:1 253:1 
-2 1:0.30769231 2:0.30769231 3:0.5597723 4:0.54022989 5:0.49707552 13:1 52:1 72:1 101:1 130:1 156:1 
-0.5763297373027783 1:0.46153846 2:0.46153846 3:0.40029326 4:0.52978056 5:0.61186622 53:1 75:1 104:1 122:1 153:1 228:1 252:1 
-0.4827815526855629 1:0.53846154 2:0.53846154 3:0.25806452 4:0.44827586 5:0.69515213 42:1 59:1 117:1 157:1 175:1 192:1 
-2 1:0.23076923 2:0.23076923 3:0.55913978 4:0.48505747 5:0.50492551 13:1 24:1 64:1 70:1 100:1 143:1 253:1 
-0.585609021776726 1:0.53846154 2:0.53846154 3:0.27096774 4:0.55172414 5:0.63148445 25:1 86:1 101:1 121:1 141:1 213:1 251:1 
-2 1:0.30769231 2:0.30769231 3:0.26944972 4:0.81609195 5:0.66216506 12:1 26:1 84:1 99:1 105:1 144:1 251:1 
-0.2701922002812324 1:0.38461538 2:0.38461538 3:0.39848197 4:0.5862069 5:0.65430365 52:1 84:1 187:1 206:1 216:1 233:1 251:1 
-1.522216394023283 1:0.23076923 2:0.23076923 3:0.39354839 4:0.5826702 5:0.60576503 28:1 84:1 112:1 168:1 237:1 252:1 
-0.02837141996022901 1:0.76923077 2:0.76923077 3:0.49172326 4:0.41871921 5:0.61928688 26:1 46:1 96:1 128:1 166:1 233:1 248:1 
-1.117423654867225 1:0.46153846 2:0.46153846 3:0.31612903 4:0.56321839 5:0.60430922 86:1 123:1 190:1 229:1 237:1 252:1 
-2 1:0.46153846 2:0.46153846 3:0.19481341 4:0.25517241 5:0.69336804 26:1 43:1 109:1 122:1 205:1 
-0.5329565455662687 1:0.38461538 2:0.38461538 3:0.50024814 4:0.65517241 5:0.604466 17:1 59:1 96:1 107:1 171:1 230:1 
-0.4763676114582431 1:0.84615385 2:0.84615385 3:0.31202346 4:0.5862069 5:0.57058722 14:1 91:1 164:1 203:1 213:1 238:1 
-0.5227860718322633 1:0.53846154 2:0.53846154 3:0.15053763 4:0.44827586 5:0.68447615 26:1 122:1 175:1 192:1 214:1 242:1 253:1 
-2 1:0.53846154 2:0.53846154 3:0.57478006 4:0.51724138 5:0.60820021 39:1 42:1 75:1 191:1 201:1 248:1 
-0.739813260152663 1:0.92307692 2:0.92307692 3:0.27456012 4:0.39901478 5:0.60924245 8:1 19:1 31:1 68:1 86:1 104:1 
-0.4914054969475576 1:0.46153846 2:0.46153846 3:0.54272779 4:0.2 5:0.6391841 19:1 40:1 123:1 127:1 193:1 245:1 257:1 
-2 1:0.46153846 2:0.46153846 3:0.49627792 4:0.57701149 5:0.56547252 14:1 24:1 209:1 212:1 243:1 251:1 
-0.7243457404272408 1:0.46153846 2:0.46153846 3:0.5483871 4:0.34712644 5:0.62549134 25:1 54:1 72:1 82:1 104:1 208:1 
-0.01671228305264775 1:0.38461538 2:0.38461538 3:0.32258065 4:0.64054336 5:0.43951085 13:1 26:1 155:1 169:1 216:1 227:1 250:1 
-1.704401661749564 1:0.30769231 2:0.30769231 3:0.54193548 4:0.27899687 5:0.71640705 12:1 44:1 90:1 123:1 209:1 229:1 253:1 
-2 1:0.76923077 2:0.76923077 3:0.25620347 4:0.41280788 5:0.60666092 45:1 110:1 128:1 222:1 235:1 
-2 1:0.53846154 2:0.53846154 3:0.4516129 4:0.7492163 5:0.31761052 11:1 59:1 154:1 192:1 239:1 
-0.7913086760161935 1:0.23076923 2:0.23076923 3:0.31061159 4:0.31034483 5:0.63272332 13:1 28:1 39:1 100:1 206:1 235:1 252:1 
-1.259886989155075 1:0.30769231 2:0.30769231 3:0.50509338 4:0.27093596 5:0.65220556 19:1 51:1 75:1 124:1 128:1 193:1 256:1 
-1.763174752582132 3:0.62952102 4:0.6 5:0.85154206 39:1 64:1 100:1 120:1 192:1 204:1 252:1 
-0.7476542819179252 1:0.38461538 2:0.38461538 3:0.31612903 4:0.63346998 5:0.32566604 25:1 57:1 72:1 168:1 204:1 239:1 250:1 
-0.7869582687513023 1:0.53846154 2:0.53846154 3:0.64516129 4:0.44827586 5:0.61653807 51:1 104:1 129:1 189:1 198:1 220:1 255:1 
-0.970203820242588 1:0.38461538 2:0.38461538 3:0.43548387 4:0.53187043 5:0.52118212 12:1 31:1 99:1 171:1 211:1 243:1 
-0.8997370434914964 1:0.38461538 2:0.38461538 3:0.72425846 4:0.31034483 5:0.63272332 19:1 41:1 76:1 149:1 161:1 183:1 256:1 
-2 1:0.53846154 2:0.53846154 3:0.58709677 4:0.25729443 5:0.69602562 14:1 18:1 92:1 116:1 138:1 160:1 255:1 
-0.05883582418581046 1:0.38461538 2:0.38461538 3:0.39476652 4:0.25517241 5:0.63764995 36:1 63:1 90:1 146:1 162:1 222:1 
-2 1:0.30769231 2:0.30769231 3:0.5483871 4:0.54022989 5:0.5719901 56:1 97:1 192:1 208:1 216:1 251:1 
-0.4885760194647014 1:0.23076923 2:0.23076923 3:0.34702886 4:0.34482759 5:0.70621633 14:1 40:1 184:1 193:1 208:1 225:1 255:1 
-1.568539832033294 1:0.61538462 2:0.61538462 3:0.48138958 4:0.33793103 5:0.63624758 39:1 164:1 188:1 230:1 241:1 248:1 
-2 1:0.53846154 2:0.53846154 3:0.58709677 4:0.63925729 5:0.69602562 12:1 45:1 83:1 185:1 239:1 257:1 
-1.884147897298128 1:0.53846154 2:0.53846154 3:0.32844575 4:0.31034483 5:0.62098493 6:1 18:1 46:1 60:1 67:1 234:1 252:1 
-0.4352187679904521 1:0.46153846 2:0.46153846 3:0.34203036 4:0.408867 5:0.6364699 13:1 54:1 74:1 84:1 101:1 105:1 
-2 1:0.23076923 2:0.23076923 3:0.55913978 4:0.48505747 5:0.50492551 24:1 40:1 44:1 65:1 108:1 240:1 253:1 
-2 1:0.53846154 2:0.53846154 3:0.11290323 4:0.52351097 5:0.59607577 12:1 19:1 91:1 122:1 153:1 243:1 252:1 
-0.8889625529985 1:0.69230769 2:0.69230769 3:0.35483871 4:0.45663532 5:0.51608677 43:1 92:1 108:1 126:1 155:1 250:1 
-2 1:0.30769231 2:0.30769231 3:0.3369727 4:0.43554377 5:0.63425423 12:1 42:1 76:1 122:1 159:1 222:1 251:1 
-1.498830157818227 1:0.38461538 2:0.38461538 3:0.51209677 4:0.48768473 5:0.59561071 24:1 46:1 73:1 108:1 126:1 233:1 
-2 1:0.30769231 2:0.30769231 3:0.47245658 4:0.6265252 5:0.55476668 40:1 84:1 167:1 184:1 239:1 251:1 
-1.292482813737476 1:0.30769231 2:0.30769231 3:0.22233251 4:0.34005305 5:0.60731604 13:1 45:1 76:1 108:1 199:1 216:1 253:1 
-1.783631650266266 1:0.30769231 2:0.30769231 3:0.5483871 4:0.33333333 5:0.62701994 13:1 48:1 54:1 102:1 208:1 
-1.231445735965471 1:0.61538462 2:0.61538462 3:0.49503722 4:0.51598746 5:0.61734997 32:1 51:1 91:1 153:1 188:1 207:1 252:1 
-1.297461352421668 1:0.30769231 2:0.30769231 3:0.56451613 4:0.36229288 5:0.63230941 18:1 51:1 76:1 135:1 186:1 215:1 254:1 
-2 1:0.23076923 2:0.23076923 3:0.43735144 4:0.24137931 5:0.65322463 52:1 64:1 112:1 126:1 192:1 225:1 256:1 
-0.005049589531679092 1:0.53846154 2:0.53846154 3:0.5483871 4:0.54022989 5:0.59295385 17:1 113:1 117:1 191:1 217:1 238:1 253:1 
-0.1876331411628129 1:0.38461538 2:0.38461538 3:0.31854839 4:0.60591133 5:0.60398166 38:1 84:1 109:1 192:1 209:1 213:1 
-0.4034925583601233 1:0.38461538 2:0.38461538 3:0.43548387 4:0.64054336 5:0.38346193 12:1 34:1 48:1 102:1 168:1 192:1 250:1 
-0.2702685835316128 1:0.38461538 2:0.38461538 3:0.39848197 4:0.37931034 5:0.63392223 52:1 56:1 74:1 86:1 100:1 217:1 251:1 
-1.966584897465593 1:0.23076923 2:0.23076923 3:0.7143695 4:0.55172414 5:0.59146274 111:1 136:1 143:1 172:1 232:1 
-2 1:0.53846154 2:0.53846154 3:0.52688172 4:0.44827586 5:0.59955355 12:1 137:1 142:1 157:1 176:1 
-1.311092407110769 1:0.38461538 2:0.38461538 3:0.39687195 4:0.45812808 5:0.61300735 47:1 60:1 86:1 126:1 231:1 
-0.8626908815973325 1:0.15384615 2:0.15384615 3:0.64846981 4:0.53103448 5:0.70146067 13:1 40:1 85:1 101:1 135:1 215:1 252:1 
-0.4382000538248698 1:0.46153846 2:0.46153846 3:0.40180266 4:0.36945813 5:0.57922208 12:1 65:1 99:1 115:1 126:1 235:1 252:1 
-2 1:0.46153846 2:0.46153846 3:0.43390259 4:0.25517241 5:0.6771828 25:1 101:1 176:1 193:1 213:1 253:1 
-0.5087926333260866 1:0.38461538 2:0.38461538 3:0.27159937 4:0.46206897 5:0.6059661 14:1 65:1 84:1 164:1 180:1 218:1 252:1 
-2 1:0.30769231 2:0.30769231 3:0.4670088 4:0.44827586 5:0.61862253 48:1 112:1 128:1 183:1 252:1 
-2 1:0.23076923 2:0.23076923 3:0.46319272 4:0.47192118 5:0.61577594 14:1 47:1 76:1 84:1 123:1 180:1 
-1.303963440776363 1:0.69230769 2:0.69230769 3:0.32930108 4:0.54285714 5:0.59318435 12:1 46:1 86:1 98:1 128:1 178:1 
-2 1:0.30769231 2:0.30769231 3:0.57204301 4:0.73793103 5:0.7462998 101:1 137:1 143:1 192:1 228:1 252:1 
-1.942006565361053 1:0.46153846 2:0.46153846 3:0.25403226 4:0.41871921 5:0.64074101 14:1 46:1 62:1 74:1 84:1 208:1 246:1 
-1.058113150455635 1:0.30769231 2:0.30769231 3:0.4670088 4:0.22758621 5:0.6797668 6:1 19:1 76:1 88:1 148:1 150:1 252:1 
-2 1:0.46153846 2:0.46153846 3:0.19975186 4:0.38056426 5:0.60396766 13:1 19:1 38:1 75:1 146:1 200:1 252:1 
-1.106640130988847 1:0.69230769 2:0.69230769 3:0.25806452 4:0.45663532 5:0.47677974 9:1 25:1 38:1 128:1 176:1 228:1 250:1 
-2 1:0.38461538 2:0.38461538 3:0.41397849 4:0.35369458 5:0.66579318 40:1 42:1 69:1 85:1 108:1 
-0.3287188895135443 1:0.23076923 2:0.23076923 3:0.20639323 4:0.31034483 5:0.63272332 14:1 28:1 99:1 194:1 205:1 253:1 
-1.803863609380402 1:0.46153846 2:0.46153846 3:0.3542062 4:0.66896552 5:0.73922625 39:1 71:1 108:1 122:1 176:1 206:1 
-1.78403029244657 1:0.46153846 2:0.46153846 3:0.42580645 4:0.56321839 5:0.60484995 58:1 98:1 107:1 172:1 216:1 
-2 1:0.69230769 2:0.69230769 3:0.42444822 4:0.034482759 5:0.63546368 14:1 20:1 126:1 194:1 226:1 
-1.642164872650008 1:0.53846154 2:0.53846154 3:0.54193548 4:0.75862069 5:0.60227107 12:1 119:1 171:1 197:1 214:1 235:1 251:1 
-2 1:0.30769231 2:0.30769231 3:0.48680352 4:0.49425287 5:0.57723104 12:1 24:1 75:1 172:1 176:1 210:1 251:1 
-2 1:0.38461538 2:0.38461538 3:0.30815939 4:0.48275862 5:0.62984594 25:1 54:1 105:1 145:1 204:1 251:1 
-0.6396641958579655 1:0.38461538 2:0.38461538 3:0.5259962 4:0.4137931 5:0.62457075 40:1 45:1 75:1 87:1 103:1 221:1 253:1 
-1.851908459232376 1:0.46153846 2:0.46153846 3:0.41687345 4:0.23761755 5:0.70903838 8:1 18:1 40:1 121:1 144:1 153:1 246:1 
-0.816062955627604 1:0.30769231 2:0.30769231 3:0.18406072 4:0.35632184 5:0.47549519 14:1 87:1 177:1 193:1 205:1 253:1 
-1.578270387007735 1:0.38461538 2:0.38461538 3:0.4516129 4:0.50614902 5:0.41272383 10:1 24:1 85:1 108:1 120:1 128:1 
-1.923448003315713 1:0.53846154 2:0.53846154 3:0.32844575 4:0.37931034 5:0.61403671 20:1 32:1 120:1 158:1 192:1 234:1 
-0.3150078960868413 1:0.46153846 2:0.46153846 3:0.66236559 4:0.29821902 5:0.68413646 14:1 32:1 64:1 76:1 91:1 220:1 257:1 
-0.1753700516788018 1:0.76923077 2:0.76923077 3:0.36129032 4:0.51410658 5:0.38622798 10:1 42:1 59:1 153:1 169:1 176:1 250:1 
-1.824743176210155 1:0.53846154 2:0.53846154 3:0.36129032 4:0.44827586 5:0.62197312 26:1 100:1 121:1 179:1 214:1 235:1 
-2 1:0.38461538 2:0.38461538 3:0.32930108 4:0.47192118 5:0.62120881 14:1 26:1 42:1 109:1 135:1 143:1 
-0.2215252425215579 1:0.53846154 2:0.53846154 3:0.082111437 4:0.37931034 5:0.597361 20:1 86:1 122:1 157:1 192:1 235:1 
-2 1:0.38461538 2:0.38461538 3:0.32258065 4:0.49007315 5:0.61886738 12:1 26:1 55:1 73:1 83:1 208:1 
-2 1:0.30769231 2:0.30769231 3:0.57204301 4:0.63448276 5:0.79113893 84:1 101:1 108:1 137:1 215:1 253:1 
-0.2220254374144735 1:0.38461538 2:0.38461538 3:0.58333333 4:0.47192118 5:0.54095696 13:1 65:1 70:1 100:1 135:1 175:1 252:1 
-0.9054274194663448 1:0.38461538 2:0.38461538 3:0.4610873 4:0.31034483 5:0.60820021 14:1 65:1 76:1 114:1 156:1 198:1 
-0.1812126617030304 1:0.61538462 2:0.61538462 3:0.76426799 4:0.53103448 5:0.62653281 46:1 63:1 77:1 125:1 164:1 200:1 252:1 
-0.2245604904212573 1:0.46153846 2:0.46153846 3:0.41290323 4:0.3908046 5:0.63138739 24:1 140:1 175:1 195:1 229:1 234:1 251:1 
-2 1:0.38461538 2:0.38461538 3:0.32258065 4:0.64054336 5:0.43951085 13:1 26:1 146:1 155:1 207:1 251:1 
-0.1708598499761625 1:0.53846154 2:0.53846154 3:0.3803056 4:0.24137931 5:0.65837362 19:1 76:1 126:1 183:1 194:1 225:1 
-0.5249654203294263 1:0.38461538 2:0.38461538 3:0.66952402 4:0.46206897 5:0.56458682 40:1 84:1 129:1 160:1 208:1 221:1 250:1 
-2 1:0.38461538 2:0.38461538 3:0.50024814 4:0.24137931 5:0.58800408 80:1 172:1 181:1 217:1 
-0.992883485233533 1:0.53846154 2:0.53846154 3:0.5483871 4:0.44827586 5:0.60867666 16:1 28:1 45:1 119:1 224:1 238:1 253:1 
-2 1:0.53846154 2:0.53846154 3:0.79032258 4:0.52351097 5:0.63415344 22:1 36:1 77:1 101:1 200:1 255:1 
-0.9657469999633557 1:0.69230769 2:0.69230769 3:0.60681115 4:0.72413793 5:0.63433238 45:1 87:1 101:1 116:1 128:1 179:1 
-1.952862131339583 1:0.46153846 2:0.46153846 3:0.26686217 4:0.41114058 5:0.56651094 14:1 18:1 76:1 156:1 180:1 225:1 248:1 
-2 1:0.23076923 2:0.23076923 3:0.81290323 4:0.48946794 5:0.75377299 12:1 64:1 75:1 160:1 167:1 257:1 
-1.948627521232814 1:0.38461538 2:0.38461538 3:0.57667494 4:0.32413793 5:0.66310178 24:1 36:1 66:1 92:1 112:1 125:1 
-0.4695129812116481 1:0.53846154 2:0.53846154 3:0.73684211 4:0.86206897 5:0.61171089 41:1 75:1 93:1 113:1 185:1 226:1 255:1 
-1.678337278922977 1:0.30769231 2:0.30769231 3:0.49032258 4:0.57161804 5:0.68437909 14:1 47:1 63:1 75:1 90:1 227:1 255:1 
-2 1:0.38461538 2:0.38461538 3:0.48387097 4:0.71577847 5:0.74435871 70:1 84:1 111:1 119:1 204:1 
-2 1:0.23076923 2:0.23076923 3:0.31265509 4:0.47192118 5:0.60784983 13:1 36:1 45:1 75:1 108:1 216:1 
-0.5173184080128198 1:0.23076923 2:0.23076923 3:0.27741935 4:0.70999116 5:0.90216917 24:1 48:1 98:1 179:1 192:1 216:1 
-0.07325397734291515 1:0.38461538 2:0.38461538 3:0.60967742 4:0.34410417 5:0.6403261 52:1 75:1 80:1 122:1 162:1 243:1 
-2 1:0.15384615 2:0.15384615 3:0.58709677 4:0.4403183 5:0.64507206 25:1 40:1 111:1 119:1 132:1 196:1 
-0.8687115252504908 1:0.53846154 2:0.53846154 3:0.54193548 4:0.44827586 5:0.63284321 39:1 90:1 112:1 158:1 214:1 250:1 
-0.9400177664836147 1:0.69230769 2:0.69230769 3:0.49411765 4:0.37931034 5:0.63655982 58:1 78:1 116:1 173:1 194:1 
-0.2119182826212966 3:0.50635386 4:0.66896552 5:0.75982566 63:1 99:1 108:1 120:1 204:1 228:1 253:1 
-1.414351315641702 1:0.46153846 2:0.46153846 3:0.11612903 4:0.71264368 5:0.73717669 12:1 26:1 121:1 143:1 177:1 206:1 251:1 
-0.2919918617841201 1:0.23076923 2:0.23076923 3:0.50087977 4:0.24137931 5:0.60430922 37:1 66:1 124:1 138:1 171:1 228:1 
-2 1:0.23076923 2:0.23076923 3:0.55718475 4:0.48275862 5:0.61892031 12:1 41:1 64:1 84:1 180:1 191:1 246:1 
-1.107670969154411 1:0.69230769 2:0.69230769 3:0.62365591 4:0.33004926 5:0.60464891 70:1 88:1 91:1 103:1 140:1 256:1 
-0.5786068617188395 1:0.53846154 2:0.53846154 3:0.3803056 4:0.24137931 5:0.65837362 14:1 40:1 127:1 160:1 194:1 226:1 
-1.755489038713194 1:0.30769231 2:0.30769231 3:0.42903226 4:0.42946708 5:0.615519 26:1 36:1 91:1 123:1 208:1 219:1 
-0.5051185950254803 1:0.61538462 2:0.61538462 3:0.38685958 4:0.34975369 5:0.63684456 38:1 46:1 72:1 126:1 165:1 233:1 246:1 
-2 1:0.38461538 2:0.38461538 3:0.51793368 4:0.32413793 5:0.63487066 36:1 76:1 92:1 162:1 252:1 
-0.009542786188170912 1:0.38461538 2:0.38461538 3:0.57667494 4:0.40689655 5:0.6337055 12:1 42:1 173:1 207:1 221:1 237:1 253:1 
-0.9325177211516229 1:0.23076923 2:0.23076923 3:0.33870968 4:0.48840125 5:0.60853108 14:1 52:1 75:1 155:1 215:1 229:1 252:1 
-0.9217198312200456 1:0.46153846 2:0.46153846 3:0.41290323 4:0.3908046 5:0.63138739 13:1 174:1 204:1 215:1 229:1 236:1 250:1 
-0.6254787630297618 1:0.53846154 2:0.53846154 3:0.4516129 4:0.34482759 5:0.63400786 25:1 32:1 55:1 71:1 174:1 222:1 255:1 
-2 1:0.46153846 2:0.46153846 3:0.17369727 4:0.56112853 5:0.57917213 13:1 43:1 75:1 141:1 158:1 240:1 251:1 
-2 1:0.46153846 2:0.46153846 3:0.70471464 4:0.32873563 5:0.55959327 42:1 88:1 101:1 137:1 210:1 251:1 
-0.1677236139582768 1:0.53846154 2:0.53846154 3:0.37191651 4:0.72413793 5:0.68127906 12:1 106:1 118:1 170:1 182:1 243:1 
-2 1:0.69230769 2:0.69230769 3:0.56486567 4:0.5862069 5:0.65430365 53:1 56:1 129:1 231:1 250:1 
-0.0671387600830938 1:0.23076923 2:0.23076923 3:0.31265509 4:0.29458128 5:0.619739 14:1 37:1 76:1 125:1 180:1 218:1 253:1 
-0.07408520357865628 1:0.46153846 2:0.46153846 3:0.65136476 4:0.38056426 5:0.63599561 47:1 76:1 123:1 126:1 152:1 188:1 252:1 
-1.040696438735726 1:0.38461538 2:0.38461538 3:0.57667494 4:0.59310345 5:0.61167788 25:1 41:1 63:1 119:1 134:1 195:1 250:1 
-1.869480416444583 1:0.46153846 2:0.46153846 3:0.5483871 4:0.26436782 5:0.63313437 13:1 56:1 102:1 169:1 208:1 250:1 
-0.771567131880069 1:0.53846154 2:0.53846154 3:0.31612903 4:0.25729443 5:0.72782064 14:1 30:1 114:1 126:1 140:1 206:1 255:1 
-2 1:0.23076923 2:0.23076923 3:0.43735144 4:0.34482759 5:0.6899112 14:1 64:1 76:1 93:1 148:1 184:1 255:1 
-2 1:0.46153846 2:0.46153846 3:0.5483871 4:0.42988506 5:0.61275295 12:1 54:1 102:1 179:1 208:1 226:1 
-1.400801335887851 1:0.76923077 2:0.76923077 3:0.5113852 4:0.44827586 5:0.60844545 14:1 56:1 130:1 233:1 245:1 249:1 
-0.5702452628471759 1:0.61538462 2:0.61538462 3:0.31612903 4:0.52216749 5:0.59208036 14:1 26:1 67:1 156:1 197:1 214:1 
-0.2276442058327426 1:0.53846154 2:0.53846154 3:0.5229202 4:0.24137931 5:0.64550115 14:1 113:1 127:1 184:1 225:1 244:1 257:1 
-0.9809577787077972 1:0.30769231 2:0.30769231 3:0.6014268 4:0.57832512 5:0.57861686 61:1 144:1 166:1 208:1 231:1 
-0.1777028323801251 1:0.61538462 2:0.61538462 3:0.58504399 4:0.36677116 5:0.63322701 18:1 32:1 84:1 104:1 164:1 233:1 252:1 
-1.496875106422929 1:0.38461538 2:0.38461538 3:0.24633431 4:0.51724138 5:0.60338279 46:1 60:1 84:1 156:1 164:1 180:1 254:1 
-0.4883696078681211 1:0.61538462 2:0.61538462 3:0.59057072 4:0.50846395 5:0.62155504 23:1 36:1 54:1 164:1 190:1 257:1 
-1.159667488617939 1:0.46153846 2:0.46153846 3:0.3101737 4:0.42988506 5:0.62834138 113:1 158:1 168:1 174:1 223:1 252:1 
-1.257504491882993 1:0.61538462 2:0.61538462 3:0.18238213 4:0.35047022 5:0.59089331 14:1 56:1 153:1 187:1 208:1 230:1 253:1 
-0.8376457846413112 1:0.61538462 2:0.61538462 3:0.38685958 4:0.62561576 5:0.66112243 45:1 60:1 73:1 154:1 166:1 179:1 246:1 
-0.02810805474591936 1:0.46153846 2:0.46153846 3:0.76774194 4:0.51724138 5:0.58800408 63:1 112:1 166:1 197:1 219:1 224:1 
-0.3577739564221917 1:0.30769231 2:0.30769231 3:0.68387097 4:0.62334218 5:0.70476052 47:1 63:1 160:1 183:1 225:1 239:1 255:1 
-2 1:0.76923077 2:0.76923077 3:0.43858561 4:0.47192118 5:0.63476377 20:1 91:1 165:1 195:1 237:1 
-0.7573167181592632 1:0.61538462 2:0.61538462 3:0.40645161 4:0.81773399 5:0.61925559 143:1 173:1 177:1 189:1 204:1 251:1 
-2 1:0.69230769 2:0.69230769 3:0.25403226 4:0.3773399 5:0.64413791 110:1 122:1 154:1 213:1 246:1 
-2 1:0.69230769 2:0.69230769 3:0.35094377 4:0.5862069 5:0.65430365 14:1 53:1 101:1 129:1 206:1 249:1 
-0.09398297180312297 1:0.46153846 2:0.46153846 3:0.20527859 4:0.68652038 5:0.30942707 38:1 58:1 72:1 120:1 155:1 206:1 251:1 
-2 1:0.46153846 2:0.46153846 3:0.51359899 4:0.66896552 5:0.76080658 71:1 86:1 99:1 135:1 176:1 
-0.4321410856270623 1:0.46153846 2:0.46153846 3:0.52977667 4:0.46332288 5:0.62096151 106:1 120:1 154:1 186:1 220:1 240:1 
-0.8083857969849202 1:0.30769231 2:0.30769231 3:0.16129032 4:0.49204244 5:0.72135682 13:1 76:1 120:1 167:1 177:1 241:1 
-1.519099721914544 1:0.30769231 2:0.30769231 3:0.60967742 4:0.53291536 5:0.63590042 35:1 76:1 87:1 156:1 236:1 255:1 
-2 1:0.46153846 2:0.46153846 3:0.26686217 4:0.41114058 5:0.56651094 14:1 39:1 75:1 103:1 121:1 247:1 
-2 1:0.53846154 2:0.53846154 3:0.54193548 4:0.75862069 5:0.61925559 35:1 71:1 99:1 112:1 213:1 250:1 
-0.8003989229330846 1:0.61538462 2:0.61538462 3:0.5255132 4:0.48541114 5:0.67934991 19:1 75:1 92:1 138:1 225:1 239:1 255:1 
-0.1626496864770756 1:0.23076923 2:0.23076923 3:0.53743979 4:0.75172414 5:0.69545845 24:1 40:1 72:1 99:1 118:1 180:1 251:1 
-2 1:0.38461538 2:0.38461538 3:0.63225806 4:0.48299976 5:0.6281846 7:1 75:1 101:1 143:1 240:1 256:1 
-0.1844245716260001 1:0.84615385 2:0.84615385 3:0.60762463 4:0.51724138 5:0.61968793 20:1 32:1 47:1 68:1 104:1 233:1 
-1.577427562589529 1:0.38461538 2:0.38461538 3:0.125 4:0.57963875 5:0.6218154 24:1 61:1 74:1 84:1 146:1 153:1 
-2 1:0.30769231 2:0.30769231 3:0.28877171 4:0.74384236 5:0.64328869 24:1 37:1 72:1 96:1 122:1 166:1 251:1 
-1.432002750021134 1:0.69230769 2:0.69230769 3:0.41935484 4:0.58202717 5:0.60534908 79:1 101:1 141:1 158:1 190:1 255:1 
-1.079700105980136 1:0.38461538 2:0.38461538 3:0.24633431 4:0.45812808 5:0.60508124 46:1 84:1 102:1 120:1 139:1 156:1 252:1 
-0.3694750985924268 1:0.30769231 2:0.30769231 3:0.020527859 4:0.29655172 5:0.59319208 7:1 85:1 120:1 181:1 194:1 253:1 
-0.6545385003074676 1:0.38461538 2:0.38461538 3:0.75268817 4:0.59014778 5:0.91546562 12:1 41:1 44:1 65:1 99:1 137:1 252:1 
-0.07258780329836576 1:0.23076923 2:0.23076923 3:0.4516129 4:0.43824451 5:0.73882661 42:1 109:1 120:1 168:1 210:1 228:1 251:1 
-0.1567498019230394 1:0.30769231 2:0.30769231 3:0.22233251 4:0.27639257 5:0.61185818 13:1 64:1 85:1 110:1 182:1 224:1 252:1 
-2 1:0.46153846 2:0.46153846 3:0.33995037 4:0.51264368 5:0.6107932 12:1 54:1 98:1 179:1 
-0.7897596407676981 1:0.15384615 2:0.15384615 3:0.42555831 4:0.42068966 5:0.61680531 14:1 36:1 75:1 109:1 125:1 180:1 252:1 
-2 1:0.30769231 2:0.30769231 3:0.62878412 4:0.34005305 5:0.64138213 64:1 76:1 84:1 236:1 252:1 
-2 1:0.61538462 2:0.61538462 3:0.63636364 4:0.40583554 5:0.5915245 14:1 77:1 188:1 209:1 
-0.4158033428139946 1:0.30769231 2:0.30769231 3:0.52859238 4:0.46206897 5:0.61964873 46:1 84:1 156:1 192:1 231:1 234:1 
-0.3108039815718308 1:0.53846154 2:0.53846154 3:0.63225806 4:0.44827586 5:0.60023293 135:1 142:1 160:1 166:1 220:1 223:1 
-2 1:0.30769231 2:0.30769231 3:0.5711575 4:0.35632184 5:0.63272332 12:1 40:1 63:1 128:1 161:1 205:1 
-2 1:0.46153846 2:0.46153846 3:0.75558313 4:0.38808777 5:0.65298946 41:1 65:1 107:1 220:1 246:1 
-0.4778511887025262 1:0.46153846 2:0.46153846 3:0.34435484 4:0.43349754 5:0.62426603 12:1 73:1 109:1 126:1 146:1 166:1 250:1 
-0.8081095487346748 1:0.53846154 2:0.53846154 3:0.16129032 4:0.72413793 5:0.7816276 14:1 83:1 98:1 131:1 144:1 153:1 
-0.1170573942556843 1:0.23076923 2:0.23076923 3:0.50806452 4:0.48840125 5:0.6189534 51:1 75:1 120:1 155:1 164:1 181:1 252:1 
-2 1:0.46153846 2:0.46153846 3:0.5483871 4:0.5954023 5:0.51084583 24:1 104:1 154:1 207:1 216:1 
-1.150736157351995 1:0.23076923 2:0.23076923 3:0.41290323 4:0.51900973 5:0.60011647 12:1 96:1 122:1 193:1 209:1 217:1 
-2 1:0.30769231 2:0.30769231 3:0.5483871 4:0.54022989 5:0.5719901 13:1 102:1 131:1 144:1 207:1 
-2 1:0.61538462 2:0.61538462 3:0.58145161 4:0.52216749 5:0.63360751 21:1 64:1 214:1 257:1 
