svm_type c_svc
kernel_type rbf
gamma 0.0625
nr_class 2
total_sv 550
rho 10.437
label 1 0
probA -4.53392
probB 0.327892
nr_sv 250 300
SV
2 1:0.61538462 2:0.61538462 3:0.26602086 4:0.46524064 5:0.59495134 47:1 127:1 138:1 
2 1:0.38461538 2:0.38461538 3:0.17039245 4:0.37815126 5:0.59406508 62:1 85:1 102:1 252:1 
2 1:0.38461538 2:0.38461538 3:0.17039245 4:0.37815126 5:0.59406508 138:1 158:1 193:1 252:1 
1.960646498179142 1:0.53846154 2:0.53846154 3:0.4485842 4:0.35294118 5:0.62766222 128:1 162:1 233:1 253:1 
1.137154668668038 1:0.46153846 2:0.46153846 3:0.32339791 4:0.25791855 5:0.65840723 126:1 138:1 210:1 253:1 
0.9419037913808067 1:0.61538462 2:0.61538462 3:0.36164928 4:0.46524064 5:0.60145054 92:1 122:1 233:1 
0.1952563467325064 1:0.46153846 2:0.46153846 3:0.506095 4:0.48342246 5:0.61279013 39:1 65:1 107:1 246:1 
2 1:0.61538462 2:0.61538462 3:0.45145019 4:0.37647059 5:0.63406026 42:1 154:1 221:1 246:1 
2 1:0.53846154 2:0.53846154 3:0.3442623 4:0.32941176 5:0.64072178 6:1 42:1 219:1 247:1 
1.590514784708499 1:0.46153846 2:0.46153846 3:0.38599106 4:0.48868778 5:0.60933123 34:1 48:1 77:1 253:1 
1.984278290864525 1:0.53846154 2:0.53846154 3:0.3442623 4:0.58823529 5:0.61286981 165:1 203:1 221:1 252:1 
1.346602267478016 1:0.46153846 2:0.46153846 3:0.38599106 4:0.32579186 5:0.70887545 184:1 222:1 234:1 
0.5990384390247209 1:0.61538462 2:0.61538462 3:0.46195881 4:0.52192513 5:0.60505341 23:1 44:1 190:1 256:1 
1.580509883111652 1:0.61538462 2:0.61538462 3:0.46195881 4:0.59251337 5:0.59789519 22:1 164:1 191:1 255:1 
0.9041488808572973 1:0.46153846 2:0.46153846 3:0.41381023 4:0.48663102 5:0.60542526 79:1 112:1 191:1 255:1 
1.275730500356767 1:0.38461538 2:0.38461538 3:0.38545607 4:0.36470588 5:0.65593811 15:1 172:1 229:1 247:1 
1.404305741940766 1:0.53846154 2:0.53846154 3:0.26775956 4:0.47058824 5:0.59130963 50:1 105:1 171:1 246:1 
1.840292176252863 1:0.61538462 2:0.61538462 3:0.36338798 4:0.34453782 5:0.68170769 50:1 173:1 198:1 248:1 
0.8527040922987545 1:0.53846154 2:0.53846154 3:0.3442623 4:0.55882353 5:0.58989162 106:1 171:1 230:1 
0.5586659813221497 1:0.84615385 2:0.84615385 3:0.40868565 4:0.47058824 5:0.60698236 32:1 80:1 106:1 248:1 
0.09761907159529279 1:0.53846154 2:0.53846154 3:0.42076503 4:0.38235294 5:0.64661197 17:1 59:1 198:1 246:1 
0.01725630448649702 1:0.53846154 2:0.53846154 3:0.3442623 4:0.47058824 5:0.59981768 35:1 64:1 175:1 
0.200364103527564 1:0.53846154 2:0.53846154 3:0.42076503 4:0.64705882 5:0.5700395 83:1 111:1 224:1 251:1 
0.7735241007132575 1:0.76923077 2:0.76923077 3:0.4845173 4:0.29411765 5:0.57712955 142:1 176:1 222:1 250:1 
2 1:0.46153846 2:0.46153846 3:0.36612022 4:0.45098039 5:0.59465208 121:1 137:1 222:1 251:1 
1.207515299947361 1:0.61538462 2:0.61538462 3:0.32513661 4:0.39495798 5:0.59237314 112:1 175:1 223:1 251:1 
0.05260361946834096 1:0.46153846 2:0.46153846 3:0.28415301 4:0.45098039 5:0.60285627 64:1 121:1 165:1 
0.9387950477815478 1:0.53846154 2:0.53846154 3:0.42076503 4:0.55882353 5:0.61257976 16:1 21:1 35:1 257:1 
2 1:0.38461538 2:0.38461538 3:0.36338798 4:0.32743727 5:0.61911273 12:1 31:1 51:1 77:1 78:1 102:1 253:1 
2 1:0.38461538 2:0.38461538 3:0.13387978 4:0.32743727 5:0.56381039 12:1 31:1 52:1 55:1 181:1 253:1 
2 1:0.46153846 2:0.46153846 3:0.30079483 4:0.42245989 5:0.59726251 92:1 102:1 120:1 245:1 254:1 264:1 
2 1:0.61538462 2:0.61538462 3:0.38104245 4:0.38716578 5:0.60986841 32:1 56:1 75:1 78:1 153:1 253:1 
0.7200601806863258 1:0.53846154 2:0.53846154 3:0.3442623 4:0.47058824 5:0.59981768 20:1 51:1 54:1 153:1 252:1 
2 1:0.38461538 2:0.38461538 3:0.36338798 4:0.32743727 5:0.61911273 18:1 51:1 54:1 76:1 153:1 253:1 
1.388551025727909 1:0.53846154 2:0.53846154 3:0.2295082 4:0.41628959 5:0.84867821 81:1 91:1 205:1 256:1 
2 1:0.46153846 2:0.46153846 3:0.65027322 4:0.44343891 5:0.68277119 64:1 161:1 166:1 256:1 
0.7314689819484609 1:0.46153846 2:0.46153846 3:0.64679583 4:0.49321267 5:0.65821386 41:1 75:1 137:1 
0.9693996097386673 1:0.46153846 2:0.46153846 3:0.53204173 4:0.43891403 5:0.79646971 40:1 76:1 191:1 248:1 
0.1426243929083501 1:0.23076923 2:0.23076923 3:0.25568018 4:0.64705882 5:0.5530234 12:1 87:1 93:1 192:1 208:1 255:1 
2 1:0.15384615 2:0.15384615 3:0.34857636 4:0.50980392 5:0.43573382 12:1 76:1 183:1 208:1 255:1 
0.653228913704869 1:0.30769231 2:0.30769231 3:0.31783865 4:0.5210084 5:0.46023245 12:1 64:1 95:1 126:1 255:1 
0.393241685890752 1:0.38461538 2:0.38461538 3:0.44018677 4:0.58823529 5:0.56040538 12:1 20:1 41:1 88:1 93:1 219:1 255:1 
0.8420571007873413 1:0.46153846 2:0.46153846 3:0.48518838 4:0.54117647 5:0.54664236 12:1 20:1 40:1 51:1 65:1 93:1 257:1 
2 1:0.23076923 2:0.23076923 3:0.40868565 4:0.55882353 5:0.54026132 12:1 20:1 40:1 87:1 243:1 255:1 
1.023376464610918 1:0.30769231 2:0.30769231 3:0.24611734 4:0.5210084 5:0.43231541 12:1 18:1 76:1 192:1 225:1 255:1 
2 1:0.61538462 2:0.61538462 3:0.33218292 4:0.58823529 5:0.54238833 12:1 18:1 41:1 95:1 127:1 225:1 
2 1:0.30769231 2:0.30769231 3:0.31783865 4:0.5210084 5:0.46023245 14:1 75:1 111:1 126:1 255:1 
2 1:0.23076923 2:0.23076923 3:0.33218292 4:0.47058824 5:0.59981768 14:1 64:1 95:1 123:1 160:1 256:1 
2 1:0.46153846 2:0.46153846 3:0.29393155 4:0.54117647 5:0.49346703 14:1 41:1 160:1 192:1 225:1 
0.748721172652785 1:0.30769231 2:0.30769231 3:0.31783865 4:0.31932773 5:0.6463461 14:1 40:1 64:1 76:1 93:1 256:1 
0.79961506503653 1:0.38461538 2:0.38461538 3:0.30518195 4:0.47058824 5:0.59981768 14:1 19:1 39:1 75:1 88:1 93:1 256:1 
1.09296611903631 1:0.46153846 2:0.46153846 3:0.29393155 4:0.54117647 5:0.49346703 14:1 19:1 39:1 208:1 225:1 255:1 
0.3460024014225573 1:0.84615385 2:0.84615385 3:0.30224706 4:0.47058824 5:0.59981768 14:1 19:1 93:1 127:1 225:1 257:1 
2 1:0.76923077 2:0.76923077 3:0.31131853 4:0.11764706 5:0.62012099 14:1 19:1 76:1 93:1 128:1 225:1 
1.600454899432635 1:0.53846154 2:0.53846154 3:0.2838654 4:0.64705882 5:0.55615794 14:1 19:1 41:1 93:1 192:1 207:1 
2 1:0.61538462 2:0.61538462 3:0.33218292 4:0.58823529 5:0.54238833 14:1 19:1 41:1 93:1 148:1 225:1 255:1 
1.463479355572179 1:0.53846154 2:0.53846154 3:0.40465919 4:0.47058824 5:0.59981768 14:1 19:1 41:1 113:1 183:1 
2 1:0.46153846 2:0.46153846 3:0.29393155 4:0.4 5:0.70616834 14:1 18:1 39:1 93:1 111:1 126:1 
2 1:0.30769231 2:0.30769231 3:0.31783865 4:0.5210084 5:0.46023245 14:1 18:1 39:1 207:1 257:1 276:1 
2 1:0.30769231 2:0.30769231 3:0.31783865 4:0.62184874 5:0.55328927 14:1 18:1 111:1 219:1 227:1 255:1 
1.096783602608887 1:0.46153846 2:0.46153846 3:0.29393155 4:0.54117647 5:0.49346703 14:1 18:1 40:1 93:1 111:1 225:1 255:1 
0.3253797379583532 1:0.53846154 2:0.53846154 3:0.3442623 4:0.64705882 5:0.56287483 51:1 75:1 93:1 127:1 
1.139050181740252 1:0.23076923 2:0.23076923 3:0.33218292 4:0.47058824 5:0.59981768 112:1 192:1 243:1 256:1 
2 1:0.23076923 2:0.23076923 3:0.33218292 4:0.55882353 5:0.52324521 88:1 95:1 192:1 208:1 255:1 
0.117561462078975 1:0.61538462 2:0.61538462 3:0.44693701 4:0.58823529 5:0.56153145 41:1 64:1 93:1 225:1 257:1 
1.817755598043629 1:0.53846154 2:0.53846154 3:0.46505608 4:0.47058824 5:0.59981768 19:1 51:1 65:1 93:1 112:1 257:1 
1.918906358544847 1:0.38461538 2:0.38461538 3:0.44018677 4:0.35294118 5:0.63922999 19:1 40:1 53:1 64:1 88:1 93:1 255:1 
1.072255415127036 1:0.38461538 2:0.38461538 3:0.44018677 4:0.35294118 5:0.63922999 20:1 75:1 160:1 208:1 
0.9382176062064633 1:0.46153846 2:0.46153846 3:0.35768383 4:0.4 5:0.68844323 20:1 87:1 93:1 244:1 265:1 
0.04417030105986895 1:0.30769231 2:0.30769231 3:0.38955997 4:0.42016807 5:0.71148587 20:1 76:1 160:1 192:1 255:1 
1.644111473568676 1:0.38461538 2:0.38461538 3:0.37268436 4:0.47058824 5:0.59981768 20:1 52:1 75:1 93:1 192:1 256:1 
2 1:0.69230769 2:0.69230769 3:0.48518838 4:0.11764706 5:0.61045275 20:1 52:1 128:1 225:1 257:1 
2 1:0.53846154 2:0.53846154 3:0.46505608 4:0.29411765 5:0.62332678 20:1 41:1 88:1 93:1 172:1 225:1 256:1 
2 1:0.076923077 2:0.076923077 3:0.27921949 4:0.54117647 5:0.48937662 13:1 39:1 51:1 64:1 192:1 255:1 
1.258418652990087 1:0.30769231 2:0.30769231 3:0.31783865 4:0.62184874 5:0.55328927 13:1 41:1 192:1 227:1 255:1 
0.7474234031870401 1:0.46153846 2:0.46153846 3:0.35768383 4:0.4 5:0.68844323 13:1 40:1 76:1 93:1 225:1 257:1 
1.174028303232392 1:0.53846154 2:0.53846154 3:0.3442623 4:0.64705882 5:0.56287483 13:1 19:1 63:1 93:1 227:1 257:1 
0.1611356602477548 1:0.53846154 2:0.53846154 3:0.22346851 4:0.64705882 5:0.54944106 13:1 19:1 95:1 192:1 225:1 
2 1:0.61538462 2:0.61538462 3:0.21742882 4:0.35294118 5:0.67639015 13:1 19:1 194:1 209:1 225:1 266:1 
1.428069726971603 1:0.23076923 2:0.23076923 3:0.33218292 4:0.20588235 5:0.62534184 13:1 19:1 52:1 88:1 160:1 256:1 
2 1:0.46153846 2:0.46153846 3:0.4214361 4:0.25882353 5:0.62345116 13:1 20:1 41:1 128:1 192:1 256:1 
0.7288900655856577 1:0.23076923 2:0.23076923 3:0.33218292 4:0.29411765 5:0.63810392 13:1 18:1 88:1 183:1 256:1 
2 1:0.38461538 2:0.38461538 3:0.37268436 4:0.11764706 5:0.61670867 13:1 18:1 52:1 126:1 257:1 
2 1:0.23076923 2:0.23076923 3:0.25568018 4:0.47058824 5:0.59981768 13:1 18:1 40:1 93:1 192:1 207:1 255:1 
1.688297741857839 1:0.30769231 2:0.30769231 3:0.15006305 4:0.43257919 5:0.58756009 12:1 45:1 84:1 144:1 162:1 253:1 
0.3051393144306661 1:0.076923077 2:0.076923077 3:0.28121059 4:0.49705882 5:0.59397007 12:1 84:1 108:1 123:1 216:1 252:1 
0.9253787217739039 1:0.46153846 2:0.46153846 3:0.3221942 4:0.41283422 5:0.6034114 12:1 84:1 90:1 200:1 
2 1:0.23076923 2:0.23076923 3:0.22656578 4:0.38991597 5:0.5969544 12:1 86:1 123:1 216:1 222:1 253:1 
1.103479994446134 1:0.61538462 2:0.61538462 3:0.28121059 4:0.4627451 5:0.59592345 12:1 86:1 92:1 164:1 
0.9416345350797624 1:0.23076923 2:0.23076923 3:0.35407034 4:0.38991597 5:0.60936197 12:1 76:1 123:1 235:1 252:1 265:1 
1.293713580582812 1:0.38461538 2:0.38461538 3:0.19179181 4:0.36470588 5:0.59574587 12:1 20:1 37:1 84:1 223:1 253:1 
0.1643343841655652 1:0.46153846 2:0.46153846 3:0.3221942 4:0.41283422 5:0.6034114 12:1 20:1 37:1 84:1 164:1 
2 1:0.38461538 2:0.38461538 3:0.19179181 4:0.36470588 5:0.59574587 12:1 18:1 84:1 146:1 200:1 253:1 
0.8246025857103437 1:0.38461538 2:0.38461538 3:0.19179181 4:0.30588235 5:0.60444728 12:1 18:1 84:1 222:1 235:1 253:1 
1.857154482164128 1:0.46153846 2:0.46153846 3:0.035308953 4:0.41283422 5:0.57834303 14:1 19:1 38:1 84:1 234:1 264:1 
2 1:0.53846154 2:0.53846154 3:0.16771753 4:0.4 5:0.59061426 14:1 20:1 38:1 216:1 236:1 253:1 
2 1:0.38461538 2:0.38461538 3:0.40043563 4:0.48235294 5:0.602707 36:1 46:1 64:1 75:1 266:1 
2 1:0.30769231 2:0.30769231 3:0.37957125 4:0.48687783 5:0.60096672 36:1 75:1 144:1 188:1 252:1 
2 1:0.38461538 2:0.38461538 3:0.50475754 4:0.48235294 5:0.60966813 47:1 65:1 75:1 222:1 264:1 
0.9699835436782871 1:0.53846154 2:0.53846154 3:0.3442623 4:0.54117647 5:0.59552275 45:1 63:1 144:1 152:1 
2 1:0.38461538 2:0.38461538 3:0.087469907 4:0.48235294 5:0.5818236 45:1 84:1 146:1 180:1 253:1 
2 1:0.61538462 2:0.61538462 3:0.36317781 4:0.4627451 5:0.60178359 45:1 76:1 128:1 200:1 252:1 
2 1:0.38461538 2:0.38461538 3:0.50475754 4:0.54117647 5:0.60444728 46:1 75:1 123:1 128:1 144:1 252:1 
2 1:0.38461538 2:0.38461538 3:0.29611372 4:0.54117647 5:0.5928454 46:1 84:1 180:1 188:1 216:1 252:1 
0.8148536391593957 1:0.30769231 2:0.30769231 3:0.26481715 4:0.43257919 5:0.59677715 63:1 84:1 162:1 216:1 254:1 
0.1891293790408757 1:0.46153846 2:0.46153846 3:0.51345103 4:0.47700535 5:0.61083907 63:1 77:1 152:1 276:1 
1.025890549845607 1:0.38461538 2:0.38461538 3:0.60907945 4:0.48235294 5:0.61662927 63:1 77:1 125:1 252:1 
0.7110934089291749 1:0.46153846 2:0.46153846 3:0.3221942 4:0.41283422 5:0.6034114 75:1 182:1 186:1 
0.3000757182134604 1:0.53846154 2:0.53846154 3:0.3442623 4:0.47058824 5:0.59981768 86:1 125:1 236:1 252:1 
0.9866202700001193 1:0.30769231 2:0.30769231 3:0.37957125 4:0.43257919 5:0.6059942 85:1 123:1 144:1 236:1 252:1 
2 1:0.30769231 2:0.30769231 3:0.37957125 4:0.37828054 5:0.61389454 76:1 84:1 152:1 217:1 252:1 
2 1:0.15384615 2:0.15384615 3:0.46563682 4:0.4 5:0.61822453 64:1 75:1 180:1 216:1 253:1 
2 1:0.38461538 2:0.38461538 3:0.40043563 4:0.42352941 5:0.60879799 64:1 84:1 164:1 180:1 200:1 216:1 
1.213911388377755 1:0.23076923 2:0.23076923 3:0.22656578 4:0.38991597 5:0.5969544 13:1 36:1 84:1 109:1 
1.649213969006587 1:0.23076923 2:0.23076923 3:0.35407034 4:0.3394958 5:0.61970162 13:1 18:1 36:1 123:1 222:1 252:1 
2 1:0.53846154 2:0.53846154 3:0.47926712 4:0.35294118 5:0.61670867 40:1 46:1 101:1 116:1 253:1 
1.948603248615184 1:0.61538462 2:0.61538462 3:0.44551591 4:0.56470588 5:0.61670867 29:1 45:1 65:1 116:1 264:1 
1.48561699208645 1:0.38461538 2:0.38461538 3:0.23497268 4:0.54188948 5:0.441811 12:1 24:1 30:1 76:1 105:1 251:1 
2 1:0.30769231 2:0.30769231 3:0.26974665 4:0.39215686 5:0.58490097 12:1 26:1 30:1 42:1 75:1 88:1 
0.9931768617264701 1:0.53846154 2:0.53846154 3:0.26229508 4:0.54901961 5:0.47675479 12:1 30:1 42:1 57:1 107:1 251:1 
1.701391271884866 1:0.61538462 2:0.61538462 3:0.15846995 4:0.42156863 5:0.61835308 14:1 26:1 43:1 100:1 249:1 
2 1:0.69230769 2:0.69230769 3:0.13934426 4:0.35854342 5:0.59601945 14:1 25:1 31:1 43:1 117:1 
2 1:0.61538462 2:0.61538462 3:0.31147541 4:0.42156863 5:0.58432088 57:1 105:1 210:1 232:1 
1.387647637546918 1:0.61538462 2:0.61538462 3:0.31147541 4:0.59803922 5:0.53327256 44:1 117:1 156:1 251:1 
1.979651407989321 1:0.61538462 2:0.61538462 3:0.38797814 4:0.50980392 5:0.55879672 42:1 77:1 107:1 141:1 
2 1:0.61538462 2:0.61538462 3:0.46448087 4:0.59803922 5:0.56730477 32:1 58:1 76:1 107:1 251:1 
1.32102108339877 1:0.69230769 2:0.69230769 3:0.42622951 4:0.35854342 5:0.55879672 32:1 42:1 57:1 89:1 
0.5967329701181221 1:0.61538462 2:0.61538462 3:0.23497268 4:0.42156863 5:0.60133698 25:1 31:1 42:1 57:1 251:1 
1.545692717413069 1:0.38461538 2:0.38461538 3:0.33060109 4:0.60606061 5:0.5392991 13:1 100:1 107:1 119:1 251:1 
0.02497696567374623 1:0.38461538 2:0.38461538 3:0.31238616 4:0.4907563 5:0.57677504 12:1 24:1 100:1 141:1 176:1 253:1 
1.657711336357945 1:0.23076923 2:0.23076923 3:0.27140255 4:0.7372549 5:0.71305581 12:1 71:1 120:1 168:1 240:1 
2 1:0.23076923 2:0.23076923 3:0.27140255 4:0.58039216 5:0.81150613 12:1 69:1 84:1 100:1 156:1 241:1 
2 1:0.61538462 2:0.61538462 3:0.23689004 4:0.54117647 5:0.68844323 12:1 69:1 109:1 176:1 213:1 
0.6635168747551563 1:0.30769231 2:0.30769231 3:0.29326047 4:0.71764706 5:0.71822141 12:1 108:1 135:1 215:1 254:1 
0.05053595511497346 1:0.38461538 2:0.38461538 3:0.31238616 4:0.69243697 5:0.72566596 12:1 101:1 141:1 156:1 240:1 
0.3367904263367707 1:0.53846154 2:0.53846154 3:0.40801457 4:0.61176471 5:0.79479388 12:1 101:1 176:1 215:1 
2 1:0.15384615 2:0.15384615 3:0.33445425 4:0.68235294 5:0.73139253 12:1 100:1 108:1 143:1 156:1 252:1 
2 1:0.23076923 2:0.23076923 3:0.35336976 4:0.58039216 5:0.85252709 12:1 100:1 109:1 120:1 143:1 
1.46228693052196 1:0.53846154 2:0.53846154 3:0.28051002 4:0.61176471 5:0.75934366 14:1 24:1 41:1 143:1 176:1 254:1 
2 1:0.46153846 2:0.46153846 3:0.26175935 4:0.42352941 5:0.64903093 24:1 110:1 121:1 176:1 
1.182623653293552 1:0.53846154 2:0.53846154 3:0.40801457 4:0.47058824 5:0.58209258 24:1 41:1 44:1 176:1 252:1 
2 1:0.61538462 2:0.61538462 3:0.29728693 4:0.36470588 5:0.65821725 26:1 101:1 122:1 176:1 
1.675681847433545 1:0.23076923 2:0.23076923 3:0.35336976 4:0.65882353 5:0.74313785 71:1 84:1 100:1 240:1 252:1 
2 1:0.30769231 2:0.30769231 3:0.36976321 4:0.62941176 5:0.7650157 71:1 101:1 168:1 240:1 253:1 
2 1:0.53846154 2:0.53846154 3:0.40801457 4:0.47058824 5:0.58209258 71:1 85:1 101:1 176:1 
2 1:0.46153846 2:0.46153846 3:0.26175935 4:0.54117647 5:0.68844323 69:1 84:1 101:1 122:1 241:1 
2 1:0.38461538 2:0.38461538 3:0.31238616 4:0.4907563 5:0.57677504 69:1 85:1 100:1 168:1 
2 1:0.53846154 2:0.53846154 3:0.3442623 4:0.61176471 5:0.77706877 70:1 86:1 101:1 122:1 136:1 142:1 252:1 
2 1:0.23076923 2:0.23076923 3:0.43533698 4:0.7372549 5:0.7294642 99:1 120:1 135:1 143:1 252:1 
2 1:0.30769231 2:0.30769231 3:0.29326047 4:0.62941176 5:0.74799959 99:1 120:1 141:1 156:1 253:1 
0.9096629480994501 1:0.53846154 2:0.53846154 3:0.21675774 4:0.61176471 5:0.74161856 99:1 170:1 213:1 254:1 
1.640487173465301 1:0.15384615 2:0.15384615 3:0.24618187 4:0.61176471 5:0.74979938 108:1 120:1 192:1 240:1 253:1 
2 1:0.46153846 2:0.46153846 3:0.32926176 4:0.65882353 5:0.73911619 108:1 143:1 176:1 204:1 
2 1:0.46153846 2:0.46153846 3:0.26175935 4:0.54117647 5:0.68844323 110:1 120:1 176:1 240:1 
1.205354819155257 1:0.53846154 2:0.53846154 3:0.21675774 4:0.75294118 5:0.70616834 141:1 156:1 214:1 228:1 254:1 
1.225474886338218 1:0.30769231 2:0.30769231 3:0.21675774 4:0.54117647 5:0.68844323 109:1 156:1 242:1 252:1 
2 1:0.30769231 2:0.30769231 3:0.44626594 4:0.54117647 5:0.68844323 101:1 120:1 135:1 229:1 
1.1837031877795 1:0.46153846 2:0.46153846 3:0.39676417 4:0.30588235 5:0.65747642 85:1 136:1 176:1 
0.2115598542189067 1:0.53846154 2:0.53846154 3:0.28051002 4:0.47058824 5:0.61754279 65:1 206:1 242:1 
2 1:0.46153846 2:0.46153846 3:0.39676417 4:0.54117647 5:0.68844323 64:1 70:1 86:1 101:1 122:1 136:1 142:1 252:1 
1.578249282597709 1:0.30769231 2:0.30769231 3:0.36976321 4:0.27647059 5:0.66291907 64:1 109:1 174:1 253:1 
1.247352065418043 1:0.38461538 2:0.38461538 3:0.24066485 4:0.69243697 5:0.71636028 43:1 108:1 215:1 252:1 276:1 
2 1:0.38461538 2:0.38461538 3:0.24066485 4:0.4907563 5:0.60469209 43:1 204:1 228:1 241:1 
2 1:0.53846154 2:0.53846154 3:0.28051002 4:0.61176471 5:0.75934366 44:1 71:1 215:1 253:1 278:1 
1.951368110165894 1:0.69230769 2:0.69230769 3:0.25500911 4:0.42352941 5:0.65015699 44:1 141:1 158:1 214:1 253:1 
0.3478032888259945 1:0.69230769 2:0.69230769 3:0.19763206 4:0.42352941 5:0.65972855 44:1 206:1 213:1 254:1 
2 1:0.38461538 2:0.38461538 3:0.31238616 4:0.4907563 5:0.57677504 42:1 99:1 141:1 156:1 253:1 
0.7243804472665912 1:0.53846154 2:0.53846154 3:0.28051002 4:0.47058824 5:0.61754279 42:1 100:1 141:1 215:1 254:1 
0.9429354370087195 1:0.46153846 2:0.46153846 3:0.32926176 4:0.54117647 5:0.68844323 42:1 65:1 141:1 156:1 252:1 
2 1:0.38461538 2:0.38461538 3:0.38410747 4:0.4907563 5:0.548858 41:1 43:1 63:1 192:1 253:1 
2 1:0.53846154 2:0.53846154 3:0.3442623 4:0.61176471 5:0.77706877 40:1 71:1 176:1 215:1 254:1 
2 1:0.38461538 2:0.38461538 3:0.24066485 4:0.4907563 5:0.60469209 13:1 24:1 141:1 176:1 192:1 253:1 
0.5530138045355582 1:0.53846154 2:0.53846154 3:0.21675774 4:0.47058824 5:0.6352679 13:1 69:1 176:1 206:1 252:1 
1.015848911542526 1:0.38461538 2:0.38461538 3:0.31238616 4:0.59159664 5:0.80011141 13:1 42:1 143:1 215:1 252:1 
2 1:0.38461538 2:0.38461538 3:0.45226615 4:0.41176471 5:0.60094375 25:1 40:1 53:1 100:1 249:1 
2 1:0.23076923 2:0.23076923 3:0.49031297 4:0.5 5:0.61780061 12:1 24:1 39:1 52:1 63:1 236:1 
1.340345655809843 1:0.23076923 2:0.23076923 3:0.38599106 4:0.55882353 5:0.59169636 12:1 24:1 51:1 63:1 229:1 250:1 
2 1:0.38461538 2:0.38461538 3:0.27364439 4:0.52352941 5:0.58042914 12:1 26:1 40:1 195:1 206:1 250:1 
1.957531317714895 1:0.23076923 2:0.23076923 3:0.28166915 4:0.44117647 5:0.59169636 12:1 25:1 40:1 64:1 235:1 251:1 264:1 
1.527933823139846 1:0.53846154 2:0.53846154 3:0.3442623 4:0.64705882 5:0.58280158 14:1 24:1 41:1 119:1 236:1 251:1 
2 1:0.38461538 2:0.38461538 3:0.27364439 4:0.52352941 5:0.58042914 14:1 26:1 51:1 64:1 68:1 204:1 251:1 
2 1:0.23076923 2:0.23076923 3:0.38599106 4:0.55882353 5:0.59169636 14:1 26:1 40:1 51:1 63:1 195:1 251:1 
2 1:0.53846154 2:0.53846154 3:0.3442623 4:0.47058824 5:0.59981768 14:1 25:1 53:1 65:1 158:1 250:1 
2 1:0.38461538 2:0.38461538 3:0.62673392 4:0.52352941 5:0.62951406 24:1 39:1 53:1 65:1 196:1 250:1 
2 1:0.61538462 2:0.61538462 3:0.37295082 4:0.63445378 5:0.58546035 24:1 51:1 117:1 140:1 250:1 
2 1:0.30769231 2:0.30769231 3:0.32513661 4:0.67112299 5:0.58079273 24:1 111:1 204:1 215:1 228:1 250:1 
2 1:0.46153846 2:0.46153846 3:0.2295082 4:0.42156863 5:0.57429353 13:1 26:1 40:1 175:1 204:1 250:1 
2 1:0.38461538 2:0.38461538 3:0.18537201 4:0.59411765 5:0.57020312 13:1 25:1 119:1 132:1 213:1 251:1 
1.928341073385073 1:0.38461538 2:0.38461538 3:0.18537201 4:0.43529412 5:0.58091999 14:1 24:1 36:1 44:1 174:1 252:1 
1.839067289037212 1:0.30769231 2:0.30769231 3:0.2295082 4:0.45454545 5:0.58705561 24:1 84:1 92:1 229:1 252:1 
2 1:0.30769231 2:0.30769231 3:0.2295082 4:0.45454545 5:0.58705561 36:1 68:1 85:1 123:1 228:1 254:1 
2 1:0.30769231 2:0.30769231 3:0.32513661 4:0.51871658 5:0.59541173 36:1 44:1 84:1 92:1 111:1 228:1 252:1 
2 1:0.38461538 2:0.38461538 3:0.18537201 4:0.36470588 5:0.57478438 85:1 91:1 220:1 230:1 252:1 
2 1:0.30769231 2:0.30769231 3:0.2295082 4:0.45454545 5:0.58705561 66:1 84:1 91:1 111:1 252:1 276:1 
2 1:0.30769231 2:0.30769231 3:0.29460908 4:0.69243697 5:0.7322447 12:1 47:1 60:1 96:1 179:1 246:1 
2 1:0.38461538 2:0.38461538 3:0.31352459 4:0.42577031 5:0.61352932 12:1 85:1 153:1 208:1 246:1 
1.70412756752573 1:0.53846154 2:0.53846154 3:0.20081967 4:0.47058824 5:0.61842905 14:1 25:1 46:1 61:1 153:1 
1.071702403517616 1:0.38461538 2:0.38461538 3:0.31352459 4:0.50420168 5:0.59165147 24:1 46:1 73:1 192:1 246:1 
2 1:0.53846154 2:0.53846154 3:0.27254098 4:0.57142857 5:0.53467791 45:1 60:1 72:1 154:1 246:1 
2 1:0.61538462 2:0.61538462 3:0.28941659 4:0.62184874 5:0.6463461 37:1 46:1 108:1 153:1 179:1 248:1 
2 1:0.53846154 2:0.53846154 3:0.3442623 4:0.26890756 5:0.62640535 37:1 46:1 109:1 128:1 246:1 
0.5297849186423328 1:0.38461538 2:0.38461538 3:0.31352459 4:0.50420168 5:0.59165147 25:1 46:1 97:1 108:1 
1.691895659263626 1:0.38461538 2:0.38461538 3:0.23155738 4:0.50420168 5:0.60532513 13:1 24:1 84:1 153:1 246:1 
1.242228474636048 1:0.46153846 2:0.46153846 3:0.2534153 4:0.35714286 5:0.62649397 13:1 25:1 46:1 122:1 246:1 
0.2019860235085941 1:0.46153846 2:0.46153846 3:0.10040984 4:0.72268908 5:0.62773473 12:1 24:1 36:1 213:1 249:1 266:1 
1.749896816098724 1:0.15384615 2:0.15384615 3:0.35078241 4:0.72268908 5:0.62773473 12:1 24:1 96:1 108:1 208:1 251:1 
2 1:0.38461538 2:0.38461538 3:0.23155738 4:0.84033613 5:0.6687557 12:1 24:1 96:1 155:1 165:1 251:1 
2 1:0.46153846 2:0.46153846 3:0.2534153 4:0.63445378 5:0.56817837 12:1 38:1 72:1 153:1 244:1 250:1 
0.8220388103967921 1:0.23076923 2:0.23076923 3:0.17691257 4:0.75477464 5:0.74472045 12:1 60:1 96:1 120:1 153:1 276:1 
0.03010561202385444 1:0.46153846 2:0.46153846 3:0.2534153 4:0.72268908 5:0.62773473 12:1 62:1 179:1 207:1 249:1 
2 1:0.61538462 2:0.61538462 3:0.086909354 4:0.72268908 5:0.62773473 14:1 26:1 38:1 46:1 120:1 153:1 251:1 
1.061672289232156 1:0.53846154 2:0.53846154 3:0.20081967 4:0.57142857 5:0.59981768 14:1 25:1 46:1 61:1 153:1 251:1 
1.179747565117618 1:0.53846154 2:0.53846154 3:0.27254098 4:0.77310924 5:0.73940292 36:1 46:1 72:1 165:1 251:1 
0.6103945503982313 1:0.38461538 2:0.38461538 3:0.3954918 4:0.68347339 5:0.4226299 47:1 108:1 208:1 251:1 
2 1:0.61538462 2:0.61538462 3:0.28941659 4:0.72268908 5:0.62773473 47:1 122:1 154:1 251:1 
2 1:0.53846154 2:0.53846154 3:0.27254098 4:0.87394958 5:0.66495746 45:1 60:1 84:1 179:1 215:1 250:1 
2 1:0.69230769 2:0.69230769 3:0.3681694 4:0.79327731 5:0.73408538 46:1 60:1 154:1 166:1 251:1 
2 1:0.30769231 2:0.30769231 3:0.29460908 4:0.86386555 5:0.67068403 72:1 144:1 167:1 179:1 192:1 251:1 
1.861144655719867 1:0.61538462 2:0.61538462 3:0.28941659 4:0.72268908 5:0.62773473 37:1 46:1 108:1 153:1 179:1 250:1 
1.14901922704903 1:0.38461538 2:0.38461538 3:0.31352459 4:0.60504202 5:0.57304011 25:1 46:1 97:1 108:1 251:1 
1.129926367084668 1:0.61538462 2:0.61538462 3:0.44945355 4:0.58403361 5:0.58404234 34:1 112:1 190:1 251:1 
1.598601914951817 1:0.69230769 2:0.69230769 3:0.20475731 4:0.38235294 5:0.60828403 86:1 206:1 235:1 250:1 
1.082989470266484 1:0.53846154 2:0.53846154 3:0.3442623 4:0.70588235 5:0.89516864 12:1 34:1 179:1 207:1 249:1 
1.058748456559733 1:0.30769231 2:0.30769231 3:0.42622951 4:0.7254902 5:0.84047402 12:1 96:1 155:1 207:1 251:1 
2 1:0.38461538 2:0.38461538 3:0.42622951 4:0.50623886 5:0.57885141 12:1 96:1 102:1 208:1 250:1 
0.7234602912618975 1:0.46153846 2:0.46153846 3:0.33795712 4:0.45490196 5:0.60404834 14:1 25:1 34:1 208:1 
1.119053265782083 1:0.38461538 2:0.38461538 3:0.42622951 4:0.50623886 5:0.57885141 24:1 102:1 208:1 251:1 
0.7354342812064469 1:0.53846154 2:0.53846154 3:0.26229508 4:0.54901961 5:0.58067457 35:1 50:1 54:1 251:1 
1.81290045370212 1:0.69230769 2:0.69230769 3:0.42622951 4:0.41456583 5:0.60437557 34:1 56:1 208:1 250:1 
0.9152027617890921 1:0.46153846 2:0.46153846 3:0.24968474 4:0.5254902 5:0.59382231 72:1 217:1 225:1 241:1 250:1 
2 1:0.53846154 2:0.53846154 3:0.3442623 4:0.47058824 5:0.59981768 56:1 72:1 122:1 208:1 250:1 
2 1:0.46153846 2:0.46153846 3:0.33795712 4:0.38431373 5:0.61529696 54:1 72:1 82:1 97:1 104:1 217:1 
0.7294689193509782 1:0.46153846 2:0.46153846 3:0.24968474 4:0.5254902 5:0.59382231 54:1 72:1 242:1 250:1 276:1 
2 1:0.46153846 2:0.46153846 3:0.42622951 4:0.31372549 5:0.61713765 54:1 102:1 208:1 
2 1:0.30769231 2:0.30769231 3:0.42622951 4:0.60784314 5:0.45761167 13:1 155:1 207:1 216:1 
1.954112342727586 1:0.53846154 2:0.53846154 3:0.26229508 4:0.54901961 5:0.58067457 13:1 56:1 129:1 144:1 251:1 
2 1:0.38461538 2:0.38461538 3:0.42622951 4:0.44206774 5:0.59890611 13:1 54:1 83:1 102:1 131:1 208:1 
1.623977532118855 1:0.61538462 2:0.61538462 3:0.13619168 4:0.43137255 5:0.68185962 127:1 157:1 163:1 249:1 264:1 
2 1:0.69230769 2:0.69230769 3:0.24863388 4:0.58412176 5:0.54132483 12:1 57:1 129:1 227:1 248:1 
2 1:0.46153846 2:0.46153846 3:0.53551913 4:0.50161603 5:0.52537223 39:1 75:1 226:1 246:1 
2 1:0.38461538 2:0.38461538 3:0.7704918 4:0.50980392 5:0.77210574 51:1 89:1 191:1 256:1 
0.661819780422587 1:0.38461538 2:0.38461538 3:0.54098361 4:0.43137255 5:0.54238833 87:1 174:1 222:1 255:1 
1.163533590527875 1:0.53846154 2:0.53846154 3:0.3442623 4:0.55882353 5:0.58158614 119:1 189:1 239:1 256:1 
0.7843118100082755 1:0.46153846 2:0.46153846 3:0.42622951 4:0.4083045 5:0.59981768 155:1 174:1 198:1 256:1 
2 1:0.61538462 2:0.61538462 3:0.56967213 4:0.44705882 5:0.4801732 54:1 130:1 238:1 256:1 
2 1:0.69230769 2:0.69230769 3:0.48998179 4:0.42016807 5:0.57500253 54:1 103:1 166:1 257:1 
0.2289263390877123 1:0.53846154 2:0.53846154 3:0.50819672 4:0.47058824 5:0.59981768 25:1 166:1 238:1 256:1 
2 1:0.69230769 2:0.69230769 3:0.3442623 4:0.55614973 5:0.34457612 11:1 58:1 176:1 
2 1:0.61538462 2:0.61538462 3:0.3442623 4:0.57967914 5:0.32862352 10:1 24:1 44:1 59:1 73:1 92:1 251:1 
2 1:0.53846154 2:0.53846154 3:0.15300546 4:0.47058824 5:0.48283197 26:1 37:1 43:1 59:1 
-1.53748886676612 1:0.30769231 2:0.30769231 3:0.2063367 4:0.62184874 5:0.6463461 12:1 72:1 85:1 120:1 155:1 213:1 246:1 
-2 1:0.61538462 2:0.61538462 3:0.50431406 4:0.11764706 5:0.60938924 20:1 52:1 64:1 128:1 225:1 257:1 
-0.6012222373777297 1:0.46153846 2:0.46153846 3:0.31483817 4:0.54759358 5:0.59236405 98:1 107:1 120:1 154:1 219:1 246:1 
-1.682757820750125 1:0.69230769 2:0.69230769 3:0.26229508 4:0.71301248 5:0.28402136 10:1 58:1 84:1 154:1 170:1 251:1 
-0.3577258772579065 1:0.38461538 2:0.38461538 3:0.22275796 4:0.76470588 5:0.65199206 53:1 84:1 117:1 146:1 156:1 216:1 251:1 
-0.8938968534340578 1:0.46153846 2:0.46153846 3:0.47540984 4:0.42156863 5:0.69735643 39:1 112:1 118:1 205:1 236:1 
-2 1:0.23076923 2:0.23076923 3:0.43989071 4:0.38074866 5:0.65618353 37:1 112:1 132:1 191:1 198:1 256:1 
-1.136777840876355 1:0.46153846 2:0.46153846 3:0.4703657 4:0.36862745 5:0.5526611 25:1 31:1 77:1 100:1 136:1 142:1 
-1.606484836830967 1:0.53846154 2:0.53846154 3:0.42622951 4:0.54901961 5:0.55332726 34:1 54:1 72:1 82:1 96:1 208:1 250:1 
-1.260894390702124 1:0.30769231 2:0.30769231 3:0.12257824 4:0.29411765 5:0.59938261 61:1 86:1 126:1 157:1 162:1 252:1 
-2 1:0.61538462 2:0.61538462 3:0.19924338 4:0.4627451 5:0.59006331 12:1 46:1 110:1 126:1 223:1 
-1.452684805604282 1:0.30769231 2:0.30769231 3:0.42622951 4:0.52631579 5:0.59981768 25:1 51:1 71:1 88:1 119:1 139:1 255:1 
-0.5381004999483998 1:0.61538462 2:0.61538462 3:0.14880202 4:0.58039216 5:0.39892013 14:1 86:1 105:1 122:1 207:1 238:1 
-1.683943332143485 1:0.23076923 2:0.23076923 3:0.48518838 4:0.47058824 5:0.59981768 19:1 39:1 53:1 111:1 184:1 219:1 256:1 
-0.06310003658473026 1:0.53846154 2:0.53846154 3:0.42076503 4:0.55882353 5:0.59556366 92:1 113:1 119:1 139:1 156:1 196:1 251:1 
-0.928740732786649 1:0.61538462 2:0.61538462 3:0.17039245 4:0.3368984 5:0.59885086 6:1 19:1 31:1 62:1 92:1 207:1 253:1 
-2 1:0.30769231 2:0.30769231 3:0.24611734 4:0.42016807 5:0.76731996 14:1 52:1 192:1 208:1 225:1 256:1 
-0.1123678118804128 1:0.61538462 2:0.61538462 3:0.25598991 4:0.57967914 5:0.31635229 11:1 24:1 59:1 128:1 210:1 237:1 
-2 1:0.30769231 2:0.30769231 3:0.47814208 4:0.35026738 5:0.54983288 48:1 64:1 88:1 222:1 257:1 
-1.208914772790737 1:0.38461538 2:0.38461538 3:0.51492224 4:0.38235294 5:0.60832574 76:1 100:1 185:1 187:1 204:1 257:1 
-2 1:0.46153846 2:0.46153846 3:0.24968474 4:0.5254902 5:0.59382231 14:1 26:1 54:1 120:1 154:1 207:1 
-2 1:0.23076923 2:0.23076923 3:0.22656578 4:0.4907563 5:0.59075061 12:1 38:1 63:1 86:1 123:1 216:1 
-2 1:0.23076923 2:0.23076923 3:0.40137972 4:0.49411765 5:0.61057306 39:1 76:1 89:1 99:1 146:1 252:1 
-0.3570112531531757 1:0.30769231 2:0.30769231 3:0.6047239 4:0.5210084 5:0.57190064 41:1 75:1 113:1 160:1 173:1 192:1 257:1 
-0.09498376251434884 1:0.53846154 2:0.53846154 3:0.3442623 4:0.77310924 5:0.76731996 60:1 144:1 153:1 178:1 207:1 214:1 
-0.4777049984375734 1:0.30769231 2:0.30769231 3:0.46128128 4:0.5210084 5:0.51606655 76:1 149:1 172:1 185:1 192:1 225:1 255:1 
-2 1:0.38461538 2:0.38461538 3:0.33060109 4:0.54188948 5:0.50030386 24:1 173:1 192:1 207:1 211:1 
-0.1276782021948804 1:0.46153846 2:0.46153846 3:0.38104245 4:0.50909091 5:0.62149686 18:1 59:1 76:1 84:1 122:1 185:1 250:1 
-0.8854296993239759 1:0.76923077 2:0.76923077 3:0.17875158 4:0.44033613 5:0.58950985 19:1 38:1 84:1 164:1 187:1 200:1 
-2 1:0.46153846 2:0.46153846 3:0.40100883 4:0.45490196 5:0.59577402 70:1 111:1 137:1 217:1 223:1 253:1 
-1.806422810112623 1:0.38461538 2:0.38461538 3:0.45582878 4:0.59159664 5:0.85594551 65:1 69:1 85:1 100:1 137:1 143:1 252:1 
-0.6209962135023512 1:0.61538462 2:0.61538462 3:0.27322404 4:0.57843137 5:0.55545427 12:1 26:1 35:1 104:1 153:1 209:1 
-2 1:0.53846154 2:0.53846154 3:0.3442623 4:0.47058824 5:0.59981768 55:1 102:1 191:1 255:1 
-1.192856565240365 1:0.38461538 2:0.38461538 3:0.45226615 4:0.5 5:0.56265752 24:1 40:1 100:1 130:1 168:1 188:1 
-2 1:0.46153846 2:0.46153846 3:0.42622951 4:0.5254902 5:0.56927985 12:1 34:1 130:1 169:1 208:1 
-0.9432391384256046 1:0.46153846 2:0.46153846 3:0.61748634 4:0.44982699 5:0.41902157 52:1 55:1 138:1 191:1 219:1 257:1 
-0.50782939785968 1:0.38461538 2:0.38461538 3:0.43699288 4:0.45378151 5:0.61351436 34:1 50:1 88:1 113:1 147:1 234:1 252:1 
-0.8780302665621756 1:0.84615385 2:0.84615385 3:0.36439459 4:0.55882353 5:0.64235795 53:1 68:1 179:1 201:1 224:1 238:1 254:1 
-0.4688863927752148 1:0.23076923 2:0.23076923 3:0.49031297 4:0.47058824 5:0.61606033 24:1 92:1 111:1 124:1 209:1 228:1 252:1 
-2 1:0.38461538 2:0.38461538 3:0.42622951 4:0.50623886 5:0.57885141 13:1 104:1 208:1 216:1 227:1 
-2 1:0.30769231 2:0.30769231 3:0.3635487 4:0.39215686 5:0.5756877 12:1 75:1 88:1 100:1 115:1 
-2 1:0.61538462 2:0.61538462 3:0.28278689 4:0.58823529 5:0.57588879 51:1 117:1 129:1 219:1 237:1 
-1.252847595147564 1:0.38461538 2:0.38461538 3:0.33060109 4:0.50623886 5:0.59054998 13:1 54:1 129:1 144:1 208:1 227:1 
-0.7620719779298348 1:0.53846154 2:0.53846154 3:0.45901639 4:0.47058824 5:0.57216651 12:1 40:1 58:1 94:1 121:1 130:1 246:1 
-2 1:0.30769231 2:0.30769231 3:0.26481715 4:0.26968326 5:0.63364537 12:1 18:1 85:1 92:1 109:1 181:1 
-1.107191014198817 1:0.38461538 2:0.38461538 3:0.45901639 4:0.27873303 5:0.68277119 14:1 30:1 64:1 77:1 114:1 138:1 256:1 
-0.01086319196022736 1:0.38461538 2:0.38461538 3:0.3954918 4:0.50420168 5:0.57797782 13:1 73:1 144:1 154:1 215:1 244:1 248:1 
-0.6610621625005917 1:0.30769231 2:0.30769231 3:0.3219076 4:0.49019608 5:0.59683434 13:1 54:1 103:1 120:1 192:1 208:1 251:1 
-0.3711734263743138 1:0.53846154 2:0.53846154 3:0.23994039 4:0.41176471 5:0.54760918 18:1 42:1 75:1 158:1 189:1 203:1 246:1 
-0.8433449802430498 1:0.46153846 2:0.46153846 3:0.40801457 4:0.40077569 5:0.59154597 42:1 93:1 102:1 147:1 209:1 241:1 
-2 1:0.38461538 2:0.38461538 3:0.24863388 4:0.38173591 5:0.59146156 12:1 18:1 92:1 135:1 162:1 230:1 252:1 
-2 1:0.30769231 2:0.30769231 3:0.11806431 4:0.72268908 5:0.62773473 12:1 25:1 72:1 96:1 146:1 177:1 251:1 
-2 1:0.46153846 2:0.46153846 3:0.51345103 4:0.41283422 5:0.62012365 75:1 123:1 128:1 200:1 216:1 234:1 
-0.9486935555838831 1:0.46153846 2:0.46153846 3:0.50074516 4:0.3800905 5:0.62592194 6:1 149:1 165:1 184:1 197:1 253:1 
-0.1073054469782949 1:0.38461538 2:0.38461538 3:0.38251366 4:0.17441382 5:0.54323914 6:1 78:1 100:1 162:1 198:1 242:1 256:1 
-1.580185410915313 1:0.76923077 2:0.76923077 3:0.3442623 4:0.43850267 5:0.24886053 44:1 128:1 154:1 168:1 210:1 250:1 
-2 1:0.53846154 2:0.53846154 3:0.15300546 4:0.47058824 5:0.65299301 43:1 108:1 141:1 194:1 241:1 
-1.115660116011527 1:0.46153846 2:0.46153846 3:0.42622951 4:0.4083045 5:0.59981768 26:1 30:1 52:1 89:1 199:1 239:1 256:1 
-2 1:0.53846154 2:0.53846154 3:0.42076503 4:0.55882353 5:0.61257976 101:1 112:1 165:1 174:1 203:1 251:1 
-2 1:0.46153846 2:0.46153846 3:0.06557377 4:0.41176471 5:0.5597083 14:1 26:1 38:1 42:1 111:1 230:1 
-2 1:0.15384615 2:0.15384615 3:0.43054357 4:0.2745098 5:0.62443026 40:1 51:1 64:1 76:1 88:1 126:1 
-0.8416962735525968 1:0.46153846 2:0.46153846 3:0.32240437 4:0.64705882 5:0.58371316 15:1 48:1 57:1 105:1 173:1 192:1 
-1.378965913394765 1:0.30769231 2:0.30769231 3:0.29460908 4:0.48067227 5:0.60339679 24:1 38:1 96:1 153:1 232:1 244:1 246:1 
-1.932859446591769 1:0.53846154 2:0.53846154 3:0.20925747 4:0.23529412 5:0.65612097 103:1 116:1 145:1 194:1 253:1 
-0.13534071974176 1:0.69230769 2:0.69230769 3:0.06075217 4:0.52941176 5:0.57297978 38:1 43:1 91:1 158:1 189:1 228:1 
-0.5237361157178035 1:0.46153846 2:0.46153846 3:0.28415301 4:0.45098039 5:0.60285627 49:1 121:1 137:1 165:1 174:1 251:1 
-0.0421038429791801 1:0.23076923 2:0.23076923 3:0.44162941 4:0.47058824 5:0.61064611 15:1 78:1 134:1 171:1 228:1 243:1 
-1.993068141956115 1:0.23076923 2:0.23076923 3:0.27140255 4:0.42352941 5:0.64742226 25:1 43:1 99:1 108:1 169:1 253:1 
-0.9131329753612756 1:0.69230769 2:0.69230769 3:0.21106557 4:0.41456583 5:0.6211258 33:1 50:1 102:1 217:1 226:1 250:1 
-0.4261604251573017 1:0.61538462 2:0.61538462 3:0.35768383 4:0.18823529 5:0.6699718 44:1 137:1 142:1 158:1 174:1 241:1 
-0.3010073801366062 1:0.69230769 2:0.69230769 3:0.3442623 4:0.45577951 5:0.59981768 21:1 43:1 131:1 220:1 226:1 246:1 
-2 1:0.38461538 2:0.38461538 3:0.37576342 4:0.67647059 5:0.69878635 12:1 41:1 51:1 85:1 117:1 156:1 250:1 
-2 1:0.61538462 2:0.61538462 3:0.28121059 4:0.4627451 5:0.59592345 46:1 123:1 127:1 152:1 182:1 253:1 
-0.4730362949698446 1:0.53846154 2:0.53846154 3:0.031296572 4:0.47058824 5:0.57893428 32:1 103:1 122:1 180:1 194:1 252:1 
-1.135609455492177 1:0.53846154 2:0.53846154 3:0.26775956 4:0.55882353 5:0.60690773 14:1 25:1 111:1 177:1 215:1 234:1 250:1 
-2 1:0.30769231 2:0.30769231 3:0.3442623 4:0.64018335 5:0.30469462 59:1 108:1 155:1 192:1 204:1 
-2 1:0.53846154 2:0.53846154 3:0.47926712 4:0.35294118 5:0.61670867 40:1 46:1 100:1 116:1 146:1 221:1 
-0.917308059403931 1:0.61538462 2:0.61538462 3:0.2534153 4:0.59663866 5:0.70962473 27:1 35:1 50:1 81:1 141:1 222:1 
-0.950819891728241 1:0.46153846 2:0.46153846 3:0.63934426 4:0.34313725 5:0.3691887 41:1 64:1 68:1 92:1 111:1 196:1 
-2 1:0.46153846 2:0.46153846 3:0.29393155 4:0.4 5:0.70616834 19:1 64:1 93:1 160:1 192:1 225:1 256:1 
-2 1:0.53846154 2:0.53846154 3:0.3442623 4:0.47058824 5:0.59981768 19:1 76:1 93:1 220:1 227:1 
-2 1:0.30769231 2:0.30769231 3:0.2063367 4:0.58151261 5:0.59705666 13:1 98:1 108:1 126:1 192:1 251:1 
-2 1:0.46153846 2:0.46153846 3:0.3442623 4:0.4973262 5:0.4402917 11:1 24:1 90:1 176:1 229:1 251:1 
-0.4166827560801193 1:0.61538462 2:0.61538462 3:0.14822404 4:0.44537815 5:0.57934518 57:1 73:1 80:1 115:1 134:1 180:1 
-1.447408966303282 1:0.38461538 2:0.38461538 3:0.42622951 4:0.44206774 5:0.59890611 13:1 35:1 54:1 102:1 207:1 
-1.332759015650214 1:0.30769231 2:0.30769231 3:0.60907945 4:0.54117647 5:0.61024823 36:1 46:1 65:1 75:1 125:1 180:1 252:1 
-1.234750062578137 1:0.30769231 2:0.30769231 3:0.42622951 4:0.54901961 5:0.55332726 12:1 24:1 54:1 102:1 192:1 209:1 251:1 
-0.08009384648870255 1:0.53846154 2:0.53846154 3:0.3442623 4:0.47058824 5:0.59981768 23:1 40:1 43:1 191:1 198:1 229:1 250:1 
-1.555087918270371 1:0.38461538 2:0.38461538 3:0.43699288 4:0.30252101 5:0.65073709 6:1 18:1 49:1 75:1 112:1 128:1 
-2 1:0.46153846 2:0.46153846 3:0.17691257 4:0.62184874 5:0.6463461 26:1 37:1 120:1 144:1 153:1 178:1 
-0.007687927295453919 1:0.46153846 2:0.46153846 3:0.51813214 4:0.60427807 5:0.60078451 44:1 101:1 111:1 132:1 143:1 189:1 255:1 
-2 1:0.53846154 2:0.53846154 3:0.25598991 4:0.54117647 5:0.59061426 36:1 45:1 75:1 188:1 235:1 252:1 
-0.0363512514571046 1:0.61538462 2:0.61538462 3:0.41808072 4:0.71764706 5:0.73210297 43:1 101:1 135:1 142:1 204:1 214:1 
-0.5939538601283689 1:0.53846154 2:0.53846154 3:0.42622951 4:0.47058824 5:0.59161349 12:1 34:1 102:1 193:1 209:1 250:1 
-2 1:0.46153846 2:0.46153846 3:0.26175935 4:0.30588235 5:0.66873708 42:1 64:1 86:1 176:1 206:1 252:1 
-0.4725280371699239 1:0.46153846 2:0.46153846 3:0.3948891 4:0.53781513 5:0.5275618 52:1 107:1 169:1 188:1 243:1 249:1 
-0.9372413837137409 1:0.61538462 2:0.61538462 3:0.29210134 4:0.31674208 5:0.60416839 77:1 93:1 102:1 121:1 151:1 246:1 
-0.247306468733806 1:0.53846154 2:0.53846154 3:0.20925747 4:0.47058824 5:0.622339 14:1 86:1 100:1 117:1 187:1 243:1 
-0.5519242594071619 1:0.46153846 2:0.46153846 3:0.43815201 4:0.42081448 5:0.61232194 8:1 47:1 126:1 192:1 233:1 253:1 
-2 1:0.30769231 2:0.30769231 3:0.33122206 4:0.52941176 5:0.57153808 12:1 76:1 156:1 191:1 227:1 246:1 
-0.6677524518340443 1:0.61538462 2:0.61538462 3:0.44693701 4:0.11764706 5:0.61257976 13:1 20:1 89:1 94:1 126:1 225:1 256:1 
-2 1:0.38461538 2:0.38461538 3:0.31238616 4:0.69243697 5:0.72566596 71:1 99:1 141:1 156:1 176:1 192:1 253:1 
-0.2334515293699758 1:0.46153846 2:0.46153846 3:0.62245405 4:0.42780749 5:0.65473329 23:1 75:1 101:1 200:1 224:1 241:1 256:1 
-0.1196187602599827 1:0.46153846 2:0.46153846 3:0.43815201 4:0.31221719 5:0.64181652 7:1 192:1 208:1 210:1 233:1 236:1 253:1 
-0.2300764946235629 1:0.53846154 2:0.53846154 3:0.3442623 4:0.4 5:0.6069759 38:1 125:1 128:1 144:1 200:1 222:1 252:1 
-2 1:0.23076923 2:0.23076923 3:0.22503726 4:0.48529412 5:0.59108075 47:1 62:1 120:1 181:1 231:1 252:1 
-0.2036036438927104 1:0.30769231 2:0.30769231 3:0.52276867 4:0.71764706 5:0.74374557 65:1 70:1 100:1 135:1 143:1 168:1 252:1 
-0.2508878845095994 1:0.46153846 2:0.46153846 3:0.31147541 4:0.5 5:0.58796718 51:1 65:1 86:1 175:1 204:1 234:1 251:1 
-2 1:0.53846154 2:0.53846154 3:0.3442623 4:0.47058824 5:0.59981768 14:1 24:1 51:1 56:1 118:1 186:1 
-2 1:0.46153846 2:0.46153846 3:0.2534153 4:0.81092437 5:0.6872911 24:1 46:1 72:1 108:1 155:1 165:1 
-0.9295788526969744 1:0.23076923 2:0.23076923 3:0.455539 4:0.41176471 5:0.58309163 76:1 100:1 120:1 160:1 222:1 245:1 
-1.013943267675707 1:0.23076923 2:0.23076923 3:0.0095628415 4:0.42780749 5:0.55249164 37:1 114:1 158:1 180:1 216:1 242:1 255:1 
-0.1529704407004264 1:0.38461538 2:0.38461538 3:0.74590164 4:0.56108597 5:0.73062899 46:1 63:1 75:1 92:1 159:1 239:1 256:1 
-2 1:0.46153846 2:0.46153846 3:0.31273644 4:0.59607843 5:0.57941238 39:1 95:1 143:1 175:1 222:1 252:1 
-2 1:0.53846154 2:0.53846154 3:0.098360656 4:0.54901961 5:0.60802188 34:1 50:1 122:1 217:1 225:1 240:1 
-1.172969185890986 1:0.23076923 2:0.23076923 3:0.40983607 4:0.69381599 5:0.78213309 16:1 71:1 135:1 142:1 168:1 216:1 252:1 
-2 1:0.61538462 2:0.61538462 3:0.40511674 4:0.32085561 5:0.6844148 19:1 54:1 126:1 221:1 224:1 252:1 
-0.9420739860458075 1:0.53846154 2:0.53846154 3:0.23994039 4:0.23529412 5:0.66246789 32:1 122:1 138:1 162:1 232:1 235:1 253:1 
-0.6914821356535285 1:0.61538462 2:0.61538462 3:0.356919 4:0.7394958 5:0.70827971 45:1 60:1 96:1 178:1 209:1 214:1 
-1.508190037112415 1:0.076923077 2:0.076923077 3:0.24863388 4:0.43284052 5:0.59146156 13:1 75:1 78:1 120:1 135:1 180:1 252:1 
-0.439319284395214 1:0.30769231 2:0.30769231 3:0.3539055 4:0.70588235 5:0.68025095 24:1 39:1 52:1 84:1 118:1 218:1 251:1 
-0.0105863939702004 1:0.61538462 2:0.61538462 3:0.37368642 4:0.52192513 5:0.59687259 7:1 23:1 75:1 80:1 158:1 224:1 255:1 
-2 1:0.46153846 2:0.46153846 3:0.13561848 4:0.4973262 5:0.37068037 37:1 44:1 57:1 72:1 86:1 228:1 
-2 1:0.61538462 2:0.61538462 3:0.47847761 4:0.18823529 5:0.66325492 44:1 65:1 101:1 176:1 253:1 
-0.7037205754094311 1:0.46153846 2:0.46153846 3:0.72131148 4:0.65686275 5:0.60945436 39:1 51:1 65:1 173:1 195:1 214:1 250:1 
-0.3559828099287214 1:0.30769231 2:0.30769231 3:0.24611734 4:0.42016807 5:0.76731996 14:1 64:1 95:1 126:1 194:1 208:1 255:1 
-2 1:0.46153846 2:0.46153846 3:0.66067985 4:0.50420168 5:0.64462572 29:1 41:1 87:1 161:1 221:1 
-0.2413905850934313 1:0.61538462 2:0.61538462 3:0.1182315 4:0.44919786 5:0.54793146 7:1 18:1 50:1 55:1 111:1 117:1 252:1 
-2 1:0.38461538 2:0.38461538 3:0.38410747 4:0.28907563 5:0.66052618 85:1 101:1 176:1 193:1 253:1 
-0.7584304665442639 1:0.30769231 2:0.30769231 3:0.13387978 4:0.26203209 5:0.64554847 25:1 67:1 84:1 91:1 136:1 229:1 253:1 
-0.7696173603622568 1:0.61538462 2:0.61538462 3:0.36301296 4:0.51764706 5:0.56832955 26:1 52:1 56:1 72:1 129:1 233:1 250:1 
-0.06273552009957958 1:0.46153846 2:0.46153846 3:0.43815201 4:0.47511312 5:0.60561863 20:1 32:1 47:1 60:1 193:1 207:1 
-0.4513780061243456 1:0.30769231 2:0.30769231 3:0.46128128 4:0.42016807 5:0.68356882 19:1 76:1 160:1 184:1 219:1 226:1 255:1 
-0.7648983303276317 1:0.53846154 2:0.53846154 3:0.27675988 4:0.70588235 5:0.66738163 13:1 105:1 119:1 158:1 168:1 245:1 250:1 
-0.6956567800219098 1:0.46153846 2:0.46153846 3:0.61748634 4:0.57439446 5:0.63597691 11:1 32:1 51:1 87:1 119:1 153:1 256:1 
-0.7826741774453171 1:0.15384615 2:0.15384615 3:0.3498875 4:0.44919786 5:0.59721105 12:1 29:1 144:1 161:1 171:1 205:1 253:1 
-2 1:0.38461538 2:0.38461538 3:0.40043563 4:0.48235294 5:0.602707 14:1 75:1 108:1 123:1 152:1 
-0.3494384993536446 1:0.30769231 2:0.30769231 3:0.26481715 4:0.37828054 5:0.60204404 38:1 77:1 108:1 123:1 163:1 181:1 253:1 
-1.192473677784883 1:0.23076923 2:0.23076923 3:0.29508197 4:0.5852187 5:0.5885749 40:1 60:1 119:1 168:1 191:1 222:1 253:1 
-0.541342706611182 1:0.46153846 2:0.46153846 3:0.15846995 4:0.41176471 5:0.58371316 48:1 139:1 158:1 171:1 229:1 247:1 
-2 1:0.46153846 2:0.46153846 3:0.23017927 4:0.82352941 5:0.57500253 14:1 95:1 127:1 159:1 192:1 225:1 255:1 
-2 1:0.46153846 2:0.46153846 3:0.26175935 4:0.42352941 5:0.64903093 43:1 109:1 156:1 176:1 192:1 
-2 1:0.61538462 2:0.61538462 3:0.44514502 4:0.4627451 5:0.60764372 84:1 125:1 152:1 200:1 236:1 252:1 
-0.08635797261749718 1:0.46153846 2:0.46153846 3:0.3442623 4:0.55614973 5:0.34457612 84:1 92:1 168:1 176:1 228:1 239:1 
-0.410925710225264 1:0.53846154 2:0.53846154 3:0.3442623 4:0.70588235 5:0.698268 47:1 95:1 168:1 176:1 190:1 216:1 
-1.431522540604594 1:0.61538462 2:0.61538462 3:0.42442141 4:0.72268908 5:0.62773473 46:1 60:1 84:1 153:1 233:1 245:1 250:1 
-1.419729585969194 1:0.46153846 2:0.46153846 3:0.57755359 4:0.45490196 5:0.57941238 16:1 28:1 41:1 70:1 95:1 222:1 
-2 1:0.30769231 2:0.30769231 3:0.21675774 4:0.36470588 5:0.6671731 13:1 24:1 109:1 157:1 174:1 213:1 
-2 1:0.53846154 2:0.53846154 3:0.40465919 4:0.82352941 5:0.5847047 14:1 41:1 75:1 93:1 185:1 227:1 
-0.3551389286963584 1:0.46153846 2:0.46153846 3:0.32316779 4:0.7394958 5:0.66714703 14:1 26:1 130:1 180:1 231:1 243:1 250:1 
-1.319947461404993 1:0.69230769 2:0.69230769 3:0.45607398 4:0.54117647 5:0.60174018 14:1 46:1 65:1 77:1 164:1 224:1 252:1 
-1.074672535588604 1:0.53846154 2:0.53846154 3:0.4485842 4:0.41176471 5:0.61461009 30:1 46:1 61:1 68:1 156:1 233:1 
-2 1:0.46153846 2:0.46153846 3:0.31147541 4:0.57843137 5:0.58249772 12:1 26:1 40:1 91:1 195:1 215:1 250:1 
-0.02005936901930734 1:0.46153846 2:0.46153846 3:0.55290611 4:0.20361991 5:0.99022126 32:1 138:1 162:1 208:1 232:1 236:1 253:1 
-2 1:0.46153846 2:0.46153846 3:0.17691257 4:0.63445378 5:0.58519447 36:1 74:1 85:1 153:1 215:1 
-1.657529254874553 1:0.30769231 2:0.30769231 3:0.29326047 4:0.36470588 5:0.65866505 12:1 40:1 42:1 99:1 175:1 194:1 253:1 
-0.5946556297400525 1:0.30769231 2:0.30769231 3:0.1147541 4:0.70320856 5:0.71963942 12:1 84:1 121:1 143:1 177:1 205:1 251:1 
-0.19750814603841 1:0.46153846 2:0.46153846 3:0.23994039 4:0.61497326 5:0.30106903 38:1 84:1 92:1 192:1 228:1 239:1 250:1 
-0.9153346234771788 1:0.23076923 2:0.23076923 3:0.48157489 4:0.38991597 5:0.62176955 13:1 38:1 65:1 77:1 84:1 124:1 252:1 
-0.35838986916921 1:0.38461538 2:0.38461538 3:0.33076181 4:0.26470588 5:0.64223283 45:1 76:1 88:1 100:1 103:1 114:1 252:1 
-0.5636822601812539 1:0.30769231 2:0.30769231 3:0.29326047 4:0.45294118 5:0.62888686 12:1 101:1 108:1 176:1 193:1 242:1 253:1 
-0.878262036362417 1:0.23076923 2:0.23076923 3:0.35121709 4:0.64705882 5:0.5700395 63:1 76:1 111:1 122:1 136:1 167:1 251:1 
-2 1:0.38461538 2:0.38461538 3:0.40043563 4:0.30588235 5:0.63925295 13:1 20:1 36:1 76:1 125:1 151:1 253:1 
-2 1:0.38461538 2:0.38461538 3:0.29611372 4:0.42352941 5:0.60009658 12:1 63:1 84:1 91:1 109:1 188:1 
-2 1:0.53846154 2:0.53846154 3:0.13561848 4:0.47058824 5:0.58589542 20:1 47:1 122:1 158:1 192:1 234:1 
-2 1:0.38461538 2:0.38461538 3:0.23767954 4:0.70588235 5:0.56322055 14:1 87:1 93:1 171:1 193:1 225:1 255:1 
-0.4634990374344617 1:0.30769231 2:0.30769231 3:0.46784363 4:0.50316742 5:0.60701681 41:1 107:1 144:1 204:1 221:1 240:1 246:1 
-2 1:0.53846154 2:0.53846154 3:0.41176471 4:0.70588235 5:0.68990294 118:1 204:1 233:1 251:1 
-1.587001702270258 1:0.076923077 2:0.076923077 3:0.31238616 4:0.44491979 5:0.62995037 13:1 40:1 85:1 100:1 156:1 170:1 252:1 
-1.571848192005398 1:0.53846154 2:0.53846154 3:0.4485842 4:0.41176471 5:0.54760918 12:1 18:1 65:1 164:1 180:1 226:1 246:1 
-2 1:0.69230769 2:0.69230769 3:0.3681694 4:0.3697479 5:0.6064646 13:1 46:1 97:1 128:1 154:1 166:1 
-0.8058205484742407 1:0.23076923 2:0.23076923 3:0.22656578 4:0.3394958 5:0.60315819 37:1 84:1 90:1 110:1 123:1 150:1 252:1 
-0.2630417146409009 1:0.53846154 2:0.53846154 3:0.52080706 4:0.54117647 5:0.6069759 41:1 44:1 106:1 219:1 228:1 240:1 248:1 
-2 1:0.30769231 2:0.30769231 3:0.21675774 4:0.45294118 5:0.64590297 12:1 43:1 100:1 206:1 229:1 240:1 
-1.964646752072459 1:0.61538462 2:0.61538462 3:0.28941659 4:0.84033613 5:0.67840769 47:1 96:1 153:1 209:1 213:1 251:1 
-1.361943725037176 1:0.76923077 2:0.76923077 3:0.32497589 4:0.2745098 5:0.56724221 14:1 32:1 43:1 106:1 157:1 210:1 250:1 
-0.5963126455314185 1:0.61538462 2:0.61538462 3:0.23689004 4:0.71764706 5:0.71195232 39:1 44:1 141:1 156:1 194:1 214:1 254:1 
-0.5365106952774638 1:0.61538462 2:0.61538462 3:0.28941659 4:0.50420168 5:0.59567314 36:1 46:1 60:1 127:1 208:1 213:1 248:1 
-2 1:0.46153846 2:0.46153846 3:0.42622951 4:0.59607843 5:0.48951686 12:1 54:1 104:1 131:1 179:1 207:1 
-0.4859635420062951 1:0.38461538 2:0.38461538 3:0.3913409 4:0.50588235 5:0.60071757 63:1 82:1 121:1 136:1 203:1 222:1 
-0.7317923304433256 1:0.15384615 2:0.15384615 3:0.33322825 4:0.51764706 5:0.68264848 76:1 84:1 121:1 159:1 184:1 251:1 
-2 1:0.38461538 2:0.38461538 3:0.44018677 4:0.58823529 5:0.56040538 41:1 75:1 93:1 111:1 148:1 225:1 256:1 
-2 1:0.69230769 2:0.69230769 3:0.3442623 4:0.32085561 5:0.15314494 128:1 176:1 205:1 212:1 
-0.471828682229416 1:0.23076923 2:0.23076923 3:0.43533698 4:0.50196078 5:0.4833384 13:1 26:1 64:1 99:1 136:1 215:1 
-1.81856741868054 1:0.53846154 2:0.53846154 3:0.27675988 4:0.47058824 5:0.58855703 27:1 45:1 115:1 159:1 235:1 253:1 
-2 1:0.61538462 2:0.61538462 3:0.19924338 4:0.4627451 5:0.59006331 14:1 45:1 84:1 126:1 200:1 
-2 1:0.46153846 2:0.46153846 3:0.17691257 4:0.71008403 5:0.68888636 24:1 45:1 60:1 108:1 166:1 194:1 
-2 1:0.30769231 2:0.30769231 3:0.44626594 4:0.71764706 5:0.73523752 24:1 63:1 71:1 100:1 143:1 176:1 252:1 
-0.03736557789605408 1:0.30769231 2:0.30769231 3:0.29460908 4:0.48067227 5:0.60339679 12:1 38:1 108:1 145:1 166:1 244:1 246:1 
-0.6829906476712633 1:0.46153846 2:0.46153846 3:0.40801457 4:0.45119586 5:0.58741011 12:1 44:1 76:1 83:1 147:1 187:1 246:1 
-2 1:0.38461538 2:0.38461538 3:0.35014712 4:0.59411765 5:0.59651809 35:1 85:1 136:1 215:1 
-2 1:0.46153846 2:0.46153846 3:0.32240437 4:0.56862745 5:0.58761992 58:1 98:1 107:1 172:1 216:1 
-0.6552424462139264 1:0.23076923 2:0.23076923 3:0.61748634 4:0.50588235 5:0.70616834 26:1 51:1 88:1 138:1 191:1 219:1 255:1 
-1.880339646380051 1:0.53846154 2:0.53846154 3:0.46505608 4:0.64705882 5:0.57630859 89:1 93:1 128:1 160:1 183:1 225:1 255:1 
-2 1:0.46153846 2:0.46153846 3:0.38104245 4:0.57326203 5:0.50451114 14:1 39:1 76:1 107:1 122:1 161:1 250:1 
-0.1568061818128584 1:0.38461538 2:0.38461538 3:0.53846154 4:0.43529412 5:0.63000491 13:1 123:1 137:1 171:1 175:1 221:1 
-0.4531984311328707 1:0.46153846 2:0.46153846 3:0.025500911 4:0.50161603 5:0.72389345 14:1 59:1 120:1 208:1 225:1 242:1 246:1 
-0.0256368003017782 1:0.53846154 2:0.53846154 3:0.079445145 4:0.32941176 5:0.56709441 6:1 78:1 122:1 146:1 153:1 229:1 
-0.08701313548911609 1:0.61538462 2:0.61538462 3:0.56967213 4:0.35294118 5:0.57588879 24:1 32:1 52:1 55:1 104:1 222:1 257:1 
-0.756970278870895 1:0.23076923 2:0.23076923 3:0.24041243 4:0.51764706 5:0.6024163 13:1 73:1 84:1 130:1 144:1 205:1 
-2 1:0.53846154 2:0.53846154 3:0.47176685 4:0.75294118 5:0.72980182 12:1 44:1 71:1 101:1 137:1 215:1 
-2 1:0.38461538 2:0.38461538 3:0.38410747 4:0.4907563 5:0.548858 41:1 64:1 69:1 84:1 176:1 192:1 253:1 
-0.05897976202963737 1:0.46153846 2:0.46153846 3:0.40100883 4:0.59607843 5:0.55486992 62:1 71:1 84:1 113:1 135:1 176:1 
-0.8351810722507611 1:0.38461538 2:0.38461538 3:0.50768918 4:0.47058824 5:0.59981768 75:1 89:1 93:1 160:1 184:1 245:1 
-1.827847560318333 1:0.23076923 2:0.23076923 3:0.32868482 4:0.58823529 5:0.63922999 25:1 40:1 73:1 107:1 119:1 156:1 
-0.674395430918478 1:0.30769231 2:0.30769231 3:0.36976321 4:0.36470588 5:0.65015699 12:1 41:1 64:1 86:1 176:1 193:1 253:1 
-2 1:0.53846154 2:0.53846154 3:0.3442623 4:0.47058824 5:0.59981768 18:1 63:1 104:1 189:1 204:1 
-0.8271803227088959 1:0.69230769 2:0.69230769 3:0.45901639 4:0.47552448 5:0.68277119 31:1 116:1 165:1 183:1 238:1 256:1 
-0.1111583450433158 1:0.38461538 2:0.38461538 3:0.54098361 4:0.58823529 5:0.6189608 26:1 51:1 87:1 92:1 119:1 239:1 255:1 
-1.156249182501737 1:0.38461538 2:0.38461538 3:0.30948833 4:0.40336134 5:0.55147648 18:1 50:1 111:1 148:1 203:1 222:1 
-1.624301983990758 1:0.46153846 2:0.46153846 3:0.33795712 4:0.38431373 5:0.61529696 25:1 34:1 102:1 208:1 218:1 
-1.08747796839376 1:0.53846154 2:0.53846154 3:0.20081967 4:0.57142857 5:0.59981768 45:1 96:1 109:1 153:1 165:1 208:1 
-1.344309237821457 1:0.69230769 2:0.69230769 3:0.21106557 4:0.66106443 5:0.53087967 14:1 26:1 43:1 117:1 143:1 243:1 250:1 
-2 1:0.69230769 2:0.69230769 3:0.42622951 4:0.45938375 5:0.55879672 13:1 44:1 77:1 105:1 141:1 233:1 
-0.716363374552332 1:0.53846154 2:0.53846154 3:0.50819672 4:0.42647059 5:0.5633546 25:1 51:1 54:1 70:1 92:1 153:1 256:1 
-0.6372075325764675 1:0.53846154 2:0.53846154 3:0.20925747 4:0.23529412 5:0.65612097 12:1 116:1 126:1 206:1 220:1 235:1 254:1 
-0.228168004347832 1:0.61538462 2:0.61538462 3:0.32513661 4:0.69747899 5:0.45837132 111:1 141:1 160:1 165:1 175:1 203:1 251:1 
-1.141300283209021 1:0.53846154 2:0.53846154 3:0.43989071 4:0.34224599 5:0.6304568 12:1 30:1 77:1 138:1 154:1 188:1 253:1 
-2 1:0.38461538 2:0.38461538 3:0.30518195 4:0.35294118 5:0.6617513 14:1 18:1 40:1 64:1 183:1 225:1 
-2 1:0.46153846 2:0.46153846 3:0.32991803 4:0.45798319 5:0.60221057 86:1 97:1 121:1 245:1 250:1 
-2 1:0.53846154 2:0.53846154 3:0.27675988 4:0.70588235 5:0.66738163 14:1 106:1 117:1 181:1 243:1 251:1 
-2 1:0.46153846 2:0.46153846 3:0.2534153 4:0.81092437 5:0.6872911 12:1 47:1 61:1 84:1 153:1 166:1 251:1 
-2 1:0.15384615 2:0.15384615 3:0.24618187 4:0.54117647 5:0.68844323 12:1 24:1 42:1 99:1 206:1 228:1 253:1 
-2 1:0.53846154 2:0.53846154 3:0.3442623 4:0.41176471 5:0.57371343 90:1 119:1 127:1 184:1 
-0.8923674320637113 1:0.38461538 2:0.38461538 3:0.3442623 4:0.52850679 5:0.59981768 39:1 44:1 120:1 148:1 167:1 242:1 
-0.08476483047744257 1:0.53846154 2:0.53846154 3:0.53551913 4:0.27807487 5:0.76694014 32:1 54:1 76:1 137:1 163:1 208:1 
-0.5445338326713767 1:0.38461538 2:0.38461538 3:0.36338798 4:0.4903332 5:0.60067862 32:1 51:1 76:1 153:1 207:1 230:1 252:1 
-1.456270214664132 1:0.69230769 2:0.69230769 3:0.3442623 4:0.45577951 5:0.59981768 22:1 41:1 76:1 93:1 122:1 165:1 246:1 
-0.456829565314415 1:0.53846154 2:0.53846154 3:0.27254098 4:0.47058824 5:0.60540109 61:1 73:1 166:1 178:1 194:1 
-0.3542013329117376 1:0.38461538 2:0.38461538 3:0.33060109 4:0.50623886 5:0.59054998 12:1 54:1 102:1 129:1 144:1 207:1 
-2 1:0.53846154 2:0.53846154 3:0.40801457 4:0.32941176 5:0.65299301 43:1 64:1 71:1 101:1 174:1 
-1.216615095361838 1:0.38461538 2:0.38461538 3:0.20891131 4:0.43529412 5:0.58844635 74:1 78:1 98:1 156:1 171:1 
-2 1:0.53846154 2:0.53846154 3:0.28051002 4:0.32941176 5:0.66480975 14:1 26:1 42:1 101:1 120:1 176:1 
-1.903104708497894 1:0.46153846 2:0.46153846 3:0.32926176 4:0.42352941 5:0.63777027 25:1 65:1 109:1 141:1 176:1 204:1 
-0.9382081130098578 1:0.46153846 2:0.46153846 3:0.47540984 4:0.42156863 5:0.69735643 13:1 113:1 140:1 197:1 215:1 229:1 
-1.400428342529188 1:0.46153846 2:0.46153846 3:0.31273644 4:0.45490196 5:0.60395484 28:1 39:1 46:1 85:1 158:1 175:1 
-2 1:0.38461538 2:0.38461538 3:0.33076181 4:0.52941176 5:0.60394659 14:1 46:1 87:1 102:1 179:1 232:1 252:1 
-2 1:0.46153846 2:0.46153846 3:0.19647293 4:0.48128342 5:0.58711085 13:1 31:1 75:1 122:1 153:1 243:1 
-2 1:0.30769231 2:0.30769231 3:0.29460908 4:0.51092437 5:0.59910186 14:1 25:1 38:1 120:1 209:1 244:1 
-0.7156357576562297 1:1 2:1 3:0.41790129 4:0.52941176 5:0.59985181 8:1 20:1 46:1 68:1 140:1 212:1 
-0.8301811341905457 1:0.38461538 2:0.38461538 3:0.31147541 4:0.50980392 5:0.54238833 9:1 24:1 51:1 129:1 138:1 220:1 255:1 
-1.810384040028335 1:0.61538462 2:0.61538462 3:0.41808072 4:0.36470588 5:0.64478349 40:1 44:1 71:1 176:1 214:1 229:1 
-0.212365385838245 1:0.30769231 2:0.30769231 3:0.50074516 4:0.32941176 5:0.62592194 18:1 54:1 111:1 197:1 220:1 222:1 252:1 
-1.533023623366624 1:0.76923077 2:0.76923077 3:0.21038251 4:0.42245989 5:0.58720754 19:1 51:1 79:1 153:1 164:1 187:1 253:1 
-2 1:0.69230769 2:0.69230769 3:0.36338798 4:0.34718223 5:0.70226881 13:1 20:1 31:1 92:1 103:1 255:1 
-2 1:0.38461538 2:0.38461538 3:0.42622951 4:0.37789661 5:0.6100476 13:1 24:1 56:1 102:1 208:1 
-1.260585018958315 1:0.53846154 2:0.53846154 3:0.47176685 4:0.61176471 5:0.81251899 24:1 65:1 136:1 142:1 176:1 215:1 
-1.622061945822568 1:0.076923077 2:0.076923077 3:0.28121059 4:0.40882353 5:0.60022088 12:1 36:1 63:1 145:1 180:1 186:1 252:1 
-1.087139654943061 1:0.53846154 2:0.53846154 3:0.3442623 4:0.70588235 5:0.67864229 26:1 51:1 56:1 84:1 101:1 117:1 251:1 
-0.2919380396927285 1:0.46153846 2:0.46153846 3:0.61005304 4:0.63865546 5:0.83464931 40:1 53:1 101:1 118:1 131:1 232:1 251:1 
-2 1:0.30769231 2:0.30769231 3:0.1848816 4:0.49809015 5:0.58649853 54:1 122:1 207:1 215:1 228:1 252:1 
-2 1:0.23076923 2:0.23076923 3:0.25568018 4:0.55882353 5:0.50622911 14:1 75:1 183:1 193:1 255:1 
-0.1471812229212029 1:0.69230769 2:0.69230769 3:0.31238616 4:0.65882353 5:0.73630102 41:1 101:1 142:1 175:1 213:1 230:1 252:1 
-2 1:0.53846154 2:0.53846154 3:0.24863388 4:0.47058824 5:0.59146156 53:1 56:1 155:1 182:1 230:1 253:1 
-1.98295952908382 1:0.46153846 2:0.46153846 3:0.32991803 4:0.63445378 5:0.55116226 24:1 145:1 153:1 166:1 179:1 208:1 
-0.1775154660147987 1:0.30769231 2:0.30769231 3:0.29460908 4:0.69243697 5:0.7322447 12:1 96:1 177:1 192:1 207:1 231:1 247:1 
-1.944787507973811 1:0.38461538 2:0.38461538 3:0.33060109 4:0.37789661 5:0.61654681 13:1 48:1 55:1 102:1 208:1 
-2 1:0.30769231 2:0.30769231 3:0.21675774 4:0.58976318 5:0.30676255 59:1 72:1 84:1 110:1 120:1 
-0.8482864203288989 1:0.38461538 2:0.38461538 3:0.38251366 4:0.50020568 5:0.60012154 23:1 36:1 132:1 162:1 190:1 241:1 257:1 
-2 1:0.61538462 2:0.61538462 3:0.44467213 4:0.33193277 5:0.49054239 52:1 92:1 140:1 205:1 236:1 251:1 
-2 1:0.38461538 2:0.38461538 3:0.50654082 4:0.51260504 5:0.60964706 12:1 41:1 42:1 84:1 137:1 227:1 
-0.4955521230934764 1:0.61538462 2:0.61538462 3:0.28751576 4:0.29803922 5:0.66140757 20:1 41:1 42:1 121:1 153:1 182:1 246:1 
-1.241876894974087 1:0.38461538 2:0.38461538 3:0.35228706 4:0.64705882 5:0.60561863 64:1 77:1 143:1 189:1 228:1 240:1 251:1 
-2 1:0.61538462 2:0.61538462 3:0.3442623 4:0.43850267 5:0.24886053 128:1 205:1 238:1 
-1.744972838268992 1:0.38461538 2:0.38461538 3:0.7704918 4:0.43137255 5:0.42752963 51:1 54:1 190:1 220:1 222:1 255:1 
-0.278267070216255 1:0.38461538 2:0.38461538 3:0.40043563 4:0.30588235 5:0.63925295 36:1 76:1 144:1 152:1 188:1 222:1 253:1 
-2 1:0.38461538 2:0.38461538 3:0.52755009 4:0.28907563 5:0.64935936 25:1 41:1 42:1 64:1 101:1 
-1.239153851763202 1:0.38461538 2:0.38461538 3:0.42622951 4:0.69875223 5:1 72:1 83:1 102:1 131:1 207:1 251:1 
-2 1:0.69230769 2:0.69230769 3:0.19981658 4:0.45882353 5:0.59079275 20:1 47:1 103:1 127:1 253:1 
-0.515208227636989 1:0.69230769 2:0.69230769 3:0.49138293 4:0.64705882 5:0.62108782 75:1 82:1 142:1 164:1 200:1 240:1 251:1 
-1.776445461745421 1:0.46153846 2:0.46153846 3:0.2534153 4:0.72268908 5:0.62773473 24:1 46:1 97:1 127:1 144:1 215:1 251:1 
-2 1:0.38461538 2:0.38461538 3:0.3442623 4:0.38733032 5:0.59981768 12:1 40:1 58:1 122:1 150:1 208:1 246:1 
-1.957365119754474 1:0.23076923 2:0.23076923 3:0.49031297 4:0.55882353 5:0.60329825 12:1 64:1 84:1 111:1 132:1 173:1 250:1 
-0.9350638114334052 1:0.53846154 2:0.53846154 3:0.18032787 4:0.62745098 5:0.61622607 27:1 93:1 204:1 218:1 223:1 239:1 
-1.420337842064276 1:0.076923077 2:0.076923077 3:0.31238616 4:0.57326203 5:0.86392181 84:1 108:1 135:1 168:1 193:1 253:1 
-0.333764019632775 1:0.53846154 2:0.53846154 3:0.3442623 4:0.47058824 5:0.59981768 17:1 45:1 60:1 169:1 176:1 238:1 253:1 
-0.2976741618536225 1:0.23076923 2:0.23076923 3:0.59463487 4:0.67647059 5:0.5986575 39:1 53:1 84:1 171:1 195:1 215:1 251:1 
-0.2428854856076954 1:0.38461538 2:0.38461538 3:0.44018677 4:0.47058824 5:0.59981768 13:1 20:1 75:1 113:1 185:1 194:1 255:1 
-2 1:0.46153846 2:0.46153846 3:0.33795712 4:0.5254902 5:0.58155108 13:1 155:1 208:1 226:1 242:1 
-1.36843768157442 1:0.46153846 2:0.46153846 3:0.15846995 4:0.64705882 5:0.57459739 15:1 57:1 105:1 134:1 156:1 180:1 
-1.330220848661255 1:0.38461538 2:0.38461538 3:0.37903626 4:0.41176471 5:0.54760918 20:1 39:1 42:1 84:1 102:1 180:1 
-0.635934019608371 1:0.84615385 2:0.84615385 3:0.30253353 4:0.58823529 5:0.56037126 18:1 65:1 202:1 213:1 225:1 237:1 
-0.8895538184933697 1:0.38461538 2:0.38461538 3:0.14625522 4:0.58823529 5:0.63922999 26:1 107:1 144:1 170:1 186:1 217:1 251:1 
-0.4278576605285004 1:0.46153846 2:0.46153846 3:0.39676417 4:0.77647059 5:0.71941004 13:1 71:1 99:1 137:1 143:1 214:1 254:1 
-2 1:0.53846154 2:0.53846154 3:0.3442623 4:0.54117647 5:0.59552275 12:1 47:1 84:1 164:1 188:1 
-2 1:0.46153846 2:0.46153846 3:0.42622951 4:0.45490196 5:0.59586752 12:1 56:1 102:1 144:1 154:1 208:1 
-2 1:0.38461538 2:0.38461538 3:0.23155738 4:0.60504202 5:0.58671376 74:1 85:1 146:1 207:1 251:1 
-1.065460133613773 1:0.61538462 2:0.61538462 3:0.23689004 4:0.54117647 5:0.68844323 41:1 43:1 101:1 110:1 213:1 228:1 254:1 
-0.5235051330813253 1:0.61538462 2:0.61538462 3:0.85655738 4:0.58823529 5:0.67160438 10:1 53:1 155:1 191:1 221:1 257:1 
-0.9985483240290335 1:0.30769231 2:0.30769231 3:0.3442623 4:0.52673797 5:0.52537223 27:1 109:1 162:1 178:1 192:1 252:1 
-2 1:0.46153846 2:0.46153846 3:0.3221942 4:0.41283422 5:0.6034114 18:1 36:1 46:1 84:1 90:1 236:1 252:1 
-0.6103985251122486 1:0.61538462 2:0.61538462 3:0.054224464 4:0.66666667 5:0.5752051 14:1 21:1 143:1 191:1 218:1 229:1 249:1 
-2 1:0.38461538 2:0.38461538 3:0.37268436 4:0.23529412 5:0.62515416 18:1 112:1 127:1 183:1 256:1 
-0.5760939287407303 1:0.30769231 2:0.30769231 3:0.3635487 4:0.54901961 5:0.60850448 27:1 45:1 99:1 145:1 231:1 
-0.7230759208760582 1:0.53846154 2:0.53846154 3:0.2295082 4:0.52488688 5:0.68277119 14:1 83:1 103:1 121:1 179:1 209:1 
-2 1:0.46153846 2:0.46153846 3:0.40801457 4:0.45119586 5:0.58741011 40:1 59:1 148:1 151:1 240:1 248:1 
-2 1:0.53846154 2:0.53846154 3:0.4485842 4:0.47058824 5:0.63462335 19:1 75:1 135:1 138:1 190:1 
-2 1:0.30769231 2:0.30769231 3:0.21675774 4:0.53934301 5:0.33571356 24:1 84:1 109:1 206:1 251:1 
-0.1280768345817008 1:0.76923077 2:0.76923077 3:0.32660782 4:0.44343891 5:0.68277119 45:1 81:1 91:1 116:1 161:1 206:1 256:1 
-0.8069188265696597 1:0.69230769 2:0.69230769 3:0.3442623 4:0.63458111 5:0.30628988 11:1 154:1 176:1 192:1 212:1 251:1 
