svm_type c_svc
kernel_type rbf
gamma 0.0625
nr_class 2
total_sv 555
rho 10.7796
label 1 0
probA -4.41273
probB 0.323964
nr_sv 258 297
SV
2 1:0.53846154 2:0.53846154 3:0.33632217 4:0.4476584 5:0.65258922 47:1 127:1 138:1 
2 1:0.30769231 2:0.30769231 3:0.24985315 4:0.33549784 5:0.65182908 62:1 85:1 102:1 252:1 
1.90011591693216 1:0.30769231 2:0.30769231 3:0.48043721 4:0.4004329 5:0.66566367 120:1 157:1 233:1 
2 1:0.30769231 2:0.30769231 3:0.24985315 4:0.33549784 5:0.65182908 138:1 158:1 193:1 252:1 
2 1:0.46153846 2:0.46153846 3:0.5013994 4:0.3030303 5:0.68064539 128:1 162:1 233:1 253:1 
2 1:0.38461538 2:0.38461538 3:0.38820359 4:0.18065268 5:0.70701542 126:1 138:1 210:1 253:1 
0.3489636082184486 1:0.38461538 2:0.38461538 3:0.55340175 4:0.47107438 5:0.66788958 39:1 65:1 107:1 246:1 
2 1:0.53846154 2:0.53846154 3:0.50399088 4:0.33333333 5:0.686133 42:1 154:1 221:1 246:1 
2 1:0.46153846 2:0.46153846 3:0.40706956 4:0.27272727 5:0.69184659 6:1 42:1 219:1 247:1 
1.057785294987311 1:0.38461538 2:0.38461538 3:0.44480149 4:0.47785548 5:0.66492288 34:1 48:1 77:1 253:1 
0.7538562781934841 1:0.46153846 2:0.46153846 3:0.40706956 4:0.60606061 5:0.66795792 165:1 203:1 221:1 252:1 
0.5689369212853035 1:0.30769231 2:0.30769231 3:0.54541999 4:0.5626192 5:0.66041178 23:1 101:1 180:1 255:1 
2 1:0.53846154 2:0.53846154 3:0.51349297 4:0.61157025 5:0.65511417 22:1 164:1 191:1 255:1 
0.5043825484730707 1:0.23076923 2:0.23076923 3:0.29177752 4:0.44273908 5:0.64379 180:1 218:1 241:1 255:1 
0.4311781441643612 1:0.38461538 2:0.38461538 3:0.46995612 4:0.47520661 5:0.66157272 79:1 112:1 191:1 255:1 
2 1:0.30769231 2:0.30769231 3:0.44431775 4:0.31818182 5:0.70489766 15:1 172:1 229:1 247:1 
0.4436583023362712 1:0.46153846 2:0.46153846 3:0.33789434 4:0.45454545 5:0.64946573 50:1 105:1 171:1 246:1 
2 1:0.53846154 2:0.53846154 3:0.42436336 4:0.29220779 5:0.72700026 50:1 173:1 198:1 248:1 
1.477000385564863 1:0.46153846 2:0.46153846 3:0.40706956 4:0.56818182 5:0.6482495 106:1 171:1 230:1 
0.5526415667093375 1:0.53846154 2:0.53846154 3:0.42436336 4:0.29220779 5:0.72700026 140:1 181:1 200:1 
2 1:0.76923077 2:0.76923077 3:0.46532237 4:0.45454545 5:0.66290825 32:1 80:1 106:1 248:1 
1.244348166243644 1:0.46153846 2:0.46153846 3:0.47624477 4:0.34090909 5:0.69689862 17:1 59:1 198:1 246:1 
0.5078832404915877 1:0.46153846 2:0.46153846 3:0.47624477 4:0.68181818 5:0.63122231 83:1 111:1 224:1 251:1 
1.150271345115284 1:0.46153846 2:0.46153846 3:0.33789434 4:0.56818182 5:0.69689862 121:1 143:1 175:1 251:1 
1.877030255135466 1:0.38461538 2:0.38461538 3:0.4268339 4:0.42929293 5:0.65233255 121:1 137:1 222:1 251:1 
1.227443353852073 1:0.53846154 2:0.53846154 3:0.38977575 4:0.35714286 5:0.6503779 112:1 175:1 223:1 251:1 
0.663724601856021 1:0.46153846 2:0.46153846 3:0.40706956 4:0.34090909 5:0.6482495 65:1 121:1 175:1 
1.16413085062373 1:0.53846154 2:0.53846154 3:0.5713607 4:0.53571429 5:0.68002346 17:1 34:1 214:1 256:1 
0.8688640310711244 1:0.46153846 2:0.46153846 3:0.47624477 4:0.56818182 5:0.66770915 16:1 21:1 35:1 257:1 
2 1:0.30769231 2:0.30769231 3:0.42436336 4:0.27018436 5:0.67331248 12:1 31:1 51:1 77:1 78:1 102:1 253:1 
2 1:0.30769231 2:0.30769231 3:0.2168377 4:0.27018436 5:0.62587959 12:1 31:1 52:1 55:1 181:1 253:1 
0.4933479090828177 1:0.38461538 2:0.38461538 3:0.36776545 4:0.46831956 5:0.65332765 12:1 18:1 92:1 155:1 252:1 
2 1:0.38461538 2:0.38461538 3:0.36776545 4:0.39256198 5:0.65457152 92:1 102:1 120:1 245:1 254:1 264:1 
2 1:0.53846154 2:0.53846154 3:0.44032687 4:0.34710744 5:0.66538361 32:1 56:1 75:1 78:1 153:1 253:1 
2 1:0.30769231 2:0.30769231 3:0.42436336 4:0.27018436 5:0.67331248 18:1 51:1 54:1 76:1 153:1 253:1 
0.6366652279093429 1:0.38461538 2:0.38461538 3:0.45318637 4:0.61438561 5:0.72081777 47:1 167:1 204:1 257:1 
1.662129729620438 1:0.53846154 2:0.53846154 3:0.46366746 4:0.41958042 5:0.72791243 45:1 91:1 220:1 257:1 
2 1:0.46153846 2:0.46153846 3:0.30330673 4:0.38461538 5:0.8702111 81:1 91:1 205:1 256:1 
0.2388635094756854 1:0.30769231 2:0.30769231 3:0.51083238 4:0.32867133 5:0.72791243 13:1 140:1 220:1 256:1 
0.6073548171955372 1:0.38461538 2:0.38461538 3:0.57686327 4:0.41375291 5:0.8254318 40:1 76:1 191:1 248:1 
0.1878621296953098 1:0.53846154 2:0.53846154 3:0.37856328 4:0.5959596 5:0.55482047 120:1 130:1 237:1 
0.4617801225873154 1:0.15384615 2:0.15384615 3:0.32697193 4:0.68181818 5:0.61662757 12:1 87:1 93:1 192:1 208:1 255:1 
2 1:0.076923077 2:0.076923077 3:0.41097041 4:0.50505051 5:0.51602815 12:1 76:1 183:1 208:1 255:1 
0.7571107604388675 1:0.23076923 2:0.23076923 3:0.3831768 4:0.51948052 5:0.53704066 12:1 64:1 95:1 126:1 255:1 
1.471171188330851 1:0.38461538 2:0.38461538 3:0.30391353 4:0.90909091 5:0.63547911 12:1 19:1 39:1 93:1 192:1 225:1 255:1 
0.6611383288000366 1:0.38461538 2:0.38461538 3:0.47685157 4:0.36363636 5:0.71757449 12:1 19:1 40:1 209:1 257:1 
0.05043595217773034 1:0.30769231 2:0.30769231 3:0.49380628 4:0.60606061 5:0.62295911 12:1 20:1 41:1 88:1 93:1 219:1 255:1 
1.453167967955858 1:0.38461538 2:0.38461538 3:0.53449759 4:0.54545455 5:0.61115455 12:1 20:1 40:1 51:1 65:1 93:1 257:1 
2 1:0.15384615 2:0.15384615 3:0.46532237 4:0.56818182 5:0.60568152 12:1 20:1 40:1 87:1 243:1 255:1 
0.6808764595907962 1:0.23076923 2:0.23076923 3:0.31832503 4:0.51948052 5:0.51309617 12:1 18:1 76:1 192:1 225:1 255:1 
2 1:0.53846154 2:0.53846154 3:0.39614715 4:0.60606061 5:0.60750586 12:1 18:1 41:1 95:1 127:1 225:1 
2 1:0.23076923 2:0.23076923 3:0.3831768 4:0.51948052 5:0.53704066 14:1 75:1 111:1 126:1 255:1 
2 1:0.15384615 2:0.15384615 3:0.39614715 4:0.45454545 5:0.6567631 14:1 64:1 95:1 123:1 160:1 256:1 
1.340477609884914 1:0.30769231 2:0.30769231 3:0.37173237 4:0.45454545 5:0.6567631 14:1 19:1 39:1 75:1 88:1 93:1 256:1 
2 1:0.38461538 2:0.38461538 3:0.36155954 4:0.54545455 5:0.565546 14:1 19:1 39:1 208:1 225:1 255:1 
1.316455575853603 1:0.76923077 2:0.76923077 3:0.36907859 4:0.45454545 5:0.6567631 14:1 19:1 93:1 127:1 225:1 257:1 
2 1:0.69230769 2:0.69230769 3:0.37728118 5:0.67417727 14:1 19:1 76:1 93:1 128:1 225:1 
0.9771679344041873 1:0.46153846 2:0.46153846 3:0.35245754 4:0.68181818 5:0.61931608 14:1 19:1 41:1 93:1 192:1 207:1 
1.088291004755118 1:0.53846154 2:0.53846154 3:0.39614715 4:0.60606061 5:0.60750586 14:1 19:1 41:1 93:1 148:1 225:1 255:1 
2 1:0.46153846 2:0.46153846 3:0.46168157 4:0.45454545 5:0.6567631 14:1 19:1 41:1 113:1 183:1 
1.117733416175405 1:0.30769231 2:0.30769231 3:0.31069541 4:0.45454545 5:0.6567631 14:1 19:1 40:1 63:1 93:1 192:1 256:1 
0.1096031771640504 1:0.38461538 2:0.38461538 3:0.36155954 4:0.54545455 5:0.565546 14:1 19:1 40:1 93:1 111:1 219:1 
0.1780352945089543 1:0.53846154 2:0.53846154 3:0.39614715 4:0.60606061 5:0.60750586 14:1 19:1 40:1 53:1 93:1 225:1 255:1 
2 1:0.38461538 2:0.38461538 3:0.36155954 4:0.36363636 5:0.74798019 14:1 18:1 39:1 93:1 111:1 126:1 
2 1:0.23076923 2:0.23076923 3:0.3831768 4:0.51948052 5:0.53704066 14:1 18:1 39:1 207:1 257:1 276:1 
2 1:0.23076923 2:0.23076923 3:0.3831768 4:0.64935065 5:0.61685562 14:1 18:1 111:1 219:1 227:1 255:1 
0.0148975699866486 1:0.38461538 2:0.38461538 3:0.36155954 4:0.54545455 5:0.565546 14:1 18:1 40:1 93:1 111:1 225:1 255:1 
0.8777649927155124 1:0.23076923 2:0.23076923 3:0.3831768 4:0.64935065 5:0.61685562 87:1 93:1 124:1 192:1 255:1 
1.670584448991542 1:0.15384615 2:0.15384615 3:0.39614715 4:0.56818182 5:0.59108679 88:1 95:1 192:1 208:1 255:1 
1.748552861649078 1:0.46153846 2:0.46153846 3:0.51629358 4:0.45454545 5:0.6567631 19:1 51:1 65:1 93:1 112:1 257:1 
2 1:0.30769231 2:0.30769231 3:0.49380628 4:0.3030303 5:0.69056708 19:1 40:1 53:1 64:1 88:1 93:1 255:1 
1.51489809747078 1:0.38461538 2:0.38461538 3:0.41920556 4:0.36363636 5:0.73277734 20:1 87:1 93:1 244:1 265:1 
0.9190018279713514 1:0.23076923 2:0.23076923 3:0.44802857 4:0.38961039 5:0.75254105 20:1 76:1 160:1 192:1 255:1 
2 1:0.61538462 2:0.61538462 3:0.53449759 5:0.66588481 20:1 52:1 128:1 225:1 257:1 
2 1:0.46153846 2:0.46153846 3:0.51629358 4:0.22727273 5:0.67692688 20:1 41:1 88:1 93:1 172:1 225:1 256:1 
0.3385269055744708 1:0.38461538 2:0.38461538 3:0.47685157 4:0.18181818 5:0.67703356 18:1 76:1 93:1 244:1 257:1 
2 3:0.34825662 4:0.54545455 5:0.56203765 13:1 39:1 51:1 64:1 192:1 255:1 
1.960928791983068 1:0.38461538 2:0.38461538 3:0.41920556 4:0.36363636 5:0.73277734 13:1 40:1 76:1 93:1 225:1 257:1 
1.656360227040647 1:0.46153846 2:0.46153846 3:0.40706956 4:0.68181818 5:0.62507716 13:1 19:1 63:1 93:1 227:1 257:1 
1.048787519119104 1:0.46153846 2:0.46153846 3:0.40706956 4:0.22727273 5:0.68844904 13:1 19:1 75:1 93:1 128:1 256:1 
2 1:0.53846154 2:0.53846154 3:0.29238432 4:0.3030303 5:0.72243941 13:1 19:1 194:1 209:1 225:1 266:1 
1.728433663633706 1:0.15384615 2:0.15384615 3:0.39614715 4:0.11363636 5:0.6786552 13:1 19:1 52:1 88:1 160:1 256:1 
2 1:0.38461538 2:0.38461538 3:0.36155954 4:0.18181818 5:0.6871688 13:1 19:1 40:1 225:1 244:1 
2 1:0.38461538 2:0.38461538 3:0.47685157 4:0.18181818 5:0.67703356 13:1 20:1 41:1 128:1 192:1 256:1 
0.1620565615528525 1:0.15384615 2:0.15384615 3:0.39614715 4:0.22727273 5:0.68960125 13:1 18:1 88:1 183:1 256:1 
2 1:0.30769231 2:0.30769231 3:0.43276933 5:0.67125052 13:1 18:1 52:1 126:1 257:1 
2 1:0.15384615 2:0.15384615 3:0.32697193 4:0.45454545 5:0.6567631 13:1 18:1 40:1 93:1 192:1 207:1 255:1 
0.4389596075253355 1:0.23076923 2:0.23076923 3:0.23147092 4:0.40559441 5:0.64624974 12:1 45:1 84:1 144:1 162:1 253:1 
2 1:0.23076923 2:0.23076923 3:0.43899658 4:0.47552448 5:0.65774862 12:1 75:1 180:1 236:1 252:1 
1.765354718634018 1:0.15384615 2:0.15384615 3:0.30064614 4:0.35064935 5:0.65430725 12:1 86:1 123:1 216:1 222:1 253:1 
2 1:0.53846154 2:0.53846154 3:0.35005701 4:0.44444444 5:0.653423 12:1 86:1 92:1 164:1 
0.2647330413363944 1:0.38461538 2:0.38461538 3:0.38711517 4:0.46280992 5:0.65506739 12:1 92:1 144:1 200:1 252:1 
2 1:0.15384615 2:0.15384615 3:0.41593817 4:0.35064935 5:0.66494925 12:1 76:1 123:1 235:1 252:1 265:1 
2 1:0.30769231 2:0.30769231 3:0.45786255 4:0.46969697 5:0.65924127 12:1 20:1 75:1 216:1 236:1 252:1 
0.7181141957534569 1:0.30769231 2:0.30769231 3:0.26920286 4:0.31818182 5:0.65327069 12:1 20:1 37:1 84:1 223:1 253:1 
2 1:0.30769231 2:0.30769231 3:0.26920286 4:0.31818182 5:0.65327069 12:1 18:1 84:1 146:1 200:1 253:1 
0.1587690663378205 1:0.23076923 2:0.23076923 3:0.43899658 4:0.33566434 5:0.66883683 14:1 76:1 124:1 216:1 
2 1:0.38461538 2:0.38461538 3:0.1277081 4:0.38016529 5:0.63834426 14:1 19:1 38:1 84:1 234:1 264:1 
2 1:0.46153846 2:0.46153846 3:0.24743444 4:0.36363636 5:0.64886931 14:1 20:1 38:1 216:1 236:1 253:1 
1.987020420618121 1:0.30769231 2:0.30769231 3:0.45786255 4:0.46969697 5:0.65924127 36:1 46:1 64:1 75:1 266:1 
2 1:0.23076923 2:0.23076923 3:0.43899658 4:0.47552448 5:0.65774862 36:1 75:1 144:1 188:1 252:1 
1.511155804772373 1:0.30769231 2:0.30769231 3:0.55219239 4:0.46969697 5:0.66521184 47:1 65:1 75:1 222:1 264:1 
0.8627966724081823 1:0.46153846 2:0.46153846 3:0.40706956 4:0.54545455 5:0.65307933 45:1 63:1 144:1 152:1 
2 1:0.30769231 2:0.30769231 3:0.17487302 4:0.46969697 5:0.64132955 45:1 84:1 146:1 180:1 253:1 
2 1:0.53846154 2:0.53846154 3:0.42417332 4:0.44444444 5:0.65844925 45:1 76:1 128:1 200:1 252:1 
2 1:0.30769231 2:0.30769231 3:0.55219239 4:0.54545455 5:0.66073391 46:1 75:1 123:1 128:1 144:1 252:1 
2 1:0.30769231 2:0.30769231 3:0.3635327 4:0.54545455 5:0.65078295 46:1 84:1 180:1 188:1 216:1 252:1 
1.478318377246804 1:0.23076923 2:0.23076923 3:0.33523375 4:0.40559441 5:0.65415522 63:1 84:1 162:1 216:1 254:1 
0.4379987609454707 1:0.38461538 2:0.38461538 3:0.56005321 4:0.46280992 5:0.66621615 63:1 77:1 152:1 276:1 
2 1:0.30769231 2:0.30769231 3:0.64652223 4:0.46969697 5:0.67118241 63:1 77:1 125:1 252:1 
0.3879765415042879 1:0.38461538 2:0.38461538 3:0.38711517 4:0.38016529 5:0.65984543 75:1 182:1 186:1 
1.003665411026048 1:0.46153846 2:0.46153846 3:0.40706956 4:0.45454545 5:0.6567631 86:1 125:1 236:1 252:1 
1.513790839737556 1:0.23076923 2:0.23076923 3:0.43899658 4:0.40559441 5:0.6620607 85:1 123:1 144:1 236:1 252:1 
2 1:0.23076923 2:0.23076923 3:0.43899658 4:0.33566434 5:0.66883683 76:1 84:1 152:1 217:1 252:1 
2 1:0.076923077 2:0.076923077 3:0.5168187 4:0.36363636 5:0.67255067 64:1 75:1 180:1 216:1 253:1 
2 1:0.30769231 2:0.30769231 3:0.45786255 4:0.39393939 5:0.66446552 64:1 84:1 164:1 180:1 200:1 216:1 
0.05011781284034268 1:0.15384615 2:0.15384615 3:0.30064614 4:0.35064935 5:0.65430725 13:1 36:1 84:1 109:1 
1.881537836402087 1:0.15384615 2:0.15384615 3:0.41593817 4:0.28571429 5:0.67381757 13:1 18:1 36:1 123:1 222:1 252:1 
2 1:0.46153846 2:0.46153846 3:0.52914347 4:0.3030303 5:0.67125052 40:1 46:1 101:1 116:1 253:1 
0.9675120841232147 1:0.53846154 2:0.53846154 3:0.49862499 4:0.57575758 5:0.67125052 29:1 45:1 65:1 116:1 264:1 
1.603556617796585 1:0.30769231 2:0.30769231 3:0.30824781 4:0.54637282 5:0.52124055 12:1 24:1 30:1 76:1 105:1 251:1 
2 1:0.23076923 2:0.23076923 3:0.3396911 4:0.35353535 5:0.64396901 12:1 26:1 30:1 42:1 75:1 88:1 
0.01908771688340742 1:0.61538462 2:0.61538462 3:0.41633409 4:0.31024531 5:0.62956085 12:1 32:1 44:1 211:1 
2 1:0.46153846 2:0.46153846 3:0.33295325 4:0.55555556 5:0.55121188 12:1 30:1 42:1 57:1 107:1 251:1 
0.5645020934911829 1:0.53846154 2:0.53846154 3:0.2390726 4:0.39141414 5:0.67266093 14:1 26:1 43:1 100:1 249:1 
2 1:0.61538462 2:0.61538462 3:0.22177879 4:0.31024531 5:0.65350534 14:1 25:1 31:1 43:1 117:1 
1.924519304569461 1:0.53846154 2:0.53846154 3:0.37742303 4:0.39141414 5:0.64347146 57:1 105:1 210:1 232:1 
2 1:0.53846154 2:0.53846154 3:0.51577347 4:0.61868687 5:0.62887673 32:1 58:1 76:1 107:1 251:1 
0.6652493347705436 1:0.61538462 2:0.61538462 3:0.48118586 4:0.31024531 5:0.62157936 32:1 42:1 57:1 89:1 
0.5607342804535784 1:0.53846154 2:0.53846154 3:0.30824781 4:0.39141414 5:0.6580662 25:1 31:1 42:1 57:1 251:1 
0.129387507711738 1:0.30769231 2:0.30769231 3:0.39471684 4:0.62901745 5:0.60485622 13:1 100:1 107:1 119:1 251:1 
0.1352839744288086 1:0.15384615 2:0.15384615 3:0.34118839 4:0.7979798 5:0.75388759 12:1 71:1 120:1 168:1 240:1 
1.397487458062042 1:0.15384615 2:0.15384615 3:0.34118839 4:0.5959596 5:0.83832856 12:1 69:1 84:1 100:1 156:1 241:1 
1.869238646209504 1:0.53846154 2:0.53846154 3:0.30998153 4:0.54545455 5:0.73277734 12:1 69:1 109:1 176:1 213:1 
1.45113016795245 1:0.23076923 2:0.23076923 3:0.36095274 4:0.77272727 5:0.75831813 12:1 108:1 135:1 215:1 254:1 
0.8468115637842432 1:0.15384615 2:0.15384615 3:0.48942101 4:0.5959596 5:0.90869603 12:1 101:1 135:1 241:1 252:1 
0.1502891794478063 1:0.30769231 2:0.30769231 3:0.37824655 4:0.74025974 5:0.76470333 12:1 101:1 141:1 156:1 240:1 
2 1:0.076923077 2:0.076923077 3:0.39820094 4:0.72727273 5:0.76961502 12:1 100:1 108:1 143:1 156:1 252:1 
2 1:0.15384615 2:0.15384615 3:0.4153047 4:0.5959596 5:0.87351229 12:1 100:1 109:1 120:1 143:1 
1.332740204834379 1:0.46153846 2:0.46153846 3:0.34942354 4:0.63636364 5:0.79358874 14:1 24:1 41:1 143:1 176:1 254:1 
2 1:0.38461538 2:0.38461538 3:0.33246883 4:0.39393939 5:0.69897336 24:1 110:1 121:1 176:1 
0.3481919787845251 1:0.46153846 2:0.46153846 3:0.46471557 4:0.45454545 5:0.64156025 24:1 41:1 44:1 176:1 252:1 
1.554760619819208 1:0.53846154 2:0.53846154 3:0.25536951 4:1 5:0.73997869 26:1 69:1 143:1 213:1 252:1 
2 1:0.53846154 2:0.53846154 3:0.36459354 4:0.31818182 5:0.70685248 26:1 101:1 122:1 176:1 
1.070822919878363 1:0.38461538 2:0.38461538 3:0.39350579 4:0.6969697 5:0.77623961 39:1 70:1 141:1 241:1 252:1 
2 1:0.23076923 2:0.23076923 3:0.43012796 4:0.65909091 5:0.79845365 71:1 101:1 168:1 240:1 253:1 
2 1:0.46153846 2:0.46153846 3:0.46471557 4:0.45454545 5:0.64156025 71:1 85:1 101:1 176:1 
1.795575832294103 1:0.38461538 2:0.38461538 3:0.33246883 4:0.54545455 5:0.73277734 69:1 84:1 101:1 122:1 241:1 
0.245710342045269 1:0.46153846 2:0.46153846 3:0.29177752 4:0.63636364 5:0.77838589 69:1 99:1 141:1 242:1 253:1 
1.491667073318893 1:0.30769231 2:0.30769231 3:0.37824655 4:0.48051948 5:0.63699939 69:1 85:1 100:1 168:1 
2 1:0.46153846 2:0.46153846 3:0.40706956 4:0.63636364 5:0.80879159 70:1 86:1 101:1 122:1 136:1 142:1 252:1 
2 1:0.15384615 2:0.15384615 3:0.48942101 4:0.7979798 5:0.76796108 99:1 120:1 135:1 143:1 252:1 
0.4740130821468828 1:0.23076923 2:0.23076923 3:0.36095274 4:0.65909091 5:0.78385892 99:1 120:1 141:1 156:1 253:1 
0.7694010300829655 1:0.46153846 2:0.46153846 3:0.29177752 4:0.63636364 5:0.77838589 99:1 170:1 213:1 254:1 
2 1:0.076923077 2:0.076923077 3:0.31838338 4:0.63636364 5:0.78540259 108:1 120:1 192:1 240:1 253:1 
2 1:0.38461538 2:0.38461538 3:0.39350579 4:0.6969697 5:0.77623961 108:1 143:1 176:1 204:1 
0.1044412500229542 1:0.38461538 2:0.38461538 3:0.33246883 4:0.54545455 5:0.73277734 110:1 120:1 176:1 240:1 
1.204121519797761 1:0.46153846 2:0.46153846 3:0.29177752 4:0.81818182 5:0.74798019 141:1 156:1 214:1 228:1 254:1 
0.5800139650963155 1:0.23076923 2:0.23076923 3:0.29177752 4:0.54545455 5:0.73277734 109:1 156:1 242:1 252:1 
2 1:0.23076923 2:0.23076923 3:0.49930318 4:0.54545455 5:0.73277734 101:1 120:1 135:1 229:1 
1.149758057766692 1:0.46153846 2:0.46153846 3:0.40706956 4:0.45454545 5:0.6567631 101:1 176:1 242:1 252:1 
2 1:0.23076923 2:0.23076923 3:0.43012796 4:0.54545455 5:0.73277734 101:1 121:1 168:1 252:1 
2 1:0.38461538 2:0.38461538 3:0.45454274 4:0.54545455 5:0.73277734 64:1 70:1 86:1 101:1 122:1 136:1 142:1 252:1 
1.800610427534542 1:0.23076923 2:0.23076923 3:0.43012796 4:0.20454545 5:0.71088524 64:1 109:1 174:1 253:1 
0.8888956552805048 1:0.30769231 2:0.30769231 3:0.31339478 4:0.74025974 5:0.75672183 43:1 108:1 215:1 252:1 276:1 
1.863821698316461 1:0.30769231 2:0.30769231 3:0.31339478 4:0.48051948 5:0.66094388 43:1 204:1 228:1 241:1 
2 1:0.46153846 2:0.46153846 3:0.34942354 4:0.63636364 5:0.79358874 44:1 71:1 215:1 253:1 278:1 
2 1:0.61538462 2:0.61538462 3:0.32636513 4:0.39393939 5:0.69993919 44:1 141:1 158:1 214:1 253:1 
0.8023132783046885 1:0.61538462 2:0.61538462 3:0.27448372 4:0.39393939 5:0.70814873 44:1 206:1 213:1 254:1 
1.80188976577736 1:0.30769231 2:0.30769231 3:0.37824655 4:0.48051948 5:0.63699939 42:1 99:1 141:1 156:1 253:1 
2 1:0.46153846 2:0.46153846 3:0.34942354 4:0.45454545 5:0.67196595 42:1 100:1 141:1 215:1 254:1 
1.291173245254842 1:0.38461538 2:0.38461538 3:0.39350579 4:0.54545455 5:0.73277734 42:1 65:1 141:1 156:1 252:1 
1.542155278728127 1:0.30769231 2:0.30769231 3:0.44309831 4:0.48051948 5:0.6130549 41:1 43:1 63:1 192:1 253:1 
1.97861738782395 1:0.46153846 2:0.46153846 3:0.40706956 4:0.63636364 5:0.80879159 40:1 71:1 176:1 215:1 254:1 
0.1011614177480675 1:0.30769231 2:0.30769231 3:0.24854301 4:0.48051948 5:0.68488837 25:1 170:1 204:1 254:1 
2 1:0.30769231 2:0.30769231 3:0.31339478 4:0.48051948 5:0.66094388 13:1 24:1 141:1 176:1 192:1 253:1 
1.664560481971519 1:0.46153846 2:0.46153846 3:0.29177752 4:0.45454545 5:0.6871688 13:1 69:1 176:1 206:1 252:1 
2 1:0.30769231 2:0.30769231 3:0.37824655 4:0.61038961 5:0.82855529 13:1 42:1 143:1 215:1 252:1 
2 1:0.30769231 2:0.30769231 3:0.44309831 4:0.61038961 5:0.85249978 13:1 41:1 204:1 214:1 252:1 
2 1:0.30769231 2:0.30769231 3:0.50472869 4:0.37878788 5:0.65772892 25:1 40:1 53:1 100:1 249:1 
2 1:0.15384615 2:0.15384615 3:0.53913134 4:0.49242424 5:0.67218708 12:1 24:1 39:1 52:1 63:1 236:1 
0.3434928138374946 1:0.15384615 2:0.15384615 3:0.44480149 4:0.56818182 5:0.64979743 12:1 24:1 51:1 63:1 229:1 250:1 
1.900017763585219 1:0.30769231 2:0.30769231 3:0.34321551 4:0.52272727 5:0.64013352 12:1 26:1 40:1 195:1 206:1 250:1 
0.1805755459835614 1:0.30769231 2:0.30769231 3:0.50285063 4:0.70454545 5:0.6480273 12:1 39:1 195:1 215:1 250:1 
2 1:0.15384615 2:0.15384615 3:0.35047165 4:0.41666667 5:0.64979743 12:1 25:1 40:1 64:1 235:1 251:1 264:1 
2 1:0.46153846 2:0.46153846 3:0.40706956 4:0.68181818 5:0.64216836 14:1 24:1 41:1 119:1 236:1 251:1 
2 1:0.30769231 2:0.30769231 3:0.34321551 4:0.52272727 5:0.64013352 14:1 26:1 51:1 64:1 68:1 204:1 251:1 
2 1:0.15384615 2:0.15384615 3:0.44480149 4:0.56818182 5:0.64979743 14:1 26:1 40:1 51:1 63:1 195:1 251:1 
2 1:0.46153846 2:0.46153846 3:0.40706956 4:0.45454545 5:0.6567631 14:1 25:1 53:1 65:1 158:1 250:1 
2 1:0.30769231 2:0.30769231 3:0.66248575 4:0.52272727 5:0.68223372 24:1 39:1 53:1 65:1 196:1 250:1 
2 1:0.53846154 2:0.53846154 3:0.43301026 4:0.66558442 5:0.64444879 24:1 51:1 117:1 140:1 250:1 
2 1:0.23076923 2:0.23076923 3:0.38977575 4:0.71280992 5:0.64044537 24:1 111:1 204:1 215:1 228:1 250:1 
2 1:0.38461538 2:0.38461538 3:0.30330673 4:0.39141414 5:0.63487099 13:1 26:1 40:1 175:1 204:1 250:1 
2 1:0.30769231 2:0.30769231 3:0.26339795 4:0.61363636 5:0.63136264 13:1 25:1 119:1 132:1 213:1 251:1 
2 1:0.30769231 2:0.30769231 3:0.26339795 4:0.40909091 5:0.64055452 14:1 24:1 36:1 44:1 174:1 252:1 
1.171454500384057 1:0.23076923 2:0.23076923 3:0.30330673 4:0.4338843 5:0.64581704 24:1 84:1 92:1 229:1 252:1 
2 1:0.23076923 2:0.23076923 3:0.30330673 4:0.4338843 5:0.64581704 36:1 68:1 85:1 123:1 228:1 254:1 
2 1:0.23076923 2:0.23076923 3:0.38977575 4:0.51652893 5:0.6529841 36:1 44:1 84:1 92:1 111:1 228:1 252:1 
0.9718455083241647 1:0.23076923 2:0.23076923 3:0.30330673 4:0.4338843 5:0.64581704 85:1 228:1 239:1 253:1 
2 1:0.30769231 2:0.30769231 3:0.26339795 4:0.31818182 5:0.63529199 85:1 91:1 220:1 230:1 252:1 
2 1:0.23076923 2:0.23076923 3:0.30330673 4:0.4338843 5:0.64581704 66:1 84:1 91:1 111:1 252:1 276:1 
0.9935943640173031 1:0.076923077 2:0.076923077 3:0.1995439 4:0.33216783 5:0.6221006 13:1 25:1 36:1 42:1 252:1 264:1 
2 1:0.23076923 2:0.23076923 3:0.36217218 4:0.74025974 5:0.77034592 12:1 47:1 60:1 96:1 179:1 246:1 
1.646603176556976 1:0.30769231 2:0.30769231 3:0.37927594 4:0.4978355 5:0.64975893 24:1 46:1 73:1 192:1 246:1 
2 1:0.46153846 2:0.46153846 3:0.34221779 4:0.58441558 5:0.60089262 45:1 60:1 72:1 154:1 246:1 
2 1:0.53846154 2:0.53846154 3:0.35747703 4:0.64935065 5:0.69667058 37:1 46:1 108:1 153:1 179:1 248:1 
2 1:0.46153846 2:0.46153846 3:0.40706956 4:0.19480519 5:0.67956737 37:1 46:1 109:1 128:1 246:1 
1.691531591635332 1:0.38461538 2:0.38461538 3:0.32492398 4:0.30844156 5:0.67964338 13:1 25:1 46:1 122:1 246:1 
0.7319674358243514 1:0.38461538 2:0.38461538 3:0.18657355 4:0.77922078 5:0.68070758 12:1 24:1 36:1 213:1 249:1 266:1 
1.44150943184495 1:0.076923077 2:0.076923077 3:0.41296517 4:0.77922078 5:0.68070758 12:1 24:1 96:1 108:1 208:1 251:1 
2 1:0.30769231 2:0.30769231 3:0.30515964 4:0.93073593 5:0.71589132 12:1 24:1 96:1 155:1 165:1 251:1 
2 1:0.38461538 2:0.38461538 3:0.32492398 4:0.66558442 5:0.62962601 12:1 38:1 72:1 153:1 244:1 250:1 
0.5621519729898752 1:0.23076923 2:0.23076923 3:0.36217218 4:0.87012987 5:0.75438293 12:1 47:1 60:1 96:1 179:1 
0.992551351971147 1:0.15384615 2:0.15384615 3:0.25574876 4:0.82054309 5:0.78104639 12:1 60:1 96:1 120:1 153:1 276:1 
1.485439596307178 1:0.38461538 2:0.38461538 3:0.32492398 4:0.77922078 5:0.68070758 12:1 62:1 179:1 207:1 249:1 
2 1:0.53846154 2:0.53846154 3:0.17436615 4:0.77922078 5:0.68070758 14:1 26:1 38:1 46:1 120:1 153:1 251:1 
0.7188783408155166 1:0.46153846 2:0.46153846 3:0.27736602 4:0.58441558 5:0.6567631 14:1 25:1 46:1 61:1 153:1 251:1 
0.3847787206727725 1:0.46153846 2:0.46153846 3:0.34221779 4:0.84415584 5:0.77648554 36:1 46:1 72:1 165:1 251:1 
2 1:0.53846154 2:0.53846154 3:0.35747703 4:0.77922078 5:0.68070758 47:1 122:1 154:1 251:1 
2 1:0.46153846 2:0.46153846 3:0.34221779 4:0.97402597 5:0.71263357 45:1 60:1 84:1 179:1 215:1 250:1 
2 1:0.61538462 2:0.61538462 3:0.42868681 4:0.87012987 5:0.77192468 46:1 60:1 154:1 166:1 251:1 
2 1:0.23076923 2:0.23076923 3:0.36217218 4:0.96103896 5:0.71754526 72:1 144:1 167:1 179:1 192:1 251:1 
2 1:0.53846154 2:0.53846154 3:0.35747703 4:0.77922078 5:0.68070758 37:1 46:1 108:1 153:1 179:1 250:1 
0.8442025589027847 1:0.46153846 2:0.46153846 3:0.40706956 4:0.32467532 5:0.66360438 37:1 46:1 109:1 128:1 
2 1:0.53846154 2:0.53846154 3:0.50218548 4:0.60064935 5:0.64323256 34:1 112:1 190:1 251:1 
2 1:0.61538462 2:0.61538462 3:0.28092651 4:0.34090909 5:0.66402469 86:1 206:1 235:1 250:1 
2 1:0.53846154 2:0.53846154 3:0.37248195 4:0.47077922 5:0.65919555 101:1 206:1 235:1 251:1 
0.8105845901999057 1:0.46153846 2:0.46153846 3:0.54541999 4:0.56818182 5:0.64095213 53:1 112:1 191:1 250:1 
2 1:0.46153846 2:0.46153846 3:0.40706956 4:0.75757576 5:0.910086 12:1 34:1 179:1 207:1 249:1 
0.5896436669548273 1:0.23076923 2:0.23076923 3:0.48118586 4:0.78282828 5:0.86317435 12:1 96:1 155:1 207:1 251:1 
2 1:0.30769231 2:0.30769231 3:0.48118586 4:0.50045914 5:0.6387803 12:1 96:1 102:1 208:1 250:1 
2 1:0.38461538 2:0.38461538 3:0.4013683 4:0.43434343 5:0.66039173 14:1 25:1 34:1 208:1 
0.09928615306992894 1:0.30769231 2:0.30769231 3:0.48118586 4:0.50045914 5:0.6387803 24:1 102:1 208:1 251:1 
0.9290145550507448 1:0.46153846 2:0.46153846 3:0.33295325 4:0.55555556 5:0.64034402 35:1 50:1 54:1 251:1 
0.6937085039378857 1:0.61538462 2:0.61538462 3:0.48118586 4:0.38239538 5:0.6606724 34:1 56:1 208:1 250:1 
1.91983601544472 1:0.38461538 2:0.38461538 3:0.32155074 4:0.52525253 5:0.65162086 72:1 217:1 225:1 241:1 250:1 
2 1:0.46153846 2:0.46153846 3:0.40706956 4:0.45454545 5:0.6567631 56:1 72:1 122:1 208:1 250:1 
2 1:0.38461538 2:0.38461538 3:0.4013683 4:0.34343434 5:0.67003969 54:1 72:1 82:1 97:1 104:1 217:1 
0.4898515097006761 1:0.38461538 2:0.38461538 3:0.32155074 4:0.52525253 5:0.65162086 54:1 72:1 242:1 250:1 276:1 
2 1:0.38461538 2:0.38461538 3:0.48118586 4:0.25252525 5:0.67161845 54:1 102:1 208:1 
2 1:0.23076923 2:0.23076923 3:0.48118586 4:0.63131313 5:0.53479281 13:1 155:1 207:1 216:1 
0.1646771990711859 1:0.46153846 2:0.46153846 3:0.48118586 4:0.35353535 5:0.66379984 13:1 104:1 208:1 250:1 
2 1:0.46153846 2:0.46153846 3:0.33295325 4:0.55555556 5:0.64034402 13:1 56:1 129:1 144:1 251:1 
2 1:0.30769231 2:0.30769231 3:0.48118586 4:0.41781451 5:0.65598124 13:1 54:1 83:1 102:1 131:1 208:1 
1.961302249173425 1:0.53846154 2:0.53846154 3:0.21892816 4:0.4040404 5:0.72713057 127:1 157:1 163:1 249:1 264:1 
0.8198038210258121 1:0.61538462 2:0.61538462 3:0.40174838 4:0.45454545 5:0.6567631 128:1 142:1 162:1 249:1 264:1 
2 1:0.61538462 2:0.61538462 3:0.32060053 4:0.60076287 5:0.60659369 12:1 57:1 129:1 227:1 248:1 
2 1:0.38461538 2:0.38461538 3:0.5800076 4:0.49450549 5:0.59291113 39:1 75:1 226:1 246:1 
0.282254579474488 1:0.46153846 2:0.46153846 3:0.40706956 4:0.39772727 5:0.68803753 26:1 221:1 223:1 256:1 
1.485039116458504 1:0.46153846 2:0.46153846 3:0.40706956 4:0.56818182 5:0.64112588 119:1 189:1 239:1 256:1 
1.325304883905917 1:0.38461538 2:0.38461538 3:0.48118586 4:0.37433155 5:0.6567631 155:1 174:1 198:1 256:1 
2 1:0.53846154 2:0.53846154 3:0.6108894 4:0.42424242 5:0.55414386 54:1 130:1 238:1 256:1 
2 1:0.61538462 2:0.61538462 3:0.53883188 4:0.38961039 5:0.63547911 54:1 103:1 166:1 257:1 
1.131975520267639 1:0.46153846 2:0.46153846 3:0.55530217 4:0.45454545 5:0.6567631 25:1 166:1 238:1 256:1 
0.3320194299260327 1:0.76923077 2:0.76923077 3:0.27736602 4:0.60802834 5:0.40363565 9:1 57:1 176:1 250:1 
2 1:0.53846154 2:0.53846154 3:0.40706956 4:0.59504132 5:0.4241595 10:1 24:1 44:1 59:1 73:1 92:1 251:1 
1.427765256560676 1:0.53846154 2:0.53846154 3:0.24743444 4:0.59504132 5:0.4031094 26:1 38:1 239:1 250:1 
1.359833433514587 1:0.46153846 2:0.46153846 3:0.23413151 4:0.45454545 5:0.55642429 26:1 37:1 43:1 59:1 
-1.555441351864123 1:0.23076923 2:0.23076923 3:0.36095274 4:0.54545455 5:0.73277734 39:1 85:1 101:1 230:1 242:1 252:1 
-1.088695604602756 1:0.53846154 2:0.53846154 3:0.36459354 4:0.54545455 5:0.73277734 44:1 137:1 142:1 158:1 206:1 252:1 
-2 1:0.46153846 2:0.46153846 3:0.35245754 4:0.90909091 5:0.63803959 14:1 41:1 93:1 183:1 194:1 225:1 255:1 
-0.4421321513945753 1:0.15384615 2:0.15384615 3:0.41335821 4:0.53030303 5:0.66853839 76:1 121:1 136:1 160:1 165:1 195:1 251:1 
-0.8150957063583406 1:0.30769231 2:0.30769231 3:0.37824655 4:0.35064935 5:0.70085136 13:1 42:1 101:1 122:1 135:1 206:1 
-1.103681670087114 1:0.30769231 2:0.30769231 3:0.53677309 4:0.52913753 5:0.55414386 12:1 58:1 75:1 83:1 147:1 186:1 246:1 
-0.2416136689790144 1:0.46153846 2:0.46153846 3:0.1995439 4:0.59440559 5:0.68522283 12:1 47:1 81:1 103:1 183:1 206:1 
-1.978794633115978 1:0.30769231 2:0.30769231 3:0.080543174 4:0.46969697 5:0.63535897 12:1 36:1 45:1 91:1 109:1 180:1 254:1 
-0.773608328052629 1:0.23076923 2:0.23076923 3:0.43899658 4:0.47552448 5:0.65774862 12:1 75:1 123:1 180:1 187:1 224:1 252:1 
-1.570207236727272 1:0.15384615 2:0.15384615 3:0.53449759 4:0.34090909 5:0.69324993 12:1 64:1 123:1 128:1 184:1 244:1 257:1 
-2 1:0.38461538 2:0.38461538 3:0.37562627 4:0.47520661 5:0.65162177 36:1 55:1 143:1 181:1 200:1 255:1 
-0.1383490723713333 2:9.8212037e-17 3:0.66647662 4:0.40593097 5:0.68405583 13:1 51:1 75:1 135:1 229:1 245:1 252:1 
-0.1452697534681882 1:0.30769231 2:0.30769231 3:0.3635327 4:0.24242424 5:0.67566034 84:1 123:1 128:1 151:1 186:1 217:1 253:1 
-2 1:0.38461538 2:0.38461538 3:0.32492398 4:0.42207792 5:0.67112979 25:1 84:1 146:1 178:1 246:1 
-1.697115097569889 1:0.30769231 2:0.30769231 3:0.48118586 4:0.58310376 5:0.59864477 24:1 48:1 83:1 102:1 209:1 
-1.460799791665623 1:0.46153846 2:0.46153846 3:0.5709056 4:0.45454545 5:0.6567631 20:1 41:1 127:1 149:1 161:1 192:1 255:1 
-1.114464344158089 1:0.23076923 2:0.23076923 3:0.20661864 4:0.46969697 5:0.64375988 47:1 60:1 86:1 120:1 162:1 192:1 
-1.127453128062057 1:0.46153846 2:0.46153846 3:0.61459521 4:0.45454545 5:0.7005473 17:1 34:1 183:1 186:1 236:1 255:1 
-0.3986991289038689 1:0.38461538 2:0.38461538 3:0.46142151 4:0.37878788 5:0.67813396 72:1 116:1 140:1 171:1 180:1 246:1 
-2 1:0.38461538 2:0.38461538 3:0.2018244 4:0.68686869 5:0.58474169 12:1 24:1 42:1 57:1 117:1 192:1 251:1 
-1.258663397478744 1:0.23076923 2:0.23076923 3:0.49930318 4:0.65909091 5:0.81304839 24:1 41:1 135:1 142:1 215:1 229:1 253:1 
-0.3023115819570442 1:0.15384615 2:0.15384615 3:0.41593817 4:0.22077922 5:0.69155423 18:1 108:1 125:1 144:1 150:1 217:1 253:1 
-0.5580141533327553 1:0.53846154 2:0.53846154 3:0.35951159 4:0.55194805 5:0.645589 58:1 97:1 106:1 134:1 180:1 248:1 
-0.9769345754573489 1:0.15384615 2:0.15384615 3:0.30064614 4:0.28571429 5:0.65962825 37:1 84:1 90:1 110:1 123:1 150:1 252:1 
-0.395029867141747 1:0.23076923 2:0.23076923 3:0.5218073 4:0.64935065 5:0.69667058 24:1 72:1 144:1 179:1 233:1 244:1 248:1 
-0.3699701489778182 1:0.38461538 2:0.38461538 3:0.3940992 4:0.64935065 5:0.69667058 25:1 46:1 60:1 109:1 155:1 178:1 
-1.137175813763323 1:0.46153846 2:0.46153846 3:0.40706956 4:0.85858586 5:0.76935106 12:1 34:1 83:1 130:1 155:1 216:1 
-2 1:0.46153846 2:0.46153846 3:0.35245754 4:0.68181818 5:0.61931608 14:1 18:1 95:1 127:1 183:1 225:1 255:1 
-2 1:0.46153846 2:0.46153846 3:0.40706956 4:0.27272727 5:0.65150057 21:1 40:1 114:1 164:1 229:1 
-1.485671986369113 1:0.46153846 2:0.46153846 3:0.327252 4:0.54545455 5:0.64886931 12:1 47:1 123:1 152:1 187:1 235:1 252:1 
-0.3410884989643561 1:0.38461538 2:0.38461538 3:0.68377043 4:0.28971029 5:0.69598645 32:1 46:1 64:1 91:1 184:1 220:1 256:1 
-2 1:0.15384615 2:0.15384615 3:0.3929841 4:0.6969697 5:0.74319233 24:1 99:1 145:1 168:1 251:1 
-1.830960034757042 1:0.69230769 2:0.69230769 3:0.36716078 4:0.77922078 5:0.6567631 14:1 81:1 113:1 142:1 189:1 251:1 
-0.5954507220684552 1:0.30769231 2:0.30769231 3:0.39486216 4:0.18939394 5:0.69314262 12:1 40:1 114:1 128:1 146:1 221:1 253:1 
-0.6381260033156362 1:0.30769231 2:0.30769231 3:0.36450019 4:0.22727273 5:0.63122231 78:1 115:1 132:1 181:1 198:1 243:1 
-0.552102432463523 1:0.30769231 2:0.30769231 3:0.3635327 4:0.31818182 5:0.66322165 12:1 75:1 90:1 199:1 216:1 224:1 253:1 
-0.02100637264055279 1:0.23076923 2:0.23076923 3:0.43012796 4:0.54545455 5:0.73277734 64:1 109:1 176:1 192:1 214:1 240:1 252:1 
-0.2130400401901576 1:0.53846154 2:0.53846154 3:0.32492398 4:0.74675325 5:0.51149987 49:1 63:1 111:1 141:1 165:1 201:1 249:1 
-2 1:0.53846154 2:0.53846154 3:0.327252 4:0.8677686 5:0.37890179 9:1 59:1 155:1 239:1 251:1 
-2 1:0.38461538 2:0.38461538 3:0.4013683 4:0.61616162 5:0.58320804 54:1 129:1 144:1 155:1 207:1 
-0.8593226926296594 1:0.53846154 2:0.53846154 3:0.41851398 4:0.93073593 5:0.73382813 46:1 72:1 154:1 179:1 213:1 231:1 
-2 1:0.15384615 2:0.15384615 3:0.39614715 4:0.56818182 5:0.59108679 12:1 64:1 95:1 126:1 192:1 209:1 255:1 
-0.7296975560632281 1:0.23076923 2:0.23076923 3:0.29177752 4:0.43181818 5:0.6962905 100:1 122:1 168:1 176:1 192:1 242:1 253:1 
-0.5877295232719801 1:0.076923077 2:0.076923077 3:0.25741163 4:0.3030303 5:0.65300415 13:1 37:1 75:1 84:1 145:1 182:1 
-0.9994058311719758 1:0.30769231 2:0.30769231 3:0.50795008 4:0.61038961 5:0.87644427 13:1 39:1 44:1 99:1 214:1 228:1 
-0.1086826917086209 1:0.23076923 2:0.23076923 3:0.44198974 4:0.68831169 5:0.58598214 13:1 37:1 47:1 61:1 179:1 233:1 251:1 
-1.257221056136349 1:0.23076923 2:0.23076923 3:0.39527832 4:0.28787879 5:0.57777738 13:1 18:1 64:1 76:1 180:1 225:1 246:1 
-2 1:0.30769231 2:0.30769231 3:0.44165716 4:0.42275906 5:0.66515507 54:1 143:1 157:1 200:1 216:1 255:1 
-1.044814565405573 1:0.23076923 2:0.23076923 3:0.40033171 4:0.78282828 5:0.71561589 27:1 95:1 119:1 143:1 204:1 222:1 252:1 
-2 1:0.46153846 2:0.46153846 3:0.47624477 4:0.45454545 5:0.66406046 25:1 44:1 221:1 239:1 
-0.004703648831283932 1:0.61538462 2:0.61538462 3:0.23147092 4:0.43181818 5:0.64564163 19:1 38:1 75:1 110:1 151:1 200:1 
-2 1:0.38461538 2:0.38461538 3:0.55642514 4:0.39256198 5:0.67447343 51:1 140:1 187:1 207:1 244:1 
-2 1:0.53846154 2:0.53846154 3:0.49990998 5:0.66770915 20:1 76:1 127:1 172:1 225:1 257:1 
-1.060215129107232 1:0.38461538 2:0.38461538 3:0.30330673 4:0.27777778 5:0.64581704 37:1 55:1 66:1 123:1 175:1 228:1 
-0.3215818123173059 1:0.23076923 2:0.23076923 3:0.56402173 4:0.55555556 5:0.51464839 12:1 39:1 52:1 54:1 118:1 232:1 251:1 
-0.2423539197993669 1:0.30769231 2:0.30769231 3:0.30515964 4:0.82972583 5:0.7862588 36:1 47:1 96:1 122:1 165:1 231:1 
-0.5552878679001956 1:0.15384615 2:0.15384615 3:0.3929841 4:0.6969697 5:0.74319233 12:1 26:1 39:1 73:1 180:1 233:1 251:1 
-1.085905625861919 1:0.23076923 2:0.23076923 3:0.41578912 4:0.75757576 5:0.72575082 26:1 86:1 99:1 231:1 243:1 251:1 
-2 1:0.61538462 2:0.61538462 3:0.33295325 4:0.36271809 5:0.14464425 38:1 92:1 126:1 154:1 
-0.470234836787583 1:0.23076923 2:0.23076923 3:0.51083238 4:0.26859504 5:0.83189992 28:1 116:1 180:1 217:1 244:1 
-1.00988050266144 1:0.30769231 2:0.30769231 3:0.32060053 4:0.20025429 5:0.64959604 12:1 78:1 90:1 104:1 122:1 208:1 253:1 
-0.01787070241477227 1:0.38461538 2:0.38461538 3:0.37562627 4:0.32369146 5:0.68147464 37:1 55:1 156:1 190:1 198:1 222:1 255:1 
-2 1:0.38461538 2:0.38461538 3:0.47685157 4:0.54545455 5:0.5959517 13:1 51:1 64:1 77:1 93:1 225:1 257:1 
-1.531185008874083 1:0.23076923 2:0.23076923 3:0.41505131 4:0.42657343 5:0.65954973 39:1 65:1 107:1 146:1 229:1 241:1 
-1.623926118449179 1:0.23076923 2:0.23076923 3:0.36095274 4:0.20454545 5:0.71575015 25:1 42:1 109:1 169:1 214:1 253:1 
-0.480786902550992 1:0.23076923 2:0.23076923 3:0.42450869 4:0.35353535 5:0.63606678 14:1 40:1 87:1 116:1 179:1 220:1 253:1 
-0.1707668509462242 1:0.15384615 2:0.15384615 3:0.36259977 4:0.6021756 5:0.64712015 16:1 86:1 95:1 112:1 216:1 239:1 253:1 
-1.824152193336194 1:0.30769231 2:0.30769231 3:0.29720303 4:0.60606061 5:0.69056708 41:1 51:1 72:1 158:1 170:1 182:1 
-0.356629959956221 1:0.76923077 2:0.76923077 3:0.45804077 4:0.45454545 5:0.65138609 34:1 111:1 175:1 202:1 223:1 249:1 
-0.6381846616660779 1:0.46153846 2:0.46153846 3:0.25883694 4:0.45454545 5:0.67083659 121:1 209:1 218:1 225:1 242:1 
-1.226841512482781 1:0.46153846 2:0.46153846 3:0.327252 4:0.36363636 5:0.65588601 12:1 75:1 151:1 200:1 218:1 236:1 253:1 
-0.3303395393863665 1:0.76923077 2:0.76923077 3:0.40706956 4:0.60802834 5:0.41959864 44:1 58:1 72:1 140:1 238:1 250:1 
-2 1:0.30769231 2:0.30769231 3:0.44309831 4:0.61038961 5:0.85249978 12:1 101:1 142:1 157:1 252:1 
-2 1:0.53846154 2:0.53846154 3:0.33632217 4:0.36501377 5:0.65736726 20:1 67:1 208:1 235:1 252:1 
-1.726634210141705 1:0.15384615 2:0.15384615 3:0.48942101 4:0.49494949 5:0.55685866 42:1 99:1 121:1 137:1 156:1 252:1 
-1.491823053523608 1:0.46153846 2:0.46153846 3:0.46471557 4:0.27272727 5:0.70237164 26:1 44:1 64:1 70:1 100:1 176:1 252:1 
-1.026140828918712 1:0.30769231 2:0.30769231 3:0.5332126 4:0.41666667 5:0.67854789 39:1 88:1 103:1 144:1 161:1 173:1 
-2 1:0.30769231 2:0.30769231 3:0.33257317 4:0.79545455 5:0.65919555 24:1 71:1 112:1 143:1 206:1 215:1 
-1.643520768062417 1:0.15384615 2:0.15384615 3:0.3804637 4:0.31168831 5:0.67114733 6:1 40:1 98:1 219:1 228:1 241:1 
-1.234208503445394 1:0.23076923 2:0.23076923 3:0.72633979 4:0.42657343 5:0.6900423 6:1 41:1 63:1 75:1 221:1 240:1 
-0.1303735514193661 1:0.38461538 2:0.38461538 3:0.57661666 4:0.54545455 5:0.73277734 24:1 41:1 44:1 101:1 137:1 215:1 253:1 
-1.50418008711719 1:0.23076923 2:0.23076923 3:0.38977575 4:0.46487603 5:0.65159413 12:1 52:1 134:1 138:1 197:1 204:1 251:1 
-1.187298214567487 1:0.69230769 2:0.69230769 3:0.23703803 4:0.25252525 5:0.68449616 13:1 55:1 104:1 122:1 177:1 250:1 
-1.645106324736916 1:0.69230769 2:0.69230769 3:0.40706956 4:0.5268595 5:0.46520719 10:1 44:1 59:1 138:1 154:1 
-0.4391751545538798 1:0.38461538 2:0.38461538 3:0.38820359 4:0.32051282 5:0.66635866 20:1 68:1 157:1 180:1 192:1 234:1 
-2 1:0.30769231 2:0.30769231 3:0.39471684 4:0.41781451 5:0.66314829 13:1 24:1 54:1 82:1 102:1 216:1 
-2 1:0.23076923 2:0.23076923 3:0.42450869 4:0.55555556 5:0.66421377 12:1 40:1 179:1 221:1 252:1 
-2 1:0.46153846 2:0.46153846 3:0.5709056 4:0.68181818 5:0.6423604 20:1 53:1 94:1 171:1 227:1 256:1 
-1.531727487314347 1:0.38461538 2:0.38461538 3:0.3940992 4:0.42207792 5:0.66383242 12:1 126:1 166:1 193:1 213:1 232:1 
-1.247637866903411 1:0.76923077 2:0.76923077 3:0.58494869 4:0.36907537 5:0.69272869 32:1 46:1 92:1 115:1 140:1 255:1 
-2 1:0.23076923 2:0.23076923 3:0.29177752 4:0.43181818 5:0.6962905 25:1 69:1 86:1 99:1 205:1 253:1 
-1.245654542756336 1:0.61538462 2:0.61538462 3:0.67882934 4:0.39944904 5:0.70706281 56:1 77:1 101:1 190:1 198:1 257:1 
-2 1:0.38461538 2:0.38461538 3:0.36892146 4:0.36796537 5:0.62336154 13:1 28:1 146:1 179:1 236:1 
-0.1144831978280028 1:0.46153846 2:0.46153846 3:0.29177752 4:0.27272727 5:0.71757449 43:1 100:1 122:1 141:1 157:1 176:1 252:1 
-1.264683968678397 1:0.46153846 2:0.46153846 3:0.40706956 4:0.22727273 5:0.68810861 19:1 32:1 92:1 192:1 208:1 210:1 253:1 
-2 1:0.53846154 2:0.53846154 3:0.41201064 4:0.70707071 5:0.69898358 50:1 154:1 179:1 208:1 226:1 251:1 
-1.621066377521198 1:0.38461538 2:0.38461538 3:0.5921436 4:0.36363636 5:0.6871688 41:1 93:1 111:1 128:1 172:1 185:1 256:1 
-2 1:0.076923077 2:0.076923077 3:0.33685411 4:0.4040404 5:0.83268178 14:1 87:1 148:1 172:1 192:1 256:1 
-2 1:0.46153846 2:0.46153846 3:0.40706956 4:0.58441558 5:0.6408001 12:1 36:1 46:1 128:1 165:1 208:1 
-2 1:0.30769231 2:0.30769231 3:0.48043721 4:0.53030303 5:0.65715008 8:1 46:1 60:1 120:1 207:1 252:1 
-2 1:0.30769231 2:0.30769231 3:0.43555347 4:0.71969697 5:0.74164865 12:1 40:1 105:1 204:1 216:1 233:1 250:1 
-1.97342608775303 1:0.61538462 2:0.61538462 3:0.34196347 4:0.79545455 5:0.65919555 34:1 86:1 179:1 190:1 206:1 251:1 
-2 1:0.46153846 2:0.46153846 3:0.40706956 4:0.61983471 5:0.41594996 37:1 72:1 154:1 238:1 251:1 
-0.5879425698087055 1:0.38461538 2:0.38461538 3:0.45838084 4:0.61616162 5:0.61821134 15:1 95:1 112:1 190:1 222:1 237:1 252:1 
-0.6427533783460702 1:0.61538462 2:0.61538462 3:0.48118586 4:0.25252525 5:0.67161845 34:1 54:1 104:1 154:1 208:1 
-2 1:0.23076923 2:0.23076923 3:0.54275941 4:0.40559441 5:0.66996619 75:1 108:1 123:1 180:1 198:1 236:1 
-0.6158573606552897 1:0.46153846 2:0.46153846 3:0.40706956 4:0.45454545 5:0.6567631 46:1 84:1 121:1 128:1 166:1 193:1 
-1.608783027087991 1:0.69230769 2:0.69230769 3:0.15103141 4:0.42929293 5:0.64089234 7:1 19:1 122:1 164:1 211:1 252:1 
-0.544566927423813 1:0.23076923 2:0.23076923 3:0.41578912 4:0.85858586 5:0.71167732 24:1 39:1 107:1 158:1 168:1 243:1 250:1 
-1.422469438221254 1:0.38461538 2:0.38461538 3:0.47358419 4:0.46280992 5:0.66064177 20:1 36:1 47:1 63:1 128:1 217:1 
-2 1:0.46153846 2:0.46153846 3:0.40706956 4:0.68181818 5:0.65189818 12:1 34:1 53:1 121:1 213:1 251:1 
-0.7785194317219345 1:0.46153846 2:0.46153846 3:0.40706956 4:0.68181818 5:0.65189818 64:1 111:1 158:1 179:1 213:1 236:1 251:1 
-0.5922446916843873 1:0.38461538 2:0.38461538 3:0.21039491 4:0.54545455 5:0.73277734 14:1 39:1 44:1 86:1 228:1 242:1 254:1 
-2 1:0.46153846 2:0.46153846 3:0.34221779 4:0.32467532 5:0.67751499 14:1 25:1 38:1 128:1 166:1 208:1 
-2 1:0.53846154 2:0.53846154 3:0.57240593 4:0.54545455 5:0.66180008 12:1 46:1 65:1 75:1 188:1 236:1 
-0.6068792313359697 1:0.23076923 2:0.23076923 3:0.49353858 4:0.36157025 5:0.66314829 63:1 88:1 100:1 164:1 192:1 223:1 253:1 
-2 1:0.38461538 2:0.38461538 3:0.41920556 4:0.18181818 5:0.68210118 18:1 53:1 88:1 93:1 194:1 220:1 
-1.254867917984879 1:0.38461538 2:0.38461538 3:0.3940992 4:0.64935065 5:0.69667058 37:1 96:1 120:1 153:1 178:1 233:1 
-2 1:0.30769231 2:0.30769231 3:0.57280185 4:0.61038961 5:0.90038876 42:1 65:1 101:1 135:1 215:1 252:1 
-0.002640864898106775 1:0.38461538 2:0.38461538 3:0.44480149 4:0.40792541 5:0.6554363 50:1 54:1 111:1 119:1 128:1 220:1 
-2 1:0.38461538 2:0.38461538 3:0.28444076 4:0.32051282 5:0.65619447 19:1 62:1 207:1 234:1 253:1 
-2 1:0.38461538 2:0.38461538 3:0.5684784 4:0.35464535 5:0.70662844 12:1 19:1 30:1 63:1 138:1 185:1 257:1 
-1.833323996803625 1:0.38461538 2:0.38461538 3:0.39350579 4:0.39393939 5:0.68931508 13:1 41:1 44:1 101:1 122:1 206:1 252:1 
-1.451367173503502 1:0.23076923 2:0.23076923 3:0.29177752 4:0.43181818 5:0.6962905 26:1 40:1 42:1 109:1 192:1 215:1 254:1 
-0.9146133678518853 1:0.46153846 2:0.46153846 3:0.85176739 4:0.51136364 5:0.81313526 51:1 71:1 88:1 176:1 200:1 239:1 257:1 
-0.4533208329335229 1:0.69230769 2:0.69230769 3:0.3222634 4:0.41558442 5:0.65271095 19:1 46:1 76:1 188:1 223:1 235:1 252:1 
-0.8108751147900148 1:0.46153846 2:0.46153846 3:0.34942354 4:0.81818182 5:0.75304781 101:1 143:1 158:1 176:1 213:1 228:1 252:1 
-1.495629619374114 1:0.53846154 2:0.53846154 3:0.41201064 4:0.36616162 5:0.66736165 34:1 102:1 208:1 217:1 225:1 250:1 
-1.533710496306644 1:0.23076923 2:0.23076923 3:0.49353858 4:0.44421488 5:0.64308053 27:1 52:1 88:1 121:1 163:1 203:1 
-2 1:0.38461538 2:0.38461538 3:0.30391353 4:0.90909091 5:0.63547911 14:1 19:1 93:1 183:1 192:1 227:1 255:1 
-0.08137574672645852 1:0.53846154 2:0.53846154 3:0.36050931 4:0.25619835 5:0.66012109 14:1 18:1 32:1 92:1 121:1 154:1 253:1 
-2 1:0.30769231 2:0.30769231 3:0.69118206 4:0.58310376 5:0.58722092 15:1 39:1 113:1 135:1 176:1 
-0.6004061979391597 1:0.38461538 2:0.38461538 3:0.45318637 4:0.48451548 5:0.70662844 13:1 30:1 45:1 75:1 92:1 191:1 255:1 
-2 1:0.23076923 2:0.23076923 3:0.43899658 4:0.40559441 5:0.6620607 12:1 75:1 164:1 180:1 198:1 252:1 
-0.5883974799668659 1:0.38461538 2:0.38461538 3:0.38730521 4:0.27777778 5:0.73677352 78:1 106:1 158:1 172:1 192:1 246:1 
-2 1:0.53846154 2:0.53846154 3:0.42417332 4:0.44444444 5:0.65844925 14:1 45:1 76:1 125:1 200:1 236:1 252:1 
-0.2578280022099622 1:0.38461538 2:0.38461538 3:0.4013683 4:0.43434343 5:0.66039173 13:1 54:1 103:1 208:1 216:1 227:1 250:1 
-2 1:0.61538462 2:0.61538462 3:0.28663056 4:0.64213564 5:0.57926114 24:1 33:1 56:1 179:1 218:1 250:1 
-0.8595980195484324 1:0.38461538 2:0.38461538 3:0.43377322 4:0.4978355 5:0.66326902 40:1 45:1 160:1 173:1 179:1 235:1 252:1 
-1.541558985285389 1:0.15384615 2:0.15384615 3:0.5312302 4:0.35064935 5:0.67559124 64:1 84:1 123:1 152:1 162:1 180:1 252:1 
-2 1:0.53846154 2:0.53846154 3:0.42402427 4:0.6969697 5:0.75137848 26:1 101:1 106:1 130:1 156:1 
-0.4996582267890743 1:0.38461538 2:0.38461538 3:0.33246883 4:0.54545455 5:0.73277734 101:1 158:1 170:1 174:1 215:1 252:1 
-1.234266549642737 1:0.53846154 2:0.53846154 3:0.41920556 4:1 5:0.74862031 70:1 101:1 141:1 156:1 176:1 215:1 252:1 
-0.1435820125560187 1:0.61538462 2:0.61538462 3:0.37858564 4:0.53030303 5:0.6481243 32:1 98:1 107:1 116:1 173:1 230:1 
-0.05851656045359194 1:0.38461538 2:0.38461538 3:0.48118586 4:0.48128342 5:0.6567631 31:1 52:1 90:1 131:1 155:1 167:1 256:1 
-0.8180360840650623 1:0.38461538 2:0.38461538 3:0.45838084 4:0.52525253 5:0.64452397 111:1 118:1 137:1 170:1 217:1 
-1.399405370238866 1:0.076923077 2:0.076923077 3:0.4227912 4:0.42335116 5:0.65972287 47:1 85:1 120:1 192:1 231:1 253:1 
-2 1:0.46153846 2:0.46153846 3:0.18472064 4:0.75757576 5:0.80453479 14:1 26:1 35:1 103:1 120:1 227:1 251:1 
-2 1:0.38461538 2:0.38461538 3:0.30064614 4:0.1322314 5:0.73868307 18:1 86:1 90:1 126:1 253:1 
-0.7988703875866218 1:0.61538462 2:0.61538462 3:0.30064614 4:0.31818182 5:0.65658768 18:1 84:1 91:1 128:1 152:1 199:1 252:1 
-0.1025803086065404 1:0.30769231 2:0.30769231 3:0.36514518 4:0.27056277 5:0.6713394 30:1 61:1 84:1 92:1 232:1 235:1 252:1 
-2 1:0.38461538 2:0.38461538 3:0.3804637 4:0.55371901 5:0.6503701 39:1 106:1 153:1 204:1 228:1 246:1 
-1.548959478754956 1:0.38461538 2:0.38461538 3:0.25829197 4:0.54112554 5:0.66662259 24:1 40:1 55:1 74:1 117:1 204:1 
-0.1233263442509389 1:0.15384615 2:0.15384615 3:0.50768806 4:0.45454545 5:0.64614874 64:1 111:1 135:1 160:1 175:1 220:1 
-0.8600515746812952 1:0.46153846 2:0.46153846 3:0.32060053 4:0.70247934 5:0.39158197 59:1 72:1 86:1 128:1 155:1 251:1 
-2 1:0.23076923 2:0.23076923 3:0.43402094 4:0.42929293 5:0.63650579 24:1 44:1 75:1 157:1 172:1 
-2 1:0.076923077 2:0.076923077 3:0.4780185 4:0.72727273 5:0.78014007 63:1 69:1 84:1 100:1 135:1 168:1 252:1 
-1.983266444919855 1:0.30769231 2:0.30769231 3:0.38530113 4:0.62121212 5:0.58040865 12:1 39:1 57:1 76:1 122:1 159:1 250:1 
-1.027762135725893 1:0.46153846 2:0.46153846 3:0.33789434 4:0.34090909 5:0.63487099 12:1 66:1 91:1 111:1 174:1 230:1 250:1 
-0.8822856559456438 1:0.53846154 2:0.53846154 3:0.48118586 4:0.54545455 5:0.6567631 30:1 70:1 87:1 119:1 153:1 189:1 256:1 
-0.586832154615889 1:0.23076923 2:0.23076923 3:0.49930318 4:0.54545455 5:0.73277734 13:1 100:1 135:1 142:1 156:1 176:1 252:1 
-1.296747522174883 1:0.15384615 2:0.15384615 3:0.5800076 4:0.37227478 5:0.63461037 13:1 39:1 42:1 76:1 149:1 241:1 
-1.275809090786971 1:0.69230769 2:0.69230769 3:0.56594087 5:0.66422631 20:1 65:1 93:1 124:1 127:1 226:1 257:1 
-0.634190412317185 1:0.30769231 2:0.30769231 3:0.36450019 4:0.40909091 5:0.65753493 80:1 97:1 139:1 156:1 171:1 228:1 
-1.014144322494031 1:0.38461538 2:0.38461538 3:0.45284727 4:0.93073593 5:0.70972267 13:1 84:1 101:1 107:1 118:1 131:1 251:1 
-2 1:0.38461538 2:0.38461538 3:0.48118586 4:0.34343434 5:0.66477717 34:1 54:1 102:1 208:1 240:1 
-2 1:0.38461538 2:0.38461538 3:0.31273971 4:0.41322314 5:0.35574668 25:1 90:1 155:1 193:1 249:1 
-0.5134329338524629 1:0.69230769 2:0.69230769 3:0.36095274 4:0.40909091 5:0.65656039 50:1 101:1 122:1 141:1 176:1 223:1 251:1 
-2 1:0.38461538 2:0.38461538 3:0.21417712 4:0.38016529 5:0.64551132 14:1 45:1 85:1 108:1 126:1 
-2 1:0.61538462 2:0.61538462 3:0.40706956 4:0.43547362 5:0.6567631 13:1 22:1 40:1 93:1 130:1 151:1 
-2 1:0.53846154 2:0.53846154 3:0.29238432 4:0.90909091 5:0.63487099 14:1 19:1 75:1 93:1 194:1 225:1 255:1 
-0.7970605248220599 1:0.46153846 2:0.46153846 3:0.46810651 4:0.45454545 5:0.66642138 28:1 116:1 128:1 159:1 179:1 254:1 
-2 1:0.69230769 2:0.69230769 3:0.52161294 4:0.42929293 5:0.66602358 32:1 46:1 128:1 212:1 233:1 253:1 
-2 1:0.38461538 2:0.38461538 3:0.40706956 4:0.41322314 5:0.35574668 109:1 205:1 212:1 239:1 
-0.1805331041384045 1:0.61538462 2:0.61538462 3:0.30824781 4:0.32467532 5:0.68868908 26:1 55:1 88:1 91:1 153:1 174:1 257:1 
-1.482793790849931 1:0.23076923 2:0.23076923 3:0.39527832 4:0.40909091 5:0.71460303 13:1 75:1 138:1 180:1 215:1 246:1 
-2 1:0.69230769 2:0.69230769 3:0.38711517 4:0.41558442 5:0.65749985 45:1 92:1 152:1 234:1 
-1.003296054277131 1:0.53846154 2:0.53846154 3:0.24985315 4:0.28236915 5:0.65593385 18:1 30:1 47:1 61:1 127:1 139:1 
-0.6997744128223569 1:0.23076923 2:0.23076923 3:0.48118586 4:0.55555556 5:0.61688819 13:1 83:1 104:1 168:1 208:1 240:1 
-2 1:0.30769231 2:0.30769231 3:0.50472869 4:0.71969697 5:0.75624339 12:1 39:1 51:1 73:1 106:1 130:1 
-2 1:0.38461538 2:0.38461538 3:0.36716078 4:0.41322314 5:0.6567631 14:1 40:1 42:1 81:1 100:1 191:1 
-1.680045553477133 1:0.61538462 2:0.61538462 3:0.30064614 4:0.43181818 5:0.65050654 14:1 46:1 75:1 151:1 223:1 234:1 
-1.749256053882889 1:0.23076923 2:0.23076923 3:0.54275941 4:0.54545455 5:0.66023636 12:1 36:1 47:1 65:1 77:1 180:1 
-1.457941588123484 1:0.38461538 2:0.38461538 3:0.47358419 4:0.29752066 5:0.67847978 12:1 18:1 64:1 77:1 224:1 235:1 252:1 
-2 1:0.38461538 2:0.38461538 3:0.47685157 4:0.36363636 5:0.71757449 19:1 51:1 64:1 225:1 244:1 257:1 
-0.5457783972177609 1:0.69230769 2:0.69230769 3:0.39554035 4:0.68181818 5:0.64338459 17:1 57:1 74:1 105:1 116:1 173:1 
-0.2068679049896408 1:0.38461538 2:0.38461538 3:0.4268339 4:0.53030303 5:0.66640605 75:1 100:1 112:1 122:1 202:1 223:1 251:1 
-2 1:0.30769231 2:0.30769231 3:0.48118586 4:0.50045914 5:0.6387803 13:1 24:1 102:1 155:1 208:1 250:1 
-0.02818636091584023 1:0.30769231 2:0.30769231 3:0.37824655 4:0.35064935 5:0.70085136 24:1 64:1 70:1 85:1 176:1 194:1 253:1 
-2 1:0.38461538 2:0.38461538 3:0.27143187 4:0.39393939 5:0.70863164 42:1 108:1 170:1 174:1 215:1 254:1 
-1.888437934727341 1:0.30769231 2:0.30769231 3:0.36982136 4:0.5 5:0.66805998 63:1 76:1 111:1 121:1 141:1 175:1 
-2 1:0.23076923 2:0.23076923 3:0.36095274 4:0.43181818 5:0.68169577 71:1 108:1 176:1 193:1 241:1 253:1 
-0.3988144121195154 1:0.46153846 2:0.46153846 3:0.40706956 4:0.45454545 5:0.6567631 44:1 109:1 176:1 205:1 239:1 251:1 
-0.9371989111063638 1:0.38461538 2:0.38461538 3:0.51769904 4:0.54112554 5:0.57084464 39:1 53:1 157:1 168:1 188:1 250:1 
-1.555949645087621 1:0.076923077 2:0.076923077 3:0.25741163 4:0.24242424 5:0.65886811 14:1 37:1 63:1 85:1 126:1 216:1 253:1 
-2 1:0.38461538 2:0.38461538 3:0.37856328 4:0.61616162 5:0.63926144 17:1 29:1 60:1 93:1 217:1 237:1 252:1 
-0.8346590583812055 1:0.38461538 2:0.38461538 3:0.33246883 4:0.6969697 5:0.76658133 43:1 100:1 143:1 168:1 215:1 230:1 
-2 1:0.69230769 2:0.69230769 3:0.37742303 4:0.48951049 5:0.58561376 10:1 26:1 104:1 129:1 153:1 256:1 
-2 1:0.30769231 2:0.30769231 3:0.47963097 4:0.31818182 5:0.63016343 19:1 76:1 159:1 220:1 222:1 
-1.70789191514296 1:0.30769231 2:0.30769231 3:0.23104333 4:0.52669553 5:0.66663409 13:1 38:1 62:1 72:1 96:1 128:1 
-0.7265464972892151 1:0.46153846 2:0.46153846 3:0.5013994 4:0.3030303 5:0.67915275 20:1 49:1 56:1 112:1 150:1 166:1 252:1 
-1.706719076320291 1:0.38461538 2:0.38461538 3:0.56005321 4:0.29752066 5:0.68851366 38:1 64:1 77:1 125:1 188:1 253:1 
-0.58391136659077 1:0.23076923 2:0.23076923 3:0.31832503 4:0.64935065 5:0.60887412 14:1 52:1 127:1 159:1 192:1 227:1 255:1 
-0.704817630736128 1:0.53846154 2:0.53846154 3:0.32492398 4:0.61688312 5:0.75094475 27:1 35:1 50:1 81:1 141:1 222:1 
-2 1:0.53846154 2:0.53846154 3:0.30444698 4:0.39393939 5:0.66037168 14:1 19:1 57:1 86:1 185:1 208:1 
-1.465015684883625 1:0.38461538 2:0.38461538 3:0.28444076 4:0.39044289 5:0.65167705 19:1 60:1 102:1 127:1 231:1 252:1 
-2 1:0.38461538 2:0.38461538 3:0.58255081 4:0.8008658 5:0.73845605 24:1 101:1 119:1 233:1 245:1 251:1 
-1.756549407494696 1:0.30769231 2:0.30769231 3:0.38530113 4:0.6969697 5:0.6027983 40:1 59:1 84:1 120:1 167:1 224:1 251:1 
-1.383501250773218 1:0.38461538 2:0.38461538 3:0.30391353 4:0.36363636 5:0.76318304 13:1 93:1 172:1 194:1 220:1 225:1 
-1.593537151407331 1:0.46153846 2:0.46153846 3:0.59572924 4:0.53030303 5:0.66422631 39:1 76:1 120:1 202:1 214:1 248:1 
-0.4961092214292848 1:0.53846154 2:0.53846154 3:0.45462752 4:0.35714286 5:0.645589 33:1 65:1 101:1 120:1 175:1 222:1 
-0.1453153628090455 1:0.23076923 2:0.23076923 3:0.36217218 4:0.64935065 5:0.69667058 36:1 47:1 85:1 108:1 120:1 128:1 
-1.940169827029709 1:0.15384615 2:0.15384615 3:0.41593817 4:0.28571429 5:0.67381757 13:1 36:1 125:1 144:1 162:1 217:1 
-2 1:0.30769231 2:0.30769231 3:0.36982136 4:0.5 5:0.66805998 50:1 64:1 112:1 136:1 201:1 251:1 
-0.619472241031233 1:0.23076923 2:0.23076923 3:0.29177752 4:0.43181818 5:0.6962905 25:1 43:1 64:1 71:1 85:1 206:1 252:1 
-2 1:0.38461538 2:0.38461538 3:0.36933762 4:0.55361305 5:0.62621366 12:1 84:1 138:1 191:1 214:1 
-0.5659081279942614 1:0.30769231 2:0.30769231 3:0.51824401 4:0.41781451 5:0.64933542 16:1 28:1 41:1 62:1 94:1 222:1 252:1 
-2 1:0.53846154 2:0.53846154 3:0.5579973 4:0.57109557 5:0.73537565 75:1 91:1 166:1 238:1 255:1 
-2 1:0.46153846 2:0.46153846 3:0.22395868 4:0.75757576 5:0.69539622 12:1 117:1 129:1 144:1 182:1 
-2 1:0.23076923 2:0.23076923 3:0.43899658 4:0.33566434 5:0.66883683 12:1 38:1 76:1 108:1 124:1 164:1 
-0.8354549143360004 1:0.38461538 2:0.38461538 3:0.4013683 4:0.34343434 5:0.67003969 25:1 54:1 102:1 129:1 207:1 
-0.07396638682107588 1:0.38461538 2:0.38461538 3:0.50095021 4:0.53030303 5:0.65467813 16:1 121:1 137:1 141:1 167:1 197:1 
-1.191706033584962 1:0.30769231 2:0.30769231 3:0.43276933 4:0.3030303 5:0.70022536 13:1 19:1 75:1 113:1 127:1 183:1 256:1 
-2 1:0.46153846 2:0.46153846 3:0.46810651 4:0.3030303 5:0.66883595 26:1 40:1 52:1 56:1 118:1 
-2 1:0.46153846 2:0.46153846 3:0.40706956 4:0.75757576 5:0.910086 34:1 96:1 120:1 178:1 216:1 250:1 
-0.4450841871222686 1:0.61538462 2:0.61538462 3:0.44963892 4:0.29545455 5:0.69030292 18:1 41:1 43:1 122:1 154:1 221:1 246:1 
-1.180721972009895 1:0.38461538 2:0.38461538 3:0.60162486 4:0.42207792 5:0.64194032 128:1 209:1 231:1 243:1 246:1 
-1.30007670281337 1:0.23076923 2:0.23076923 3:0.28235462 4:0.50649351 5:0.66316583 37:1 72:1 109:1 121:1 194:1 250:1 
-1.044692710408653 1:0.53846154 2:0.53846154 3:0.60367281 5:0.66223612 19:1 65:1 77:1 126:1 173:1 257:1 
-1.770179769303602 1:0.23076923 2:0.23076923 3:0.48118586 4:0.25252525 5:0.67161845 13:1 54:1 102:1 169:1 208:1 
-1.934419403805602 1:0.23076923 2:0.23076923 3:0.26295452 4:0.36009445 5:0.64250138 12:1 18:1 91:1 121:1 136:1 215:1 252:1 
-1.449657672264134 1:0.15384615 2:0.15384615 3:0.23334898 4:0.51515152 5:0.68004203 14:1 24:1 146:1 156:1 169:1 244:1 
-2 1:0.30769231 2:0.30769231 3:0.36514518 4:0.4004329 5:0.65715008 6:1 46:1 85:1 120:1 252:1 
-2 1:0.53846154 2:0.53846154 3:0.51577347 4:0.50505051 5:0.62157936 31:1 118:1 207:1 232:1 250:1 
-0.2731124983837122 1:0.53846154 2:0.53846154 3:0.48118586 4:0.72727273 5:0.6567631 71:1 131:1 167:1 176:1 189:1 239:1 255:1 
-0.9515739896230507 1:0.23076923 2:0.23076923 3:0.33523375 4:0.33566434 5:0.65867264 13:1 75:1 85:1 188:1 199:1 216:1 252:1 
-2 1:0.46153846 2:0.46153846 3:0.5800076 4:0.45454545 5:0.67683086 54:1 76:1 80:1 143:1 191:1 257:1 
-1.686460985076135 1:0.23076923 2:0.23076923 3:0.49862499 4:0.35353535 5:0.67125052 14:1 63:1 88:1 116:1 173:1 219:1 253:1 
-1.213838557379264 1:0.30769231 2:0.30769231 3:0.38112885 4:0.57109557 5:0.70738858 12:1 32:1 139:1 191:1 204:1 219:1 255:1 
-1.071227209206907 1:0.38461538 2:0.38461538 3:0.44127708 4:0.41414141 5:0.63210441 12:1 24:1 43:1 174:1 209:1 244:1 250:1 
-0.113272040880955 1:0.53846154 2:0.53846154 3:0.16761688 4:0.41322314 5:0.35574668 72:1 92:1 175:1 194:1 206:1 
-0.8915126167980936 1:0.38461538 2:0.38461538 3:0.40706956 4:0.41322314 5:0.35574668 58:1 85:1 176:1 204:1 210:1 228:1 
-2 1:0.53846154 2:0.53846154 3:0.43301026 4:0.40584416 5:0.68275997 26:1 53:1 85:1 91:1 197:1 250:1 
-0.9439272686545658 1:0.076923077 2:0.076923077 3:0.48508672 4:0.2020202 5:0.67787334 13:1 18:1 40:1 64:1 219:1 244:1 257:1 
-0.4468508850166257 1:0.30769231 2:0.30769231 3:0.22802781 4:0.60606061 5:0.69056708 13:1 26:1 86:1 105:1 145:1 243:1 251:1 
-2 1:0.69230769 2:0.69230769 3:0.33789434 4:0.29958678 5:0.2608809 73:1 92:1 140:1 176:1 249:1 
-2 1:0.23076923 2:0.23076923 3:0.38977575 4:0.3822314 5:0.6850404 12:1 111:1 172:1 205:1 235:1 
-0.2241484528551168 1:0.30769231 2:0.30769231 3:0.37742303 4:0.55555556 5:0.63213448 11:1 26:1 51:1 87:1 175:1 239:1 256:1 
-2 1:0.15384615 2:0.15384615 3:0.39614715 4:0.34090909 5:0.72243941 18:1 87:1 93:1 160:1 192:1 220:1 256:1 
-0.6759017549058358 1:0.15384615 2:0.15384615 3:0.18535411 4:0.28571429 5:0.64543892 12:1 36:1 76:1 163:1 182:1 217:1 253:1 
-0.7965390239462685 1:0.46153846 2:0.46153846 3:0.33789434 4:0.45454545 5:0.64946573 12:1 38:1 67:1 113:1 135:1 175:1 
-0.9028004797397475 1:0.38461538 2:0.38461538 3:0.48118586 4:0.42780749 5:0.6567631 26:1 30:1 51:1 87:1 117:1 200:1 256:1 
-0.02283257294437413 1:0.53846154 2:0.53846154 3:0.36815849 4:0.53571429 5:0.64285249 41:1 63:1 67:1 86:1 175:1 204:1 250:1 
-2 1:0.46153846 2:0.46153846 3:0.5013994 4:0.22727273 5:0.70303504 66:1 92:1 209:1 210:1 253:1 
-1.468390796748029 1:0.38461538 2:0.38461538 3:0.45454274 4:0.090909091 5:0.7150705 41:1 42:1 101:1 174:1 230:1 241:1 
-0.2643779625523494 1:0.38461538 2:0.38461538 3:0.12408002 4:0.48898072 5:0.43037885 38:1 57:1 73:1 120:1 175:1 192:1 
-1.755312067575719 1:0.076923077 2:0.076923077 3:0.31863533 4:0.62770563 5:0.6433915 13:1 38:1 60:1 97:1 144:1 207:1 
-2 1:0.38461538 2:0.38461538 3:0.33246883 4:0.54545455 5:0.73277734 24:1 64:1 110:1 141:1 176:1 215:1 253:1 
-2 1:0.30769231 2:0.30769231 3:0.31339478 4:0.61038961 5:0.80461081 69:1 85:1 100:1 143:1 230:1 252:1 
-0.3880046933593471 1:0.61538462 2:0.61538462 3:0.3710408 4:0.55844156 5:0.62065633 84:1 153:1 178:1 209:1 213:1 246:1 
-2 1:0.30769231 2:0.30769231 3:0.24854301 4:0.48051948 5:0.68488837 14:1 25:1 108:1 122:1 176:1 252:1 
-1.796680515932942 1:0.38461538 2:0.38461538 3:0.26557479 4:0.41375291 5:0.61198379 12:1 40:1 84:1 138:1 182:1 213:1 248:1 
-2 1:0.46153846 2:0.46153846 3:0.40706956 4:0.56818182 5:0.68230388 35:1 76:1 112:1 175:1 201:1 251:1 
-2 1:0.23076923 2:0.23076923 3:0.64918282 4:0.54752066 5:0.67500652 52:1 63:1 111:1 119:1 195:1 236:1 
-2 1:0.23076923 2:0.23076923 3:0.37824655 4:0.42502952 5:0.65491704 75:1 121:1 153:1 162:1 207:1 252:1 
-1.354221868623687 1:0.46153846 2:0.46153846 3:0.46810651 4:0.60606061 5:0.66883595 14:1 39:1 46:1 87:1 115:1 221:1 
-1.607518641984342 1:0.46153846 2:0.46153846 3:0.40706956 4:0.35353535 5:0.66882609 14:1 54:1 96:1 102:1 209:1 250:1 
-0.2398685108061817 1:0.53846154 2:0.53846154 3:0.24985315 4:0.53030303 5:0.6449878 19:1 46:1 62:1 86:1 128:1 207:1 252:1 
-2 1:0.46153846 2:0.46153846 3:0.40706956 4:0.45454545 5:0.6567631 13:1 81:1 128:1 219:1 225:1 256:1 
-2 1:0.30769231 2:0.30769231 3:0.37824655 4:0.22077922 5:0.71362175 13:1 42:1 101:1 141:1 157:1 229:1 
-0.8083725390854067 1:0.46153846 2:0.46153846 3:0.28499564 4:0.45454545 5:0.63744653 14:1 40:1 45:1 87:1 103:1 235:1 252:1 
-0.08861056377296843 1:0.30769231 2:0.30769231 3:0.24985315 4:0.20562771 5:0.66779207 66:1 122:1 157:1 232:1 235:1 253:1 
-2 1:0.30769231 2:0.30769231 3:0.31339478 4:0.74025974 5:0.75672183 12:1 43:1 109:1 143:1 204:1 214:1 252:1 
-0.4051527580645081 1:0.53846154 2:0.53846154 3:0.27594071 4:0.44444444 5:0.64839676 14:1 45:1 92:1 144:1 150:1 224:1 252:1 
-2 1:0.30769231 2:0.30769231 3:0.44309831 4:0.35064935 5:0.69286986 43:1 84:1 101:1 109:1 137:1 253:1 
-2 1:0.38461538 2:0.38461538 3:0.40706956 4:0.71625344 5:0.39679437 36:1 84:1 154:1 192:1 238:1 251:1 
-0.8711739694630887 1:0.53846154 2:0.53846154 3:0.38333296 4:0.75757576 5:0.66516938 39:1 46:1 177:1 192:1 206:1 236:1 
-1.035523393513979 1:0.15384615 2:0.15384615 3:0.30064614 4:0.35064935 5:0.65430725 76:1 84:1 145:1 180:1 216:1 223:1 
-0.8743518005630563 1:0.61538462 2:0.61538462 3:0.21988955 4:0.49242424 5:0.6712684 14:1 33:1 111:1 177:1 206:1 235:1 
-0.08717515574296208 1:0.30769231 2:0.30769231 3:0.37824655 4:0.48051948 5:0.63699939 71:1 99:1 176:1 205:1 213:1 229:1 253:1 
-0.510847946239989 1:0.69230769 2:0.69230769 3:0.36716078 4:0.46853147 5:0.66728815 58:1 81:1 104:1 131:1 241:1 247:1 
-1.711130323864885 1:0.38461538 2:0.38461538 3:0.28444076 4:0.39044289 5:0.65167705 46:1 84:1 156:1 164:1 181:1 211:1 253:1 
-1.003950376218253 1:0.53846154 2:0.53846154 3:0.44032687 4:0.52892562 5:0.65748983 19:1 53:1 92:1 120:1 153:1 245:1 252:1 
-1.581190491543494 1:0.30769231 2:0.30769231 3:0.44431775 4:0.31818182 5:0.70489766 73:1 79:1 96:1 171:1 245:1 246:1 
-1.474979940518652 1:0.076923077 2:0.076923077 3:0.4780185 4:0.36363636 5:0.68541462 13:1 40:1 65:1 108:1 174:1 204:1 253:1 
-0.7490291472899675 1:0.23076923 2:0.23076923 3:0.56402173 4:0.55555556 5:0.51464839 13:1 41:1 53:1 181:1 204:1 243:1 250:1 
-1.58499365039846 1:0.46153846 2:0.46153846 3:0.21840987 4:0.45454545 5:0.64482195 20:1 47:1 66:1 122:1 158:1 192:1 
-1.724232320655053 1:0.30769231 2:0.30769231 3:0.37824655 4:0.61038961 5:0.82855529 26:1 65:1 100:1 206:1 215:1 228:1 
-0.9938076803979082 1:0.30769231 2:0.30769231 3:0.15692702 4:0.5988456 5:0.66148684 62:1 72:1 86:1 96:1 153:1 193:1 
-1.112891462703176 1:0.30769231 2:0.30769231 3:0.34530597 4:0.50045914 5:0.66080271 40:1 169:1 189:1 204:1 238:1 253:1 
-0.3815184456572517 1:0.46153846 2:0.46153846 3:0.34942354 4:0.45454545 5:0.67196595 101:1 141:1 176:1 193:1 213:1 228:1 253:1 
-0.01842283271696726 1:0.69230769 2:0.69230769 3:0.13036868 4:0.64049587 5:0.38128746 26:1 38:1 58:1 139:1 153:1 228:1 250:1 
-0.365712058099987 1:0.15384615 2:0.15384615 3:0.37889865 4:0.3030303 5:0.67125052 14:1 39:1 160:1 171:1 232:1 235:1 253:1 
-0.04414795741376778 1:0.69230769 2:0.69230769 3:0.44749663 4:0.42929293 5:0.66099733 20:1 46:1 92:1 156:1 212:1 236:1 253:1 
-2 1:0.53846154 2:0.53846154 3:0.30998153 4:0.090909091 5:0.72269545 14:1 25:1 43:1 101:1 176:1 254:1 
-2 1:0.69230769 2:0.69230769 3:0.22514771 4:0.42929293 5:0.64591858 7:1 19:1 31:1 47:1 102:1 
-2 1:0.30769231 2:0.30769231 3:0.22177879 4:0.66574839 5:0.54847537 12:1 72:1 102:1 216:1 225:1 242:1 251:1 
