svm_type c_svc
kernel_type rbf
gamma 0.0625
nr_class 2
total_sv 558
rho 10.7018
label 1 0
probA -4.53186
probB 0.317357
nr_sv 260 298
SV
1.816898535749805 1:0.61538462 2:0.61538462 3:0.33833408 4:0.42207792 5:0.65258922 47:1 127:1 138:1 
0.8375277164569254 1:0.38461538 2:0.38461538 3:0.25212718 4:0.31632653 5:0.65182908 62:1 85:1 102:1 252:1 
1.284265052221986 1:0.38461538 2:0.38461538 3:0.48201224 4:0.37755102 5:0.66566367 120:1 157:1 233:1 
2 1:0.38461538 2:0.38461538 3:0.25212718 4:0.31632653 5:0.65182908 138:1 158:1 193:1 252:1 
1.808452641045905 1:0.53846154 2:0.53846154 3:0.50291088 4:0.28571429 5:0.68064539 128:1 162:1 233:1 253:1 
1.429479505437841 1:0.46153846 2:0.46153846 3:0.39005822 4:0.17032967 5:0.70701542 126:1 138:1 210:1 253:1 
2 1:0.61538462 2:0.61538462 3:0.42454098 4:0.42207792 5:0.6581636 92:1 122:1 233:1 
1.905156700715139 1:0.46153846 2:0.46153846 3:0.55475559 4:0.44415584 5:0.66788958 39:1 65:1 107:1 246:1 
1.51320413128412 1:0.61538462 2:0.61538462 3:0.50549451 4:0.31428571 5:0.686133 42:1 154:1 221:1 246:1 
2 1:0.53846154 2:0.53846154 3:0.408867 4:0.25714286 5:0.69184659 6:1 42:1 219:1 247:1 
0.1555555236455001 1:0.46153846 2:0.46153846 3:0.44648455 4:0.45054945 5:0.66492288 34:1 48:1 77:1 253:1 
0.2969252969978821 1:0.53846154 2:0.53846154 3:0.408867 4:0.57142857 5:0.66795792 165:1 203:1 221:1 252:1 
0.4884700944799873 1:0.61538462 2:0.61538462 3:0.51496779 4:0.49090909 5:0.66125378 23:1 44:1 190:1 256:1 
0.7422161077607707 1:0.61538462 2:0.61538462 3:0.51496779 4:0.57662338 5:0.65511417 22:1 164:1 191:1 255:1 
0.4001561134977712 1:0.30769231 2:0.30769231 3:0.29392447 4:0.4174397 5:0.64379 180:1 218:1 241:1 255:1 
0.07260755947798464 1:0.53846154 2:0.53846154 3:0.49507389 4:0.50649351 5:0.65819651 78:1 142:1 191:1 255:1 
2 1:0.38461538 2:0.38461538 3:0.44600227 4:0.3 5:0.70489766 15:1 172:1 229:1 247:1 
2 1:0.53846154 2:0.53846154 3:0.33990148 4:0.42857143 5:0.64946573 50:1 105:1 171:1 246:1 
2 1:0.61538462 2:0.61538462 3:0.42610837 4:0.2755102 5:0.72700026 50:1 173:1 198:1 248:1 
0.1821628926231525 1:0.46153846 2:0.46153846 3:0.38916256 4:0.45238095 5:0.65233255 105:1 171:1 216:1 246:1 
1.829180454655864 1:0.53846154 2:0.53846154 3:0.408867 4:0.53571429 5:0.6482495 106:1 171:1 230:1 
0.4748455804966699 1:0.61538462 2:0.61538462 3:0.42610837 4:0.2755102 5:0.72700026 140:1 181:1 200:1 
2 1:0.84615385 2:0.84615385 3:0.46694322 4:0.42857143 5:0.66290825 32:1 80:1 106:1 248:1 
1.270799270312855 1:0.53846154 2:0.53846154 3:0.47783251 4:0.32142857 5:0.69689862 17:1 59:1 198:1 246:1 
0.6755060300598715 1:0.46153846 2:0.46153846 3:0.3546798 4:0.30952381 5:0.6513273 121:1 196:1 222:1 249:1 
1.700183564476945 1:0.46153846 2:0.46153846 3:0.42857143 4:0.4047619 5:0.65233255 121:1 137:1 222:1 251:1 
2 1:0.61538462 2:0.61538462 3:0.39162562 4:0.33673469 5:0.6503779 112:1 175:1 223:1 251:1 
0.02351450154186717 1:0.53846154 2:0.53846154 3:0.408867 4:0.32142857 5:0.6482495 65:1 121:1 175:1 
1.079512305762322 1:0.61538462 2:0.61538462 3:0.5726601 4:0.50510204 5:0.68002346 17:1 34:1 214:1 256:1 
0.3493477177492275 1:0.53846154 2:0.53846154 3:0.47783251 4:0.53571429 5:0.66770915 16:1 21:1 35:1 257:1 
2 1:0.38461538 2:0.38461538 3:0.42610837 4:0.25474525 5:0.67331248 12:1 31:1 51:1 77:1 78:1 102:1 253:1 
2 1:0.38461538 2:0.38461538 3:0.21921182 4:0.25474525 5:0.62587959 12:1 31:1 52:1 55:1 181:1 253:1 
0.15734459535682 1:0.53846154 2:0.53846154 3:0.15024631 4:0.27272727 5:0.61614977 14:1 19:1 79:1 229:1 253:1 
2 1:0.46153846 2:0.46153846 3:0.36968204 4:0.37012987 5:0.65457152 92:1 102:1 120:1 245:1 254:1 264:1 
2 1:0.61538462 2:0.61538462 3:0.44202349 4:0.32727273 5:0.66538361 32:1 56:1 75:1 78:1 153:1 253:1 
2 1:0.38461538 2:0.38461538 3:0.42610837 4:0.25474525 5:0.67331248 18:1 51:1 54:1 76:1 153:1 253:1 
1.142172743404961 1:0.46153846 2:0.46153846 3:0.27563815 4:0.37012987 5:0.64462056 13:1 19:1 122:1 243:1 
0.09993392827096204 1:0.46153846 2:0.46153846 3:0.45484401 4:0.57927786 5:0.72081777 47:1 167:1 204:1 257:1 
2 1:0.53846154 2:0.53846154 3:0.30541872 4:0.36263736 5:0.8702111 81:1 91:1 205:1 256:1 
0.671754855731541 1:0.61538462 2:0.61538462 3:0.46529333 4:0.32417582 5:0.74283887 19:1 76:1 127:1 257:1 
0.6501885607245378 1:0.46153846 2:0.46153846 3:0.68159427 4:0.45604396 5:0.70684957 41:1 75:1 137:1 
1.525480781948635 1:0.46153846 2:0.46153846 3:0.57814599 4:0.39010989 5:0.8254318 40:1 76:1 191:1 248:1 
0.5935462117597776 1:0.23076923 2:0.23076923 3:0.32901219 4:0.64285714 5:0.61662757 12:1 87:1 93:1 192:1 208:1 255:1 
2 1:0.15384615 2:0.15384615 3:0.41275603 4:0.47619048 5:0.51602815 12:1 76:1 183:1 208:1 255:1 
0.6346341257788698 1:0.46153846 2:0.46153846 3:0.30602368 4:0.85714286 5:0.63547911 12:1 19:1 39:1 93:1 192:1 225:1 255:1 
1.181152013541275 1:0.38461538 2:0.38461538 3:0.49534079 4:0.57142857 5:0.62295911 12:1 20:1 41:1 88:1 93:1 219:1 255:1 
0.01736812030811179 1:0.46153846 2:0.46153846 3:0.53590874 4:0.51428571 5:0.61115455 12:1 20:1 40:1 51:1 65:1 93:1 257:1 
2 1:0.23076923 2:0.23076923 3:0.46694322 4:0.53571429 5:0.60568152 12:1 20:1 40:1 87:1 243:1 255:1 
2 1:0.61538462 2:0.61538462 3:0.3979777 4:0.57142857 5:0.60750586 12:1 18:1 41:1 95:1 127:1 225:1 
0.8131925353850511 1:0.30769231 2:0.30769231 3:0.38504667 4:0.48979592 5:0.53704066 14:1 75:1 111:1 126:1 255:1 
2 1:0.23076923 2:0.23076923 3:0.3979777 4:0.42857143 5:0.6567631 14:1 64:1 95:1 123:1 160:1 256:1 
0.9748257864501143 1:0.46153846 2:0.46153846 3:0.36349494 4:0.51428571 5:0.565546 14:1 41:1 160:1 192:1 225:1 
1.893769480085274 1:0.38461538 2:0.38461538 3:0.37363693 4:0.42857143 5:0.6567631 14:1 19:1 39:1 75:1 88:1 93:1 256:1 
1.7802242328507 1:0.46153846 2:0.46153846 3:0.36349494 4:0.51428571 5:0.565546 14:1 19:1 39:1 208:1 225:1 255:1 
2 1:0.76923077 2:0.76923077 3:0.37916893 5:0.67417727 14:1 19:1 76:1 93:1 128:1 225:1 
2 1:0.53846154 2:0.53846154 3:0.35442053 4:0.64285714 5:0.61931608 14:1 19:1 41:1 93:1 192:1 207:1 
2 1:0.53846154 2:0.53846154 3:0.46331346 4:0.42857143 5:0.6567631 14:1 19:1 41:1 113:1 183:1 
1.238116774912056 1:0.38461538 2:0.38461538 3:0.31278501 4:0.42857143 5:0.6567631 14:1 19:1 40:1 63:1 93:1 192:1 256:1 
1.580674675294179 1:0.46153846 2:0.46153846 3:0.36349494 4:0.34285714 5:0.74798019 14:1 18:1 39:1 93:1 111:1 126:1 
2 1:0.30769231 2:0.30769231 3:0.38504667 4:0.48979592 5:0.53704066 14:1 18:1 39:1 207:1 257:1 276:1 
2 1:0.30769231 2:0.30769231 3:0.38504667 4:0.6122449 5:0.61685562 14:1 18:1 111:1 219:1 227:1 255:1 
0.1341783839469494 1:0.23076923 2:0.23076923 3:0.3979777 4:0.42857143 5:0.6567631 112:1 192:1 243:1 256:1 
1.667709954703014 1:0.23076923 2:0.23076923 3:0.3979777 4:0.53571429 5:0.59108679 88:1 95:1 192:1 208:1 255:1 
2 1:0.53846154 2:0.53846154 3:0.51775992 4:0.42857143 5:0.6567631 19:1 51:1 65:1 93:1 112:1 257:1 
1.013984653515995 1:0.38461538 2:0.38461538 3:0.49534079 4:0.28571429 5:0.69056708 19:1 40:1 53:1 64:1 88:1 93:1 255:1 
2 1:0.38461538 2:0.38461538 3:0.49534079 4:0.28571429 5:0.69056708 20:1 75:1 160:1 208:1 
1.41827997895518 1:0.46153846 2:0.46153846 3:0.42096621 4:0.34285714 5:0.73277734 20:1 87:1 93:1 244:1 265:1 
2 1:0.30769231 2:0.30769231 3:0.44970184 4:0.36734694 5:0.75254105 20:1 76:1 160:1 192:1 255:1 
1.331042505136056 1:0.38461538 2:0.38461538 3:0.43448886 4:0.42857143 5:0.6567631 20:1 52:1 75:1 93:1 192:1 256:1 
1.427632981442966 1:0.69230769 2:0.69230769 3:0.53590874 5:0.66588481 20:1 52:1 128:1 225:1 257:1 
2 1:0.53846154 2:0.53846154 3:0.51775992 4:0.21428571 5:0.67692688 20:1 41:1 88:1 93:1 172:1 225:1 256:1 
0.2148881464651309 1:0.46153846 2:0.46153846 3:0.47843747 4:0.17142857 5:0.67703356 18:1 76:1 93:1 244:1 257:1 
2 1:0.076923077 2:0.076923077 3:0.35023234 4:0.51428571 5:0.56203765 13:1 39:1 51:1 64:1 192:1 255:1 
0.459810019206941 1:0.53846154 2:0.53846154 3:0.408867 4:0.21428571 5:0.68844904 13:1 19:1 75:1 93:1 128:1 256:1 
2 1:0.61538462 2:0.61538462 3:0.29452943 4:0.28571429 5:0.72243941 13:1 19:1 194:1 209:1 225:1 266:1 
2 1:0.23076923 2:0.23076923 3:0.3979777 4:0.10714286 5:0.6786552 13:1 19:1 52:1 88:1 160:1 256:1 
1.031603060549206 1:0.46153846 2:0.46153846 3:0.36349494 4:0.17142857 5:0.6871688 13:1 19:1 40:1 225:1 244:1 
2 1:0.46153846 2:0.46153846 3:0.47843747 4:0.17142857 5:0.67703356 13:1 20:1 41:1 128:1 192:1 256:1 
0.9025118453840346 1:0.23076923 2:0.23076923 3:0.3979777 4:0.21428571 5:0.68960125 13:1 18:1 88:1 183:1 256:1 
1.517914307643827 1:0.38461538 2:0.38461538 3:0.43448886 5:0.67125052 13:1 18:1 52:1 126:1 257:1 
2 1:0.23076923 2:0.23076923 3:0.32901219 4:0.42857143 5:0.6567631 13:1 18:1 40:1 93:1 192:1 207:1 255:1 
1.049600699583559 1:0.30769231 2:0.30769231 3:0.23380068 4:0.38241758 5:0.64624974 12:1 45:1 84:1 144:1 162:1 253:1 
1.829666675426455 1:0.076923077 2:0.076923077 3:0.35202728 4:0.46071429 5:0.65174759 12:1 84:1 108:1 123:1 216:1 252:1 
2 1:0.23076923 2:0.23076923 3:0.3027662 4:0.33061224 5:0.65430725 12:1 86:1 123:1 216:1 222:1 253:1 
0.816427644467592 1:0.61538462 2:0.61538462 3:0.35202728 4:0.41904762 5:0.653423 12:1 86:1 92:1 164:1 
1.923889565636236 1:0.23076923 2:0.23076923 3:0.41770873 4:0.33061224 5:0.66494925 12:1 76:1 123:1 235:1 252:1 265:1 
1.862702675269803 1:0.38461538 2:0.38461538 3:0.45950601 4:0.44285714 5:0.65924127 12:1 20:1 75:1 216:1 236:1 252:1 
1.032803837104069 1:0.38461538 2:0.38461538 3:0.27141824 4:0.3 5:0.65327069 12:1 20:1 37:1 84:1 223:1 253:1 
2 1:0.38461538 2:0.38461538 3:0.27141824 4:0.3 5:0.65327069 12:1 18:1 84:1 146:1 200:1 253:1 
0.1262726548304486 1:0.30769231 2:0.30769231 3:0.44069723 4:0.31648352 5:0.66883683 14:1 76:1 124:1 216:1 
0.6481448391475367 1:0.46153846 2:0.46153846 3:0.13035241 4:0.35844156 5:0.63834426 14:1 19:1 38:1 84:1 234:1 264:1 
1.872118429489763 1:0.53846154 2:0.53846154 3:0.2497158 4:0.34285714 5:0.64886931 14:1 20:1 38:1 216:1 236:1 253:1 
1.912573270901627 1:0.38461538 2:0.38461538 3:0.45950601 4:0.44285714 5:0.65924127 36:1 46:1 64:1 75:1 266:1 
2 1:0.30769231 2:0.30769231 3:0.44069723 4:0.44835165 5:0.65774862 36:1 75:1 144:1 188:1 252:1 
2 1:0.38461538 2:0.38461538 3:0.5535499 4:0.44285714 5:0.66521184 47:1 65:1 75:1 222:1 264:1 
0.5597103917744263 1:0.53846154 2:0.53846154 3:0.408867 4:0.51428571 5:0.65307933 45:1 63:1 144:1 152:1 
0.5049663239182141 1:0.38461538 2:0.38461538 3:0.17737435 4:0.44285714 5:0.64132955 45:1 84:1 146:1 180:1 253:1 
2 1:0.61538462 2:0.61538462 3:0.42591891 4:0.41904762 5:0.65844925 45:1 76:1 128:1 200:1 252:1 
2 1:0.38461538 2:0.38461538 3:0.5535499 4:0.51428571 5:0.66073391 46:1 75:1 123:1 128:1 144:1 252:1 
1.058132840066967 1:0.30769231 2:0.30769231 3:0.33724896 4:0.44835165 5:0.6512805 46:1 84:1 180:1 216:1 253:1 
2 1:0.38461538 2:0.38461538 3:0.36546212 4:0.51428571 5:0.65078295 46:1 84:1 180:1 188:1 216:1 252:1 
1.899954847831988 1:0.30769231 2:0.30769231 3:0.33724896 4:0.38241758 5:0.65415522 63:1 84:1 162:1 216:1 254:1 
0.4912296637843895 1:0.46153846 2:0.46153846 3:0.56138689 4:0.43636364 5:0.66621615 63:1 77:1 152:1 276:1 
1.578775012488529 1:0.38461538 2:0.38461538 3:0.64759379 4:0.44285714 5:0.67118241 63:1 77:1 125:1 252:1 
1.55489527637338 1:0.46153846 2:0.46153846 3:0.3889731 4:0.35844156 5:0.65984543 75:1 182:1 186:1 
1.801550653872969 1:0.30769231 2:0.30769231 3:0.44069723 4:0.38241758 5:0.6620607 85:1 123:1 144:1 236:1 252:1 
2 1:0.30769231 2:0.30769231 3:0.44069723 4:0.31648352 5:0.66883683 76:1 84:1 152:1 217:1 252:1 
2 1:0.15384615 2:0.15384615 3:0.51828344 4:0.34285714 5:0.67255067 64:1 75:1 180:1 216:1 253:1 
2 1:0.38461538 2:0.38461538 3:0.45950601 4:0.37142857 5:0.66446552 64:1 84:1 164:1 180:1 200:1 216:1 
1.390114667987194 1:0.23076923 2:0.23076923 3:0.41770873 4:0.26938776 5:0.67381757 13:1 18:1 36:1 123:1 222:1 252:1 
1.458574710470477 1:0.53846154 2:0.53846154 3:0.53057085 4:0.28571429 5:0.67125052 40:1 46:1 101:1 116:1 253:1 
1.86536945227522 1:0.61538462 2:0.61538462 3:0.50014489 4:0.54285714 5:0.67125052 29:1 45:1 65:1 116:1 264:1 
2 1:0.38461538 2:0.38461538 3:0.31034483 4:0.51515152 5:0.52124055 12:1 24:1 30:1 76:1 105:1 251:1 
2 1:0.30769231 2:0.30769231 3:0.34169279 4:0.33333333 5:0.64396901 12:1 26:1 30:1 42:1 75:1 88:1 
1.896023890436877 1:0.69230769 2:0.69230769 3:0.41810345 4:0.65986395 5:0.61359786 12:1 44:1 58:1 105:1 251:1 
1.54014517775585 1:0.69230769 2:0.69230769 3:0.41810345 4:0.29251701 5:0.62956085 12:1 32:1 44:1 211:1 
1.22958072703126 1:0.53846154 2:0.53846154 3:0.33497537 4:0.52380952 5:0.55121188 12:1 30:1 42:1 57:1 107:1 251:1 
0.9830433977504127 1:0.61538462 2:0.61538462 3:0.24137931 4:0.36904762 5:0.67266093 14:1 26:1 43:1 100:1 249:1 
0.2765035122264887 1:0.61538462 2:0.61538462 3:0.24137931 4:0.36904762 5:0.67266093 14:1 25:1 31:1 211:1 251:1 
2 1:0.69230769 2:0.69230769 3:0.22413793 4:0.29251701 5:0.65350534 14:1 25:1 31:1 43:1 117:1 
2 1:0.61538462 2:0.61538462 3:0.37931034 4:0.36904762 5:0.64347146 57:1 105:1 210:1 232:1 
1.458923847347865 1:0.61538462 2:0.61538462 3:0.37931034 4:0.58333333 5:0.59968726 44:1 117:1 156:1 251:1 
1.567454614170278 1:0.61538462 2:0.61538462 3:0.44827586 4:0.47619048 5:0.62157936 42:1 77:1 107:1 141:1 
2 1:0.61538462 2:0.61538462 3:0.51724138 4:0.58333333 5:0.62887673 32:1 58:1 76:1 107:1 251:1 
0.9507635480578787 1:0.69230769 2:0.69230769 3:0.48275862 4:0.29251701 5:0.62157936 32:1 42:1 57:1 89:1 
0.5877913998666423 1:0.38461538 2:0.38461538 3:0.39655172 4:0.59307359 5:0.60485622 13:1 100:1 107:1 119:1 251:1 
2 1:0.23076923 2:0.23076923 3:0.34318555 4:0.75238095 5:0.75388759 12:1 71:1 120:1 168:1 240:1 
2 1:0.23076923 2:0.23076923 3:0.34318555 4:0.56190476 5:0.83832856 12:1 69:1 84:1 100:1 156:1 241:1 
2 1:0.61538462 2:0.61538462 3:0.31207329 4:0.51428571 5:0.73277734 12:1 69:1 109:1 176:1 213:1 
0.3186193144000552 1:0.30769231 2:0.30769231 3:0.36288998 4:0.72857143 5:0.75831813 12:1 108:1 135:1 215:1 254:1 
1.15208329594084 1:0.23076923 2:0.23076923 3:0.4909688 4:0.56190476 5:0.90869603 12:1 101:1 135:1 241:1 252:1 
2 1:0.38461538 2:0.38461538 3:0.38013136 4:0.69795918 5:0.76470333 12:1 101:1 141:1 156:1 240:1 
2 1:0.15384615 2:0.15384615 3:0.40002526 4:0.68571429 5:0.76961502 12:1 100:1 108:1 143:1 156:1 252:1 
2 1:0.23076923 2:0.23076923 3:0.41707718 4:0.56190476 5:0.87351229 12:1 100:1 109:1 120:1 143:1 
1.854791886864174 1:0.53846154 2:0.53846154 3:0.35139573 4:0.6 5:0.79358874 14:1 24:1 41:1 143:1 176:1 254:1 
0.4119738223456638 1:0.38461538 2:0.38461538 3:0.31547619 4:0.82040816 5:0.74714404 24:1 71:1 84:1 143:1 254:1 
0.7855574430111741 1:0.46153846 2:0.46153846 3:0.33449242 4:0.37142857 5:0.69897336 24:1 110:1 121:1 176:1 
1.442135676484601 1:0.53846154 2:0.53846154 3:0.46633826 4:0.42857143 5:0.64156025 24:1 41:1 44:1 176:1 252:1 
2 1:0.61538462 2:0.61538462 3:0.25762683 4:0.94285714 5:0.73997869 26:1 69:1 143:1 213:1 252:1 
2 1:0.61538462 2:0.61538462 3:0.36651975 4:0.3 5:0.70685248 26:1 101:1 122:1 176:1 
1.351561476803603 1:0.46153846 2:0.46153846 3:0.39534434 4:0.65714286 5:0.77623961 39:1 70:1 141:1 241:1 252:1 
1.192094251484889 1:0.23076923 2:0.23076923 3:0.41707718 4:0.65714286 5:0.77968899 71:1 84:1 100:1 240:1 252:1 
1.209327248946887 1:0.38461538 2:0.38461538 3:0.44478654 4:0.69795918 5:0.77268482 71:1 108:1 137:1 252:1 
2 1:0.30769231 2:0.30769231 3:0.4318555 4:0.62142857 5:0.79845365 71:1 101:1 168:1 240:1 253:1 
2 1:0.53846154 2:0.53846154 3:0.46633826 4:0.42857143 5:0.64156025 71:1 85:1 101:1 176:1 
2 1:0.46153846 2:0.46153846 3:0.33449242 4:0.51428571 5:0.73277734 69:1 84:1 101:1 122:1 241:1 
0.8843447456436802 1:0.53846154 2:0.53846154 3:0.29392447 4:0.6 5:0.77838589 69:1 99:1 141:1 242:1 253:1 
1.694629390691738 1:0.38461538 2:0.38461538 3:0.38013136 4:0.45306122 5:0.63699939 69:1 85:1 100:1 168:1 
2 1:0.53846154 2:0.53846154 3:0.408867 4:0.6 5:0.80879159 70:1 86:1 101:1 122:1 136:1 142:1 252:1 
2 1:0.23076923 2:0.23076923 3:0.4909688 4:0.75238095 5:0.76796108 99:1 120:1 135:1 143:1 252:1 
1.924958988169172 1:0.30769231 2:0.30769231 3:0.36288998 4:0.62142857 5:0.78385892 99:1 120:1 141:1 156:1 253:1 
1.726509644056677 1:0.53846154 2:0.53846154 3:0.29392447 4:0.6 5:0.77838589 99:1 170:1 213:1 254:1 
2 1:0.15384615 2:0.15384615 3:0.32044967 4:0.6 5:0.78540259 108:1 120:1 192:1 240:1 253:1 
1.005695301217655 1:0.38461538 2:0.38461538 3:0.38013136 4:0.5755102 5:0.82855529 108:1 135:1 141:1 241:1 
0.9375494410502524 1:0.46153846 2:0.46153846 3:0.39534434 4:0.65714286 5:0.77623961 108:1 143:1 176:1 204:1 
0.4039150985923397 1:0.46153846 2:0.46153846 3:0.33449242 4:0.51428571 5:0.73277734 110:1 120:1 176:1 240:1 
2 1:0.53846154 2:0.53846154 3:0.29392447 4:0.77142857 5:0.74798019 141:1 156:1 214:1 228:1 254:1 
0.676748969729196 1:0.30769231 2:0.30769231 3:0.29392447 4:0.51428571 5:0.73277734 109:1 156:1 242:1 252:1 
2 1:0.30769231 2:0.30769231 3:0.50082102 4:0.51428571 5:0.73277734 101:1 120:1 135:1 229:1 
2 1:0.46153846 2:0.46153846 3:0.45619627 4:0.51428571 5:0.73277734 101:1 143:1 205:1 
1.219976678169673 1:0.30769231 2:0.30769231 3:0.4318555 4:0.51428571 5:0.73277734 101:1 121:1 168:1 252:1 
0.2035882352982359 1:0.46153846 2:0.46153846 3:0.45619627 4:0.51428571 5:0.73277734 65:1 86:1 135:1 
0.7841953201340239 1:0.53846154 2:0.53846154 3:0.35139573 4:0.42857143 5:0.67196595 65:1 206:1 242:1 
2 1:0.46153846 2:0.46153846 3:0.45619627 4:0.51428571 5:0.73277734 64:1 70:1 86:1 101:1 122:1 136:1 142:1 252:1 
0.3453355340320035 1:0.30769231 2:0.30769231 3:0.4318555 4:0.19285714 5:0.71088524 64:1 109:1 174:1 253:1 
1.803045414819652 1:0.38461538 2:0.38461538 3:0.31547619 4:0.45306122 5:0.66094388 43:1 204:1 228:1 241:1 
2 1:0.53846154 2:0.53846154 3:0.35139573 4:0.6 5:0.79358874 44:1 71:1 215:1 253:1 278:1 
2 1:0.69230769 2:0.69230769 3:0.32840722 4:0.37142857 5:0.69993919 44:1 141:1 158:1 214:1 253:1 
1.212998342092205 1:0.69230769 2:0.69230769 3:0.27668309 4:0.37142857 5:0.70814873 44:1 206:1 213:1 254:1 
2 1:0.38461538 2:0.38461538 3:0.38013136 4:0.45306122 5:0.63699939 42:1 99:1 141:1 156:1 253:1 
0.2312021563504035 1:0.46153846 2:0.46153846 3:0.45619627 4:0.22857143 5:0.70621707 42:1 99:1 174:1 
2 1:0.46153846 2:0.46153846 3:0.39534434 4:0.51428571 5:0.73277734 42:1 65:1 141:1 156:1 252:1 
2 1:0.38461538 2:0.38461538 3:0.44478654 4:0.45306122 5:0.6130549 41:1 43:1 63:1 192:1 253:1 
1.860393014425585 1:0.53846154 2:0.53846154 3:0.408867 4:0.6 5:0.80879159 40:1 71:1 176:1 215:1 254:1 
2 1:0.38461538 2:0.38461538 3:0.31547619 4:0.45306122 5:0.66094388 13:1 24:1 141:1 176:1 192:1 253:1 
0.1193085360274091 1:0.53846154 2:0.53846154 3:0.29392447 4:0.42857143 5:0.6871688 13:1 69:1 176:1 206:1 252:1 
1.828323634593345 1:0.38461538 2:0.38461538 3:0.38013136 4:0.5755102 5:0.82855529 13:1 42:1 143:1 215:1 252:1 
1.044778934686193 1:0.38461538 2:0.38461538 3:0.44478654 4:0.5755102 5:0.85249978 13:1 41:1 204:1 214:1 252:1 
1.900646670738964 1:0.38461538 2:0.38461538 3:0.50623008 4:0.35714286 5:0.65772892 25:1 40:1 53:1 100:1 249:1 
2 1:0.23076923 2:0.23076923 3:0.54052844 4:0.46428571 5:0.67218708 12:1 24:1 39:1 52:1 63:1 236:1 
0.4708933479324618 1:0.23076923 2:0.23076923 3:0.44648455 4:0.53571429 5:0.64979743 12:1 24:1 51:1 63:1 229:1 250:1 
2 1:0.38461538 2:0.38461538 3:0.34520652 4:0.49285714 5:0.64013352 12:1 26:1 40:1 195:1 206:1 250:1 
0.235227293694873 1:0.38461538 2:0.38461538 3:0.50435771 4:0.66428571 5:0.6480273 12:1 39:1 195:1 215:1 250:1 
1.475870026463954 1:0.23076923 2:0.23076923 3:0.35244066 4:0.39285714 5:0.64979743 12:1 25:1 40:1 64:1 235:1 251:1 264:1 
1.474314573215197 1:0.53846154 2:0.53846154 3:0.408867 4:0.64285714 5:0.64216836 14:1 24:1 41:1 119:1 236:1 251:1 
2 1:0.38461538 2:0.38461538 3:0.34520652 4:0.49285714 5:0.64013352 14:1 26:1 51:1 64:1 68:1 204:1 251:1 
2 1:0.23076923 2:0.23076923 3:0.44648455 4:0.53571429 5:0.64979743 14:1 26:1 40:1 51:1 63:1 195:1 251:1 
2 1:0.53846154 2:0.53846154 3:0.408867 4:0.42857143 5:0.6567631 14:1 25:1 53:1 65:1 158:1 250:1 
2 1:0.38461538 2:0.38461538 3:0.6635089 4:0.49285714 5:0.68223372 24:1 39:1 53:1 65:1 196:1 250:1 
1.971254133697342 1:0.61538462 2:0.61538462 3:0.43472906 4:0.62755102 5:0.64444879 24:1 51:1 117:1 140:1 250:1 
2 1:0.30769231 2:0.30769231 3:0.39162562 4:0.67207792 5:0.64044537 24:1 111:1 204:1 215:1 228:1 250:1 
2 1:0.46153846 2:0.46153846 3:0.30541872 4:0.36904762 5:0.63487099 13:1 26:1 40:1 175:1 204:1 250:1 
2 1:0.38461538 2:0.38461538 3:0.26563092 4:0.57857143 5:0.63136264 13:1 25:1 119:1 132:1 213:1 251:1 
2 1:0.38461538 2:0.38461538 3:0.26563092 4:0.38571429 5:0.64055452 14:1 24:1 36:1 44:1 174:1 252:1 
0.8520581635834773 1:0.30769231 2:0.30769231 3:0.30541872 4:0.40909091 5:0.64581704 24:1 84:1 92:1 229:1 252:1 
2 1:0.30769231 2:0.30769231 3:0.30541872 4:0.40909091 5:0.64581704 36:1 68:1 85:1 123:1 228:1 254:1 
2 1:0.30769231 2:0.30769231 3:0.39162562 4:0.48701299 5:0.6529841 36:1 44:1 84:1 92:1 111:1 228:1 252:1 
2 1:0.38461538 2:0.38461538 3:0.26563092 4:0.3 5:0.63529199 85:1 91:1 220:1 230:1 252:1 
2 1:0.30769231 2:0.30769231 3:0.30541872 4:0.40909091 5:0.64581704 66:1 84:1 91:1 111:1 252:1 276:1 
1.729730645766285 1:0.30769231 2:0.30769231 3:0.36410572 4:0.69795918 5:0.77034592 12:1 47:1 60:1 96:1 179:1 246:1 
0.2590283234798973 1:0.53846154 2:0.53846154 3:0.27955665 4:0.42857143 5:0.67272609 14:1 25:1 46:1 61:1 153:1 
1.386889539987939 1:0.38461538 2:0.38461538 3:0.38115764 4:0.46938776 5:0.64975893 24:1 46:1 73:1 192:1 246:1 
2 1:0.53846154 2:0.53846154 3:0.34421182 4:0.55102041 5:0.60089262 45:1 60:1 72:1 154:1 246:1 
2 1:0.61538462 2:0.61538462 3:0.3594248 4:0.6122449 5:0.69667058 37:1 46:1 108:1 153:1 179:1 248:1 
2 1:0.53846154 2:0.53846154 3:0.408867 4:0.18367347 5:0.67956737 37:1 46:1 109:1 128:1 246:1 
2 1:0.46153846 2:0.46153846 3:0.32697044 4:0.29081633 5:0.67964338 13:1 25:1 46:1 122:1 246:1 
0.9124840208254649 1:0.46153846 2:0.46153846 3:0.18903941 4:0.73469388 5:0.68070758 12:1 24:1 36:1 213:1 249:1 266:1 
0.850297753311941 1:0.15384615 2:0.15384615 3:0.32070085 4:0.73469388 5:0.68070758 12:1 24:1 60:1 72:1 120:1 
1.269005367573426 1:0.15384615 2:0.15384615 3:0.41474474 4:0.73469388 5:0.68070758 12:1 24:1 96:1 108:1 208:1 251:1 
1.487990517025108 1:0.38461538 2:0.38461538 3:0.30726601 4:0.87755102 5:0.71589132 12:1 24:1 96:1 155:1 165:1 251:1 
2 1:0.46153846 2:0.46153846 3:0.32697044 4:0.62755102 5:0.62962601 12:1 38:1 72:1 153:1 244:1 250:1 
0.2680722157325711 1:0.30769231 2:0.30769231 3:0.36410572 4:0.82040816 5:0.75438293 12:1 46:1 60:1 96:1 144:1 251:1 
1.159158548053897 1:0.46153846 2:0.46153846 3:0.32697044 4:0.73469388 5:0.68070758 12:1 62:1 179:1 207:1 249:1 
2 1:0.61538462 2:0.61538462 3:0.17686902 4:0.73469388 5:0.68070758 14:1 26:1 38:1 46:1 120:1 153:1 251:1 
2 1:0.53846154 2:0.53846154 3:0.27955665 4:0.55102041 5:0.6567631 14:1 25:1 46:1 61:1 153:1 251:1 
1.575348423769973 1:0.53846154 2:0.53846154 3:0.34421182 4:0.79591837 5:0.77648554 36:1 46:1 72:1 165:1 251:1 
0.411462522678729 1:0.38461538 2:0.38461538 3:0.45504926 4:0.68707483 5:0.5047889 47:1 108:1 208:1 251:1 
1.352422413690976 1:0.61538462 2:0.61538462 3:0.3594248 4:0.73469388 5:0.68070758 47:1 122:1 154:1 251:1 
2 1:0.53846154 2:0.53846154 3:0.34421182 4:0.91836735 5:0.71263357 45:1 60:1 84:1 179:1 215:1 250:1 
2 1:0.69230769 2:0.69230769 3:0.43041872 4:0.82040816 5:0.77192468 46:1 60:1 154:1 166:1 251:1 
2 1:0.30769231 2:0.30769231 3:0.36410572 4:0.90612245 5:0.71754526 72:1 144:1 167:1 179:1 192:1 251:1 
1.540627173350953 1:0.61538462 2:0.61538462 3:0.3594248 4:0.73469388 5:0.68070758 37:1 46:1 108:1 153:1 179:1 250:1 
0.5023269426079451 1:0.53846154 2:0.53846154 3:0.408867 4:0.30612245 5:0.66360438 37:1 46:1 109:1 128:1 
1.184025105372807 1:0.38461538 2:0.38461538 3:0.38115764 4:0.59183673 5:0.63379593 25:1 46:1 97:1 108:1 251:1 
0.5620248605581478 1:0.61538462 2:0.61538462 3:0.50369458 4:0.56632653 5:0.64323256 34:1 112:1 190:1 251:1 
2 1:0.69230769 2:0.69230769 3:0.28310635 4:0.32142857 5:0.66402469 86:1 206:1 235:1 250:1 
1.293649521627396 1:0.61538462 2:0.61538462 3:0.37438424 4:0.44387755 5:0.65919555 101:1 206:1 235:1 251:1 
0.8496664603586194 1:0.53846154 2:0.53846154 3:0.408867 4:0.71428571 5:0.910086 12:1 34:1 179:1 207:1 249:1 
2 1:0.38461538 2:0.38461538 3:0.48275862 4:0.47186147 5:0.6387803 12:1 96:1 102:1 208:1 250:1 
0.8536953044397292 1:0.46153846 2:0.46153846 3:0.40318302 4:0.40952381 5:0.66039173 14:1 25:1 34:1 208:1 
0.1984532608824659 1:0.38461538 2:0.38461538 3:0.48275862 4:0.47186147 5:0.6387803 24:1 102:1 208:1 251:1 
2 1:0.53846154 2:0.53846154 3:0.33497537 4:0.52380952 5:0.64034402 35:1 50:1 54:1 251:1 
2 1:0.53846154 2:0.53846154 3:0.408867 4:0.42857143 5:0.6567631 56:1 72:1 122:1 208:1 250:1 
2 1:0.46153846 2:0.46153846 3:0.40318302 4:0.32380952 5:0.67003969 54:1 72:1 82:1 97:1 104:1 217:1 
1.952017381692064 1:0.46153846 2:0.46153846 3:0.32360743 4:0.4952381 5:0.65162086 54:1 72:1 242:1 250:1 276:1 
0.6756176230569328 1:0.38461538 2:0.38461538 3:0.48275862 4:0.47186147 5:0.6387803 54:1 72:1 208:1 251:1 
0.1487340186547958 1:0.46153846 2:0.46153846 3:0.40318302 4:0.40952381 5:0.66039173 54:1 216:1 241:1 250:1 
2 1:0.46153846 2:0.46153846 3:0.48275862 4:0.23809524 5:0.67161845 54:1 102:1 208:1 
0.06746187180525956 1:0.38461538 2:0.38461538 3:0.48275862 4:0.47186147 5:0.6387803 25:1 35:1 208:1 
1.006443916770744 1:0.53846154 2:0.53846154 3:0.408867 4:0.42857143 5:0.6567631 13:1 35:1 54:1 250:1 
1.836966470875837 1:0.23076923 2:0.23076923 3:0.37931034 4:0.56776557 5:0.6041178 13:1 144:1 192:1 216:1 
2 1:0.30769231 2:0.30769231 3:0.48275862 4:0.5952381 5:0.53479281 13:1 155:1 207:1 216:1 
0.6554355787834186 1:0.53846154 2:0.53846154 3:0.48275862 4:0.33333333 5:0.66379984 13:1 104:1 208:1 250:1 
0.8534734887310726 1:0.53846154 2:0.53846154 3:0.33497537 4:0.52380952 5:0.64034402 13:1 56:1 129:1 144:1 251:1 
2 1:0.38461538 2:0.38461538 3:0.48275862 4:0.39393939 5:0.65598124 13:1 54:1 83:1 102:1 131:1 208:1 
0.6272567344102022 1:0.30769231 2:0.30769231 3:0.3690792 4:0.52747253 5:0.6567631 63:1 184:1 240:1 249:1 264:1 
2 1:0.61538462 2:0.61538462 3:0.22129595 4:0.38095238 5:0.72713057 127:1 157:1 163:1 249:1 264:1 
0.4660020004243762 1:0.69230769 2:0.69230769 3:0.40356196 4:0.42857143 5:0.6567631 128:1 142:1 162:1 249:1 264:1 
2 1:0.46153846 2:0.46153846 3:0.58128079 4:0.46624804 5:0.59291113 39:1 75:1 226:1 246:1 
1.204971091496759 1:0.53846154 2:0.53846154 3:0.408867 4:0.375 5:0.68803753 26:1 221:1 223:1 256:1 
0.3375459935250292 1:0.38461538 2:0.38461538 3:0.5862069 4:0.38095238 5:0.60750586 87:1 174:1 222:1 255:1 
1.059528919067547 1:0.53846154 2:0.53846154 3:0.408867 4:0.53571429 5:0.64112588 119:1 189:1 239:1 256:1 
1.814784006178585 1:0.46153846 2:0.46153846 3:0.48275862 4:0.35294118 5:0.6567631 155:1 174:1 198:1 256:1 
2 1:0.61538462 2:0.61538462 3:0.61206897 4:0.4 5:0.55414386 54:1 130:1 238:1 256:1 
2 1:0.69230769 2:0.69230769 3:0.54022989 4:0.36734694 5:0.63547911 54:1 103:1 166:1 257:1 
0.1455710683441174 1:0.53846154 2:0.53846154 3:0.55665025 4:0.42857143 5:0.6567631 25:1 166:1 238:1 256:1 
0.3780937769211747 1:0.53846154 2:0.53846154 3:0.2364532 4:0.50649351 5:0.42263921 11:1 26:1 230:1 
2 1:0.61538462 2:0.61538462 3:0.408867 4:0.56103896 5:0.4241595 10:1 24:1 44:1 59:1 73:1 92:1 251:1 
0.5247778201143182 1:0.61538462 2:0.61538462 3:0.2497158 4:0.56103896 5:0.4031094 26:1 38:1 239:1 250:1 
0.5780318012541198 1:0.53846154 2:0.53846154 3:0.2364532 4:0.42857143 5:0.55642429 26:1 37:1 43:1 59:1 
-1.214799362279781 1:0.30769231 2:0.30769231 3:0.49145175 4:0.61904762 5:0.83130203 13:1 51:1 100:1 118:1 182:1 243:1 251:1 
-2 1:0.53846154 2:0.53846154 3:0.408867 4:0.51428571 5:0.65237766 42:1 75:1 106:1 153:1 228:1 
-0.8493389008835386 1:0.46153846 2:0.46153846 3:0.27563815 4:0.22727273 5:0.6346696 14:1 18:1 77:1 164:1 182:1 229:1 253:1 
-0.02447072013175005 1:0.38461538 2:0.38461538 3:0.408867 4:0.62037962 5:0.40656763 36:1 84:1 92:1 120:1 155:1 204:1 250:1 
-0.5858302263164081 1:0.38461538 2:0.38461538 3:0.48275862 4:0.35930736 5:0.62157936 12:1 32:1 42:1 76:1 173:1 193:1 251:1 
-1.012560263595062 1:0.76923077 2:0.76923077 3:0.36105477 4:0.38095238 5:0.66759417 34:1 102:1 153:1 177:1 209:1 
-0.325381953962707 1:0.38461538 2:0.38461538 3:0.33990148 4:0.26673327 5:0.70784467 38:1 42:1 78:1 156:1 200:1 216:1 256:1 
-1.266006596149418 1:0.30769231 2:0.30769231 3:0.64759379 4:0.44835165 5:0.67068487 46:1 65:1 75:1 123:1 144:1 198:1 252:1 
-0.586678244800541 1:0.46153846 2:0.46153846 3:0.32360743 4:0.66666667 5:0.69898358 35:1 83:1 96:1 154:1 217:1 242:1 
-1.763717704475002 1:0.30769231 2:0.30769231 3:0.47783251 4:0.43831169 5:0.66831726 13:1 26:1 52:1 113:1 195:1 204:1 250:1 
-2 1:0.53846154 2:0.53846154 3:0.22077922 4:0.35714286 5:0.64706091 66:1 103:1 120:1 127:1 192:1 
-1.463936030916204 1:0.38461538 2:0.38461538 3:0.30726601 4:0.27891156 5:0.68159183 14:1 25:1 109:1 128:1 146:1 208:1 
-2 1:0.46153846 2:0.46153846 3:0.39593596 4:0.62755102 5:0.61503127 25:1 46:1 61:1 120:1 153:1 233:1 251:1 
-0.4760779540868407 1:0.61538462 2:0.61538462 3:0.55315012 5:0.66497263 20:1 89:1 93:1 124:1 127:1 209:1 256:1 
-1.728424315474767 1:0.30769231 2:0.30769231 3:0.47783251 4:0.36038961 5:0.7352098 25:1 40:1 64:1 84:1 197:1 230:1 250:1 
-0.3666127839366411 1:0.53846154 2:0.53846154 3:0.408867 4:0.42857143 5:0.6567631 32:1 68:1 84:1 128:1 158:1 207:1 252:1 
-0.949385635438611 1:0.69230769 2:0.69230769 3:0.51231527 4:0.43456543 5:0.72791243 31:1 104:1 165:1 184:1 238:1 255:1 
-0.09822553004698098 1:0.61538462 2:0.61538462 3:0.2497158 4:0.3038961 5:0.26102123 10:1 25:1 43:1 57:1 109:1 210:1 
-0.8213403866505037 1:0.23076923 2:0.23076923 3:0.60487425 4:0.53571429 5:0.63487099 41:1 75:1 113:1 172:1 183:1 255:1 
-0.8315511128972203 1:0.46153846 2:0.46153846 3:0.30049261 4:0.51190476 5:0.6662323 25:1 33:1 71:1 111:1 121:1 235:1 
-2 1:0.30769231 2:0.30769231 3:0.38013136 4:0.21706865 5:0.67088003 12:1 18:1 55:1 75:1 78:1 244:1 253:1 
-2 1:0.61538462 2:0.61538462 3:0.44827586 4:0.36904762 5:0.62887673 42:1 59:1 106:1 210:1 
-2 1:0.30769231 2:0.30769231 3:0.3436685 4:0.61904762 5:0.76093455 12:1 54:1 168:1 216:1 231:1 249:1 
-2 1:0.53846154 2:0.53846154 3:0.27093596 4:0.42857143 5:0.66649292 14:1 25:1 101:1 189:1 205:1 249:1 
-0.6475997457694953 1:0.30769231 2:0.30769231 3:0.52978056 4:0.33333333 5:0.61411614 13:1 76:1 88:1 117:1 172:1 209:1 
-2 1:0.69230769 2:0.69230769 3:0.43041872 4:0.52653061 5:0.60545348 153:1 166:1 207:1 245:1 247:1 
-1.501748215301986 1:0.53846154 2:0.53846154 3:0.408867 4:0.75 5:0.58014073 28:1 34:1 48:1 165:1 203:1 251:1 
-2 1:0.30769231 2:0.30769231 3:0.59023735 4:0.45238095 5:0.63600825 15:1 29:1 84:1 137:1 222:1 253:1 
-0.6245513281840417 1:0.46153846 2:0.46153846 3:0.45450594 4:0.3877551 5:0.6586411 54:1 117:1 216:1 233:1 244:1 
-2 1:0.46153846 2:0.46153846 3:0.45619627 4:0.8 5:0.75933762 43:1 71:1 101:1 135:1 215:1 252:1 
-0.3466850887891982 1:0.30769231 2:0.30769231 3:0.37438424 4:0.71103896 5:0.65919555 26:1 71:1 85:1 111:1 136:1 143:1 251:1 
-0.2019930819462123 1:0.46153846 2:0.46153846 3:0.65085127 4:0.68571429 5:0.65169548 41:1 75:1 93:1 111:1 185:1 245:1 257:1 
-0.08548369956455289 1:0.53846154 2:0.53846154 3:0.31482311 4:0.35714286 5:0.65452413 8:1 45:1 92:1 122:1 157:1 208:1 252:1 
-2 1:0.61538462 2:0.61538462 3:0.25212718 4:0.34415584 5:0.6502002 19:1 30:1 46:1 68:1 122:1 192:1 253:1 
-2 1:0.15384615 2:0.15384615 3:0.47960086 4:0.51428571 5:0.73277734 39:1 63:1 69:1 100:1 229:1 240:1 253:1 
-1.95660078716416 1:0.53846154 2:0.53846154 3:0.33497537 4:0.61904762 5:0.52306489 14:1 24:1 81:1 209:1 216:1 226:1 
-0.9877168369243492 1:0.61538462 2:0.61538462 3:0.54993283 4:0.48051948 5:0.67915275 8:1 20:1 50:1 111:1 118:1 195:1 
-0.1940167246210071 1:0.30769231 2:0.30769231 3:0.4318555 4:0.40714286 5:0.66710103 40:1 44:1 99:1 170:1 205:1 252:1 
-1.15585942493284 1:0.30769231 2:0.30769231 3:0.5862069 4:0.34203297 5:0.696638 63:1 102:1 138:1 160:1 191:1 256:1 
-2 1:0.61538462 2:0.61538462 3:0.1487339 4:0.51428571 5:0.73277734 26:1 43:1 69:1 86:1 120:1 206:1 
-1.522500873519721 1:0.23076923 2:0.23076923 3:0.32736229 4:0.53571429 5:0.66417103 12:1 24:1 112:1 158:1 205:1 233:1 
-0.5603551243727041 1:0.61538462 2:0.61538462 3:0.35344828 4:0.57142857 5:0.63623925 31:1 71:1 87:1 91:1 129:1 167:1 255:1 
-0.607950547156761 1:0.53846154 2:0.53846154 3:0.3226601 4:0.35064935 5:0.10489966 37:1 44:1 170:1 204:1 210:1 250:1 
-2 1:0.30769231 2:0.30769231 3:0.27847001 4:0.23809524 5:0.77680173 12:1 29:1 146:1 205:1 234:1 253:1 
-1.036889513799167 1:0.38461538 2:0.38461538 3:0.27955665 4:0.27032967 5:0.66816523 12:1 40:1 42:1 103:1 121:1 241:1 248:1 
-2 1:0.53846154 2:0.53846154 3:0.50291088 4:0.35714286 5:0.66945057 8:1 18:1 122:1 207:1 233:1 
-2 1:0.76923077 2:0.76923077 3:0.33214698 5:0.67666501 13:1 20:1 93:1 127:1 194:1 225:1 
-2 1:0.53846154 2:0.53846154 3:0.3292914 4:0.34285714 5:0.65588601 19:1 36:1 76:1 200:1 235:1 252:1 
-0.5229757715259247 1:0.30769231 2:0.30769231 3:0.52380952 4:0.4174397 5:0.67216865 77:1 100:1 134:1 143:1 217:1 240:1 257:1 
-0.2763032801614661 1:0.53846154 2:0.53846154 3:0.58128079 4:0.35064935 5:0.70358787 22:1 36:1 75:1 80:1 114:1 164:1 256:1 
-0.7167324728822444 1:0.61538462 2:0.61538462 3:0.36651975 4:0.72857143 5:0.7587022 43:1 71:1 101:1 136:1 141:1 213:1 252:1 
-1.318414697418036 1:0.53846154 2:0.53846154 3:0.48844259 4:0.51428571 5:0.68833825 14:1 63:1 77:1 83:1 101:1 163:1 
-2 1:0.53846154 2:0.53846154 3:0.34801507 4:0.71428571 5:0.71471278 41:1 117:1 131:1 170:1 180:1 
-1.518539747270954 1:0.38461538 2:0.38461538 3:0.31547619 4:0.33061224 5:0.70883286 12:1 43:1 101:1 193:1 230:1 241:1 
-1.869216139196187 1:0.30769231 2:0.30769231 3:0.23380068 4:0.31648352 5:0.64850845 12:1 36:1 110:1 145:1 152:1 162:1 252:1 
-0.674826019366959 1:0.61538462 2:0.61538462 3:0.45628079 4:0.70408163 5:0.55938885 65:1 111:1 141:1 165:1 175:1 195:1 251:1 
-0.9057937576307619 1:0.69230769 2:0.69230769 3:0.27141824 4:0.54285714 5:0.6545943 19:1 91:1 111:1 119:1 127:1 165:1 252:1 
-2 1:0.53846154 2:0.53846154 3:0.64759379 4:0.42857143 5:0.67255067 47:1 65:1 76:1 125:1 188:1 
-0.4194367078122849 1:0.46153846 2:0.46153846 3:0.82758621 4:0.45378151 5:0.96690122 51:1 88:1 92:1 119:1 189:1 220:1 257:1 
-2 1:0.61538462 2:0.61538462 3:0.408867 4:0.73246753 5:0.38995309 10:1 108:1 120:1 154:1 239:1 250:1 
-2 1:0.61538462 2:0.61538462 3:0.31034483 4:0.47619048 5:0.62157936 26:1 31:1 58:1 87:1 141:1 157:1 
-2 1:0.46153846 2:0.46153846 3:0.44297082 4:0.56190476 5:0.61105431 24:1 32:1 44:1 87:1 107:1 156:1 
-0.8017163011161498 1:0.76923077 2:0.76923077 3:0.41558442 4:0.69047619 5:0.62203629 65:1 84:1 190:1 201:1 214:1 225:1 
-1.250346786010415 1:0.30769231 2:0.30769231 3:0.44970184 4:0.36734694 5:0.75254105 14:1 19:1 77:1 160:1 184:1 243:1 255:1 
-1.430170657089079 1:0.15384615 2:0.15384615 3:0.41275603 4:0.38095238 5:0.79749805 19:1 52:1 76:1 160:1 192:1 219:1 255:1 
-0.6668199968587996 1:0.53846154 2:0.53846154 3:0.3226601 4:0.58441558 5:0.40591608 36:1 59:1 84:1 128:1 153:1 169:1 250:1 
-0.5795725043139223 1:0.38461538 2:0.38461538 3:0.44478654 4:0.33061224 5:0.69286986 13:1 26:1 39:1 44:1 101:1 157:1 
-2 1:0.46153846 2:0.46153846 3:0.49350649 4:0.36813187 5:0.66748802 20:1 102:1 180:1 231:1 
-1.431543576691679 1:0.53846154 2:0.53846154 3:0.20197044 4:0.21428571 5:0.63122231 50:1 105:1 114:1 158:1 181:1 246:1 
-0.7504357922012923 1:0.69230769 2:0.69230769 3:0.47044335 4:0.48917749 5:0.65964853 20:1 32:1 76:1 154:1 214:1 228:1 254:1 
-2 1:0.69230769 2:0.69230769 3:0.50217328 4:0.5 5:0.65778258 17:1 105:1 140:1 171:1 200:1 
-2 1:0.38461538 2:0.38461538 3:0.31278501 4:0.42857143 5:0.6567631 14:1 19:1 51:1 183:1 193:1 
-1.693598036559757 1:0.46153846 2:0.46153846 3:0.24403183 4:0.40952381 5:0.67442513 14:1 26:1 50:1 130:1 208:1 241:1 
-0.798061133589772 1:0.30769231 2:0.30769231 3:0.408867 4:0.63450835 5:0.40363565 11:1 84:1 120:1 176:1 204:1 228:1 251:1 
-0.4083408412590971 1:0.15384615 2:0.15384615 3:0.48275862 4:0.54421769 5:0.60320563 12:1 97:1 169:1 192:1 207:1 217:1 250:1 
-1.35170432895336 1:0.46153846 2:0.46153846 3:0.28381963 4:0.21904762 5:0.63912111 14:1 26:1 30:1 172:1 174:1 210:1 251:1 
-2 1:0.69230769 2:0.69230769 3:0.44069723 4:0.40714286 5:0.66023636 18:1 46:1 75:1 151:1 236:1 
-2 1:0.15384615 2:0.15384615 3:0.2415242 4:0.24675325 5:0.82175873 14:1 88:1 144:1 160:1 205:1 253:1 
-2 1:0.30769231 2:0.30769231 3:0.29392447 4:0.51428571 5:0.73277734 12:1 26:1 101:1 120:1 230:1 241:1 
-2 1:0.076923077 2:0.076923077 3:0.38013136 4:0.63116883 5:0.78294675 12:1 84:1 100:1 135:1 168:1 206:1 252:1 
-2 1:0.46153846 2:0.46153846 3:0.48275862 4:0.32380952 5:0.66477717 54:1 82:1 121:1 208:1 
-2 1:0.46153846 2:0.46153846 3:0.5270936 4:0.46428571 5:0.67005473 39:1 53:1 138:1 173:1 206:1 251:1 
-2 1:0.46153846 2:0.46153846 3:0.46633826 4:0.28257457 5:0.6514421 59:1 76:1 102:1 150:1 246:1 
-0.2423466937610692 1:0.46153846 2:0.46153846 3:0.33449242 4:0.51428571 5:0.73277734 43:1 69:1 109:1 135:1 142:1 156:1 253:1 
-1.235650310411624 1:0.53846154 2:0.53846154 3:0.408867 4:0.71428571 5:0.72437106 41:1 130:1 156:1 187:1 204:1 251:1 
-0.5831439560332459 1:0.15384615 2:0.15384615 3:0.54071284 4:0.61038961 5:0.89124469 12:1 40:1 101:1 168:1 181:1 231:1 251:1 
-2 1:0.53846154 2:0.53846154 3:0.408867 4:0.23809524 5:0.67552776 13:1 54:1 103:1 208:1 250:1 
-2 1:0.69230769 2:0.69230769 3:0.37641263 4:0.35714286 5:0.65295344 35:1 121:1 141:1 176:1 222:1 249:1 
-2 1:0.46153846 2:0.46153846 3:0.56138689 4:0.28051948 5:0.68851366 18:1 47:1 64:1 75:1 152:1 162:1 
-0.3217295287853437 1:0.46153846 2:0.46153846 3:0.31482311 4:0.74675325 5:0.38261426 11:1 24:1 58:1 204:1 228:1 237:1 251:1 
-1.550369596090377 1:0.23076923 2:0.23076923 3:0.41770873 4:0.39183673 5:0.65962825 37:1 46:1 75:1 180:1 186:1 216:1 252:1 
-0.3347904610998764 1:0.46153846 2:0.46153846 3:0.46305419 4:0.45238095 5:0.6593693 29:1 31:1 107:1 138:1 228:1 243:1 
-0.8059539759160931 1:0.38461538 2:0.38461538 3:0.408867 4:0.55444555 5:0.42689601 109:1 128:1 192:1 204:1 239:1 251:1 
-0.4602305715348642 1:0.30769231 2:0.30769231 3:0.54993283 4:0.6 5:0.67915275 35:1 147:1 183:1 202:1 219:1 252:1 
-2 1:0.46153846 2:0.46153846 3:0.3251956 4:0.51020408 5:0.6426781 51:1 130:1 169:1 182:1 206:1 
-2 1:0.15384615 2:0.15384615 3:0.32070085 4:0.46938776 5:0.65935449 13:1 25:1 73:1 97:1 155:1 192:1 
-0.7475271193028223 1:0.46153846 2:0.46153846 3:0.30087154 4:0.32380952 5:0.66820533 16:1 141:1 157:1 176:1 216:1 223:1 253:1 
-0.7604476995643166 1:0.30769231 2:0.30769231 3:0.49507389 4:0.27829314 5:0.68152202 18:1 51:1 77:1 182:1 229:1 244:1 
-2 1:0.30769231 2:0.30769231 3:0.29392447 4:0.62142857 5:0.76926418 12:1 24:1 71:1 84:1 176:1 194:1 253:1 
-2 1:0.53846154 2:0.53846154 3:0.408867 4:0.42857143 5:0.6567631 6:1 46:1 60:1 104:1 192:1 
-0.3817318612472186 1:0.46153846 2:0.46153846 3:0.39005822 4:0.23626374 5:0.67855569 104:1 120:1 126:1 140:1 193:1 253:1 
-2 1:0.61538462 2:0.61538462 3:0.55761615 4:0.37142857 5:0.68645337 116:1 128:1 160:1 173:1 179:1 
-0.0768396814841521 1:0.38461538 2:0.38461538 3:0.20197044 4:0.42257742 5:0.56919468 38:1 42:1 72:1 169:1 175:1 204:1 251:1 
-1.436199516198881 1:0.38461538 2:0.38461538 3:0.38013136 4:0.94285714 5:0.74645991 24:1 71:1 101:1 143:1 213:1 228:1 252:1 
-1.006778521047675 1:0.61538462 2:0.61538462 3:0.32697044 4:0.45918367 5:0.67112979 50:1 122:1 165:1 174:1 221:1 251:1 
-1.238527962790944 1:0.53846154 2:0.53846154 3:0.26108374 4:0.52380952 5:0.51602815 24:1 42:1 58:1 158:1 175:1 192:1 251:1 
-0.7321938452226844 1:0.46153846 2:0.46153846 3:0.47843747 4:0.51428571 5:0.5959517 18:1 113:1 123:1 149:1 194:1 225:1 255:1 
-2 1:0.53846154 2:0.53846154 3:0.51775992 4:0.64285714 5:0.63659932 14:1 41:1 93:1 161:1 192:1 245:1 257:1 
-2 1:0.46153846 2:0.46153846 3:0.58128079 4:0.34379906 5:0.63547911 13:1 76:1 130:1 221:1 246:1 
-0.2925169293987813 1:0.61538462 2:0.61538462 3:0.43160288 4:0.5047619 5:0.65430009 41:1 128:1 155:1 164:1 228:1 242:1 
-1.731339575694679 1:0.38461538 2:0.38461538 3:0.32398636 4:0.49285714 5:0.64827289 50:1 76:1 144:1 215:1 223:1 255:1 
-0.5148122735946561 1:0.23076923 2:0.23076923 3:0.43041872 4:0.85157699 5:0.74760012 36:1 85:1 96:1 155:1 179:1 231:1 251:1 
-1.223609263325015 1:0.30769231 2:0.30769231 3:0.48275862 4:0.38095238 5:0.65793589 12:1 25:1 54:1 104:1 144:1 208:1 
-0.2810239382562847 1:0.30769231 2:0.30769231 3:0.40214957 4:0.52380952 5:0.64844694 27:1 62:1 113:1 204:1 216:1 222:1 
-1.050513611421054 1:0.30769231 2:0.30769231 3:0.29392447 4:0.51428571 5:0.73277734 13:1 71:1 108:1 141:1 169:1 174:1 252:1 
-0.1641955491298831 1:0.61538462 2:0.61538462 3:0.35344828 4:0.68571429 5:0.64536096 11:1 24:1 129:1 154:1 167:1 237:1 255:1 
-2 1:0.30769231 2:0.30769231 3:0.43573668 4:0.61904762 5:0.61411614 26:1 75:1 119:1 135:1 243:1 
-0.1125679039735335 1:0.53846154 2:0.53846154 3:0.33990148 4:0.42857143 5:0.64946573 48:1 58:1 79:1 97:1 116:1 228:1 
-2 1:0.38461538 2:0.38461538 3:0.408867 4:0.35664336 109:1 192:1 205:1 212:1 
-2 1:0.23076923 2:0.23076923 3:0.34421182 4:0.53988868 5:0.65060594 12:1 46:1 60:1 85:1 109:1 193:1 
-1.594021145022592 1:0.38461538 2:0.38461538 3:0.53462764 4:0.39285714 5:0.67854789 28:1 65:1 145:1 161:1 179:1 
-2 1:0.53846154 2:0.53846154 3:0.408867 4:0.35714286 5:0.66198735 20:1 104:1 120:1 180:1 210:1 
-1.518856969035797 1:0.38461538 2:0.38461538 3:0.15948276 4:0.46938776 5:0.68494266 26:1 38:1 61:1 72:1 120:1 213:1 246:1 
-2 1:0.38461538 2:0.38461538 3:0.44478654 4:0.45306122 5:0.6130549 24:1 99:1 174:1 214:1 241:1 
-2 1:0.53846154 2:0.53846154 3:0.408867 4:0.23809524 5:0.67552776 54:1 81:1 102:1 208:1 
-1.391051731763836 1:0.46153846 2:0.46153846 3:0.39593596 4:0.84183673 5:0.74638389 38:1 84:1 154:1 167:1 179:1 244:1 251:1 
-1.458126462288672 1:0.38461538 2:0.38461538 3:0.54679803 4:0.33266733 5:0.70784467 44:1 78:1 100:1 132:1 143:1 222:1 255:1 
-0.3916194117506029 1:0.69230769 2:0.69230769 3:0.33584468 4:0.64285714 5:0.64742676 12:1 43:1 55:1 190:1 219:1 238:1 254:1 
-2 1:0.53846154 2:0.53846154 3:0.2364532 4:0.42857143 5:0.70237164 14:1 44:1 108:1 122:1 242:1 
-2 1:0.46153846 2:0.46153846 3:0.31482311 4:0.53246753 5:0.42291563 72:1 92:1 108:1 211:1 228:1 251:1 
-2 1:0.38461538 2:0.38461538 3:0.45950601 4:0.37142857 5:0.66446552 19:1 37:1 65:1 84:1 123:1 164:1 252:1 
-2 1:0.38461538 2:0.38461538 3:0.43448886 4:0.42857143 5:0.6567631 20:1 39:1 88:1 192:1 220:1 225:1 
-2 1:0.46153846 2:0.46153846 3:0.48275862 4:0.40952381 5:0.65337503 13:1 34:1 72:1 102:1 208:1 250:1 
-2 1:0.30769231 2:0.30769231 3:0.3203915 4:0.36734694 5:0.80043002 13:1 19:1 76:1 93:1 192:1 207:1 256:1 
-1.482780205645115 1:0.46153846 2:0.46153846 3:0.27364049 4:0.65714286 5:0.75692305 26:1 108:1 135:1 141:1 214:1 242:1 253:1 
-0.21320317134364 1:0.30769231 2:0.30769231 3:0.61001642 4:0.33951763 5:0.68506935 32:1 52:1 75:1 135:1 153:1 244:1 253:1 
-1.962222174854716 1:0.38461538 2:0.38461538 3:0.48201224 4:0.5 5:0.65715008 46:1 122:1 156:1 207:1 233:1 252:1 
-0.06431207991021515 1:0.38461538 2:0.38461538 3:0.55619271 4:0.57142857 5:0.63261739 39:1 75:1 125:1 128:1 184:1 225:1 255:1 
-0.4770309476011383 1:0.61538462 2:0.61538462 3:0.3292914 4:0.64675325 5:0.39433853 24:1 38:1 58:1 84:1 140:1 155:1 250:1 
-1.783049068442279 1:0.61538462 2:0.61538462 3:0.49981053 4:0.32380952 5:0.673528 46:1 65:1 76:1 187:1 236:1 253:1 
-2 1:0.23076923 2:0.23076923 3:0.41770873 4:0.45306122 5:0.65608092 45:1 63:1 75:1 109:1 144:1 216:1 
-1.691640552431592 1:0.46153846 2:0.46153846 3:0.45484401 4:0.51805338 5:0.71727044 12:1 63:1 103:1 185:1 191:1 225:1 256:1 
-0.5911713954237784 1:0.38461538 2:0.38461538 3:0.20727548 4:0.3 5:0.64174736 79:1 97:1 156:1 180:1 230:1 246:1 
-0.1132918111676443 1:0.69230769 2:0.69230769 3:0.408867 4:0.34199134 5:0.10946052 25:1 140:1 176:1 204:1 212:1 250:1 
-2 1:0.53846154 2:0.53846154 3:0.31482311 4:0.42857143 5:0.65079252 67:1 84:1 92:1 128:1 192:1 252:1 
-2 1:0.46153846 2:0.46153846 3:0.45619627 4:0.51428571 5:0.73277734 41:1 137:1 192:1 206:1 214:1 253:1 
-2 1:0.84615385 2:0.84615385 3:0.41249676 4:0.42857143 5:0.65714717 17:1 32:1 80:1 105:1 199:1 
-0.2851606447155488 1:0.38461538 2:0.38461538 3:0.43448886 4:0.42857143 5:0.6567631 14:1 19:1 63:1 113:1 125:1 193:1 255:1 
-2 1:0.38461538 2:0.38461538 3:0.43448886 4:0.57142857 5:0.61330083 40:1 93:1 123:1 127:1 192:1 209:1 255:1 
-1.697178833456336 1:0.23076923 2:0.23076923 3:0.55397544 4:0.48571429 5:0.59584163 12:1 51:1 101:1 157:1 186:1 232:1 251:1 
-1.531502161954303 1:0.38461538 2:0.38461538 3:0.23337438 4:0.68707483 5:0.61034011 60:1 72:1 108:1 122:1 146:1 166:1 
-0.07830520604565337 1:0.69230769 2:0.69230769 3:0.22413793 4:0.23809524 5:0.68530102 54:1 81:1 97:1 104:1 218:1 225:1 
-1.51200235236993 1:0.53846154 2:0.53846154 3:0.3292914 4:0.42857143 5:0.65150057 84:1 144:1 152:1 163:1 180:1 188:1 
-2 1:0.53846154 2:0.53846154 3:0.48844259 4:0.34285714 5:0.66991941 46:1 65:1 76:1 187:1 253:1 
-0.1575566808498842 1:0.46153846 2:0.46153846 3:0.51916111 4:0.3877551 5:0.6506596 26:1 52:1 56:1 101:1 131:1 244:1 
-1.169110511312556 1:0.69230769 2:0.69230769 3:0.54536125 4:0.52653061 5:0.57504778 167:1 178:1 233:1 245:1 248:1 
-2 1:0.38461538 2:0.38461538 3:0.34520652 4:0.57857143 5:0.63837934 12:1 84:1 111:1 175:1 205:1 215:1 250:1 
-0.07175881850015103 1:0.46153846 2:0.46153846 3:0.28660994 4:0.3021978 5:0.65619447 68:1 120:1 139:1 157:1 192:1 234:1 
-0.3776329714580485 1:0.69230769 2:0.69230769 3:0.19907679 4:0.41428571 5:0.64375988 7:1 46:1 62:1 66:1 163:1 180:1 
-1.447883126272496 1:0.53846154 2:0.53846154 3:0.35139573 4:0.6 5:0.79358874 26:1 40:1 44:1 70:1 215:1 242:1 252:1 
-1.66024727225736 1:0.38461538 2:0.38461538 3:0.50435771 4:0.23571429 5:0.58224574 40:1 90:1 158:1 171:1 196:1 236:1 
-2 1:0.46153846 2:0.46153846 3:0.47517999 4:0.35844156 5:0.66701249 14:1 46:1 63:1 75:1 92:1 198:1 253:1 
-2 1:0.46153846 2:0.46153846 3:0.47517999 4:0.35844156 5:0.66701249 63:1 75:1 90:1 151:1 236:1 252:1 
-2 1:0.23076923 2:0.23076923 3:0.61222685 4:0.47755102 5:0.66901893 39:1 75:1 107:1 204:1 219:1 246:1 
-0.6319870986949786 1:0.61538462 2:0.61538462 3:0.44202349 4:0.32727273 5:0.66538361 51:1 55:1 136:1 140:1 162:1 214:1 254:1 
-1.279199502647622 1:0.53846154 2:0.53846154 3:0.1701402 4:0.17142857 5:0.64886931 13:1 18:1 38:1 91:1 109:1 151:1 
-0.005890653324912291 1:0.61538462 2:0.61538462 3:0.094287443 4:0.3 5:0.73565788 26:1 122:1 141:1 175:1 230:1 242:1 253:1 
-2 1:0.38461538 2:0.38461538 3:0.44478654 4:0.5755102 5:0.85249978 14:1 39:1 44:1 101:1 168:1 252:1 
-2 1:0.53846154 2:0.53846154 3:0.408867 4:0.58441558 5:0.41594996 36:1 72:1 138:1 154:1 238:1 251:1 
-2 1:0.46153846 2:0.46153846 3:0.32697044 4:0.6122449 5:0.69667058 12:1 62:1 72:1 108:1 154:1 248:1 
-2 1:0.15384615 2:0.15384615 3:0.39655172 4:0.31655844 5:0.66002085 52:1 77:1 120:1 181:1 229:1 252:1 
-0.05312122060814029 1:0.46153846 2:0.46153846 3:0.45320197 4:0.26190476 5:0.71618452 37:1 91:1 172:1 176:1 190:1 219:1 253:1 
-1.281870358653107 1:0.30769231 2:0.30769231 3:0.30541872 4:0.44805195 5:0.67135783 15:1 50:1 64:1 122:1 136:1 222:1 251:1 
-1.43949635172826 1:0.69230769 2:0.69230769 3:0.51840046 4:0.35714286 5:0.67962103 68:1 91:1 137:1 140:1 219:1 
-0.4248367121491149 1:0.76923077 2:0.76923077 3:0.34169279 4:0.5 5:0.62371171 20:1 43:1 84:1 189:1 202:1 215:1 246:1 
-2 1:0.38461538 2:0.38461538 3:0.39655172 4:0.31601732 5:0.67111169 14:1 24:1 54:1 102:1 208:1 
-2 1:0.53846154 2:0.53846154 3:0.408867 4:0.64285714 5:0.62507716 19:1 87:1 93:1 123:1 127:1 192:1 257:1 
-0.3682067013486246 1:0.53846154 2:0.53846154 3:0.408867 4:0.14285714 5:0.68573794 88:1 103:1 126:1 172:1 179:1 235:1 
-2 1:0.076923077 2:0.076923077 3:0.48275862 4:0.63809524 5:0.28850665 12:1 24:1 48:1 72:1 144:1 208:1 
-0.05882411294864163 1:0.46153846 2:0.46153846 3:0.31527094 4:0.45238095 5:0.6452958 96:1 116:1 140:1 180:1 216:1 230:1 
-1.91904362844909 1:0.38461538 2:0.38461538 3:0.25876558 4:0.39285714 5:0.62016894 13:1 99:1 127:1 206:1 219:1 254:1 
-1.076746466890178 1:0.46153846 2:0.46153846 3:0.65965069 4:0.23376623 5:0.63669533 37:1 42:1 56:1 101:1 111:1 164:1 256:1 
-0.4289520835480877 1:0.53846154 2:0.53846154 3:0.47352217 4:0.67346939 5:0.53704066 109:1 153:1 207:1 214:1 243:1 250:1 
-1.281238329340505 1:0.076923077 2:0.076923077 3:0.46633826 4:0.55324675 5:0.93345496 13:1 39:1 63:1 100:1 170:1 228:1 252:1 
-0.9640681551619119 1:0.53846154 2:0.53846154 3:0.408867 4:0.67346939 5:0.81639302 36:1 46:1 96:1 110:1 166:1 243:1 248:1 
-2 1:0.23076923 2:0.23076923 3:0.3027662 4:0.45306122 5:0.64898625 86:1 123:1 144:1 216:1 252:1 
-0.1769381827588258 1:0.38461538 2:0.38461538 3:0.38115764 4:0.65986395 5:0.83740553 14:1 120:1 155:1 167:1 215:1 232:1 246:1 
-2 1:0.69230769 2:0.69230769 3:0.32573892 4:0.4829932 5:0.6628551 190:1 218:1 223:1 239:1 
-0.2186705765244787 1:0.46153846 2:0.46153846 3:0.30541872 4:0.16666667 5:0.64581704 24:1 56:1 138:1 172:1 175:1 230:1 253:1 
-2 1:0.46153846 2:0.46153846 3:0.40318302 4:0.4952381 5:0.64109581 12:1 24:1 50:1 102:1 209:1 250:1 
-2 1:0.38461538 2:0.38461538 3:0.38716456 4:0.3 5:0.64011438 14:1 18:1 44:1 85:1 148:1 196:1 251:1 
-0.1729938716110337 1:0.46153846 2:0.46153846 3:0.45320197 4:0.35714286 5:0.66927287 24:1 54:1 68:1 123:1 137:1 237:1 253:1 
-1.946857628312431 1:0.30769231 2:0.30769231 3:0.33724896 4:0.51428571 5:0.64929031 47:1 86:1 125:1 180:1 216:1 252:1 
-2 1:0.38461538 2:0.38461538 3:0.39655172 4:0.39393939 5:0.66314829 13:1 54:1 83:1 102:1 240:1 
-0.6597226886521825 1:0.30769231 2:0.30769231 3:0.29392447 4:0.62142857 5:0.76926418 86:1 108:1 143:1 169:1 176:1 240:1 252:1 
-0.337194889643336 1:0.53846154 2:0.53846154 3:0.51231527 4:0.49450549 5:0.58561376 14:1 39:1 44:1 77:1 131:1 227:1 246:1 
-1.331214443480998 1:0.61538462 2:0.61538462 3:0.55933721 4:0.3956044 5:0.72791243 32:1 47:1 116:1 139:1 183:1 256:1 
-0.1987040281122792 1:0.61538462 2:0.61538462 3:0.56403941 4:0.50510204 5:0.66679698 12:1 92:1 140:1 173:1 196:1 214:1 251:1 
-1.73199069598919 1:0.46153846 2:0.46153846 3:0.33449242 4:0.8 5:0.74967933 65:1 71:1 143:1 170:1 230:1 252:1 
-0.3374342710699942 1:0.23076923 2:0.23076923 3:0.34318555 4:0.56190476 5:0.83832856 100:1 136:1 143:1 206:1 228:1 242:1 252:1 
-1.793700760897933 1:0.53846154 2:0.53846154 3:0.2364532 4:0.42857143 5:0.70237164 24:1 85:1 141:1 176:1 194:1 213:1 253:1 
-1.577647479851223 1:0.69230769 2:0.69230769 3:0.51970443 4:0.36054422 5:0.651681 17:1 113:1 143:1 176:1 223:1 
-1.347014753532298 1:0.38461538 2:0.38461538 3:0.27141824 4:0.3 5:0.65327069 12:1 92:1 123:1 145:1 182:1 235:1 253:1 
-0.02279498218272771 1:0.076923077 2:0.076923077 3:0.45312294 4:0.35714286 5:0.65632408 14:1 40:1 63:1 75:1 220:1 231:1 253:1 
-0.4829154042719949 1:0.46153846 2:0.46153846 3:0.30049261 4:0.51190476 5:0.6662323 100:1 111:1 122:1 141:1 158:1 232:1 249:1 
-1.039830067809289 1:0.38461538 2:0.38461538 3:0.50623008 4:0.35714286 5:0.65772892 40:1 53:1 105:1 186:1 216:1 244:1 
-2 1:0.38461538 2:0.38461538 3:0.48275862 4:0.70562771 5:1 12:1 35:1 83:1 208:1 226:1 240:1 
-0.2089933356312822 1:0.53846154 2:0.53846154 3:0.408867 4:0.55102041 5:0.57694814 84:1 128:1 146:1 166:1 208:1 215:1 
-2 1:0.30769231 2:0.30769231 3:0.50082102 4:0.62142857 5:0.81304839 24:1 40:1 44:1 99:1 143:1 252:1 
-1.93627371557061 1:0.76923077 2:0.76923077 3:0.29392447 4:0.94285714 5:0.74189905 26:1 41:1 71:1 141:1 176:1 213:1 254:1 
-0.04543972968762039 1:0.53846154 2:0.53846154 3:0.3292914 4:0.51428571 5:0.64623805 101:1 141:1 158:1 162:1 191:1 229:1 251:1 
-2 1:0.30769231 2:0.30769231 3:0.43573668 4:0.54761905 5:0.60665292 12:1 76:1 107:1 193:1 233:1 251:1 
-2 1:0.46153846 2:0.46153846 3:0.33449242 4:0.22857143 5:0.71587535 14:1 25:1 42:1 101:1 122:1 
-0.3027049913595333 1:0.23076923 2:0.23076923 3:0.47075913 4:0.5755102 5:0.60390396 12:1 39:1 75:1 122:1 148:1 185:1 251:1 
-0.6222549964778572 1:0.30769231 2:0.30769231 3:0.41756013 4:0.52380952 5:0.58501587 12:1 53:1 74:1 85:1 186:1 243:1 251:1 
-0.3720264562806683 1:0.53846154 2:0.53846154 3:0.54679803 4:0.32142857 5:0.63851968 49:1 101:1 113:1 141:1 221:1 222:1 
-0.04872332598815785 1:0.38461538 2:0.38461538 3:0.32773109 4:0.39285714 5:0.63476368 12:1 65:1 87:1 115:1 177:1 193:1 253:1 
-2 1:0.38461538 2:0.38461538 3:0.45504926 4:0.56462585 5:0.52075189 47:1 72:1 213:1 232:1 244:1 
-0.7597788945069616 1:0.61538462 2:0.61538462 3:0.45433876 4:0.37142857 5:0.63691586 13:1 20:1 39:1 42:1 131:1 223:1 250:1 
-0.9824826039639358 1:0.30769231 2:0.30769231 3:0.57901219 4:0.36734694 5:0.70465207 20:1 40:1 149:1 185:1 192:1 220:1 255:1 
-0.115147491978011 1:0.38461538 2:0.38461538 3:0.38115764 4:0.46938776 5:0.64975893 61:1 96:1 126:1 153:1 167:1 231:1 246:1 
-0.05801737416138315 1:0.15384615 2:0.15384615 3:0.42454098 4:0.3487395 5:0.66406046 60:1 84:1 121:1 162:1 192:1 207:1 
-0.3594560750008797 1:0.30769231 2:0.30769231 3:0.33724896 4:0.38241758 5:0.65415522 75:1 84:1 123:1 181:1 187:1 218:1 
-0.8009715812616827 1:0.69230769 2:0.69230769 3:0.48275862 4:0.23809524 5:0.67161845 54:1 102:1 154:1 209:1 250:1 
-0.09783461131525138 1:0.38461538 2:0.38461538 3:0.49534079 4:0.57142857 5:0.62295911 20:1 39:1 64:1 95:1 194:1 209:1 255:1 
-0.2936130224231992 1:0.46153846 2:0.46153846 3:0.22660099 4:0.51190476 5:0.67326905 13:1 120:1 177:1 205:1 215:1 235:1 
-2 1:0.30769231 2:0.30769231 3:0.51435701 4:0.24489796 5:0.68070758 89:1 126:1 183:1 208:1 256:1 
-0.03597811139147734 1:0.23076923 2:0.23076923 3:0.57142857 4:0.5018315 5:0.62814699 28:1 41:1 60:1 70:1 112:1 204:1 253:1 
-2 1:0.30769231 2:0.30769231 3:0.43842365 4:0.23489011 5:0.73833724 13:1 19:1 64:1 75:1 126:1 138:1 256:1 
-2 1:0.30769231 2:0.30769231 3:0.28817734 4:0.63311688 5:0.67591869 13:1 71:1 84:1 99:1 156:1 235:1 
-0.8798144663550911 1:0.46153846 2:0.46153846 3:0.53694581 4:0.54761905 5:0.65635355 27:1 32:1 58:1 107:1 172:1 192:1 
-2 1:0.38461538 2:0.38461538 3:0.50944171 4:0.69795918 5:0.78066632 12:1 42:1 101:1 137:1 143:1 215:1 252:1 
-2 1:0.30769231 2:0.30769231 3:0.3436685 4:0.52380952 5:0.6201996 12:1 25:1 41:1 86:1 216:1 
-2 1:0.38461538 2:0.38461538 3:0.36546212 4:0.44285714 5:0.65327069 14:1 36:1 65:1 123:1 216:1 223:1 
-0.5896722620256354 1:0.53846154 2:0.53846154 3:0.408867 4:0.28571429 5:0.67069443 6:1 18:1 47:1 128:1 156:1 210:1 
-2 1:0.53846154 2:0.53846154 3:0.408867 4:0.35714286 5:0.63437345 35:1 76:1 88:1 91:1 151:1 
-2 1:0.61538462 2:0.61538462 3:0.44827586 4:0.26190476 5:0.62522804 106:1 136:1 174:1 211:1 
-2 1:0.61538462 2:0.61538462 3:0.43539219 4:0.31948052 5:0.68932058 56:1 79:1 142:1 198:1 240:1 256:1 
-0.04760915112059822 1:0.53846154 2:0.53846154 3:0.12673533 4:0.5 5:0.63835383 20:1 47:1 122:1 158:1 182:1 192:1 
-0.275756596732541 1:0.30769231 2:0.30769231 3:0.56978654 4:0.62142857 5:0.82764312 41:1 71:1 100:1 135:1 214:1 228:1 253:1 
-0.3601009398671309 1:0.61538462 2:0.61538462 3:0.408867 4:0.73246753 5:0.38995309 11:1 58:1 128:1 192:1 239:1 251:1 
-1.074979795186433 1:0.23076923 2:0.23076923 3:0.47439984 4:0.82857143 5:0.71512553 12:1 39:1 84:1 118:1 156:1 243:1 251:1 
-2 1:0.53846154 2:0.53846154 3:0.56801819 4:0.42857143 5:0.6567631 40:1 64:1 128:1 143:1 191:1 200:1 
-2 1:0.38461538 2:0.38461538 3:0.29933353 4:0.67857143 5:0.71245918 85:1 105:1 168:1 216:1 251:1 
-0.19719167900642 1:0.38461538 2:0.38461538 3:0.3558166 4:0.53571429 5:0.69324993 38:1 100:1 131:1 162:1 203:1 239:1 253:1 
-1.155221731259393 1:0.38461538 2:0.38461538 3:0.53088291 4:0.64285714 5:0.63122231 35:1 160:1 197:1 203:1 219:1 
-2 1:0.61538462 2:0.61538462 3:0.52985913 4:0.3 5:0.68956924 25:1 41:1 44:1 70:1 101:1 
-2 1:0.38461538 2:0.38461538 3:0.29933353 4:0.46428571 5:0.66867498 12:1 54:1 105:1 145:1 168:1 
-0.6715794774664531 1:0.61538462 2:0.61538462 3:0.17610837 4:0.15306122 5:0.69370602 14:1 44:1 91:1 138:1 158:1 230:1 253:1 
-2 1:0.69230769 2:0.69230769 3:0.48788998 4:0.47755102 5:0.64523427 46:1 128:1 153:1 232:1 245:1 251:1 
-0.2945336105981635 1:0.69230769 2:0.69230769 3:0.42528736 4:0.48979592 5:0.63547911 11:1 32:1 71:1 88:1 199:1 237:1 
-2 1:0.46153846 2:0.46153846 3:0.22660099 4:0.51190476 5:0.67326905 13:1 69:1 86:1 111:1 122:1 157:1 250:1 
-1.317706127460675 1:0.30769231 2:0.30769231 3:0.52978056 4:0.47619048 5:0.62157936 12:1 75:1 88:1 101:1 211:1 244:1 251:1 
-0.05595112821897506 1:0.61538462 2:0.61538462 3:0.36453202 4:0.45238095 5:0.65989054 113:1 170:1 175:1 224:1 239:1 252:1 
-0.3184298193209086 1:0.46153846 2:0.46153846 3:0.38985077 4:0.3877551 5:0.66662259 56:1 72:1 100:1 158:1 218:1 233:1 
-1.382201464504346 1:0.23076923 2:0.23076923 3:0.53590874 4:0.53571429 5:0.62027626 12:1 20:1 39:1 159:1 184:1 245:1 255:1 
-1.394584546007336 1:0.46153846 2:0.46153846 3:0.39005822 4:0.36813187 5:0.65958253 32:1 45:1 60:1 85:1 162:1 231:1 
-0.3400421406435354 1:0.46153846 2:0.46153846 3:0.39534434 4:0.65714286 5:0.77623961 71:1 99:1 143:1 158:1 176:1 229:1 
-0.1675963153128794 1:0.61538462 2:0.61538462 3:0.44827586 4:0.36904762 5:0.62887673 42:1 59:1 118:1 158:1 172:1 176:1 
-0.825675653422559 1:0.53846154 2:0.53846154 3:0.46971892 4:0.71428571 5:0.6696408 14:1 47:1 65:1 77:1 116:1 179:1 252:1 
-0.9807943333741135 1:0.76923077 2:0.76923077 3:0.4760412 4:0.33333333 5:0.64396901 19:1 56:1 112:1 128:1 166:1 235:1 252:1 
-2 1:0.53846154 2:0.53846154 3:0.48844259 4:0.42857143 5:0.6567631 12:1 112:1 142:1 164:1 200:1 216:1 
-2 1:0.69230769 2:0.69230769 3:0.45504926 4:0.60544218 5:0.59900313 94:1 113:1 119:1 143:1 175:1 
-2 1:0.53846154 2:0.53846154 3:0.46633826 4:0.42857143 5:0.64156025 41:1 44:1 69:1 99:1 241:1 
-0.9446002238881571 1:0.53846154 2:0.53846154 3:0.54679803 4:0.21428571 5:0.58378942 12:1 40:1 66:1 140:1 197:1 234:1 250:1 
-1.793683397100492 1:0.76923077 2:0.76923077 3:0.35236163 4:0.66666667 5:0.67083659 70:1 84:1 93:1 117:1 190:1 238:1 253:1 
-1.092991521778572 1:0.61538462 2:0.61538462 3:0.43160288 4:0.31428571 5:0.67440508 7:1 188:1 204:1 221:1 229:1 248:1 
-2 1:0.53846154 2:0.53846154 3:0.46971892 4:0.42857143 5:0.64710482 52:1 54:1 100:1 106:1 117:1 251:1 
-2 1:0.61538462 2:0.61538462 3:0.42454098 4:0.42207792 5:0.6581636 20:1 30:1 46:1 84:1 92:1 156:1 
-1.645269407473544 1:0.53846154 2:0.53846154 3:0.408867 4:0.58441558 5:0.41594996 11:1 44:1 73:1 120:1 155:1 250:1 
-0.725580571147829 1:0.69230769 2:0.69230769 3:0.40356196 4:0.32142857 5:0.64946573 22:1 40:1 43:1 189:1 198:1 229:1 250:1 
-2 1:0.46153846 2:0.46153846 3:0.40318302 4:0.66666667 5:0.69898358 24:1 33:1 54:1 179:1 207:1 251:1 
-2 1:0.23076923 2:0.23076923 3:0.34318555 4:0.56190476 5:0.83832856 12:1 64:1 99:1 194:1 204:1 213:1 253:1 
-2 1:0.30769231 2:0.30769231 3:0.38504667 4:0.36734694 5:0.77648554 13:1 52:1 95:1 126:1 183:1 225:1 256:1 
-0.0443948969006468 1:0.38461538 2:0.38461538 3:0.54679803 4:0.5964036 5:0.6560997 23:1 77:1 111:1 132:1 189:1 240:1 257:1 
-0.003160086812625988 1:0.61538462 2:0.61538462 3:0.6533811 4:0.53846154 5:0.75030208 12:1 46:1 139:1 183:1 221:1 238:1 257:1 
-0.9496180934311582 1:0.46153846 2:0.46153846 3:0.43548971 4:0.10204082 5:0.67923201 40:1 64:1 88:1 103:1 128:1 177:1 253:1 
-2 1:0.53846154 2:0.53846154 3:0.35139573 4:0.085714286 5:0.72061506 42:1 65:1 109:1 122:1 176:1 254:1 
-2 1:0.30769231 2:0.30769231 3:0.26563092 4:0.59340659 5:0.64253323 14:1 39:1 141:1 156:1 183:1 240:1 
-1.134117503601023 1:0.30769231 2:0.30769231 3:0.52823039 4:0.54725275 5:0.62518795 12:1 39:1 85:1 107:1 160:1 185:1 250:1 
-0.2342161418856121 1:0.69230769 2:0.69230769 3:0.44132136 4:0.35714286 5:0.67468457 106:1 114:1 173:1 182:1 200:1 
-0.6234613650899955 1:0.23076923 2:0.23076923 3:0.25839678 4:0.28571429 5:0.63089061 26:1 36:1 42:1 208:1 220:1 228:1 254:1 
-1.334510859482654 1:0.46153846 2:0.46153846 3:0.26780116 4:0.39010989 5:0.61198379 14:1 39:1 75:1 103:1 121:1 247:1 
-0.6669788541733925 1:0.46153846 2:0.46153846 3:0.31034483 4:0.55462185 5:0.62574928 24:1 31:1 54:1 119:1 131:1 191:1 255:1 
-1.553194777127979 1:0.38461538 2:0.38461538 3:0.63300493 4:0.58441558 5:0.66601512 53:1 77:1 155:1 207:1 215:1 252:1 
-0.8642352529077408 1:0.30769231 2:0.30769231 3:0.33724896 4:0.18461538 5:0.68577715 38:1 64:1 75:1 86:1 126:1 162:1 253:1 
-0.336141671790154 1:0.30769231 2:0.30769231 3:0.52027283 4:0.33626374 5:0.68191095 40:1 65:1 96:1 144:1 187:1 220:1 
-1.2681785398418 1:0.076923077 2:0.076923077 3:0.42980794 4:0.42857143 5:0.6567631 12:1 39:1 95:1 172:1 184:1 220:1 256:1 
-0.9049155834038783 1:0.53846154 2:0.53846154 3:0.46633826 4:0.94285714 5:0.75102076 24:1 70:1 99:1 142:1 176:1 215:1 252:1 
-2 1:0.38461538 2:0.38461538 3:0.28685108 4:0.38571429 5:0.64700988 74:1 78:1 98:1 156:1 171:1 
-2 1:0.38461538 2:0.38461538 3:0.34729064 4:0.54978355 5:0.65411346 135:1 141:1 156:1 217:1 
-2 1:0.23076923 2:0.23076923 3:0.34421182 4:0.57328386 5:0.54616237 12:1 36:1 45:1 60:1 108:1 208:1 246:1 
-1.498282009521176 1:0.53846154 2:0.53846154 3:0.72716938 4:0.25714286 5:0.77604699 20:1 41:1 64:1 75:1 128:1 221:1 246:1 
-0.2471718379487904 1:0.38461538 2:0.38461538 3:0.45504926 4:0.78231293 5:0.85662627 120:1 144:1 213:1 231:1 245:1 251:1 
-1.917563105577752 1:0.38461538 2:0.38461538 3:0.57409688 4:0.45306122 5:0.56516593 41:1 101:1 108:1 137:1 174:1 252:1 
-2 1:0.46153846 2:0.46153846 3:0.36968204 4:0.44155844 5:0.65332765 13:1 19:1 92:1 155:1 207:1 252:1 
-0.0651319015474308 1:0.46153846 2:0.46153846 3:0.28347515 4:0.59090909 5:0.63968062 23:1 76:1 134:1 143:1 189:1 242:1 255:1 
-1.132350720472409 1:0.30769231 2:0.30769231 3:0.49619346 4:0.45238095 5:0.6459592 40:1 85:1 112:1 156:1 176:1 238:1 252:1 
