svm_type c_svc
kernel_type rbf
gamma 0.0625
nr_class 2
total_sv 554
rho 10.6209
label 1 0
probA -4.25028
probB 0.262422
nr_sv 257 297
SV
2 1:0.33333333 2:0.33333333 3:0.27094788 4:0.31893004 5:0.65182908 62:1 85:1 102:1 252:1 
2 1:0.33333333 2:0.33333333 3:0.54189576 4:0.38065844 5:0.66566367 120:1 157:1 233:1 
2 1:0.33333333 2:0.33333333 3:0.27094788 4:0.31893004 5:0.65182908 138:1 158:1 193:1 252:1 
2 1:0.5 2:0.5 3:0.56652738 4:0.28806584 5:0.68064539 128:1 162:1 233:1 253:1 
0.2884570741704466 1:0.41666667 2:0.41666667 3:0.4335166 4:0.17173156 5:0.70701542 126:1 138:1 210:1 253:1 
1.471291370031251 1:0.58333333 2:0.58333333 3:0.47415879 4:0.42555181 5:0.6581636 92:1 122:1 233:1 
1.990732522512131 1:0.41666667 2:0.41666667 3:0.62763276 4:0.44781145 5:0.66788958 39:1 65:1 107:1 246:1 
2 1:0.58333333 2:0.58333333 3:0.5695725 4:0.31687243 5:0.686133 42:1 154:1 221:1 246:1 
2 1:0.5 2:0.5 3:0.45568507 4:0.25925926 5:0.69184659 6:1 42:1 219:1 247:1 
1.414763187571747 1:0.5 2:0.5 3:0.45568507 4:0.57613169 5:0.66795792 165:1 203:1 221:1 252:1 
2 1:0.41666667 2:0.41666667 3:0.50002199 4:0.25482748 5:0.75030208 184:1 222:1 234:1 
1.559520601780758 1:0.33333333 2:0.33333333 3:0.61825379 4:0.53483553 5:0.66041178 23:1 101:1 180:1 255:1 
0.9651893426026297 1:0.58333333 2:0.58333333 3:0.58073793 4:0.49494949 5:0.66125378 23:1 44:1 190:1 256:1 
0.0702131332269986 1:0.41666667 2:0.41666667 3:0.64042226 4:0.52375608 5:0.66281659 22:1 75:1 191:1 256:1 
2 1:0.58333333 2:0.58333333 3:0.58073793 4:0.58136925 5:0.65511417 22:1 164:1 191:1 255:1 
0.1003180756488575 1:0.41666667 2:0.41666667 3:0.52957994 4:0.45173962 5:0.66157272 79:1 112:1 191:1 255:1 
1.487818403549704 1:0.5 2:0.5 3:0.55729052 4:0.51066218 5:0.65819651 78:1 142:1 191:1 255:1 
2 1:0.33333333 2:0.33333333 3:0.49945357 4:0.30246914 5:0.70489766 15:1 172:1 229:1 247:1 
2 1:0.5 2:0.5 3:0.3744007 4:0.43209877 5:0.64946573 50:1 105:1 171:1 246:1 
1.88949509833767 1:0.58333333 2:0.58333333 3:0.47600616 4:0.27777778 5:0.72700026 50:1 173:1 198:1 248:1 
1.771494320885058 1:0.5 2:0.5 3:0.45568507 4:0.54012346 5:0.6482495 106:1 171:1 230:1 
0.5501468708135102 1:0.58333333 2:0.58333333 3:0.47600616 4:0.27777778 5:0.72700026 140:1 181:1 200:1 
0.07844618401875295 1:0.41666667 2:0.41666667 3:0.51955135 4:0.45610425 5:0.6593693 116:1 171:1 228:1 
2 1:0.83333333 2:0.83333333 3:0.52413506 4:0.43209877 5:0.66290825 32:1 80:1 106:1 248:1 
0.2284816557188937 1:0.75 2:0.75 3:0.6047064 4:0.21604938 5:0.63730345 142:1 176:1 222:1 250:1 
1.995439581651723 1:0.41666667 2:0.41666667 3:0.47890917 4:0.40809328 5:0.65233255 121:1 137:1 222:1 251:1 
0.9355606301160023 1:0.58333333 2:0.58333333 3:0.43536398 4:0.33950617 5:0.6503779 112:1 175:1 223:1 251:1 
0.5638893107446327 1:0.5 2:0.5 3:0.45568507 4:0.32407407 5:0.6482495 65:1 121:1 175:1 
1.597487980151647 1:0.58333333 2:0.58333333 3:0.64873543 4:0.50925926 5:0.68002346 17:1 34:1 214:1 256:1 
1.29321244536662 1:0.5 2:0.5 3:0.53696943 4:0.54012346 5:0.66770915 16:1 21:1 35:1 257:1 
2 1:0.33333333 2:0.33333333 3:0.47600616 4:0.25684192 5:0.67331248 12:1 31:1 51:1 77:1 78:1 102:1 253:1 
2 1:0.33333333 2:0.33333333 3:0.23215307 4:0.25684192 5:0.62587959 12:1 31:1 52:1 55:1 181:1 253:1 
0.09509818152610787 1:0.41666667 2:0.41666667 3:0.40950077 4:0.44519267 5:0.65332765 12:1 18:1 92:1 155:1 252:1 
2 1:0.41666667 2:0.41666667 3:0.40950077 4:0.37317621 5:0.65457152 92:1 102:1 120:1 245:1 254:1 264:1 
0.4813460003076208 1:0.25 2:0.25 3:0.55729052 4:0.28058361 5:0.68152202 52:1 54:1 208:1 252:1 
2 1:0.58333333 2:0.58333333 3:0.49476409 4:0.32996633 5:0.66538361 32:1 56:1 75:1 78:1 153:1 253:1 
2 1:0.33333333 2:0.33333333 3:0.47600616 4:0.25684192 5:0.67331248 18:1 51:1 54:1 76:1 153:1 253:1 
1.184542887026251 1:0.41666667 2:0.41666667 3:0.29865846 4:0.37317621 5:0.64462056 13:1 19:1 122:1 243:1 
0.787980553949835 1:0.41666667 2:0.41666667 3:0.50987464 4:0.58404558 5:0.72081777 47:1 167:1 204:1 257:1 
2 1:0.5 2:0.5 3:0.33375852 4:0.36562203 5:0.8702111 81:1 91:1 205:1 256:1 
1.120859572871296 1:0.41666667 2:0.41666667 3:0.78082252 4:0.3988604 5:0.72791243 64:1 161:1 166:1 256:1 
2 1:0.5 2:0.5 3:0.57761161 4:0.2991453 5:0.72791243 30:1 139:1 160:1 257:1 
1.073691078900819 1:0.33333333 2:0.33333333 3:0.57761161 4:0.31244065 5:0.72791243 13:1 140:1 220:1 256:1 
1.772414524492199 1:0.41666667 2:0.41666667 3:0.65520123 4:0.39332067 5:0.8254318 40:1 76:1 191:1 248:1 
1.730548181028468 1:0.58333333 2:0.58333333 3:0.59423796 4:0.39936401 5:0.762492 18:1 63:1 214:1 248:1 
0.7009609188897841 1:0.58333333 2:0.58333333 3:0.42218876 4:0.56652949 5:0.55482047 120:1 130:1 237:1 
1.751446352925518 1:0.083333333 2:0.083333333 3:0.46026877 4:0.48010974 5:0.51602815 12:1 76:1 183:1 208:1 255:1 
1.063842668293792 1:0.41666667 2:0.41666667 3:0.33447154 4:0.86419753 5:0.63547911 12:1 19:1 39:1 93:1 192:1 225:1 255:1 
2 1:0.33333333 2:0.33333333 3:0.55760509 4:0.57613169 5:0.62295911 12:1 20:1 41:1 88:1 93:1 219:1 255:1 
0.9251318039602449 1:0.41666667 2:0.41666667 3:0.60541942 4:0.51851852 5:0.61115455 12:1 20:1 40:1 51:1 65:1 93:1 257:1 
2 1:0.16666667 2:0.16666667 3:0.52413506 4:0.54012346 5:0.60568152 12:1 20:1 40:1 87:1 243:1 255:1 
1.5277671980246 1:0.25 2:0.25 3:0.35140579 4:0.49382716 5:0.51309617 12:1 18:1 76:1 192:1 225:1 255:1 
2 1:0.58333333 2:0.58333333 3:0.44285069 4:0.57613169 5:0.60750586 12:1 18:1 41:1 95:1 127:1 225:1 
1.72938045566165 1:0.25 2:0.25 3:0.42760988 4:0.49382716 5:0.53704066 14:1 75:1 111:1 126:1 255:1 
2 1:0.16666667 2:0.16666667 3:0.44285069 4:0.43209877 5:0.6567631 14:1 64:1 95:1 123:1 160:1 256:1 
0.9463012638959792 1:0.41666667 2:0.41666667 3:0.40220851 4:0.51851852 5:0.565546 14:1 41:1 160:1 192:1 225:1 
0.7027080066794201 1:0.33333333 2:0.33333333 3:0.4141621 4:0.43209877 5:0.6567631 14:1 19:1 39:1 75:1 88:1 93:1 256:1 
1.568228952324742 1:0.41666667 2:0.41666667 3:0.40220851 4:0.51851852 5:0.565546 14:1 19:1 39:1 208:1 225:1 255:1 
1.527240464529219 1:0.83333333 2:0.83333333 3:0.41104377 4:0.43209877 5:0.6567631 14:1 19:1 93:1 127:1 225:1 257:1 
2 1:0.75 2:0.75 3:0.42068223 5:0.67417727 14:1 19:1 76:1 93:1 128:1 225:1 
2 1:0.5 2:0.5 3:0.3915132 4:0.64814815 5:0.61931608 14:1 19:1 41:1 93:1 192:1 207:1 
0.08415692333916475 1:0.58333333 2:0.58333333 3:0.44285069 4:0.57613169 5:0.60750586 14:1 19:1 41:1 93:1 148:1 225:1 255:1 
2 1:0.5 2:0.5 3:0.51985693 4:0.43209877 5:0.6567631 14:1 19:1 41:1 113:1 183:1 
0.9007200766830977 1:0.33333333 2:0.33333333 3:0.3424406 4:0.43209877 5:0.6567631 14:1 19:1 40:1 63:1 93:1 192:1 256:1 
2 1:0.41666667 2:0.41666667 3:0.40220851 4:0.51851852 5:0.565546 14:1 19:1 40:1 93:1 111:1 219:1 
2 1:0.41666667 2:0.41666667 3:0.40220851 4:0.34567901 5:0.74798019 14:1 18:1 39:1 93:1 111:1 126:1 
2 1:0.25 2:0.25 3:0.42760988 4:0.49382716 5:0.53704066 14:1 18:1 39:1 207:1 257:1 276:1 
2 1:0.25 2:0.25 3:0.42760988 4:0.61728395 5:0.61685562 14:1 18:1 111:1 219:1 227:1 255:1 
0.1645307786064616 1:0.5 2:0.5 3:0.45568507 4:0.43209877 5:0.6567631 14:1 18:1 41:1 93:1 227:1 256:1 
0.5685913978421523 1:0.25 2:0.25 3:0.42760988 4:0.61728395 5:0.61685562 87:1 93:1 124:1 192:1 255:1 
0.8813681921213833 1:0.16666667 2:0.16666667 3:0.44285069 4:0.43209877 5:0.6567631 112:1 192:1 243:1 256:1 
1.923375112532756 1:0.16666667 2:0.16666667 3:0.44285069 4:0.54012346 5:0.59108679 88:1 95:1 192:1 208:1 255:1 
0.7490103935536829 1:0.5 2:0.5 3:0.5840288 4:0.43209877 5:0.6567631 19:1 51:1 65:1 93:1 112:1 257:1 
1.657708182753316 1:0.33333333 2:0.33333333 3:0.55760509 4:0.28806584 5:0.69056708 19:1 40:1 53:1 64:1 88:1 93:1 255:1 
0.9717089255045569 1:0.41666667 2:0.41666667 3:0.46994548 4:0.34567901 5:0.73277734 20:1 87:1 93:1 244:1 265:1 
0.8689351004350866 1:0.33333333 2:0.33333333 3:0.48588359 4:0.43209877 5:0.6567631 20:1 52:1 75:1 93:1 192:1 256:1 
2 1:0.66666667 2:0.66666667 3:0.60541942 5:0.66588481 20:1 52:1 128:1 225:1 257:1 
2 1:0.5 2:0.5 3:0.5840288 4:0.21604938 5:0.67692688 20:1 41:1 88:1 93:1 172:1 225:1 256:1 
2 3:0.3865769 4:0.51851852 5:0.56203765 13:1 39:1 51:1 64:1 192:1 255:1 
1.85726316612619 1:0.25 2:0.25 3:0.42760988 4:0.61728395 5:0.61685562 13:1 41:1 192:1 227:1 255:1 
0.066870622262182 1:0.41666667 2:0.41666667 3:0.46994548 4:0.34567901 5:0.73277734 13:1 40:1 76:1 93:1 225:1 257:1 
2 1:0.5 2:0.5 3:0.45568507 4:0.64814815 5:0.62507716 13:1 19:1 63:1 93:1 227:1 257:1 
0.4357617279696339 1:0.5 2:0.5 3:0.45568507 4:0.21604938 5:0.68844904 13:1 19:1 75:1 93:1 128:1 256:1 
2 1:0.58333333 2:0.58333333 3:0.32092415 4:0.28806584 5:0.72243941 13:1 19:1 194:1 209:1 225:1 266:1 
2 1:0.16666667 2:0.16666667 3:0.44285069 4:0.10802469 5:0.6786552 13:1 19:1 52:1 88:1 160:1 256:1 
0.9804331264479281 1:0.41666667 2:0.41666667 3:0.40220851 4:0.17283951 5:0.6871688 13:1 19:1 40:1 225:1 244:1 
2 1:0.41666667 2:0.41666667 3:0.53768245 4:0.17283951 5:0.67703356 13:1 20:1 41:1 128:1 192:1 256:1 
0.4848721591207746 1:0.16666667 2:0.16666667 3:0.44285069 4:0.21604938 5:0.68960125 13:1 18:1 88:1 183:1 256:1 
2 1:0.33333333 2:0.33333333 3:0.48588359 5:0.67125052 13:1 18:1 52:1 126:1 257:1 
2 1:0.16666667 2:0.16666667 3:0.36156633 4:0.43209877 5:0.6567631 13:1 18:1 40:1 93:1 192:1 207:1 255:1 
1.821615929265167 1:0.25 2:0.25 3:0.24934784 4:0.38556505 5:0.64624974 12:1 45:1 84:1 144:1 162:1 253:1 
1.069582983884247 1:0.25 2:0.25 3:0.49320093 4:0.45204179 5:0.65774862 12:1 75:1 180:1 236:1 252:1 
2 2:2.1279275e-16 3:0.38869246 4:0.46450617 5:0.65174759 12:1 84:1 108:1 123:1 216:1 252:1 
1.304921927680387 1:0.16666667 2:0.16666667 3:0.3306322 4:0.33333333 5:0.65430725 12:1 86:1 123:1 216:1 222:1 253:1 
2 1:0.58333333 2:0.58333333 3:0.38869246 4:0.42249657 5:0.653423 12:1 86:1 92:1 164:1 
2 1:0.16666667 2:0.16666667 3:0.46610614 4:0.33333333 5:0.66494925 12:1 76:1 123:1 235:1 252:1 265:1 
0.9603406481247844 1:0.33333333 2:0.33333333 3:0.29368476 4:0.30246914 5:0.65327069 12:1 20:1 37:1 84:1 223:1 253:1 
1.414002467220907 1:0.41666667 2:0.41666667 3:0.43223765 4:0.36139169 5:0.65984543 12:1 20:1 37:1 84:1 164:1 
1.89004121398164 1:0.33333333 2:0.33333333 3:0.29368476 4:0.30246914 5:0.65327069 12:1 18:1 84:1 146:1 200:1 253:1 
1.392439497539408 1:0.33333333 2:0.33333333 3:0.29368476 4:0.23045267 5:0.66073391 12:1 18:1 84:1 222:1 235:1 253:1 
0.01640233322799625 1:0.16666667 2:0.16666667 3:0.19515826 4:0.39506173 5:0.64260106 14:1 38:1 84:1 124:1 252:1 264:1 
1.916606154832386 1:0.41666667 2:0.41666667 3:0.12742129 4:0.36139169 5:0.63834426 14:1 19:1 38:1 84:1 234:1 264:1 
1.607328429922506 1:0.5 2:0.5 3:0.26810577 4:0.34567901 5:0.64886931 14:1 20:1 38:1 216:1 236:1 253:1 
2 1:0.25 2:0.25 3:0.49320093 4:0.45204179 5:0.65774862 36:1 75:1 144:1 188:1 252:1 
2 1:0.33333333 2:0.33333333 3:0.6262117 4:0.44650206 5:0.66521184 47:1 65:1 75:1 222:1 264:1 
2 1:0.33333333 2:0.33333333 3:0.18284245 4:0.44650206 5:0.64132955 45:1 84:1 146:1 180:1 253:1 
2 1:0.58333333 2:0.58333333 3:0.47578285 4:0.42249657 5:0.65844925 45:1 76:1 128:1 200:1 252:1 
2 1:0.33333333 2:0.33333333 3:0.6262117 4:0.51851852 5:0.66073391 46:1 75:1 123:1 128:1 144:1 252:1 
2 1:0.33333333 2:0.33333333 3:0.40452708 4:0.51851852 5:0.65078295 46:1 84:1 180:1 188:1 216:1 252:1 
2 1:0.25 2:0.25 3:0.37127438 4:0.38556505 5:0.65415522 63:1 84:1 162:1 216:1 254:1 
2 1:0.33333333 2:0.33333333 3:0.73705402 4:0.44650206 5:0.67118241 63:1 77:1 125:1 252:1 
2 1:0.25 2:0.25 3:0.49320093 4:0.38556505 5:0.6620607 85:1 123:1 144:1 236:1 252:1 
2 1:0.25 2:0.25 3:0.49320093 4:0.31908832 5:0.66883683 76:1 84:1 152:1 217:1 252:1 
2 1:0.083333333 2:0.083333333 3:0.58464584 4:0.34567901 5:0.67255067 64:1 75:1 180:1 216:1 253:1 
2 1:0.33333333 2:0.33333333 3:0.51536939 4:0.3744856 5:0.66446552 64:1 84:1 164:1 180:1 200:1 216:1 
0.9369428918203823 1:0.16666667 2:0.16666667 3:0.3306322 4:0.33333333 5:0.65430725 13:1 36:1 84:1 109:1 
2 1:0.16666667 2:0.16666667 3:0.46610614 4:0.27160494 5:0.67381757 13:1 18:1 36:1 123:1 222:1 252:1 
0.1003689731581655 1:0.5 2:0.5 3:0.52740656 4:0.43209877 5:0.66642138 41:1 65:1 116:1 254:1 264:1 
1.06307459171527 1:0.5 2:0.5 3:0.59912806 4:0.28806584 5:0.67125052 40:1 46:1 101:1 116:1 253:1 
2 1:0.58333333 2:0.58333333 3:0.56326731 4:0.5473251 5:0.67125052 29:1 45:1 65:1 116:1 264:1 
2 1:0.33333333 2:0.33333333 3:0.33956455 4:0.51939145 5:0.52124055 12:1 24:1 30:1 76:1 105:1 251:1 
0.09497471400903666 1:0.58333333 2:0.58333333 3:0.25828018 4:0.58813443 5:0.57049778 12:1 26:1 31:1 117:1 251:1 
2 1:0.25 2:0.25 3:0.37651199 4:0.33607682 5:0.64396901 12:1 26:1 30:1 42:1 75:1 88:1 
1.530429469433419 1:0.66666667 2:0.66666667 3:0.46657137 4:0.66529492 5:0.61359786 12:1 44:1 58:1 105:1 251:1 
0.2381144374749284 1:0.66666667 2:0.66666667 3:0.46657137 4:0.29492455 5:0.62956085 12:1 32:1 44:1 211:1 
2 1:0.5 2:0.5 3:0.36859468 4:0.52812071 5:0.55121188 12:1 30:1 42:1 57:1 107:1 251:1 
2 1:0.58333333 2:0.58333333 3:0.25828018 4:0.37208505 5:0.67266093 14:1 26:1 43:1 100:1 249:1 
0.5344264036587806 1:0.58333333 2:0.58333333 3:0.25828018 4:0.37208505 5:0.67266093 14:1 25:1 31:1 211:1 251:1 
2 1:0.66666667 2:0.66666667 3:0.23795909 4:0.29492455 5:0.65350534 14:1 25:1 31:1 43:1 117:1 
2 1:0.58333333 2:0.58333333 3:0.42084891 4:0.37208505 5:0.64347146 57:1 105:1 210:1 232:1 
0.4717050459809751 1:0.58333333 2:0.58333333 3:0.50213327 4:0.48010974 5:0.62157936 42:1 77:1 107:1 141:1 
2 1:0.58333333 2:0.58333333 3:0.58341764 4:0.58813443 5:0.62887673 32:1 58:1 76:1 107:1 251:1 
2 1:0.66666667 2:0.66666667 3:0.54277546 4:0.29492455 5:0.62157936 32:1 42:1 57:1 89:1 
0.8951305354595602 1:0.58333333 2:0.58333333 3:0.33956455 4:0.37208505 5:0.6580662 25:1 31:1 42:1 57:1 251:1 
2 1:0.33333333 2:0.33333333 3:0.44117 4:0.59795486 5:0.60485622 13:1 100:1 107:1 119:1 251:1 
2 1:0.16666667 2:0.16666667 3:0.37827139 4:0.75857339 5:0.75388759 12:1 71:1 120:1 168:1 240:1 
2 1:0.16666667 2:0.16666667 3:0.37827139 4:0.56652949 5:0.83832856 12:1 69:1 84:1 100:1 156:1 241:1 
2 1:0.58333333 2:0.58333333 3:0.34160175 4:0.51851852 5:0.73277734 12:1 69:1 109:1 176:1 213:1 
0.005901779509909695 1:0.16666667 2:0.16666667 3:0.55245217 4:0.56652949 5:0.90869603 12:1 101:1 135:1 241:1 252:1 
0.1691869977334192 1:0.33333333 2:0.33333333 3:0.42181658 4:0.7037037 5:0.76470333 12:1 101:1 141:1 156:1 240:1 
2 1:0.083333333 2:0.083333333 3:0.44526399 4:0.69135802 5:0.76961502 12:1 100:1 108:1 143:1 156:1 252:1 
2 1:0.16666667 2:0.16666667 3:0.46536178 4:0.56652949 5:0.87351229 12:1 100:1 109:1 120:1 143:1 
2 1:0.5 2:0.5 3:0.3879481 4:0.60493827 5:0.79358874 14:1 24:1 41:1 143:1 176:1 254:1 
0.5143515843947827 1:0.41666667 2:0.41666667 3:0.36802546 4:0.3744856 5:0.69897336 24:1 110:1 121:1 176:1 
1.066107448104079 1:0.5 2:0.5 3:0.52342204 4:0.43209877 5:0.64156025 24:1 41:1 44:1 176:1 252:1 
2 1:0.58333333 2:0.58333333 3:0.27742988 4:0.95061728 5:0.73997869 26:1 69:1 143:1 213:1 252:1 
0.7984821594792307 1:0.33333333 2:0.33333333 3:0.34561249 4:0.7037037 5:0.75672183 26:1 99:1 141:1 252:1 276:1 
2 1:0.58333333 2:0.58333333 3:0.40577362 4:0.30246914 5:0.70685248 26:1 101:1 122:1 176:1 
0.995598054988434 1:0.5 2:0.5 3:0.45568507 4:0.60493827 5:0.80879159 26:1 101:1 214:1 252:1 
0.7033915544694048 1:0.41666667 2:0.41666667 3:0.43974696 4:0.66255144 5:0.77623961 39:1 70:1 141:1 241:1 252:1 
2 1:0.16666667 2:0.16666667 3:0.46536178 4:0.66255144 5:0.77968899 71:1 84:1 100:1 240:1 252:1 
0.6660057763154645 1:0.33333333 2:0.33333333 3:0.49802067 4:0.7037037 5:0.77268482 71:1 108:1 137:1 252:1 
2 1:0.25 2:0.25 3:0.48277985 4:0.62654321 5:0.79845365 71:1 101:1 168:1 240:1 253:1 
2 1:0.5 2:0.5 3:0.52342204 4:0.43209877 5:0.64156025 71:1 85:1 101:1 176:1 
2 1:0.41666667 2:0.41666667 3:0.36802546 4:0.51851852 5:0.73277734 69:1 84:1 101:1 122:1 241:1 
0.4764418975072129 1:0.5 2:0.5 3:0.32021113 4:0.60493827 5:0.77838589 69:1 99:1 141:1 242:1 253:1 
2 1:0.5 2:0.5 3:0.45568507 4:0.60493827 5:0.80879159 70:1 86:1 101:1 122:1 136:1 142:1 252:1 
1.398242551242954 1:0.25 2:0.25 3:0.48277985 4:0.51851852 5:0.73277734 99:1 108:1 121:1 
2 1:0.16666667 2:0.16666667 3:0.55245217 4:0.75857339 5:0.76796108 99:1 120:1 135:1 143:1 252:1 
1.645127365900249 1:0.25 2:0.25 3:0.40149549 4:0.62654321 5:0.78385892 99:1 120:1 141:1 156:1 253:1 
2 1:0.5 2:0.5 3:0.32021113 4:0.60493827 5:0.77838589 99:1 170:1 213:1 254:1 
2 1:0.083333333 2:0.083333333 3:0.35147434 4:0.60493827 5:0.78540259 108:1 120:1 192:1 240:1 253:1 
1.041922930583654 1:0.41666667 2:0.41666667 3:0.43974696 4:0.66255144 5:0.77623961 108:1 143:1 176:1 204:1 
2 1:0.41666667 2:0.41666667 3:0.36802546 4:0.51851852 5:0.73277734 110:1 120:1 176:1 240:1 
2 1:0.5 2:0.5 3:0.32021113 4:0.77777778 5:0.74798019 141:1 156:1 214:1 228:1 254:1 
0.2910897131376873 1:0.25 2:0.25 3:0.32021113 4:0.51851852 5:0.73277734 109:1 156:1 242:1 252:1 
2 1:0.25 2:0.25 3:0.56406422 4:0.51851852 5:0.73277734 101:1 120:1 135:1 229:1 
0.12488637899794 1:0.41666667 2:0.41666667 3:0.51146845 4:0.51851852 5:0.73277734 101:1 143:1 205:1 
0.3162674128988436 1:0.25 2:0.25 3:0.48277985 4:0.51851852 5:0.73277734 101:1 121:1 168:1 252:1 
2 1:0.41666667 2:0.41666667 3:0.51146845 4:0.51851852 5:0.73277734 64:1 70:1 86:1 101:1 122:1 136:1 142:1 252:1 
0.6017267264544022 1:0.25 2:0.25 3:0.48277985 4:0.19444444 5:0.71088524 64:1 109:1 174:1 253:1 
2 1:0.33333333 2:0.33333333 3:0.34561249 4:0.45679012 5:0.66094388 43:1 204:1 228:1 241:1 
1.280368716014909 1:0.5 2:0.5 3:0.3879481 4:0.60493827 5:0.79358874 44:1 71:1 215:1 253:1 278:1 
2 1:0.66666667 2:0.66666667 3:0.36085331 4:0.3744856 5:0.69993919 44:1 141:1 158:1 214:1 253:1 
2 1:0.66666667 2:0.66666667 3:0.29989004 4:0.3744856 5:0.70814873 44:1 206:1 213:1 254:1 
1.132347374687007 1:0.33333333 2:0.33333333 3:0.42181658 4:0.45679012 5:0.63699939 42:1 99:1 141:1 156:1 253:1 
2 1:0.41666667 2:0.41666667 3:0.51146845 4:0.23045267 5:0.70621707 42:1 99:1 174:1 
0.5772334503301048 1:0.5 2:0.5 3:0.3879481 4:0.43209877 5:0.67196595 42:1 100:1 141:1 215:1 254:1 
1.783573177938981 1:0.41666667 2:0.41666667 3:0.43974696 4:0.51851852 5:0.73277734 42:1 65:1 141:1 156:1 252:1 
2 1:0.33333333 2:0.33333333 3:0.49802067 4:0.45679012 5:0.6130549 41:1 43:1 63:1 192:1 253:1 
0.6688541838945669 1:0.5 2:0.5 3:0.45568507 4:0.60493827 5:0.80879159 40:1 71:1 176:1 215:1 254:1 
0.5802472095538131 1:0.33333333 2:0.33333333 3:0.2694084 4:0.45679012 5:0.68488837 25:1 170:1 204:1 254:1 
1.648075766832352 1:0.33333333 2:0.33333333 3:0.34561249 4:0.45679012 5:0.66094388 13:1 24:1 141:1 176:1 192:1 253:1 
0.02485812903513789 1:0.5 2:0.5 3:0.32021113 4:0.43209877 5:0.6871688 13:1 69:1 176:1 206:1 252:1 
0.8247215424137271 1:0.33333333 2:0.33333333 3:0.42181658 4:0.58024691 5:0.82855529 13:1 42:1 143:1 215:1 252:1 
2 1:0.33333333 2:0.33333333 3:0.49802067 4:0.58024691 5:0.85249978 13:1 41:1 204:1 214:1 252:1 
2 1:0.33333333 2:0.33333333 3:0.57043946 4:0.3600823 5:0.65772892 25:1 40:1 53:1 100:1 249:1 
2 1:0.16666667 2:0.16666667 3:0.61086431 4:0.468107 5:0.67218708 12:1 24:1 39:1 52:1 63:1 236:1 
0.1541865798610306 1:0.16666667 2:0.16666667 3:0.50002199 4:0.54012346 5:0.64979743 12:1 24:1 51:1 63:1 229:1 250:1 
2 1:0.33333333 2:0.33333333 3:0.38065335 4:0.49691358 5:0.64013352 12:1 26:1 40:1 195:1 206:1 250:1 
1.405704439508286 1:0.16666667 2:0.16666667 3:0.38917968 4:0.39609053 5:0.64979743 12:1 25:1 40:1 64:1 235:1 251:1 264:1 
2 1:0.5 2:0.5 3:0.45568507 4:0.64814815 5:0.64216836 14:1 24:1 41:1 119:1 236:1 251:1 
2 1:0.33333333 2:0.33333333 3:0.38065335 4:0.49691358 5:0.64013352 14:1 26:1 51:1 64:1 68:1 204:1 251:1 
2 1:0.16666667 2:0.16666667 3:0.50002199 4:0.54012346 5:0.64979743 14:1 26:1 40:1 51:1 63:1 195:1 251:1 
2 1:0.5 2:0.5 3:0.45568507 4:0.43209877 5:0.6567631 14:1 25:1 53:1 65:1 158:1 250:1 
2 1:0.33333333 2:0.33333333 3:0.75581195 4:0.49691358 5:0.68223372 24:1 39:1 53:1 65:1 196:1 250:1 
2 1:0.58333333 2:0.58333333 3:0.4861667 4:0.63271605 5:0.64444879 24:1 51:1 117:1 140:1 250:1 
2 1:0.25 2:0.25 3:0.43536398 4:0.67760943 5:0.64044537 24:1 111:1 204:1 215:1 228:1 250:1 
2 1:0.41666667 2:0.41666667 3:0.33375852 4:0.37208505 5:0.63487099 13:1 26:1 40:1 175:1 204:1 250:1 
2 1:0.33333333 2:0.33333333 3:0.2868637 4:0.58333333 5:0.63136264 13:1 25:1 119:1 132:1 213:1 251:1 
2 1:0.33333333 2:0.33333333 3:0.2868637 4:0.38888889 5:0.64055452 14:1 24:1 36:1 44:1 174:1 252:1 
1.613985200858601 1:0.25 2:0.25 3:0.33375852 4:0.41245791 5:0.64581704 24:1 84:1 92:1 229:1 252:1 
2 1:0.25 2:0.25 3:0.33375852 4:0.41245791 5:0.64581704 36:1 68:1 85:1 123:1 228:1 254:1 
2 1:0.25 2:0.25 3:0.43536398 4:0.49102132 5:0.6529841 36:1 44:1 84:1 92:1 111:1 228:1 252:1 
0.1337965320518467 1:0.25 2:0.25 3:0.33375852 4:0.41245791 5:0.64581704 85:1 228:1 239:1 253:1 
2 1:0.33333333 2:0.33333333 3:0.2868637 4:0.30246914 5:0.63529199 85:1 91:1 220:1 230:1 252:1 
2 1:0.25 2:0.25 3:0.33375852 4:0.41245791 5:0.64581704 66:1 84:1 91:1 111:1 252:1 276:1 
0.06709661566415084 1:0.58333333 2:0.58333333 3:0.40996261 4:0.40123457 5:0.65379854 44:1 189:1 229:1 
0.04139585873118297 1:0.083333333 2:0.083333333 3:0.21183198 4:0.31576448 5:0.6221006 13:1 25:1 36:1 42:1 252:1 264:1 
1.326618873463212 1:0.25 2:0.25 3:0.40292839 4:0.7037037 5:0.77034592 12:1 47:1 60:1 96:1 179:1 246:1 
0.5787464629506845 1:0.33333333 2:0.33333333 3:0.42302617 4:0.37722908 5:0.66852359 12:1 85:1 153:1 208:1 246:1 
0.2177580979127018 1:0.5 2:0.5 3:0.30327689 4:0.43209877 5:0.67272609 14:1 25:1 46:1 61:1 153:1 
2 1:0.5 2:0.5 3:0.37948098 4:0.55555556 5:0.60089262 45:1 60:1 72:1 154:1 246:1 
2 1:0.58333333 2:0.58333333 3:0.39741135 4:0.61728395 5:0.69667058 37:1 46:1 108:1 153:1 179:1 248:1 
2 1:0.5 2:0.5 3:0.45568507 4:0.18518519 5:0.67956737 37:1 46:1 109:1 128:1 246:1 
0.601914624907954 1:0.41666667 2:0.41666667 3:0.35915989 4:0.29320988 5:0.67964338 13:1 25:1 46:1 122:1 246:1 
1.477843951331409 1:0.41666667 2:0.41666667 3:0.19659116 4:0.74074074 5:0.68070758 12:1 24:1 36:1 213:1 249:1 266:1 
1.698345905211709 1:0.083333333 2:0.083333333 3:0.46261271 4:0.74074074 5:0.68070758 12:1 24:1 96:1 108:1 208:1 251:1 
2 1:0.33333333 2:0.33333333 3:0.33593578 4:0.88477366 5:0.71589132 12:1 24:1 96:1 155:1 165:1 251:1 
2 1:0.41666667 2:0.41666667 3:0.35915989 4:0.63271605 5:0.62962601 12:1 38:1 72:1 153:1 244:1 250:1 
0.712721495212936 1:0.16666667 2:0.16666667 3:0.27787552 4:0.78002245 5:0.78104639 12:1 60:1 96:1 120:1 153:1 276:1 
0.2703431841583349 1:0.41666667 2:0.41666667 3:0.35915989 4:0.74074074 5:0.68070758 12:1 62:1 179:1 207:1 249:1 
2 1:0.58333333 2:0.58333333 3:0.18224686 4:0.74074074 5:0.68070758 14:1 26:1 38:1 46:1 120:1 153:1 251:1 
2 1:0.5 2:0.5 3:0.30327689 4:0.55555556 5:0.6567631 14:1 25:1 46:1 61:1 153:1 251:1 
0.8447578729434794 1:0.25 2:0.25 3:0.49671804 4:0.65432099 5:0.58598214 24:1 97:1 231:1 251:1 
1.076034838394919 1:0.5 2:0.5 3:0.37948098 4:0.80246914 5:0.77648554 36:1 46:1 72:1 165:1 251:1 
2 1:0.58333333 2:0.58333333 3:0.39741135 4:0.74074074 5:0.68070758 47:1 122:1 154:1 251:1 
1.547723431342437 1:0.5 2:0.5 3:0.37948098 4:0.92592593 5:0.71263357 45:1 60:1 84:1 179:1 215:1 250:1 
1.540691096473702 1:0.66666667 2:0.66666667 3:0.48108643 4:0.82716049 5:0.77192468 46:1 60:1 154:1 166:1 251:1 
2 1:0.25 2:0.25 3:0.40292839 4:0.91358025 5:0.71754526 72:1 144:1 167:1 179:1 192:1 251:1 
0.5970778744678555 1:0.58333333 2:0.58333333 3:0.39741135 4:0.74074074 5:0.68070758 37:1 46:1 108:1 153:1 179:1 250:1 
1.538552064024994 1:0.66666667 2:0.66666667 3:0.30746064 4:0.32407407 5:0.66402469 86:1 206:1 235:1 250:1 
0.769617590095353 1:0.58333333 2:0.58333333 3:0.41504289 4:0.44753086 5:0.65919555 101:1 206:1 235:1 251:1 
2 1:0.5 2:0.5 3:0.45568507 4:0.72016461 5:0.910086 12:1 34:1 179:1 207:1 249:1 
0.2694582696971975 1:0.25 2:0.25 3:0.54277546 4:0.7441701 5:0.86317435 12:1 96:1 155:1 207:1 251:1 
0.7023139190647261 1:0.33333333 2:0.33333333 3:0.54277546 4:0.47574511 5:0.6387803 12:1 96:1 102:1 208:1 250:1 
1.764249331186665 1:0.5 2:0.5 3:0.36859468 4:0.52812071 5:0.64034402 35:1 50:1 54:1 251:1 
0.9462455440774481 1:0.66666667 2:0.66666667 3:0.54277546 4:0.36351166 5:0.6606724 34:1 56:1 208:1 250:1 
2 1:0.5 2:0.5 3:0.45568507 4:0.43209877 5:0.6567631 56:1 72:1 122:1 208:1 250:1 
2 1:0.41666667 2:0.41666667 3:0.44898581 4:0.32647462 5:0.67003969 54:1 72:1 82:1 97:1 104:1 217:1 
0.5643752951108201 1:0.41666667 2:0.41666667 3:0.35519616 4:0.49931413 5:0.65162086 54:1 72:1 242:1 250:1 276:1 
2 1:0.41666667 2:0.41666667 3:0.54277546 4:0.24005487 5:0.67161845 54:1 102:1 208:1 
2 1:0.25 2:0.25 3:0.54277546 4:0.60013717 5:0.53479281 13:1 155:1 207:1 216:1 
2 1:0.5 2:0.5 3:0.36859468 4:0.52812071 5:0.64034402 13:1 56:1 129:1 144:1 251:1 
2 1:0.33333333 2:0.33333333 3:0.54277546 4:0.39718169 5:0.65598124 13:1 54:1 83:1 102:1 131:1 208:1 
2 1:0.58333333 2:0.58333333 3:0.23460946 4:0.38408779 5:0.72713057 127:1 157:1 163:1 249:1 264:1 
1.136641558705745 1:0.66666667 2:0.66666667 3:0.44943242 4:0.43209877 5:0.6567631 128:1 142:1 162:1 249:1 264:1 
1.231786636915686 1:0.66666667 2:0.66666667 3:0.35407961 4:0.57109557 5:0.60659369 12:1 57:1 129:1 227:1 248:1 
1.389192300186686 1:0.41666667 2:0.41666667 3:0.65889598 4:0.47008547 5:0.59291113 39:1 75:1 226:1 246:1 
1.36585910907283 1:0.5 2:0.5 3:0.45568507 4:0.37808642 5:0.68803753 26:1 221:1 223:1 256:1 
2 1:0.5 2:0.5 3:0.45568507 4:0.54012346 5:0.64112588 119:1 189:1 239:1 256:1 
1.303952993564474 1:0.41666667 2:0.41666667 3:0.54277546 4:0.35584604 5:0.6567631 155:1 174:1 198:1 256:1 
2 1:0.58333333 2:0.58333333 3:0.69518364 4:0.40329218 5:0.55414386 54:1 130:1 238:1 256:1 
2 1:0.66666667 2:0.66666667 3:0.61051243 4:0.37037037 5:0.63547911 54:1 103:1 166:1 257:1 
2 1:0.58333333 2:0.58333333 3:0.45568507 4:0.56565657 5:0.4241595 10:1 24:1 44:1 59:1 73:1 92:1 251:1 
0.07572213002351784 1:0.58333333 2:0.58333333 3:0.26810577 4:0.56565657 5:0.4031094 26:1 38:1 239:1 250:1 
2 1:0.5 2:0.5 3:0.25247416 4:0.43209877 5:0.55642429 26:1 37:1 43:1 59:1 
-2 1:0.75 2:0.75 3:0.44396136 4:0.45679012 5:0.67307692 43:1 57:1 84:1 92:1 106:1 
-2 1:0.33333333 2:0.33333333 3:0.57761161 4:0.42766698 5:0.72791243 13:1 30:1 185:1 191:1 204:1 257:1 
-0.2863599745069306 1:0.5 2:0.5 3:0.80404662 4:0.48611111 5:0.7505864 32:1 51:1 71:1 89:1 103:1 131:1 256:1 
-2 1:0.33333333 2:0.33333333 3:0.44117 4:0.78999875 5:0.78259925 12:1 24:1 33:1 179:1 207:1 227:1 
-2 1:0.41666667 2:0.41666667 3:0.53384311 4:0.43995511 5:0.66064177 36:1 46:1 85:1 123:1 164:1 236:1 252:1 
-0.8837307487099518 1:0.33333333 2:0.33333333 3:0.60809325 4:0.50300728 5:0.55414386 23:1 39:1 93:1 186:1 207:1 220:1 
-2 1:0.25 2:0.25 3:0.48277985 4:0.51851852 5:0.73277734 12:1 26:1 101:1 137:1 204:1 253:1 
-0.1822451658453942 1:0.41666667 2:0.41666667 3:0.62763276 4:0.36924804 5:0.67935687 6:1 20:1 39:1 63:1 221:1 228:1 247:1 
-1.48790223383602 1:0.083333333 2:0.083333333 3:0.46166186 4:0.56303779 5:0.66408346 12:1 144:1 161:1 171:1 219:1 252:1 
-1.990098314480453 1:0.66666667 2:0.66666667 3:0.48126406 4:0.3744856 5:0.6475776 8:1 19:1 91:1 111:1 119:1 222:1 
-0.4791474957041045 1:0.16666667 2:0.16666667 3:0.44285069 4:0.21604938 5:0.68960125 14:1 18:1 76:1 149:1 172:1 193:1 255:1 
-1.918490583617725 1:0.25 2:0.25 3:0.22014515 4:0.33127572 5:0.64726823 18:1 45:1 60:1 90:1 121:1 192:1 252:1 
-1.589800892696613 1:0.66666667 2:0.66666667 3:0.46700951 4:0.72016461 5:0.66692971 14:1 27:1 41:1 45:1 178:1 235:1 
-0.2205897661462362 1:0.33333333 2:0.33333333 3:0.42181658 4:0.58024691 5:0.82855529 100:1 122:1 176:1 192:1 214:1 240:1 252:1 
-2 1:0.5 2:0.5 3:0.32021113 4:0.77777778 5:0.74798019 86:1 110:1 142:1 192:1 214:1 252:1 
-0.1608689436021499 1:0.33333333 2:0.33333333 3:0.4891551 4:0.79218107 5:0.71610787 39:1 53:1 73:1 105:1 119:1 168:1 251:1 
-1.79965248442642 1:0.58333333 2:0.58333333 3:0.36189542 4:0.39281706 5:0.35574668 10:1 43:1 120:1 212:1 229:1 
-1.729401812519222 1:0.33333333 2:0.33333333 3:0.32658637 4:0.468107 5:0.66867498 13:1 26:1 99:1 105:1 145:1 
-0.9365459893967534 1:0.25 2:0.25 3:0.46954036 4:0.48971193 5:0.66449286 19:1 35:1 88:1 119:1 147:1 220:1 252:1 
-0.354491563035035 1:0.33333333 2:0.33333333 3:0.31812691 4:0.47530864 5:0.67858503 50:1 111:1 121:1 160:1 165:1 222:1 251:1 
-0.781649017355328 1:0.33333333 2:0.33333333 3:0.90855509 4:0.43209877 5:0.6567631 89:1 155:1 174:1 198:1 219:1 255:1 
-0.1508907105498334 1:0.66666667 2:0.66666667 3:0.57505371 4:0.28806584 5:0.67915275 19:1 55:1 148:1 152:1 166:1 185:1 253:1 
-2 1:0.083333333 2:0.083333333 3:0.7136066 4:0.34567901 5:0.58835027 12:1 40:1 63:1 76:1 100:1 162:1 
-0.04917490687807372 1:0.33333333 2:0.33333333 3:0.32658637 4:0.57613169 5:0.69056708 86:1 117:1 180:1 217:1 231:1 
-2 1:0.66666667 2:0.66666667 3:0.4892989 4:0.86419753 5:0.64242898 14:1 87:1 93:1 127:1 149:1 225:1 257:1 
-2 2:2.1279275e-16 3:0.38869246 4:0.41049383 5:0.65398148 12:1 38:1 75:1 123:1 144:1 217:1 252:1 
-2 1:0.5 2:0.5 3:0.59912806 4:0.28806584 5:0.66400681 130:1 186:1 233:1 244:1 
-0.2226606445456996 1:0.5 2:0.5 3:0.45568507 4:0.43209877 5:0.6567631 12:1 54:1 104:1 154:1 192:1 217:1 250:1 
-2 1:0.5 2:0.5 3:0.45568507 4:0.37808642 5:0.68803753 26:1 87:1 91:1 222:1 238:1 256:1 
-2 1:0.41666667 2:0.41666667 3:0.42442185 4:0.29068462 5:0.67266762 19:1 64:1 122:1 154:1 220:1 241:1 
-0.2633623207987703 1:0.5 2:0.5 3:0.35407961 4:0.27497194 5:0.64959604 18:1 51:1 79:1 162:1 180:1 187:1 
-0.2479357812855112 1:0.5 2:0.5 3:0.3879481 4:0.60493827 5:0.79358874 43:1 71:1 101:1 122:1 214:1 240:1 253:1 
-0.3161204882560404 1:0.66666667 2:0.66666667 3:0.57448529 4:0.41049383 5:0.66510127 45:1 75:1 92:1 125:1 126:1 152:1 
-2 1:0.33333333 2:0.33333333 3:0.3424406 4:0.72016461 5:0.62537368 14:1 19:1 192:1 219:1 227:1 255:1 
-2 1:0.25 2:0.25 3:0.45568507 4:0.48260382 5:0.65265833 23:1 37:1 78:1 191:1 240:1 255:1 
-2 1:0.41666667 2:0.41666667 3:0.36802546 4:0.3744856 5:0.69897336 43:1 84:1 101:1 206:1 253:1 
-1.37264480530303 1:0.83333333 2:0.83333333 3:0.63349461 4:0.42087542 5:0.67660281 56:1 113:1 116:1 141:1 200:1 257:1 
-0.349962285905531 1:0.41666667 2:0.41666667 3:0.50987464 4:0.46058879 5:0.70662844 14:1 47:1 63:1 140:1 160:1 237:1 256:1 
-1.985820729848745 1:0.25 2:0.25 3:0.32109083 4:0.38408779 5:0.67286232 14:1 24:1 54:1 102:1 169:1 216:1 
-1.281319769333332 1:0.16666667 2:0.16666667 3:0.42084891 4:0.44687137 5:0.69272869 14:1 25:1 119:1 136:1 172:1 243:1 
-2 1:0.41666667 2:0.41666667 3:0.18966351 4:0.43763849 5:0.64233421 60:1 84:1 122:1 140:1 235:1 252:1 
-0.2199814626706656 1:0.58333333 2:0.58333333 3:0.40577362 4:0.51851852 5:0.73277734 39:1 44:1 69:1 85:1 142:1 194:1 
-0.009968221732609635 1:0.16666667 2:0.16666667 3:0.48108643 4:0.4657688 5:0.65203935 13:1 37:1 61:1 128:1 192:1 232:1 251:1 
-2 1:0.25 2:0.25 3:0.55729052 4:0.52749719 5:0.66023803 12:1 77:1 155:1 180:1 243:1 
-2 1:0.5 2:0.5 3:0.52342204 4:0.25925926 5:0.70237164 42:1 65:1 109:1 142:1 
-0.2398798009745857 1:0.16666667 2:0.16666667 3:0.52413506 4:0.32407407 5:0.70784467 19:1 52:1 95:1 171:1 184:1 244:1 256:1 
-2 1:0.83333333 2:0.83333333 3:0.45568507 4:0.38778094 5:0.6567631 41:1 44:1 57:1 93:1 247:1 
-1.532907360836665 1:0.5 2:0.5 3:0.80404662 4:0.48611111 5:0.7505864 10:1 52:1 54:1 119:1 190:1 255:1 
-0.7968772411179867 1:0.083333333 2:0.083333333 3:0.54735916 4:0.57613169 5:0.62157936 19:1 63:1 111:1 171:1 183:1 244:1 255:1 
-2 1:0.66666667 2:0.66666667 3:0.21013855 4:0.48148148 5:0.67057235 45:1 61:1 165:1 194:1 249:1 
-1.021921119326458 1:0.5 2:0.5 3:0.62986585 4:0.32407407 5:0.64112588 52:1 56:1 69:1 87:1 139:1 198:1 256:1 
-0.3221134571773402 1:0.41666667 2:0.41666667 3:0.35519616 4:0.67215364 5:0.69898358 35:1 74:1 83:1 170:1 207:1 
-2 1:0.58333333 2:0.58333333 3:0.45568507 4:0.56565657 5:0.4241595 24:1 58:1 140:1 228:1 238:1 
-2 1:0.25 2:0.25 3:0.54277546 4:0.38408779 5:0.65793589 12:1 24:1 54:1 102:1 208:1 
-1.280505339732725 1:0.41666667 2:0.41666667 3:0.44898581 4:0.32647462 5:0.67003969 54:1 74:1 102:1 179:1 208:1 
-0.03767060999716475 1:0.5 2:0.5 3:0.57761161 4:0.63152896 5:0.72791243 12:1 47:1 83:1 161:1 166:1 206:1 257:1 
-2 1:0.41666667 2:0.41666667 3:0.40209098 4:0.39368999 5:0.65315451 12:1 31:1 157:1 174:1 243:1 250:1 
-2 1:0.58333333 2:0.58333333 3:0.47415879 4:0.26842499 5:0.67600161 18:1 128:1 234:1 
-2 1:0.083333333 2:0.083333333 3:0.56326731 4:0.40591096 5:0.67125052 75:1 88:1 100:1 144:1 231:1 
-0.4908255672200669 1:0.083333333 2:0.083333333 3:0.53905364 4:0.25925926 5:0.70120219 13:1 40:1 70:1 100:1 109:1 121:1 253:1 
-1.975331399904183 1:0.16666667 2:0.16666667 3:0.46610614 4:0.51851852 5:0.65354711 47:1 75:1 108:1 123:1 151:1 216:1 252:1 
-1.370788809017518 1:0.66666667 2:0.66666667 3:0.30221109 4:0.15843621 5:0.68849134 19:1 30:1 104:1 127:1 138:1 253:1 
-2 1:0.41666667 2:0.41666667 3:0.58341764 4:0.2760631 5:0.62887673 34:1 88:1 100:1 213:1 234:1 256:1 
-0.4613723773077661 1:0.16666667 2:0.16666667 3:0.72170662 4:0.3600823 5:0.69805956 12:1 68:1 135:1 172:1 208:1 219:1 
-0.5667116208989801 1:0.25 2:0.25 3:0.32021113 4:0.41049383 5:0.6962905 42:1 84:1 109:1 156:1 213:1 229:1 
-1.353065744557751 1:0.75 2:0.75 3:0.24191775 4:0.31207133 5:0.64993958 19:1 30:1 127:1 139:1 236:1 252:1 
-2 1:0.66666667 2:0.66666667 3:0.58358004 4:0.33127572 5:0.67445794 32:1 92:1 233:1 234:1 
-2 1:0.25 2:0.25 3:0.40292839 4:0.44444444 5:0.6598329 13:1 61:1 84:1 120:1 154:1 246:1 
-1.495652916517727 1:0.66666667 2:0.66666667 3:0.5608766 4:0.21604938 5:0.63927088 64:1 101:1 122:1 176:1 201:1 222:1 250:1 
-1.158692432435378 1:0.58333333 2:0.58333333 3:0.2894216 4:0.38778094 5:0.67915275 12:1 43:1 165:1 188:1 208:1 242:1 
-2 1:0.25 2:0.25 3:0.465931 4:0.43209877 5:0.65538334 14:1 40:1 53:1 54:1 72:1 85:1 251:1 
-0.4715487231800944 1:0.25 2:0.25 3:0.52496151 4:0.50411523 5:0.65638994 47:1 60:1 128:1 156:1 180:1 207:1 
-2 1:0.58333333 2:0.58333333 3:0.50381397 5:0.67044566 13:1 19:1 53:1 93:1 125:1 126:1 
-0.1020256952047137 1:0.75 2:0.75 3:0.69015919 4:0.44539411 5:0.60413785 22:1 39:1 93:1 188:1 221:1 226:1 246:1 
-2 1:0.41666667 2:0.41666667 3:0.19659116 4:0.61728395 5:0.69667058 12:1 26:1 36:1 74:1 84:1 153:1 248:1 
-2 1:0.5 2:0.5 3:0.45568507 4:0.54012346 5:0.6482495 50:1 59:1 105:1 171:1 245:1 246:1 
-2 1:0.5 2:0.5 3:0.54947472 4:0.43209877 5:0.6567631 65:1 111:1 162:1 189:1 217:1 250:1 
-1.214479862409088 1:0.25 2:0.25 3:0.49052122 4:0.34484805 5:0.75918686 13:1 75:1 126:1 138:1 184:1 225:1 255:1 
-0.1501888465477826 1:0.16666667 2:0.16666667 3:0.60541942 4:0.32407407 5:0.69324993 13:1 20:1 76:1 113:1 147:1 183:1 256:1 
-2 1:0.25 2:0.25 3:0.71985925 4:0.63832772 5:0.60902615 64:1 99:1 113:1 231:1 251:1 
-2 1:0.41666667 2:0.41666667 3:0.42084891 4:0.2760631 5:0.59968726 26:1 40:1 66:1 158:1 197:1 
-0.2294673932648288 1:0.33333333 2:0.33333333 3:0.48588359 4:0.28806584 5:0.70022536 64:1 94:1 126:1 192:1 225:1 244:1 256:1 
-1.873559793901295 1:0.58333333 2:0.58333333 3:0.39741135 4:0.59670782 5:0.63724532 12:1 84:1 126:1 166:1 178:1 213:1 
-1.095235509757441 1:0.41666667 2:0.41666667 3:0.50213327 4:0.61213992 5:0.64746764 26:1 51:1 71:1 121:1 233:1 236:1 251:1 
-0.8756693205049051 1:0.41666667 2:0.41666667 3:0.65491145 4:0.3744856 5:0.66034024 44:1 65:1 101:1 108:1 137:1 253:1 
-2 1:0.41666667 2:0.41666667 3:0.15377172 4:0.61213992 5:0.69437929 14:1 25:1 121:1 143:1 206:1 213:1 251:1 
-1.321950854801917 1:0.41666667 2:0.41666667 3:0.44898581 4:0.41289438 5:0.66039173 26:1 56:1 102:1 192:1 208:1 251:1 
-0.4168571224372839 1:0.58333333 2:0.58333333 3:0.37255333 4:0.26842499 5:0.66596773 32:1 46:1 60:1 102:1 127:1 210:1 253:1 
-1.120325387393714 1:0.58333333 2:0.58333333 3:0.73705402 4:0.51851852 5:0.66570939 46:1 63:1 77:1 125:1 152:1 188:1 252:1 
-0.189142756515034 1:0.33333333 2:0.33333333 3:0.45568507 4:0.56062045 5:0.6567631 13:1 95:1 167:1 178:1 207:1 241:1 
-0.8153679861214883 1:0.41666667 2:0.41666667 3:0.35519616 4:0.49931413 5:0.65162086 35:1 54:1 146:1 170:1 208:1 251:1 
-1.963070309634997 1:0.33333333 2:0.33333333 3:0.13547394 4:0.44238683 5:0.63941342 84:1 127:1 139:1 156:1 180:1 252:1 
-2 1:0.41666667 2:0.41666667 3:0.067736969 4:0.43763849 5:0.63586609 31:1 122:1 180:1 192:1 254:1 
-1.834885267814484 1:0.16666667 2:0.16666667 3:0.5329236 4:0.83539095 5:0.71512553 51:1 84:1 119:1 180:1 216:1 233:1 251:1 
-2 1:0.5 2:0.5 3:0.34484275 4:0.43209877 5:0.65079252 67:1 84:1 92:1 128:1 192:1 252:1 
-0.3992707940762528 1:0.16666667 2:0.16666667 3:0.46610614 4:0.39506173 5:0.65962825 47:1 63:1 77:1 85:1 182:1 216:1 253:1 
-2 1:0.33333333 2:0.33333333 3:0.58632065 4:0.47574511 5:0.64073495 41:1 136:1 143:1 191:1 222:1 253:1 
-2 1:0.66666667 2:0.66666667 3:0.49393653 4:0.50411523 5:0.65295344 58:1 80:1 97:1 105:1 173:1 
-1.027962089832811 1:0.5 2:0.5 3:0.80404662 4:0.48611111 5:0.7505864 31:1 51:1 88:1 140:1 167:1 190:1 255:1 
-2 1:0.083333333 2:0.083333333 3:0.54735916 4:0.57613169 5:0.62157936 41:1 51:1 111:1 123:1 192:1 256:1 
-2 1:0.66666667 2:0.66666667 3:0.47503849 4:0.30864198 5:0.66740509 102:1 139:1 153:1 174:1 257:1 
-0.5781362816412909 1:0.41666667 2:0.41666667 3:0.52342204 4:0.28490028 5:0.6514421 12:1 40:1 42:1 103:1 121:1 149:1 248:1 
-1.05404338649427 1:0.41666667 2:0.41666667 3:0.35706801 4:0.63786008 5:0.73845605 12:1 39:1 101:1 105:1 170:1 181:1 249:1 
-2 1:0.5 2:0.5 3:0.52342204 4:0.43209877 5:0.64156025 41:1 99:1 174:1 214:1 254:1 
-0.3864824764844611 1:0.25 2:0.25 3:0.37255333 4:0.50411523 5:0.64954865 47:1 60:1 84:1 140:1 180:1 192:1 
-0.7749473378606482 1:0.58333333 2:0.58333333 3:0.32214647 4:0.34807956 5:0.66840414 28:1 95:1 175:1 223:1 237:1 253:1 
-1.398040262387226 1:0.5 2:0.5 3:0.5840288 5:0.66684499 19:1 124:1 128:1 208:1 221:1 225:1 256:1 
-2 1:0.33333333 2:0.33333333 3:0.49945357 4:0.38888889 5:0.66805998 16:1 57:1 132:1 181:1 245:1 
-2 1:0.083333333 2:0.083333333 3:0.44526399 4:0.60493827 5:0.80645269 40:1 110:1 120:1 135:1 204:1 252:1 
-2 1:0.16666667 2:0.16666667 3:0.16749505 4:0.468107 5:0.61248134 13:1 25:1 134:1 156:1 204:1 251:1 
-0.5947351678306126 1:0.58333333 2:0.58333333 3:0.45568507 4:0.65207632 5:0.40135523 36:1 58:1 72:1 154:1 176:1 192:1 250:1 
-1.293035335868141 1:0.5 2:0.5 3:0.45568507 4:0.55555556 5:0.6408001 13:1 25:1 120:1 128:1 154:1 166:1 251:1 
-2 1:0.16666667 2:0.16666667 3:0.52413506 4:0.43209877 5:0.6567631 19:1 40:1 63:1 95:1 123:1 172:1 256:1 
-2 1:0.41666667 2:0.41666667 3:0.40220851 4:0.34567901 5:0.74798019 14:1 18:1 40:1 95:1 161:1 194:1 
-2 1:0.58333333 2:0.58333333 3:0.51110622 4:0.38778094 5:0.64929988 75:1 82:1 187:1 241:1 248:1 
-2 1:0.58333333 2:0.58333333 3:0.38869246 4:0.13443073 5:0.74389547 20:1 85:1 128:1 150:1 235:1 253:1 
-0.6382183875986601 1:0.083333333 2:0.083333333 3:0.54735916 4:0.38408779 5:0.76231431 13:1 18:1 75:1 89:1 171:1 207:1 256:1 
-2 1:0.25 2:0.25 3:0.56326731 4:0.52812071 5:0.67125052 12:1 27:1 116:1 161:1 171:1 252:1 
-2 1:0.25 2:0.25 3:0.24934784 4:0.38556505 5:0.64624974 14:1 36:1 76:1 108:1 187:1 252:1 
-1.017121987978802 1:0.41666667 2:0.41666667 3:0.33956455 4:0.39609053 5:0.68152202 12:1 29:1 38:1 100:1 163:1 237:1 253:1 
-0.7977801252718775 1:0.33333333 2:0.33333333 3:0.47600616 4:0.32331866 5:0.66382591 30:1 92:1 135:1 181:1 243:1 254:1 
-1.140579429985915 1:0.66666667 2:0.66666667 3:0.48979039 4:0.41769547 5:0.65954745 46:1 128:1 140:1 158:1 207:1 210:1 
-1.921755222880047 1:0.25 2:0.25 3:0.22608313 4:0.45610425 5:0.67581207 61:1 93:1 143:1 157:1 205:1 253:1 
-2 1:0.41666667 2:0.41666667 3:0.4332721 4:0.63786008 5:0.76240054 99:1 106:1 146:1 168:1 
-0.9795234217035174 1:0.58333333 2:0.58333333 3:0.34160175 4:0.51851852 5:0.73277734 26:1 71:1 101:1 141:1 176:1 194:1 253:1 
-0.07023544478749993 2:1.0639637e-16 3:0.55729052 4:0.33504984 5:0.67174876 12:1 76:1 78:1 180:1 207:1 244:1 252:1 
-2 1:0.5 2:0.5 3:0.25247416 4:0.35353535 5:0.63956216 30:1 55:1 79:1 215:1 228:1 253:1 
-1.679305797208339 1:0.33333333 2:0.33333333 3:0.31926376 4:0.51851852 5:0.62518795 12:1 76:1 121:1 195:1 223:1 237:1 251:1 
-1.245921349025592 1:0.5 2:0.5 3:0.45568507 4:0.5941358 5:0.64633829 11:1 24:1 51:1 70:1 117:1 237:1 256:1 
-0.4068856850912085 1:0.33333333 2:0.33333333 3:0.13547394 4:0.25720165 5:0.64296075 19:1 120:1 126:1 156:1 181:1 211:1 253:1 
-0.05999839591774399 1:0.33333333 2:0.33333333 3:0.54189576 4:0.50411523 5:0.65715008 46:1 84:1 140:1 156:1 180:1 233:1 252:1 
-2 1:0.58333333 2:0.58333333 3:0.51156807 4:0.58641975 5:0.70305577 29:1 165:1 219:1 223:1 251:1 
-2 1:0.5 2:0.5 3:0.30327689 4:0.55555556 5:0.6567631 14:1 122:1 165:1 192:1 209:1 
-1.085694970020142 1:0.16666667 2:0.16666667 3:0.46536178 4:0.3744856 5:0.68586569 26:1 42:1 64:1 100:1 143:1 157:1 252:1 
-0.7852082911725781 1:0.58333333 2:0.58333333 3:0.34013377 4:0.66255144 5:0.72097278 107:1 117:1 169:1 188:1 218:1 251:1 
-2 1:0.41666667 2:0.41666667 3:0.54277546 4:0.49931413 5:0.63057076 54:1 72:1 192:1 209:1 226:1 
-0.290651198358081 1:0.33333333 2:0.33333333 3:0.41191656 4:0.38888889 5:0.65578076 16:1 76:1 122:1 141:1 159:1 174:1 
-2 1:0.25 2:0.25 3:0.48277985 4:0.7345679 5:0.7656155 12:1 39:1 99:1 141:1 240:1 
-2 1:0.16666667 2:0.16666667 3:0.46536178 4:0.66255144 5:0.77968899 12:1 39:1 42:1 86:1 99:1 215:1 252:1 
-2 1:0.25 2:0.25 3:0.53071679 4:0.3988604 5:0.58561376 64:1 184:1 200:1 229:1 240:1 251:1 
-0.2562776178733088 1:0.66666667 2:0.66666667 3:0.58358004 4:0.50411523 5:0.6590212 20:1 46:1 92:1 104:1 192:1 233:1 252:1 
-2 1:0.25 2:0.25 3:0.30913874 4:0.65432099 5:0.62808234 62:1 72:1 84:1 120:1 213:1 232:1 
-0.4894035880254562 1:0.66666667 2:0.66666667 3:0.16538377 4:0.57176705 5:0.63166909 7:1 141:1 156:1 189:1 199:1 218:1 255:1 
-0.2652011873319375 1:0.33333333 2:0.33333333 3:0.40452708 4:0.44650206 5:0.65327069 14:1 47:1 75:1 162:1 180:1 224:1 252:1 
-0.6668921166154339 1:0.41666667 2:0.41666667 3:0.37809545 4:0.12187401 5:0.70761248 18:1 54:1 88:1 126:1 201:1 222:1 253:1 
-2 1:0.41666667 2:0.41666667 3:0.60664174 4:0.26406036 5:0.807141 28:1 32:1 72:1 114:1 173:1 
-0.2932019760243526 1:0.58333333 2:0.58333333 3:0.46149109 4:0.56412894 5:0.6041178 13:1 35:1 56:1 81:1 179:1 208:1 250:1 
-1.51369603488217 1:0.5 2:0.5 3:0.67736969 4:0.50411523 5:0.66422631 39:1 76:1 120:1 202:1 214:1 248:1 
-2 1:0.5 2:0.5 3:0.45568507 4:0.43209877 5:0.6567631 13:1 41:1 44:1 71:1 109:1 141:1 
-0.8033070227840056 1:0.5 2:0.5 3:0.53696943 4:0.21604938 5:0.6567631 102:1 126:1 156:1 214:1 236:1 256:1 
-2 1:0.41666667 2:0.41666667 3:0.58341764 4:0.37208505 5:0.6992442 34:1 76:1 170:1 183:1 222:1 257:1 
-0.2457141154201215 1:0.66666667 2:0.66666667 3:0.41334946 4:0.5308642 5:0.62065633 12:1 128:1 154:1 166:1 193:1 213:1 
-2 1:0.33333333 2:0.33333333 3:0.2694084 4:0.20987654 5:0.72319955 14:1 25:1 42:1 86:1 100:1 122:1 
-1.002721689813227 1:0.5 2:0.5 3:0.56652738 4:0.50411523 5:0.65825574 8:1 46:1 156:1 164:1 231:1 252:1 
-1.003218858794487 1:0.66666667 2:0.66666667 3:0.58358004 4:0.41769547 5:0.66480998 20:1 47:1 68:1 128:1 232:1 236:1 252:1 
-0.5779751013024379 1:0.41666667 2:0.41666667 3:0.43223765 4:0.28282828 5:0.6684459 13:1 20:1 65:1 84:1 164:1 182:1 253:1 
-2 1:0.25 2:0.25 3:0.21024852 4:0.52812071 5:0.6616675 12:1 50:1 74:1 98:1 192:1 208:1 
-2 1:0.33333333 2:0.33333333 3:0.40787074 4:0.68415638 5:0.72705392 13:1 41:1 86:1 107:1 119:1 156:1 
-1.065124654429721 1:0.25 2:0.25 3:0.49671804 4:0.65432099 5:0.58598214 13:1 84:1 96:1 108:1 154:1 209:1 
-1.311242916222015 1:0.25 2:0.25 3:0.55302138 4:0.81618656 5:0.71871407 12:1 52:1 107:1 118:1 204:1 243:1 251:1 
-1.056315348704164 1:0.41666667 2:0.41666667 3:0.54277546 4:0.84499314 5:0.7673964 12:1 34:1 82:1 120:1 155:1 207:1 251:1 
-0.2806763592223307 1:0.41666667 2:0.41666667 3:0.82727073 4:0.31207133 5:0.62619606 17:1 29:1 112:1 160:1 176:1 245:1 
-1.589575842672279 1:0.41666667 2:0.41666667 3:0.40950077 4:0.44519267 5:0.65332765 31:1 77:1 164:1 180:1 228:1 252:1 
-0.7562688460837294 1:0.41666667 2:0.41666667 3:0.53327469 4:0.39332067 5:0.75428246 13:1 20:1 75:1 135:1 158:1 214:1 246:1 
-0.4114999745640288 1:0.58333333 2:0.58333333 3:0.48694828 4:0.40852974 5:0.66300796 7:1 23:1 44:1 100:1 156:1 163:1 257:1 
-0.2709593138963972 1:0.41666667 2:0.41666667 3:0.62763276 4:0.44781145 5:0.66788958 41:1 78:1 144:1 154:1 221:1 228:1 
-0.4745520976200989 1:0.58333333 2:0.58333333 3:0.26810577 4:0.56565657 5:0.4031094 24:1 43:1 91:1 108:1 154:1 228:1 250:1 
-0.9062152126762422 1:0.5 2:0.5 3:0.59912806 4:0.57613169 5:0.69056708 41:1 101:1 118:1 131:1 145:1 
-0.4271098336694422 1:0.083333333 2:0.083333333 3:0.26698922 4:0.42718855 5:0.64334115 14:1 77:1 120:1 180:1 207:1 228:1 253:1 
-1.200407813867034 1:0.5 2:0.5 3:0.45568507 4:0.34567901 5:0.66290271 20:1 84:1 92:1 123:1 164:1 182:1 253:1 
-0.3450450104865131 1:0.58333333 2:0.58333333 3:0.52219046 4:0.32684394 5:0.74283887 12:1 18:1 31:1 81:1 140:1 161:1 256:1 
-1.564646000805618 1:0.58333333 2:0.58333333 3:0.4861667 4:0.38580247 5:0.68275997 113:1 158:1 196:1 214:1 235:1 
-1.238507615703796 1:0.58333333 2:0.58333333 3:0.26810577 4:0.30639731 5:0.26102123 37:1 42:1 86:1 212:1 237:1 
-1.294796952711809 1:0.33333333 2:0.33333333 3:0.40642182 4:0.25720165 5:0.6713394 6:1 18:1 66:1 84:1 207:1 211:1 252:1 
-0.5717453418239957 1:0.33333333 2:0.33333333 3:0.30327689 4:0.38778094 5:0.67728694 13:1 59:1 148:1 165:1 186:1 241:1 
-1.919658554456179 1:0.5 2:0.5 3:0.28150429 4:0.62414266 5:0.55824863 35:1 104:1 120:1 216:1 225:1 242:1 
-1.085568211034231 1:0.58333333 2:0.58333333 3:0.29892237 4:0.34807956 5:0.67709148 14:1 24:1 56:1 82:1 102:1 218:1 
-2 1:0.33333333 2:0.33333333 3:0.44117 4:0.47574511 5:0.64881418 13:1 103:1 168:1 207:1 
-0.02922343796361576 2:1.0639637e-16 3:0.55729052 4:0.43672014 5:0.66369323 52:1 76:1 120:1 135:1 180:1 215:1 252:1 
-1.50972330436144 1:0.5 2:0.5 3:0.37948098 4:0.67901235 5:0.79244853 84:1 97:1 153:1 165:1 179:1 233:1 
-1.296325027689871 1:0.58333333 2:0.58333333 3:0.40343083 4:0.56412894 5:0.64894449 17:1 93:1 117:1 191:1 204:1 224:1 253:1 
-2 1:0.5 2:0.5 3:0.64326437 4:0.25925926 5:0.73394679 41:1 42:1 107:1 162:1 221:1 246:1 
-1.403097406221862 1:0.5 2:0.5 3:0.45568507 4:0.51851852 5:0.65237766 20:1 41:1 107:1 153:1 205:1 228:1 
-0.8977917507101801 1:0.75 2:0.75 3:0.53071679 4:0.3988604 5:0.72791243 46:1 76:1 82:1 91:1 102:1 225:1 
-0.2853971608285007 1:0.41666667 2:0.41666667 3:0.50947619 4:0.76131687 5:0.72249306 39:1 105:1 130:1 180:1 216:1 244:1 250:1 
-1.441423938382833 1:0.75 2:0.75 3:0.47105396 4:0.38408779 5:0.66276503 14:1 34:1 56:1 104:1 209:1 251:1 
-1.353652003301782 1:0.83333333 2:0.83333333 3:0.36859468 4:0.38778094 5:0.66849101 14:1 93:1 130:1 151:1 167:1 188:1 246:1 
-0.7378386576425431 1:0.58333333 2:0.58333333 3:0.59423796 4:0.39936401 5:0.762492 19:1 63:1 77:1 102:1 137:1 225:1 
-2 1:0.33333333 2:0.33333333 3:0.49802067 4:0.7037037 5:0.77268482 65:1 70:1 84:1 108:1 192:1 
-1.606203676563308 1:0.58333333 2:0.58333333 3:0.47415879 4:0.18986158 5:0.70275863 18:1 30:1 91:1 128:1 209:1 253:1 
-1.328191720623462 2:2.1279275e-16 3:0.56287324 4:0.46450617 5:0.66068314 36:1 47:1 76:1 84:1 123:1 180:1 252:1 
-0.3616960515383556 1:0.58333333 2:0.58333333 3:0.46149109 4:0.24005487 5:0.67526714 50:1 54:1 102:1 208:1 226:1 250:1 
-2 1:0.66666667 2:0.66666667 3:0.36085331 4:0.3744856 5:0.69993919 14:1 26:1 41:1 44:1 176:1 213:1 252:1 
-0.2878172395205518 1:0.16666667 2:0.16666667 3:0.42442185 4:0.35802469 5:0.66050534 97:1 107:1 120:1 162:1 220:1 240:1 
-2 1:0.41666667 2:0.41666667 3:0.32839911 4:0.49931413 5:0.66557407 93:1 111:1 169:1 189:1 205:1 
-0.7961378544409152 1:0.25 2:0.25 3:0.73242624 4:0.61728395 5:0.6487816 41:1 75:1 113:1 161:1 183:1 255:1 
-2 1:0.083333333 2:0.083333333 3:0.33375852 4:0.24928775 5:0.64581704 12:1 25:1 85:1 124:1 220:1 230:1 
-2 1:0.25 2:0.25 3:0.40149549 4:0.7345679 5:0.75831813 14:1 26:1 63:1 71:1 101:1 228:1 252:1 
-0.7432912749836403 1:0.41666667 2:0.41666667 3:0.34484275 4:0.53684998 5:0.42291563 37:1 59:1 72:1 84:1 140:1 237:1 
-0.3656886066170241 1:0.25 2:0.25 3:0.52496151 4:0.33127572 5:0.6700725 8:1 61:1 180:1 192:1 208:1 
-1.799211112440515 1:0.58333333 2:0.58333333 3:0.67736969 4:0.50411523 5:0.66323122 32:1 46:1 164:1 207:1 231:1 
-1.046550586495496 1:0.58333333 2:0.58333333 3:0.29231943 4:0.20164609 5:0.73206192 14:1 103:1 177:1 193:1 234:1 
-1.813595437927781 1:0.58333333 2:0.58333333 3:0.42084891 4:0.69615912 5:0.61063331 14:1 26:1 58:1 106:1 231:1 251:1 
-2 1:0.33333333 2:0.33333333 3:0.48588359 4:0.57613169 5:0.61330083 12:1 65:1 93:1 160:1 219:1 225:1 256:1 
-0.6113391101337698 1:0.58333333 2:0.58333333 3:0.46913285 4:0.30864198 5:0.66300074 25:1 86:1 128:1 178:1 209:1 
-0.3842560198950091 1:0.41666667 2:0.41666667 3:0.42442185 4:0.36924804 5:0.65928911 19:1 75:1 78:1 187:1 204:1 219:1 
-0.3140625189577684 1:0.5 2:0.5 3:0.45568507 4:0.27497194 5:0.66631917 52:1 77:1 78:1 91:1 187:1 215:1 253:1 
-0.08329766915290537 1:0.83333333 2:0.83333333 3:0.27094788 4:0.50411523 5:0.6449878 7:1 19:1 47:1 68:1 91:1 128:1 252:1 
-0.5903839153395966 1:0.16666667 2:0.16666667 3:0.46307455 4:0.43209877 5:0.6560997 76:1 100:1 120:1 160:1 223:1 243:1 
-1.3900547403476 1:0.33333333 2:0.33333333 3:0.45568507 4:0.42605543 5:0.71149335 36:1 109:1 120:1 176:1 192:1 212:1 
-0.7459165457934378 1:0.75 2:0.75 3:0.53071679 4:0.3988604 5:0.72791243 14:1 45:1 116:1 127:1 160:1 238:1 257:1 
-2 1:0.41666667 2:0.41666667 3:0.65491145 4:0.51851852 5:0.73277734 44:1 65:1 101:1 108:1 137:1 252:1 
-0.4724650119809979 1:0.16666667 2:0.16666667 3:0.45568507 4:0.59446315 5:0.41438624 37:1 72:1 84:1 154:1 168:1 204:1 251:1 
-0.2768993871785909 1:0.5 2:0.5 3:0.64326437 4:0.17283951 5:0.75411981 18:1 75:1 124:1 186:1 200:1 236:1 
-2 1:0.33333333 2:0.33333333 3:0.42520343 4:0.48528015 5:0.69370602 12:1 19:1 64:1 81:1 219:1 227:1 256:1 
-1.823268041591461 1:0.25 2:0.25 3:0.39472179 4:0.28479237 5:0.71422987 16:1 33:1 49:1 88:1 169:1 
-2 1:0.41666667 2:0.41666667 3:0.43974696 4:0.3744856 5:0.68931508 43:1 71:1 100:1 143:1 174:1 253:1 
-1.863495337718259 1:0.5 2:0.5 3:0.3879481 4:0.60493827 5:0.79358874 13:1 39:1 44:1 69:1 120:1 214:1 254:1 
-1.15944060458364 1:0.33333333 2:0.33333333 3:0.664702 4:0.52812071 5:0.68139171 24:1 32:1 51:1 54:1 167:1 239:1 255:1 
-2 1:0.25 2:0.25 3:0.30913874 4:0.44444444 5:0.67035795 12:1 25:1 38:1 85:1 126:1 155:1 
-0.2900619572587946 1:0.16666667 2:0.16666667 3:0.25155465 4:0.66255144 5:0.70109213 14:1 26:1 72:1 180:1 217:1 243:1 251:1 
-1.106511429224906 1:0.66666667 2:0.66666667 3:0.58478376 4:0.61213992 5:0.65177298 14:1 41:1 92:1 113:1 119:1 236:1 251:1 
-2 1:0.33333333 2:0.33333333 3:0.45568507 4:0.62548563 5:0.40656763 10:1 24:1 36:1 42:1 108:1 239:1 251:1 
-2 1:0.25 2:0.25 3:0.43536398 4:0.36335578 5:0.6850404 12:1 111:1 172:1 205:1 235:1 
-1.200394396681165 1:0.5 2:0.5 3:0.074664614 4:0.67901235 5:0.68070758 12:1 26:1 108:1 122:1 153:1 194:1 249:1 
-2 1:0.5 2:0.5 3:0.52342204 4:0.25925926 5:0.70237164 24:1 43:1 101:1 137:1 176:1 253:1 
-2 1:0.41666667 2:0.41666667 3:0.46994548 4:0.86419753 5:0.64156025 14:1 39:1 53:1 93:1 159:1 225:1 255:1 
-2 1:0.75 2:0.75 3:0.43223765 4:0.39506173 5:0.65749985 20:1 92:1 127:1 144:1 164:1 
-2 1:0.41666667 2:0.41666667 3:0.45568507 4:0.46483352 5:0.51993745 109:1 155:1 193:1 250:1 
-1.12056956379882 1:0.25 2:0.25 3:0.42181658 4:0.34231201 5:0.6566907 52:1 54:1 75:1 153:1 230:1 244:1 252:1 
-0.8926491968827542 1:0.25 2:0.25 3:0.37884061 4:0.43209877 5:0.66711125 13:1 26:1 85:1 99:1 145:1 250:1 
-0.9333959619184443 1:0.58333333 2:0.58333333 3:0.29231943 4:0.3744856 5:0.61043912 14:1 64:1 104:1 146:1 177:1 206:1 
-2 1:0.41666667 2:0.41666667 3:0.54277546 4:0.41289438 5:0.65337503 13:1 35:1 56:1 102:1 208:1 251:1 
-2 1:0.33333333 2:0.33333333 3:0.2694084 4:0.45679012 5:0.68488837 12:1 64:1 170:1 213:1 229:1 254:1 
-0.4352381290619292 1:0.83333333 2:0.83333333 3:0.37948098 4:0.57800224 5:0.41161715 92:1 128:1 155:1 175:1 238:1 251:1 
-2 1:0.25 2:0.25 3:0.48277985 4:0.41049383 5:0.66710103 13:1 26:1 40:1 99:1 
-1.413230146484378 1:0.66666667 2:0.66666667 3:0.25247416 4:0.33540534 5:0.67683086 13:1 93:1 129:1 150:1 177:1 241:1 248:1 
-0.8541756406405204 1:0.5 2:0.5 3:0.45568507 5:0.67849423 40:1 116:1 126:1 206:1 234:1 
-0.9675492273566604 1:0.16666667 2:0.16666667 3:0.42442185 4:0.41975309 5:0.65518434 76:1 144:1 155:1 180:1 228:1 246:1 
-1.339262310351446 1:0.25 2:0.25 3:0.32021113 4:0.51851852 5:0.73277734 71:1 109:1 156:1 176:1 230:1 240:1 253:1 
-0.9987262454215045 1:0.33333333 2:0.33333333 3:0.42181658 4:0.58024691 5:0.82855529 100:1 122:1 135:1 143:1 176:1 206:1 252:1 
-1.929540996582219 1:0.33333333 2:0.33333333 3:0.44134077 4:0.50411523 5:0.66030447 12:1 65:1 75:1 103:1 128:1 144:1 252:1 
-0.4353498587944212 1:0.083333333 2:0.083333333 3:0.63284329 4:0.60493827 5:0.84855289 41:1 63:1 84:1 100:1 135:1 206:1 252:1 
-1.709211763789281 1:0.41666667 2:0.41666667 3:0.78082252 4:0.46058879 5:0.7917644 12:1 18:1 32:1 63:1 167:1 185:1 257:1 
-0.7990842338428626 1:0.5 2:0.5 3:0.29311634 4:0.43209877 5:0.62757363 85:1 139:1 158:1 197:1 230:1 251:1 
-1.145565762177192 1:0.33333333 2:0.33333333 3:0.34561249 4:0.7037037 5:0.75672183 71:1 158:1 168:1 205:1 214:1 252:1 
-0.9307372514570071 1:0.33333333 2:0.33333333 3:0.32658637 4:0.57613169 5:0.69056708 14:1 73:1 107:1 117:1 217:1 231:1 
-2 1:0.58333333 2:0.58333333 3:0.35915989 4:0.70987654 5:0.51149987 50:1 83:1 120:1 141:1 176:1 203:1 
-0.8098278132602832 1:0.66666667 2:0.66666667 3:0.58699058 4:0.38888889 5:0.6720595 20:1 39:1 154:1 188:1 229:1 248:1 
-0.1732674277497257 1:0.25 2:0.25 3:0.43536398 4:0.5204826 5:0.64490487 39:1 90:1 111:1 132:1 204:1 230:1 250:1 
-1.436972812038356 1:0.41666667 2:0.41666667 3:0.42442185 4:0.21212121 5:0.73956015 19:1 40:1 42:1 146:1 162:1 219:1 
-1.784206694528879 1:0.58333333 2:0.58333333 3:0.47415879 4:0.3469884 5:0.66453432 47:1 68:1 208:1 211:1 234:1 
-0.5781265621584331 1:0.25 2:0.25 3:0.43193314 4:0.45610425 5:0.65420428 13:1 55:1 72:1 96:1 102:1 208:1 251:1 
-0.6756148427894604 1:0.58333333 2:0.58333333 3:0.54277546 4:0.34567901 5:0.6567631 89:1 90:1 102:1 175:1 239:1 
-1.2262017804464 1:0.16666667 2:0.16666667 3:0.63954256 4:0.47050754 5:0.52167492 12:1 39:1 63:1 101:1 176:1 193:1 253:1 
-2 1:0.41666667 2:0.41666667 3:0.30830133 4:0.48010974 5:0.62157936 14:1 24:1 30:1 118:1 157:1 251:1 
-2 1:0.16666667 2:0.16666667 3:0.74747509 4:0.55555556 5:0.70997307 23:1 76:1 99:1 111:1 183:1 
-0.9330364254465834 1:0.25 2:0.25 3:0.67921707 4:0.49102132 5:0.6670576 15:1 80:1 107:1 171:1 216:1 244:1 
-1.482952863056904 1:0.16666667 2:0.16666667 3:0.52413506 4:0.32407407 5:0.70784467 13:1 19:1 63:1 184:1 207:1 221:1 256:1 
-0.8406243706970282 1:0.41666667 2:0.41666667 3:0.43974696 4:0.51851852 5:0.73277734 39:1 70:1 108:1 121:1 176:1 206:1 
-1.188025322800483 1:0.083333333 2:0.083333333 3:0.45568507 4:0.24928775 5:0.71696638 12:1 84:1 90:1 124:1 136:1 229:1 
-1.651005811460679 1:0.58333333 2:0.58333333 3:0.29892237 4:0.78017833 5:0.76465989 24:1 55:1 83:1 153:1 227:1 240:1 250:1 
-0.03583571171696295 1:0.41666667 2:0.41666667 3:0.50002199 4:0.32130421 5:0.60800341 18:1 50:1 77:1 90:1 166:1 196:1 252:1 
-1.232284008482156 1:0.75 2:0.75 3:0.37827139 4:0.51851852 5:0.73277734 24:1 41:1 44:1 69:1 142:1 175:1 254:1 
-0.5948555049908824 1:0.33333333 2:0.33333333 3:0.29368476 4:0.3744856 5:0.64953908 36:1 46:1 76:1 86:1 182:1 234:1 252:1 
-2 1:0.33333333 2:0.33333333 3:0.24884539 4:0.59670782 5:0.65725176 12:1 38:1 96:1 122:1 145:1 154:1 
-0.2032994751000887 1:0.5 2:0.5 3:0.54277546 4:0.33607682 5:0.66379984 82:1 102:1 154:1 208:1 241:1 
-1.0394255997214 1:0.25 2:0.25 3:0.37884061 4:0.33607682 5:0.67649358 13:1 25:1 118:1 157:1 205:1 
-1.71134040837187 1:0.25 2:0.25 3:0.84759182 4:0.45484081 5:0.91673182 24:1 52:1 88:1 131:1 200:1 239:1 256:1 
-1.752588962999061 1:0.5 2:0.5 3:0.54277546 4:0.43209877 5:0.62157936 24:1 44:1 105:1 136:1 142:1 232:1 
-1.135056084006665 1:0.41666667 2:0.41666667 3:0.33465504 4:0.22633745 5:0.74308398 13:1 29:1 40:1 45:1 127:1 146:1 253:1 
-0.2763748765096726 1:0.66666667 2:0.66666667 3:0.5608766 4:0.64814815 5:0.63122231 27:1 33:1 176:1 201:1 245:1 251:1 
-1.546761258018052 1:0.41666667 2:0.41666667 3:0.35519616 4:0.75857339 5:0.79370903 12:1 48:1 122:1 178:1 216:1 226:1 251:1 
-1.973409497454427 1:0.41666667 2:0.41666667 3:0.32839911 4:0.49931413 5:0.66557407 29:1 61:1 117:1 175:1 216:1 252:1 
-1.450861810540081 1:0.58333333 2:0.58333333 3:0.74655558 4:0.66255144 5:0.81218987 41:1 53:1 101:1 106:1 233:1 251:1 
-2 1:0.33333333 2:0.33333333 3:0.44117 4:0.47574511 5:0.64881418 13:1 54:1 120:1 179:1 208:1 249:1 
-1.304119129620374 1:0.25 2:0.25 3:0.50381397 4:0.24691358 5:0.68868908 18:1 40:1 52:1 113:1 193:1 225:1 255:1 
-0.7168950482902678 1:0.58333333 2:0.58333333 3:0.48248211 4:0.22085048 5:0.74477256 18:1 126:1 154:1 188:1 228:1 246:1 
-0.07273629537790582 1:0.5 2:0.5 3:0.3744007 4:0.32407407 5:0.66770915 16:1 31:1 48:1 105:1 181:1 200:1 
-2 1:0.16666667 2:0.16666667 3:0.44285069 4:0.54012346 5:0.59108679 12:1 18:1 39:1 112:1 159:1 225:1 255:1 
-0.2499938624476613 1:0.33333333 2:0.33333333 3:0.43010607 4:0.30246914 5:0.64011438 18:1 42:1 85:1 147:1 165:1 208:1 
-0.7328058482653902 1:0.16666667 2:0.16666667 3:0.46536178 4:0.27846365 5:0.70463035 44:1 63:1 157:1 193:1 229:1 253:1 
-0.28152229015344 1:0.5 2:0.5 3:0.53696943 4:0.43209877 5:0.66406046 80:1 132:1 173:1 230:1 243:1 248:1 
-2 1:0.66666667 2:0.66666667 3:0.53071679 4:0.64814815 5:0.66770915 39:1 42:1 81:1 142:1 191:1 250:1 
-1.988284975071164 1:0.33333333 2:0.33333333 3:0.4141621 4:0.72016461 5:0.63020282 14:1 18:1 94:1 192:1 219:1 227:1 255:1 
-0.4761786386337603 1:0.33333333 2:0.33333333 3:0.68519386 4:0.18004115 5:0.64935841 40:1 87:1 101:1 102:1 116:1 160:1 
-2 1:0.33333333 2:0.33333333 3:0.42181658 4:0.7037037 5:0.76470333 13:1 101:1 143:1 204:1 213:1 252:1 
-2 1:0.5 2:0.5 3:0.54947472 4:0.34567901 5:0.66991941 20:1 37:1 65:1 75:1 164:1 254:1 
-1.571154376654733 1:0.41666667 2:0.41666667 3:0.41873763 4:0.45173962 5:0.65162177 22:1 38:1 75:1 133:1 200:1 240:1 
-2 1:0.33333333 2:0.33333333 3:0.49632725 4:0.2689286 5:0.77899401 37:1 42:1 76:1 78:1 189:1 255:1 
-1.231093485754161 1:0.5 2:0.5 3:0.45568507 4:0.64814815 5:0.66162801 15:1 22:1 63:1 206:1 215:1 223:1 
-0.1689834500789971 1:0.66666667 2:0.66666667 3:0.51306226 4:0.3600823 5:0.66996275 25:1 44:1 68:1 176:1 190:1 239:1 253:1 
-0.804128163594504 1:0.083333333 2:0.083333333 3:0.54735916 4:0.1920439 5:0.67787334 20:1 64:1 112:1 160:1 184:1 193:1 255:1 
-2 1:0.16666667 2:0.16666667 3:0.46610614 4:0.33333333 5:0.66494925 18:1 84:1 123:1 144:1 162:1 252:1 
-1.292995145405509 1:0.66666667 2:0.66666667 3:0.27787552 4:0.7037037 5:0.74227912 24:1 62:1 153:1 166:1 194:1 214:1 
-1.591119302632486 1:0.33333333 2:0.33333333 3:0.32658637 4:0.25205761 5:0.68326971 26:1 52:1 54:1 145:1 158:1 
-2 1:0.33333333 2:0.33333333 3:0.73705402 4:0.3744856 5:0.67939195 12:1 46:1 65:1 76:1 109:1 125:1 
