svm_type c_svc
kernel_type rbf
gamma 0.0625
nr_class 2
total_sv 548
rho 10.4376
label 1 0
probA -4.26943
probB 0.256069
nr_sv 249 299
SV
2 1:0.58333333 2:0.58333333 3:0.2810219 4:0.4476584 5:0.63247446 47:1 127:1 138:1 
0.5571988490003268 1:0.33333333 2:0.33333333 3:0.18734793 4:0.33549784 5:0.6316703 62:1 85:1 102:1 252:1 
1.18421714391751 1:0.33333333 2:0.33333333 3:0.43714517 4:0.4004329 5:0.6463059 120:1 157:1 233:1 
2 1:0.33333333 2:0.33333333 3:0.18734793 4:0.33549784 5:0.6316703 138:1 158:1 193:1 252:1 
1.987208211164145 1:0.5 2:0.5 3:0.45985401 4:0.3030303 5:0.66215505 128:1 162:1 233:1 253:1 
1.728032578139101 1:0.41666667 2:0.41666667 3:0.33722628 4:0.18065268 5:0.69005188 126:1 138:1 210:1 253:1 
1.731200082417061 1:0.58333333 2:0.58333333 3:0.37469586 4:0.4476584 5:0.63837158 92:1 122:1 233:1 
2 1:0.58333333 2:0.58333333 3:0.46266143 4:0.33333333 5:0.66796038 42:1 154:1 221:1 246:1 
1.098873176213727 1:0.5 2:0.5 3:0.35766423 4:0.27272727 5:0.67400479 6:1 42:1 219:1 247:1 
0.9404616108582264 1:0.41666667 2:0.41666667 3:0.39854015 4:0.47785548 5:0.64552222 34:1 48:1 77:1 253:1 
0.8282684739051687 1:0.41666667 2:0.41666667 3:0.39854015 4:0.26806527 5:0.7358448 184:1 222:1 234:1 
2 1:0.33333333 2:0.33333333 3:0.50754258 4:0.5626192 5:0.64074993 23:1 101:1 180:1 255:1 
1.316078210890199 1:0.58333333 2:0.58333333 3:0.47295527 4:0.52066116 5:0.64164069 23:1 44:1 190:1 256:1 
1.545192784829078 1:0.58333333 2:0.58333333 3:0.47295527 4:0.61157025 5:0.6351456 22:1 164:1 191:1 255:1 
1.034255112119813 1:0.25 2:0.25 3:0.23276561 4:0.44273908 5:0.62316576 180:1 218:1 241:1 255:1 
0.4620490613224846 1:0.41666667 2:0.41666667 3:0.42579075 4:0.47520661 5:0.64197809 79:1 112:1 191:1 255:1 
0.1655248534765081 1:0.5 2:0.5 3:0.4513382 4:0.53719008 5:0.6384064 78:1 142:1 191:1 255:1 
1.769491624155131 1:0.33333333 2:0.33333333 3:0.3980161 4:0.31818182 5:0.6878115 15:1 172:1 229:1 247:1 
2 1:0.58333333 2:0.58333333 3:0.37639903 4:0.29220779 5:0.71119382 50:1 173:1 198:1 248:1 
0.6343224665260735 1:0.5 2:0.5 3:0.35766423 4:0.56818182 5:0.62788347 106:1 171:1 230:1 
1.72005223993705 1:0.58333333 2:0.58333333 3:0.37639903 4:0.29220779 5:0.71119382 140:1 181:1 200:1 
1.976085103629497 1:0.83333333 2:0.83333333 3:0.42077091 4:0.45454545 5:0.64339094 32:1 80:1 106:1 248:1 
0.03426777616023295 1:0.75 2:0.75 3:0.49505272 4:0.22727273 5:0.61630365 142:1 176:1 222:1 250:1 
1.844805778292281 1:0.58333333 2:0.58333333 3:0.33892944 4:0.35714286 5:0.6301351 112:1 175:1 223:1 251:1 
0.5995670056053647 1:0.58333333 2:0.58333333 3:0.46538929 4:0.40584416 5:0.66994072 15:1 128:1 224:1 
0.7387387094307765 1:0.58333333 2:0.58333333 3:0.53564477 4:0.53571429 5:0.66149711 17:1 34:1 214:1 256:1 
0.1855602539648839 1:0.5 2:0.5 3:0.43260341 4:0.56818182 5:0.64846981 16:1 21:1 35:1 257:1 
2 1:0.33333333 2:0.33333333 3:0.37639903 4:0.27018436 5:0.65439757 12:1 31:1 51:1 77:1 78:1 102:1 253:1 
2 1:0.33333333 2:0.33333333 3:0.15158151 4:0.27018436 5:0.60421836 12:1 31:1 52:1 55:1 181:1 253:1 
2 1:0.41666667 2:0.41666667 3:0.31508516 4:0.39256198 5:0.63457152 92:1 102:1 120:1 245:1 254:1 264:1 
2 1:0.58333333 2:0.58333333 3:0.39369268 4:0.34710744 5:0.64600963 32:1 56:1 75:1 78:1 153:1 253:1 
2 1:0.33333333 2:0.33333333 3:0.37639903 4:0.27018436 5:0.65439757 18:1 51:1 54:1 76:1 153:1 253:1 
0.02515920717550454 1:0.41666667 2:0.41666667 3:0.40762368 4:0.61438561 5:0.70465337 47:1 167:1 204:1 257:1 
0.8010896743202162 1:0.5 2:0.5 3:0.24525547 4:0.38461538 5:0.86269644 81:1 91:1 205:1 256:1 
0.1137154241105807 1:0.41666667 2:0.41666667 3:0.65742092 4:0.41958042 5:0.71215881 64:1 161:1 166:1 256:1 
0.9060267738969193 1:0.41666667 2:0.41666667 3:0.6540146 4:0.48368298 5:0.68987643 41:1 75:1 137:1 
1.142141126535446 1:0.41666667 2:0.41666667 3:0.54160584 4:0.41375291 5:0.81532446 40:1 76:1 191:1 248:1 
0.9010496250200537 1:0.58333333 2:0.58333333 3:0.32678271 4:0.5959596 5:0.52904498 120:1 130:1 237:1 
0.8184342828222173 1:0.083333333 2:0.083333333 3:0.36189013 4:0.50505051 5:0.48800662 12:1 76:1 183:1 208:1 255:1 
0.8446011151328363 1:0.41666667 2:0.41666667 3:0.24591284 4:0.90909091 5:0.61437368 12:1 19:1 39:1 93:1 192:1 225:1 255:1 
1.682917362089785 1:0.33333333 2:0.33333333 3:0.45162821 4:0.60606061 5:0.60112879 12:1 20:1 41:1 88:1 93:1 219:1 255:1 
0.4586151636724395 1:0.41666667 2:0.41666667 3:0.49571008 4:0.54545455 5:0.58864075 12:1 20:1 40:1 51:1 65:1 93:1 257:1 
2 1:0.16666667 2:0.16666667 3:0.42077091 4:0.56818182 5:0.58285084 12:1 20:1 40:1 87:1 243:1 255:1 
2 1:0.58333333 2:0.58333333 3:0.34583173 4:0.60606061 5:0.58478081 12:1 18:1 41:1 95:1 127:1 225:1 
2 1:0.25 2:0.25 3:0.33178064 4:0.51948052 5:0.51023573 14:1 75:1 111:1 126:1 255:1 
2 1:0.16666667 2:0.16666667 3:0.34583173 4:0.45454545 5:0.63688999 14:1 64:1 95:1 123:1 160:1 256:1 
1.765028994433397 1:0.33333333 2:0.33333333 3:0.31938261 4:0.45454545 5:0.63688999 14:1 19:1 39:1 75:1 88:1 93:1 256:1 
0.9153724316805353 1:0.41666667 2:0.41666667 3:0.30836215 4:0.54545455 5:0.54039151 14:1 19:1 39:1 208:1 225:1 255:1 
2 1:0.75 2:0.75 3:0.32539378 5:0.65531243 14:1 19:1 76:1 93:1 128:1 225:1 
0.1763783743072548 1:0.5 2:0.5 3:0.29850173 4:0.68181818 5:0.59727482 14:1 19:1 41:1 93:1 192:1 207:1 
1.59263744318148 1:0.58333333 2:0.58333333 3:0.34583173 4:0.60606061 5:0.58478081 14:1 19:1 41:1 93:1 148:1 225:1 255:1 
1.945886593180806 1:0.5 2:0.5 3:0.41682674 4:0.45454545 5:0.63688999 14:1 19:1 41:1 113:1 183:1 
0.2276912373835031 1:0.33333333 2:0.33333333 3:0.25325981 4:0.45454545 5:0.63688999 14:1 19:1 40:1 63:1 93:1 192:1 256:1 
1.501509162932378 1:0.41666667 2:0.41666667 3:0.30836215 4:0.36363636 5:0.73338848 14:1 18:1 39:1 93:1 111:1 126:1 
2 1:0.25 2:0.25 3:0.33178064 4:0.51948052 5:0.51023573 14:1 18:1 39:1 207:1 257:1 276:1 
2 1:0.25 2:0.25 3:0.33178064 4:0.64935065 5:0.59467191 14:1 18:1 111:1 219:1 227:1 255:1 
1.551134996108079 1:0.16666667 2:0.16666667 3:0.34583173 4:0.56818182 5:0.56741108 88:1 95:1 192:1 208:1 255:1 
1.835919013675514 1:0.5 2:0.5 3:0.47598924 4:0.45454545 5:0.63688999 19:1 51:1 65:1 93:1 112:1 257:1 
1.114241701941665 1:0.33333333 2:0.33333333 3:0.45162821 4:0.3030303 5:0.67265119 19:1 40:1 53:1 64:1 88:1 93:1 255:1 
1.133700839662771 1:0.33333333 2:0.33333333 3:0.45162821 4:0.3030303 5:0.67265119 20:1 75:1 160:1 208:1 
0.2535077061239763 1:0.41666667 2:0.41666667 3:0.37081146 4:0.36363636 5:0.71730539 20:1 87:1 93:1 244:1 265:1 
0.4021241479028234 1:0.25 2:0.25 3:0.40203611 4:0.38961039 5:0.7382134 20:1 76:1 160:1 192:1 255:1 
0.6853411352041802 1:0.33333333 2:0.33333333 3:0.38550541 4:0.45454545 5:0.63688999 20:1 52:1 75:1 93:1 192:1 256:1 
2 1:0.66666667 2:0.66666667 3:0.49571008 5:0.64653984 20:1 52:1 128:1 225:1 257:1 
2 1:0.5 2:0.5 3:0.47598924 4:0.22727273 5:0.65822124 20:1 41:1 88:1 93:1 172:1 225:1 256:1 
2 3:0.29395077 4:0.54545455 5:0.53668003 13:1 39:1 51:1 64:1 192:1 255:1 
0.3302134544423344 1:0.41666667 2:0.41666667 3:0.37081146 4:0.36363636 5:0.71730539 13:1 40:1 76:1 93:1 225:1 257:1 
1.775313559052143 1:0.5 2:0.5 3:0.35766423 4:0.68181818 5:0.60336947 13:1 19:1 63:1 93:1 227:1 257:1 
2 1:0.58333333 2:0.58333333 3:0.23342297 4:0.3030303 5:0.7063689 13:1 19:1 194:1 209:1 225:1 266:1 
2 1:0.16666667 2:0.16666667 3:0.34583173 4:0.11363636 5:0.66004963 13:1 19:1 52:1 88:1 160:1 256:1 
0.07201219870649432 1:0.41666667 2:0.41666667 3:0.30836215 4:0.18181818 5:0.66905615 13:1 19:1 40:1 225:1 244:1 
2 1:0.41666667 2:0.41666667 3:0.43326077 4:0.18181818 5:0.6583341 13:1 20:1 41:1 128:1 192:1 256:1 
1.34033509498784 1:0.33333333 2:0.33333333 3:0.38550541 5:0.65221622 13:1 18:1 52:1 126:1 257:1 
2 1:0.16666667 2:0.16666667 3:0.27089256 4:0.45454545 5:0.63688999 13:1 18:1 40:1 93:1 192:1 207:1 255:1 
1.60318166215418 1:0.25 2:0.25 3:0.16743403 4:0.40559441 5:0.62576792 12:1 45:1 84:1 144:1 162:1 253:1 
0.2887128634385485 1:0.25 2:0.25 3:0.39225154 4:0.47552448 5:0.63793258 12:1 75:1 180:1 236:1 252:1 
0.9047782695583403 2:2.1279275e-16 3:0.29590118 4:0.48863636 5:0.63158409 12:1 84:1 108:1 123:1 216:1 252:1 
1.856471416273446 1:0.16666667 2:0.16666667 3:0.2423732 4:0.35064935 5:0.63429196 12:1 86:1 123:1 216:1 222:1 253:1 
0.1684668713498163 1:0.58333333 2:0.58333333 3:0.29590118 4:0.44444444 5:0.63335651 12:1 86:1 92:1 164:1 
0.1540100178301946 1:0.41666667 2:0.41666667 3:0.33604716 4:0.46280992 5:0.63509611 12:1 92:1 144:1 200:1 252:1 
2 1:0.16666667 2:0.16666667 3:0.36727182 4:0.35064935 5:0.64555011 12:1 76:1 123:1 235:1 252:1 265:1 
1.634723578810289 1:0.33333333 2:0.33333333 3:0.4126895 4:0.46969697 5:0.63951165 12:1 20:1 75:1 216:1 236:1 252:1 
0.9358762128749349 1:0.33333333 2:0.33333333 3:0.20830994 4:0.31818182 5:0.63319538 12:1 20:1 37:1 84:1 223:1 253:1 
1.310818495088772 1:0.41666667 2:0.41666667 3:0.33604716 4:0.38016529 5:0.64015079 12:1 20:1 37:1 84:1 164:1 
1.867191082577461 1:0.33333333 2:0.33333333 3:0.20830994 4:0.31818182 5:0.63319538 12:1 18:1 84:1 146:1 200:1 253:1 
0.3507264409947037 1:0.33333333 2:0.33333333 3:0.20830994 4:0.39393939 5:0.62924772 14:1 84:1 108:1 200:1 253:1 
1.228271885994863 1:0.41666667 2:0.41666667 3:0.055025267 4:0.38016529 5:0.61740472 14:1 19:1 38:1 84:1 234:1 264:1 
2 1:0.5 2:0.5 3:0.18472768 4:0.36363636 5:0.62853916 14:1 20:1 38:1 216:1 236:1 253:1 
2 1:0.33333333 2:0.33333333 3:0.4126895 4:0.46969697 5:0.63951165 36:1 46:1 64:1 75:1 266:1 
2 1:0.25 2:0.25 3:0.39225154 4:0.47552448 5:0.63793258 36:1 75:1 144:1 188:1 252:1 
2 1:0.33333333 2:0.33333333 3:0.51487928 4:0.46969697 5:0.64582791 47:1 65:1 75:1 222:1 264:1 
2 1:0.5 2:0.5 3:0.35766423 4:0.54545455 5:0.63299294 45:1 63:1 144:1 152:1 
2 1:0.33333333 2:0.33333333 3:0.10612016 4:0.46969697 5:0.62056285 45:1 84:1 146:1 180:1 253:1 
2 1:0.58333333 2:0.58333333 3:0.37619315 4:0.44444444 5:0.63867377 45:1 76:1 128:1 200:1 252:1 
2 1:0.33333333 2:0.33333333 3:0.51487928 4:0.54545455 5:0.64109071 46:1 75:1 123:1 128:1 144:1 252:1 
2 1:0.33333333 2:0.33333333 3:0.31049972 4:0.54545455 5:0.63056361 46:1 84:1 180:1 188:1 216:1 252:1 
1.786608813081674 1:0.25 2:0.25 3:0.27984278 4:0.40559441 5:0.63413112 63:1 84:1 162:1 216:1 254:1 
1.379068487307264 1:0.41666667 2:0.41666667 3:0.5233951 4:0.46280992 5:0.64689037 63:1 77:1 152:1 276:1 
1.966021748809915 1:0.33333333 2:0.33333333 3:0.61706906 4:0.46969697 5:0.65214418 63:1 77:1 125:1 252:1 
0.4579117017795257 1:0.41666667 2:0.41666667 3:0.33604716 4:0.38016529 5:0.64015079 75:1 182:1 186:1 
2 1:0.25 2:0.25 3:0.39225154 4:0.40559441 5:0.64249433 85:1 123:1 144:1 236:1 252:1 
2 1:0.25 2:0.25 3:0.39225154 4:0.33566434 5:0.64966279 76:1 84:1 152:1 217:1 252:1 
2 1:0.083333333 2:0.083333333 3:0.47655811 4:0.36363636 5:0.65359165 64:1 75:1 180:1 216:1 253:1 
2 1:0.33333333 2:0.33333333 3:0.4126895 4:0.39393939 5:0.64503838 64:1 84:1 164:1 180:1 200:1 216:1 
2 1:0.16666667 2:0.16666667 3:0.2423732 4:0.35064935 5:0.63429196 13:1 36:1 84:1 109:1 
1.148574705226869 1:0.16666667 2:0.16666667 3:0.36727182 4:0.28571429 5:0.65493191 13:1 18:1 36:1 123:1 222:1 252:1 
1.633033628427422 1:0.5 2:0.5 3:0.48990983 4:0.3030303 5:0.65221622 40:1 46:1 101:1 116:1 253:1 
1.584784168428633 1:0.58333333 2:0.58333333 3:0.45684843 4:0.57575758 5:0.65221622 29:1 45:1 65:1 116:1 264:1 
2 1:0.33333333 2:0.33333333 3:0.25060827 4:0.54637282 5:0.49352082 12:1 24:1 30:1 76:1 105:1 251:1 
2 1:0.25 2:0.25 3:0.28467153 4:0.35353535 5:0.62335514 12:1 26:1 30:1 42:1 75:1 88:1 
2 1:0.66666667 2:0.66666667 3:0.36770073 4:0.6998557 5:0.59122553 12:1 44:1 58:1 105:1 251:1 
2 1:0.5 2:0.5 3:0.27737226 4:0.55555556 5:0.52522746 12:1 30:1 42:1 57:1 107:1 251:1 
1.473114524974641 1:0.58333333 2:0.58333333 3:0.1756691 4:0.39141414 5:0.6537083 14:1 26:1 43:1 100:1 249:1 
2 1:0.66666667 2:0.66666667 3:0.15693431 4:0.31024531 5:0.63344362 14:1 25:1 31:1 43:1 117:1 
2 1:0.58333333 2:0.58333333 3:0.32554745 4:0.39141414 5:0.62282878 57:1 105:1 210:1 232:1 
0.9189666377175473 1:0.58333333 2:0.58333333 3:0.32554745 4:0.61868687 5:0.57650951 44:1 117:1 156:1 251:1 
0.4500102842547202 1:0.58333333 2:0.58333333 3:0.40048662 4:0.50505051 5:0.59966915 42:1 77:1 107:1 141:1 
2 1:0.58333333 2:0.58333333 3:0.47542579 4:0.61868687 5:0.60738903 32:1 58:1 76:1 107:1 251:1 
0.4554451693619402 1:0.66666667 2:0.66666667 3:0.4379562 4:0.31024531 5:0.59966915 32:1 42:1 57:1 89:1 
0.9202051891449116 1:0.58333333 2:0.58333333 3:0.25060827 4:0.39141414 5:0.63826854 25:1 31:1 42:1 57:1 251:1 
1.151532762273843 1:0.33333333 2:0.33333333 3:0.34428224 4:0.62901745 5:0.58197776 13:1 100:1 107:1 119:1 251:1 
0.2038884196379454 1:0.33333333 2:0.33333333 3:0.32643958 4:0.48051948 5:0.61598199 12:1 24:1 100:1 141:1 176:1 253:1 
0.7953758376405561 1:0.33333333 2:0.33333333 3:0.2561841 4:0.74025974 5:0.74263625 12:1 71:1 108:1 170:1 
2 1:0.16666667 2:0.16666667 3:0.28629359 4:0.7979798 5:0.7396379 12:1 71:1 120:1 168:1 240:1 
2 1:0.16666667 2:0.16666667 3:0.28629359 4:0.5959596 5:0.82896793 12:1 69:1 84:1 100:1 156:1 241:1 
2 1:0.58333333 2:0.58333333 3:0.25248645 4:0.54545455 5:0.71730539 12:1 69:1 109:1 176:1 213:1 
0.5921524891373489 1:0.41666667 2:0.41666667 3:0.34297028 4:0.84848485 5:0.74029474 12:1 70:1 108:1 215:1 
0.3025502175863126 1:0.25 2:0.25 3:0.30770479 4:0.77272727 5:0.74432497 12:1 108:1 135:1 215:1 254:1 
0.3254780162713528 1:0.5 2:0.5 3:0.42011354 4:0.63636364 5:0.81380388 12:1 101:1 176:1 215:1 
2 1:0.083333333 2:0.083333333 3:0.34805665 4:0.72727273 5:0.75627594 12:1 100:1 108:1 143:1 156:1 252:1 
2 1:0.16666667 2:0.16666667 3:0.36658556 4:0.5959596 5:0.86618877 12:1 100:1 109:1 120:1 143:1 
1.958452239317567 1:0.5 2:0.5 3:0.29521492 4:0.63636364 5:0.78163772 14:1 24:1 41:1 143:1 176:1 254:1 
0.8914497377679066 1:0.25 2:0.25 3:0.38264396 4:0.77272727 5:0.75204485 24:1 84:1 101:1 143:1 252:1 
2 1:0.41666667 2:0.41666667 3:0.27684748 4:0.39393939 5:0.68154419 24:1 110:1 121:1 176:1 
0.6430793562515597 1:0.5 2:0.5 3:0.42011354 4:0.45454545 5:0.62080691 24:1 41:1 44:1 176:1 252:1 
1.37689028711286 1:0.58333333 2:0.58333333 3:0.19332394 4:1 5:0.7249237 26:1 69:1 143:1 213:1 252:1 
2 1:0.58333333 2:0.58333333 3:0.31164895 4:0.31818182 5:0.68987951 26:1 101:1 122:1 176:1 
0.9486128770134983 1:0.41666667 2:0.41666667 3:0.34297028 4:0.6969697 5:0.76328408 39:1 70:1 141:1 241:1 252:1 
0.6879954551375165 1:0.33333333 2:0.33333333 3:0.39669505 4:0.74025974 5:0.75952348 71:1 108:1 137:1 252:1 
2 1:0.25 2:0.25 3:0.38264396 4:0.65909091 5:0.7867843 71:1 101:1 168:1 240:1 253:1 
2 1:0.5 2:0.5 3:0.42011354 4:0.45454545 5:0.62080691 71:1 85:1 101:1 176:1 
2 1:0.41666667 2:0.41666667 3:0.27684748 4:0.54545455 5:0.71730539 69:1 84:1 101:1 122:1 241:1 
0.3163873510578561 1:0.5 2:0.5 3:0.23276561 4:0.63636364 5:0.76555464 69:1 99:1 141:1 242:1 253:1 
2 1:0.33333333 2:0.33333333 3:0.32643958 4:0.48051948 5:0.61598199 69:1 85:1 100:1 168:1 
2 1:0.5 2:0.5 3:0.35766423 4:0.63636364 5:0.7977208 70:1 86:1 101:1 122:1 136:1 142:1 252:1 
2 1:0.16666667 2:0.16666667 3:0.44687753 4:0.7979798 5:0.75452624 99:1 120:1 135:1 143:1 252:1 
2 1:0.25 2:0.25 3:0.30770479 4:0.65909091 5:0.77134455 99:1 120:1 141:1 156:1 253:1 
1.638022346183617 1:0.5 2:0.5 3:0.23276561 4:0.63636364 5:0.76555464 99:1 170:1 213:1 254:1 
2 1:0.41666667 2:0.41666667 3:0.34297028 4:0.6969697 5:0.76328408 108:1 143:1 176:1 204:1 
0.8097031024017655 1:0.41666667 2:0.41666667 3:0.21072468 4:0.39393939 5:0.69176168 108:1 175:1 242:1 253:1 
1.544376660983232 1:0.41666667 2:0.41666667 3:0.27684748 4:0.54545455 5:0.71730539 110:1 120:1 176:1 240:1 
2 1:0.5 2:0.5 3:0.23276561 4:0.81818182 5:0.73338848 141:1 156:1 214:1 228:1 254:1 
0.9357241909379014 1:0.25 2:0.25 3:0.23276561 4:0.54545455 5:0.71730539 109:1 156:1 242:1 252:1 
2 1:0.25 2:0.25 3:0.45758313 4:0.54545455 5:0.71730539 101:1 120:1 135:1 229:1 
0.557512662794412 1:0.5 2:0.5 3:0.29521492 4:0.45454545 5:0.65297307 65:1 206:1 242:1 
2 1:0.41666667 2:0.41666667 3:0.40909308 4:0.54545455 5:0.71730539 64:1 70:1 86:1 101:1 122:1 136:1 142:1 252:1 
1.927973488533547 1:0.25 2:0.25 3:0.38264396 4:0.20454545 5:0.69414576 64:1 109:1 174:1 253:1 
0.0240745869266792 1:0.33333333 2:0.33333333 3:0.2561841 4:0.74025974 5:0.74263625 43:1 108:1 215:1 252:1 276:1 
2 1:0.33333333 2:0.33333333 3:0.2561841 4:0.48051948 5:0.64131284 43:1 204:1 228:1 241:1 
2 1:0.5 2:0.5 3:0.29521492 4:0.63636364 5:0.78163772 44:1 71:1 215:1 253:1 278:1 
2 1:0.66666667 2:0.66666667 3:0.2702352 4:0.39393939 5:0.68256594 44:1 141:1 158:1 214:1 253:1 
0.209037221298951 1:0.33333333 2:0.33333333 3:0.32643958 4:0.48051948 5:0.61598199 42:1 99:1 141:1 156:1 253:1 
0.6730902439416449 1:0.5 2:0.5 3:0.29521492 4:0.45454545 5:0.65297307 42:1 100:1 141:1 215:1 254:1 
0.2591749755961889 1:0.41666667 2:0.41666667 3:0.34297028 4:0.54545455 5:0.71730539 42:1 65:1 141:1 156:1 252:1 
1.621867745943838 1:0.33333333 2:0.33333333 3:0.39669505 4:0.48051948 5:0.59065114 41:1 43:1 63:1 192:1 253:1 
1.315418297598605 1:0.5 2:0.5 3:0.35766423 4:0.63636364 5:0.7977208 40:1 71:1 176:1 215:1 254:1 
1.06480858498157 1:0.33333333 2:0.33333333 3:0.2561841 4:0.48051948 5:0.64131284 13:1 24:1 141:1 176:1 192:1 253:1 
0.1393747123248148 1:0.5 2:0.5 3:0.23276561 4:0.45454545 5:0.66905615 13:1 69:1 176:1 206:1 252:1 
1.386436511518031 1:0.33333333 2:0.33333333 3:0.32643958 4:0.61038961 5:0.8186288 13:1 42:1 143:1 215:1 252:1 
1.100487172491462 1:0.33333333 2:0.33333333 3:0.39669505 4:0.61038961 5:0.84395965 13:1 41:1 204:1 214:1 252:1 
0.5738614526404717 1:0.66666667 2:0.66666667 3:0.21497819 4:0.83333333 5:0.68179316 14:1 117:1 131:1 249:1 
1.233347953188166 1:0.33333333 2:0.33333333 3:0.46346071 4:0.37878788 5:0.63791174 25:1 40:1 53:1 100:1 249:1 
2 1:0.16666667 2:0.16666667 3:0.50072993 4:0.49242424 5:0.65320701 12:1 24:1 39:1 52:1 63:1 236:1 
1.321667916397303 1:0.16666667 2:0.16666667 3:0.39854015 4:0.56818182 5:0.62952102 12:1 24:1 51:1 63:1 229:1 250:1 
2 1:0.33333333 2:0.33333333 3:0.28848961 4:0.52272727 5:0.61929758 12:1 26:1 40:1 195:1 206:1 250:1 
0.1157580095666413 1:0.33333333 2:0.33333333 3:0.46142617 4:0.70454545 5:0.62764841 12:1 39:1 195:1 215:1 250:1 
0.5160830670762203 1:0.16666667 2:0.16666667 3:0.29635036 4:0.41666667 5:0.62952102 12:1 25:1 40:1 64:1 235:1 251:1 264:1 
2 1:0.5 2:0.5 3:0.35766423 4:0.68181818 5:0.62145023 14:1 24:1 41:1 119:1 236:1 251:1 
2 1:0.33333333 2:0.33333333 3:0.28848961 4:0.52272727 5:0.61929758 14:1 26:1 51:1 64:1 68:1 204:1 251:1 
2 1:0.16666667 2:0.16666667 3:0.39854015 4:0.56818182 5:0.62952102 14:1 26:1 40:1 51:1 63:1 195:1 251:1 
2 1:0.5 2:0.5 3:0.35766423 4:0.45454545 5:0.63688999 14:1 25:1 53:1 65:1 158:1 250:1 
2 1:0.33333333 2:0.33333333 3:0.63436272 4:0.52272727 5:0.66383534 24:1 39:1 53:1 65:1 196:1 250:1 
2 1:0.58333333 2:0.58333333 3:0.38576642 4:0.66558442 5:0.6238627 24:1 51:1 117:1 140:1 250:1 
2 1:0.25 2:0.25 3:0.33892944 4:0.71280992 5:0.61962749 24:1 111:1 204:1 215:1 228:1 250:1 
2 1:0.41666667 2:0.41666667 3:0.24525547 4:0.39141414 5:0.61373036 13:1 26:1 40:1 175:1 204:1 250:1 
2 1:0.33333333 2:0.33333333 3:0.20202134 4:0.61363636 5:0.61001888 13:1 25:1 119:1 132:1 213:1 251:1 
2 1:0.33333333 2:0.33333333 3:0.20202134 4:0.40909091 5:0.61974295 14:1 24:1 36:1 44:1 174:1 252:1 
2 1:0.25 2:0.25 3:0.24525547 4:0.4338843 5:0.62531017 36:1 68:1 85:1 123:1 228:1 254:1 
2 1:0.25 2:0.25 3:0.33892944 4:0.51652893 5:0.6328922 36:1 44:1 84:1 92:1 111:1 228:1 252:1 
2 1:0.33333333 2:0.33333333 3:0.20202134 4:0.31818182 5:0.61417573 85:1 91:1 220:1 230:1 252:1 
1.476022701241919 1:0.25 2:0.25 3:0.24525547 4:0.4338843 5:0.62531017 66:1 84:1 91:1 111:1 252:1 276:1 
1.739660003238921 1:0.25 2:0.25 3:0.30902583 4:0.74025974 5:0.75704916 12:1 47:1 60:1 96:1 179:1 246:1 
0.3987899438128995 1:0.33333333 2:0.33333333 3:0.32755474 4:0.3968254 5:0.6493314 12:1 85:1 153:1 208:1 246:1 
0.2171929362639101 1:0.5 2:0.5 3:0.21715328 4:0.45454545 5:0.65377723 14:1 25:1 46:1 61:1 153:1 
2 1:0.5 2:0.5 3:0.28740876 4:0.58441558 5:0.57778467 45:1 60:1 72:1 154:1 246:1 
1.513854268347983 1:0.58333333 2:0.58333333 3:0.30393946 4:0.64935065 5:0.67910808 46:1 73:1 153:1 167:1 
2 1:0.58333333 2:0.58333333 3:0.30393946 4:0.64935065 5:0.67910808 37:1 46:1 108:1 153:1 179:1 248:1 
2 1:0.5 2:0.5 3:0.35766423 4:0.19480519 5:0.66101461 37:1 46:1 109:1 128:1 246:1 
2 1:0.41666667 2:0.41666667 3:0.26867397 4:0.30844156 5:0.66109503 13:1 25:1 46:1 122:1 246:1 
0.4804164172375172 1:0.41666667 2:0.41666667 3:0.11879562 4:0.77922078 5:0.66222084 12:1 24:1 36:1 213:1 249:1 266:1 
1.92222961629422 1:0.083333333 2:0.083333333 3:0.36405109 4:0.77922078 5:0.66222084 12:1 24:1 96:1 108:1 208:1 251:1 
2 1:0.33333333 2:0.33333333 3:0.24726277 4:0.93073593 5:0.69944169 12:1 24:1 96:1 155:1 165:1 251:1 
2 1:0.41666667 2:0.41666667 3:0.26867397 4:0.66558442 5:0.60818169 12:1 38:1 72:1 153:1 244:1 250:1 
0.9056551283014043 1:0.16666667 2:0.16666667 3:0.19373479 4:0.82054309 5:0.76836918 12:1 60:1 96:1 120:1 153:1 276:1 
1.318991664440344 1:0.41666667 2:0.41666667 3:0.26867397 4:0.77922078 5:0.66222084 12:1 62:1 179:1 207:1 249:1 
2 1:0.58333333 2:0.58333333 3:0.10557106 4:0.77922078 5:0.66222084 14:1 26:1 38:1 46:1 120:1 153:1 251:1 
1.441733745677751 1:0.5 2:0.5 3:0.21715328 4:0.58441558 5:0.63688999 14:1 25:1 46:1 61:1 153:1 251:1 
0.1406944392099951 1:0.5 2:0.5 3:0.28740876 4:0.84415584 5:0.76354425 36:1 46:1 72:1 165:1 251:1 
2 1:0.58333333 2:0.58333333 3:0.30393946 4:0.77922078 5:0.66222084 47:1 122:1 154:1 251:1 
2 1:0.5 2:0.5 3:0.28740876 4:0.97402597 5:0.69599531 45:1 60:1 84:1 179:1 215:1 250:1 
2 1:0.66666667 2:0.66666667 3:0.38108273 4:0.87012987 5:0.75871933 46:1 60:1 154:1 166:1 251:1 
2 1:0.25 2:0.25 3:0.30902583 4:0.96103896 5:0.70119139 72:1 144:1 167:1 179:1 192:1 251:1 
2 1:0.58333333 2:0.58333333 3:0.30393946 4:0.77922078 5:0.66222084 37:1 46:1 108:1 153:1 179:1 250:1 
2 1:0.5 2:0.5 3:0.35766423 4:0.32467532 5:0.64412738 37:1 46:1 109:1 128:1 
0.5384730769547829 1:0.33333333 2:0.33333333 3:0.32755474 4:0.62770563 5:0.61259305 25:1 46:1 97:1 108:1 251:1 
0.7739878879224042 1:0.58333333 2:0.58333333 3:0.4607056 4:0.60064935 5:0.62257605 34:1 112:1 190:1 251:1 
2 1:0.66666667 2:0.66666667 3:0.22101045 4:0.34090909 5:0.64457203 86:1 206:1 235:1 250:1 
0.1138123485244572 1:0.58333333 2:0.58333333 3:0.32019465 4:0.47077922 5:0.63946328 101:1 206:1 235:1 251:1 
2 1:0.5 2:0.5 3:0.35766423 4:0.75757576 5:0.90488007 12:1 34:1 179:1 207:1 249:1 
1.969578318034988 1:0.33333333 2:0.33333333 3:0.4379562 4:0.50045914 5:0.617866 12:1 96:1 102:1 208:1 250:1 
0.3762502778480879 1:0.41666667 2:0.41666667 3:0.35148793 4:0.43434343 5:0.64072872 14:1 25:1 34:1 208:1 
0.5332618547836739 1:0.41666667 2:0.41666667 3:0.4379562 4:0.70707071 5:0.681555 24:1 155:1 207:1 250:1 
1.269171333245898 1:0.5 2:0.5 3:0.27737226 4:0.55555556 5:0.61952026 35:1 50:1 54:1 251:1 
1.009396872948922 1:0.66666667 2:0.66666667 3:0.4379562 4:0.38239538 5:0.64102564 34:1 56:1 208:1 250:1 
0.05612671523727823 1:0.41666667 2:0.41666667 3:0.26501965 4:0.52525253 5:0.63145002 72:1 217:1 225:1 241:1 250:1 
2 1:0.5 2:0.5 3:0.35766423 4:0.45454545 5:0.63688999 56:1 72:1 122:1 208:1 250:1 
2 1:0.41666667 2:0.41666667 3:0.35148793 4:0.34343434 5:0.65093529 54:1 72:1 82:1 97:1 104:1 217:1 
0.6955001893513658 1:0.41666667 2:0.41666667 3:0.26501965 4:0.52525253 5:0.63145002 54:1 72:1 242:1 250:1 276:1 
2 1:0.41666667 2:0.41666667 3:0.4379562 4:0.25252525 5:0.65260546 54:1 102:1 208:1 
2 1:0.25 2:0.25 3:0.4379562 4:0.63131313 5:0.50785773 13:1 155:1 207:1 216:1 
1.941364246751417 1:0.5 2:0.5 3:0.4379562 4:0.35353535 5:0.64433416 13:1 104:1 208:1 250:1 
1.019181407841756 1:0.5 2:0.5 3:0.27737226 4:0.55555556 5:0.61952026 13:1 56:1 129:1 144:1 251:1 
2 1:0.33333333 2:0.33333333 3:0.4379562 4:0.41781451 5:0.63606286 13:1 54:1 83:1 102:1 131:1 208:1 
0.3146893490454599 1:0.25 2:0.25 3:0.3144301 4:0.55944056 5:0.63688999 63:1 184:1 240:1 249:1 264:1 
0.420604088886522 1:0.5 2:0.5 3:0.44413251 4:0.45454545 5:0.63688999 63:1 164:1 198:1 251:1 
1.691857378043366 1:0.58333333 2:0.58333333 3:0.15384615 4:0.4040404 5:0.71133168 127:1 157:1 163:1 249:1 264:1 
2 1:0.66666667 2:0.66666667 3:0.35189968 4:0.45454545 5:0.63688999 128:1 142:1 162:1 249:1 264:1 
1.345132871892743 1:0.66666667 2:0.66666667 3:0.26399027 4:0.60076287 5:0.58381583 12:1 57:1 129:1 227:1 248:1 
1.337803025572917 1:0.41666667 2:0.41666667 3:0.54501217 4:0.49450549 5:0.56934105 39:1 75:1 226:1 246:1 
1.654918612828259 1:0.5 2:0.5 3:0.35766423 4:0.56818182 5:0.62034739 119:1 189:1 239:1 256:1 
2 1:0.41666667 2:0.41666667 3:0.4379562 4:0.37433155 5:0.63688999 155:1 174:1 198:1 256:1 
2 1:0.58333333 2:0.58333333 3:0.57846715 4:0.42424242 5:0.5283292 54:1 130:1 238:1 256:1 
2 1:0.66666667 2:0.66666667 3:0.50040552 4:0.38961039 5:0.61437368 54:1 103:1 166:1 257:1 
0.661307375191641 1:0.5 2:0.5 3:0.51824818 4:0.45454545 5:0.63688999 25:1 166:1 238:1 256:1 
1.047813491678231 1:0.66666667 2:0.66666667 3:0.35766423 4:0.56473829 5:0.40529363 11:1 58:1 176:1 
0.4139281420322121 1:0.83333333 2:0.83333333 3:0.21715328 4:0.60802834 5:0.3691067 9:1 57:1 176:1 250:1 
2 1:0.58333333 2:0.58333333 3:0.35766423 4:0.59504132 5:0.39081886 10:1 24:1 44:1 59:1 73:1 92:1 251:1 
0.05334973325419023 1:0.58333333 2:0.58333333 3:0.18472768 4:0.59504132 5:0.36854998 26:1 38:1 239:1 250:1 
2 1:0.5 2:0.5 3:0.1703163 4:0.45454545 5:0.53074166 26:1 37:1 43:1 59:1 
-1.391154883269092 1:0.41666667 2:0.41666667 3:0.39854015 4:0.26806527 5:0.7358448 6:1 91:1 111:1 148:1 166:1 222:1 253:1 
-0.687804125299916 1:0.58333333 2:0.58333333 3:0.175 4:0.40584416 5:0.5883995 24:1 64:1 68:1 91:1 134:1 206:1 249:1 
-1.566071856803812 1:0.5 2:0.5 3:0.35766423 4:0.45454545 5:0.63688999 14:1 24:1 70:1 100:1 137:1 175:1 
-1.206743731419077 1:0.41666667 2:0.41666667 3:0.45684843 4:0.62770563 5:0.65221622 12:1 29:1 99:1 104:1 128:1 179:1 252:1 
-0.9359380633038819 1:0.41666667 2:0.41666667 3:0.35766423 4:0.56473829 5:0.40529363 24:1 44:1 58:1 84:1 174:1 228:1 251:1 
-0.3312348443575274 1:0.25 2:0.25 3:0.14051095 4:0.28787879 5:0.63029175 60:1 85:1 121:1 163:1 207:1 235:1 253:1 
-1.964030455984715 1:0.58333333 2:0.58333333 3:0.47542579 4:0.39141414 5:0.59194927 13:1 58:1 88:1 137:1 141:1 176:1 
-2 1:0.75 2:0.75 3:0.40630264 4:0.54545455 5:0.63549819 14:1 20:1 46:1 123:1 128:1 200:1 
-2 1:0.41666667 2:0.41666667 3:0.39369268 4:0.50413223 5:0.65656084 14:1 18:1 75:1 92:1 167:1 208:1 251:1 
-0.719474988549984 1:0.41666667 2:0.41666667 3:0.34361314 4:0.77922078 5:0.66222084 47:1 96:1 108:1 128:1 165:1 208:1 251:1 
-0.5932344186682087 1:0.5 2:0.5 3:0.27737226 4:0.65656566 5:0.49545079 13:1 35:1 83:1 97:1 104:1 225:1 251:1 
-1.026600183129982 1:0.41666667 2:0.41666667 3:0.26867397 4:0.55194805 5:0.63520127 46:1 61:1 74:1 146:1 215:1 244:1 
-2 1:0.33333333 2:0.33333333 3:0.30001872 4:0.29545455 5:0.66435494 37:1 88:1 109:1 162:1 179:1 223:1 
-0.169354066189754 1:0.41666667 2:0.41666667 3:0.25547445 4:0.48898072 5:0.46056094 36:1 86:1 128:1 168:1 192:1 212:1 
-0.6621378822314495 1:0.5 2:0.5 3:0.50754258 4:0.56818182 5:0.62016359 25:1 34:1 53:1 112:1 120:1 214:1 250:1 
-2 1:0.5 2:0.5 3:0.42378703 4:0.45454545 5:0.64710748 14:1 65:1 116:1 179:1 232:1 236:1 252:1 
-0.244485426562961 1:0.16666667 2:0.16666667 3:0.38108273 4:0.60802834 5:0.46681141 12:1 24:1 108:1 126:1 155:1 231:1 246:1 
-2 1:0.58333333 2:0.58333333 3:0.4379562 4:0.70707071 5:0.681555 24:1 82:1 209:1 226:1 251:1 
-2 1:0.5 2:0.5 3:0.42791971 4:0.71428571 5:0.83109319 46:1 72:1 166:1 207:1 
-1.748306268633215 1:0.41666667 2:0.41666667 3:0.27684748 4:0.39393939 5:0.68154419 12:1 42:1 101:1 174:1 215:1 230:1 254:1 
-0.2184640341295047 1:0.33333333 2:0.33333333 3:0.56925719 4:0.41666667 5:0.67537586 29:1 40:1 87:1 172:1 178:1 221:1 254:1 
-2 1:0.66666667 2:0.66666667 3:0.35766423 4:0.66574839 5:0.37055418 10:1 44:1 155:1 204:1 250:1 
-0.9885002270658091 1:0.16666667 2:0.16666667 3:0.4288734 4:0.6969697 5:0.75059228 24:1 40:1 84:1 101:1 218:1 243:1 251:1 
-0.3787942625147478 1:0.25 2:0.25 3:0.20652641 4:0.65656566 5:0.70987204 74:1 84:1 156:1 206:1 216:1 233:1 
-0.4893384082031041 1:0.25 2:0.25 3:0.4379562 4:0.55555556 5:0.59470637 12:1 104:1 120:1 144:1 169:1 208:1 250:1 
-2 1:0.41666667 2:0.41666667 3:0.40725633 4:0.8008658 5:0.70642566 12:1 101:1 117:1 131:1 216:1 245:1 
-0.8376515407064751 1:0.41666667 2:0.41666667 3:0.24031443 4:0.43434343 5:0.64806685 17:1 29:1 45:1 62:1 170:1 217:1 253:1 
-0.4553807948516033 1:0.33333333 2:0.33333333 3:0.23864319 4:0.49242424 5:0.64949156 24:1 40:1 54:1 117:1 157:1 182:1 251:1 
-1.652099569489955 1:0.25 2:0.25 3:0.23276561 4:0.44273908 5:0.62316576 38:1 42:1 54:1 132:1 143:1 216:1 255:1 
-0.5555455035954476 1:0.33333333 2:0.33333333 3:0.24726277 4:0.5988456 5:0.56744555 38:1 96:1 109:1 165:1 192:1 233:1 
-0.2898029064273602 1:0.33333333 2:0.33333333 3:0.43627176 4:0.39393939 5:0.611382 41:1 42:1 86:1 121:1 148:1 195:1 250:1 
-0.1559436787607616 1:0.41666667 2:0.41666667 3:0.49683698 4:0.58080808 5:0.63645673 58:1 72:1 107:1 138:1 171:1 245:1 
-1.411590325510013 1:0.58333333 2:0.58333333 3:0.37469586 4:0.4476584 5:0.63837158 19:1 68:1 84:1 120:1 164:1 233:1 
-1.414820328479004 1:0.58333333 2:0.58333333 3:0.29590118 4:0.34343434 5:0.63973723 20:1 84:1 151:1 188:1 216:1 234:1 
-2 1:0.5 2:0.5 3:0.28272506 4:0.34090909 5:0.64846981 57:1 73:1 98:1 114:1 173:1 
-1.140750133967036 1:0.58333333 2:0.58333333 3:0.35766423 4:0.59504132 5:0.39081886 84:1 128:1 154:1 174:1 239:1 251:1 
-2 1:0.25 2:0.25 3:0.14051095 4:0.46969697 5:0.6231339 46:1 84:1 122:1 156:1 180:1 253:1 
-2 1:0.33333333 2:0.33333333 3:0.31938261 4:0.45454545 5:0.63688999 12:1 76:1 93:1 184:1 225:1 256:1 
-0.3888877106508319 1:0.5 2:0.5 3:0.093173036 4:0.45454545 5:0.59602005 14:1 47:1 103:1 127:1 144:1 205:1 254:1 
-2 1:0.75 2:0.75 3:0.12528074 4:0.41558442 5:0.62247089 19:1 38:1 45:1 86:1 152:1 162:1 
-0.7063004990014345 1:0.5 2:0.5 3:0.18472768 4:0.45454545 5:0.62575555 45:1 63:1 75:1 86:1 91:1 151:1 253:1 
-0.1163914613139134 1:0.33333333 2:0.33333333 3:0.37495789 4:0.43181818 5:0.64713368 51:1 86:1 113:1 196:1 205:1 235:1 251:1 
-2 1:0.58333333 2:0.58333333 3:0.36301703 4:0.36616162 5:0.6481022 13:1 82:1 102:1 153:1 208:1 250:1 
-0.6034381486245777 1:0.33333333 2:0.33333333 3:0.43714517 4:0.33549784 5:0.65418661 30:1 46:1 60:1 156:1 210:1 233:1 253:1 
-0.5838719525119981 1:0.41666667 2:0.41666667 3:0.21849148 4:0.42929293 5:0.64709126 49:1 64:1 75:1 122:1 175:1 201:1 
-0.09278775847842406 1:0.33333333 2:0.33333333 3:0.46695053 4:0.61038961 5:0.86929051 42:1 65:1 99:1 136:1 143:1 215:1 254:1 
-0.5668431875506575 1:0.41666667 2:0.41666667 3:0.51946472 4:0.46831956 5:0.64904629 20:1 32:1 52:1 154:1 180:1 207:1 252:1 
-2 1:0.25 2:0.25 3:0.30902583 4:0.37662338 5:0.65312772 13:1 45:1 61:1 96:1 126:1 232:1 
-2 1:0.41666667 2:0.41666667 3:0.14869923 4:0.38016529 5:0.62498674 18:1 46:1 84:1 108:1 151:1 218:1 253:1 
-1.540865339298602 1:0.41666667 2:0.41666667 3:0.4379562 4:0.7979798 5:0.82630273 24:1 82:1 168:1 209:1 227:1 251:1 
-2 1:0.5 2:0.5 3:0.28272506 4:0.56818182 5:0.64332322 26:1 71:1 101:1 112:1 122:1 213:1 
-0.2305628774553546 1:0.41666667 2:0.41666667 3:0.051094891 4:0.33746556 5:0.23949169 25:1 38:1 42:1 122:1 153:1 169:1 
-2 1:0.16666667 2:0.16666667 3:0.32554745 4:0.53224553 5:0.62133995 12:1 26:1 48:1 102:1 144:1 208:1 
-0.6258457946803396 1:0.58333333 2:0.58333333 3:0.40707468 4:0.6969697 5:0.59107972 39:1 44:1 57:1 84:1 107:1 238:1 
-0.6492388292635167 1:0.33333333 2:0.33333333 3:0.34428224 4:0.66574839 5:0.41618417 122:1 179:1 193:1 209:1 227:1 240:1 
-0.467710931779165 1:0.5 2:0.5 3:0.35766423 4:0.36363636 5:0.64338508 46:1 65:1 76:1 127:1 144:1 187:1 253:1 
-0.5224724251524649 1:0.41666667 2:0.41666667 3:0.15328467 4:0.56473829 5:0.37371231 36:1 120:1 127:1 176:1 192:1 230:1 251:1 
-2 1:0.25 2:0.25 3:0.4379562 4:0.32828283 5:0.64681555 13:1 25:1 54:1 102:1 208:1 251:1 
-1.906012024859224 1:0.66666667 2:0.66666667 3:0.2695005 4:0.26515152 5:0.66782627 28:1 67:1 130:1 163:1 237:1 253:1 
-0.9275421344464734 1:0.25 2:0.25 3:0.42153285 4:0.34848485 5:0.65097 6:1 18:1 31:1 60:1 207:1 231:1 252:1 
-1.373564625842516 1:0.5 2:0.5 3:0.35766423 4:0.35353535 5:0.6120761 26:1 30:1 44:1 76:1 107:1 174:1 251:1 
-0.4354799968700214 1:0.58333333 2:0.58333333 3:0.5009303 4:0.51515152 5:0.57615271 40:1 53:1 86:1 101:1 106:1 118:1 
-0.4596935310836276 1:0.33333333 2:0.33333333 3:0.39669505 4:0.48051948 5:0.59065114 13:1 41:1 71:1 99:1 176:1 194:1 253:1 
-0.07090727233137974 1:0.25 2:0.25 3:0.33892944 4:0.4338843 5:0.63592501 13:1 36:1 209:1 219:1 229:1 238:1 254:1 
-2 1:0.58333333 2:0.58333333 3:0.18734793 4:0.36501377 5:0.62994711 31:1 127:1 138:1 180:1 
-2 1:0.83333333 2:0.83333333 3:0.28740876 4:0.47815821 5:0.49576096 44:1 92:1 122:1 154:1 250:1 
-0.2061322939372672 1:0.83333333 2:0.83333333 3:0.48710462 4:0.53030303 5:0.63987267 32:1 46:1 92:1 128:1 233:1 236:1 252:1 
-0.7362062662372932 1:0.66666667 2:0.66666667 3:0.29744526 4:0.77200577 5:0.83354012 24:1 35:1 130:1 178:1 218:1 250:1 
-0.5008971101613926 1:0.5 2:0.5 3:0.076642336 4:0.45454545 5:0.47766749 26:1 38:1 91:1 126:1 155:1 204:1 
-2 1:0.083333333 2:0.083333333 3:0.5209932 4:0.18181818 5:0.68668568 40:1 64:1 109:1 136:1 174:1 253:1 
-0.5038034903885613 1:0.33333333 2:0.33333333 3:0.61706906 4:0.54545455 5:0.64635427 46:1 63:1 77:1 123:1 144:1 224:1 252:1 
-2 1:0.41666667 2:0.41666667 3:0.42579075 4:0.39944904 5:0.65513698 75:1 79:1 157:1 162:1 190:1 255:1 
-1.579894133493725 1:0.5 2:0.5 3:0.47598924 4:0.22727273 5:0.65822124 14:1 19:1 75:1 126:1 149:1 221:1 257:1 
-2 1:0.25 2:0.25 3:0.15782644 4:0.65909091 5:0.74046503 12:1 25:1 86:1 108:1 122:1 142:1 252:1 
-0.3562834981558222 1:0.58333333 2:0.58333333 3:0.5009303 4:0.51515152 5:0.57615271 53:1 188:1 204:1 233:1 245:1 249:1 
-1.761921967843746 1:0.5 2:0.5 3:0.27119596 4:0.54545455 5:0.62668342 8:1 106:1 153:1 204:1 228:1 241:1 
-0.1513079941716267 1:0.33333333 2:0.33333333 3:0.18734793 4:0.27056277 5:0.63729938 6:1 30:1 62:1 120:1 232:1 235:1 252:1 
-0.6594063964425735 1:0.41666667 2:0.41666667 3:0.26501965 4:0.43434343 5:0.64815168 13:1 81:1 96:1 102:1 153:1 208:1 
-0.5480206962683646 1:0.16666667 2:0.16666667 3:0.35766423 4:0.47922666 5:0.63688999 95:1 120:1 147:1 186:1 220:1 241:1 
-1.771424079641942 1:0.33333333 2:0.33333333 3:0.31049972 4:0.31818182 5:0.64372249 14:1 36:1 75:1 145:1 188:1 198:1 
-1.668196608573599 1:0.16666667 2:0.16666667 3:0.59184915 4:0.52066116 5:0.65184726 23:1 75:1 100:1 111:1 141:1 216:1 256:1 
-0.0162701836304232 1:0.5 2:0.5 3:0.58248175 4:0.45454545 5:0.78742763 20:1 63:1 76:1 128:1 139:1 167:1 255:1 
-0.3405731927772033 1:0.5 2:0.5 3:0.1703163 4:0.45454545 5:0.53074166 11:1 24:1 42:1 122:1 127:1 229:1 250:1 
-1.646750617534869 1:0.5 2:0.5 3:0.21715328 4:0.71428571 5:0.75510063 12:1 128:1 144:1 155:1 194:1 213:1 
-0.1287221655532004 1:0.25 2:0.25 3:0.5046603 4:0.40559441 5:0.65085753 47:1 76:1 84:1 123:1 152:1 186:1 252:1 
-0.3406260137700658 1:0.5 2:0.5 3:0.35766423 4:0.37878788 5:0.613204 20:1 35:1 88:1 112:1 127:1 201:1 253:1 
-2 1:0.33333333 2:0.33333333 3:0.36342879 4:0.61363636 5:0.63389606 12:1 24:1 112:1 177:1 232:1 250:1 
-0.05151264037491547 1:0.5 2:0.5 3:0.076642336 4:0.58441558 5:0.65377723 36:1 45:1 61:1 96:1 146:1 165:1 247:1 
-2 1:0.25 2:0.25 3:0.38264396 4:0.43181818 5:0.64782649 12:1 41:1 108:1 176:1 193:1 241:1 
-1.301402316465417 1:0.33333333 2:0.33333333 3:0.15693431 4:0.58310376 5:0.62848084 82:1 96:1 122:1 192:1 218:1 241:1 
-1.51014811102003 1:0.5 2:0.5 3:0.53060079 4:0.27272727 5:0.67864414 12:1 76:1 125:1 152:1 224:1 236:1 253:1 
-0.1240853456830401 1:0.91666667 2:0.91666667 3:0.30482251 4:0.54545455 5:0.63027119 20:1 47:1 92:1 187:1 199:1 236:1 
-2 1:0.41666667 2:0.41666667 3:0.28272506 4:0.41958042 5:0.71215881 12:1 30:1 45:1 103:1 160:1 204:1 257:1 
-2 1:0.16666667 2:0.16666667 3:0.42077091 4:0.68181818 5:0.60987042 39:1 51:1 76:1 89:1 93:1 192:1 255:1 
-1.065930912232784 1:0.33333333 2:0.33333333 3:0.43627176 4:0.54545455 5:0.60348667 13:1 40:1 59:1 85:1 106:1 185:1 251:1 
-0.9052605762221139 1:0.16666667 2:0.16666667 3:0.42077091 4:0.45454545 5:0.63688999 41:1 52:1 123:1 127:1 148:1 192:1 255:1 
-0.08696723916782861 1:0.083333333 2:0.083333333 3:0.2695005 4:0.34435262 5:0.54606789 14:1 64:1 146:1 172:1 219:1 231:1 253:1 
-1.401290426458819 1:0.25 2:0.25 3:0.48880779 4:0.54752066 5:0.6552247 50:1 87:1 125:1 168:1 185:1 255:1 
-0.272830502357731 1:0.41666667 2:0.41666667 3:0.31633748 4:0.36796537 5:0.60155452 13:1 45:1 63:1 99:1 103:1 126:1 
-1.655228248439107 1:0.33333333 2:0.33333333 3:0.4126895 4:0.31818182 5:0.6542496 20:1 38:1 76:1 109:1 123:1 236:1 252:1 
-0.4031809440780096 1:0.33333333 2:0.33333333 3:0.28848961 4:0.31818182 5:0.63644461 24:1 54:1 68:1 174:1 228:1 239:1 253:1 
-1.186134516239133 1:0.41666667 2:0.41666667 3:0.39369268 4:0.50413223 5:0.65656084 14:1 77:1 86:1 106:1 196:1 208:1 251:1 
-0.6816818310788727 1:0.41666667 2:0.41666667 3:0.34297028 4:0.6969697 5:0.76328408 12:1 85:1 137:1 143:1 175:1 215:1 
-2 1:0.5 2:0.5 3:0.27737226 4:0.35353535 5:0.65496869 13:1 54:1 81:1 102:1 131:1 
-0.1686284399427161 1:0.25 2:0.25 3:0.47871982 4:0.42657343 5:0.65059066 20:1 63:1 107:1 120:1 204:1 220:1 246:1 
-2 1:0.75 2:0.75 3:0.28272506 4:0.64049587 5:0.36862421 38:1 58:1 128:1 238:1 251:1 
-2 1:0.58333333 2:0.58333333 3:0.37603168 4:0.6969697 5:0.73698352 101:1 105:1 119:1 130:1 169:1 
-2 1:0.75 2:0.75 3:0.17346501 4:0.55555556 5:0.63557631 14:1 56:1 155:1 225:1 249:1 
-0.6843067850188151 1:0.83333333 2:0.83333333 3:0.33722628 4:0.41666667 5:0.6379427 20:1 32:1 60:1 104:1 164:1 211:1 
-1.89979714429553 1:0.5 2:0.5 3:0.47007299 4:0.52447552 5:0.71215881 12:1 64:1 104:1 128:1 191:1 225:1 255:1 
-0.3371963260020933 1:0.5 2:0.5 3:0.58248175 4:0.22727273 5:0.54425145 39:1 53:1 65:1 92:1 138:1 234:1 
-1.918351921347224 1:0.41666667 2:0.41666667 3:0.42972113 4:0.46280992 5:0.64099324 18:1 47:1 75:1 144:1 200:1 236:1 252:1 
-0.04561225355607592 1:0.083333333 2:0.083333333 3:0.50486618 4:0.44938017 5:0.64915908 51:1 77:1 120:1 135:1 155:1 181:1 253:1 
-1.306829100171171 1:0.58333333 2:0.58333333 3:0.51094891 4:0.17906336 5:0.66057598 8:1 19:1 56:1 112:1 220:1 222:1 
-0.2735561507430436 1:0.58333333 2:0.58333333 3:0.29805353 4:0.33746556 5:0.53644384 14:1 84:1 90:1 104:1 138:1 202:1 
-2 1:0.41666667 2:0.41666667 3:0.44963504 4:0.46037296 5:0.64215355 18:1 46:1 84:1 120:1 164:1 207:1 
-1.366459528189564 1:0.33333333 2:0.33333333 3:0.51487928 4:0.39393939 5:0.65293371 14:1 37:1 65:1 77:1 123:1 164:1 252:1 
-1.642418385485159 1:0.41666667 2:0.41666667 3:0.33604716 4:0.29752066 5:0.64924922 14:1 75:1 85:1 92:1 200:1 217:1 
-1.735868493538306 1:0.58333333 2:0.58333333 3:0.37619315 4:0.34343434 5:0.6471814 20:1 36:1 84:1 150:1 164:1 188:1 
-0.734076192312376 1:0.58333333 2:0.58333333 3:0.38442822 4:0.59343434 5:0.61317894 17:1 45:1 71:1 84:1 224:1 238:1 253:1 
-2 1:0.5 2:0.5 3:0.35766423 4:0.71428571 5:0.53556658 26:1 36:1 154:1 166:1 231:1 
-1.384360015591942 1:0.5 2:0.5 3:0.35766423 4:0.45454545 5:0.63688999 36:1 45:1 76:1 125:1 128:1 146:1 
-0.7807633015085816 1:0.41666667 2:0.41666667 3:0.48613139 4:0.39141414 5:0.72539289 51:1 84:1 113:1 140:1 157:1 236:1 
-1.256605868055811 1:0.083333333 2:0.083333333 3:0.48736665 4:0.39393939 5:0.60348667 40:1 76:1 86:1 148:1 160:1 195:1 
-2 1:0.41666667 2:0.41666667 3:0.40909308 4:0.54545455 5:0.71730539 13:1 63:1 70:1 108:1 176:1 
-0.1862009803739305 1:0.58333333 2:0.58333333 3:0.30393946 4:0.64935065 5:0.67910808 46:1 60:1 85:1 153:1 213:1 243:1 248:1 
-1.31182313166916 1:0.58333333 2:0.58333333 3:0.1796837 4:0.73051948 5:0.69012499 33:1 86:1 156:1 191:1 206:1 250:1 
-1.853694105854766 1:0.66666667 2:0.66666667 3:0.40784672 4:0.64213564 5:0.57578577 94:1 113:1 119:1 143:1 175:1 
-0.5653864391457782 1:0.33333333 2:0.33333333 3:0.48813869 4:0.3968254 5:0.63444307 37:1 46:1 61:1 97:1 233:1 245:1 
-1.054139950626618 1:0.5 2:0.5 3:0.18472768 4:0.27272727 5:0.65359165 14:1 115:1 157:1 162:1 200:1 216:1 
-1.725136638470623 1:0.41666667 2:0.41666667 3:0.41654501 4:0.58080808 5:0.63113947 15:1 59:1 72:1 156:1 200:1 248:1 
-2 1:0.5 2:0.5 3:0.14689781 4:0.58441558 5:0.62844637 26:1 36:1 46:1 60:1 153:1 194:1 246:1 
-2 1:0.66666667 2:0.66666667 3:0.2702352 4:0.6969697 5:0.75204485 43:1 69:1 101:1 215:1 230:1 
-0.7166167323292746 1:0.41666667 2:0.41666667 3:0.26501965 4:0.25252525 5:0.66151301 14:1 54:1 102:1 122:1 208:1 241:1 250:1 
-2 1:0.5 2:0.5 3:0.48256285 4:0.45454545 5:0.60472383 40:1 44:1 101:1 176:1 215:1 252:1 
-1.687466613678472 1:0.41666667 2:0.41666667 3:0.21289538 4:0.31680441 5:0.62141264 55:1 76:1 104:1 122:1 229:1 252:1 
-2 1:0.25 2:0.25 3:0.38264396 4:0.43181818 5:0.64782649 24:1 41:1 85:1 109:1 176:1 204:1 
-0.5084456788775241 1:0.66666667 2:0.66666667 3:0.49505272 4:0.39393939 5:0.64782649 41:1 44:1 101:1 176:1 214:1 228:1 
-1.823720555066594 1:0.41666667 2:0.41666667 3:0.30836215 4:0.90909091 5:0.6175903 14:1 93:1 123:1 159:1 194:1 226:1 255:1 
-2 2:2.1279275e-16 3:0.13531724 4:0.31818182 5:0.62567602 13:1 37:1 84:1 109:1 144:1 216:1 
-2 1:0.41666667 2:0.41666667 3:0.35766423 4:0.48898072 5:0.49214227 11:1 37:1 109:1 212:1 239:1 
-1.444151557379745 1:0.5 2:0.5 3:0.18472768 4:0.36363636 5:0.62389981 19:1 42:1 120:1 153:1 180:1 229:1 248:1 
-0.1155885294363995 1:0.33333333 2:0.33333333 3:0.34443967 4:0.41666667 5:0.62905659 39:1 46:1 87:1 128:1 146:1 193:1 253:1 
-2 1:0.41666667 2:0.41666667 3:0.58104061 4:0.4214876 5:0.58579528 13:1 77:1 90:1 161:1 183:1 250:1 
-0.145948897433346 1:0.83333333 2:0.83333333 3:0.083000297 4:0.90909091 5:0.62496959 14:1 21:1 81:1 141:1 158:1 189:1 251:1 
-0.9453943026233811 1:0.75 2:0.75 3:0.10366367 4:0.51948052 5:0.56089744 14:1 115:1 141:1 158:1 162:1 189:1 251:1 
-2 1:0.58333333 2:0.58333333 3:0.19332394 4:0.54545455 5:0.71730539 43:1 70:1 108:1 170:1 242:1 
-0.4339725653772197 1:0.83333333 2:0.83333333 3:0.091970803 4:0.60606061 5:0.57793819 19:1 84:1 189:1 201:1 225:1 237:1 246:1 
-2 1:0.5 2:0.5 3:0.65742092 4:0.68181818 5:0.64203658 39:1 53:1 113:1 195:1 214:1 250:1 
-0.7754313876492569 1:0.25 2:0.25 3:0.30770479 4:0.43181818 5:0.66326624 43:1 63:1 168:1 214:1 229:1 241:1 253:1 
-2 1:0.16666667 2:0.16666667 3:0.61706906 4:0.48051948 5:0.65117919 47:1 63:1 77:1 123:1 180:1 253:1 
-1.018462210936016 1:0.33333333 2:0.33333333 3:0.53636534 4:0.70454545 5:0.58379108 24:1 34:1 51:1 101:1 113:1 156:1 
-0.5915728768351499 1:0.66666667 2:0.66666667 3:0.22718978 4:0.31024531 5:0.625 14:1 31:1 43:1 117:1 174:1 231:1 
-2 1:0.41666667 2:0.41666667 3:0.33604716 4:0.46280992 5:0.63509611 46:1 75:1 110:1 124:1 235:1 252:1 
-2 1:0.41666667 2:0.41666667 3:0.21072468 4:0.54545455 5:0.71730539 14:1 25:1 41:1 110:1 122:1 215:1 
-1.131092054475078 1:0.83333333 2:0.83333333 3:0.24979724 4:1 5:0.7278325 14:1 43:1 65:1 69:1 142:1 214:1 254:1 
-0.5994831470418899 1:0.41666667 2:0.41666667 3:0.2423732 4:0.29752066 5:0.63863439 13:1 45:1 85:1 92:1 124:1 218:1 
-0.1756265515426036 1:0.41666667 2:0.41666667 3:0.64671533 4:0.39141414 5:0.79983457 41:1 112:1 138:1 171:1 176:1 195:1 250:1 
-0.3170201458182778 1:0.41666667 2:0.41666667 3:0.47751181 4:0.8008658 5:0.71486928 99:1 106:1 119:1 145:1 245:1 251:1 
-2 1:0.33333333 2:0.33333333 3:0.31358237 4:0.71969697 5:0.71125059 12:1 72:1 105:1 168:1 244:1 250:1 
-2 1:0.41666667 2:0.41666667 3:0.27684748 4:0.6969697 5:0.7530666 39:1 44:1 143:1 206:1 230:1 252:1 
-1.496090445199206 1:0.5 2:0.5 3:0.35766423 4:0.18181818 5:0.6118375 13:1 20:1 85:1 92:1 220:1 223:1 
-2 1:0.25 2:0.25 3:0.38264396 4:0.65909091 5:0.7867843 12:1 99:1 168:1 176:1 214:1 228:1 253:1 
-1.130442481277884 1:0.5 2:0.5 3:0.35766423 4:0.75757576 5:0.7084124 12:1 26:1 52:1 99:1 106:1 118:1 249:1 
-2 1:0.33333333 2:0.33333333 3:0.23864319 4:0.49242424 5:0.64949156 14:1 24:1 40:1 117:1 168:1 186:1 
-2 1:0.41666667 2:0.41666667 3:0.42972113 4:0.38016529 5:0.64773282 12:1 20:1 75:1 152:1 200:1 217:1 252:1 
-0.02493351992496018 1:0.58333333 2:0.58333333 3:0.073554183 4:0.50505051 5:0.52522746 13:1 141:1 158:1 162:1 189:1 242:1 251:1 
-1.082865222462187 1:0.58333333 2:0.58333333 3:0.23781666 4:0.8008658 5:0.71486928 14:1 165:1 177:1 192:1 215:1 233:1 
-2 1:0.41666667 2:0.41666667 3:0.26867397 4:0.64935065 5:0.67910808 97:1 108:1 153:1 213:1 231:1 
-1.475699557978365 1:0.33333333 2:0.33333333 3:0.49817518 4:0.58974359 5:0.74545079 12:1 23:1 39:1 58:1 186:1 207:1 
-1.230536466272149 1:0.41666667 2:0.41666667 3:0.52710391 4:0.4978355 5:0.66065984 45:1 76:1 88:1 179:1 221:1 233:1 
-0.6405190052781606 1:0.41666667 2:0.41666667 3:0.37081146 4:0.54545455 5:0.55647459 20:1 127:1 147:1 171:1 193:1 225:1 255:1 
-0.4170422004199006 1:0.16666667 2:0.16666667 3:0.19416058 4:0.37878788 5:0.61741484 36:1 55:1 84:1 112:1 123:1 230:1 253:1 
-0.4590748825289229 1:0.75 2:0.75 3:0.23958781 4:0.4040404 5:0.65345692 25:1 34:1 55:1 83:1 104:1 249:1 
-1.863800094047236 1:0.25 2:0.25 3:0.47229159 4:0.38961039 5:0.71288255 64:1 95:1 148:1 184:1 209:1 
-1.241147180384366 1:0.33333333 2:0.33333333 3:0.55036496 4:0.50505051 5:0.68899917 25:1 71:1 88:1 119:1 176:1 239:1 256:1 
-1.596359939130785 1:0.41666667 2:0.41666667 3:0.47521588 4:0.54545455 5:0.71730539 12:1 101:1 137:1 143:1 176:1 205:1 
-0.6729415594729483 1:0.41666667 2:0.41666667 3:0.2423732 4:0.29752066 5:0.63863439 12:1 85:1 146:1 164:1 188:1 234:1 252:1 
-2 1:0.66666667 2:0.66666667 3:0.11678832 4:0.56473829 5:0.36807279 36:1 140:1 153:1 170:1 237:1 
-0.5712009806949309 1:0.33333333 2:0.33333333 3:0.46142617 4:0.25 5:0.55805815 13:1 112:1 140:1 174:1 196:1 215:1 
-2 1:0.33333333 2:0.33333333 3:0.19049223 4:0.52272727 5:0.65059773 13:1 85:1 111:1 189:1 206:1 
-0.030050435238696 1:0.33333333 2:0.33333333 3:0.32360097 4:0.3030303 5:0.66057598 48:1 76:1 91:1 150:1 185:1 196:1 254:1 
-2 1:0.25 2:0.25 3:0.32019465 4:0.58884298 5:0.63946328 33:1 52:1 120:1 136:1 156:1 
-2 1:0.5 2:0.5 3:0.28272506 4:0.22727273 5:0.60987042 30:1 57:1 181:1 198:1 
-1.459120051299073 1:0.58333333 2:0.58333333 3:0.38236946 4:0.43434343 5:0.6406651 19:1 42:1 63:1 154:1 188:1 228:1 
-0.651507417406668 1:0.5 2:0.5 3:0.58248175 4:0.38461538 5:0.63688999 19:1 46:1 64:1 104:1 167:1 220:1 256:1 
-2 1:0.16666667 2:0.16666667 3:0.34583173 4:0.56818182 5:0.56741108 14:1 88:1 95:1 159:1 173:1 192:1 256:1 
-2 1:0.25 2:0.25 3:0.38264396 4:0.65909091 5:0.7867843 12:1 63:1 69:1 100:1 135:1 206:1 
-1.565582439757271 1:0.16666667 2:0.16666667 3:0.28629359 4:0.49494949 5:0.60564286 13:1 71:1 101:1 204:1 229:1 242:1 253:1 
-0.9839644050281188 1:0.33333333 2:0.33333333 3:0.19258843 4:0.18181818 5:0.61833259 18:1 42:1 122:1 205:1 220:1 242:1 
-2 1:0.25 2:0.25 3:0.39225154 4:0.33566434 5:0.64966279 37:1 75:1 180:1 198:1 224:1 252:1 
-1.074949854815824 1:0.33333333 2:0.33333333 3:0.25060827 4:0.66574839 5:0.46925834 131:1 169:1 177:1 193:1 216:1 251:1 
-2 1:0.41666667 2:0.41666667 3:0.39472207 4:0.5959596 5:0.58853471 12:1 77:1 119:1 137:1 141:1 157:1 
-0.1029140186811223 1:0.5 2:0.5 3:0.23276561 4:0.81818182 5:0.73338848 71:1 101:1 110:1 122:1 141:1 215:1 253:1 
-0.4620511249929191 1:0.66666667 2:0.66666667 3:0.30263897 4:0.34848485 5:0.64076343 45:1 60:1 68:1 138:1 164:1 234:1 
-0.6798501983255864 1:0.16666667 2:0.16666667 3:0.44687753 4:0.5959596 5:0.90340961 14:1 24:1 65:1 99:1 108:1 137:1 253:1 
-2 1:0.33333333 2:0.33333333 3:0.38442822 4:0.66574839 5:0.54563 15:1 85:1 142:1 191:1 216:1 
-0.7383017294114007 1:0.25 2:0.25 3:0.21597252 4:0.45454545 5:0.61499538 14:1 63:1 128:1 146:1 193:1 219:1 252:1 
-2 1:0.5 2:0.5 3:0.35766423 4:0.27272727 5:0.69050026 25:1 42:1 65:1 71:1 110:1 176:1 
-1.283797643388812 1:0.25 2:0.25 3:0.22992701 4:0.51515152 5:0.62955861 35:1 48:1 111:1 184:1 235:1 252:1 
-0.6371462204238897 1:0.58333333 2:0.58333333 3:0.5620438 4:0.53030303 5:0.64373261 46:1 140:1 207:1 212:1 231:1 
-2 1:0.5 2:0.5 3:0.27119596 4:0.36363636 5:0.63596212 84:1 128:1 145:1 152:1 223:1 252:1 
-0.6709184370120446 1:0.16666667 2:0.16666667 3:0.54501217 4:0.43801653 5:0.65343259 12:1 51:1 104:1 155:1 207:1 244:1 253:1 
-0.2095267926601411 1:0.41666667 2:0.41666667 3:0.48077859 4:0.74494949 5:0.5650216 52:1 101:1 120:1 141:1 215:1 233:1 251:1 
-0.5619722272776975 1:0.083333333 2:0.083333333 3:0.28272506 4:0.46328671 5:0.65039978 36:1 66:1 88:1 109:1 157:1 203:1 252:1 
-0.4036264739889859 1:0.41666667 2:0.41666667 3:0.32554745 4:0.27777778 5:0.66253102 13:1 55:1 92:1 138:1 219:1 228:1 
-0.3130957208810242 1:0.25 2:0.25 3:0.40203611 4:0.51948052 5:0.53556658 40:1 88:1 171:1 194:1 225:1 243:1 257:1 
-0.6171622274321428 1:0.33333333 2:0.33333333 3:0.46142617 4:0.59090909 5:0.63922822 12:1 111:1 190:1 207:1 221:1 230:1 
-0.9984253594511215 1:0.25 2:0.25 3:0.48540146 4:0.40909091 5:0.8066396 39:1 42:1 75:1 120:1 162:1 227:1 246:1 
-2 1:0.41666667 2:0.41666667 3:0.41654501 4:0.37878788 5:0.65949821 116:1 181:1 228:1 243:1 248:1 
-1.240641459162293 1:0.16666667 2:0.16666667 3:0.42077091 4:0.34090909 5:0.69092914 18:1 88:1 93:1 159:1 184:1 207:1 256:1 
-0.02365468131887689 1:0.083333333 2:0.083333333 3:0.47655811 4:0.24242424 5:0.6825412 13:1 36:1 75:1 109:1 125:1 162:1 253:1 
-0.2334590542271386 1:0.41666667 2:0.41666667 3:0.22141119 4:0.096418733 5:0.60776499 37:1 42:1 55:1 78:1 134:1 198:1 256:1 
-0.1577870256932462 1:0.66666667 2:0.66666667 3:0.4513382 4:0.43547362 5:0.6191986 14:1 57:1 76:1 94:1 149:1 188:1 
-1.513423753285624 1:0.16666667 2:0.16666667 3:0.12570965 4:0.49494949 5:0.68008455 12:1 26:1 64:1 109:1 158:1 170:1 252:1 
-1.575941771510886 1:0.25 2:0.25 3:0.14051095 4:0.40909091 5:0.62465223 32:1 47:1 84:1 120:1 158:1 181:1 253:1 
-0.5011035737629583 1:0.41666667 2:0.41666667 3:0.33604716 4:0.29752066 5:0.64924922 12:1 85:1 164:1 180:1 200:1 234:1 
-2 1:0.33333333 2:0.33333333 3:0.3980161 4:0.31818182 5:0.6878115 27:1 78:1 140:1 180:1 228:1 246:1 
-0.7041818548712723 1:0.5 2:0.5 3:0.35766423 4:0.25252525 5:0.65674111 13:1 54:1 102:1 169:1 178:1 250:1 
-0.1791153715483428 1:0.25 2:0.25 3:0.33892944 4:0.3822314 5:0.66680452 52:1 64:1 67:1 85:1 171:1 206:1 251:1 
-0.6284017450449567 1:0.75 2:0.75 3:0.28272506 4:0.64049587 5:0.36862421 11:1 59:1 128:1 211:1 238:1 
-2 1:0.41666667 2:0.41666667 3:0.22481752 4:0.39044289 5:0.63150947 68:1 138:1 156:1 194:1 252:1 
-0.2541887300002783 1:0.16666667 2:0.16666667 3:0.36447689 4:0.68181818 5:0.60987042 27:1 64:1 111:1 121:1 135:1 201:1 251:1 
-2 1:0.75 2:0.75 3:0.20652641 4:0.50505051 5:0.59966915 31:1 57:1 117:1 158:1 210:1 251:1 
-1.603015121368826 1:0.16666667 2:0.16666667 3:0.54841849 4:0.64393939 5:0.65645287 23:1 35:1 63:1 75:1 87:1 256:1 
-1.711833010603924 1:0.5 2:0.5 3:0.53060079 4:0.81818182 5:0.65080804 22:1 41:1 63:1 143:1 190:1 240:1 251:1 
-1.810350186636524 1:0.41666667 2:0.41666667 3:0.60986337 4:0.55371901 5:0.64781824 41:1 75:1 96:1 155:1 221:1 248:1 
-2 1:0.33333333 2:0.33333333 3:0.39669505 4:0.61038961 5:0.84395965 12:1 43:1 100:1 120:1 135:1 142:1 
-0.4646794989381399 1:0.41666667 2:0.41666667 3:0.22178551 4:0.50505051 5:0.59966915 26:1 31:1 99:1 156:1 211:1 243:1 
-2 1:0.5 2:0.5 3:0.27737226 4:0.25252525 5:0.66087676 26:1 54:1 103:1 208:1 
-1.331100878930608 1:0.33333333 2:0.33333333 3:0.31224655 4:0.27056277 5:0.65231025 46:1 60:1 66:1 182:1 208:1 234:1 253:1 
-1.496195221323126 1:0.083333333 2:0.083333333 3:0.5209932 4:0.72727273 5:0.77854482 24:1 39:1 64:1 71:1 99:1 215:1 253:1 
-2 1:0.41666667 2:0.41666667 3:0.26501965 4:0.43434343 5:0.64815168 14:1 25:1 34:1 50:1 208:1 
-0.8812558410337468 1:0.58333333 2:0.58333333 3:0.37006226 4:0.64935065 5:0.67910808 46:1 72:1 122:1 154:1 178:1 208:1 
-0.5471179054497183 1:0.5 2:0.5 3:0.25547445 4:0.22727273 5:0.65425972 139:1 158:1 209:1 210:1 234:1 253:1 
-2 1:0.25 2:0.25 3:0.39225154 4:0.26573427 5:0.66256601 13:1 47:1 64:1 109:1 126:1 
-1.235130711466275 1:0.25 2:0.25 3:0.39513382 4:0.46487603 5:0.64460987 48:1 65:1 75:1 145:1 235:1 255:1 
-0.1211700098922271 1:0.16666667 2:0.16666667 3:0.42077091 4:0.34090909 5:0.69092914 14:1 41:1 76:1 95:1 184:1 220:1 256:1 
-1.104835132608003 1:0.5 2:0.5 3:0.13284672 4:0.56818182 5:0.65876298 13:1 26:1 122:1 143:1 205:1 213:1 250:1 
-2 1:0.33333333 2:0.33333333 3:0.16370402 4:0.71969697 5:0.68037107 12:1 84:1 105:1 170:1 182:1 243:1 
-0.9577886020740106 1:0.5 2:0.5 3:0.35766423 4:0.22727273 5:0.64516129 51:1 54:1 139:1 174:1 199:1 222:1 256:1 
-0.4248128685249838 1:0.41666667 2:0.41666667 3:0.4379562 4:0.37433155 5:0.63688999 24:1 52:1 54:1 119:1 175:1 198:1 257:1 
-0.6808060560600382 1:0.58333333 2:0.58333333 3:0.38576642 4:0.53571429 5:0.63061759 39:1 53:1 138:1 158:1 213:1 236:1 251:1 
-0.3487975574928283 1:0.5 2:0.5 3:0.27737226 4:0.55555556 5:0.61952026 13:1 55:1 72:1 146:1 179:1 209:1 250:1 
-2 1:0.5 2:0.5 3:0.35766423 4:0.60606061 5:0.67265119 52:1 56:1 107:1 117:1 204:1 
-2 1:0.5 2:0.5 3:0.35766423 4:0.45454545 5:0.63688999 58:1 108:1 121:1 154:1 210:1 
-0.2628142997730693 1:0.66666667 2:0.66666667 3:0.2702352 4:0.39393939 5:0.68256594 26:1 41:1 44:1 142:1 158:1 213:1 253:1 
-2 1:0.41666667 2:0.41666667 3:0.47751181 4:0.67099567 5:0.79930545 24:1 51:1 118:1 233:1 
-2 1:0.41666667 2:0.41666667 3:0.38659296 4:0.62770563 5:0.64715005 47:1 99:1 127:1 179:1 233:1 253:1 
-2 1:0.33333333 2:0.33333333 3:0.32755474 4:0.6998557 5:0.82799145 62:1 72:1 144:1 154:1 207:1 
-0.3167183455154248 3:0.33759124 4:0.55555556 5:0.63006617 16:1 28:1 85:1 143:1 204:1 216:1 253:1 
-2 1:0.083333333 2:0.083333333 3:0.45684843 4:0.34435262 5:0.65221622 12:1 39:1 64:1 76:1 100:1 
-0.5969976722095667 1:0.16666667 2:0.16666667 3:0.35766423 4:0.47922666 5:0.63688999 40:1 57:1 75:1 120:1 207:1 241:1 246:1 
-1.924171739137458 1:0.66666667 2:0.66666667 3:0.5767172 4:0.56818182 5:0.69092914 41:1 63:1 128:1 142:1 200:1 251:1 
-1.152762035152511 1:0.25 2:0.25 3:0.47871982 4:0.56643357 5:0.63886045 41:1 75:1 107:1 120:1 219:1 242:1 
-2 1:0.41666667 2:0.41666667 3:0.38659296 4:0.23809524 5:0.67754707 64:1 104:1 115:1 160:1 219:1 254:1 
-2 1:0.16666667 2:0.16666667 3:0.44687753 4:0.39393939 5:0.65527066 12:1 65:1 100:1 109:1 120:1 176:1 253:1 
-0.1749792741471775 1:0.58333333 2:0.58333333 3:0.19841849 4:0.61688312 5:0.76185553 49:1 122:1 141:1 167:1 175:1 195:1 249:1 
-0.2741743369703962 1:0.33333333 2:0.33333333 3:0.38442822 4:0.74839302 5:0.75792666 15:1 71:1 94:1 168:1 191:1 222:1 252:1 
-1.911116836441968 1:0.41666667 2:0.41666667 3:0.40909308 4:0.54545455 5:0.71730539 65:1 101:1 110:1 135:1 175:1 252:1 
-2 1:0.33333333 2:0.33333333 3:0.49817518 4:0.52913753 5:0.5283292 12:1 40:1 76:1 81:1 130:1 207:1 
-0.7956132235652374 1:0.5 2:0.5 3:0.35766423 4:0.58441558 5:0.62000276 12:1 73:1 108:1 126:1 166:1 214:1 250:1 
-0.7830910876553021 1:0.41666667 2:0.41666667 3:0.33625304 4:0.47979798 5:0.63220292 27:1 30:1 80:1 105:1 132:1 180:1 
-0.2238276967718229 1:0.5 2:0.5 3:0.35766423 4:0.34090909 5:0.64846981 56:1 113:1 124:1 158:1 230:1 
-2 1:0.58333333 2:0.58333333 3:0.35766423 4:0.68595041 5:0.36669424 44:1 59:1 84:1 238:1 251:1 
-2 1:0.33333333 2:0.33333333 3:0.53839989 4:0.49242424 5:0.58773253 41:1 51:1 54:1 180:1 245:1 
-1.87831506095741 1:0.41666667 2:0.41666667 3:0.22178551 4:0.32323232 5:0.62750525 14:1 24:1 43:1 136:1 172:1 210:1 249:1 
-0.1988277136939758 1:0.33333333 2:0.33333333 3:0.47007299 4:0.32867133 5:0.71215881 12:1 20:1 75:1 90:1 103:1 184:1 256:1 
-1.236003024412389 1:0.33333333 2:0.33333333 3:0.50754258 4:0.21296885 5:0.38985387 77:1 78:1 100:1 114:1 242:1 256:1 
-2 1:0.25 2:0.25 3:0.50754258 4:0.6714876 5:0.60408051 12:1 71:1 100:1 111:1 172:1 250:1 
-2 1:0.25 2:0.25 3:0.33178064 4:0.77922078 5:0.61155914 52:1 93:1 192:1 219:1 227:1 255:1 
-2 1:0.5 2:0.5 3:0.25547445 4:0.37878788 5:0.63452139 20:1 84:1 120:1 127:1 138:1 
-0.5123017333156515 1:0.58333333 2:0.58333333 3:0.37081146 4:0.31818182 5:0.68378487 41:1 44:1 69:1 101:1 175:1 193:1 252:1 
-2 1:0.41666667 2:0.41666667 3:0.52798054 4:0.55096419 5:0.64329398 56:1 101:1 111:1 143:1 158:1 255:1 
-2 1:0.58333333 2:0.58333333 3:0.28807786 4:0.47979798 5:0.63909567 12:1 34:1 54:1 102:1 153:1 251:1 
-2 1:0.41666667 2:0.41666667 3:0.26501965 4:0.61616162 5:0.58134504 24:1 34:1 50:1 102:1 179:1 216:1 
-0.2267053824618828 1:0.66666667 2:0.66666667 3:0.21497819 4:0.83333333 5:0.68179316 117:1 129:1 158:1 168:1 188:1 251:1 
-1.908624650442273 1:0.33333333 2:0.33333333 3:0.45162821 4:0.3030303 5:0.67265119 51:1 126:1 149:1 184:1 225:1 256:1 
-0.06948887617300284 1:0.25 2:0.25 3:0.35766423 4:0.60802834 5:0.38599393 11:1 24:1 84:1 155:1 205:1 229:1 250:1 
-0.01989223953541373 1:0.5 2:0.5 3:0.42378703 4:0.60606061 5:0.64966185 46:1 77:1 89:1 128:1 144:1 206:1 252:1 
-0.9533154086012477 1:0.25 2:0.25 3:0.33576642 4:0.63131313 5:0.53943906 24:1 35:1 54:1 98:1 208:1 240:1 251:1 
-2 1:0.33333333 2:0.33333333 3:0.25060827 4:0.33516988 5:0.65796649 12:1 26:1 55:1 73:1 102:1 208:1 
-2 1:0.5 2:0.5 3:0.35766423 4:0.90909091 5:0.62012973 19:1 63:1 93:1 123:1 192:1 225:1 257:1 
-1.49194776854556 1:0.25 2:0.25 3:0.22255755 4:0.5974026 5:0.63438474 13:1 25:1 73:1 146:1 155:1 167:1 
-0.1724434723401161 1:0.41666667 2:0.41666667 3:0.44963504 4:0.25058275 5:0.67499812 18:1 30:1 60:1 164:1 231:1 234:1 
-2 1:0.5 2:0.5 3:0.35766423 4:0.36363636 5:0.64338508 19:1 37:1 46:1 90:1 123:1 128:1 252:1 
-0.2616680504037444 1:0.58333333 2:0.58333333 3:0.093673966 4:0.53030303 5:0.61960799 19:1 47:1 84:1 104:1 122:1 235:1 252:1 
-0.05195776209563105 1:0.41666667 2:0.41666667 3:0.25547445 4:0.48898072 5:0.46056094 59:1 108:1 138:1 153:1 210:1 229:1 251:1 
-2 1:0.33333333 2:0.33333333 3:0.46695053 4:0.61038961 5:0.86929051 13:1 40:1 44:1 63:1 70:1 143:1 252:1 
-0.4946614736746136 1:0.33333333 2:0.33333333 3:0.31049972 4:0.16666667 5:0.69635803 19:1 37:1 85:1 125:1 162:1 186:1 252:1 
-0.8906093307834477 1:0.33333333 2:0.33333333 3:0.64999661 4:0.60606061 5:0.63178125 20:1 41:1 51:1 113:1 161:1 219:1 255:1 
-0.9165526117363363 1:0.58333333 2:0.58333333 3:0.30393946 4:0.47619048 5:0.6392315 36:1 46:1 86:1 126:1 153:1 244:1 250:1 
-0.05135605268383406 1:0.66666667 2:0.66666667 3:0.27831687 4:0.64393939 5:0.61628473 26:1 53:1 140:1 156:1 206:1 213:1 250:1 
-0.3255713961452557 1:0.58333333 2:0.58333333 3:0.17169386 4:0.4978355 5:0.65356436 12:1 108:1 128:1 146:1 165:1 177:1 246:1 
-0.3730738200262378 1:0.41666667 2:0.41666667 3:0.34361314 4:0.77922078 5:0.66222084 72:1 84:1 126:1 144:1 166:1 178:1 251:1 
-0.6095894684597039 1:0.41666667 2:0.41666667 3:0.62530414 4:0.37433155 5:0.58220752 24:1 32:1 87:1 175:1 220:1 222:1 257:1 
-2 1:0.25 2:0.25 3:0.37655646 4:0.35353535 5:0.61499538 12:1 39:1 128:1 144:1 172:1 236:1 253:1 
-0.6166622344197189 1:0.41666667 2:0.41666667 3:0.58104061 4:0.50413223 5:0.5504125 39:1 44:1 76:1 129:1 147:1 197:1 
-0.3447155128483705 1:0.58333333 2:0.58333333 3:0.35766423 4:0.59504132 5:0.39081886 11:1 84:1 90:1 140:1 238:1 251:1 
