svm_type c_svc
kernel_type rbf
gamma 0.0625
nr_class 2
total_sv 567
rho 10.6267
label 1 0
probA -4.68018
probB 0.120565
nr_sv 260 307
SV
0.9357973162842548 1:0.61538462 2:0.61538462 3:0.2810219 4:0.4476584 5:0.65258922 47:1 127:1 138:1 
0.7815056220499388 1:0.38461538 2:0.38461538 3:0.18734793 4:0.33549784 5:0.65182908 62:1 85:1 102:1 252:1 
1.300000880803794 1:0.38461538 2:0.38461538 3:0.43714517 4:0.4004329 5:0.66566367 120:1 157:1 233:1 
1.851840566051924 1:0.38461538 2:0.38461538 3:0.18734793 4:0.33549784 5:0.65182908 138:1 158:1 193:1 252:1 
1.724658371672551 1:0.53846154 2:0.53846154 3:0.45985401 4:0.3030303 5:0.68064539 128:1 162:1 233:1 253:1 
1.431195345101469 1:0.46153846 2:0.46153846 3:0.33722628 4:0.18065268 5:0.70701542 126:1 138:1 210:1 253:1 
2 1:0.61538462 2:0.61538462 3:0.46266143 4:0.33333333 5:0.686133 42:1 154:1 221:1 246:1 
1.536656924831356 1:0.53846154 2:0.53846154 3:0.35766423 4:0.27272727 5:0.69184659 6:1 42:1 219:1 247:1 
0.1958177997451378 1:0.46153846 2:0.46153846 3:0.39854015 4:0.47785548 5:0.66492288 34:1 48:1 77:1 253:1 
0.7389761531666535 1:0.53846154 2:0.53846154 3:0.35766423 4:0.60606061 5:0.66795792 165:1 203:1 221:1 252:1 
0.7457882136031194 1:0.61538462 2:0.61538462 3:0.47295527 4:0.52066116 5:0.66125378 23:1 44:1 190:1 256:1 
0.9540649775879256 1:0.46153846 2:0.46153846 3:0.52798054 4:0.55096419 5:0.66281659 22:1 75:1 191:1 256:1 
0.7652151206887174 1:0.61538462 2:0.61538462 3:0.47295527 4:0.61157025 5:0.65511417 22:1 164:1 191:1 255:1 
1.583357712252144 1:0.30769231 2:0.30769231 3:0.23276561 4:0.44273908 5:0.64379 180:1 218:1 241:1 255:1 
0.5062028809779906 1:0.46153846 2:0.46153846 3:0.42579075 4:0.47520661 5:0.66157272 79:1 112:1 191:1 255:1 
2 1:0.38461538 2:0.38461538 3:0.3980161 4:0.31818182 5:0.70489766 15:1 172:1 229:1 247:1 
0.7792772791318563 1:0.53846154 2:0.53846154 3:0.28272506 4:0.45454545 5:0.64946573 50:1 105:1 171:1 246:1 
2 1:0.61538462 2:0.61538462 3:0.37639903 4:0.29220779 5:0.72700026 50:1 173:1 198:1 248:1 
0.06716866456997349 1:0.46153846 2:0.46153846 3:0.33625304 4:0.47979798 5:0.65233255 105:1 171:1 216:1 246:1 
0.4870956208809994 1:0.61538462 2:0.61538462 3:0.37639903 4:0.29220779 5:0.72700026 140:1 181:1 200:1 
2 1:0.84615385 2:0.84615385 3:0.42077091 4:0.45454545 5:0.66290825 32:1 80:1 106:1 248:1 
0.1590266498319115 1:0.53846154 2:0.53846154 3:0.43260341 4:0.34090909 5:0.69689862 17:1 59:1 198:1 246:1 
0.9853644644108842 1:0.53846154 2:0.53846154 3:0.43260341 4:0.68181818 5:0.63122231 83:1 111:1 224:1 251:1 
0.3349374514418148 1:0.53846154 2:0.53846154 3:0.28272506 4:0.56818182 5:0.69689862 121:1 143:1 175:1 251:1 
1.0509389460281 1:0.46153846 2:0.46153846 3:0.37907543 4:0.42929293 5:0.65233255 121:1 137:1 222:1 251:1 
1.067413305624956 1:0.61538462 2:0.61538462 3:0.33892944 4:0.35714286 5:0.6503779 112:1 175:1 223:1 251:1 
0.3500383503426929 1:0.61538462 2:0.61538462 3:0.46538929 4:0.40584416 5:0.68800495 15:1 128:1 224:1 
0.6540114714110047 1:0.61538462 2:0.61538462 3:0.53564477 4:0.53571429 5:0.68002346 17:1 34:1 214:1 256:1 
2 1:0.38461538 2:0.38461538 3:0.37639903 4:0.27018436 5:0.67331248 12:1 31:1 51:1 77:1 78:1 102:1 253:1 
2 1:0.38461538 2:0.38461538 3:0.15158151 4:0.27018436 5:0.62587959 12:1 31:1 52:1 55:1 181:1 253:1 
0.75930949108773 1:0.30769231 2:0.30769231 3:0.4513382 4:0.42502952 5:0.66555903 51:1 120:1 209:1 253:1 
2 1:0.46153846 2:0.46153846 3:0.31508516 4:0.39256198 5:0.65457152 92:1 102:1 120:1 245:1 254:1 264:1 
0.3125888572512559 1:0.30769231 2:0.30769231 3:0.4513382 4:0.29515939 5:0.68152202 52:1 54:1 208:1 252:1 
2 1:0.61538462 2:0.61538462 3:0.39369268 4:0.34710744 5:0.66538361 32:1 56:1 75:1 78:1 153:1 253:1 
2 1:0.38461538 2:0.38461538 3:0.37639903 4:0.27018436 5:0.67331248 18:1 51:1 54:1 76:1 153:1 253:1 
1.64595832924245 1:0.46153846 2:0.46153846 3:0.21289538 4:0.39256198 5:0.64462056 13:1 19:1 122:1 243:1 
0.4206640455338546 1:0.46153846 2:0.46153846 3:0.40762368 4:0.61438561 5:0.72081777 47:1 167:1 204:1 257:1 
1.01896391477004 1:0.53846154 2:0.53846154 3:0.24525547 4:0.38461538 5:0.8702111 81:1 91:1 205:1 256:1 
1.321283225102276 1:0.46153846 2:0.46153846 3:0.65742092 4:0.41958042 5:0.72791243 64:1 161:1 166:1 256:1 
0.1730854196919027 1:0.61538462 2:0.61538462 3:0.4189781 4:0.34382284 5:0.74283887 19:1 76:1 127:1 257:1 
0.01823740687775323 1:0.38461538 2:0.38461538 3:0.47007299 4:0.32867133 5:0.72791243 13:1 140:1 220:1 256:1 
0.2127682855988504 1:0.46153846 2:0.46153846 3:0.42919708 4:0.41375291 5:0.75428246 76:1 162:1 191:1 
2 1:0.46153846 2:0.46153846 3:0.6540146 4:0.48368298 5:0.70684957 41:1 75:1 137:1 
2 1:0.46153846 2:0.46153846 3:0.54160584 4:0.41375291 5:0.8254318 40:1 76:1 191:1 248:1 
0.343333483572417 1:0.61538462 2:0.61538462 3:0.48540146 4:0.42011019 5:0.762492 18:1 63:1 214:1 248:1 
0.04072189019984 1:0.61538462 2:0.61538462 3:0.32678271 4:0.5959596 5:0.55482047 120:1 130:1 237:1 
1.495154967746912 1:0.23076923 2:0.23076923 3:0.27089256 4:0.68181818 5:0.61662757 12:1 87:1 93:1 192:1 208:1 255:1 
1.707025805403286 1:0.15384615 2:0.15384615 3:0.36189013 4:0.50505051 5:0.51602815 12:1 76:1 183:1 208:1 255:1 
0.4981628799671396 1:0.46153846 2:0.46153846 3:0.43326077 4:0.36363636 5:0.71757449 12:1 19:1 40:1 209:1 257:1 
1.197677365401848 1:0.38461538 2:0.38461538 3:0.45162821 4:0.60606061 5:0.62295911 12:1 20:1 41:1 88:1 93:1 219:1 255:1 
0.9287363293706008 1:0.46153846 2:0.46153846 3:0.49571008 4:0.54545455 5:0.61115455 12:1 20:1 40:1 51:1 65:1 93:1 257:1 
2 1:0.23076923 2:0.23076923 3:0.42077091 4:0.56818182 5:0.60568152 12:1 20:1 40:1 87:1 243:1 255:1 
1.30994174405645 1:0.30769231 2:0.30769231 3:0.26152516 4:0.51948052 5:0.51309617 12:1 18:1 76:1 192:1 225:1 255:1 
2 1:0.61538462 2:0.61538462 3:0.34583173 4:0.60606061 5:0.60750586 12:1 18:1 41:1 95:1 127:1 225:1 
1.507510904738224 1:0.30769231 2:0.30769231 3:0.33178064 4:0.51948052 5:0.53704066 14:1 75:1 111:1 126:1 255:1 
0.5475243464990666 1:0.23076923 2:0.23076923 3:0.34583173 4:0.45454545 5:0.6567631 14:1 64:1 95:1 123:1 160:1 256:1 
1.32535289927554 1:0.38461538 2:0.38461538 3:0.31938261 4:0.45454545 5:0.6567631 14:1 19:1 39:1 75:1 88:1 93:1 256:1 
2 1:0.46153846 2:0.46153846 3:0.30836215 4:0.54545455 5:0.565546 14:1 19:1 39:1 208:1 225:1 255:1 
0.09844931537500372 1:0.84615385 2:0.84615385 3:0.31650771 4:0.45454545 5:0.6567631 14:1 19:1 93:1 127:1 225:1 257:1 
1.651343523121785 1:0.76923077 2:0.76923077 3:0.32539378 5:0.67417727 14:1 19:1 76:1 93:1 128:1 225:1 
1.582557318546095 1:0.53846154 2:0.53846154 3:0.29850173 4:0.68181818 5:0.61931608 14:1 19:1 41:1 93:1 192:1 207:1 
0.9692439779507693 1:0.61538462 2:0.61538462 3:0.34583173 4:0.60606061 5:0.60750586 14:1 19:1 41:1 93:1 148:1 225:1 255:1 
2 1:0.53846154 2:0.53846154 3:0.41682674 4:0.45454545 5:0.6567631 14:1 19:1 41:1 113:1 183:1 
1.236772992731458 1:0.46153846 2:0.46153846 3:0.30836215 4:0.36363636 5:0.74798019 14:1 18:1 39:1 93:1 111:1 126:1 
2 1:0.30769231 2:0.30769231 3:0.33178064 4:0.51948052 5:0.53704066 14:1 18:1 39:1 207:1 257:1 276:1 
2 1:0.30769231 2:0.30769231 3:0.33178064 4:0.64935065 5:0.61685562 14:1 18:1 111:1 219:1 227:1 255:1 
0.3794053851495005 1:0.30769231 2:0.30769231 3:0.33178064 4:0.64935065 5:0.61685562 87:1 93:1 124:1 192:1 255:1 
1.448093574225858 1:0.23076923 2:0.23076923 3:0.34583173 4:0.45454545 5:0.6567631 112:1 192:1 243:1 256:1 
0.8498878496579942 1:0.23076923 2:0.23076923 3:0.34583173 4:0.56818182 5:0.59108679 88:1 95:1 192:1 208:1 255:1 
0.5680339754328216 1:0.53846154 2:0.53846154 3:0.47598924 4:0.45454545 5:0.6567631 19:1 51:1 65:1 93:1 112:1 257:1 
2 1:0.38461538 2:0.38461538 3:0.45162821 4:0.3030303 5:0.69056708 19:1 40:1 53:1 64:1 88:1 93:1 255:1 
1.865046183682391 1:0.38461538 2:0.38461538 3:0.45162821 4:0.3030303 5:0.69056708 20:1 75:1 160:1 208:1 
1.420919329754726 1:0.46153846 2:0.46153846 3:0.37081146 4:0.36363636 5:0.73277734 20:1 87:1 93:1 244:1 265:1 
0.1831408791456054 1:0.38461538 2:0.38461538 3:0.38550541 4:0.45454545 5:0.6567631 20:1 52:1 75:1 93:1 192:1 256:1 
1.916682221840665 1:0.69230769 2:0.69230769 3:0.49571008 5:0.66588481 20:1 52:1 128:1 225:1 257:1 
2 1:0.53846154 2:0.53846154 3:0.47598924 4:0.22727273 5:0.67692688 20:1 41:1 88:1 93:1 172:1 225:1 256:1 
2 1:0.076923077 2:0.076923077 3:0.29395077 4:0.54545455 5:0.56203765 13:1 39:1 51:1 64:1 192:1 255:1 
1.651732263170455 1:0.30769231 2:0.30769231 3:0.33178064 4:0.64935065 5:0.61685562 13:1 41:1 192:1 227:1 255:1 
1.985583362274776 1:0.53846154 2:0.53846154 3:0.35766423 4:0.68181818 5:0.62507716 13:1 19:1 63:1 93:1 227:1 257:1 
2 1:0.61538462 2:0.61538462 3:0.23342297 4:0.3030303 5:0.72243941 13:1 19:1 194:1 209:1 225:1 266:1 
1.720526132627822 1:0.23076923 2:0.23076923 3:0.34583173 4:0.11363636 5:0.6786552 13:1 19:1 52:1 88:1 160:1 256:1 
0.7072194375427195 1:0.46153846 2:0.46153846 3:0.30836215 4:0.18181818 5:0.6871688 13:1 19:1 40:1 225:1 244:1 
2 1:0.46153846 2:0.46153846 3:0.43326077 4:0.18181818 5:0.67703356 13:1 20:1 41:1 128:1 192:1 256:1 
2 1:0.38461538 2:0.38461538 3:0.38550541 5:0.67125052 13:1 18:1 52:1 126:1 257:1 
2 1:0.23076923 2:0.23076923 3:0.27089256 4:0.45454545 5:0.6567631 13:1 18:1 40:1 93:1 192:1 207:1 255:1 
1.920990697468096 1:0.30769231 2:0.30769231 3:0.16743403 4:0.40559441 5:0.64624974 12:1 45:1 84:1 144:1 162:1 253:1 
1.307797128346707 1:0.23076923 2:0.23076923 3:0.2423732 4:0.35064935 5:0.65430725 12:1 86:1 123:1 216:1 222:1 253:1 
2 1:0.61538462 2:0.61538462 3:0.29590118 4:0.44444444 5:0.653423 12:1 86:1 92:1 164:1 
2 1:0.23076923 2:0.23076923 3:0.36727182 4:0.35064935 5:0.66494925 12:1 76:1 123:1 235:1 252:1 265:1 
1.774818454444647 1:0.38461538 2:0.38461538 3:0.4126895 4:0.46969697 5:0.65924127 12:1 20:1 75:1 216:1 236:1 252:1 
0.08011259145777733 1:0.38461538 2:0.38461538 3:0.20830994 4:0.31818182 5:0.65327069 12:1 20:1 37:1 84:1 223:1 253:1 
1.672111643098366 1:0.38461538 2:0.38461538 3:0.20830994 4:0.31818182 5:0.65327069 12:1 18:1 84:1 146:1 200:1 253:1 
0.9756233946404147 1:0.38461538 2:0.38461538 3:0.20830994 4:0.24242424 5:0.66073391 12:1 18:1 84:1 222:1 235:1 253:1 
0.4989992769341723 1:0.30769231 2:0.30769231 3:0.39225154 4:0.33566434 5:0.66883683 14:1 76:1 124:1 216:1 
1.599777943603314 1:0.46153846 2:0.46153846 3:0.055025267 4:0.38016529 5:0.63834426 14:1 19:1 38:1 84:1 234:1 264:1 
1.041551838466104 1:0.53846154 2:0.53846154 3:0.18472768 4:0.36363636 5:0.64886931 14:1 20:1 38:1 216:1 236:1 253:1 
2 1:0.38461538 2:0.38461538 3:0.4126895 4:0.46969697 5:0.65924127 36:1 46:1 64:1 75:1 266:1 
2 1:0.30769231 2:0.30769231 3:0.39225154 4:0.47552448 5:0.65774862 36:1 75:1 144:1 188:1 252:1 
1.64812693331147 1:0.38461538 2:0.38461538 3:0.51487928 4:0.46969697 5:0.66521184 47:1 65:1 75:1 222:1 264:1 
2 1:0.38461538 2:0.38461538 3:0.10612016 4:0.46969697 5:0.64132955 45:1 84:1 146:1 180:1 253:1 
2 1:0.61538462 2:0.61538462 3:0.37619315 4:0.44444444 5:0.65844925 45:1 76:1 128:1 200:1 252:1 
2 1:0.38461538 2:0.38461538 3:0.51487928 4:0.54545455 5:0.66073391 46:1 75:1 123:1 128:1 144:1 252:1 
2 1:0.38461538 2:0.38461538 3:0.31049972 4:0.54545455 5:0.65078295 46:1 84:1 180:1 188:1 216:1 252:1 
2 1:0.30769231 2:0.30769231 3:0.27984278 4:0.40559441 5:0.65415522 63:1 84:1 162:1 216:1 254:1 
0.006661856110142593 1:0.46153846 2:0.46153846 3:0.5233951 4:0.46280992 5:0.66621615 63:1 77:1 152:1 276:1 
2 1:0.38461538 2:0.38461538 3:0.61706906 4:0.46969697 5:0.67118241 63:1 77:1 125:1 252:1 
0.3062456775225391 1:0.46153846 2:0.46153846 3:0.33604716 4:0.38016529 5:0.65984543 75:1 182:1 186:1 
0.6367201259186452 1:0.38461538 2:0.38461538 3:0.20830994 4:0.46969697 5:0.64730012 86:1 125:1 216:1 254:1 264:1 
0.4057891915285899 1:0.53846154 2:0.53846154 3:0.35766423 4:0.45454545 5:0.6567631 86:1 125:1 236:1 252:1 
2 1:0.30769231 2:0.30769231 3:0.39225154 4:0.33566434 5:0.66883683 76:1 84:1 152:1 217:1 252:1 
2 1:0.15384615 2:0.15384615 3:0.47655811 4:0.36363636 5:0.67255067 64:1 75:1 180:1 216:1 253:1 
2 1:0.38461538 2:0.38461538 3:0.4126895 4:0.39393939 5:0.66446552 64:1 84:1 164:1 180:1 200:1 216:1 
1.640258920121488 1:0.23076923 2:0.23076923 3:0.2423732 4:0.35064935 5:0.65430725 13:1 36:1 84:1 109:1 
1.120874689259847 1:0.23076923 2:0.23076923 3:0.36727182 4:0.28571429 5:0.67381757 13:1 18:1 36:1 123:1 222:1 252:1 
0.05796429623153047 1:0.46153846 2:0.46153846 3:0.38659296 4:0.62770563 5:0.66646162 12:1 47:1 63:1 116:1 
2 1:0.53846154 2:0.53846154 3:0.48990983 4:0.3030303 5:0.67125052 40:1 46:1 101:1 116:1 253:1 
1.992639052745356 1:0.61538462 2:0.61538462 3:0.45684843 4:0.57575758 5:0.67125052 29:1 45:1 65:1 116:1 264:1 
2 1:0.38461538 2:0.38461538 3:0.25060827 4:0.54637282 5:0.52124055 12:1 24:1 30:1 76:1 105:1 251:1 
2 1:0.30769231 2:0.30769231 3:0.28467153 4:0.35353535 5:0.64396901 12:1 26:1 30:1 42:1 75:1 88:1 
0.7326702899548712 1:0.69230769 2:0.69230769 3:0.36770073 4:0.6998557 5:0.61359786 12:1 44:1 58:1 105:1 251:1 
0.3125665685346308 1:0.69230769 2:0.69230769 3:0.36770073 4:0.31024531 5:0.62956085 12:1 32:1 44:1 211:1 
1.503777096681069 1:0.53846154 2:0.53846154 3:0.27737226 4:0.55555556 5:0.55121188 12:1 30:1 42:1 57:1 107:1 251:1 
0.04566654817286839 1:0.61538462 2:0.61538462 3:0.1756691 4:0.39141414 5:0.67266093 14:1 25:1 31:1 211:1 251:1 
2 1:0.69230769 2:0.69230769 3:0.15693431 4:0.31024531 5:0.65350534 14:1 25:1 31:1 43:1 117:1 
2 1:0.61538462 2:0.61538462 3:0.32554745 4:0.39141414 5:0.64347146 57:1 105:1 210:1 232:1 
0.4391011307575717 1:0.61538462 2:0.61538462 3:0.32554745 4:0.61868687 5:0.59968726 44:1 117:1 156:1 251:1 
1.261492917896252 1:0.61538462 2:0.61538462 3:0.40048662 4:0.50505051 5:0.62157936 42:1 77:1 107:1 141:1 
2 1:0.61538462 2:0.61538462 3:0.47542579 4:0.61868687 5:0.62887673 32:1 58:1 76:1 107:1 251:1 
0.8906542046428195 1:0.61538462 2:0.61538462 3:0.25060827 4:0.39141414 5:0.6580662 25:1 31:1 42:1 57:1 251:1 
2 1:0.38461538 2:0.38461538 3:0.34428224 4:0.62901745 5:0.60485622 13:1 100:1 107:1 119:1 251:1 
1.555637323480294 1:0.38461538 2:0.38461538 3:0.32643958 4:0.48051948 5:0.63699939 12:1 24:1 100:1 141:1 176:1 253:1 
2 1:0.23076923 2:0.23076923 3:0.28629359 4:0.7979798 5:0.75388759 12:1 71:1 120:1 168:1 240:1 
2 1:0.23076923 2:0.23076923 3:0.28629359 4:0.5959596 5:0.83832856 12:1 69:1 84:1 100:1 156:1 241:1 
2 1:0.61538462 2:0.61538462 3:0.25248645 4:0.54545455 5:0.73277734 12:1 69:1 109:1 176:1 213:1 
0.5891302935723006 1:0.30769231 2:0.30769231 3:0.30770479 4:0.77272727 5:0.75831813 12:1 108:1 135:1 215:1 254:1 
0.8954730333196264 1:0.38461538 2:0.38461538 3:0.32643958 4:0.74025974 5:0.76470333 12:1 101:1 141:1 156:1 240:1 
2 1:0.15384615 2:0.15384615 3:0.34805665 4:0.72727273 5:0.76961502 12:1 100:1 108:1 143:1 156:1 252:1 
2 1:0.23076923 2:0.23076923 3:0.36658556 4:0.5959596 5:0.87351229 12:1 100:1 109:1 120:1 143:1 
2 1:0.53846154 2:0.53846154 3:0.29521492 4:0.63636364 5:0.79358874 14:1 24:1 41:1 143:1 176:1 254:1 
0.1493236117941322 1:0.38461538 2:0.38461538 3:0.2561841 4:0.87012987 5:0.74714404 24:1 71:1 84:1 143:1 254:1 
2 1:0.46153846 2:0.46153846 3:0.27684748 4:0.39393939 5:0.69897336 24:1 110:1 121:1 176:1 
1.51594338890378 1:0.53846154 2:0.53846154 3:0.42011354 4:0.45454545 5:0.64156025 24:1 41:1 44:1 176:1 252:1 
2 1:0.61538462 2:0.61538462 3:0.19332394 4:1 5:0.73997869 26:1 69:1 143:1 213:1 252:1 
2 1:0.61538462 2:0.61538462 3:0.31164895 4:0.31818182 5:0.70685248 26:1 101:1 122:1 176:1 
2 1:0.46153846 2:0.46153846 3:0.34297028 4:0.6969697 5:0.77623961 39:1 70:1 141:1 241:1 252:1 
2 1:0.30769231 2:0.30769231 3:0.38264396 4:0.65909091 5:0.79845365 71:1 101:1 168:1 240:1 253:1 
2 1:0.53846154 2:0.53846154 3:0.42011354 4:0.45454545 5:0.64156025 71:1 85:1 101:1 176:1 
2 1:0.46153846 2:0.46153846 3:0.27684748 4:0.54545455 5:0.73277734 69:1 84:1 101:1 122:1 241:1 
1.352102061753718 1:0.53846154 2:0.53846154 3:0.23276561 4:0.63636364 5:0.77838589 69:1 99:1 141:1 242:1 253:1 
2 1:0.38461538 2:0.38461538 3:0.32643958 4:0.48051948 5:0.63699939 69:1 85:1 100:1 168:1 
2 1:0.53846154 2:0.53846154 3:0.35766423 4:0.63636364 5:0.80879159 70:1 86:1 101:1 122:1 136:1 142:1 252:1 
2 1:0.23076923 2:0.23076923 3:0.44687753 4:0.7979798 5:0.76796108 99:1 120:1 135:1 143:1 252:1 
1.867596967704509 1:0.30769231 2:0.30769231 3:0.30770479 4:0.65909091 5:0.78385892 99:1 120:1 141:1 156:1 253:1 
0.8338467060624116 1:0.53846154 2:0.53846154 3:0.23276561 4:0.63636364 5:0.77838589 99:1 170:1 213:1 254:1 
2 1:0.15384615 2:0.15384615 3:0.26158837 4:0.63636364 5:0.78540259 108:1 120:1 192:1 240:1 253:1 
1.456661623225401 1:0.46153846 2:0.46153846 3:0.34297028 4:0.6969697 5:0.77623961 108:1 143:1 176:1 204:1 
2 1:0.46153846 2:0.46153846 3:0.27684748 4:0.54545455 5:0.73277734 110:1 120:1 176:1 240:1 
2 1:0.53846154 2:0.53846154 3:0.23276561 4:0.81818182 5:0.74798019 141:1 156:1 214:1 228:1 254:1 
2 1:0.30769231 2:0.30769231 3:0.45758313 4:0.54545455 5:0.73277734 101:1 120:1 135:1 229:1 
0.4581905145890387 1:0.30769231 2:0.30769231 3:0.38264396 4:0.54545455 5:0.73277734 101:1 121:1 168:1 252:1 
0.8945850551698737 1:0.46153846 2:0.46153846 3:0.40909308 4:0.54545455 5:0.73277734 65:1 86:1 135:1 
2 1:0.46153846 2:0.46153846 3:0.40909308 4:0.54545455 5:0.73277734 64:1 70:1 86:1 101:1 122:1 136:1 142:1 252:1 
1.405814142298564 1:0.30769231 2:0.30769231 3:0.38264396 4:0.20454545 5:0.71088524 64:1 109:1 174:1 253:1 
2 1:0.38461538 2:0.38461538 3:0.2561841 4:0.48051948 5:0.66094388 43:1 204:1 228:1 241:1 
1.806753183358024 1:0.53846154 2:0.53846154 3:0.29521492 4:0.63636364 5:0.79358874 44:1 71:1 215:1 253:1 278:1 
2 1:0.69230769 2:0.69230769 3:0.2702352 4:0.39393939 5:0.69993919 44:1 141:1 158:1 214:1 253:1 
1.230050080620327 1:0.69230769 2:0.69230769 3:0.21403082 4:0.39393939 5:0.70814873 44:1 206:1 213:1 254:1 
0.01028323598334986 1:0.38461538 2:0.38461538 3:0.32643958 4:0.48051948 5:0.63699939 42:1 99:1 141:1 156:1 253:1 
1.256323440947322 1:0.53846154 2:0.53846154 3:0.29521492 4:0.45454545 5:0.67196595 42:1 100:1 141:1 215:1 254:1 
0.7600586802878524 1:0.46153846 2:0.46153846 3:0.34297028 4:0.54545455 5:0.73277734 42:1 65:1 141:1 156:1 252:1 
2 1:0.38461538 2:0.38461538 3:0.39669505 4:0.48051948 5:0.6130549 41:1 43:1 63:1 192:1 253:1 
2 1:0.53846154 2:0.53846154 3:0.35766423 4:0.63636364 5:0.80879159 40:1 71:1 176:1 215:1 254:1 
0.06826588561260739 1:0.38461538 2:0.38461538 3:0.18592863 4:0.48051948 5:0.68488837 25:1 170:1 204:1 254:1 
2 1:0.38461538 2:0.38461538 3:0.2561841 4:0.48051948 5:0.66094388 13:1 24:1 141:1 176:1 192:1 253:1 
1.036198482904533 1:0.53846154 2:0.53846154 3:0.23276561 4:0.45454545 5:0.6871688 13:1 69:1 176:1 206:1 252:1 
2 1:0.38461538 2:0.38461538 3:0.39669505 4:0.61038961 5:0.85249978 13:1 41:1 204:1 214:1 252:1 
1.886282926489565 1:0.38461538 2:0.38461538 3:0.46346071 4:0.37878788 5:0.65772892 25:1 40:1 53:1 100:1 249:1 
2 1:0.23076923 2:0.23076923 3:0.50072993 4:0.49242424 5:0.67218708 12:1 24:1 39:1 52:1 63:1 236:1 
2 1:0.23076923 2:0.23076923 3:0.39854015 4:0.56818182 5:0.64979743 12:1 24:1 51:1 63:1 229:1 250:1 
1.701836755518121 1:0.38461538 2:0.38461538 3:0.28848961 4:0.52272727 5:0.64013352 12:1 26:1 40:1 195:1 206:1 250:1 
2 1:0.23076923 2:0.23076923 3:0.29635036 4:0.41666667 5:0.64979743 12:1 25:1 40:1 64:1 235:1 251:1 264:1 
1.960145443680157 1:0.53846154 2:0.53846154 3:0.35766423 4:0.68181818 5:0.64216836 14:1 24:1 41:1 119:1 236:1 251:1 
2 1:0.38461538 2:0.38461538 3:0.28848961 4:0.52272727 5:0.64013352 14:1 26:1 51:1 64:1 68:1 204:1 251:1 
2 1:0.23076923 2:0.23076923 3:0.39854015 4:0.56818182 5:0.64979743 14:1 26:1 40:1 51:1 63:1 195:1 251:1 
2 1:0.53846154 2:0.53846154 3:0.35766423 4:0.45454545 5:0.6567631 14:1 25:1 53:1 65:1 158:1 250:1 
2 1:0.38461538 2:0.38461538 3:0.63436272 4:0.52272727 5:0.68223372 24:1 39:1 53:1 65:1 196:1 250:1 
2 1:0.61538462 2:0.61538462 3:0.38576642 4:0.66558442 5:0.64444879 24:1 51:1 117:1 140:1 250:1 
2 1:0.30769231 2:0.30769231 3:0.33892944 4:0.71280992 5:0.64044537 24:1 111:1 204:1 215:1 228:1 250:1 
2 1:0.46153846 2:0.46153846 3:0.24525547 4:0.39141414 5:0.63487099 13:1 26:1 40:1 175:1 204:1 250:1 
2 1:0.38461538 2:0.38461538 3:0.20202134 4:0.61363636 5:0.63136264 13:1 25:1 119:1 132:1 213:1 251:1 
2 1:0.38461538 2:0.38461538 3:0.20202134 4:0.40909091 5:0.64055452 14:1 24:1 36:1 44:1 174:1 252:1 
1.053227920833759 1:0.30769231 2:0.30769231 3:0.24525547 4:0.4338843 5:0.64581704 24:1 84:1 92:1 229:1 252:1 
0.5374186638414183 1:0.30769231 2:0.30769231 3:0.43260341 4:0.51652893 5:0.66015116 36:1 135:1 219:1 
2 1:0.30769231 2:0.30769231 3:0.24525547 4:0.4338843 5:0.64581704 36:1 68:1 85:1 123:1 228:1 254:1 
2 1:0.30769231 2:0.30769231 3:0.33892944 4:0.51652893 5:0.6529841 36:1 44:1 84:1 92:1 111:1 228:1 252:1 
0.3798096528403671 1:0.30769231 2:0.30769231 3:0.24525547 4:0.4338843 5:0.64581704 85:1 228:1 239:1 253:1 
2 1:0.38461538 2:0.38461538 3:0.20202134 4:0.31818182 5:0.63529199 85:1 91:1 220:1 230:1 252:1 
0.7632964710109684 1:0.61538462 2:0.61538462 3:0.38576642 4:0.42207792 5:0.66178004 68:1 229:1 238:1 
0.01496635805195819 1:0.53846154 2:0.53846154 3:0.35766423 4:0.34090909 5:0.66770915 68:1 208:1 230:1 
2 1:0.30769231 2:0.30769231 3:0.24525547 4:0.4338843 5:0.64581704 66:1 84:1 91:1 111:1 252:1 276:1 
0.5222274482845337 1:0.15384615 2:0.15384615 3:0.13284672 4:0.33216783 5:0.6221006 13:1 25:1 36:1 42:1 252:1 264:1 
2 1:0.30769231 2:0.30769231 3:0.30902583 4:0.74025974 5:0.77034592 12:1 47:1 60:1 96:1 179:1 246:1 
0.4032045200202397 1:0.38461538 2:0.38461538 3:0.32755474 4:0.4978355 5:0.64975893 24:1 46:1 73:1 192:1 246:1 
2 1:0.53846154 2:0.53846154 3:0.28740876 4:0.58441558 5:0.60089262 45:1 60:1 72:1 154:1 246:1 
2 1:0.61538462 2:0.61538462 3:0.30393946 4:0.64935065 5:0.69667058 37:1 46:1 108:1 153:1 179:1 248:1 
1.871903038632042 1:0.53846154 2:0.53846154 3:0.35766423 4:0.19480519 5:0.67956737 37:1 46:1 109:1 128:1 246:1 
1.882342163304243 1:0.46153846 2:0.46153846 3:0.26867397 4:0.30844156 5:0.67964338 13:1 25:1 46:1 122:1 246:1 
0.8924238781205637 1:0.46153846 2:0.46153846 3:0.11879562 4:0.77922078 5:0.68070758 12:1 24:1 36:1 213:1 249:1 266:1 
1.986703327700583 1:0.15384615 2:0.15384615 3:0.36405109 4:0.77922078 5:0.68070758 12:1 24:1 96:1 108:1 208:1 251:1 
2 1:0.38461538 2:0.38461538 3:0.24726277 4:0.93073593 5:0.71589132 12:1 24:1 96:1 155:1 165:1 251:1 
2 1:0.46153846 2:0.46153846 3:0.26867397 4:0.66558442 5:0.62962601 12:1 38:1 72:1 153:1 244:1 250:1 
0.3788703176111439 1:0.30769231 2:0.30769231 3:0.30902583 4:0.87012987 5:0.75438293 12:1 47:1 60:1 96:1 179:1 
0.1851645011769736 1:0.30769231 2:0.30769231 3:0.30902583 4:0.87012987 5:0.75438293 12:1 46:1 60:1 96:1 144:1 251:1 
1.036456764447313 1:0.23076923 2:0.23076923 3:0.19373479 4:0.82054309 5:0.78104639 12:1 60:1 96:1 120:1 153:1 276:1 
0.8951132430362069 1:0.46153846 2:0.46153846 3:0.26867397 4:0.77922078 5:0.68070758 12:1 62:1 179:1 207:1 249:1 
2 1:0.61538462 2:0.61538462 3:0.10557106 4:0.77922078 5:0.68070758 14:1 26:1 38:1 46:1 120:1 153:1 251:1 
0.6183522624416904 1:0.53846154 2:0.53846154 3:0.21715328 4:0.58441558 5:0.6567631 14:1 25:1 46:1 61:1 153:1 251:1 
2 1:0.53846154 2:0.53846154 3:0.28740876 4:0.84415584 5:0.77648554 36:1 46:1 72:1 165:1 251:1 
2 1:0.61538462 2:0.61538462 3:0.30393946 4:0.77922078 5:0.68070758 47:1 122:1 154:1 251:1 
2 1:0.53846154 2:0.53846154 3:0.28740876 4:0.97402597 5:0.71263357 45:1 60:1 84:1 179:1 215:1 250:1 
2 1:0.69230769 2:0.69230769 3:0.38108273 4:0.87012987 5:0.77192468 46:1 60:1 154:1 166:1 251:1 
2 1:0.30769231 2:0.30769231 3:0.30902583 4:0.96103896 5:0.71754526 72:1 144:1 167:1 179:1 192:1 251:1 
0.4515362126555691 1:0.61538462 2:0.61538462 3:0.30393946 4:0.77922078 5:0.68070758 37:1 46:1 108:1 153:1 179:1 250:1 
0.6862842490377783 1:0.38461538 2:0.38461538 3:0.32755474 4:0.62770563 5:0.63379593 25:1 46:1 97:1 108:1 251:1 
0.7336192267136113 1:0.61538462 2:0.61538462 3:0.4607056 4:0.60064935 5:0.64323256 34:1 112:1 190:1 251:1 
2 1:0.69230769 2:0.69230769 3:0.22101045 4:0.34090909 5:0.66402469 86:1 206:1 235:1 250:1 
1.050116136994449 1:0.61538462 2:0.61538462 3:0.32019465 4:0.47077922 5:0.65919555 101:1 206:1 235:1 251:1 
0.4091669263771917 1:0.53846154 2:0.53846154 3:0.50754258 4:0.56818182 5:0.64095213 53:1 112:1 191:1 250:1 
1.61850945396921 1:0.53846154 2:0.53846154 3:0.35766423 4:0.75757576 5:0.910086 12:1 34:1 179:1 207:1 249:1 
2 1:0.30769231 2:0.30769231 3:0.4379562 4:0.78282828 5:0.86317435 12:1 96:1 155:1 207:1 251:1 
2 1:0.38461538 2:0.38461538 3:0.4379562 4:0.50045914 5:0.6387803 12:1 96:1 102:1 208:1 250:1 
0.4818133617075029 1:0.46153846 2:0.46153846 3:0.4379562 4:0.70707071 5:0.69898358 24:1 155:1 207:1 250:1 
0.1339954995571264 1:0.38461538 2:0.38461538 3:0.4379562 4:0.50045914 5:0.6387803 24:1 102:1 208:1 251:1 
0.1209414242037687 1:0.46153846 2:0.46153846 3:0.26501965 4:0.43434343 5:0.66740843 24:1 54:1 218:1 
2 1:0.53846154 2:0.53846154 3:0.27737226 4:0.55555556 5:0.64034402 35:1 50:1 54:1 251:1 
2 1:0.53846154 2:0.53846154 3:0.35766423 4:0.45454545 5:0.6567631 56:1 72:1 122:1 208:1 250:1 
2 1:0.46153846 2:0.46153846 3:0.35148793 4:0.34343434 5:0.67003969 54:1 72:1 82:1 97:1 104:1 217:1 
1.445963548446146 1:0.46153846 2:0.46153846 3:0.26501965 4:0.52525253 5:0.65162086 54:1 72:1 242:1 250:1 276:1 
0.07976697926626315 1:0.46153846 2:0.46153846 3:0.35148793 4:0.43434343 5:0.66039173 54:1 216:1 241:1 250:1 
2 1:0.46153846 2:0.46153846 3:0.4379562 4:0.25252525 5:0.67161845 54:1 102:1 208:1 
1.713879552807038 1:0.53846154 2:0.53846154 3:0.35766423 4:0.45454545 5:0.6567631 13:1 35:1 54:1 250:1 
2 1:0.30769231 2:0.30769231 3:0.4379562 4:0.63131313 5:0.53479281 13:1 155:1 207:1 216:1 
1.56783479999862 1:0.53846154 2:0.53846154 3:0.4379562 4:0.35353535 5:0.66379984 13:1 104:1 208:1 250:1 
1.320418637221274 1:0.53846154 2:0.53846154 3:0.27737226 4:0.55555556 5:0.64034402 13:1 56:1 129:1 144:1 251:1 
2 1:0.38461538 2:0.38461538 3:0.4379562 4:0.41781451 5:0.65598124 13:1 54:1 83:1 102:1 131:1 208:1 
1.920539379801726 1:0.61538462 2:0.61538462 3:0.15384615 4:0.4040404 5:0.72713057 127:1 157:1 163:1 249:1 264:1 
1.723849729131904 1:0.69230769 2:0.69230769 3:0.26399027 4:0.60076287 5:0.60659369 12:1 57:1 129:1 227:1 248:1 
2 1:0.46153846 2:0.46153846 3:0.54501217 4:0.49450549 5:0.59291113 39:1 75:1 226:1 246:1 
0.7947797842501791 1:0.53846154 2:0.53846154 3:0.35766423 4:0.39772727 5:0.68803753 26:1 221:1 223:1 256:1 
0.9626774240467226 1:0.38461538 2:0.38461538 3:0.77518248 4:0.50505051 5:0.80453479 51:1 89:1 191:1 256:1 
1.882708145402823 1:0.38461538 2:0.38461538 3:0.55036496 4:0.4040404 5:0.60750586 87:1 174:1 222:1 255:1 
1.344762042801659 1:0.53846154 2:0.53846154 3:0.35766423 4:0.56818182 5:0.64112588 119:1 189:1 239:1 256:1 
0.7287168521323283 1:0.46153846 2:0.46153846 3:0.4379562 4:0.37433155 5:0.6567631 155:1 174:1 198:1 256:1 
2 1:0.61538462 2:0.61538462 3:0.57846715 4:0.42424242 5:0.55414386 54:1 130:1 238:1 256:1 
2 1:0.69230769 2:0.69230769 3:0.50040552 4:0.38961039 5:0.63547911 54:1 103:1 166:1 257:1 
0.9441002884414172 1:0.53846154 2:0.53846154 3:0.51824818 4:0.45454545 5:0.6567631 25:1 166:1 238:1 256:1 
0.1223336528878229 1:0.84615385 2:0.84615385 3:0.21715328 4:0.60802834 5:0.40363565 9:1 57:1 176:1 250:1 
2 1:0.61538462 2:0.61538462 3:0.35766423 4:0.59504132 5:0.4241595 10:1 24:1 44:1 59:1 73:1 92:1 251:1 
0.4093307092428487 1:0.61538462 2:0.61538462 3:0.18472768 4:0.59504132 5:0.4031094 26:1 38:1 239:1 250:1 
2 1:0.53846154 2:0.53846154 3:0.1703163 4:0.45454545 5:0.55642429 26:1 37:1 43:1 59:1 
-0.08519429803691937 1:0.30769231 2:0.30769231 3:0.2810219 4:0.28787879 5:0.66518587 18:1 32:1 62:1 84:1 121:1 232:1 252:1 
-0.7415670691918149 1:0.38461538 2:0.38461538 3:0.11567315 4:0.61038961 5:0.75672183 69:1 86:1 109:1 121:1 143:1 206:1 252:1 
-1.091172853949639 1:0.84615385 2:0.84615385 3:0.62335766 4:0.53030303 5:0.6900988 20:1 111:1 118:1 152:1 166:1 224:1 
-2 1:0.46153846 2:0.46153846 3:0.23990268 4:0.44191919 5:0.6642218 85:1 121:1 141:1 158:1 172:1 250:1 
-0.9381927373154891 1:0.38461538 2:0.38461538 3:0.53846154 4:0.62121212 5:0.64011438 12:1 41:1 44:1 75:1 84:1 207:1 250:1 
-0.9445190641733672 1:0.30769231 2:0.30769231 3:0.22255755 4:0.46753247 5:0.67035795 26:1 37:1 108:1 179:1 194:1 208:1 246:1 
-0.1303854497889878 1:0.15384615 2:0.15384615 3:0.34805665 4:0.54545455 5:0.73277734 12:1 25:1 40:1 99:1 205:1 215:1 254:1 
-1.643371645294971 1:0.38461538 2:0.38461538 3:0.44849959 4:0.23809524 5:0.70043674 6:1 18:1 75:1 90:1 149:1 222:1 252:1 
-0.3470645537114816 1:0.61538462 2:0.61538462 3:0.52627737 4:0.40584416 5:0.73064894 53:1 172:1 175:1 197:1 215:1 236:1 
-1.022599208310254 1:0.46153846 2:0.46153846 3:0.15782644 4:0.61438561 5:0.69243912 12:1 115:1 167:1 205:1 225:1 239:1 255:1 
-0.340182015675121 1:0.53846154 2:0.53846154 3:0.53515175 4:0.68181818 5:0.6423604 20:1 39:1 149:1 183:1 209:1 225:1 
-2 1:0.46153846 2:0.46153846 3:0.42919708 4:0.55361305 5:0.64044353 64:1 75:1 156:1 213:1 238:1 
-1.448938484975932 1:0.53846154 2:0.53846154 3:0.35766423 4:0.58441558 5:0.6408001 13:1 46:1 73:1 97:1 166:1 178:1 251:1 
-2 1:0.69230769 2:0.69230769 3:0.33512614 4:0.90909091 5:0.63982278 14:1 19:1 94:1 127:1 219:1 225:1 255:1 
-0.5781852966903988 1:0.076923077 2:0.076923077 3:0.23276561 4:0.50413223 5:0.63243854 25:1 109:1 121:1 143:1 228:1 241:1 252:1 
-0.5044551688805941 1:0.61538462 2:0.61538462 3:0.25113306 4:0.6969697 5:0.72097278 14:1 26:1 86:1 105:1 233:1 245:1 251:1 
-0.8165596072778148 1:0.61538462 2:0.61538462 3:0.47542579 4:0.39141414 5:0.61428199 32:1 57:1 88:1 136:1 142:1 210:1 251:1 
-0.8709135970253772 1:0.38461538 2:0.38461538 3:0.32554745 4:0.55555556 5:0.63213448 25:1 51:1 71:1 139:1 155:1 239:1 256:1 
-0.123564752378635 1:0.46153846 2:0.46153846 3:0.11240876 4:0.25058275 5:0.65009596 18:1 122:1 127:1 138:1 180:1 210:1 252:1 
-0.4624261733465487 1:0.38461538 2:0.38461538 3:0.537206 4:0.48051948 5:0.56516593 24:1 39:1 101:1 109:1 137:1 176:1 
-0.6023226141709919 1:0.38461538 2:0.38461538 3:0.45162821 4:0.3030303 5:0.69056708 20:1 40:1 87:1 126:1 184:1 225:1 255:1 
-2 1:0.53846154 2:0.53846154 3:0.53515175 4:0.90909091 5:0.64956175 41:1 75:1 93:1 113:1 185:1 225:1 255:1 
-2 1:0.46153846 2:0.46153846 3:0.37081146 4:0.36363636 5:0.73277734 14:1 19:1 52:1 184:1 209:1 225:1 255:1 
-2 1:0.23076923 2:0.23076923 3:0.44525547 4:0.49242424 5:0.65889544 12:1 40:1 76:1 135:1 180:1 237:1 
-2 1:0.15384615 2:0.15384615 3:0.34805665 4:0.45454545 5:0.659102 12:1 26:1 39:1 64:1 109:1 205:1 
-1.2107261138246 1:0.38461538 2:0.38461538 3:0.1703163 4:0.5626192 5:0.63669533 23:1 37:1 143:1 182:1 189:1 241:1 255:1 
-0.08399456729502706 1:0.46153846 2:0.46153846 3:0.24031443 4:0.70707071 5:0.67083659 71:1 119:1 176:1 191:1 206:1 217:1 252:1 
-2 1:0.30769231 2:0.30769231 3:0.42153285 4:0.53030303 5:0.65638994 47:1 60:1 180:1 207:1 
-1.921895155982531 1:0.30769231 2:0.30769231 3:0.42683885 4:0.62937063 5:0.67099296 39:1 75:1 191:1 198:1 228:1 251:1 
-0.4661149433375546 1:0.30769231 2:0.30769231 3:0.33576642 4:0.47979798 5:0.65420428 12:1 24:1 54:1 104:1 193:1 217:1 251:1 
-0.5746853066419439 1:0.38461538 2:0.38461538 3:0.48448437 4:0.22727273 5:0.63122231 17:1 78:1 114:1 181:1 228:1 245:1 
-1.24723170100139 1:0.69230769 2:0.69230769 3:0.27737226 4:0.46372819 5:0.5668491 126:1 140:1 153:1 168:1 238:1 
-2 1:0.38461538 2:0.38461538 3:0.2561841 4:0.48051948 5:0.66094388 13:1 26:1 101:1 122:1 252:1 
-0.4265481992310664 1:0.69230769 2:0.69230769 3:0.21617069 4:0.43939394 5:0.6490224 31:1 47:1 67:1 84:1 128:1 210:1 
-0.1829421672487196 1:0.15384615 2:0.15384615 3:0.60746148 4:0.36363636 5:0.66436452 40:1 65:1 101:1 109:1 120:1 136:1 253:1 
-1.872473660859234 1:0.38461538 2:0.38461538 3:0.32956204 4:0.44988345 5:0.6252932 14:1 64:1 83:1 126:1 219:1 225:1 256:1 
-0.9896081798588511 1:0.61538462 2:0.61538462 3:0.38576642 4:0.29220779 5:0.69370602 44:1 55:1 92:1 207:1 229:1 
-0.1954466544052349 1:0.53846154 2:0.53846154 3:0.69489051 4:0.24475524 5:0.6994527 18:1 76:1 82:1 116:1 138:1 160:1 257:1 
-0.6081906589569215 1:0.30769231 2:0.30769231 3:0.3954941 4:0.77922078 5:0.68070758 24:1 46:1 84:1 96:1 121:1 243:1 250:1 
-0.3825068425335565 1:0.46153846 2:0.46153846 3:0.33625304 4:0.37878788 5:0.66640605 30:1 49:1 58:1 132:1 158:1 173:1 
-0.5194409967861388 1:0.30769231 2:0.30769231 3:0.40203611 4:0.64935065 5:0.62483711 14:1 95:1 113:1 125:1 184:1 192:1 255:1 
-0.6425736936781677 1:0.38461538 2:0.38461538 3:0.60746148 4:0.61038961 5:0.92433325 39:1 64:1 70:1 101:1 136:1 142:1 252:1 
-2 1:0.23076923 2:0.23076923 3:0.4379562 4:0.67210567 5:0.3432369 13:1 48:1 96:1 131:1 208:1 251:1 
-0.03014623904435774 1:0.30769231 2:0.30769231 3:0.12623444 4:0.65656566 5:0.69056708 13:1 51:1 74:1 84:1 170:1 182:1 251:1 
-1.177467343229179 1:0.30769231 2:0.30769231 3:0.61706906 4:0.54545455 5:0.66570939 47:1 63:1 75:1 84:1 123:1 188:1 
-1.364447241813235 1:0.53846154 2:0.53846154 3:0.51824818 4:0.51136364 5:0.68803753 24:1 53:1 71:1 102:1 129:1 166:1 256:1 
-1.112664750086145 1:0.69230769 2:0.69230769 3:0.2702352 4:1 5:0.7437234 12:1 65:1 71:1 142:1 175:1 213:1 254:1 
-2 1:0.53846154 2:0.53846154 3:0.26399027 4:0.45454545 5:0.60659369 38:1 155:1 174:1 229:1 250:1 
-1.202910705467248 1:0.38461538 2:0.38461538 3:0.55036496 4:0.3030303 5:0.64034402 25:1 52:1 54:1 220:1 223:1 257:1 
-0.3712821836588053 1:0.46153846 2:0.46153846 3:0.24608201 4:0.23809524 5:0.74308398 14:1 28:1 103:1 128:1 146:1 231:1 253:1 
-2 1:0.30769231 2:0.30769231 3:0.44740232 4:0.75757576 5:0.73747873 13:1 99:1 119:1 144:1 233:1 251:1 
-1.24029596969558 1:0.46153846 2:0.46153846 3:0.34297028 4:0.6969697 5:0.77623961 41:1 86:1 99:1 141:1 156:1 176:1 252:1 
-0.8266192376898082 1:0.69230769 2:0.69230769 3:0.32884147 4:0.18181818 5:0.63922135 20:1 42:1 128:1 187:1 206:1 220:1 
-0.7673311496565042 1:0.61538462 2:0.61538462 3:0.30614355 4:0.55194805 5:0.645589 31:1 59:1 72:1 107:1 200:1 217:1 248:1 
-2 1:0.38461538 2:0.38461538 3:0.48880779 4:0.27018436 5:0.69702893 12:1 18:1 76:1 92:1 136:1 140:1 252:1 
-2 1:0.30769231 2:0.30769231 3:0.38264396 4:0.31818182 5:0.69993919 64:1 100:1 122:1 241:1 
-0.6309780335995226 1:0.30769231 2:0.30769231 3:0.38264396 4:0.31818182 5:0.69993919 42:1 101:1 110:1 120:1 136:1 174:1 252:1 
-2 1:0.23076923 2:0.23076923 3:0.51534168 4:0.60606061 5:0.69056708 41:1 51:1 168:1 204:1 232:1 
-1.423683353569449 1:0.53846154 2:0.53846154 3:0.35766423 4:0.56818182 5:0.6482495 17:1 59:1 140:1 180:1 230:1 
-0.05857852238728633 1:0.076923077 2:0.076923077 3:0.40575354 4:0.37878788 5:0.65632408 13:1 28:1 41:1 99:1 204:1 220:1 252:1 
-2 1:0.30769231 2:0.30769231 3:0.29626449 4:0.35353535 5:0.60088304 13:1 40:1 46:1 75:1 144:1 235:1 253:1 
-1.333115804331646 1:0.46153846 2:0.46153846 3:0.22481752 4:0.39044289 5:0.65167705 8:1 46:1 120:1 157:1 194:1 253:1 
-0.9669292713012386 1:0.53846154 2:0.53846154 3:0.50754258 4:0.45454545 5:0.68595257 15:1 35:1 88:1 213:1 222:1 236:1 257:1 
-0.2696644851478313 1:0.15384615 2:0.15384615 3:0.31358237 4:0.48209366 5:0.65712081 12:1 24:1 39:1 54:1 145:1 157:1 
-0.1279618980634977 1:0.23076923 2:0.23076923 3:0.31082725 4:0.15702479 5:0.60248892 42:1 76:1 114:1 133:1 182:1 217:1 256:1 
-2 1:0.46153846 2:0.46153846 3:0.5233951 4:0.54545455 5:0.66114853 36:1 47:1 65:1 77:1 164:1 252:1 
-1.92304227902096 1:0.46153846 2:0.46153846 3:0.38659296 4:0.23809524 5:0.69519501 88:1 116:1 126:1 159:1 235:1 252:1 
-0.3967634749849463 1:0.69230769 2:0.69230769 3:0.33090024 4:0.29843893 5:0.70706281 44:1 111:1 164:1 199:1 218:1 222:1 
-0.8179415323664921 1:0.30769231 2:0.30769231 3:0.38264396 4:0.090909091 5:0.71635827 40:1 44:1 109:1 174:1 229:1 241:1 
-1.002502790225076 1:0.53846154 2:0.53846154 3:0.45985401 4:0.37878788 5:0.61198379 41:1 42:1 65:1 86:1 92:1 156:1 
-2 1:0.38461538 2:0.38461538 3:0.32755474 4:0.8008658 5:0.74358223 12:1 72:1 146:1 166:1 207:1 215:1 
-2 1:0.46153846 2:0.46153846 3:0.40725633 4:0.67099567 5:0.78634503 101:1 129:1 204:1 243:1 
-0.5584449168020187 1:0.46153846 2:0.46153846 3:0.21072468 4:0.6969697 5:0.75692305 24:1 71:1 84:1 176:1 194:1 213:1 253:1 
-2 1:0.61538462 2:0.61538462 3:0.46538929 4:0.66558442 5:0.66884936 34:1 87:1 103:1 215:1 257:1 
-1.062594651201486 1:0.076923077 2:0.076923077 3:0.32643958 4:0.4214876 5:0.68260794 12:1 24:1 41:1 85:1 121:1 193:1 253:1 
-0.3536182132251234 1:0.46153846 2:0.46153846 3:0.59545199 4:0.49586777 5:0.80727131 63:1 111:1 116:1 142:1 185:1 241:1 
-0.1187284368784131 1:0.15384615 2:0.15384615 3:0.1836983 4:0.3357438 5:0.63917123 13:1 19:1 121:1 136:1 207:1 228:1 252:1 
-0.04638047672039579 1:0.30769231 2:0.30769231 3:0.47007299 4:0.10330579 5:0.56432977 28:1 30:1 78:1 107:1 133:1 172:1 246:1 
-1.155846192784321 1:0.30769231 2:0.30769231 3:0.37655646 4:0.65656566 5:0.66622427 14:1 47:1 65:1 87:1 144:1 231:1 
-2 1:0.61538462 2:0.61538462 3:0.4379562 4:0.36616162 5:0.66249674 13:1 34:1 54:1 154:1 208:1 250:1 
-0.285526780222174 1:0.30769231 2:0.30769231 3:0.48880779 4:0.3822314 5:0.71422987 17:1 100:1 103:1 183:1 204:1 222:1 255:1 
-2 1:0.46153846 2:0.46153846 3:0.34297028 4:0.54545455 5:0.73277734 24:1 63:1 69:1 86:1 100:1 176:1 
-0.3042757467729988 1:0.46153846 2:0.46153846 3:0.4379562 4:0.88888889 5:0.7673964 12:1 34:1 48:1 82:1 155:1 207:1 251:1 
-0.5593818473237828 1:0.53846154 2:0.53846154 3:0.29521492 4:0.27272727 5:0.71250688 24:1 43:1 101:1 141:1 176:1 193:1 253:1 
-2 1:0.61538462 2:0.61538462 3:0.57846715 4:0.48484848 5:0.75938233 10:1 24:1 70:1 176:1 222:1 255:1 
-2 1:0.76923077 2:0.76923077 3:0.28629359 4:1 5:0.74450526 14:1 69:1 137:1 142:1 214:1 254:1 
-2 1:0.46153846 2:0.46153846 3:0.45684843 4:0.23809524 5:0.67125052 12:1 76:1 104:1 126:1 161:1 
-1.346696776256607 1:0.46153846 2:0.46153846 3:0.49571008 4:0.72727273 5:0.64156025 41:1 51:1 123:1 127:1 147:1 226:1 
-2 1:0.38461538 2:0.38461538 3:0.31224655 4:0.33549784 5:0.66247108 85:1 126:1 207:1 235:1 252:1 
-0.817570836606593 1:0.61538462 2:0.61538462 3:0.53430657 4:0.59343434 5:0.60516028 28:1 41:1 70:1 93:1 137:1 191:1 
-1.177342102875019 1:0.30769231 2:0.30769231 3:0.27984278 4:0.40559441 5:0.65415522 12:1 36:1 84:1 90:1 125:1 151:1 252:1 
-0.55297593140406 1:0.30769231 2:0.30769231 3:0.42683885 4:0.48951049 5:0.72791243 13:1 41:1 75:1 164:1 217:1 240:1 251:1 
-0.1379585191315268 1:0.30769231 2:0.30769231 3:0.48880779 4:0.54752066 5:0.67409434 15:1 22:1 50:1 64:1 125:1 144:1 255:1 
-1.038150937635465 1:0.76923077 2:0.76923077 3:0.27660022 4:0.35064935 5:0.64913244 14:1 19:1 76:1 86:1 105:1 224:1 250:1 
-0.502083006402205 1:0.38461538 2:0.38461538 3:0.43836796 4:0.52272727 5:0.66932299 35:1 101:1 123:1 126:1 156:1 213:1 256:1 
-0.05351572040150897 1:0.53846154 2:0.53846154 3:0.28272506 4:0.45454545 5:0.64946573 50:1 74:1 97:1 106:1 116:1 171:1 
-2 1:0.46153846 2:0.46153846 3:0.33700086 4:0.8008658 5:0.71451157 39:1 51:1 55:1 117:1 216:1 251:1 
-2 1:0.53846154 2:0.53846154 3:0.4379562 4:0.35353535 5:0.66379984 13:1 54:1 104:1 208:1 227:1 250:1 
-2 1:0.30769231 2:0.30769231 3:0.38264396 4:0.43181818 5:0.66710103 12:1 24:1 41:1 100:1 176:1 194:1 253:1 
-0.9806246737644114 1:0.53846154 2:0.53846154 3:0.43260341 4:0.22727273 5:0.64581704 54:1 68:1 124:1 175:1 219:1 
-0.1692240928423606 1:0.38461538 2:0.38461538 3:0.51775101 4:0.60606061 5:0.63261739 41:1 75:1 113:1 160:1 192:1 225:1 257:1 
-2 1:0.46153846 2:0.46153846 3:0.5233951 4:0.29752066 5:0.68851366 77:1 84:1 124:1 200:1 234:1 
-1.402774487427499 1:0.53846154 2:0.53846154 3:0.1703163 4:0.45454545 5:0.64242898 12:1 53:1 55:1 91:1 155:1 182:1 253:1 
-1.886517813269404 1:0.69230769 2:0.69230769 3:0.42055025 4:0.65151515 5:0.62952554 12:1 19:1 75:1 190:1 226:1 238:1 
-2 1:0.84615385 2:0.84615385 3:0.11312588 4:0.56818182 5:0.67935933 14:1 26:1 69:1 122:1 177:1 213:1 250:1 
-1.206569076929829 1:0.53846154 2:0.53846154 3:0.25547445 4:0.15151515 5:0.71049826 19:1 31:1 66:1 102:1 181:1 208:1 
-2 1:0.23076923 2:0.23076923 3:0.4288734 4:0.42424242 5:0.65372941 12:1 54:1 84:1 232:1 244:1 
-0.5606958604875975 1:0.23076923 2:0.23076923 3:0.35766423 4:0.56473829 5:0.43784206 72:1 84:1 155:1 174:1 192:1 204:1 
-0.7699489386760369 1:0.46153846 2:0.46153846 3:0.21849148 4:0.42929293 5:0.66640605 33:1 50:1 64:1 81:1 121:1 196:1 
-1.601509341352538 1:0.46153846 2:0.46153846 3:0.41855231 4:0.30844156 5:0.66991356 25:1 37:1 46:1 128:1 192:1 208:1 248:1 
-0.6875155971559962 1:0.38461538 2:0.38461538 3:0.16370402 4:0.49242424 5:0.68326971 14:1 26:1 130:1 144:1 169:1 205:1 
-1.399614451040422 1:0.38461538 2:0.38461538 3:0.56990455 4:0.60606061 5:0.69407918 41:1 63:1 75:1 115:1 183:1 251:1 
-0.01032323630060732 1:0.46153846 2:0.46153846 3:0.26501965 4:0.34343434 5:0.67530222 13:1 54:1 81:1 103:1 208:1 240:1 
-0.5742844810912844 1:0.38461538 2:0.38461538 3:0.15158151 4:0.4100445 5:0.63943185 13:1 30:1 51:1 103:1 155:1 182:1 252:1 
-1.317549793291538 1:0.30769231 2:0.30769231 3:0.48540146 4:0.53030303 5:0.65303149 18:1 39:1 64:1 84:1 191:1 227:1 
-0.4305751363627758 1:0.46153846 2:0.46153846 3:0.31633748 4:0.36796537 5:0.62336154 12:1 45:1 100:1 104:1 178:1 205:1 253:1 
-0.7377295993021523 1:0.30769231 2:0.30769231 3:0.35036496 4:0.63131313 5:0.62605729 15:1 93:1 112:1 156:1 190:1 205:1 252:1 
-0.1630366122867432 1:0.46153846 2:0.46153846 3:0.34361314 4:0.55194805 5:0.64786943 72:1 122:1 126:1 153:1 233:1 244:1 251:1 
-1.885538488895888 1:0.38461538 2:0.38461538 3:0.4379562 4:0.66574839 5:0.39796716 102:1 168:1 207:1 227:1 251:1 
-1.384730467158032 1:0.38461538 2:0.38461538 3:0.48448437 4:0.5 5:0.66279746 59:1 80:1 97:1 171:1 243:1 
-2 1:0.38461538 2:0.38461538 3:0.32755474 4:0.82972583 5:0.82144253 122:1 192:1 215:1 231:1 251:1 
-2 1:0.38461538 2:0.38461538 3:0.2308441 4:0.59090909 5:0.72594776 50:1 64:1 76:1 120:1 143:1 165:1 
-0.6321045872964645 1:0.69230769 2:0.69230769 3:0.49148418 4:0.39944904 5:0.68360698 22:1 42:1 80:1 142:1 190:1 241:1 256:1 
-1.651377274359566 1:0.69230769 2:0.69230769 3:0.25060827 4:0.51948052 5:0.59291113 9:1 26:1 31:1 51:1 56:1 165:1 255:1 
-2 1:0.69230769 2:0.69230769 3:0.4421821 4:0.45454545 5:0.6567631 20:1 93:1 112:1 127:1 226:1 255:1 
-0.534919908908183 1:0.46153846 2:0.46153846 3:0.34361314 4:0.76298701 5:0.76234689 96:1 144:1 154:1 165:1 179:1 232:1 
-2 1:0.76923077 2:0.76923077 3:0.32116788 4:0.42929293 5:0.65597108 32:1 68:1 84:1 128:1 211:1 
-0.1891135470320142 1:0.38461538 2:0.38461538 3:0.24525547 4:0.37825811 5:0.071149335 25:1 42:1 72:1 109:1 139:1 204:1 250:1 
-0.9168788187348941 1:0.61538462 2:0.61538462 3:0.35766423 4:0.8677686 5:0.38311181 11:1 59:1 128:1 155:1 239:1 251:1 
-1.119440872294271 1:0.38461538 2:0.38461538 3:0.38550541 4:0.15151515 5:0.67849423 14:1 20:1 76:1 126:1 220:1 227:1 256:1 
-0.7876350878425689 1:0.69230769 2:0.69230769 3:0.21617069 4:0.43939394 5:0.6490224 19:1 31:1 68:1 140:1 156:1 180:1 
-1.174931838311248 1:0.23076923 2:0.23076923 3:0.25593685 4:0.42424242 5:0.6747795 52:1 72:1 169:1 205:1 218:1 
-2 1:0.53846154 2:0.53846154 3:0.61706906 4:0.54545455 5:0.66570939 46:1 63:1 77:1 125:1 188:1 252:1 
-0.6188458351921685 1:0.38461538 2:0.38461538 3:0.34428224 4:0.41781451 5:0.66314829 13:1 54:1 103:1 168:1 208:1 251:1 
-1.778522676072339 1:0.30769231 2:0.30769231 3:0.22255755 4:0.55844156 5:0.64404533 61:1 72:1 96:1 122:1 243:1 247:1 
-1.548411765415759 1:0.30769231 2:0.30769231 3:0.45758313 4:0.65909091 5:0.81304839 84:1 101:1 135:1 143:1 176:1 192:1 253:1 
-1.619363533037401 1:0.30769231 2:0.30769231 3:0.54254706 4:0.25974026 5:0.67272609 88:1 93:1 148:1 161:1 220:1 245:1 256:1 
-2 1:0.38461538 2:0.38461538 3:0.31358237 4:0.71969697 5:0.72705392 13:1 51:1 85:1 107:1 117:1 251:1 
-0.833654495363843 1:0.46153846 2:0.46153846 3:0.41855231 4:0.77922078 5:0.68070758 24:1 47:1 108:1 128:1 207:1 214:1 
-1.145508897655231 1:0.30769231 2:0.30769231 3:0.40203611 4:0.38961039 5:0.75254105 12:1 18:1 113:1 127:1 148:1 183:1 255:1 
-1.74372981648559 1:0.53846154 2:0.53846154 3:0.58248175 4:0.59440559 5:0.7421423 45:1 167:1 185:1 191:1 221:1 256:1 
-1.887659399541279 1:0.30769231 2:0.30769231 3:0.23357664 4:0.70707071 5:0.69898358 12:1 25:1 120:1 179:1 192:1 218:1 250:1 
-1.438299346201941 1:0.76923077 2:0.76923077 3:0.39094314 4:0.64935065 5:0.69667058 14:1 154:1 166:1 178:1 209:1 
-1.523329128200848 1:0.53846154 2:0.53846154 3:0.4379562 4:0.65656566 5:0.56528538 15:1 29:1 93:1 176:1 190:1 204:1 252:1 
-1.982307391249764 1:0.46153846 2:0.46153846 3:0.14869923 4:0.46280992 5:0.64391864 36:1 45:1 76:1 91:1 110:1 180:1 
-1.107127835115259 1:0.23076923 2:0.23076923 3:0.37128954 4:0.56818182 5:0.65422007 25:1 100:1 111:1 141:1 157:1 172:1 251:1 
-1.764874208085185 1:0.46153846 2:0.46153846 3:0.4379562 4:0.61616162 5:0.56215794 24:1 178:1 209:1 216:1 241:1 250:1 
-0.03965624849655627 1:0.61538462 2:0.61538462 3:0.37639903 4:0.42207792 5:0.66314829 17:1 59:1 74:1 106:1 114:1 138:1 
-0.0563368987669359 1:0.38461538 2:0.38461538 3:0.60746148 4:0.61038961 5:0.92433325 12:1 41:1 44:1 65:1 99:1 137:1 252:1 
-2 1:0.30769231 2:0.30769231 3:0.30770479 4:0.31818182 5:0.70723656 12:1 43:1 64:1 109:1 174:1 252:1 
-0.5115194325261221 1:0.30769231 2:0.30769231 3:0.48736665 4:0.51048951 5:0.62518795 39:1 75:1 107:1 160:1 208:1 223:1 
-0.279240076301524 1:0.46153846 2:0.46153846 3:0.49148418 4:0.61868687 5:0.83398488 36:1 51:1 89:1 101:1 163:1 238:1 252:1 
-0.4118930170267415 1:0.53846154 2:0.53846154 3:0.48256285 4:0.45454545 5:0.6263574 41:1 63:1 100:1 142:1 158:1 176:1 
-0.02231738580385761 1:0.69230769 2:0.69230769 3:0.52076714 4:0.53030303 5:0.64570973 16:1 101:1 113:1 141:1 176:1 201:1 251:1 
-2 1:0.23076923 2:0.23076923 3:0.34583173 4:0.56818182 5:0.59108679 13:1 18:1 113:1 192:1 219:1 227:1 255:1 
-0.8439808660386168 1:0.38461538 2:0.38461538 3:0.48813869 4:0.3968254 5:0.65445009 13:1 96:1 128:1 209:1 243:1 246:1 
-0.8233933583902204 1:0.46153846 2:0.46153846 3:0.40583942 4:0.69444444 5:0.64492349 24:1 51:1 68:1 197:1 206:1 215:1 251:1 
-1.691017124319675 1:0.23076923 2:0.23076923 3:0.35766423 4:0.56473829 5:0.43784206 36:1 120:1 168:1 204:1 229:1 250:1 
-2 1:0.38461538 2:0.38461538 3:0.39669505 4:0.61038961 5:0.85249978 12:1 40:1 44:1 69:1 99:1 240:1 
-1.885404290314292 1:0.46153846 2:0.46153846 3:0.22481752 4:0.32051282 5:0.65619447 46:1 60:1 127:1 162:1 193:1 253:1 
-0.08548435278858829 1:0.53846154 2:0.53846154 3:0.11678832 4:0.45454545 5:0.67787334 13:1 26:1 35:1 56:1 74:1 218:1 
-2 1:0.53846154 2:0.53846154 3:0.35766423 4:0.75757576 5:0.72437106 40:1 107:1 118:1 187:1 204:1 251:1 
-2 1:0.69230769 2:0.69230769 3:0.2741407 4:0.83333333 5:0.70496978 105:1 117:1 218:1 243:1 250:1 
-2 1:0.30769231 2:0.30769231 3:0.13608928 4:0.64935065 5:0.69667058 25:1 36:1 45:1 72:1 108:1 194:1 
-2 1:0.76923077 2:0.76923077 3:0.39334955 4:0.54545455 5:0.73277734 39:1 44:1 70:1 176:1 213:1 
-1.76377210423975 1:0.69230769 2:0.69230769 3:0.30263897 4:0.25757576 5:0.67270376 18:1 32:1 60:1 128:1 163:1 234:1 
-0.8858237480339827 1:0.38461538 2:0.38461538 3:0.13284672 4:0.51811825 5:0.42689601 36:1 108:1 194:1 206:1 210:1 251:1 
-2 1:0.46153846 2:0.46153846 3:0.54133868 4:0.6969697 5:0.80521445 12:1 65:1 101:1 137:1 143:1 
-1.200715919295989 1:0.30769231 2:0.30769231 3:0.4379562 4:0.38898601 5:0.64633829 12:1 23:1 76:1 102:1 148:1 150:1 
-0.3861410961709352 1:0.30769231 2:0.30769231 3:0.3144301 4:0.41958042 5:0.6567631 64:1 111:1 157:1 163:1 191:1 241:1 
-0.2611891172203072 1:0.23076923 2:0.23076923 3:0.59124088 4:0.3030303 5:0.67915275 20:1 112:1 148:1 150:1 183:1 196:1 252:1 
-1.837865228658987 1:0.38461538 2:0.38461538 3:0.20202134 4:0.43181818 5:0.62434594 12:1 64:1 67:1 86:1 119:1 157:1 
-0.8898199071674334 1:0.30769231 2:0.30769231 3:0.4379562 4:0.47979798 5:0.64425332 12:1 24:1 54:1 102:1 144:1 209:1 
-1.617727993379898 1:0.61538462 2:0.61538462 3:0.19332394 4:0.090909091 5:0.72557599 42:1 141:1 169:1 176:1 194:1 254:1 
-1.770736229858111 1:0.84615385 2:0.84615385 3:0.43904614 4:0.63636364 5:0.65370877 105:1 128:1 154:1 164:1 221:1 
-0.4415393428849833 1:0.61538462 2:0.61538462 3:0.50230786 4:0.77922078 5:0.68070758 46:1 60:1 166:1 215:1 233:1 245:1 
-0.8343421379193179 1:0.76923077 2:0.76923077 3:0.4379562 4:0.55944056 5:0.6567631 11:1 53:1 56:1 153:1 165:1 223:1 255:1 
-0.4686290594608982 1:0.46153846 2:0.46153846 3:0.25547445 4:0.48898072 5:0.49008458 57:1 73:1 92:1 108:1 169:1 228:1 250:1 
-1.373393737722292 1:0.53846154 2:0.53846154 3:0.35766423 4:0.79545455 5:0.65919555 12:1 71:1 99:1 112:1 177:1 189:1 250:1 
-0.4001978189183535 1:0.46153846 2:0.46153846 3:0.27684748 4:0.24242424 5:0.71587535 13:1 25:1 101:1 141:1 176:1 194:1 253:1 
-0.7678977485498747 1:0.46153846 2:0.46153846 3:0.15328467 4:0.71625344 5:0.38186794 24:1 57:1 74:1 84:1 204:1 238:1 251:1 
-0.6340171715949636 1:0.53846154 2:0.53846154 3:0.19708029 4:0.55555556 5:0.67083659 28:1 93:1 170:1 175:1 191:1 239:1 253:1 
-2 1:0.23076923 2:0.23076923 3:0.44687753 4:0.29292929 5:0.69759361 12:1 25:1 40:1 42:1 99:1 176:1 253:1 
-0.09122899036165225 1:0.61538462 2:0.61538462 3:0.22178551 4:0.23232323 5:0.67440508 20:1 43:1 128:1 146:1 204:1 229:1 246:1 
-0.6425461943885701 1:0.38461538 2:0.38461538 3:0.21715328 4:0.34731935 5:0.67142299 12:1 102:1 165:1 186:1 208:1 240:1 246:1 
-0.1515709388594332 1:0.53846154 2:0.53846154 3:0.35766423 4:0.65656566 5:0.60985145 12:1 24:1 107:1 209:1 211:1 233:1 249:1 
-2 1:0.23076923 2:0.23076923 3:0.4379562 4:0.46231546 5:0.64816263 12:1 54:1 145:1 192:1 208:1 
-2 1:0.46153846 2:0.46153846 3:0.32554745 4:0.47979798 5:0.65285379 38:1 43:1 173:1 207:1 228:1 
-1.634311051854411 1:0.076923077 2:0.076923077 3:0.18280616 4:0.35714286 5:0.63517505 13:1 26:1 85:1 123:1 219:1 228:1 253:1 
-0.0552310138423087 1:0.69230769 2:0.69230769 3:0.3333032 4:0.37878788 5:0.6704033 100:1 130:1 182:1 187:1 233:1 249:1 
-2 1:0.53846154 2:0.53846154 3:0.24525547 4:0.38461538 5:0.8702111 12:1 19:1 45:1 75:1 91:1 138:1 256:1 
-0.8337658339377086 1:0.46153846 2:0.46153846 3:0.26501965 4:0.25252525 5:0.68003849 13:1 55:1 102:1 208:1 218:1 
-0.6233578352570467 1:0.46153846 2:0.46153846 3:0.44963504 4:0.46037296 5:0.66173857 47:1 84:1 92:1 104:1 207:1 253:1 
-1.061228534106307 1:0.46153846 2:0.46153846 3:0.49683698 4:0.47979798 5:0.66640605 27:1 50:1 59:1 173:1 244:1 248:1 
-1.437449612390071 1:0.53846154 2:0.53846154 3:0.35766423 4:0.45454545 5:0.6567631 77:1 79:1 135:1 164:1 230:1 252:1 
-1.271562123755317 1:0.38461538 2:0.38461538 3:0.43714517 4:0.4004329 5:0.66566367 46:1 84:1 120:1 181:1 232:1 236:1 
-0.2548820325660022 1:0.46153846 2:0.46153846 3:0.52798054 4:0.32369146 5:0.74118037 22:1 42:1 54:1 100:1 191:1 198:1 255:1 
-1.508756956244093 1:0.38461538 2:0.38461538 3:0.0097323601 4:0.50045914 5:0.69090435 84:1 158:1 169:1 206:1 218:1 
-2 1:0.61538462 2:0.61538462 3:0.31551095 4:0.42207792 5:0.65379854 24:1 44:1 174:1 189:1 
-0.7378977175980569 1:0.30769231 2:0.30769231 3:0.52627737 4:0.54752066 5:0.66497263 24:1 66:1 111:1 172:1 197:1 215:1 251:1 
-0.9940873715703514 1:0.46153846 2:0.46153846 3:0.17855138 4:0.52525253 5:0.66214591 82:1 96:1 193:1 218:1 242:1 
-2 1:0.23076923 2:0.23076923 3:0.54501217 4:0.37741047 5:0.67891582 13:1 20:1 52:1 75:1 155:1 208:1 252:1 
-1.679926006468973 1:0.46153846 2:0.46153846 3:0.45684843 4:0.36796537 5:0.67125052 39:1 76:1 89:1 103:1 173:1 254:1 
-0.3710644909364158 1:0.69230769 2:0.69230769 3:0.44989706 4:0.43181818 5:0.63248532 14:1 43:1 58:1 147:1 161:1 224:1 
-0.4494666534466018 1:0.61538462 2:0.61538462 3:0.51690998 4:0.68181818 5:0.65174616 17:1 58:1 107:1 156:1 200:1 245:1 
-2 1:0.46153846 2:0.46153846 3:0.2423732 4:0.38016529 5:0.65267837 14:1 36:1 75:1 85:1 188:1 199:1 
-1.420937758758902 1:0.53846154 2:0.53846154 3:0.53060079 4:0.36363636 5:0.67693611 13:1 46:1 75:1 125:1 200:1 236:1 253:1 
-2 1:0.38461538 2:0.38461538 3:0.38550541 4:0.60606061 5:0.61330083 14:1 19:1 40:1 51:1 221:1 227:1 255:1 
-1.637871397275709 1:0.69230769 2:0.69230769 3:0.42055025 4:0.28787879 5:0.55935855 137:1 138:1 162:1 214:1 225:1 246:1 
-0.3794264198829702 1:0.61538462 2:0.61538462 3:0.093673966 4:0.4476584 5:0.64144047 7:1 47:1 158:1 194:1 234:1 
-0.1336574118988983 1:0.53846154 2:0.53846154 3:0.35766423 4:0.60606061 5:0.62691023 12:1 75:1 84:1 104:1 203:1 213:1 248:1 
-0.5902178030279361 1:0.46153846 2:0.46153846 3:0.26501965 4:0.52525253 5:0.65162086 13:1 48:1 104:1 122:1 179:1 217:1 250:1 
-0.7008027239642914 1:0.38461538 2:0.38461538 3:0.48880779 4:0.34011443 5:0.67805577 12:1 18:1 53:1 54:1 154:1 243:1 253:1 
-0.2518244381430791 1:0.53846154 2:0.53846154 3:0.20778589 4:0.56818182 5:0.71149335 33:1 49:1 120:1 141:1 160:1 223:1 251:1 
-1.160424499926705 1:0.38461538 2:0.38461538 3:0.31224655 4:0.4004329 5:0.65715008 61:1 84:1 104:1 207:1 211:1 252:1 
-2 1:0.38461538 2:0.38461538 3:0.4379562 4:0.74839302 5:1 24:1 72:1 120:1 154:1 209:1 251:1 
-2 1:0.23076923 2:0.23076923 3:0.29635036 4:0.45454545 5:0.65079252 24:1 36:1 111:1 209:1 230:1 253:1 
-2 1:0.30769231 2:0.30769231 3:0.082887267 4:0.43181818 5:0.72547998 14:1 26:1 121:1 141:1 192:1 205:1 253:1 
-0.3959386268077158 1:0.38461538 2:0.38461538 3:0.13861127 4:0.40909091 5:0.63648483 79:1 98:1 156:1 180:1 198:1 216:1 
-1.824521380363849 1:0.53846154 2:0.53846154 3:0.44413251 4:0.27272727 5:0.68570698 18:1 76:1 84:1 125:1 151:1 236:1 
-2 1:0.30769231 2:0.30769231 3:0.44740232 4:0.45454545 5:0.64365543 13:1 40:1 53:1 84:1 130:1 157:1 
-0.8125820564598071 1:0.53846154 2:0.53846154 3:0.43260341 4:0.34090909 5:0.66770915 29:1 38:1 51:1 100:1 163:1 224:1 
-1.934037881492944 1:0.38461538 2:0.38461538 3:0.40784672 4:0.5988456 5:0.52075189 12:1 145:1 153:1 208:1 215:1 233:1 
-2 1:0.30769231 2:0.30769231 3:0.30902583 4:0.83116883 5:0.73350825 36:1 46:1 60:1 96:1 179:1 192:1 
-2 1:0.61538462 2:0.61538462 3:0.35766423 4:0.59504132 5:0.4241595 36:1 58:1 154:1 212:1 228:1 
-0.952461121014378 1:0.69230769 2:0.69230769 3:0.56374696 4:0.54354736 5:0.74463557 32:1 46:1 83:1 138:1 183:1 225:1 257:1 
-0.6759881539024588 1:0.23076923 2:0.23076923 3:0.26399027 4:0.43801653 5:0.64959604 14:1 52:1 55:1 75:1 120:1 207:1 252:1 
-0.5731568532205285 1:0.076923077 2:0.076923077 3:0.18280616 4:0.42207792 5:0.63872238 12:1 85:1 135:1 158:1 219:1 229:1 252:1 
-0.4982841419354836 1:0.38461538 2:0.38461538 3:0.11567315 4:0.61038961 5:0.75672183 109:1 122:1 204:1 213:1 230:1 240:1 
-2 1:0.53846154 2:0.53846154 3:0.35766423 4:0.53719008 5:0.45608548 108:1 176:1 192:1 212:1 239:1 
-2 1:0.53846154 2:0.53846154 3:0.42011354 4:0.27272727 5:0.70237164 25:1 41:1 44:1 70:1 136:1 254:1 
-1.884487397395318 1:0.30769231 2:0.30769231 3:0.15782644 4:0.65909091 5:0.75466945 24:1 86:1 141:1 168:1 192:1 229:1 
-0.6205397249197454 1:0.38461538 2:0.38461538 3:0.56925719 4:0.53030303 5:0.68219657 13:1 39:1 46:1 65:1 77:1 221:1 252:1 
-0.4531932618316987 1:0.38461538 2:0.38461538 3:0.43714517 4:0.53030303 5:0.65715008 20:1 32:1 47:1 156:1 192:1 207:1 252:1 
-2 1:0.76923077 2:0.76923077 3:0.27264921 4:0.65656566 5:0.59743366 14:1 31:1 57:1 87:1 106:1 141:1 
-2 1:0.38461538 2:0.38461538 3:0.34428224 4:0.46372819 5:0.67174876 24:1 30:1 87:1 119:1 174:1 
-0.5250301484439232 1:0.38461538 2:0.38461538 3:0.15158151 4:0.34011443 5:0.63536617 12:1 54:1 77:1 79:1 120:1 230:1 253:1 
-0.5310948738731319 1:0.38461538 2:0.38461538 3:0.396968 4:0.63636364 5:0.65166004 39:1 107:1 128:1 155:1 228:1 240:1 
-2 1:0.61538462 2:0.61538462 3:0.41727494 4:0.42699725 5:0.66242961 20:1 49:1 56:1 128:1 203:1 252:1 
-2 1:0.69230769 2:0.69230769 3:0.2539023 4:0.29545455 5:0.66111345 8:1 19:1 43:1 186:1 204:1 
-1.755461270599411 1:0.38461538 2:0.38461538 3:0.2695005 4:0.41666667 5:0.63476368 12:1 40:1 87:1 116:1 206:1 235:1 252:1 
-2 1:0.53846154 2:0.53846154 3:0.42011354 4:0.45454545 5:0.64156025 43:1 65:1 101:1 120:1 214:1 253:1 
-1.874047201281274 1:0.46153846 2:0.46153846 3:0.21072468 4:0.24242424 5:0.72070449 25:1 69:1 86:1 176:1 193:1 253:1 
-1.206565507957808 1:0.46153846 2:0.46153846 3:0.11240876 4:0.39044289 5:0.64377157 8:1 45:1 62:1 84:1 180:1 210:1 253:1 
-0.9349311402740191 1:0.30769231 2:0.30769231 3:0.40203611 4:0.51948052 5:0.56098514 12:1 20:1 87:1 127:1 171:1 183:1 256:1 
-2 1:0.15384615 2:0.15384615 3:0.1836983 4:0.44938017 5:0.64334115 12:1 120:1 162:1 180:1 243:1 252:1 
-1.202814229549179 1:0.38461538 2:0.38461538 3:0.25060827 4:0.50045914 5:0.65884806 12:1 35:1 74:1 102:1 170:1 208:1 
-0.2468322041836046 1:0.30769231 2:0.30769231 3:0.3954941 4:0.64935065 5:0.69667058 14:1 24:1 85:1 207:1 214:1 243:1 
-1.132310504235562 1:0.61538462 2:0.61538462 3:0.37469586 4:0.36501377 5:0.66453432 20:1 60:1 66:1 92:1 140:1 156:1 
-0.1993987989916521 1:0.53846154 2:0.53846154 3:0.42791971 4:0.32467532 5:0.66793719 13:1 46:1 97:1 153:1 209:1 233:1 246:1 
-2 1:0.38461538 2:0.38461538 3:0.46142617 4:0.61363636 5:0.65241274 12:1 41:1 63:1 119:1 196:1 235:1 251:1 
-2 1:0.53846154 2:0.53846154 3:0.35766423 4:0.45454545 5:0.6567631 29:1 75:1 115:1 179:1 235:1 253:1 
-2 1:0.46153846 2:0.46153846 3:0.27684748 4:0.54545455 5:0.73277734 42:1 108:1 141:1 156:1 176:1 252:1 
-2 1:0.15384615 2:0.15384615 3:0.4421821 4:0.3030303 5:0.69194683 63:1 88:1 93:1 172:1 184:1 244:1 256:1 
-1.931407629424359 1:0.38461538 2:0.38461538 3:0.46346071 4:0.60606061 5:0.69056708 24:1 100:1 131:1 188:1 232:1 251:1 
-0.9944396204974726 1:0.38461538 2:0.38461538 3:0.56990455 4:0.60606061 5:0.69407918 75:1 83:1 101:1 111:1 200:1 241:1 251:1 
-2 1:0.46153846 2:0.46153846 3:0.22075613 4:0.5785124 5:0.64003996 40:1 43:1 143:1 158:1 240:1 251:1 
-0.08739365320544737 1:0.30769231 2:0.30769231 3:0.4379562 4:0.33492823 5:0.6567631 24:1 51:1 91:1 102:1 138:1 220:1 256:1 
-2 1:0.46153846 2:0.46153846 3:0.17855138 4:0.52525253 5:0.66214591 35:1 54:1 98:1 216:1 242:1 
-0.3004821947878366 1:0.38461538 2:0.38461538 3:0.53636534 4:0.61363636 5:0.63288293 13:1 35:1 111:1 136:1 214:1 233:1 
-1.715073440106567 1:0.30769231 2:0.30769231 3:0.33576642 4:0.55555556 5:0.63181463 12:1 25:1 50:1 154:1 168:1 208:1 
-1.256733587729949 1:0.46153846 2:0.46153846 3:0.39369268 4:0.58677686 5:0.57501854 14:1 39:1 76:1 107:1 122:1 161:1 250:1 
-2 1:0.61538462 2:0.61538462 3:0.48540146 4:0.42011019 5:0.762492 12:1 18:1 75:1 92:1 238:1 248:1 
-0.5029258381550625 1:0.46153846 2:0.46153846 3:0.41325098 4:0.34343434 5:0.65768028 17:1 40:1 46:1 62:1 85:1 224:1 253:1 
-1.544054170478418 1:0.53846154 2:0.53846154 3:0.27119596 4:0.36363636 5:0.65588601 19:1 38:1 63:1 76:1 146:1 224:1 
-0.8842932600834144 1:0.69230769 2:0.69230769 3:0.079948476 4:0.64393939 5:0.62279814 12:1 91:1 117:1 134:1 175:1 206:1 251:1 
-1.513531811359784 1:0.38461538 2:0.38461538 3:0.4379562 4:0.41781451 5:0.65598124 13:1 35:1 54:1 102:1 207:1 
-0.6221799986031197 1:0.38461538 2:0.38461538 3:0.086678832 4:0.4978355 5:0.68494266 13:1 26:1 36:1 122:1 193:1 213:1 
-0.05793974358316246 1:0.46153846 2:0.46153846 3:0.1756691 4:0.37878788 5:0.64295022 73:1 105:1 134:1 180:1 200:1 228:1 246:1 
-1.555044238849397 1:0.30769231 2:0.30769231 3:0.23276561 4:0.20454545 5:0.72061506 13:1 42:1 100:1 122:1 170:1 193:1 
-1.887351700177526 1:0.46153846 2:0.46153846 3:0.15328467 4:0.56473829 5:0.4079892 90:1 110:1 120:1 192:1 237:1 251:1 
-0.5182362949916347 1:0.61538462 2:0.61538462 3:0.1656326 4:0.29220779 5:0.6551668 105:1 140:1 158:1 217:1 229:1 247:1 
-0.7589526753134144 1:0.46153846 2:0.46153846 3:0.29878345 4:0.53030303 5:0.67813396 33:1 49:1 64:1 112:1 143:1 165:1 
-1.051694604487607 1:0.38461538 2:0.38461538 3:0.46142617 4:0.31818182 5:0.69844229 38:1 92:1 113:1 124:1 220:1 252:1 
-2 1:0.38461538 2:0.38461538 3:0.34428224 4:0.41781451 5:0.66314829 13:1 54:1 130:1 145:1 216:1 
-1.110805010552828 1:0.46153846 2:0.46153846 3:0.47521588 4:0.54545455 5:0.73277734 13:1 41:1 65:1 70:1 84:1 101:1 254:1 
-0.553699568594943 1:0.61538462 2:0.61538462 3:0.18868375 4:0.6969697 5:0.70576993 13:1 26:1 84:1 105:1 119:1 187:1 250:1 
-0.7805334696419665 1:0.30769231 2:0.30769231 3:0.37655646 4:0.35353535 5:0.63606678 13:1 27:1 41:1 45:1 101:1 145:1 253:1 
-1.043438836649414 1:0.46153846 2:0.46153846 3:0.1107056 4:0.31680441 5:0.62720639 51:1 153:1 162:1 182:1 187:1 229:1 253:1 
-2 1:0.53846154 2:0.53846154 3:0.28272506 4:0.45454545 5:0.66162801 13:1 86:1 191:1 214:1 234:1 
-2 1:0.15384615 2:0.15384615 3:0.43260341 4:0.76048951 5:0.58804622 12:1 52:1 64:1 111:1 120:1 191:1 251:1 
-2 1:0.69230769 2:0.69230769 3:0.30263897 4:0.43939394 5:0.65428493 46:1 68:1 122:1 210:1 233:1 254:1 
-0.0432634130749447 1:0.38461538 2:0.38461538 3:0.3980161 4:0.5 5:0.65578076 27:1 80:1 107:1 134:1 216:1 244:1 
-2 1:0.53846154 2:0.53846154 3:0.51824818 4:0.45454545 5:0.6567631 30:1 71:1 87:1 223:1 257:1 
-1.499631082144439 1:0.30769231 2:0.30769231 3:0.23357664 4:0.70707071 5:0.69898358 26:1 83:1 120:1 131:1 217:1 240:1 
-0.255001138654227 1:0.53846154 2:0.53846154 3:0.25547445 4:0.3030303 5:0.66074348 62:1 120:1 128:1 138:1 157:1 164:1 
-2 1:0.23076923 2:0.23076923 3:0.44687753 4:0.5959596 5:0.90869603 12:1 44:1 63:1 100:1 135:1 206:1 252:1 
-2 1:0.38461538 2:0.38461538 3:0.15693431 4:0.58310376 5:0.64881418 26:1 96:1 102:1 216:1 242:1 251:1 
-2 1:0.46153846 2:0.46153846 3:0.32884147 4:0.38842975 5:0.65928911 76:1 80:1 153:1 228:1 240:1 246:1 
-0.2147811818934858 1:0.38461538 2:0.38461538 3:0.44849959 4:0.43290043 5:0.66851075 7:1 48:1 56:1 111:1 183:1 221:1 253:1 
-2 1:0.53846154 2:0.53846154 3:0.25547445 4:0.37878788 5:0.65452413 19:1 84:1 92:1 127:1 231:1 253:1 
-2 1:0.38461538 2:0.38461538 3:0.34428224 4:0.33516988 5:0.67111169 14:1 54:1 102:1 208:1 216:1 
-0.3671539065164426 1:0.61538462 2:0.61538462 3:0.27119596 4:0.41322314 5:0.35574668 24:1 109:1 128:1 176:1 206:1 238:1 
-2 1:0.38461538 2:0.38461538 3:0.56925719 4:0.3030303 5:0.67125052 40:1 88:1 116:1 160:1 179:1 221:1 
-0.6087132015112693 1:0.38461538 2:0.38461538 3:0.51487928 4:0.54545455 5:0.66073391 47:1 75:1 125:1 144:1 200:1 216:1 
-0.7857259614347624 1:0.38461538 2:0.38461538 3:0.37639903 4:0.27018436 5:0.67331248 18:1 30:1 55:1 207:1 243:1 253:1 
-0.8093055837667756 1:0.46153846 2:0.46153846 3:0.34361314 4:0.64935065 5:0.69667058 62:1 120:1 155:1 178:1 232:1 
-1.564698284958774 1:0.38461538 2:0.38461538 3:0.46346071 4:0.49242424 5:0.62489077 13:1 41:1 53:1 146:1 216:1 244:1 250:1 
-2 1:0.46153846 2:0.46153846 3:0.42919708 4:0.41375291 5:0.75428246 63:1 86:1 135:1 162:1 248:1 
-0.4438390306857476 1:0.38461538 2:0.38461538 3:0.35766423 4:0.37825811 36:1 84:1 109:1 140:1 174:1 
-2 1:0.53846154 2:0.53846154 3:0.35766423 4:0.45454545 5:0.6567631 39:1 44:1 71:1 109:1 175:1 
-0.7595405449559155 1:0.53846154 2:0.53846154 3:0.54501217 4:0.63636364 5:0.85440014 41:1 44:1 65:1 101:1 143:1 215:1 253:1 
-2 1:0.30769231 2:0.30769231 3:0.5325223 4:0.65909091 5:0.82764312 12:1 24:1 41:1 101:1 137:1 192:1 
-0.183440394981456 1:0.38461538 2:0.38461538 3:0.39669505 4:0.48051948 5:0.6130549 39:1 101:1 141:1 157:1 174:1 228:1 
-0.2985555870562303 1:0.38461538 2:0.38461538 3:0.35766423 4:0.37825811 10:1 37:1 72:1 109:1 138:1 210:1 251:1 
-1.344315695881814 1:0.53846154 2:0.53846154 3:0.19708029 4:0.35353535 5:0.67887859 14:1 26:1 54:1 82:1 102:1 216:1 
-2 1:0.30769231 2:0.30769231 3:0.37639903 4:0.35123967 5:0.68139171 15:1 98:1 171:1 181:1 246:1 
