svm_type c_svc
kernel_type rbf
gamma 0.0625
nr_class 2
total_sv 553
rho 10.3383
label 1 0
probA -4.36447
probB 0.271632
nr_sv 250 303
SV
1.90120757393951 1:0.66666667 2:0.66666667 3:0.32113068 4:0.41363636 5:0.63247446 47:1 127:1 138:1 
1.653328046180371 1:0.66666667 2:0.66666667 3:0.53521779 4:0.41363636 5:0.64426871 46:1 128:1 233:1 253:1 
1.189830469620262 1:0.41666667 2:0.41666667 3:0.21408712 4:0.31 5:0.6316703 62:1 85:1 102:1 252:1 
1.734984390266344 1:0.41666667 2:0.41666667 3:0.49953661 4:0.37 5:0.6463059 120:1 157:1 233:1 
2 1:0.41666667 2:0.41666667 3:0.21408712 4:0.31 5:0.6316703 138:1 158:1 193:1 252:1 
2 1:0.58333333 2:0.58333333 3:0.52548656 4:0.28 5:0.66215505 128:1 162:1 233:1 253:1 
0.09134068722907308 1:0.5 2:0.5 3:0.38535681 4:0.16692308 5:0.69005188 126:1 138:1 210:1 253:1 
1.37407274543608 1:0.66666667 2:0.66666667 3:0.42817424 4:0.41363636 5:0.63837158 92:1 122:1 233:1 
0.2876677941813924 1:0.5 2:0.5 3:0.58986241 4:0.43527273 5:0.64866069 39:1 65:1 107:1 246:1 
2 1:0.66666667 2:0.66666667 3:0.52869466 4:0.308 5:0.66796038 42:1 154:1 221:1 246:1 
1.696949061798248 1:0.58333333 2:0.58333333 3:0.40871177 4:0.252 5:0.67400479 6:1 42:1 219:1 247:1 
0.3825728727282344 1:0.5 2:0.5 3:0.45542169 4:0.44153846 5:0.64552222 34:1 48:1 77:1 253:1 
0.1466628779242297 1:0.5 2:0.5 3:0.45542169 4:0.24769231 5:0.7358448 184:1 222:1 234:1 
0.8874390750787264 1:0.66666667 2:0.66666667 3:0.54045769 4:0.48109091 5:0.64164069 23:1 44:1 190:1 256:1 
0.7863293576118158 1:0.5 2:0.5 3:0.60333642 4:0.50909091 5:0.64329398 22:1 75:1 191:1 256:1 
1.412647234989251 1:0.66666667 2:0.66666667 3:0.54045769 4:0.56509091 5:0.6351456 22:1 164:1 191:1 255:1 
1.496279332828065 1:0.33333333 2:0.33333333 3:0.26598703 4:0.40909091 5:0.62316576 180:1 218:1 241:1 255:1 
0.2518821282815608 1:0.5 2:0.5 3:0.48656163 4:0.43909091 5:0.64197809 79:1 112:1 191:1 255:1 
0.6869334598638445 1:0.41666667 2:0.41666667 3:0.45482284 4:0.294 5:0.6878115 15:1 172:1 229:1 247:1 
0.08931416194798573 1:0.58333333 2:0.58333333 3:0.32307692 4:0.42 5:0.62917011 50:1 105:1 171:1 246:1 
2 1:0.66666667 2:0.66666667 3:0.43012048 4:0.27 5:0.71119382 50:1 173:1 198:1 248:1 
1.295231096597082 1:0.66666667 2:0.66666667 3:0.43012048 4:0.27 5:0.71119382 140:1 181:1 200:1 
0.4252390265707516 1:0.5 2:0.5 3:0.47599629 4:0.44333333 5:0.63964709 116:1 171:1 228:1 
1.514082234574341 1:0.91666667 2:0.91666667 3:0.48082533 4:0.42 5:0.64339094 32:1 80:1 106:1 248:1 
0.4336443830128022 1:0.58333333 2:0.58333333 3:0.49434662 4:0.315 5:0.67934932 17:1 59:1 198:1 246:1 
2 1:0.58333333 2:0.58333333 3:0.49434662 4:0.63 5:0.60987042 83:1 111:1 224:1 251:1 
1.547908873895408 1:0.5 2:0.5 3:0.43317887 4:0.39666667 5:0.63220292 121:1 137:1 222:1 251:1 
1.271003989942093 1:0.66666667 2:0.66666667 3:0.38730306 4:0.33 5:0.6301351 112:1 175:1 223:1 251:1 
2 1:0.58333333 2:0.58333333 3:0.40871177 4:0.315 5:0.62788347 65:1 121:1 175:1 
1.343249286941474 1:0.66666667 2:0.66666667 3:0.61209453 4:0.495 5:0.66149711 17:1 34:1 214:1 256:1 
1.459785235144178 1:0.58333333 2:0.58333333 3:0.49434662 4:0.525 5:0.64846981 16:1 21:1 35:1 257:1 
2 1:0.41666667 2:0.41666667 3:0.43012048 4:0.24965035 5:0.65439757 12:1 31:1 51:1 77:1 78:1 102:1 253:1 
2 1:0.41666667 2:0.41666667 3:0.17321594 4:0.24965035 5:0.60421836 12:1 31:1 52:1 55:1 181:1 253:1 
0.4490480859979382 1:0.33333333 2:0.33333333 3:0.51575533 4:0.39272727 5:0.6461952 51:1 120:1 209:1 253:1 
2 1:0.5 2:0.5 3:0.36005561 4:0.36272727 5:0.63457152 92:1 102:1 120:1 245:1 254:1 264:1 
2 1:0.66666667 2:0.66666667 3:0.44988237 4:0.32072727 5:0.64600963 32:1 56:1 75:1 78:1 153:1 253:1 
2 1:0.41666667 2:0.41666667 3:0.43012048 4:0.24965035 5:0.65439757 18:1 51:1 54:1 76:1 153:1 253:1 
2 1:0.58333333 2:0.58333333 3:0.2802595 4:0.35538462 5:0.86269644 81:1 91:1 205:1 256:1 
0.6885265454719872 1:0.5 2:0.5 3:0.75125116 4:0.38769231 5:0.71215881 64:1 161:1 166:1 256:1 
1.088369411832965 1:0.41666667 2:0.41666667 3:0.53716404 4:0.30369231 5:0.71215881 13:1 140:1 220:1 256:1 
0.3546964489461173 1:0.5 2:0.5 3:0.61890639 4:0.38230769 5:0.81532446 40:1 76:1 191:1 248:1 
1.085928473377231 1:0.66666667 2:0.66666667 3:0.55468026 4:0.38818182 5:0.74874051 18:1 63:1 214:1 248:1 
0.808218412940773 1:0.25 2:0.25 3:0.30955563 4:0.63 5:0.59443066 12:1 87:1 93:1 192:1 208:1 255:1 
2 1:0.16666667 2:0.16666667 3:0.4135408 4:0.46666667 5:0.48800662 12:1 76:1 183:1 208:1 255:1 
0.6420828435012624 1:0.5 2:0.5 3:0.28101068 4:0.84 5:0.61437368 12:1 19:1 39:1 93:1 192:1 225:1 255:1 
0.6676343025005516 1:0.41666667 2:0.41666667 3:0.44052657 4:0.56 5:0.5909113 12:1 20:1 63:1 75:1 93:1 256:1 
2 1:0.41666667 2:0.41666667 3:0.51608673 4:0.56 5:0.60112879 12:1 20:1 41:1 88:1 93:1 219:1 255:1 
2 1:0.5 2:0.5 3:0.56646017 4:0.504 5:0.58864075 12:1 20:1 40:1 51:1 65:1 93:1 257:1 
0.9754103738294861 1:0.25 2:0.25 3:0.48082533 4:0.525 5:0.58285084 12:1 20:1 40:1 87:1 243:1 255:1 
0.6558137073884249 1:0.33333333 2:0.33333333 3:0.29885128 4:0.48 5:0.48490488 12:1 18:1 76:1 192:1 225:1 255:1 
2 1:0.66666667 2:0.66666667 3:0.39519048 4:0.56 5:0.58478081 12:1 18:1 41:1 95:1 127:1 225:1 
2 1:0.33333333 2:0.33333333 3:0.37913394 4:0.48 5:0.51023573 14:1 75:1 111:1 126:1 255:1 
2 1:0.25 2:0.25 3:0.39519048 4:0.42 5:0.63688999 14:1 64:1 95:1 123:1 160:1 256:1 
1.599882381266515 1:0.5 2:0.5 3:0.35237305 4:0.504 5:0.54039151 14:1 41:1 160:1 192:1 225:1 
1.739812923238192 1:0.41666667 2:0.41666667 3:0.36496641 4:0.42 5:0.63688999 14:1 19:1 39:1 75:1 88:1 93:1 256:1 
1.317239544839782 1:0.5 2:0.5 3:0.35237305 4:0.504 5:0.54039151 14:1 19:1 39:1 208:1 225:1 255:1 
0.5237533326179571 1:0.91666667 2:0.91666667 3:0.36168119 4:0.42 5:0.63688999 14:1 19:1 93:1 127:1 225:1 257:1 
2 1:0.83333333 2:0.83333333 3:0.37183552 5:0.65531243 14:1 19:1 76:1 93:1 128:1 225:1 
1.158199980707004 1:0.58333333 2:0.58333333 3:0.34110531 4:0.63 5:0.59727482 14:1 19:1 41:1 93:1 192:1 207:1 
1.034118653496039 1:0.66666667 2:0.66666667 3:0.39519048 4:0.56 5:0.58478081 14:1 19:1 41:1 93:1 148:1 225:1 255:1 
2 1:0.58333333 2:0.58333333 3:0.47631823 4:0.42 5:0.63688999 14:1 19:1 41:1 113:1 183:1 
0.004090286139200862 1:0.41666667 2:0.41666667 3:0.28940626 4:0.42 5:0.63688999 14:1 19:1 40:1 63:1 93:1 192:1 256:1 
2 1:0.5 2:0.5 3:0.35237305 4:0.336 5:0.73338848 14:1 18:1 39:1 93:1 111:1 126:1 
2 1:0.33333333 2:0.33333333 3:0.37913394 4:0.48 5:0.51023573 14:1 18:1 39:1 207:1 257:1 276:1 
2 1:0.33333333 2:0.33333333 3:0.37913394 4:0.6 5:0.59467191 14:1 18:1 111:1 219:1 227:1 255:1 
1.363653204874502 1:0.5 2:0.5 3:0.35237305 4:0.504 5:0.54039151 14:1 18:1 40:1 93:1 111:1 225:1 255:1 
1.188431490162045 1:0.25 2:0.25 3:0.39519048 4:0.525 5:0.56741108 88:1 95:1 192:1 208:1 255:1 
1.872352417384709 1:0.58333333 2:0.58333333 3:0.54392469 4:0.42 5:0.63688999 19:1 51:1 65:1 93:1 112:1 257:1 
0.297276304861653 1:0.41666667 2:0.41666667 3:0.51608673 4:0.28 5:0.67265119 19:1 40:1 53:1 64:1 88:1 93:1 255:1 
2 1:0.41666667 2:0.41666667 3:0.51608673 4:0.28 5:0.67265119 20:1 75:1 160:1 208:1 
1.851906866418991 1:0.5 2:0.5 3:0.42373543 4:0.336 5:0.71730539 20:1 87:1 93:1 244:1 265:1 
0.7312342784275072 1:0.33333333 2:0.33333333 3:0.45941661 4:0.36 5:0.7382134 20:1 76:1 160:1 192:1 255:1 
0.5831055553037606 1:0.41666667 2:0.41666667 3:0.44052657 4:0.42 5:0.63688999 20:1 52:1 75:1 93:1 192:1 256:1 
2 1:0.75 2:0.75 3:0.56646017 5:0.64653984 20:1 52:1 128:1 225:1 257:1 
2 1:0.58333333 2:0.58333333 3:0.54392469 4:0.21 5:0.65822124 20:1 41:1 88:1 93:1 172:1 225:1 256:1 
2 1:0.083333333 2:0.083333333 3:0.33590482 4:0.504 5:0.53668003 13:1 39:1 51:1 64:1 192:1 255:1 
1.137083970829551 1:0.5 2:0.5 3:0.42373543 4:0.336 5:0.71730539 13:1 40:1 76:1 93:1 225:1 257:1 
1.182088698338448 1:0.58333333 2:0.58333333 3:0.40871177 4:0.63 5:0.60336947 13:1 19:1 63:1 93:1 227:1 257:1 
1.098450959588964 1:0.58333333 2:0.58333333 3:0.40871177 4:0.21 5:0.67041052 13:1 19:1 75:1 93:1 128:1 256:1 
0.5017881955467441 1:0.58333333 2:0.58333333 3:0.27349885 4:0.63 5:0.59118018 13:1 19:1 95:1 192:1 225:1 
2 1:0.66666667 2:0.66666667 3:0.26673821 4:0.28 5:0.7063689 13:1 19:1 194:1 209:1 225:1 266:1 
2 1:0.25 2:0.25 3:0.39519048 4:0.105 5:0.66004963 13:1 19:1 52:1 88:1 160:1 256:1 
2 1:0.5 2:0.5 3:0.35237305 4:0.168 5:0.66905615 13:1 19:1 40:1 225:1 244:1 
2 1:0.5 2:0.5 3:0.4950978 4:0.168 5:0.6583341 13:1 20:1 41:1 128:1 192:1 256:1 
2 1:0.25 2:0.25 3:0.39519048 4:0.21 5:0.67162945 13:1 18:1 88:1 183:1 256:1 
1.587922797054944 1:0.41666667 2:0.41666667 3:0.44052657 5:0.65221622 13:1 18:1 52:1 126:1 257:1 
2 1:0.25 2:0.25 3:0.30955563 4:0.42 5:0.63688999 13:1 18:1 40:1 93:1 192:1 207:1 255:1 
0.7429333014110107 1:0.33333333 2:0.33333333 3:0.191331 4:0.37476923 5:0.62576792 12:1 45:1 84:1 144:1 162:1 253:1 
1.972113971313267 1:0.25 2:0.25 3:0.27696585 4:0.324 5:0.63429196 12:1 86:1 123:1 216:1 222:1 253:1 
1.811488222598709 1:0.66666667 2:0.66666667 3:0.3381336 4:0.41066667 5:0.63335651 12:1 86:1 92:1 164:1 
1.485449498632463 1:0.25 2:0.25 3:0.4196906 4:0.324 5:0.64555011 12:1 76:1 123:1 235:1 252:1 265:1 
1.119823921061623 1:0.41666667 2:0.41666667 3:0.4715905 4:0.434 5:0.63951165 12:1 20:1 75:1 216:1 236:1 252:1 
1.484766645780067 1:0.41666667 2:0.41666667 3:0.23804092 4:0.294 5:0.63319538 12:1 20:1 37:1 84:1 223:1 253:1 
2 1:0.41666667 2:0.41666667 3:0.23804092 4:0.294 5:0.63319538 12:1 18:1 84:1 146:1 200:1 253:1 
1.188756033989407 1:0.41666667 2:0.41666667 3:0.23804092 4:0.224 5:0.64109071 12:1 18:1 84:1 222:1 235:1 253:1 
0.002375911367045812 1:0.41666667 2:0.41666667 3:0.23804092 4:0.364 5:0.62924772 14:1 84:1 108:1 200:1 253:1 
1.828942154391351 1:0.5 2:0.5 3:0.062878734 4:0.35127273 5:0.61740472 14:1 19:1 38:1 84:1 234:1 264:1 
2 1:0.58333333 2:0.58333333 3:0.21109289 4:0.336 5:0.62853916 14:1 20:1 38:1 216:1 236:1 253:1 
1.811460340732217 1:0.41666667 2:0.41666667 3:0.4715905 4:0.434 5:0.63951165 36:1 46:1 64:1 75:1 266:1 
2 1:0.33333333 2:0.33333333 3:0.44823555 4:0.43938462 5:0.63793258 36:1 75:1 144:1 188:1 252:1 
2 1:0.41666667 2:0.41666667 3:0.5883653 4:0.434 5:0.64582791 47:1 65:1 75:1 222:1 264:1 
1.479011651242724 1:0.41666667 2:0.41666667 3:0.12126613 4:0.434 5:0.62056285 45:1 84:1 146:1 180:1 253:1 
2 1:0.66666667 2:0.66666667 3:0.42988522 4:0.41066667 5:0.63867377 45:1 76:1 128:1 200:1 252:1 
2 1:0.41666667 2:0.41666667 3:0.5883653 4:0.504 5:0.64109071 46:1 75:1 123:1 128:1 144:1 252:1 
0.04884104194447009 1:0.33333333 2:0.33333333 3:0.31978328 4:0.43938462 5:0.63108996 46:1 84:1 180:1 216:1 253:1 
2 1:0.41666667 2:0.41666667 3:0.35481571 4:0.504 5:0.63056361 46:1 84:1 180:1 188:1 216:1 252:1 
1.716252203352057 1:0.33333333 2:0.33333333 3:0.31978328 4:0.37476923 5:0.63413112 63:1 84:1 162:1 216:1 254:1 
2 1:0.41666667 2:0.41666667 3:0.70514009 4:0.434 5:0.65214418 63:1 77:1 125:1 252:1 
0.4225084821981238 1:0.5 2:0.5 3:0.38400941 4:0.35127273 5:0.64015079 75:1 182:1 186:1 
1.38522078920302 1:0.33333333 2:0.33333333 3:0.44823555 4:0.37476923 5:0.64249433 85:1 123:1 144:1 236:1 252:1 
2 1:0.33333333 2:0.33333333 3:0.44823555 4:0.31015385 5:0.64966279 76:1 84:1 152:1 217:1 252:1 
2 1:0.16666667 2:0.16666667 3:0.54457475 4:0.336 5:0.65359165 64:1 75:1 180:1 216:1 253:1 
2 1:0.41666667 2:0.41666667 3:0.4715905 4:0.364 5:0.64503838 64:1 84:1 164:1 180:1 200:1 216:1 
0.1989322562696899 1:0.25 2:0.25 3:0.27696585 4:0.324 5:0.63429196 13:1 36:1 84:1 109:1 
1.831618961781816 1:0.25 2:0.25 3:0.4196906 4:0.264 5:0.65493191 13:1 18:1 36:1 123:1 222:1 252:1 
2 1:0.58333333 2:0.58333333 3:0.55983209 4:0.28 5:0.65221622 40:1 46:1 101:1 116:1 253:1 
0.8709238690615754 1:0.66666667 2:0.66666667 3:0.52205201 4:0.532 5:0.65221622 29:1 45:1 65:1 116:1 264:1 
1.419964416103056 1:0.41666667 2:0.41666667 3:0.28637627 4:0.50484848 5:0.49352082 12:1 24:1 30:1 76:1 105:1 251:1 
2 1:0.33333333 2:0.33333333 3:0.3253012 4:0.32666667 5:0.62335514 12:1 26:1 30:1 42:1 75:1 88:1 
0.6777081901333971 1:0.75 2:0.75 3:0.42018072 4:0.64666667 5:0.59122553 12:1 44:1 58:1 105:1 251:1 
1.700502745000262 1:0.58333333 2:0.58333333 3:0.31696015 4:0.51333333 5:0.52522746 12:1 30:1 42:1 57:1 107:1 251:1 
0.647519950750599 1:0.66666667 2:0.66666667 3:0.20074143 4:0.36166667 5:0.6537083 14:1 26:1 43:1 100:1 249:1 
0.1818923073394807 1:0.66666667 2:0.66666667 3:0.20074143 4:0.36166667 5:0.6537083 14:1 25:1 31:1 211:1 251:1 
2 1:0.75 2:0.75 3:0.17933272 4:0.28666667 5:0.63344362 14:1 25:1 31:1 43:1 117:1 
2 1:0.66666667 2:0.66666667 3:0.37201112 4:0.36166667 5:0.62282878 57:1 105:1 210:1 232:1 
0.173019657744541 1:0.66666667 2:0.66666667 3:0.45764597 4:0.46666667 5:0.59966915 42:1 77:1 107:1 141:1 
2 1:0.66666667 2:0.66666667 3:0.54328082 4:0.57166667 5:0.60738903 32:1 58:1 76:1 107:1 251:1 
0.1684024073837137 1:0.75 2:0.75 3:0.50046339 4:0.28666667 5:0.59966915 32:1 42:1 57:1 89:1 
1.038508372325565 1:0.66666667 2:0.66666667 3:0.28637627 4:0.36166667 5:0.63826854 25:1 31:1 42:1 57:1 251:1 
0.9412644896590635 1:0.41666667 2:0.41666667 3:0.39341983 4:0.58121212 5:0.58197776 13:1 100:1 107:1 119:1 251:1 
2 1:0.25 2:0.25 3:0.32715477 4:0.73733333 5:0.7396379 12:1 71:1 120:1 168:1 240:1 
2 1:0.25 2:0.25 3:0.32715477 4:0.55066667 5:0.82896793 12:1 69:1 84:1 100:1 156:1 241:1 
2 1:0.66666667 2:0.66666667 3:0.28852251 4:0.504 5:0.71730539 12:1 69:1 109:1 176:1 213:1 
0.7968805603178692 1:0.33333333 2:0.33333333 3:0.35162187 4:0.714 5:0.74432497 12:1 108:1 135:1 215:1 254:1 
2 1:0.16666667 2:0.16666667 3:0.39773294 4:0.672 5:0.75627594 12:1 100:1 108:1 143:1 156:1 252:1 
2 1:0.25 2:0.25 3:0.41890639 4:0.55066667 5:0.86618877 12:1 100:1 109:1 120:1 143:1 
2 1:0.58333333 2:0.58333333 3:0.3373494 4:0.588 5:0.78163772 14:1 24:1 41:1 143:1 176:1 254:1 
2 1:0.5 2:0.5 3:0.31636046 4:0.364 5:0.68154419 24:1 110:1 121:1 176:1 
0.7218317824937511 1:0.66666667 2:0.66666667 3:0.22091605 4:0.924 5:0.7249237 26:1 69:1 143:1 213:1 252:1 
2 1:0.66666667 2:0.66666667 3:0.35612897 4:0.294 5:0.68987951 26:1 101:1 122:1 176:1 
1.643506853019566 1:0.5 2:0.5 3:0.39192062 4:0.644 5:0.76328408 39:1 70:1 141:1 241:1 252:1 
0.7146718825441326 1:0.25 2:0.25 3:0.41890639 4:0.644 5:0.76693319 71:1 84:1 100:1 240:1 252:1 
2 1:0.33333333 2:0.33333333 3:0.43725672 4:0.609 5:0.7867843 71:1 101:1 168:1 240:1 253:1 
2 1:0.58333333 2:0.58333333 3:0.48007414 4:0.42 5:0.62080691 71:1 85:1 101:1 176:1 
2 1:0.5 2:0.5 3:0.31636046 4:0.504 5:0.71730539 69:1 84:1 101:1 122:1 241:1 
0.6753033411324353 1:0.58333333 2:0.58333333 3:0.26598703 4:0.588 5:0.76555464 69:1 99:1 141:1 242:1 253:1 
0.5437582906798295 1:0.41666667 2:0.41666667 3:0.37303058 4:0.444 5:0.61598199 69:1 85:1 100:1 168:1 
2 1:0.58333333 2:0.58333333 3:0.40871177 4:0.588 5:0.7977208 70:1 86:1 101:1 122:1 136:1 142:1 252:1 
2 1:0.25 2:0.25 3:0.51065802 4:0.73733333 5:0.75452624 99:1 120:1 135:1 143:1 252:1 
0.1576665754049741 1:0.33333333 2:0.33333333 3:0.35162187 4:0.609 5:0.77134455 99:1 120:1 141:1 156:1 253:1 
2 1:0.58333333 2:0.58333333 3:0.26598703 4:0.588 5:0.76555464 99:1 170:1 213:1 254:1 
2 1:0.16666667 2:0.16666667 3:0.2989235 4:0.588 5:0.7729776 108:1 120:1 192:1 240:1 253:1 
1.401805185879611 1:0.5 2:0.5 3:0.39192062 4:0.644 5:0.76328408 108:1 143:1 176:1 204:1 
2 1:0.5 2:0.5 3:0.31636046 4:0.504 5:0.71730539 110:1 120:1 176:1 240:1 
1.728318126073311 1:0.58333333 2:0.58333333 3:0.26598703 4:0.756 5:0.73338848 141:1 156:1 214:1 228:1 254:1 
2 1:0.33333333 2:0.33333333 3:0.52289157 4:0.504 5:0.71730539 101:1 120:1 135:1 229:1 
1.763594552859786 1:0.58333333 2:0.58333333 3:0.48007414 4:0.588 5:0.81380388 65:1 70:1 215:1 253:1 
2 1:0.58333333 2:0.58333333 3:0.3373494 4:0.42 5:0.65297307 65:1 206:1 242:1 
2 1:0.5 2:0.5 3:0.46748078 4:0.504 5:0.71730539 64:1 70:1 86:1 101:1 122:1 136:1 142:1 252:1 
0.3476787776836318 1:0.33333333 2:0.33333333 3:0.43725672 4:0.189 5:0.69414576 64:1 109:1 174:1 253:1 
0.5572131203246428 1:0.41666667 2:0.41666667 3:0.29274791 4:0.684 5:0.74263625 43:1 108:1 215:1 252:1 276:1 
2 1:0.41666667 2:0.41666667 3:0.29274791 4:0.444 5:0.64131284 43:1 204:1 228:1 241:1 
1.300436297533546 1:0.58333333 2:0.58333333 3:0.3373494 4:0.588 5:0.78163772 44:1 71:1 215:1 253:1 278:1 
2 1:0.75 2:0.75 3:0.30880445 4:0.364 5:0.68256594 44:1 141:1 158:1 214:1 253:1 
1.192542635092638 1:0.41666667 2:0.41666667 3:0.37303058 4:0.444 5:0.61598199 42:1 99:1 141:1 156:1 253:1 
0.7674531525101613 1:0.5 2:0.5 3:0.46748078 4:0.224 5:0.68920731 42:1 99:1 174:1 
2 1:0.41666667 2:0.41666667 3:0.45331325 4:0.444 5:0.59065114 41:1 43:1 63:1 192:1 253:1 
1.531441676684522 1:0.58333333 2:0.58333333 3:0.40871177 4:0.588 5:0.7977208 40:1 71:1 176:1 215:1 254:1 
0.08966996449542346 1:0.41666667 2:0.41666667 3:0.21246525 4:0.444 5:0.66664369 25:1 170:1 204:1 254:1 
2 1:0.41666667 2:0.41666667 3:0.29274791 4:0.444 5:0.64131284 13:1 24:1 141:1 176:1 192:1 253:1 
2 1:0.58333333 2:0.58333333 3:0.26598703 4:0.42 5:0.66905615 13:1 69:1 176:1 206:1 252:1 
1.78945770298781 1:0.41666667 2:0.41666667 3:0.37303058 4:0.564 5:0.8186288 13:1 42:1 143:1 215:1 252:1 
2 1:0.41666667 2:0.41666667 3:0.45331325 4:0.564 5:0.84395965 13:1 41:1 204:1 214:1 252:1 
0.8449958001245568 1:0.41666667 2:0.41666667 3:0.52960802 4:0.35 5:0.63791174 25:1 40:1 53:1 100:1 249:1 
2 1:0.25 2:0.25 3:0.57219648 4:0.455 5:0.65320701 12:1 24:1 39:1 52:1 63:1 236:1 
2 1:0.25 2:0.25 3:0.45542169 4:0.525 5:0.62952102 12:1 24:1 51:1 63:1 229:1 250:1 
2 1:0.41666667 2:0.41666667 3:0.32966422 4:0.483 5:0.61929758 12:1 26:1 40:1 195:1 206:1 250:1 
0.2680438082574346 1:0.41666667 2:0.41666667 3:0.5272831 4:0.651 5:0.62764841 12:1 39:1 195:1 215:1 250:1 
1.285399841156632 1:0.25 2:0.25 3:0.3386469 4:0.385 5:0.62952102 12:1 25:1 40:1 64:1 235:1 251:1 264:1 
2 1:0.58333333 2:0.58333333 3:0.40871177 4:0.63 5:0.62145023 14:1 24:1 41:1 119:1 236:1 251:1 
2 1:0.41666667 2:0.41666667 3:0.32966422 4:0.483 5:0.61929758 14:1 26:1 51:1 64:1 68:1 204:1 251:1 
2 1:0.25 2:0.25 3:0.45542169 4:0.525 5:0.62952102 14:1 26:1 40:1 51:1 63:1 195:1 251:1 
2 1:0.58333333 2:0.58333333 3:0.40871177 4:0.42 5:0.63688999 14:1 25:1 53:1 65:1 158:1 250:1 
2 1:0.41666667 2:0.41666667 3:0.72490197 4:0.483 5:0.66383534 24:1 39:1 53:1 65:1 196:1 250:1 
2 1:0.66666667 2:0.66666667 3:0.44082484 4:0.615 5:0.6238627 24:1 51:1 117:1 140:1 250:1 
2 1:0.33333333 2:0.33333333 3:0.38730306 4:0.65863636 5:0.61962749 24:1 111:1 204:1 215:1 228:1 250:1 
2 1:0.5 2:0.5 3:0.2802595 4:0.36166667 5:0.61373036 13:1 26:1 40:1 175:1 204:1 250:1 
2 1:0.41666667 2:0.41666667 3:0.23085478 4:0.567 5:0.61001888 13:1 25:1 119:1 132:1 213:1 251:1 
2 1:0.41666667 2:0.41666667 3:0.23085478 4:0.378 5:0.61974295 14:1 24:1 36:1 44:1 174:1 252:1 
2 1:0.33333333 2:0.33333333 3:0.2802595 4:0.40090909 5:0.62531017 24:1 84:1 92:1 229:1 252:1 
2 1:0.33333333 2:0.33333333 3:0.2802595 4:0.40090909 5:0.62531017 36:1 68:1 85:1 123:1 228:1 254:1 
2 1:0.33333333 2:0.33333333 3:0.38730306 4:0.47727273 5:0.6328922 36:1 44:1 84:1 92:1 111:1 228:1 252:1 
0.7132157476868187 1:0.33333333 2:0.33333333 3:0.2802595 4:0.40090909 5:0.62531017 85:1 228:1 239:1 253:1 
2 1:0.41666667 2:0.41666667 3:0.23085478 4:0.294 5:0.61417573 85:1 91:1 220:1 230:1 252:1 
2 1:0.33333333 2:0.33333333 3:0.2802595 4:0.40090909 5:0.62531017 66:1 84:1 91:1 111:1 252:1 276:1 
2 1:0.33333333 2:0.33333333 3:0.35313146 4:0.684 5:0.75704916 12:1 47:1 60:1 96:1 179:1 246:1 
2 1:0.41666667 2:0.41666667 3:0.37430491 4:0.46 5:0.62948029 24:1 46:1 73:1 192:1 246:1 
1.802141473051845 1:0.58333333 2:0.58333333 3:0.3284291 4:0.54 5:0.57778467 45:1 60:1 72:1 154:1 246:1 
0.3753366648115199 1:0.66666667 2:0.66666667 3:0.34731914 4:0.6 5:0.67910808 46:1 73:1 153:1 167:1 
2 1:0.66666667 2:0.66666667 3:0.34731914 4:0.6 5:0.67910808 37:1 46:1 108:1 153:1 179:1 248:1 
2 1:0.58333333 2:0.58333333 3:0.40871177 4:0.18 5:0.66101461 37:1 46:1 109:1 128:1 246:1 
2 1:0.5 2:0.5 3:0.30702039 4:0.285 5:0.66109503 13:1 25:1 46:1 122:1 246:1 
0.1634736829774889 1:0.5 2:0.5 3:0.1357507 4:0.72 5:0.66222084 12:1 24:1 36:1 213:1 249:1 266:1 
2 1:0.16666667 2:0.16666667 3:0.41601019 4:0.72 5:0.66222084 12:1 24:1 96:1 108:1 208:1 251:1 
2 1:0.41666667 2:0.41666667 3:0.28255329 4:0.86 5:0.69944169 12:1 24:1 96:1 155:1 165:1 251:1 
1.630175281027318 1:0.5 2:0.5 3:0.30702039 4:0.615 5:0.60818169 12:1 38:1 72:1 153:1 244:1 250:1 
0.4713153257300696 1:0.33333333 2:0.33333333 3:0.35313146 4:0.804 5:0.74016193 12:1 47:1 60:1 96:1 179:1 
0.9097144661858252 1:0.33333333 2:0.33333333 3:0.35313146 4:0.804 5:0.74016193 12:1 46:1 60:1 96:1 144:1 251:1 
1.342733088084032 1:0.25 2:0.25 3:0.22138554 4:0.75818182 5:0.76836918 12:1 60:1 96:1 120:1 153:1 276:1 
0.7994602525052729 1:0.5 2:0.5 3:0.30702039 4:0.72 5:0.66222084 12:1 62:1 179:1 207:1 249:1 
2 1:0.66666667 2:0.66666667 3:0.12063866 4:0.72 5:0.66222084 14:1 26:1 38:1 46:1 120:1 153:1 251:1 
1.872173810199567 1:0.58333333 2:0.58333333 3:0.24814643 4:0.54 5:0.63688999 14:1 25:1 46:1 61:1 153:1 251:1 
0.1448932272799441 1:0.5 2:0.5 3:0.30702039 4:0.72 5:0.66222084 24:1 46:1 96:1 122:1 251:1 
0.3143908964214808 1:0.58333333 2:0.58333333 3:0.3284291 4:0.78 5:0.76354425 36:1 46:1 72:1 165:1 251:1 
2 1:0.66666667 2:0.66666667 3:0.34731914 4:0.72 5:0.66222084 47:1 122:1 154:1 251:1 
2 1:0.58333333 2:0.58333333 3:0.3284291 4:0.9 5:0.69599531 45:1 60:1 84:1 179:1 215:1 250:1 
2 1:0.75 2:0.75 3:0.43547266 4:0.804 5:0.75871933 46:1 60:1 154:1 166:1 251:1 
2 1:0.33333333 2:0.33333333 3:0.35313146 4:0.888 5:0.70119139 72:1 144:1 167:1 179:1 192:1 251:1 
1.233414259052998 1:0.66666667 2:0.66666667 3:0.34731914 4:0.72 5:0.66222084 37:1 46:1 108:1 153:1 179:1 250:1 
1.274282736459197 1:0.41666667 2:0.41666667 3:0.37430491 4:0.58 5:0.61259305 25:1 46:1 97:1 108:1 251:1 
0.7986582769431063 1:0.66666667 2:0.66666667 3:0.52645968 4:0.555 5:0.62257605 34:1 112:1 190:1 251:1 
2 1:0.75 2:0.75 3:0.25255411 4:0.315 5:0.64457203 86:1 206:1 235:1 250:1 
0.5005768094024393 1:0.66666667 2:0.66666667 3:0.36589435 4:0.435 5:0.63946328 101:1 206:1 235:1 251:1 
0.7778763282720752 1:0.41666667 2:0.41666667 3:0.31648963 4:0.483 5:0.64317476 25:1 112:1 206:1 251:1 
0.8837484957887197 1:0.58333333 2:0.58333333 3:0.40871177 4:0.7 5:0.90488007 12:1 34:1 179:1 207:1 249:1 
0.7676771754609216 1:0.33333333 2:0.33333333 3:0.50046339 4:0.72333333 5:0.85525227 12:1 96:1 155:1 207:1 251:1 
2 1:0.41666667 2:0.41666667 3:0.50046339 4:0.46242424 5:0.617866 12:1 96:1 102:1 208:1 250:1 
1.390454973638165 1:0.41666667 2:0.41666667 3:0.50046339 4:0.46242424 5:0.617866 24:1 102:1 208:1 251:1 
1.107605999268123 1:0.5 2:0.5 3:0.30284451 4:0.48533333 5:0.63145002 72:1 217:1 225:1 241:1 250:1 
2 1:0.58333333 2:0.58333333 3:0.40871177 4:0.42 5:0.63688999 56:1 72:1 122:1 208:1 250:1 
2 1:0.5 2:0.5 3:0.40165395 4:0.31733333 5:0.65093529 54:1 72:1 82:1 97:1 104:1 217:1 
2 1:0.5 2:0.5 3:0.50046339 4:0.23333333 5:0.65260546 54:1 102:1 208:1 
0.1617287738883181 1:0.41666667 2:0.41666667 3:0.50046339 4:0.53878788 5:0.57540667 13:1 83:1 208:1 250:1 264:1 
2 1:0.33333333 2:0.33333333 3:0.50046339 4:0.58333333 5:0.50785773 13:1 155:1 207:1 216:1 
2 1:0.58333333 2:0.58333333 3:0.31696015 4:0.51333333 5:0.61952026 13:1 56:1 129:1 144:1 251:1 
2 1:0.41666667 2:0.41666667 3:0.50046339 4:0.38606061 5:0.63606286 13:1 54:1 83:1 102:1 131:1 208:1 
1.715053628976271 1:0.66666667 2:0.66666667 3:0.17580381 4:0.37333333 5:0.71133168 127:1 157:1 163:1 249:1 264:1 
0.2344532301340243 1:0.75 2:0.75 3:0.40212447 4:0.42 5:0.63688999 128:1 142:1 162:1 249:1 264:1 
1.838135954671924 1:0.75 2:0.75 3:0.30166821 4:0.5551049 5:0.58381583 12:1 57:1 129:1 227:1 248:1 
2 1:0.5 2:0.5 3:0.62279889 4:0.45692308 5:0.56934105 39:1 75:1 226:1 246:1 
1.447286618051168 1:0.41666667 2:0.41666667 3:0.8858202 4:0.46666667 5:0.79321754 51:1 89:1 191:1 256:1 
0.6189429980105766 1:0.41666667 2:0.41666667 3:0.62891566 4:0.37333333 5:0.58478081 87:1 174:1 222:1 255:1 
2 1:0.58333333 2:0.58333333 3:0.40871177 4:0.525 5:0.62034739 119:1 189:1 239:1 256:1 
2 1:0.5 2:0.5 3:0.50046339 4:0.34588235 5:0.63688999 155:1 174:1 198:1 256:1 
1.55235109183522 1:0.66666667 2:0.66666667 3:0.66102873 4:0.392 5:0.5283292 54:1 130:1 238:1 256:1 
2 1:0.75 2:0.75 3:0.57182576 4:0.36 5:0.61437368 54:1 103:1 166:1 257:1 
0.5054064250918225 1:0.58333333 2:0.58333333 3:0.59221501 4:0.42 5:0.63688999 25:1 166:1 238:1 256:1 
0.1300595373439125 1:0.75 2:0.75 3:0.40871177 4:0.52181818 5:0.40529363 11:1 58:1 176:1 
2 1:0.66666667 2:0.66666667 3:0.40871177 4:0.54981818 5:0.39081886 10:1 24:1 44:1 59:1 73:1 92:1 251:1 
0.4532880040370966 1:0.58333333 2:0.58333333 3:0.19462465 4:0.42 5:0.53074166 26:1 37:1 43:1 59:1 
-1.046967446259241 1:0.5 2:0.5 3:0.46538189 4:0.62 5:0.7739746 13:1 25:1 41:1 118:1 130:1 204:1 251:1 
-0.907176417606232 1:1 2:1 3:0.25759145 4:0.38181818 5:0.318445 57:1 74:1 92:1 140:1 212:1 250:1 
-2 1:0.33333333 2:0.33333333 3:0.32113068 4:0.266 5:0.64580044 18:1 30:1 120:1 126:1 180:1 192:1 
-2 1:0.33333333 2:0.33333333 3:0.31978328 4:0.31015385 5:0.6389101 13:1 38:1 75:1 110:1 123:1 162:1 
-0.7163589617546436 1:0.25 2:0.25 3:0.41890639 4:0.17733333 5:0.69603634 24:1 40:1 44:1 109:1 169:1 174:1 253:1 
-1.403285820611702 1:0.83333333 2:0.83333333 3:0.32307692 4:0.59181818 5:0.36862421 44:1 58:1 154:1 192:1 237:1 
-0.4946685494291673 1:0.33333333 2:0.33333333 3:0.31978328 4:0.31015385 5:0.6389101 36:1 47:1 75:1 85:1 198:1 223:1 253:1 
-2 1:0.5 2:0.5 3:0.28101068 4:0.504 5:0.52430843 14:1 18:1 88:1 93:1 194:1 227:1 255:1 
-1.509560697782276 1:0.75 2:0.75 3:0.42064232 4:0.49 5:0.64307426 104:1 128:1 146:1 177:1 221:1 252:1 
-1.721583626018849 1:0.5 2:0.5 3:0.72011121 4:0.64909091 5:0.63934632 23:1 77:1 111:1 142:1 191:1 255:1 
-0.7619224071495537 1:0.5 2:0.5 3:0.30702039 4:0.6 5:0.67910808 38:1 72:1 153:1 167:1 193:1 243:1 248:1 
-1.196928141713356 1:0.33333333 2:0.33333333 3:0.52205201 4:0.23333333 5:0.65221622 12:1 28:1 41:1 127:1 160:1 220:1 
-2 1:0.5 2:0.5 3:0.49105297 4:0.35127273 5:0.64773282 18:1 46:1 75:1 144:1 200:1 253:1 
-0.298457552204344 1:0.66666667 2:0.66666667 3:0.41482854 4:0.75833333 5:0.78191343 35:1 82:1 154:1 168:1 179:1 
-0.5161003771610246 1:0.33333333 2:0.33333333 3:0.36589435 4:0.62045455 5:0.63946328 24:1 122:1 135:1 156:1 231:1 236:1 
-0.2470341995101299 1:0.58333333 2:0.58333333 3:0.3373494 4:0.252 5:0.69586129 42:1 63:1 70:1 157:1 176:1 230:1 254:1 
-1.651406950737143 1:0.33333333 2:0.33333333 3:0.23600283 4:0.51333333 5:0.63543035 13:1 26:1 84:1 100:1 105:1 145:1 251:1 
-0.3782933904964154 1:0.66666667 2:0.66666667 3:0.50106308 4:0.644 5:0.7530666 54:1 105:1 130:1 231:1 245:1 251:1 
-2 1:0.5 2:0.5 3:0.46580167 4:0.50769231 5:0.70090065 14:1 47:1 92:1 159:1 183:1 
-0.7632443459050189 1:0.33333333 2:0.33333333 3:0.25885079 4:0.46772727 5:0.64704531 13:1 26:1 51:1 112:1 121:1 206:1 250:1 
-1.090833027456659 1:0.66666667 2:0.66666667 3:0.53181186 4:0.495 5:0.65305349 17:1 23:1 34:1 145:1 223:1 257:1 
-0.8167395347661695 1:0.33333333 2:0.33333333 3:0.37303058 4:0.51272727 5:0.63306069 18:1 75:1 120:1 135:1 155:1 215:1 254:1 
-0.4641979693241475 1:0.41666667 2:0.41666667 3:0.13218258 4:0.564 5:0.74263625 42:1 108:1 122:1 143:1 168:1 206:1 254:1 
-1.343189142367457 1:0.16666667 2:0.16666667 3:0.18246061 4:0.65 5:0.61484886 24:1 73:1 84:1 97:1 110:1 192:1 251:1 
-0.1284198013473334 1:0.58333333 2:0.58333333 3:0.55143652 4:0.756 5:0.75483258 41:1 63:1 70:1 101:1 142:1 206:1 252:1 
-0.7397971187936037 1:0.66666667 2:0.66666667 3:0.35032437 4:0.44692308 5:0.65268065 57:1 93:1 120:1 148:1 186:1 227:1 248:1 
-0.09885190811510274 1:0.58333333 2:0.58333333 3:0.54392469 4:0.21 5:0.65822124 20:1 64:1 88:1 127:1 209:1 225:1 255:1 
-1.482846290198193 1:0.5 2:0.5 3:0.44988237 4:0.31309091 5:0.6141015 18:1 57:1 85:1 106:1 148:1 220:1 
-2 1:0.66666667 2:0.66666667 3:0.2802595 4:0.51 5:0.62531017 12:1 43:1 68:1 189:1 228:1 
-0.5165109007649464 1:0.083333333 2:0.083333333 3:0.37303058 4:0.46581818 5:0.5580829 13:1 40:1 63:1 86:1 108:1 168:1 253:1 
-0.3448858572399744 1:0.5 2:0.5 3:0.46538189 4:0.14 5:0.65817642 13:1 41:1 54:1 106:1 186:1 217:1 
-1.577395547603683 1:0.33333333 2:0.33333333 3:0.35162187 4:0.609 5:0.77134455 26:1 63:1 70:1 168:1 204:1 241:1 
-0.4822250428643249 1:0.16666667 2:0.16666667 3:0.21408712 4:0.39117647 5:0.6274021 19:1 60:1 120:1 156:1 193:1 207:1 252:1 
-0.8005845521517055 1:0.25 2:0.25 3:0.3284291 4:0.75818182 5:0.82144334 84:1 96:1 120:1 145:1 179:1 215:1 
-0.5925327915422282 1:0.83333333 2:0.83333333 3:0.27378291 4:0.65333333 5:0.681555 26:1 35:1 56:1 129:1 154:1 251:1 
-0.2323609471639324 1:0.25 2:0.25 3:0.27525487 4:0.385 5:0.63132566 47:1 67:1 84:1 120:1 180:1 232:1 253:1 
-0.1847414717644499 1:0.41666667 2:0.41666667 3:0.45152919 4:0.2613986 5:0.76619796 7:1 37:1 75:1 164:1 222:1 241:1 255:1 
-0.7750977089382907 1:0.41666667 2:0.41666667 3:0.61387859 4:0.444 5:0.53998943 40:1 65:1 101:1 176:1 215:1 228:1 253:1 
-2 1:0.41666667 2:0.41666667 3:0.45152919 4:0.45524476 5:0.6371657 75:1 143:1 157:1 164:1 242:1 255:1 
-0.4257264946906142 1:0.25 2:0.25 3:0.56646017 4:0.63 5:0.6175903 41:1 75:1 93:1 111:1 183:1 243:1 256:1 
-0.6618039821481475 1:0.58333333 2:0.58333333 3:0.19462465 4:0.42 5:0.68513923 13:1 86:1 110:1 122:1 176:1 215:1 
-2 1:0.58333333 2:0.58333333 3:0.40871177 4:0.42 5:0.63688999 13:1 65:1 69:1 101:1 206:1 
-1.688767050973092 1:0.58333333 2:0.58333333 3:0.40871177 4:0.336 5:0.64616869 7:1 18:1 41:1 78:1 155:1 228:1 
-2 1:0.58333333 2:0.58333333 3:0.40871177 4:0.78 5:0.7888751 36:1 46:1 72:1 96:1 154:1 166:1 
-2 1:0.33333333 2:0.33333333 3:0.81241891 4:0.38769231 5:0.71215881 12:1 65:1 76:1 140:1 219:1 256:1 
-2 1:0.41666667 2:0.41666667 3:0.44052657 4:0.28 5:0.68286868 19:1 39:1 127:1 160:1 183:1 256:1 
-2 1:0.66666667 2:0.66666667 3:0.45941661 4:0.28 5:0.68031431 12:1 19:1 76:1 113:1 128:1 225:1 
-1.431031565952001 1:0.5 2:0.5 3:0.59360519 4:0.36272727 5:0.65562574 53:1 77:1 90:1 181:1 214:1 252:1 
-2 1:0.33333333 2:0.33333333 3:0.49434662 4:0.50590909 5:0.63496002 12:1 26:1 52:1 65:1 111:1 204:1 250:1 
-0.0900817810361568 1:0.41666667 2:0.41666667 3:0.5883653 4:0.294 5:0.6647767 75:1 123:1 128:1 152:1 180:1 186:1 253:1 
-2 1:0.5 2:0.5 3:0.49105297 4:0.35127273 5:0.64773282 47:1 64:1 84:1 188:1 200:1 222:1 252:1 
-2 1:0.41666667 2:0.41666667 3:0.66720705 4:0.28 5:0.65221622 18:1 51:1 77:1 113:1 173:1 256:1 
-0.0215144580256168 1:0.66666667 2:0.66666667 3:0.32113068 4:0.18454545 5:0.66785723 18:1 30:1 62:1 140:1 233:1 235:1 253:1 
-0.3992056061222322 1:0.58333333 2:0.58333333 3:0.40871177 4:0.42 5:0.63688999 32:1 59:1 139:1 156:1 173:1 217:1 
-2 1:0.66666667 2:0.66666667 3:0.23354958 4:0.31181818 5:0.58951801 13:1 19:1 76:1 122:1 225:1 248:1 
-0.09495112380782283 1:0.58333333 2:0.58333333 3:0.15180723 4:0.42 5:0.61373036 12:1 174:1 189:1 220:1 230:1 237:1 254:1 
-2 1:0.5 2:0.5 3:0.50046339 4:0.48533333 5:0.60918114 34:1 49:1 82:1 208:1 240:1 
-1.684921906081726 1:0.58333333 2:0.58333333 3:0.11228345 4:0.42 5:0.62018833 14:1 77:1 84:1 91:1 110:1 235:1 252:1 
-0.5762455185895544 1:0.75 2:0.75 3:0.6442076 4:0.34951049 5:0.65908464 13:1 20:1 46:1 65:1 91:1 166:1 256:1 
-0.5674516383082525 1:0.5 2:0.5 3:0.71232623 4:0.31230769 5:0.7358448 112:1 118:1 128:1 148:1 221:1 253:1 
-1.787097175784455 1:0.5 2:0.5 3:0.40165395 4:0.40133333 5:0.64072872 13:1 54:1 82:1 102:1 179:1 216:1 
-2 1:0.5 2:0.5 3:0.54304094 4:0.504 5:0.71730539 12:1 63:1 101:1 176:1 214:1 229:1 
-1.683952917594702 1:0.25 2:0.25 3:0.43547266 4:0.68181818 5:0.44992418 12:1 61:1 73:1 96:1 179:1 231:1 250:1 
-0.5047549271160693 1:0.5 2:0.5 3:0.3373494 4:0.57692308 5:0.61437368 23:1 39:1 93:1 121:1 131:1 227:1 246:1 
-0.6149355838617407 1:0.33333333 2:0.33333333 3:0.40037071 4:0.65333333 5:0.65177833 40:1 70:1 85:1 119:1 168:1 239:1 252:1 
-1.929656110088831 1:0.5 2:0.5 3:0.50046339 4:0.40133333 5:0.63330576 13:1 102:1 154:1 192:1 208:1 250:1 
-1.195302661850453 1:0.58333333 2:0.58333333 3:0.50752121 4:0.672 5:0.64802443 83:1 111:1 185:1 189:1 228:1 250:1 
-2 1:0.66666667 2:0.66666667 3:0.35518999 4:0.345 5:0.65860215 14:1 28:1 109:1 141:1 164:1 202:1 
-2 1:0.41666667 2:0.41666667 3:0.37303058 4:0.564 5:0.8186288 12:1 39:1 44:1 70:1 109:1 170:1 252:1 
-0.2333035911767317 1:0.66666667 2:0.66666667 3:0.4297007 4:0.476 5:0.60831887 41:1 51:1 56:1 129:1 158:1 169:1 250:1 
-0.4476516407306437 1:0.75 2:0.75 3:0.56163114 4:0.36909091 5:0.66528812 22:1 42:1 80:1 142:1 190:1 241:1 256:1 
-1.853465737907427 1:0.33333333 2:0.33333333 3:0.50046339 4:0.51333333 5:0.59470637 12:1 24:1 35:1 102:1 208:1 241:1 250:1 
-2 1:0.66666667 2:0.66666667 3:0.39519048 4:0.56 5:0.58478081 19:1 95:1 127:1 159:1 184:1 225:1 
-0.03727662982180671 1:0.66666667 2:0.66666667 3:0.24402937 4:0.64909091 5:0.61788721 22:1 143:1 158:1 182:1 190:1 240:1 
-2 1:0.41666667 2:0.41666667 3:0.44052657 4:0.28 5:0.68286868 40:1 76:1 93:1 123:1 127:1 160:1 
-2 1:0.41666667 2:0.41666667 3:0.45152919 4:0.2613986 5:0.76619796 37:1 42:1 56:1 191:1 216:1 222:1 256:1 
-2 1:0.41666667 2:0.41666667 3:0.46605653 4:0.46 5:0.61707334 13:1 96:1 126:1 209:1 215:1 
-2 1:0.58333333 2:0.58333333 3:0.55983209 4:0.14 5:0.64710748 40:1 45:1 88:1 101:1 116:1 234:1 
-2 1:0.66666667 2:0.66666667 3:0.34983781 4:0.39 5:0.63520127 49:1 58:1 105:1 181:1 200:1 
-2 1:0.33333333 2:0.33333333 3:0.35162187 4:0.504 5:0.71730539 12:1 42:1 100:1 122:1 143:1 192:1 
-1.088861815616842 1:0.5 2:0.5 3:0.16524015 4:0.504 5:0.71730539 64:1 86:1 141:1 156:1 194:1 213:1 253:1 
-1.023091610120147 1:0.58333333 2:0.58333333 3:0.40871177 4:0.60666667 5:0.45822994 24:1 33:1 56:1 72:1 104:1 207:1 251:1 
-0.1410839692155138 1:0.58333333 2:0.58333333 3:0.70514009 4:0.504 5:0.64635427 46:1 65:1 75:1 125:1 144:1 200:1 
-2 1:0.41666667 2:0.41666667 3:0.53716404 4:0.47169231 5:0.71215881 12:1 32:1 46:1 63:1 75:1 206:1 256:1 
-1.110199330612553 1:0.75 2:0.75 3:0.1334569 4:0.42848485 5:0.46732837 24:1 43:1 176:1 211:1 228:1 237:1 
-2 1:0.33333333 2:0.33333333 3:0.43030039 4:0.32666667 5:0.61499538 75:1 89:1 193:1 205:1 
-2 1:0.91666667 2:0.91666667 3:0.3284291 4:0.68181818 5:0.35390819 10:1 58:1 128:1 153:1 239:1 
-1.385312291998896 1:0.16666667 2:0.16666667 3:0.40871177 4:0.37153846 5:0.64036394 13:1 36:1 111:1 135:1 140:1 229:1 252:1 
-2 1:0.5 2:0.5 3:0.27696585 4:0.27490909 5:0.63863439 12:1 20:1 86:1 198:1 216:1 224:1 253:1 
-0.39265171221164 1:0.5 2:0.5 3:0.27696585 4:0.19854545 5:0.6527875 13:1 85:1 90:1 123:1 151:1 188:1 254:1 
-0.7349384980390544 1:0.66666667 2:0.66666667 3:0.45068964 4:0.364 5:0.63613314 40:1 46:1 99:1 104:1 115:1 206:1 
-2 1:0.41666667 2:0.41666667 3:0.73208812 4:0.434 5:0.55611469 41:1 75:1 195:1 209:1 222:1 
-1.061190258877746 1:0.5 2:0.5 3:0.31636046 4:0.504 5:0.71730539 65:1 70:1 108:1 170:1 242:1 253:1 
-2 1:0.5 2:0.5 3:0.1823911 4:0.50166667 5:0.65435162 12:1 69:1 84:1 112:1 158:1 235:1 
-1.818487350964034 1:0.66666667 2:0.66666667 3:0.53521779 4:0.49 5:0.63890769 8:1 47:1 120:1 209:1 236:1 
-0.8623651681922774 1:0.66666667 2:0.66666667 3:0.11969416 4:0.51 5:0.61517783 36:1 43:1 91:1 175:1 230:1 239:1 252:1 
-2 1:0.5 2:0.5 3:0.37201112 4:0.44333333 5:0.63275434 14:1 24:1 44:1 123:1 189:1 220:1 
-2 1:0.5 2:0.5 3:0.46635061 4:0.45818182 5:0.68996416 14:1 101:1 111:1 200:1 240:1 
-0.3098165777109775 1:0.41666667 2:0.41666667 3:0.55363228 4:0.294 5:0.71008038 17:1 30:1 50:1 78:1 171:1 243:1 
-1.015139997243205 1:0.25 2:0.25 3:0.27525487 4:0.385 5:0.63132566 86:1 120:1 192:1 207:1 234:1 252:1 
-0.3111639018518272 1:0.83333333 2:0.83333333 3:0.46580167 4:0.462 5:0.63667555 57:1 72:1 116:1 140:1 173:1 200:1 
-0.9257029822753778 1:0.5 2:0.5 3:0.62594723 4:0.62 5:0.82463631 40:1 51:1 56:1 106:1 204:1 233:1 251:1 
-1.679891004416663 1:0.5 2:0.5 3:0.36005561 4:0.36272727 5:0.63457152 13:1 19:1 76:1 154:1 188:1 228:1 252:1 
-0.5360152212734656 1:0.41666667 2:0.41666667 3:0.50046339 4:0.53878788 5:0.57540667 12:1 102:1 120:1 154:1 208:1 227:1 
-1.723120871498146 1:0.5 2:0.5 3:0.31636046 4:0.644 5:0.7530666 43:1 64:1 69:1 99:1 143:1 170:1 252:1 
-0.819986444927909 1:0.41666667 2:0.41666667 3:0.62891566 4:0.56 5:0.65425972 51:1 71:1 87:1 129:1 167:1 198:1 255:1 
-2 1:0.66666667 2:0.66666667 3:0.3291937 4:0.75833333 5:0.76647367 35:1 170:1 179:1 226:1 251:1 
-0.06535373134228674 1:1 2:1 3:0.42330862 4:0.22 5:0.71123769 7:1 19:1 128:1 149:1 151:1 223:1 
-0.9443058995807542 1:0.33333333 2:0.33333333 3:0.51575533 4:0.33272727 5:0.65182428 12:1 80:1 135:1 186:1 208:1 215:1 253:1 
-2 1:0.5 2:0.5 3:0.37201112 4:0.64166667 5:0.61904762 12:1 51:1 91:1 158:1 195:1 214:1 251:1 
-2 1:0.66666667 2:0.66666667 3:0.35032437 4:0.58692308 5:0.62109933 21:1 39:1 83:1 95:1 165:1 246:1 
-2 1:0.33333333 2:0.33333333 3:0.49434662 4:0.36272727 5:0.62503446 111:1 136:1 160:1 175:1 244:1 
-1.480405959433419 1:0.5 2:0.5 3:0.30284451 4:0.23333333 5:0.66151301 13:1 54:1 73:1 102:1 218:1 250:1 
-1.103626111048423 1:0.41666667 2:0.41666667 3:0.44397318 4:0.56 5:0.67265119 13:1 117:1 168:1 231:1 245:1 
-2 1:0.58333333 2:0.58333333 3:0.29193698 4:0.35 5:0.58162268 48:1 119:1 150:1 223:1 234:1 
-0.6026261139420059 1:0.41666667 2:0.41666667 3:0.4715905 4:0.364 5:0.64503838 47:1 76:1 123:1 145:1 152:1 187:1 252:1 
-2 1:0.41666667 2:0.41666667 3:0.29274791 4:0.444 5:0.64131284 14:1 26:1 39:1 109:1 143:1 174:1 
-0.6066963322106 1:0.083333333 2:0.083333333 3:0.40871177 4:0.31797571 5:0.63688999 13:1 40:1 76:1 120:1 148:1 241:1 246:1 
-0.1413033677253889 1:0.58333333 2:0.58333333 3:0.40871177 4:0.252 5:0.65637526 20:1 76:1 85:1 92:1 182:1 224:1 252:1 
-2 1:0.33333333 2:0.33333333 3:0.54704498 4:0.45876923 5:0.6434222 76:1 96:1 155:1 221:1 228:1 
-0.3533218998296441 1:0.33333333 2:0.33333333 3:0.40871177 4:0.46909091 5:0.63254756 37:1 77:1 143:1 156:1 189:1 217:1 255:1 
-2 1:0.41666667 2:0.41666667 3:0.64226135 4:0.49 5:0.64373261 46:1 60:1 207:1 233:1 252:1 
-1.074011063923182 1:0.25 2:0.25 3:0.14365153 4:0.55066667 5:0.75452624 12:1 109:1 122:1 157:1 215:1 242:1 252:1 
-0.1344933232767116 1:0.25 2:0.25 3:0.22520853 4:0.62102564 5:0.65177833 28:1 156:1 168:1 218:1 239:1 252:1 
-0.08317468986590547 1:0.5 2:0.5 3:0.25690454 4:0.42538462 5:0.62846831 20:1 47:1 68:1 122:1 157:1 192:1 252:1 
-2 1:0.66666667 2:0.66666667 3:0.45941661 4:0.56 5:0.59346567 19:1 41:1 93:1 161:1 171:1 194:1 
-0.4024115907579592 1:0.41666667 2:0.41666667 3:0.39341983 4:0.30969697 5:0.65206936 25:1 50:1 54:1 73:1 82:1 208:1 
-2 1:0.41666667 2:0.41666667 3:0.3765987 4:0.52769231 5:0.69044665 12:1 32:1 139:1 191:1 204:1 219:1 255:1 
-1.014477304270204 1:0.83333333 2:0.83333333 3:0.57182576 4:0.084 5:0.69387005 41:1 44:1 101:1 137:1 176:1 213:1 
-0.5102796790177285 1:0.58333333 2:0.58333333 3:0.29193698 4:0.21 5:0.65425972 19:1 30:1 66:1 92:1 102:1 180:1 252:1 
-0.1485214960395918 1:0.66666667 2:0.66666667 3:0.61209453 4:0.615 5:0.65474221 34:1 65:1 99:1 123:1 213:1 223:1 257:1 
-2 1:0.33333333 2:0.33333333 3:0.23600283 4:0.42 5:0.66024425 14:1 26:1 40:1 85:1 218:1 244:1 251:1 
-2 1:0.5 2:0.5 3:0.30284451 4:0.31733333 5:0.65650251 14:1 24:1 54:1 102:1 129:1 208:1 
-1.893116614957785 1:0.5 2:0.5 3:0.39265524 4:0.51 5:0.62748139 14:1 25:1 46:1 86:1 232:1 245:1 251:1 
-0.5455361626126772 1:0.5 2:0.5 3:0.42373543 4:0.168 5:0.66369513 13:1 18:1 41:1 127:1 183:1 225:1 256:1 
-0.8496902254914129 1:0.33333333 2:0.33333333 3:0.37913394 4:0.12 5:0.66222084 13:1 18:1 88:1 126:1 183:1 225:1 256:1 
-0.7716234601987679 1:0.33333333 2:0.33333333 3:0.5112577 4:0.7 5:0.72227899 24:1 39:1 99:1 131:1 187:1 243:1 
-2 1:0.58333333 2:0.58333333 3:0.18203129 4:0.28 5:0.65221622 14:1 128:1 145:1 206:1 235:1 252:1 
-1.578536009774817 1:0.33333333 2:0.33333333 3:0.41859271 4:0.20030769 5:0.76887023 78:1 120:1 186:1 219:1 241:1 246:1 
-0.2241231776262451 1:0.33333333 2:0.33333333 3:0.61998195 4:0.48 5:0.58622829 95:1 111:1 123:1 128:1 148:1 185:1 256:1 
-0.4331440077901405 1:0.5 2:0.5 3:0.46538189 4:0.86 5:0.69291588 13:1 84:1 101:1 107:1 118:1 131:1 251:1 
-2 1:0.41666667 2:0.41666667 3:0.21408712 4:0.43 5:0.62604122 46:1 84:1 122:1 192:1 253:1 
-0.006330929840632236 1:0.5 2:0.5 3:0.38535681 4:0.29615385 5:0.64704113 20:1 68:1 84:1 121:1 192:1 234:1 
-0.4260081424904792 1:0.83333333 2:0.83333333 3:0.26598703 4:0.441 5:0.6594063 14:1 89:1 101:1 129:1 177:1 223:1 254:1 
-2 1:0.33333333 2:0.33333333 3:0.44541242 4:0.54519231 5:0.70113041 14:1 63:1 75:1 167:1 220:1 225:1 255:1 
-2 1:0.41666667 2:0.41666667 3:0.53359592 4:0.324 5:0.66664369 12:1 25:1 40:1 65:1 70:1 176:1 253:1 
-2 1:0.41666667 2:0.41666667 3:0.4476367 4:0.41 5:0.65706695 18:1 75:1 181:1 191:1 
-1.197072806477634 1:0.41666667 2:0.41666667 3:0.32966422 4:0.21 5:0.62531017 91:1 138:1 174:1 207:1 228:1 253:1 
-0.1409757706451727 1:0.33333333 2:0.33333333 3:0.50046339 4:0.41192308 5:0.62034739 39:1 42:1 95:1 102:1 147:1 241:1 
-0.9731583064135855 1:0.58333333 2:0.58333333 3:0.53716404 4:0.48461538 5:0.56162117 14:1 40:1 75:1 94:1 129:1 209:1 
-0.1012004952652123 1:0.5 2:0.5 3:0.40871177 4:0.45181818 5:0.49214227 36:1 109:1 128:1 140:1 192:1 239:1 
-1.034277772522977 1:0.5 2:0.5 3:0.50046339 4:0.56933333 5:0.53680728 12:1 24:1 82:1 102:1 130:1 208:1 251:1 
-2 1:0.58333333 2:0.58333333 3:0.66561631 4:0.525 5:0.64846981 84:1 113:1 173:1 197:1 214:1 
-1.561952572501115 1:0.41666667 2:0.41666667 3:0.53716404 4:0.24769231 5:0.71215881 18:1 31:1 102:1 160:1 183:1 256:1 
-2 1:0.41666667 2:0.41666667 3:0.32966422 4:0.399 5:0.6248648 14:1 26:1 40:1 92:1 196:1 204:1 251:1 
-1.069384385969611 1:0.25 2:0.25 3:0.48082533 4:0.735 5:0.61887694 51:1 147:1 171:1 183:1 225:1 255:1 
-1.895569762571145 1:0.75 2:0.75 3:0.40367443 4:0.595 5:0.63435454 25:1 111:1 141:1 190:1 213:1 236:1 251:1 
-0.1339042672416147 1:0.41666667 2:0.41666667 3:0.13218258 4:0.444 5:0.69197454 14:1 25:1 43:1 109:1 170:1 215:1 252:1 
-2 1:0.58333333 2:0.58333333 3:0.40871177 4:0.78 5:0.7888751 12:1 120:1 155:1 166:1 178:1 
-0.4836654179152723 1:0.33333333 2:0.33333333 3:0.62891566 4:0.38769231 5:0.71215881 14:1 64:1 76:1 102:1 167:1 185:1 255:1 
-2 1:0.66666667 2:0.66666667 3:0.61209453 4:0.255 5:0.59394817 125:1 186:1 214:1 234:1 257:1 
-0.2277571124394611 1:0.66666667 2:0.66666667 3:0.50106308 4:0.812 5:0.69945633 40:1 53:1 106:1 118:1 131:1 182:1 251:1 
-2 1:0.41666667 2:0.41666667 3:0.39341983 4:0.46242424 5:0.62848084 12:1 54:1 72:1 102:1 227:1 
-0.1482519080618344 1:0.83333333 2:0.83333333 3:0.51987239 4:0.36 5:0.58622829 41:1 44:1 77:1 128:1 163:1 242:1 251:1 
-1.883746790105725 1:0.33333333 2:0.33333333 3:0.55143652 4:0.40909091 5:0.65318751 21:1 36:1 75:1 100:1 164:1 216:1 256:1 
-2 1:0.5 2:0.5 3:0.45764597 4:0.78166667 5:0.67668413 52:1 63:1 71:1 84:1 143:1 177:1 250:1 
-0.3427049894976641 1:0.66666667 2:0.66666667 3:0.43929564 4:0.65333333 5:0.65177833 39:1 70:1 93:1 118:1 143:1 174:1 252:1 
-1.51845571206497 1:0.58333333 2:0.58333333 3:0.40871177 4:0.49 5:0.6332055 7:1 46:1 140:1 156:1 231:1 252:1 
-0.4147431277124095 1:0.41666667 2:0.41666667 3:0.31648963 4:0.483 5:0.64317476 12:1 53:1 86:1 121:1 206:1 233:1 
-1.27048810542981 1:0.5 2:0.5 3:0.12845227 4:0.29615385 5:0.62553575 20:1 66:1 86:1 122:1 157:1 192:1 
-0.443016010694653 1:0.5 2:0.5 3:0.46748078 4:0.224 5:0.68920731 100:1 109:1 137:1 176:1 213:1 229:1 
-0.0226022552400002 1:0.41666667 2:0.41666667 3:0.23804092 4:0.294 5:0.63319538 36:1 45:1 85:1 92:1 145:1 234:1 252:1 
-2 1:0.66666667 2:0.66666667 3:0.33989805 4:0.28 5:0.65860215 26:1 30:1 174:1 199:1 257:1 
-2 1:0.5 2:0.5 3:0.51380908 4:0.42538462 5:0.64215355 20:1 46:1 60:1 180:1 233:1 253:1 
-1.446999615923791 1:0.66666667 2:0.66666667 3:0.26755543 4:0.46666667 5:0.59966915 22:1 83:1 127:1 157:1 242:1 
-1.625282933717438 1:0.58333333 2:0.58333333 3:0.52548656 4:0.28 5:0.66215505 20:1 68:1 85:1 90:1 233:1 252:1 
-0.256155959829761 1:0.5 2:0.5 3:0.29193698 4:0.38181818 5:0.318445 84:1 108:1 127:1 138:1 176:1 204:1 
-0.9134688539310266 1:0.5 2:0.5 3:0.64114921 4:0.50166667 5:0.61713078 53:1 99:1 112:1 190:1 234:1 251:1 
-0.3586189811139099 1:0.75 2:0.75 3:0.29285286 4:0.63 5:0.60987042 28:1 33:1 122:1 141:1 203:1 223:1 251:1 
-1.412752663292685 1:0.41666667 2:0.41666667 3:0.62891566 4:0.46666667 5:0.68899917 26:1 88:1 119:1 131:1 219:1 222:1 257:1 
-2 1:0.5 2:0.5 3:0.44988237 4:0.46581818 5:0.65656084 12:1 42:1 58:1 75:1 121:1 238:1 
-1.654303999509484 1:0.5 2:0.5 3:0.45105867 4:0.63466667 5:0.59410193 14:1 24:1 59:1 87:1 118:1 233:1 
-1.492216257727455 1:0.41666667 2:0.41666667 3:0.19080167 4:0.64666667 5:0.75354977 24:1 36:1 47:1 72:1 153:1 194:1 246:1 
-0.199173379746066 1:0.33333333 2:0.33333333 3:0.45941661 4:0.24 5:0.67066446 14:1 75:1 124:1 128:1 193:1 208:1 257:1 
-2 1:0.41666667 2:0.41666667 3:0.44052657 4:0.56 5:0.5909113 13:1 19:1 51:1 171:1 185:1 225:1 255:1 
-2 1:0.33333333 2:0.33333333 3:0.35162187 4:0.609 5:0.77134455 12:1 108:1 135:1 158:1 176:1 240:1 
-1.481676862893208 1:0.33333333 2:0.33333333 3:0.41859271 4:0.39415385 5:0.63983797 39:1 64:1 122:1 153:1 204:1 219:1 246:1 
-2 1:0.41666667 2:0.41666667 3:0.33685036 4:0.378 5:0.63412325 64:1 107:1 122:1 204:1 229:1 248:1 
-0.3530625290083682 1:0.66666667 2:0.66666667 3:0.54045769 4:0.48109091 5:0.64164069 23:1 99:1 162:1 190:1 199:1 257:1 
-2 1:0.75 2:0.75 3:0.48517146 4:0.57272727 5:0.63757927 20:1 137:1 153:1 215:1 245:1 254:1 
-0.5499262557909872 1:0.16666667 2:0.16666667 3:0.49434662 4:0.43615385 5:0.64212848 27:1 97:1 107:1 156:1 172:1 180:1 
-1.732167868201695 1:0.66666667 2:0.66666667 3:0.3536608 4:0.44333333 5:0.64019851 17:1 93:1 176:1 190:1 206:1 216:1 253:1 
-1.271130080178247 1:0.58333333 2:0.58333333 3:0.40871177 4:0.26727273 5:0.64699936 12:1 20:1 55:1 102:1 136:1 164:1 252:1 
-1.397544069902233 1:0.25 2:0.25 3:0.60240964 4:0.45733333 5:0.49398033 39:1 63:1 100:1 137:1 206:1 253:1 
-0.509368105401066 1:0.41666667 2:0.41666667 3:0.29274791 4:0.444 5:0.64131284 24:1 101:1 176:1 192:1 206:1 242:1 253:1 
-0.581572677262732 1:0.33333333 2:0.33333333 3:0.062878734 4:0.43938462 5:0.61740472 38:1 75:1 84:1 108:1 151:1 218:1 252:1 
-2 1:0.41666667 2:0.41666667 3:0.4715905 4:0.364 5:0.64503838 38:1 64:1 125:1 180:1 216:1 236:1 
-2 1:0.41666667 2:0.41666667 3:0.44052657 4:0.28 5:0.68286868 18:1 52:1 93:1 111:1 193:1 245:1 
-0.8904251792386708 1:0.33333333 2:0.33333333 3:0.60300932 4:0.42 5:0.61061646 24:1 40:1 101:1 144:1 186:1 244:1 250:1 
-0.8881706272206443 1:0.66666667 2:0.66666667 3:0.66102873 4:0.56 5:0.65860215 51:1 70:1 87:1 117:1 140:1 153:1 255:1 
-2 1:0.5 2:0.5 3:0.281204 4:0.1 5:0.67754707 13:1 116:1 128:1 146:1 205:1 253:1 
-0.2837111707208717 1:0.33333333 2:0.33333333 3:0.31978328 4:0.11630769 5:0.76794236 18:1 64:1 85:1 110:1 126:1 198:1 252:1 
-2 1:0.58333333 2:0.58333333 3:0.47631823 4:0.63 5:0.60946411 14:1 41:1 93:1 192:1 226:1 244:1 257:1 
-0.1278744550633979 1:0.5 2:0.5 3:0.69690597 4:0.28254545 5:0.70678953 41:1 64:1 77:1 80:1 97:1 228:1 248:1 
-0.7627689177246195 1:0.33333333 2:0.33333333 3:0.40871177 4:0.44181818 5:0.52109181 24:1 36:1 109:1 176:1 205:1 239:1 
-0.01175164831159844 1:0.5 2:0.5 3:0.25690454 4:0.29615385 5:0.63628844 30:1 62:1 92:1 121:1 156:1 164:1 252:1 
-0.6656704943530363 1:0.16666667 2:0.16666667 3:0.52205201 4:0.39454545 5:0.65221622 12:1 41:1 65:1 75:1 145:1 160:1 252:1 
-2 1:0.5 2:0.5 3:0.40165395 4:0.65333333 5:0.681555 48:1 146:1 154:1 207:1 251:1 
-2 1:0.41666667 2:0.41666667 3:0.45331325 4:0.564 5:0.84395965 41:1 65:1 108:1 194:1 252:1 
-1.613977228725288 1:0.41666667 2:0.41666667 3:0.41529907 4:0.567 5:0.63389606 14:1 24:1 52:1 121:1 214:1 233:1 251:1 
-1.04312452653907 1:0.33333333 2:0.33333333 3:0.51575533 4:0.41045455 5:0.62241522 12:1 27:1 99:1 121:1 162:1 224:1 
-2 1:0.25 2:0.25 3:0.41890639 4:0.55066667 5:0.86618877 24:1 39:1 99:1 158:1 174:1 252:1 
-0.8262708650464271 1:0.41666667 2:0.41666667 3:0.37303058 4:0.204 5:0.69704071 41:1 42:1 64:1 69:1 85:1 194:1 253:1 
-0.1191848031662112 1:0.5 2:0.5 3:0.40871177 4:0.31181818 5:0.14474773 24:1 73:1 92:1 120:1 138:1 212:1 
-0.1045801649099275 1:0.75 2:0.75 3:0.33685036 4:0.364 5:0.60490378 19:1 56:1 127:1 151:1 167:1 184:1 252:1 
-0.8367327937770213 1:0.58333333 2:0.58333333 3:0.15180723 4:0.42 5:0.61373036 28:1 31:1 50:1 107:1 134:1 230:1 
-0.1784945872159169 1:0.66666667 2:0.66666667 3:0.32113068 4:0.41363636 5:0.63247446 8:1 32:1 47:1 156:1 162:1 235:1 252:1 
-1.554281678000079 1:0.41666667 2:0.41666667 3:0.32966422 4:0.294 5:0.63644461 12:1 112:1 138:1 175:1 229:1 238:1 252:1 
-2 1:0.58333333 2:0.58333333 3:0.24814643 4:0.54 5:0.60311552 25:1 45:1 96:1 128:1 144:1 165:1 
-2 1:0.58333333 2:0.58333333 3:0.48899444 4:0.54 5:0.52712297 46:1 73:1 166:1 215:1 244:1 
-2 1:0.5 2:0.5 3:0.38509922 4:0.62 5:0.74864375 24:1 51:1 55:1 117:1 232:1 251:1 
-2 1:0.5 2:0.5 3:0.35237305 4:0.672 5:0.60472383 93:1 127:1 147:1 192:1 208:1 225:1 255:1 
-0.1473506201978542 1:0.41666667 2:0.41666667 3:0.68702502 4:0.50811189 5:0.64983583 51:1 56:1 77:1 135:1 153:1 207:1 252:1 
-2 1:0.16666667 2:0.16666667 3:0.35833833 4:0.52181818 5:0.56650286 12:1 39:1 85:1 156:1 217:1 
-2 1:0.75 2:0.75 3:0.56570899 4:0.364 5:0.64782649 41:1 44:1 71:1 136:1 142:1 176:1 
-0.2612305976004174 1:0.91666667 2:0.91666667 3:0.30166821 4:0.33272727 5:0.62930797 19:1 92:1 103:1 122:1 164:1 188:1 252:1 
-0.09269637545041659 1:0.75 2:0.75 3:0.48057318 4:0.182 5:0.56168191 18:1 41:1 91:1 138:1 164:1 203:1 246:1 
-0.2279924036515985 1:0.41666667 2:0.41666667 3:0.70843373 4:0.2613986 5:0.91673559 6:1 77:1 99:1 164:1 181:1 256:1 
-2 1:0.41666667 2:0.41666667 3:0.37303058 4:0.324 5:0.68353093 12:1 24:1 42:1 101:1 176:1 194:1 253:1 
-1.074321717602232 1:0.5 2:0.5 3:0.14425121 4:0.62 5:0.67265119 13:1 55:1 72:1 117:1 206:1 216:1 251:1 
-1.46335019038958 1:0.33333333 2:0.33333333 3:0.3836886 4:0.37333333 5:0.64602602 13:1 54:1 129:1 144:1 208:1 217:1 
-2 1:0.25 2:0.25 3:0.37201112 4:0.62102564 5:0.38047974 14:1 96:1 155:1 168:1 208:1 240:1 
-2 1:0.66666667 2:0.66666667 3:0.30796489 4:0.196 5:0.70046546 14:1 76:1 103:1 206:1 236:1 
-0.2834702743287916 1:0.33333333 2:0.33333333 3:0.62891566 4:0.38769231 5:0.71215881 13:1 31:1 47:1 64:1 76:1 159:1 257:1 
-0.917879139537238 1:0.41666667 2:0.41666667 3:0.44052657 4:0.14 5:0.65987934 13:1 19:1 64:1 126:1 183:1 226:1 256:1 
-2 1:0.58333333 2:0.58333333 3:0.31696015 4:0.7 5:0.68899917 71:1 119:1 170:1 239:1 
-2 1:0.75 2:0.75 3:0.36411029 4:0.804 5:0.74263625 38:1 153:1 178:1 215:1 233:1 251:1 
-2 1:0.33333333 2:0.33333333 3:0.43725672 4:0.294 5:0.68256594 25:1 40:1 43:1 101:1 108:1 229:1 
-1.776316582779901 1:0.41666667 2:0.41666667 3:0.28637627 4:0.30969697 5:0.65796649 13:1 54:1 98:1 103:1 120:1 208:1 
-2 1:0.33333333 2:0.33333333 3:0.44823555 4:0.31015385 5:0.64966279 63:1 84:1 92:1 108:1 198:1 253:1 
-0.08085865464362392 1:0.33333333 2:0.33333333 3:0.26598703 4:0.504 5:0.71730539 26:1 101:1 121:1 157:1 213:1 228:1 252:1 
-0.8427832038038992 1:0.41666667 2:0.41666667 3:0.30796489 4:0.28 5:0.65221622 64:1 102:1 115:1 146:1 231:1 252:1 
-2 1:0.41666667 2:0.41666667 3:0.5883653 4:0.294 5:0.6647767 20:1 76:1 85:1 123:1 180:1 188:1 
-0.2867769763582898 1:0.33333333 2:0.33333333 3:0.43725672 4:0.294 5:0.68256594 42:1 101:1 176:1 192:1 205:1 240:1 253:1 
-0.9726222586898591 1:0.25 2:0.25 3:0.45542169 4:0.315 5:0.61373036 12:1 63:1 133:1 138:1 173:1 205:1 
-2 1:0.41666667 2:0.41666667 3:0.46605653 4:0.55333333 5:0.49300386 13:1 60:1 84:1 166:1 209:1 
-0.578471998507701 1:0.58333333 2:0.58333333 3:0.23744208 4:0.21 5:0.60987042 50:1 115:1 134:1 172:1 200:1 216:1 246:1 
-0.2183590734033658 1:0.66666667 2:0.66666667 3:0.28697596 4:0.644 5:0.70481736 24:1 53:1 86:1 130:1 156:1 187:1 249:1 
-0.08352385939014265 1:0.66666667 2:0.66666667 3:0.41482854 4:0.86333333 5:0.73173422 12:1 35:1 130:1 153:1 179:1 209:1 251:1 
-0.968564567561446 1:0.5 2:0.5 3:0.38535681 4:0.36076923 5:0.63987267 20:1 46:1 60:1 84:1 140:1 157:1 253:1 
-0.8055871074648019 1:0.58333333 2:0.58333333 3:0.50752121 4:0.588 5:0.65359165 14:1 65:1 112:1 116:1 143:1 191:1 251:1 
-1.402437780334939 1:0.16666667 2:0.16666667 3:0.4135408 4:0.18666667 5:0.66666667 13:1 19:1 76:1 88:1 112:1 183:1 256:1 
-0.5177644417872312 1:0.75 2:0.75 3:0.39341983 4:0.38606061 5:0.63675214 20:1 92:1 103:1 120:1 137:1 153:1 253:1 
-2 1:0.5 2:0.5 3:0.42373543 4:0.168 5:0.66369513 14:1 88:1 126:1 209:1 225:1 256:1 
-0.1621440682412474 1:0.41666667 2:0.41666667 3:0.38176374 4:0.504 5:0.60348667 14:1 39:1 85:1 106:1 121:1 161:1 251:1 
-0.3058410420322752 1:0.58333333 2:0.58333333 3:0.55983209 4:0.42 5:0.61645502 25:1 53:1 56:1 118:1 217:1 243:1 250:1 
-0.5613787265358781 1:0.5 2:0.5 3:0.38424467 4:0.25666667 5:0.72153295 16:1 74:1 78:1 106:1 180:1 198:1 
-0.9684722622661914 1:0.5 2:0.5 3:0.31636046 4:0.644 5:0.7530666 43:1 70:1 108:1 192:1 214:1 241:1 252:1 
-2 1:0.33333333 2:0.33333333 3:0.16056534 4:0.322 5:0.62684538 6:1 18:1 60:1 120:1 192:1 235:1 252:1 
-0.0362877379686286 1:0.83333333 2:0.83333333 3:0.46429208 4:0.384 5:0.64273557 77:1 92:1 123:1 151:1 199:1 236:1 
-2 1:0.58333333 2:0.58333333 3:0.19462465 4:0.252 5:0.70658334 13:1 110:1 158:1 174:1 213:1 
-2 1:0.91666667 2:0.91666667 3:0.40871177 4:0.56181818 5:0.38599393 59:1 92:1 154:1 176:1 250:1 
-0.8653515054308099 1:0.75 2:0.75 3:0.3626007 4:0.399 5:0.63541777 20:1 46:1 84:1 92:1 110:1 162:1 
-1.656212945431099 1:0.5 2:0.5 3:0.20403508 4:0.65333333 5:0.681555 24:1 35:1 74:1 83:1 218:1 
-0.2158326438533499 1:0.41666667 2:0.41666667 3:0.53359592 4:0.204 5:0.68690837 24:1 41:1 44:1 65:1 109:1 174:1 253:1 
-0.03802057649171372 1:0.5 2:0.5 3:0.23354958 4:0.38230769 5:0.58951801 14:1 75:1 85:1 121:1 213:1 238:1 246:1 
-2 1:0.16666667 2:0.16666667 3:0.54457475 4:0.392 5:0.64701221 37:1 65:1 75:1 84:1 144:1 180:1 
-2 1:0.58333333 2:0.58333333 3:0.3284291 4:0.66 5:0.56089744 24:1 46:1 61:1 122:1 154:1 179:1 
-2 1:0.41666667 2:0.41666667 3:0.62609254 4:0.567 5:0.63971072 41:1 51:1 65:1 86:1 195:1 251:1 
-2 1:0.5 2:0.5 3:0.38535681 4:0.29615385 5:0.64704113 31:1 102:1 128:1 192:1 207:1 253:1 
-2 1:0.75 2:0.75 3:0.25961538 4:0.52666667 5:0.52367659 25:1 31:1 57:1 107:1 117:1 210:1 251:1 
-0.4666981133683395 1:0.58333333 2:0.58333333 3:0.59221501 4:0.5775 5:0.64791839 10:1 31:1 51:1 155:1 165:1 219:1 255:1 
-0.9756627309856047 1:0.5 2:0.5 3:0.52205201 4:0.22 5:0.65221622 13:1 88:1 116:1 144:1 233:1 236:1 
-0.3545075152229444 1:0.75 2:0.75 3:0.31696015 4:0.42848485 5:0.54177006 11:1 43:1 84:1 169:1 176:1 212:1 250:1 
-0.2230963735182837 1:0.33333333 2:0.33333333 3:0.41859271 4:0.39415385 5:0.63983797 64:1 98:1 107:1 120:1 221:1 228:1 246:1 
-0.6708192165384594 1:0.41666667 2:0.41666667 3:0.21408712 4:0.13 5:0.682332 85:1 90:1 126:1 158:1 210:1 253:1 
-0.366286916734886 1:0.25 2:0.25 3:0.51065802 4:0.364 5:0.65527066 13:1 42:1 101:1 108:1 135:1 174:1 252:1 
-0.06489494776337748 1:0.41666667 2:0.41666667 3:0.50046339 4:0.46242424 5:0.617866 13:1 54:1 83:1 104:1 208:1 240:1 251:1 
-2 1:0.5 2:0.5 3:0.31636046 4:0.364 5:0.68154419 42:1 86:1 99:1 254:1 
-2 1:0.58333333 2:0.58333333 3:0.40871177 4:0.51333333 5:0.60711332 13:1 56:1 83:1 207:1 225:1 
-2 1:0.41666667 2:0.41666667 3:0.49953661 4:0.37 5:0.6463059 46:1 66:1 120:1 162:1 207:1 252:1 
-1.689593954750887 1:0.33333333 2:0.33333333 3:0.40871177 4:0.44181818 5:0.52109181 24:1 36:1 108:1 128:1 138:1 169:1 251:1 
-0.2173494631178388 1:0.41666667 2:0.41666667 3:0.21246525 4:0.684 5:0.73419263 110:1 135:1 206:1 215:1 242:1 252:1 
-2 1:0.66666667 2:0.66666667 3:0.42988522 4:0.41066667 5:0.63867377 20:1 46:1 84:1 92:1 253:1 
-0.6465290406084917 1:0.33333333 2:0.33333333 3:0.40871177 4:0.40909091 5:0.63817664 75:1 99:1 134:1 181:1 189:1 256:1 
-2 1:0.25 2:0.25 3:0.50046339 4:0.3625641 5:0.63973899 97:1 193:1 208:1 217:1 241:1 250:1 
-0.1158522500805416 1:0.58333333 2:0.58333333 3:0.52548656 4:0.35 5:0.65031205 32:1 46:1 120:1 164:1 207:1 210:1 253:1 
-2 1:0.5 2:0.5 3:0.34142725 4:0.39666667 5:0.63964709 63:1 81:1 100:1 121:1 175:1 
-0.4306860020690964 1:0.58333333 2:0.58333333 3:0.40871177 4:0.63 5:0.60987042 17:1 120:1 143:1 165:1 175:1 195:1 
-1.181651524511073 1:0.66666667 2:0.66666667 3:0.46758573 4:0.57 5:0.68586297 81:1 120:1 161:1 175:1 245:1 251:1 
-1.314862861672378 1:0.5 2:0.5 3:0.16992229 4:0.35127273 5:0.62498674 12:1 75:1 91:1 182:1 218:1 224:1 253:1 
-0.8694942066971508 1:0.66666667 2:0.66666667 3:0.36200185 4:0.31769231 5:0.75953079 12:1 81:1 90:1 128:1 138:1 225:1 256:1 
-2 1:0.16666667 2:0.16666667 3:0.4135408 4:0.65333333 5:0.60711332 12:1 51:1 87:1 93:1 111:1 183:1 256:1 
-0.1669699857814016 1:0.58333333 2:0.58333333 3:0.70514009 4:0.336 5:0.58678501 41:1 42:1 58:1 76:1 196:1 238:1 
-2 1:0.83333333 2:0.83333333 3:0.48861031 4:0.84 5:0.62373111 12:1 20:1 65:1 93:1 128:1 225:1 
-1.943047043737485 1:0.66666667 2:0.66666667 3:0.21408712 4:0.41363636 5:0.62657733 7:1 47:1 68:1 84:1 211:1 253:1 
-2 1:0.5 2:0.5 3:0.37342268 4:0.48533333 5:0.63507667 39:1 62:1 71:1 93:1 136:1 222:1 
-2 1:0.41666667 2:0.41666667 3:0.24814643 4:0.43292308 5:0.67307692 12:1 121:1 130:1 179:1 241:1 246:1 
-0.003852642962833882 1:0.25 2:0.25 3:0.48656163 4:0.525 5:0.67548939 13:1 27:1 63:1 68:1 109:1 131:1 252:1 
-1.059990917878449 1:0.25 2:0.25 3:0.41890639 4:0.644 5:0.76693319 25:1 135:1 176:1 192:1 215:1 240:1 252:1 
-0.6403004412778555 1:0.33333333 2:0.33333333 3:0.52205201 4:0.23333333 5:0.65221622 14:1 28:1 88:1 101:1 172:1 178:1 253:1 
-1.184756614053097 1:0.41666667 2:0.41666667 3:0.21768019 4:0.651 5:0.67286661 24:1 71:1 122:1 172:1 205:1 213:1 251:1 
-2 1:0.25 2:0.25 3:0.50046339 4:0.55641026 5:0.55610698 12:1 25:1 144:1 208:1 251:1 
