svm_type c_svc
kernel_type rbf
gamma 0.0625
nr_class 2
total_sv 552
rho 10.603
label 1 0
probA -4.49995
probB 0.157568
nr_sv 254 298
SV
1.836513986379546 1:0.61538462 2:0.61538462 3:0.2810219 4:0.4476584 5:0.63511527 47:1 127:1 138:1 
0.6516097594961257 1:0.61538462 2:0.61538462 3:0.46836983 4:0.4476584 5:0.64682478 46:1 128:1 233:1 253:1 
0.6219486344015165 1:0.38461538 2:0.38461538 3:0.18734793 4:0.33549784 5:0.63431689 62:1 85:1 102:1 252:1 
2 1:0.38461538 2:0.38461538 3:0.43714517 4:0.4004329 5:0.64884733 120:1 157:1 233:1 
2 1:0.38461538 2:0.38461538 3:0.18734793 4:0.33549784 5:0.63431689 138:1 158:1 193:1 252:1 
2 1:0.53846154 2:0.53846154 3:0.45985401 4:0.3030303 5:0.66458259 128:1 162:1 233:1 253:1 
1.365570187194136 1:0.61538462 2:0.61538462 3:0.37469586 4:0.4476584 5:0.64097002 92:1 122:1 233:1 
2 1:0.61538462 2:0.61538462 3:0.46266143 4:0.33333333 5:0.67034621 42:1 154:1 221:1 246:1 
2 1:0.53846154 2:0.53846154 3:0.35766423 4:0.27272727 5:0.67634719 6:1 42:1 219:1 247:1 
0.2150642921623243 1:0.53846154 2:0.53846154 3:0.35766423 4:0.60606061 5:0.65125698 165:1 203:1 221:1 252:1 
1.443276501060412 1:0.61538462 2:0.61538462 3:0.47295527 4:0.52066116 5:0.64421564 23:1 44:1 190:1 256:1 
0.2771118868384314 1:0.46153846 2:0.46153846 3:0.52798054 4:0.55096419 5:0.64585705 22:1 75:1 191:1 256:1 
1.425414404260319 1:0.61538462 2:0.61538462 3:0.47295527 4:0.61157025 5:0.63776721 22:1 164:1 191:1 255:1 
1.595258734101831 1:0.30769231 2:0.30769231 3:0.23276561 4:0.44273908 5:0.62587346 180:1 218:1 241:1 255:1 
0.7660504143625524 1:0.46153846 2:0.46153846 3:0.42579075 4:0.47520661 5:0.64455062 79:1 112:1 191:1 255:1 
0.3765631885632425 1:0.53846154 2:0.53846154 3:0.4513382 4:0.53719008 5:0.64100458 78:1 142:1 191:1 255:1 
2 1:0.38461538 2:0.38461538 3:0.3980161 4:0.31818182 5:0.69005469 15:1 172:1 229:1 247:1 
2 1:0.53846154 2:0.53846154 3:0.28272506 4:0.45454545 5:0.63183467 50:1 105:1 171:1 246:1 
2 1:0.61538462 2:0.61538462 3:0.37639903 4:0.29220779 5:0.71326901 50:1 173:1 198:1 248:1 
0.3293257287796315 1:0.46153846 2:0.46153846 3:0.33625304 4:0.47979798 5:0.63484569 105:1 171:1 216:1 246:1 
0.6661496868947465 1:0.53846154 2:0.53846154 3:0.35766423 4:0.56818182 5:0.63055727 106:1 171:1 230:1 
2 1:0.84615385 2:0.84615385 3:0.42077091 4:0.45454545 5:0.64595331 32:1 80:1 106:1 248:1 
2 1:0.53846154 2:0.53846154 3:0.43260341 4:0.34090909 5:0.68165332 17:1 59:1 198:1 246:1 
0.8831957808629073 1:0.76923077 2:0.76923077 3:0.49505272 4:0.22727273 5:0.61906065 142:1 176:1 222:1 250:1 
0.1699877811418949 1:0.53846154 2:0.53846154 3:0.28272506 4:0.56818182 5:0.68165332 121:1 143:1 175:1 251:1 
1.751492603908087 1:0.46153846 2:0.46153846 3:0.37907543 4:0.42929293 5:0.63484569 121:1 137:1 222:1 251:1 
0.08144465081757753 1:0.61538462 2:0.61538462 3:0.39513382 4:0.66558442 5:0.64716348 17:1 21:1 213:1 255:1 
1.620752310628629 1:0.61538462 2:0.61538462 3:0.53564477 4:0.53571429 5:0.66392938 17:1 34:1 214:1 256:1 
1.238715486894492 1:0.53846154 2:0.53846154 3:0.43260341 4:0.56818182 5:0.65099569 16:1 21:1 35:1 257:1 
2 1:0.38461538 2:0.38461538 3:0.37639903 4:0.27018436 5:0.65688086 12:1 31:1 51:1 77:1 78:1 102:1 253:1 
2 1:0.38461538 2:0.38461538 3:0.15158151 4:0.27018436 5:0.6070622 12:1 31:1 52:1 55:1 181:1 253:1 
1.240683620749354 1:0.30769231 2:0.30769231 3:0.4513382 4:0.42502952 5:0.64873743 51:1 120:1 209:1 253:1 
2 1:0.46153846 2:0.46153846 3:0.31508516 4:0.39256198 5:0.63719727 92:1 102:1 120:1 245:1 254:1 264:1 
2 1:0.61538462 2:0.61538462 3:0.39369268 4:0.34710744 5:0.64855318 32:1 56:1 75:1 78:1 153:1 253:1 
2 1:0.38461538 2:0.38461538 3:0.37639903 4:0.27018436 5:0.65688086 18:1 51:1 54:1 76:1 153:1 253:1 
1.172927560462862 1:0.46153846 2:0.46153846 3:0.40762368 4:0.61438561 5:0.70677555 47:1 167:1 204:1 257:1 
0.7680872477418066 1:0.53846154 2:0.53846154 3:0.24525547 4:0.38461538 5:0.86368302 81:1 91:1 205:1 256:1 
0.06931238732452041 1:0.61538462 2:0.61538462 3:0.4189781 4:0.34382284 5:0.72990426 19:1 76:1 127:1 257:1 
0.7941857729616306 1:0.30769231 2:0.30769231 3:0.48540146 4:0.40909091 5:0.80802897 63:1 76:1 84:1 246:1 
0.4097470466509912 1:0.46153846 2:0.46153846 3:0.42919708 4:0.41375291 5:0.74192344 76:1 162:1 191:1 
1.277411142258216 1:0.46153846 2:0.46153846 3:0.6540146 4:0.48368298 5:0.69210479 41:1 75:1 137:1 
1.215228011125448 1:0.46153846 2:0.46153846 3:0.54160584 4:0.41375291 5:0.81665142 40:1 76:1 191:1 248:1 
0.1397225605174729 1:0.61538462 2:0.61538462 3:0.48540146 4:0.42011019 5:0.7505459 18:1 63:1 214:1 248:1 
2 1:0.15384615 2:0.15384615 3:0.36189013 4:0.50505051 5:0.49168549 12:1 76:1 183:1 208:1 255:1 
0.664937868880479 1:0.38461538 2:0.38461538 3:0.38550541 4:0.60606061 5:0.59385076 12:1 20:1 63:1 75:1 93:1 256:1 
1.92497161440862 1:0.38461538 2:0.38461538 3:0.45162821 4:0.60606061 5:0.60399483 12:1 20:1 41:1 88:1 93:1 219:1 255:1 
1.407995564478775 1:0.23076923 2:0.23076923 3:0.42077091 4:0.56818182 5:0.58584822 12:1 20:1 40:1 87:1 243:1 255:1 
1.675473403154047 1:0.30769231 2:0.30769231 3:0.26152516 4:0.51948052 5:0.48860604 12:1 18:1 76:1 192:1 225:1 255:1 
2 1:0.61538462 2:0.61538462 3:0.34583173 4:0.60606061 5:0.58776432 12:1 18:1 41:1 95:1 127:1 225:1 
1.027394443549632 1:0.30769231 2:0.30769231 3:0.33178064 4:0.51948052 5:0.51375488 14:1 75:1 111:1 126:1 255:1 
2 1:0.23076923 2:0.23076923 3:0.34583173 4:0.45454545 5:0.63949908 14:1 64:1 95:1 123:1 160:1 256:1 
1.73451829014346 1:0.46153846 2:0.46153846 3:0.30836215 4:0.54545455 5:0.54369397 14:1 41:1 160:1 192:1 225:1 
1.311639855221425 1:0.38461538 2:0.38461538 3:0.31938261 4:0.45454545 5:0.63949908 14:1 19:1 39:1 75:1 88:1 93:1 256:1 
1.463898022963443 1:0.46153846 2:0.46153846 3:0.30836215 4:0.54545455 5:0.54369397 14:1 19:1 39:1 208:1 225:1 255:1 
2 1:0.84615385 2:0.84615385 3:0.31650771 4:0.45454545 5:0.63949908 14:1 19:1 93:1 127:1 225:1 257:1 
2 1:0.76923077 2:0.76923077 3:0.32539378 5:0.65778914 14:1 19:1 76:1 93:1 128:1 225:1 
2 1:0.53846154 2:0.53846154 3:0.29850173 4:0.68181818 5:0.60016856 14:1 19:1 41:1 93:1 192:1 207:1 
1.788782123028162 1:0.61538462 2:0.61538462 3:0.34583173 4:0.60606061 5:0.58776432 14:1 19:1 41:1 93:1 148:1 225:1 255:1 
2 1:0.53846154 2:0.53846154 3:0.41682674 4:0.45454545 5:0.63949908 14:1 19:1 41:1 113:1 183:1 
0.8031514383761139 1:0.38461538 2:0.38461538 3:0.25325981 4:0.45454545 5:0.63949908 14:1 19:1 40:1 63:1 93:1 192:1 256:1 
2 1:0.46153846 2:0.46153846 3:0.30836215 4:0.36363636 5:0.73530418 14:1 18:1 39:1 93:1 111:1 126:1 
1.849304289479826 1:0.30769231 2:0.30769231 3:0.33178064 4:0.51948052 5:0.51375488 14:1 18:1 39:1 207:1 257:1 276:1 
2 1:0.30769231 2:0.30769231 3:0.33178064 4:0.64935065 5:0.59758434 14:1 18:1 111:1 219:1 227:1 255:1 
0.3481856436651051 1:0.38461538 2:0.38461538 3:0.25325981 4:0.3030303 5:0.70543553 14:1 18:1 76:1 93:1 192:1 256:1 
1.410391484661681 1:0.53846154 2:0.53846154 3:0.35766423 4:0.45454545 5:0.63949908 14:1 18:1 41:1 93:1 227:1 256:1 
1.882985887045616 1:0.23076923 2:0.23076923 3:0.34583173 4:0.45454545 5:0.63949908 112:1 192:1 243:1 256:1 
1.068998389759366 1:0.53846154 2:0.53846154 3:0.47598924 4:0.45454545 5:0.63949908 19:1 51:1 65:1 93:1 112:1 257:1 
1.330284119459027 1:0.38461538 2:0.38461538 3:0.45162821 4:0.3030303 5:0.67500332 19:1 40:1 53:1 64:1 88:1 93:1 255:1 
2 1:0.38461538 2:0.38461538 3:0.45162821 4:0.3030303 5:0.67500332 20:1 75:1 160:1 208:1 
0.6955454743087677 1:0.46153846 2:0.46153846 3:0.37081146 4:0.36363636 5:0.71933666 20:1 87:1 93:1 244:1 265:1 
1.055016093222017 1:0.30769231 2:0.30769231 3:0.40203611 4:0.38961039 5:0.74009444 20:1 76:1 160:1 192:1 255:1 
2 1:0.38461538 2:0.38461538 3:0.38550541 4:0.45454545 5:0.63949908 20:1 52:1 75:1 93:1 192:1 256:1 
2 1:0.69230769 2:0.69230769 3:0.49571008 5:0.64907959 20:1 52:1 128:1 225:1 257:1 
2 1:0.53846154 2:0.53846154 3:0.47598924 4:0.22727273 5:0.66067705 20:1 41:1 88:1 93:1 172:1 225:1 256:1 
2 1:0.076923077 2:0.076923077 3:0.29395077 4:0.54545455 5:0.54000916 13:1 39:1 51:1 64:1 192:1 255:1 
1.331113972099036 1:0.30769231 2:0.30769231 3:0.33178064 4:0.64935065 5:0.59758434 13:1 41:1 192:1 227:1 255:1 
1.495581701906643 1:0.53846154 2:0.53846154 3:0.35766423 4:0.68181818 5:0.60621941 13:1 19:1 63:1 93:1 227:1 257:1 
1.510883617730465 1:0.53846154 2:0.53846154 3:0.35766423 4:0.22727273 5:0.67277874 13:1 19:1 75:1 93:1 128:1 256:1 
2 1:0.61538462 2:0.61538462 3:0.23342297 4:0.3030303 5:0.70847875 13:1 19:1 194:1 209:1 225:1 266:1 
2 1:0.23076923 2:0.23076923 3:0.34583173 4:0.11363636 5:0.6624923 13:1 19:1 52:1 88:1 160:1 256:1 
0.8169761246916533 1:0.46153846 2:0.46153846 3:0.30836215 4:0.18181818 5:0.67143411 13:1 19:1 40:1 225:1 244:1 
2 1:0.46153846 2:0.46153846 3:0.43326077 4:0.18181818 5:0.6607891 13:1 20:1 41:1 128:1 192:1 256:1 
0.1093868139122641 1:0.23076923 2:0.23076923 3:0.34583173 4:0.22727273 5:0.67398891 13:1 18:1 88:1 183:1 256:1 
1.203020071666188 1:0.38461538 2:0.38461538 3:0.38550541 5:0.65471518 13:1 18:1 52:1 126:1 257:1 
1.76898907517545 1:0.23076923 2:0.23076923 3:0.27089256 4:0.45454545 5:0.63949908 13:1 18:1 40:1 93:1 192:1 207:1 255:1 
2 1:0.30769231 2:0.30769231 3:0.16743403 4:0.40559441 5:0.62845692 12:1 45:1 84:1 144:1 162:1 253:1 
0.4390468139225876 1:0.46153846 2:0.46153846 3:0.2423732 4:0.54545455 5:0.62973433 12:1 45:1 144:1 164:1 252:1 
0.0711423475530691 1:0.30769231 2:0.30769231 3:0.39225154 4:0.47552448 5:0.64053417 12:1 75:1 180:1 236:1 252:1 
0.9874133278908707 1:0.076923077 2:0.076923077 3:0.29590118 4:0.48863636 5:0.6342313 12:1 84:1 108:1 123:1 216:1 252:1 
2 1:0.23076923 2:0.23076923 3:0.2423732 4:0.35064935 5:0.63691971 12:1 86:1 123:1 216:1 222:1 253:1 
2 1:0.61538462 2:0.61538462 3:0.29590118 4:0.44444444 5:0.63599098 12:1 86:1 92:1 164:1 
1.95347432185205 1:0.23076923 2:0.23076923 3:0.36727182 4:0.35064935 5:0.64809697 12:1 76:1 123:1 235:1 252:1 265:1 
2 1:0.38461538 2:0.38461538 3:0.4126895 4:0.46969697 5:0.64210189 12:1 20:1 75:1 216:1 236:1 252:1 
0.8300922120122848 1:0.38461538 2:0.38461538 3:0.20830994 4:0.31818182 5:0.63583101 12:1 20:1 37:1 84:1 223:1 253:1 
0.5656252561760527 1:0.46153846 2:0.46153846 3:0.33604716 4:0.38016529 5:0.64273645 12:1 20:1 37:1 84:1 164:1 
2 1:0.38461538 2:0.38461538 3:0.20830994 4:0.31818182 5:0.63583101 12:1 18:1 84:1 146:1 200:1 253:1 
1.480459272195921 1:0.38461538 2:0.38461538 3:0.20830994 4:0.24242424 5:0.64366961 12:1 18:1 84:1 222:1 235:1 253:1 
1.456564718926595 1:0.30769231 2:0.30769231 3:0.39225154 4:0.33566434 5:0.65218009 14:1 76:1 124:1 216:1 
1.540752917655973 1:0.46153846 2:0.46153846 3:0.055025267 4:0.38016529 5:0.62015381 14:1 19:1 38:1 84:1 234:1 264:1 
2 1:0.53846154 2:0.53846154 3:0.18472768 4:0.36363636 5:0.63120825 14:1 20:1 38:1 216:1 236:1 253:1 
2 1:0.38461538 2:0.38461538 3:0.4126895 4:0.46969697 5:0.64210189 36:1 46:1 64:1 75:1 266:1 
2 1:0.30769231 2:0.30769231 3:0.39225154 4:0.47552448 5:0.64053417 36:1 75:1 144:1 188:1 252:1 
2 1:0.38461538 2:0.38461538 3:0.51487928 4:0.46969697 5:0.64837277 47:1 65:1 75:1 222:1 264:1 
2 1:0.53846154 2:0.53846154 3:0.35766423 4:0.54545455 5:0.63563002 45:1 63:1 144:1 152:1 
2 1:0.38461538 2:0.38461538 3:0.10612016 4:0.46969697 5:0.62328925 45:1 84:1 146:1 180:1 253:1 
2 1:0.61538462 2:0.61538462 3:0.37619315 4:0.44444444 5:0.64127004 45:1 76:1 128:1 200:1 252:1 
2 1:0.38461538 2:0.38461538 3:0.51487928 4:0.54545455 5:0.64366961 46:1 75:1 123:1 128:1 144:1 252:1 
2 1:0.38461538 2:0.38461538 3:0.31049972 4:0.54545455 5:0.63321815 46:1 84:1 180:1 188:1 216:1 252:1 
2 1:0.30769231 2:0.30769231 3:0.27984278 4:0.40559441 5:0.63676003 63:1 84:1 162:1 216:1 254:1 
1.329837063123267 1:0.46153846 2:0.46153846 3:0.5233951 4:0.46280992 5:0.6494276 63:1 77:1 152:1 276:1 
0.4695595372671185 1:0.38461538 2:0.38461538 3:0.61706906 4:0.46969697 5:0.65464365 63:1 77:1 125:1 252:1 
0.8093175429040952 1:0.30769231 2:0.30769231 3:0.39225154 4:0.33566434 5:0.65218009 75:1 144:1 222:1 265:1 
0.8458857730311925 1:0.30769231 2:0.30769231 3:0.39225154 4:0.40559441 5:0.64506314 85:1 123:1 144:1 236:1 252:1 
2 1:0.30769231 2:0.30769231 3:0.39225154 4:0.33566434 5:0.65218009 76:1 84:1 152:1 217:1 252:1 
2 1:0.15384615 2:0.15384615 3:0.47655811 4:0.36363636 5:0.65608073 64:1 75:1 180:1 216:1 253:1 
2 1:0.38461538 2:0.38461538 3:0.4126895 4:0.39393939 5:0.64758891 64:1 84:1 164:1 180:1 200:1 216:1 
2 1:0.23076923 2:0.23076923 3:0.36727182 4:0.28571429 5:0.65741136 13:1 18:1 36:1 123:1 222:1 252:1 
1.235767185486175 1:0.53846154 2:0.53846154 3:0.48990983 4:0.3030303 5:0.65471518 40:1 46:1 101:1 116:1 253:1 
2 1:0.61538462 2:0.61538462 3:0.45684843 4:0.57575758 5:0.65471518 29:1 45:1 65:1 116:1 264:1 
2 1:0.38461538 2:0.38461538 3:0.25060827 4:0.54637282 5:0.49716006 12:1 24:1 30:1 76:1 105:1 251:1 
2 1:0.30769231 2:0.30769231 3:0.28467153 4:0.35353535 5:0.62606148 12:1 26:1 30:1 42:1 75:1 88:1 
1.295279278772994 1:0.53846154 2:0.53846154 3:0.27737226 4:0.55555556 5:0.52863888 12:1 30:1 42:1 57:1 107:1 251:1 
1.900974415452463 1:0.61538462 2:0.61538462 3:0.1756691 4:0.39141414 5:0.65619654 14:1 26:1 43:1 100:1 249:1 
2 1:0.69230769 2:0.69230769 3:0.15693431 4:0.31024531 5:0.63607747 14:1 25:1 31:1 43:1 117:1 
2 1:0.61538462 2:0.61538462 3:0.32554745 4:0.39141414 5:0.6255389 57:1 105:1 210:1 232:1 
2 1:0.61538462 2:0.61538462 3:0.47542579 4:0.61868687 5:0.61021009 32:1 58:1 76:1 107:1 251:1 
0.3886807487464453 1:0.69230769 2:0.69230769 3:0.4379562 4:0.31024531 5:0.60254568 32:1 42:1 57:1 89:1 
0.5459238297634654 1:0.61538462 2:0.61538462 3:0.25060827 4:0.39141414 5:0.64086772 25:1 31:1 42:1 57:1 251:1 
0.4569319993243114 1:0.38461538 2:0.38461538 3:0.34428224 4:0.62901745 5:0.58498141 13:1 100:1 107:1 119:1 251:1 
0.5998883316964246 1:0.38461538 2:0.38461538 3:0.32643958 4:0.48051948 5:0.6187413 12:1 24:1 100:1 141:1 176:1 253:1 
2 1:0.23076923 2:0.23076923 3:0.28629359 4:0.7979798 5:0.7415087 12:1 71:1 120:1 168:1 240:1 
2 1:0.23076923 2:0.23076923 3:0.28629359 4:0.5959596 5:0.83019686 12:1 69:1 84:1 100:1 156:1 241:1 
1.330425836899533 1:0.61538462 2:0.61538462 3:0.25248645 4:0.54545455 5:0.71933666 12:1 69:1 109:1 176:1 213:1 
1.23023048423889 1:0.30769231 2:0.30769231 3:0.30770479 4:0.77272727 5:0.74616209 12:1 108:1 135:1 215:1 254:1 
1.161342445601495 1:0.23076923 2:0.23076923 3:0.44687753 4:0.5959596 5:0.90410365 12:1 101:1 135:1 241:1 252:1 
0.8765229029489553 1:0.38461538 2:0.38461538 3:0.32643958 4:0.74025974 5:0.75286845 12:1 101:1 141:1 156:1 240:1 
2 1:0.15384615 2:0.15384615 3:0.34805665 4:0.72727273 5:0.75802719 12:1 100:1 108:1 143:1 156:1 252:1 
2 1:0.23076923 2:0.23076923 3:0.36658556 4:0.5959596 5:0.86715025 12:1 100:1 109:1 120:1 143:1 
2 1:0.53846154 2:0.53846154 3:0.29521492 4:0.63636364 5:0.78320673 14:1 24:1 41:1 143:1 176:1 254:1 
0.6077868322215162 1:0.30769231 2:0.30769231 3:0.38264396 4:0.77272727 5:0.7538265 24:1 84:1 101:1 143:1 252:1 
1.032511743317549 1:0.46153846 2:0.46153846 3:0.27684748 4:0.39393939 5:0.68383242 24:1 110:1 121:1 176:1 
1.127808299832744 1:0.53846154 2:0.53846154 3:0.42011354 4:0.45454545 5:0.62353156 24:1 41:1 44:1 176:1 252:1 
0.3993921516134597 1:0.61538462 2:0.61538462 3:0.19332394 4:1 5:0.72690022 26:1 69:1 143:1 213:1 252:1 
2 1:0.61538462 2:0.61538462 3:0.31164895 4:0.31818182 5:0.69210784 26:1 101:1 122:1 176:1 
0.02472606721271745 1:0.46153846 2:0.46153846 3:0.34297028 4:0.6969697 5:0.76498498 39:1 70:1 141:1 241:1 252:1 
2 1:0.23076923 2:0.23076923 3:0.36658556 4:0.6969697 5:0.76860786 71:1 84:1 100:1 240:1 252:1 
2 1:0.30769231 2:0.30769231 3:0.38264396 4:0.65909091 5:0.78831634 71:1 101:1 168:1 240:1 253:1 
2 1:0.53846154 2:0.53846154 3:0.42011354 4:0.45454545 5:0.62353156 71:1 85:1 101:1 176:1 
2 1:0.46153846 2:0.46153846 3:0.27684748 4:0.54545455 5:0.71933666 69:1 84:1 101:1 122:1 241:1 
1.330829569525359 1:0.38461538 2:0.38461538 3:0.32643958 4:0.48051948 5:0.6187413 69:1 85:1 100:1 168:1 
2 1:0.53846154 2:0.53846154 3:0.35766423 4:0.63636364 5:0.79917425 70:1 86:1 101:1 122:1 136:1 142:1 252:1 
0.3377260395418854 1:0.46153846 2:0.46153846 3:0.40909308 4:0.6969697 5:0.77512905 70:1 99:1 192:1 
1.948904152158051 1:0.46153846 2:0.46153846 3:0.27684748 4:0.39393939 5:0.68383242 86:1 100:1 206:1 
2 1:0.23076923 2:0.23076923 3:0.44687753 4:0.7979798 5:0.75629006 99:1 120:1 135:1 143:1 252:1 
2 1:0.30769231 2:0.30769231 3:0.30770479 4:0.65909091 5:0.77298752 99:1 120:1 141:1 156:1 253:1 
0.7122188961629947 1:0.53846154 2:0.53846154 3:0.23276561 4:0.63636364 5:0.76723922 99:1 170:1 213:1 254:1 
2 1:0.15384615 2:0.15384615 3:0.26158837 4:0.63636364 5:0.77460884 108:1 120:1 192:1 240:1 253:1 
2 1:0.46153846 2:0.46153846 3:0.34297028 4:0.6969697 5:0.76498498 108:1 143:1 176:1 204:1 
2 1:0.46153846 2:0.46153846 3:0.27684748 4:0.54545455 5:0.71933666 110:1 120:1 176:1 240:1 
0.7978083665819442 1:0.53846154 2:0.53846154 3:0.23276561 4:0.81818182 5:0.73530418 141:1 156:1 214:1 228:1 254:1 
2 1:0.30769231 2:0.30769231 3:0.45758313 4:0.54545455 5:0.71933666 101:1 120:1 135:1 229:1 
1.28687138958061 1:0.30769231 2:0.30769231 3:0.38264396 4:0.54545455 5:0.71933666 101:1 121:1 168:1 252:1 
0.8963408285299782 1:0.53846154 2:0.53846154 3:0.42011354 4:0.63636364 5:0.81514177 65:1 70:1 215:1 253:1 
1.014965391258574 1:0.46153846 2:0.46153846 3:0.40909308 4:0.54545455 5:0.71933666 65:1 86:1 135:1 
2 1:0.46153846 2:0.46153846 3:0.40909308 4:0.54545455 5:0.71933666 64:1 70:1 86:1 101:1 122:1 136:1 142:1 252:1 
0.6924399943611984 1:0.30769231 2:0.30769231 3:0.38264396 4:0.20454545 5:0.69634344 64:1 109:1 174:1 253:1 
0.1107172009851429 1:0.38461538 2:0.38461538 3:0.2561841 4:0.74025974 5:0.7444855 43:1 108:1 215:1 252:1 276:1 
2 1:0.38461538 2:0.38461538 3:0.2561841 4:0.48051948 5:0.64389014 43:1 204:1 228:1 241:1 
2 1:0.53846154 2:0.53846154 3:0.29521492 4:0.63636364 5:0.78320673 44:1 71:1 215:1 253:1 278:1 
2 1:0.69230769 2:0.69230769 3:0.2702352 4:0.39393939 5:0.68484683 44:1 141:1 158:1 214:1 253:1 
2 1:0.38461538 2:0.38461538 3:0.32643958 4:0.48051948 5:0.6187413 42:1 99:1 141:1 156:1 253:1 
1.480443816757121 1:0.53846154 2:0.53846154 3:0.29521492 4:0.45454545 5:0.65546659 42:1 100:1 141:1 215:1 254:1 
2 1:0.38461538 2:0.38461538 3:0.39669505 4:0.48051948 5:0.59359246 41:1 43:1 63:1 192:1 253:1 
0.6372131014198452 1:0.53846154 2:0.53846154 3:0.35766423 4:0.63636364 5:0.79917425 40:1 71:1 176:1 215:1 254:1 
2 1:0.38461538 2:0.38461538 3:0.2561841 4:0.48051948 5:0.64389014 13:1 24:1 141:1 176:1 192:1 253:1 
1.729277841765994 1:0.38461538 2:0.38461538 3:0.32643958 4:0.61038961 5:0.81993202 13:1 42:1 143:1 215:1 252:1 
2 1:0.38461538 2:0.38461538 3:0.39669505 4:0.61038961 5:0.84508086 13:1 41:1 204:1 214:1 252:1 
1.295090164669899 1:0.38461538 2:0.38461538 3:0.46346071 4:0.37878788 5:0.64051348 25:1 40:1 53:1 100:1 249:1 
2 1:0.23076923 2:0.23076923 3:0.50072993 4:0.49242424 5:0.65569885 12:1 24:1 39:1 52:1 63:1 236:1 
1.700794681335464 1:0.23076923 2:0.23076923 3:0.39854015 4:0.56818182 5:0.63218305 12:1 24:1 51:1 63:1 229:1 250:1 
2 1:0.38461538 2:0.38461538 3:0.28848961 4:0.52272727 5:0.62203307 12:1 26:1 40:1 195:1 206:1 250:1 
1.484703852193969 1:0.23076923 2:0.23076923 3:0.29635036 4:0.41666667 5:0.63218305 12:1 25:1 40:1 64:1 235:1 251:1 264:1 
1.839031033935515 1:0.53846154 2:0.53846154 3:0.35766423 4:0.68181818 5:0.62417026 14:1 24:1 41:1 119:1 236:1 251:1 
2 1:0.38461538 2:0.38461538 3:0.28848961 4:0.52272727 5:0.62203307 14:1 26:1 51:1 64:1 68:1 204:1 251:1 
2 1:0.23076923 2:0.23076923 3:0.39854015 4:0.56818182 5:0.63218305 14:1 26:1 40:1 51:1 63:1 195:1 251:1 
2 1:0.53846154 2:0.53846154 3:0.35766423 4:0.45454545 5:0.63949908 14:1 25:1 53:1 65:1 158:1 250:1 
2 1:0.38461538 2:0.38461538 3:0.63436272 4:0.52272727 5:0.66625081 24:1 39:1 53:1 65:1 196:1 250:1 
1.026595437415693 1:0.61538462 2:0.61538462 3:0.38576642 4:0.66558442 5:0.62656539 24:1 51:1 117:1 140:1 250:1 
2 1:0.30769231 2:0.30769231 3:0.33892944 4:0.71280992 5:0.62236061 24:1 111:1 204:1 215:1 228:1 250:1 
2 1:0.46153846 2:0.46153846 3:0.24525547 4:0.39141414 5:0.61650585 13:1 26:1 40:1 175:1 204:1 250:1 
2 1:0.38461538 2:0.38461538 3:0.20202134 4:0.61363636 5:0.61282104 13:1 25:1 119:1 132:1 213:1 251:1 
2 1:0.38461538 2:0.38461538 3:0.20202134 4:0.40909091 5:0.62247525 14:1 24:1 36:1 44:1 174:1 252:1 
1.451314402037844 1:0.30769231 2:0.30769231 3:0.24525547 4:0.4338843 5:0.62800246 24:1 84:1 92:1 229:1 252:1 
2 1:0.30769231 2:0.30769231 3:0.24525547 4:0.4338843 5:0.62800246 36:1 68:1 85:1 123:1 228:1 254:1 
2 1:0.30769231 2:0.30769231 3:0.33892944 4:0.51652893 5:0.63553001 36:1 44:1 84:1 92:1 111:1 228:1 252:1 
0.3768371133900121 1:0.30769231 2:0.30769231 3:0.24525547 4:0.4338843 5:0.62800246 85:1 228:1 239:1 253:1 
2 1:0.38461538 2:0.38461538 3:0.20202134 4:0.31818182 5:0.61694803 85:1 91:1 220:1 230:1 252:1 
2 1:0.30769231 2:0.30769231 3:0.24525547 4:0.4338843 5:0.62800246 66:1 84:1 91:1 111:1 252:1 276:1 
0.4289389901771352 1:0.15384615 2:0.15384615 3:0.13284672 4:0.33216783 5:0.60309314 13:1 25:1 36:1 42:1 252:1 264:1 
2 1:0.30769231 2:0.30769231 3:0.30902583 4:0.74025974 5:0.75879486 12:1 47:1 60:1 96:1 179:1 246:1 
0.9381287955671378 1:0.38461538 2:0.38461538 3:0.32755474 4:0.3968254 5:0.65185109 12:1 85:1 153:1 208:1 246:1 
2 1:0.38461538 2:0.38461538 3:0.32755474 4:0.4978355 5:0.63214261 24:1 46:1 73:1 192:1 246:1 
2 1:0.53846154 2:0.53846154 3:0.28740876 4:0.58441558 5:0.58081845 45:1 60:1 72:1 154:1 246:1 
0.01322085080614587 1:0.61538462 2:0.61538462 3:0.30393946 4:0.64935065 5:0.68141381 46:1 73:1 153:1 167:1 
2 1:0.61538462 2:0.61538462 3:0.30393946 4:0.64935065 5:0.68141381 37:1 46:1 108:1 153:1 179:1 248:1 
2 1:0.53846154 2:0.53846154 3:0.35766423 4:0.19480519 5:0.66345035 37:1 46:1 109:1 128:1 246:1 
0.8876506406946131 1:0.46153846 2:0.46153846 3:0.11879562 4:0.77922078 5:0.66464792 12:1 24:1 36:1 213:1 249:1 266:1 
0.9929948917798325 1:0.15384615 2:0.15384615 3:0.36405109 4:0.77922078 5:0.66464792 12:1 24:1 96:1 108:1 208:1 251:1 
1.949299843085146 1:0.38461538 2:0.38461538 3:0.24726277 4:0.93073593 5:0.70160131 12:1 24:1 96:1 155:1 165:1 251:1 
2 1:0.46153846 2:0.46153846 3:0.26867397 4:0.66558442 5:0.61099706 12:1 38:1 72:1 153:1 244:1 250:1 
0.5102966350568741 1:0.23076923 2:0.23076923 3:0.19373479 4:0.82054309 5:0.77003353 12:1 60:1 96:1 120:1 153:1 276:1 
0.2314066345158482 1:0.46153846 2:0.46153846 3:0.26867397 4:0.77922078 5:0.66464792 12:1 62:1 179:1 207:1 249:1 
2 1:0.61538462 2:0.61538462 3:0.10557106 4:0.77922078 5:0.66464792 14:1 26:1 38:1 46:1 120:1 153:1 251:1 
1.182300835654742 1:0.53846154 2:0.53846154 3:0.21715328 4:0.58441558 5:0.63949908 14:1 25:1 46:1 61:1 153:1 251:1 
0.9650774896810941 1:0.53846154 2:0.53846154 3:0.28740876 4:0.84415584 5:0.76524328 36:1 46:1 72:1 165:1 251:1 
0.6081054794610898 1:0.38461538 2:0.38461538 3:0.40784672 4:0.72871573 5:0.47988093 47:1 108:1 208:1 251:1 
0.3561997637786727 1:0.61538462 2:0.61538462 3:0.30393946 4:0.77922078 5:0.66464792 47:1 122:1 154:1 251:1 
2 1:0.53846154 2:0.53846154 3:0.28740876 4:0.97402597 5:0.6981797 45:1 60:1 84:1 179:1 215:1 250:1 
1.695415062881468 1:0.69230769 2:0.69230769 3:0.38108273 4:0.87012987 5:0.76045302 46:1 60:1 154:1 166:1 251:1 
0.002003110352596219 1:0.53846154 2:0.53846154 3:0.28740876 4:0.58441558 5:0.63111613 46:1 73:1 146:1 251:1 
2 1:0.30769231 2:0.30769231 3:0.30902583 4:0.96103896 5:0.70333844 72:1 144:1 167:1 179:1 192:1 251:1 
1.765981975638553 1:0.61538462 2:0.61538462 3:0.30393946 4:0.77922078 5:0.66464792 37:1 46:1 108:1 153:1 179:1 250:1 
1.327107401848505 1:0.61538462 2:0.61538462 3:0.4607056 4:0.60064935 5:0.62528799 34:1 112:1 190:1 251:1 
2 1:0.69230769 2:0.69230769 3:0.22101045 4:0.34090909 5:0.64712591 86:1 206:1 235:1 250:1 
1.792823505250493 1:0.61538462 2:0.61538462 3:0.32019465 4:0.47077922 5:0.64205388 101:1 206:1 235:1 251:1 
1.408552302543336 1:0.46153846 2:0.46153846 3:0.56107056 4:0.54292929 5:0.61988184 53:1 99:1 112:1 250:1 
0.1236014140666814 1:0.53846154 2:0.53846154 3:0.50754258 4:0.56818182 5:0.62289286 53:1 112:1 191:1 250:1 
2 1:0.53846154 2:0.53846154 3:0.35766423 4:0.75757576 5:0.90556354 12:1 34:1 179:1 207:1 249:1 
2 1:0.38461538 2:0.38461538 3:0.4379562 4:0.50045914 5:0.62061178 12:1 96:1 102:1 208:1 250:1 
0.6278007990783727 1:0.46153846 2:0.46153846 3:0.35148793 4:0.43434343 5:0.64331022 14:1 25:1 34:1 208:1 
1.176204077539722 1:0.38461538 2:0.38461538 3:0.4379562 4:0.50045914 5:0.62061178 24:1 102:1 208:1 251:1 
1.564975711012413 1:0.69230769 2:0.69230769 3:0.4379562 4:0.38239538 5:0.64360501 34:1 56:1 208:1 250:1 
2 1:0.53846154 2:0.53846154 3:0.35766423 4:0.45454545 5:0.63949908 56:1 72:1 122:1 208:1 250:1 
2 1:0.46153846 2:0.46153846 3:0.35148793 4:0.34343434 5:0.65344346 54:1 72:1 82:1 97:1 104:1 217:1 
2 1:0.46153846 2:0.46153846 3:0.4379562 4:0.25252525 5:0.65510162 54:1 102:1 208:1 
2 1:0.30769231 2:0.30769231 3:0.4379562 4:0.63131313 5:0.51139396 13:1 155:1 207:1 216:1 
0.4970070938120909 1:0.53846154 2:0.53846154 3:0.4379562 4:0.35353535 5:0.64688976 13:1 104:1 208:1 250:1 
1.234882056396213 1:0.53846154 2:0.53846154 3:0.27737226 4:0.55555556 5:0.62225416 13:1 56:1 129:1 144:1 251:1 
2 1:0.38461538 2:0.38461538 3:0.4379562 4:0.41781451 5:0.63867789 13:1 54:1 83:1 102:1 131:1 208:1 
0.2766604366802177 1:0.53846154 2:0.53846154 3:0.44413251 4:0.45454545 5:0.63949908 63:1 164:1 198:1 251:1 
1.636054253925096 1:0.61538462 2:0.61538462 3:0.15384615 4:0.4040404 5:0.71340587 127:1 157:1 163:1 249:1 264:1 
2 1:0.69230769 2:0.69230769 3:0.26399027 4:0.60076287 5:0.58680627 12:1 57:1 129:1 227:1 248:1 
2 1:0.46153846 2:0.46153846 3:0.54501217 4:0.49450549 5:0.5724355 39:1 75:1 226:1 246:1 
0.1965544855704494 1:0.53846154 2:0.53846154 3:0.35766423 4:0.39772727 5:0.67234654 26:1 221:1 223:1 256:1 
0.9954305480369223 1:0.38461538 2:0.38461538 3:0.77518248 4:0.50505051 5:0.79470335 51:1 89:1 191:1 256:1 
2 1:0.53846154 2:0.53846154 3:0.35766423 4:0.56818182 5:0.62307534 119:1 189:1 239:1 256:1 
1.90573097253666 1:0.46153846 2:0.46153846 3:0.4379562 4:0.37433155 5:0.63949908 155:1 174:1 198:1 256:1 
2 1:0.61538462 2:0.61538462 3:0.57846715 4:0.42424242 5:0.53171833 54:1 130:1 238:1 256:1 
1.936749195624298 1:0.69230769 2:0.69230769 3:0.50040552 4:0.38961039 5:0.61714455 54:1 103:1 166:1 257:1 
0.3367420869088315 1:0.53846154 2:0.53846154 3:0.51824818 4:0.45454545 5:0.63949908 25:1 166:1 238:1 256:1 
0.2102696135489938 1:0.84615385 2:0.84615385 3:0.21715328 4:0.60802834 5:0.37363991 9:1 57:1 176:1 250:1 
2 1:0.61538462 2:0.61538462 3:0.35766423 4:0.59504132 5:0.39519606 10:1 24:1 44:1 59:1 73:1 92:1 251:1 
0.5011703574811059 1:0.61538462 2:0.61538462 3:0.18472768 4:0.59504132 5:0.37308719 26:1 38:1 239:1 250:1 
1.500648046373877 1:0.53846154 2:0.53846154 3:0.1703163 4:0.45454545 5:0.53411346 26:1 37:1 43:1 59:1 
-1.637044488657279 1:0.61538462 2:0.61538462 3:0.37081146 4:0.31818182 5:0.686057 44:1 65:1 69:1 86:1 101:1 136:1 254:1 
-0.03122059069350194 1:0.69230769 2:0.69230769 3:0.19708029 4:0.56473829 5:0.38493123 43:1 128:1 206:1 228:1 239:1 250:1 
-0.0009203561603478316 1:0.23076923 2:0.23076923 3:0.65060827 4:0.56818182 5:0.67329215 15:1 35:1 63:1 88:1 124:1 214:1 255:1 
-0.9635236974970581 1:0.15384615 2:0.15384615 3:0.36189013 4:0.4040404 5:0.78731267 39:1 76:1 93:1 160:1 171:1 193:1 256:1 
-0.2762150159859184 1:0.53846154 2:0.53846154 3:0.24525547 4:0.52447552 5:0.6644084 12:1 18:1 47:1 103:1 206:1 238:1 255:1 
-2 1:0.38461538 2:0.38461538 3:0.24726277 4:0.93073593 5:0.70160131 12:1 38:1 47:1 84:1 155:1 179:1 
-0.1689110351073416 1:0.69230769 2:0.69230769 3:0.39246571 4:0.37878788 5:0.6477745 40:1 55:1 101:1 107:1 117:1 186:1 250:1 
-2 1:0.61538462 2:0.61538462 3:0.45824049 4:0.3030303 5:0.67398891 20:1 93:1 112:1 173:1 220:1 225:1 
-1.458534062353954 1:0.076923077 2:0.076923077 3:0.23276561 4:0.4214876 5:0.68420813 13:1 25:1 109:1 174:1 192:1 204:1 252:1 
-0.9520598294590379 1:0.38461538 2:0.38461538 3:0.15158151 4:0.54990464 5:0.62517808 14:1 121:1 153:1 209:1 215:1 228:1 252:1 
-1.474846216997333 1:0.53846154 2:0.53846154 3:0.19708029 4:0.45454545 5:0.65428044 13:1 55:1 72:1 104:1 122:1 192:1 250:1 
-2 1:0.61538462 2:0.61538462 3:0.40203611 4:0.60606061 5:0.59638678 14:1 93:1 123:1 127:1 209:1 221:1 
-2 1:0.53846154 2:0.53846154 3:0.25547445 4:0.45454545 5:0.60814468 19:1 76:1 84:1 180:1 225:1 248:1 
-0.9194292622528798 1:0.46153846 2:0.46153846 3:0.33604716 4:0.21487603 5:0.67284662 18:1 76:1 84:1 126:1 152:1 182:1 
-1.89755639909553 1:0.38461538 2:0.38461538 3:0.31049972 4:0.16666667 5:0.69853981 19:1 37:1 76:1 144:1 222:1 236:1 253:1 
-2 1:0.46153846 2:0.46153846 3:0.44963504 4:0.46037296 5:0.64472481 8:1 120:1 180:1 233:1 
-1.038444346941586 1:0.69230769 2:0.69230769 3:0.33408198 4:0.46969697 5:0.62563078 42:1 84:1 164:1 201:1 227:1 248:1 
-1.272021640406004 1:0.23076923 2:0.23076923 3:0.34583173 4:0.45454545 5:0.63949908 19:1 40:1 172:1 192:1 219:1 227:1 256:1 
-2 1:0.53846154 2:0.53846154 3:0.35766423 4:0.68181818 5:0.64460868 34:1 75:1 158:1 170:1 215:1 257:1 
-0.2648970710928293 1:0.46153846 2:0.46153846 3:0.35148793 4:0.43434343 5:0.64331022 12:1 54:1 81:1 102:1 208:1 240:1 250:1 
-0.8566303263653778 1:0.30769231 2:0.30769231 3:0.33178064 4:0.12987013 5:0.66464792 13:1 18:1 126:1 183:1 225:1 244:1 256:1 
-1.547221251472129 1:0.38461538 2:0.38461538 3:0.34443967 4:0.41666667 5:0.63172196 14:1 27:1 41:1 63:1 126:1 206:1 
-2 1:0.46153846 2:0.46153846 3:0.5620438 4:0.53030303 5:0.64629253 46:1 60:1 207:1 233:1 
-0.7862600124986752 1:0.38461538 2:0.38461538 3:0.31049972 4:0.24242424 5:0.65934681 38:1 85:1 123:1 128:1 164:1 181:1 253:1 
-2 1:0.46153846 2:0.46153846 3:0.65742092 4:0.48451548 5:0.78129063 18:1 76:1 161:1 191:1 238:1 255:1 
-0.08900461055832247 1:0.15384615 2:0.15384615 3:0.47655811 4:0.48484848 5:0.64502629 36:1 47:1 75:1 84:1 109:1 125:1 252:1 
-0.8753694735333507 1:0.38461538 2:0.38461538 3:0.32643958 4:0.48051948 5:0.6187413 39:1 43:1 108:1 143:1 174:1 229:1 
-1.418560486194914 1:0.30769231 2:0.30769231 3:0.38264396 4:0.77272727 5:0.7538265 24:1 41:1 99:1 143:1 213:1 229:1 252:1 
-0.4256393409201808 1:0.23076923 2:0.23076923 3:0.5620438 4:0.3030303 5:0.67503406 6:1 181:1 192:1 208:1 233:1 252:1 
-1.793814847705277 1:0.38461538 2:0.38461538 3:0.58387381 4:0.45454545 5:0.63949908 41:1 76:1 113:1 128:1 183:1 255:1 
-0.07635864247941229 1:0.46153846 2:0.46153846 3:0.17855138 4:0.70707071 5:0.68384315 12:1 72:1 98:1 154:1 168:1 218:1 250:1 
-0.771444157750826 1:0.38461538 2:0.38461538 3:0.46771477 4:0.68181818 5:0.65517628 14:1 75:1 100:1 143:1 183:1 190:1 251:1 
-1.069718626173305 1:0.53846154 2:0.53846154 3:0.43260341 4:0.45454545 5:0.64716348 17:1 59:1 134:1 171:1 198:1 248:1 
-2 1:0.61538462 2:0.61538462 3:0.45684843 4:0.75757576 5:0.65471518 45:1 99:1 116:1 179:1 221:1 
-2 1:0.53846154 2:0.53846154 3:0.51824818 4:0.55555556 5:0.60500924 47:1 113:1 137:1 142:1 253:1 
-1.693437415375076 1:0.53846154 2:0.53846154 3:0.45985401 4:0.53030303 5:0.63166048 41:1 75:1 156:1 189:1 226:1 246:1 
-2 1:0.23076923 2:0.23076923 3:0.61706906 4:0.41558442 5:0.66039196 63:1 76:1 108:1 123:1 144:1 152:1 
-2 1:0.46153846 2:0.46153846 3:0.092083099 4:0.52525253 5:0.65620707 13:1 122:1 146:1 153:1 227:1 241:1 
-2 1:0.38461538 2:0.38461538 3:0.51775101 4:0.45454545 5:0.63949908 20:1 63:1 88:1 149:1 227:1 256:1 
-0.03908449667954496 1:0.30769231 2:0.30769231 3:0.35766423 4:0.54309327 5:0.42393759 36:1 72:1 108:1 140:1 169:1 192:1 250:1 
-2 1:0.46153846 2:0.46153846 3:0.4379562 4:0.70707071 5:0.68384315 12:1 34:1 72:1 82:1 208:1 251:1 
-0.4154170916156389 1:0.69230769 2:0.69230769 3:0.31731237 4:0.43181818 5:0.63803743 46:1 92:1 144:1 151:1 198:1 236:1 252:1 
-1.018027366004882 1:0.23076923 2:0.23076923 3:0.34403893 4:0.49242424 5:0.63932489 48:1 65:1 146:1 157:1 183:1 255:1 
-2 1:0.61538462 2:0.61538462 3:0.39172749 4:0.58539945 5:0.6135446 12:1 19:1 75:1 104:1 191:1 226:1 
-0.9259753099702781 1:0.46153846 2:0.46153846 3:0.49683698 4:0.47979798 5:0.64962704 16:1 29:1 58:1 72:1 106:1 181:1 
-2 1:0.30769231 2:0.30769231 3:0.32643958 4:0.48996458 5:0.63644244 135:1 182:1 215:1 228:1 244:1 
-0.3187699831792563 1:0.38461538 2:0.38461538 3:0.11555306 4:0.43181818 5:0.58334255 24:1 52:1 158:1 175:1 205:1 230:1 251:1 
-0.6688521456920712 1:0.76923077 2:0.76923077 3:0.2539023 4:0.41958042 5:0.71422706 14:1 20:1 31:1 91:1 165:1 227:1 256:1 
-2 1:0.38461538 2:0.38461538 3:0.31938261 4:0.60606061 5:0.58370669 75:1 93:1 160:1 194:1 219:1 225:1 256:1 
-2 1:0.46153846 2:0.46153846 3:0.4379562 4:0.43434343 5:0.6359406 12:1 102:1 154:1 208:1 
-0.3409255096221517 1:0.46153846 2:0.46153846 3:0.40583942 4:0.29040404 5:0.54259906 13:1 25:1 92:1 173:1 176:1 204:1 
-2 1:0.69230769 2:0.69230769 3:0.12970241 4:0.43939394 5:0.62584182 20:1 31:1 128:1 158:1 194:1 252:1 
-2 1:0.46153846 2:0.46153846 3:0.34297028 4:0.6969697 5:0.76498498 12:1 39:1 43:1 71:1 101:1 206:1 
-2 1:0.61538462 2:0.61538462 3:0.34583173 5:0.656744 19:1 52:1 64:1 93:1 126:1 225:1 
-0.3406319533230975 1:0.53846154 2:0.53846154 3:0.5620438 4:0.37878788 5:0.67869207 77:1 90:1 165:1 185:1 196:1 
-0.2939622213023101 1:0.23076923 2:0.23076923 3:0.60291971 4:0.56818182 5:0.65308598 25:1 64:1 111:1 171:1 195:1 215:1 250:1 
-0.723822928400809 1:0.38461538 2:0.38461538 3:0.60746148 4:0.61038961 5:0.92052738 24:1 39:1 44:1 63:1 101:1 137:1 
-2 1:0.46153846 2:0.46153846 3:0.40909308 4:0.54545455 5:0.71933666 24:1 43:1 63:1 70:1 101:1 253:1 
-0.0042868819147474 1:0.53846154 2:0.53846154 3:0.19708029 4:0.45454545 5:0.65428044 112:1 141:1 156:1 190:1 218:1 223:1 253:1 
-2 1:0.53846154 2:0.53846154 3:0.49817518 4:0.58441558 5:0.60596729 155:1 178:1 208:1 232:1 250:1 
-2 1:0.38461538 2:0.38461538 3:0.10612016 4:0.31818182 5:0.62537955 12:1 18:1 37:1 86:1 146:1 
-2 1:0.38461538 2:0.38461538 3:0.39669505 4:0.35064935 5:0.67742193 12:1 40:1 42:1 101:1 168:1 176:1 254:1 
-2 1:0.61538462 2:0.61538462 3:0.35766423 4:0.41322314 5:0.32334223 44:1 92:1 168:1 176:1 204:1 
-0.8654629821926916 1:0.23076923 2:0.23076923 3:0.2423732 4:0.41558442 5:0.63356653 75:1 84:1 180:1 186:1 199:1 216:1 252:1 
-0.9717424887123824 1:0.30769231 2:0.30769231 3:0.38686131 4:0.42929293 5:0.61822288 14:1 25:1 77:1 137:1 156:1 208:1 
-0.3919015432188072 1:0.46153846 2:0.46153846 3:0.15328467 4:0.48898072 5:0.43308262 42:1 85:1 108:1 153:1 170:1 204:1 250:1 
-1.432519908396405 1:0.46153846 2:0.46153846 3:0.33604716 4:0.46280992 5:0.63771808 45:1 63:1 84:1 125:1 146:1 200:1 253:1 
-1.91650041693621 3:0.30836215 4:0.41322314 5:0.85027031 12:1 39:1 52:1 192:1 208:1 244:1 256:1 
-1.603507945687158 1:0.76923077 2:0.76923077 3:0.32116788 4:0.42929293 5:0.63866722 46:1 120:1 128:1 164:1 210:1 235:1 
-2 1:0.15384615 2:0.15384615 3:0.17582653 4:0.42699725 5:0.60202237 13:1 144:1 204:1 231:1 234:1 252:1 
-2 1:0.30769231 2:0.30769231 3:0.4379562 4:0.4784689 5:0.63949908 26:1 51:1 155:1 198:1 220:1 255:1 
-1.163913062045005 1:0.30769231 2:0.30769231 3:0.23276561 4:0.18299882 5:0.59606743 114:1 132:1 162:1 181:1 217:1 222:1 
-0.32854038181203 1:0.46153846 2:0.46153846 3:0.42919708 4:0.34382284 5:0.44301152 12:1 19:1 42:1 64:1 77:1 191:1 246:1 
-2 1:0.69230769 2:0.69230769 3:0.40378065 4:0.52272727 5:0.63895864 20:1 43:1 154:1 221:1 228:1 
-2 1:0.61538462 2:0.61538462 3:0.38442822 4:0.47979798 5:0.63511941 16:1 86:1 143:1 176:1 238:1 
-0.597646802235356 1:0.30769231 2:0.30769231 3:0.56374696 4:0.26859504 5:0.87613769 28:1 107:1 138:1 172:1 243:1 246:1 
-1.436775950677448 1:0.38461538 2:0.38461538 3:0.31358237 4:0.37878788 5:0.6558423 26:1 40:1 54:1 118:1 168:1 205:1 
-1.716358100141005 1:0.15384615 2:0.15384615 3:0.4421821 4:0.50505051 5:0.52863888 12:1 51:1 65:1 160:1 172:1 227:1 256:1 
-0.5334133279419233 1:0.23076923 2:0.23076923 3:0.59124088 4:0.47348485 5:0.67396403 20:1 49:1 75:1 111:1 147:1 195:1 
-2 1:0.38461538 2:0.38461538 3:0.58387381 4:0.3030303 5:0.65471518 41:1 113:1 172:1 185:1 256:1 
-2 1:0.30769231 2:0.30769231 3:0.30902583 4:0.64935065 5:0.68141381 12:1 45:1 61:1 144:1 167:1 232:1 
-0.05590633455987776 1:0.30769231 2:0.30769231 3:0.42153285 4:0.40909091 5:0.64694575 6:1 18:1 46:1 156:1 180:1 231:1 252:1 
-1.134065324166527 1:0.46153846 2:0.46153846 3:0.40048662 4:0.64393939 5:0.62973608 13:1 86:1 111:1 135:1 142:1 214:1 
-2 1:0.38461538 2:0.38461538 3:0.38550541 4:0.60606061 5:0.59385076 14:1 41:1 63:1 93:1 192:1 245:1 256:1 
-0.4025216262200814 1:0.076923077 2:0.076923077 3:0.29590118 4:0.43181818 5:0.63657755 64:1 75:1 110:1 144:1 180:1 216:1 252:1 
-0.02561592344907695 1:0.69230769 2:0.69230769 3:0.21497819 4:0.83333333 5:0.68407959 14:1 26:1 118:1 129:1 144:1 233:1 249:1 
-0.5256828044678225 1:0.30769231 2:0.30769231 3:0.38264396 4:0.54545455 5:0.71933666 24:1 101:1 108:1 157:1 174:1 214:1 252:1 
-1.256605072569485 1:0.61538462 2:0.61538462 3:0.23781666 4:0.95238095 5:0.69916593 24:1 47:1 72:1 154:1 165:1 213:1 
-2 1:0.30769231 2:0.30769231 3:0.13608928 4:0.64935065 5:0.68141381 26:1 38:1 60:1 96:1 108:1 179:1 246:1 
-0.2392316655340125 1:0.53846154 2:0.53846154 3:0.53060079 4:0.36363636 5:0.5842269 41:1 44:1 81:1 113:1 184:1 217:1 
-2 1:0.38461538 2:0.38461538 3:0.2561841 4:0.48051948 5:0.64389014 14:1 26:1 42:1 101:1 120:1 215:1 253:1 
-2 1:0.76923077 2:0.76923077 3:0.37648867 5:0.65517628 14:1 20:1 93:1 124:1 127:1 225:1 257:1 
-0.6471264989074101 1:0.46153846 2:0.46153846 3:0.48613139 4:0.49242424 5:0.65345925 52:1 92:1 119:1 171:1 196:1 235:1 251:1 
-2 1:0.61538462 2:0.61538462 3:0.24993917 4:0.47077922 5:0.64708365 14:1 26:1 34:1 111:1 206:1 234:1 250:1 
-2 1:0.30769231 2:0.30769231 3:0.13568055 4:0.45454545 5:0.60544398 14:1 40:1 144:1 177:1 193:1 252:1 
-1.108477750917241 1:0.38461538 2:0.38461538 3:0.49024892 4:0.68181818 5:0.61267365 63:1 77:1 82:1 121:1 219:1 251:1 
-0.02258026311878519 1:0.61538462 2:0.61538462 3:0.37469586 4:0.36501377 5:0.64766117 30:1 46:1 128:1 163:1 181:1 233:1 252:1 
-0.008263620550436893 1:0.46153846 2:0.46153846 3:0.54776728 4:0.54112554 5:0.52411028 101:1 130:1 168:1 233:1 244:1 
-0.1577258191066748 1:0.30769231 2:0.30769231 3:0.38686131 4:0.42929293 5:0.61822288 13:1 119:1 192:1 208:1 212:1 232:1 
-2 1:0.46153846 2:0.46153846 3:0.24608201 4:0.36796537 5:0.57926866 12:1 45:1 64:1 76:1 206:1 235:1 
-2 1:0.15384615 2:0.15384615 3:0.20437956 4:0.61942959 5:0.59246748 12:1 75:1 120:1 156:1 180:1 215:1 
-2 1:0.46153846 2:0.46153846 3:0.54133868 4:0.6969697 5:0.79541719 65:1 101:1 120:1 137:1 143:1 
-0.2532902428317643 1:0.38461538 2:0.38461538 3:0.38852154 4:0.49242424 5:0.62135246 40:1 74:1 85:1 156:1 188:1 245:1 251:1 
-1.406493060881984 1:0.53846154 2:0.53846154 3:0.1703163 4:0.27272727 5:0.70869165 14:1 26:1 70:1 109:1 176:1 205:1 254:1 
-1.539628579162605 1:0.23076923 2:0.23076923 3:0.44687753 4:0.49494949 5:0.53456968 63:1 109:1 135:1 174:1 215:1 253:1 
-2 1:0.61538462 2:0.61538462 3:0.38648699 4:0.42975207 5:0.64605804 6:1 55:1 78:1 142:1 191:1 255:1 
-1.495590840763334 1:0.38461538 2:0.38461538 3:0.38852154 4:0.60606061 5:0.67500332 26:1 99:1 106:1 204:1 232:1 
-0.7441226493905142 1:0.53846154 2:0.53846154 3:0.22541863 4:0.60606061 5:0.67500332 99:1 105:1 156:1 182:1 186:1 249:1 
-1.808573278552104 1:0.46153846 2:0.46153846 3:0.64671533 4:0.59343434 5:0.65345925 39:1 65:1 68:1 111:1 119:1 196:1 250:1 
-2 1:0.46153846 2:0.46153846 3:0.33604716 4:0.38016529 5:0.64273645 14:1 75:1 85:1 92:1 188:1 216:1 
-2 1:0.46153846 2:0.46153846 3:0.055025267 4:0.29752066 5:0.62015381 13:1 86:1 218:1 235:1 253:1 
-1.526759052316053 1:0.69230769 2:0.69230769 3:0.2423732 4:0.54545455 5:0.62973433 14:1 46:1 86:1 144:1 188:1 224:1 
-0.5362206651504451 1:0.38461538 2:0.38461538 3:0.35766423 4:0.51811825 5:0.44788887 25:1 36:1 72:1 154:1 176:1 229:1 251:1 
-0.2091776778551765 1:0.53846154 2:0.53846154 3:0.35766423 4:0.70247934 5:0.36850749 59:1 155:1 192:1 204:1 212:1 250:1 
-1.941832776729451 1:0.46153846 2:0.46153846 3:0.29521492 4:0.49450549 5:0.6618536 12:1 23:1 43:1 131:1 148:1 150:1 
-1.087888459788848 1:0.53846154 2:0.53846154 3:0.24525547 4:0.38461538 5:0.65444467 76:1 103:1 120:1 179:1 187:1 246:1 
-2 1:0.15384615 2:0.15384615 3:0.19708029 4:0.5268595 5:0.40546089 25:1 36:1 84:1 110:1 120:1 228:1 
-2 1:0.30769231 2:0.30769231 3:0.4513382 4:0.42502952 5:0.64873743 51:1 56:1 102:1 120:1 135:1 252:1 
-2 1:0.23076923 2:0.23076923 3:0.42491734 4:0.35064935 5:0.61378728 18:1 40:1 84:1 90:1 195:1 208:1 
-2 1:0.30769231 2:0.30769231 3:0.38264396 4:0.43181818 5:0.65035699 25:1 99:1 108:1 176:1 253:1 
-2 1:0.69230769 2:0.69230769 3:0.21617069 4:0.34848485 5:0.63597506 8:1 19:1 30:1 127:1 156:1 
-2 1:0.38461538 2:0.38461538 3:0.38442822 4:0.74839302 5:0.75966605 27:1 47:1 190:1 204:1 216:1 
-2 1:0.30769231 2:0.30769231 3:0.38264396 4:0.65909091 5:0.78831634 12:1 24:1 39:1 214:1 241:1 
-0.8794125422623601 1:0.38461538 2:0.38461538 3:0.61058394 4:0.57109557 5:0.73578321 12:1 46:1 75:1 82:1 160:1 239:1 256:1 
-0.007204905832548625 1:0.61538462 2:0.61538462 3:0.47944039 4:0.48701299 5:0.62943954 65:1 101:1 111:1 167:1 175:1 223:1 
-2 1:0.46153846 2:0.46153846 3:0.26501965 4:0.52525253 5:0.63409819 12:1 73:1 82:1 218:1 
-0.4886860767052073 1:0.38461538 2:0.38461538 3:0.55036496 4:0.4040404 5:0.58776432 10:1 26:1 52:1 87:1 138:1 174:1 255:1 
-1.949965737711459 1:0.69230769 2:0.69230769 3:0.38910724 4:0.25757576 5:0.66729596 19:1 66:1 128:1 233:1 236:1 253:1 
-0.8411980830613963 1:0.38461538 2:0.38461538 3:0.2561841 4:0.48051948 5:0.64389014 42:1 99:1 143:1 194:1 242:1 253:1 
-1.007542834394453 1:0.53846154 2:0.53846154 3:0.1703163 4:0.63636364 5:0.7512717 26:1 71:1 109:1 141:1 194:1 214:1 253:1 
-1.912248360165966 1:0.38461538 2:0.38461538 3:0.39669505 4:0.74025974 5:0.7612514 63:1 71:1 99:1 141:1 176:1 192:1 253:1 
-2 1:0.46153846 2:0.46153846 3:0.35148793 4:0.34343434 5:0.65344346 54:1 96:1 102:1 122:1 208:1 250:1 
-1.897960312835213 1:0.69230769 2:0.69230769 3:0.21617069 4:0.43939394 5:0.63136904 19:1 67:1 86:1 128:1 233:1 252:1 
-2 1:0.38461538 2:0.38461538 3:0.39669505 4:0.74025974 5:0.7612514 12:1 41:1 71:1 143:1 168:1 176:1 253:1 
-0.06932803335443555 1:0.53846154 2:0.53846154 3:0.51824818 4:0.34090909 5:0.62307534 10:1 51:1 54:1 88:1 175:1 199:1 256:1 
-2 1:0.46153846 2:0.46153846 3:0.32019465 4:0.64393939 5:0.64205388 12:1 24:1 53:1 86:1 100:1 177:1 250:1 
-2 1:0.46153846 2:0.46153846 3:0.54501217 4:0.55944056 5:0.63949908 12:1 41:1 59:1 83:1 148:1 248:1 
-2 1:0.46153846 2:0.46153846 3:0.39472207 4:0.50505051 5:0.60254568 24:1 100:1 106:1 158:1 233:1 
-0.2101269698821256 1:0.46153846 2:0.46153846 3:0.24031443 4:0.34343434 5:0.65151683 17:1 62:1 170:1 176:1 216:1 222:1 253:1 
-0.6072361890398319 1:0.38461538 2:0.38461538 3:0.31224655 4:0.20562771 5:0.67343731 46:1 85:1 91:1 121:1 162:1 208:1 253:1 
-2 1:0.076923077 2:0.076923077 3:0.4513382 4:0.2989791 5:0.66454527 12:1 52:1 76:1 78:1 120:1 135:1 253:1 
-0.3352983314013601 1:0.61538462 2:0.61538462 3:0.4560219 4:0.27597403 5:0.54105933 13:1 41:1 174:1 197:1 214:1 235:1 
-0.4022771148342354 1:0.38461538 2:0.38461538 3:0.48880779 4:0.47997457 5:0.64857775 20:1 51:1 92:1 135:1 155:1 229:1 252:1 
-2 1:0.38461538 2:0.38461538 3:0.39669505 4:0.35064935 5:0.67742193 40:1 101:1 176:1 194:1 204:1 253:1 
-1.832205340163209 1:0.15384615 2:0.15384615 3:0.43452492 4:0.54545455 5:0.71933666 12:1 85:1 100:1 137:1 143:1 229:1 252:1 
-1.212294166559298 1:0.46153846 2:0.46153846 3:0.41855231 4:0.53571429 5:0.59710532 24:1 46:1 61:1 153:1 208:1 243:1 248:1 
-2 1:0.46153846 2:0.46153846 3:0.37081146 4:0.36363636 5:0.71933666 14:1 18:1 75:1 93:1 128:1 147:1 256:1 
-1.503710640836086 1:0.38461538 2:0.38461538 3:0.34428224 4:0.50045914 5:0.63115035 24:1 33:1 49:1 102:1 207:1 
-0.3580963055436219 1:0.76923077 2:0.76923077 3:0.40145985 4:0.32828283 5:0.6545044 30:1 46:1 67:1 128:1 140:1 208:1 
-2 1:0.53846154 2:0.53846154 3:0.35766423 4:0.3030303 5:0.65413113 6:1 20:1 66:1 192:1 
-2 1:0.53846154 2:0.53846154 3:0.53060079 4:0.45454545 5:0.63949908 41:1 162:1 185:1 190:1 216:1 
-0.6996914200853439 1:0.84615385 2:0.84615385 3:0.12570965 4:0.25252525 5:0.67106914 13:1 54:1 103:1 129:1 153:1 225:1 250:1 
-0.235301538330917 1:0.69230769 2:0.69230769 3:0.36770073 4:0.25252525 5:0.65869431 13:1 54:1 102:1 154:1 226:1 250:1 
-2 1:0.46153846 2:0.46153846 3:0.33700086 4:0.67099567 5:0.75044984 12:1 54:1 84:1 100:1 106:1 117:1 251:1 
-1.673001837197982 1:0.38461538 2:0.38461538 3:0.13284672 4:0.51811825 5:0.39807021 11:1 38:1 57:1 73:1 85:1 192:1 
-2 1:0.30769231 2:0.30769231 3:0.37639903 4:0.4338843 5:0.64428933 15:1 105:1 172:1 192:1 229:1 
-0.4957071250167918 1:0.53846154 2:0.53846154 3:0.35766423 4:0.58441558 5:0.55566961 96:1 128:1 144:1 153:1 215:1 245:1 246:1 
-2 1:0.38461538 2:0.38461538 3:0.25060827 4:0.58310376 5:0.61358608 24:1 35:1 72:1 102:1 218:1 
-1.370610048684048 1:0.15384615 2:0.15384615 3:0.34805665 4:0.72727273 5:0.75802719 24:1 101:1 108:1 122:1 135:1 168:1 252:1 
-0.8906106557584847 1:0.38461538 2:0.38461538 3:0.537206 4:0.61038961 5:0.89537854 13:1 65:1 70:1 99:1 136:1 143:1 
-2 1:0.38461538 2:0.38461538 3:0.39669505 4:0.61038961 5:0.84508086 12:1 41:1 44:1 101:1 230:1 240:1 252:1 
-2 1:0.15384615 2:0.15384615 3:0.5209932 4:0.45454545 5:0.59773788 13:1 41:1 64:1 100:1 192:1 215:1 253:1 
-1.399515146009848 1:0.69230769 2:0.69230769 3:0.20202134 4:0.22727273 5:0.65099569 14:1 42:1 114:1 127:1 141:1 162:1 251:1 
-0.9340142690651492 1:0.61538462 2:0.61538462 3:0.30393946 4:0.4978355 5:0.63576549 46:1 60:1 127:1 145:1 166:1 179:1 246:1 
-2 1:0.53846154 2:0.53846154 3:0.45985401 4:0.22727273 5:0.68809839 32:1 138:1 162:1 209:1 253:1 
-1.129304620636613 1:0.38461538 2:0.38461538 3:0.39669505 4:0.61038961 5:0.84508086 42:1 63:1 71:1 85:1 143:1 176:1 252:1 
-0.548970195305582 1:0.30769231 2:0.30769231 3:0.20652641 4:0.85858586 5:0.682394 55:1 72:1 84:1 107:1 180:1 204:1 251:1 
-2 1:0.38461538 2:0.38461538 3:0.46695053 4:0.48051948 5:0.56844362 64:1 70:1 101:1 108:1 241:1 
-2 1:0.38461538 2:0.38461538 3:0.4379562 4:0.33516988 5:0.64871461 13:1 102:1 208:1 241:1 250:1 
-1.503092091252838 1:0.76923077 2:0.76923077 3:0.28272506 4:0.5268595 5:0.42297954 36:1 44:1 154:1 212:1 237:1 
-1.706466635734542 1:0.53846154 2:0.53846154 3:0.27737226 4:0.25252525 5:0.66331349 13:1 33:1 55:1 102:1 208:1 
-2 1:0.46153846 2:0.46153846 3:0.42972113 4:0.38016529 5:0.65026399 12:1 36:1 64:1 92:1 152:1 164:1 252:1 
-1.15265939452124 1:0.23076923 2:0.23076923 3:0.55036496 4:0.4001554 5:0.57763635 30:1 88:1 136:1 173:1 192:1 243:1 
-0.1196335987392161 1:0.61538462 2:0.61538462 3:0.30393946 4:0.4978355 5:0.63576549 84:1 127:1 165:1 179:1 233:1 246:1 
-0.6690035344681977 1:0.46153846 2:0.46153846 3:0.56107056 4:0.74494949 5:0.53119369 24:1 53:1 99:1 112:1 179:1 190:1 250:1 
-1.745950112549316 1:0.61538462 2:0.61538462 3:0.1656326 4:0.29220779 5:0.63782249 79:1 98:1 180:1 200:1 230:1 246:1 
-2 1:0.46153846 2:0.46153846 3:0.48736665 4:0.33884298 5:0.60633577 42:1 76:1 85:1 92:1 219:1 250:1 
-0.4810614725454786 1:0.23076923 2:0.23076923 3:0.34240513 4:0.42424242 5:0.64736723 12:1 100:1 117:1 145:1 157:1 244:1 
-1.75268421751296 1:0.69230769 2:0.69230769 3:0.25060827 4:0.32467532 5:0.67303086 30:1 103:1 153:1 165:1 222:1 256:1 
-1.439327865475665 1:0.53846154 2:0.53846154 3:0.44413251 4:0.45454545 5:0.61739021 42:1 91:1 148:1 195:1 239:1 250:1 
-2 1:0.69230769 2:0.69230769 3:0.49571008 4:0.45454545 5:0.63949908 20:1 88:1 94:1 149:1 225:1 
-0.5778316944991396 1:0.61538462 2:0.61538462 3:0.54969586 4:0.61688312 5:0.63782249 29:1 83:1 101:1 113:1 175:1 251:1 
-2 1:0.46153846 2:0.46153846 3:0.21849148 4:0.42929293 5:0.64962704 50:1 64:1 121:1 175:1 251:1 
-1.176706983509439 1:0.69230769 2:0.69230769 3:0.39246571 4:0.60606061 5:0.67500332 40:1 56:1 101:1 107:1 129:1 218:1 250:1 
-0.6391468572776032 1:0.38461538 2:0.38461538 3:0.11555306 4:0.13636364 5:0.66116577 26:1 37:1 91:1 112:1 175:1 229:1 253:1 
-0.5272698265972559 1:0.46153846 2:0.46153846 3:0.42919708 4:0.41375291 5:0.74192344 12:1 65:1 77:1 162:1 180:1 225:1 246:1 
-1.648373547835347 1:0.23076923 2:0.23076923 3:0.36727182 4:0.41558442 5:0.64250834 36:1 75:1 84:1 90:1 123:1 151:1 252:1 
-2 1:0.53846154 2:0.53846154 3:0.27119596 4:0.63636364 5:0.63397186 14:1 21:1 65:1 191:1 240:1 
-2 1:0.53846154 2:0.53846154 3:0.35766423 4:0.59440559 5:0.69928146 12:1 20:1 45:1 75:1 91:1 239:1 255:1 
-2 1:0.46153846 2:0.46153846 3:0.4379562 4:0.52525253 5:0.61198932 12:1 54:1 178:1 207:1 
-1.513057435952667 1:0.61538462 2:0.61538462 3:0.35766423 4:0.68595041 5:0.37124478 10:1 58:1 192:1 204:1 238:1 
-0.3999698455415239 1:0.46153846 2:0.46153846 3:0.28613139 4:0.54778555 5:0.64166402 34:1 48:1 87:1 91:1 219:1 235:1 252:1 
-0.6151536037992031 1:0.38461538 2:0.38461538 3:0.2633352 4:0.37878788 5:0.65517628 13:1 43:1 76:1 128:1 157:1 216:1 251:1 
-0.2675579680281914 1:0.38461538 2:0.38461538 3:0.31731237 4:0.68181818 5:0.61267365 63:1 122:1 175:1 203:1 219:1 243:1 
-1.249080148079532 1:0.15384615 2:0.15384615 3:0.28272506 4:0.53321678 5:0.60309314 12:1 28:1 99:1 158:1 179:1 217:1 253:1 
-1.481729836130078 1:0.53846154 2:0.53846154 3:0.51824818 4:0.51136364 5:0.67234654 31:1 51:1 71:1 89:1 138:1 189:1 255:1 
-0.0780881235041293 1:0.46153846 2:0.46153846 3:0.5325223 4:0.54945055 5:0.72540432 64:1 83:1 161:1 189:1 227:1 256:1 
-0.3301462064963433 1:0.46153846 2:0.46153846 3:0.61706906 4:0.21487603 5:0.72553943 13:1 65:1 77:1 124:1 126:1 152:1 
-2 1:0.46153846 2:0.46153846 3:0.21072468 4:0.39393939 5:0.69397649 43:1 108:1 176:1 193:1 206:1 252:1 
-2 1:0.15384615 2:0.15384615 3:0.31358237 4:0.56473829 5:0.56961771 24:1 39:1 73:1 145:1 169:1 251:1 
-0.91436651064454 1:0.46153846 2:0.46153846 3:0.6216545 4:0.39256198 5:0.66855166 12:1 32:1 53:1 56:1 137:1 207:1 253:1 
-0.9288854807688635 1:0.69230769 2:0.69230769 3:0.16743403 4:0.54545455 5:0.62590212 45:1 84:1 152:1 163:1 182:1 224:1 252:1 
-2 1:0.69230769 2:0.69230769 3:0.22718978 4:0.6998557 5:0.57739684 14:1 24:1 32:1 117:1 141:1 243:1 249:1 
-0.08042533329506139 1:0.46153846 2:0.46153846 3:0.47542579 4:0.59343434 5:0.65455416 15:1 22:1 87:1 205:1 214:1 235:1 255:1 
-0.8699133148986664 1:0.38461538 2:0.38461538 3:0.36552499 4:0.53030303 5:0.65517628 39:1 63:1 76:1 141:1 157:1 199:1 251:1 
-0.1846570642612018 1:0.53846154 2:0.53846154 3:0.4379562 4:0.45454545 5:0.6321084 13:1 72:1 102:1 209:1 226:1 250:1 
-2 1:0.30769231 2:0.30769231 3:0.26152516 5:0.66105522 13:1 18:1 76:1 93:1 126:1 193:1 256:1 
-2 1:0.30769231 2:0.30769231 3:0.4379562 4:0.70707071 5:0.68384315 13:1 73:1 83:1 207:1 227:1 251:1 
-2 1:0.53846154 2:0.53846154 3:0.42378703 4:0.60606061 5:0.67500332 41:1 52:1 56:1 105:1 119:1 216:1 
-2 1:0.30769231 2:0.30769231 3:0.1459854 4:0.63131313 5:0.66995763 84:1 158:1 169:1 216:1 239:1 
-1.840863626864111 1:0.38461538 2:0.38461538 3:0.24726277 4:0.6998557 5:0.792274 13:1 36:1 144:1 165:1 207:1 213:1 
-2 1:0.84615385 2:0.84615385 3:0.36538108 4:0.45454545 5:0.63949908 14:1 19:1 53:1 93:1 127:1 225:1 257:1 
-0.07409754789930816 1:0.61538462 2:0.61538462 3:0.40048662 4:0.61868687 5:0.59488127 31:1 44:1 141:1 156:1 233:1 243:1 251:1 
-1.45000092894496 1:0.30769231 2:0.30769231 3:0.7189781 4:0.4784689 5:0.91254363 24:1 51:1 54:1 87:1 118:1 174:1 255:1 
-0.2079184843071113 1:0.46153846 2:0.46153846 3:0.28613139 4:0.54778555 5:0.64166402 35:1 87:1 91:1 119:1 183:1 223:1 253:1 
-1.440631646635975 1:0.38461538 2:0.38461538 3:0.36342879 4:0.70454545 5:0.63099944 13:1 26:1 112:1 135:1 143:1 214:1 251:1 
-1.545087606143905 1:0.53846154 2:0.53846154 3:0.21715328 4:0.71428571 5:0.75686033 38:1 47:1 109:1 122:1 155:1 166:1 
-2 1:0.23076923 2:0.23076923 3:0.4513382 4:0.52066116 5:0.64237323 21:1 36:1 100:1 111:1 240:1 255:1 
-0.1893940705413431 1:0.15384615 2:0.15384615 3:0.43452492 4:0.72727273 5:0.76908162 40:1 99:1 135:1 215:1 230:1 240:1 252:1 
-1.627564874731041 1:0.38461538 2:0.38461538 3:0.39172749 4:0.50865801 5:0.62599927 13:1 75:1 84:1 121:1 202:1 238:1 
-0.08694311014316472 1:0.30769231 2:0.30769231 3:0.30902583 4:0.55844156 5:0.60403276 14:1 24:1 36:1 121:1 178:1 207:1 246:1 
-0.2146759091495448 1:0.38461538 2:0.38461538 3:0.47007299 4:0.14685315 5:0.71422706 13:1 18:1 30:1 76:1 104:1 138:1 256:1 
-2 1:0.23076923 2:0.23076923 3:0.30948905 4:0.6021756 5:0.62937111 28:1 84:1 112:1 168:1 237:1 252:1 
-0.7056030751422918 1:0.30769231 2:0.30769231 3:0.47229159 4:0.25974026 5:0.66464792 14:1 18:1 76:1 160:1 183:1 209:1 257:1 
-1.078393095007375 1:0.46153846 2:0.46153846 3:0.31633748 4:0.36796537 5:0.6044175 12:1 47:1 114:1 206:1 220:1 236:1 
-0.7636148703048616 1:0.30769231 2:0.30769231 3:0.58248175 4:0.3822314 5:0.7525491 77:1 88:1 100:1 123:1 144:1 223:1 257:1 
-0.8816941701221251 1:0.53846154 2:0.53846154 3:0.35766423 4:0.56818182 5:0.62307534 11:1 52:1 119:1 153:1 189:1 198:1 255:1 
-0.2455002600345768 1:0.38461538 2:0.38461538 3:0.18734793 4:0.33549784 5:0.63431689 19:1 47:1 61:1 85:1 120:1 140:1 253:1 
-0.01864489109033095 1:0.38461538 2:0.38461538 3:0.088764849 4:0.60606061 5:0.67500332 12:1 105:1 146:1 158:1 169:1 217:1 251:1 
-0.823390647460478 1:0.38461538 2:0.38461538 3:0.34443967 4:0.41666667 5:0.63172196 14:1 102:1 116:1 171:1 192:1 219:1 
-2 1:0.53846154 2:0.53846154 3:0.4379562 4:0.45454545 5:0.6321084 12:1 56:1 104:1 192:1 209:1 
-2 1:0.38461538 2:0.38461538 3:0.15693431 4:0.41781451 5:0.66126052 14:1 26:1 54:1 102:1 216:1 240:1 
-0.2462854962370196 1:0.53846154 2:0.53846154 3:0.43260341 4:0.56818182 5:0.65099569 15:1 65:1 122:1 176:1 201:1 220:1 251:1 
-1.618611535606579 1:0.30769231 2:0.30769231 3:0.44740232 4:0.55555556 5:0.52718973 41:1 51:1 84:1 105:1 157:1 244:1 
-1.416269360612062 1:0.76923077 2:0.76923077 3:0.40762368 4:0.68181818 5:0.62864116 57:1 80:1 105:1 116:1 171:1 245:1 
-0.4982767540159971 1:0.30769231 2:0.30769231 3:0.36711035 4:0.55555556 5:0.56414313 12:1 54:1 85:1 130:1 204:1 232:1 251:1 
-0.6991348729851664 1:0.30769231 2:0.30769231 3:0.14051095 4:0.46969697 5:0.62584182 47:1 60:1 84:1 120:1 162:1 194:1 
-0.9914663753867156 1:0.46153846 2:0.46153846 3:0.4379562 4:0.34343434 5:0.64791624 13:1 54:1 102:1 131:1 209:1 
-0.8422329814991807 1:0.38461538 2:0.38461538 3:0.19870235 4:0.36796537 5:0.55124225 18:1 49:1 75:1 119:1 127:1 222:1 252:1 
-2 1:0.61538462 2:0.61538462 3:0.48913647 4:0.31818182 5:0.6739553 25:1 41:1 44:1 70:1 101:1 
-1.278449251131229 1:0.38461538 2:0.38461538 3:0.46142617 4:0.52272727 5:0.64414194 24:1 39:1 64:1 197:1 206:1 236:1 251:1 
-2 1:0.46153846 2:0.46153846 3:0.39854015 4:0.33799534 5:0.58828689 18:1 50:1 88:1 92:1 111:1 236:1 252:1 
-1.65572790094571 1:0.53846154 2:0.53846154 3:0.21715328 4:0.58441558 5:0.60596729 36:1 46:1 84:1 110:1 122:1 154:1 246:1 
-1.167991585616599 1:0.46153846 2:0.46153846 3:0.22075613 4:0.49586777 5:0.58680627 14:1 42:1 100:1 115:1 191:1 240:1 251:1 
-0.09045210473134105 1:0.53846154 2:0.53846154 3:0.35766423 4:0.58441558 5:0.55566961 121:1 144:1 154:1 209:1 213:1 
-2 1:0.30769231 2:0.30769231 3:0.28272506 4:0.51652893 5:0.62772873 17:1 74:1 156:1 180:1 216:1 
-1.483341992483308 1:0.53846154 2:0.53846154 3:0.53515175 4:0.68181818 5:0.62437195 51:1 77:1 113:1 209:1 225:1 
-0.1694472389332306 1:0.53846154 2:0.53846154 3:0.42791971 4:0.84415584 5:0.73171149 97:1 155:1 166:1 179:1 215:1 233:1 
-1.206725110096014 1:0.15384615 2:0.15384615 3:0.47655811 4:0.42424242 5:0.64954856 63:1 84:1 108:1 124:1 180:1 200:1 252:1 
-0.4036820605323189 1:0.23076923 2:0.23076923 3:0.54501217 4:0.43801653 5:0.65592281 12:1 51:1 75:1 90:1 188:1 207:1 252:1 
-0.1580565049622673 1:0.30769231 2:0.30769231 3:0.30902583 4:0.46753247 5:0.64272329 37:1 45:1 61:1 84:1 108:1 244:1 248:1 
-2 1:0.30769231 2:0.30769231 3:0.22255755 4:0.37662338 5:0.66298975 14:1 24:1 97:1 146:1 208:1 246:1 
-0.2354008085449235 1:0.53846154 2:0.53846154 3:0.27737226 4:0.45454545 5:0.64688976 12:1 54:1 81:1 97:1 102:1 131:1 250:1 
-0.1405980016370388 1:0.46153846 2:0.46153846 3:0.49571008 4:0.18181818 5:0.65546659 18:1 93:1 111:1 128:1 209:1 220:1 256:1 
-1.40208289193319 1:0.46153846 2:0.46153846 3:0.22481752 4:0.32051282 5:0.63890185 84:1 102:1 211:1 232:1 235:1 252:1 
-0.5679487723159551 1:0.46153846 2:0.46153846 3:0.31633748 4:0.4978355 5:0.63794929 13:1 47:1 128:1 179:1 219:1 235:1 253:1 
-0.5659195241661872 1:0.69230769 2:0.69230769 3:0.26399027 4:0.60076287 5:0.58680627 12:1 21:1 59:1 94:1 104:1 122:1 
-0.3990496742894294 1:0.38461538 2:0.38461538 3:0.45162821 4:0.3030303 5:0.67500332 64:1 93:1 128:1 159:1 173:1 193:1 256:1 
-1.836991744848723 1:0.61538462 2:0.61538462 3:0.30722441 4:0.52892562 5:0.63473514 19:1 53:1 103:1 120:1 153:1 243:1 
-1.278506794709142 1:0.76923077 2:0.76923077 3:0.3649635 4:0.32828283 5:0.51856068 14:1 18:1 41:1 164:1 190:1 225:1 246:1 
-0.7081308615855084 1:0.53846154 2:0.53846154 3:0.27737226 4:0.75757576 5:0.86861014 35:1 98:1 131:1 170:1 207:1 250:1 
-2 1:0.69230769 2:0.69230769 3:0.25060827 4:0.58441558 5:0.60596729 9:1 71:1 103:1 153:1 167:1 256:1 
-0.2726328232870636 1:0.46153846 2:0.46153846 3:0.34297028 4:0.54545455 5:0.71933666 65:1 101:1 110:1 122:1 169:1 215:1 
-2 1:0.46153846 2:0.46153846 3:0.59545199 4:0.33057851 5:0.58680627 41:1 76:1 100:1 128:1 198:1 251:1 
-2 1:0.30769231 2:0.30769231 3:0.61995134 4:0.47520661 5:0.61267365 17:1 75:1 100:1 112:1 197:1 
-0.1302462616524817 1:0.61538462 2:0.61538462 3:0.56337961 4:0.6969697 5:0.78677594 13:1 41:1 53:1 118:1 130:1 243:1 250:1 
-1.589641259954283 1:0.46153846 2:0.46153846 3:0.32360097 4:0.24793388 5:0.61842195 100:1 134:1 189:1 198:1 222:1 256:1 
-1.527100398786206 1:0.46153846 2:0.46153846 3:0.1703163 4:0.55944056 5:0.63949908 14:1 147:1 177:1 227:1 240:1 246:1 
-0.3059589029377006 1:0.61538462 2:0.61538462 3:0.25248645 4:0.77272727 5:0.74051463 44:1 71:1 86:1 110:1 214:1 228:1 
-0.3605776966992206 1:0.46153846 2:0.46153846 3:0.4379562 4:0.42780749 5:0.63949908 24:1 53:1 54:1 199:1 222:1 239:1 255:1 
-1.448936703140011 1:0.53846154 2:0.53846154 3:0.35766423 4:0.53719008 5:0.42872785 10:1 24:1 44:1 109:1 128:1 228:1 251:1 
-1.352891461396024 1:0.53846154 2:0.53846154 3:0.28740876 4:0.84415584 5:0.76524328 84:1 177:1 192:1 213:1 231:1 250:1 
-2 1:0.38461538 2:0.38461538 3:0.33408198 4:0.54545455 5:0.60633577 14:1 18:1 59:1 76:1 160:1 239:1 251:1 
-0.8425238969578742 1:0.61538462 2:0.61538462 3:0.40707468 4:0.6969697 5:0.59401797 57:1 86:1 106:1 183:1 207:1 250:1 
-1.174383770377785 1:0.53846154 2:0.53846154 3:0.35766423 4:0.27272727 5:0.65884434 12:1 64:1 77:1 151:1 223:1 234:1 
-2 1:0.38461538 2:0.38461538 3:0.39669505 4:0.22077922 5:0.69418782 42:1 64:1 157:1 214:1 229:1 
-0.4910128734759183 1:0.46153846 2:0.46153846 3:0.38659296 4:0.4978355 5:0.64633223 29:1 39:1 45:1 63:1 128:1 145:1 254:1 
-0.2082436905216899 1:0.23076923 2:0.23076923 3:0.41361429 4:0.3030303 5:0.65471518 40:1 99:1 144:1 160:1 173:1 235:1 253:1 
-1.295635645301464 1:0.61538462 2:0.61538462 3:0.2810219 4:0.53030303 5:0.63192176 8:1 31:1 46:1 68:1 120:1 156:1 252:1 
-1.608499647224189 1:0.53846154 2:0.53846154 3:0.35766423 4:0.53719008 5:0.42872785 10:1 59:1 192:1 205:1 212:1 
-1.298382532009808 1:0.61538462 2:0.61538462 4:0.53030303 5:0.617551 19:1 45:1 60:1 127:1 192:1 235:1 252:1 
-1.733162506946862 1:0.61538462 2:0.61538462 3:0.45648512 4:0.44444444 5:0.6465491 20:1 46:1 75:1 150:1 188:1 216:1 
-0.1609822126371648 1:0.38461538 2:0.38461538 3:0.49915778 4:0.25757576 5:0.73081541 64:1 78:1 128:1 181:1 221:1 240:1 
-2 1:0.46153846 2:0.46153846 3:0.26501965 4:0.43434343 5:0.65067985 14:1 25:1 34:1 50:1 208:1 
-2 1:0.076923077 2:0.076923077 3:0.45648512 4:0.375 5:0.65300128 12:1 36:1 75:1 123:1 216:1 222:1 253:1 
-0.05974744849520463 1:0.53846154 2:0.53846154 3:0.20778589 4:0.56818182 5:0.61267365 51:1 86:1 174:1 206:1 213:1 228:1 250:1 
-2 1:0.61538462 2:0.61538462 3:0.37603168 4:0.6969697 5:0.73887339 130:1 187:1 204:1 233:1 251:1 
-2 1:0.38461538 2:0.38461538 3:0.5620438 4:0.53030303 5:0.64629253 46:1 84:1 164:1 207:1 231:1 252:1 
-0.209888510898846 1:0.61538462 2:0.61538462 3:0.37603168 4:0.6969697 5:0.73887339 12:1 101:1 118:1 129:1 145:1 188:1 251:1 
-2 1:0.76923077 2:0.76923077 3:0.33604716 4:0.41558442 5:0.64027289 46:1 86:1 164:1 188:1 222:1 
-1.608677177429553 1:0.46153846 2:0.46153846 3:0.44963504 4:0.39044289 5:0.65076343 66:1 120:1 140:1 192:1 209:1 
-1.089118244807191 1:0.30769231 2:0.30769231 3:0.33892944 4:0.68181818 5:0.63279272 12:1 111:1 173:1 191:1 228:1 237:1 252:1 
-0.1863262664677175 1:0.53846154 2:0.53846154 3:0.67883212 4:0.34090909 5:0.59022788 25:1 51:1 139:1 176:1 200:1 221:1 256:1 
-0.6904611099549239 1:0.53846154 2:0.53846154 3:0.29154143 4:0.45454545 5:0.62935501 45:1 75:1 89:1 127:1 146:1 253:1 
-2 1:0.23076923 2:0.23076923 3:0.2423732 4:0.41558442 5:0.63356653 12:1 37:1 45:1 75:1 123:1 146:1 253:1 
-0.590033324293467 1:0.61538462 2:0.61538462 3:0.35766423 4:0.59504132 5:0.39519606 44:1 59:1 84:1 92:1 120:1 176:1 251:1 
-1.010132694596692 1:0.76923077 2:0.76923077 3:0.15158151 4:0.27892562 5:0.60897831 14:1 19:1 31:1 92:1 104:1 230:1 253:1 
-0.6173934725536506 1:0.53846154 2:0.53846154 3:0.35766423 4:0.2892562 5:0.6495358 13:1 19:1 92:1 121:1 188:1 245:1 252:1 
