svm_type c_svc
kernel_type rbf
gamma 0.0625
nr_class 2
total_sv 548
rho 10.6062
label 1 0
probA -4.55988
probB 0.176167
nr_sv 255 293
SV
2 1:0.58333333 2:0.58333333 3:0.35367454 4:0.42906891 5:0.55056069 47:1 127:1 138:1 
2 1:0.33333333 2:0.33333333 3:0.26946632 4:0.32459677 5:0.54973677 62:1 85:1 102:1 252:1 
2 1:0.33333333 2:0.33333333 3:0.49402158 4:0.38508065 5:0.56473207 120:1 157:1 233:1 
2 1:0.33333333 2:0.33333333 3:0.26946632 4:0.32459677 5:0.54973677 138:1 158:1 193:1 252:1 
2 1:0.5 2:0.5 3:0.5144357 4:0.29435484 5:0.58097072 128:1 162:1 233:1 253:1 
1.031373207199506 1:0.41666667 2:0.41666667 3:0.40419948 4:0.180366 5:0.60955316 126:1 138:1 210:1 253:1 
2 1:0.58333333 2:0.58333333 3:0.43788276 4:0.42906891 5:0.55660275 92:1 122:1 233:1 
0.8786569107721888 1:0.58333333 2:0.58333333 3:0.51695942 4:0.32258065 5:0.58691873 42:1 154:1 221:1 246:1 
2 1:0.5 2:0.5 3:0.42257218 4:0.26612903 5:0.59311169 6:1 42:1 219:1 247:1 
1.074609722911099 1:0.5 2:0.5 3:0.42257218 4:0.5766129 5:0.5672188 165:1 203:1 221:1 252:1 
1.05054576363557 1:0.33333333 2:0.33333333 3:0.55730534 4:0.53614933 5:0.55903955 23:1 101:1 180:1 255:1 
1.123252108208701 1:0.58333333 2:0.58333333 3:0.52621307 4:0.49706745 5:0.55995219 23:1 44:1 190:1 256:1 
1.104742184321505 1:0.25 2:0.25 3:0.31029455 4:0.4244868 5:0.54102323 180:1 218:1 241:1 255:1 
0.5261606226147306 1:0.33333333 2:0.33333333 3:0.45884649 4:0.30846774 5:0.60725771 15:1 172:1 229:1 247:1 
0.1720360661963035 1:0.5 2:0.5 3:0.3552056 4:0.43548387 5:0.54717514 50:1 105:1 171:1 246:1 
1.490242917376575 1:0.58333333 2:0.58333333 3:0.43941382 4:0.28427419 5:0.63121469 50:1 173:1 198:1 248:1 
2 1:0.83333333 2:0.83333333 3:0.47930193 4:0.43548387 5:0.56174547 32:1 80:1 106:1 248:1 
2 1:0.5 2:0.5 3:0.48993876 4:0.3296371 5:0.59858757 17:1 59:1 198:1 246:1 
1.154507597909707 1:0.5 2:0.5 3:0.48993876 4:0.64717742 5:0.52740113 83:1 111:1 224:1 251:1 
0.7252745421412379 1:0.75 2:0.75 3:0.54607757 4:0.22379032 5:0.53399247 142:1 176:1 222:1 250:1 
1.780488745754956 1:0.41666667 2:0.41666667 3:0.36964129 4:0.31787634 5:0.5491929 121:1 196:1 222:1 249:1 
0.9829804205046259 1:0.41666667 2:0.41666667 3:0.44181977 4:0.41196237 5:0.55028249 121:1 137:1 222:1 251:1 
1.367688710031221 1:0.58333333 2:0.58333333 3:0.40573053 4:0.34475806 5:0.54816384 112:1 175:1 223:1 251:1 
0.693393201582298 1:0.5 2:0.5 3:0.42257218 4:0.3296371 5:0.54585687 65:1 121:1 175:1 
0.003658961419564574 1:0.58333333 2:0.58333333 3:0.45625547 4:0.63205645 5:0.56299435 17:1 21:1 213:1 255:1 
0.6857553823663783 1:0.58333333 2:0.58333333 3:0.5825678 4:0.51108871 5:0.58029661 17:1 34:1 214:1 256:1 
1.418395785603867 1:0.5 2:0.5 3:0.48993876 4:0.54133065 5:0.56694915 16:1 21:1 35:1 257:1 
2 1:0.33333333 2:0.33333333 3:0.43941382 4:0.26376043 5:0.5730226 12:1 31:1 51:1 77:1 78:1 102:1 253:1 
2 1:0.33333333 2:0.33333333 3:0.23731409 4:0.26376043 5:0.52161017 12:1 31:1 52:1 55:1 181:1 253:1 
1.506433436504642 1:0.25 2:0.25 3:0.5067804 4:0.4079912 5:0.56461864 51:1 120:1 209:1 253:1 
2 1:0.41666667 2:0.41666667 3:0.38429571 4:0.37774927 5:0.5527093 92:1 102:1 120:1 245:1 254:1 264:1 
2 1:0.58333333 2:0.58333333 3:0.45495996 4:0.33541056 5:0.56442851 32:1 56:1 75:1 78:1 153:1 253:1 
2 1:0.33333333 2:0.33333333 3:0.43941382 4:0.26376043 5:0.5730226 18:1 51:1 54:1 76:1 153:1 253:1 
0.1514703809455435 1:0.41666667 2:0.41666667 3:0.46748323 4:0.58436725 5:0.6245135 47:1 167:1 204:1 257:1 
1.049412617603789 1:0.58333333 2:0.58333333 3:0.47769029 4:0.40291563 5:0.63220339 45:1 91:1 220:1 257:1 
1.811283976683643 1:0.5 2:0.5 3:0.32152231 4:0.37034739 5:0.78644068 81:1 91:1 205:1 256:1 
0.03037640871074548 1:0.41666667 2:0.41666667 3:0.6920385 4:0.40291563 5:0.63220339 64:1 161:1 166:1 256:1 
0.7101629583259332 1:0.5 2:0.5 3:0.52362205 4:0.30521092 5:0.63220339 30:1 139:1 160:1 257:1 
0.1609232832638673 1:0.33333333 2:0.33333333 3:0.52362205 4:0.31823821 5:0.63220339 13:1 140:1 220:1 256:1 
0.8997126854022093 1:0.58333333 2:0.58333333 3:0.39481123 4:0.5672043 5:0.44458931 120:1 130:1 237:1 
0.3242913090909916 1:0.16666667 2:0.16666667 3:0.34456877 4:0.64717742 5:0.51158192 12:1 87:1 93:1 192:1 208:1 255:1 
2 1:0.083333333 2:0.083333333 3:0.42637105 4:0.48252688 5:0.40254237 12:1 76:1 183:1 208:1 255:1 
0.2089604776124545 1:0.5 2:0.5 3:0.47575632 4:0.43548387 5:0.55508475 12:1 20:1 95:1 126:1 257:1 
1.968284350720333 1:0.33333333 2:0.33333333 3:0.50704111 4:0.5766129 5:0.51844467 12:1 20:1 41:1 88:1 93:1 219:1 255:1 
1.803513147688308 1:0.41666667 2:0.41666667 3:0.54666851 4:0.52016129 5:0.50564972 12:1 20:1 40:1 51:1 65:1 93:1 257:1 
1.467988531200101 1:0.16666667 2:0.16666667 3:0.47930193 4:0.54133065 5:0.49971751 12:1 20:1 40:1 87:1 243:1 255:1 
0.5908759327862013 1:0.25 2:0.25 3:0.33614795 4:0.49596774 5:0.39936441 12:1 18:1 76:1 192:1 225:1 255:1 
2 1:0.58333333 2:0.58333333 3:0.41193535 4:0.5766129 5:0.50169492 12:1 18:1 41:1 95:1 127:1 225:1 
2 1:0.25 2:0.25 3:0.39930412 4:0.49596774 5:0.4253178 14:1 75:1 111:1 126:1 255:1 
2 1:0.16666667 2:0.16666667 3:0.41193535 4:0.43548387 5:0.55508475 14:1 64:1 95:1 123:1 160:1 256:1 
0.9427044990941347 1:0.41666667 2:0.41666667 3:0.37825206 4:0.52016129 5:0.45621469 14:1 41:1 160:1 192:1 225:1 
0.1232838323753736 1:0.33333333 2:0.33333333 3:0.38815891 4:0.43548387 5:0.55508475 14:1 19:1 39:1 75:1 88:1 93:1 256:1 
0.859321780668598 1:0.41666667 2:0.41666667 3:0.37825206 4:0.52016129 5:0.45621469 14:1 19:1 39:1 208:1 225:1 255:1 
1.133114099795668 1:0.83333333 2:0.83333333 3:0.38557451 4:0.43548387 5:0.55508475 14:1 19:1 93:1 127:1 225:1 257:1 
2 1:0.75 2:0.75 3:0.39356265 4:0.012096774 5:0.57395994 14:1 19:1 76:1 93:1 128:1 225:1 
1.567015612641791 1:0.5 2:0.5 3:0.36938804 4:0.64717742 5:0.51449599 14:1 19:1 41:1 93:1 192:1 207:1 
1.282378983552421 1:0.58333333 2:0.58333333 3:0.41193535 4:0.5766129 5:0.50169492 14:1 19:1 41:1 93:1 148:1 225:1 255:1 
2 1:0.5 2:0.5 3:0.47575632 4:0.43548387 5:0.55508475 14:1 19:1 41:1 113:1 183:1 
0.4709644188042984 1:0.33333333 2:0.33333333 3:0.32871781 4:0.43548387 5:0.55508475 14:1 19:1 40:1 63:1 93:1 192:1 256:1 
2 1:0.41666667 2:0.41666667 3:0.37825206 4:0.35080645 5:0.6539548 14:1 18:1 39:1 93:1 111:1 126:1 
0.9036908270756359 1:0.25 2:0.25 3:0.39930412 4:0.49596774 5:0.4253178 14:1 18:1 39:1 207:1 257:1 276:1 
2 1:0.25 2:0.25 3:0.39930412 4:0.61693548 5:0.5118291 14:1 18:1 111:1 219:1 227:1 255:1 
1.512105853302812 1:0.16666667 2:0.16666667 3:0.41193535 4:0.43548387 5:0.55508475 112:1 192:1 243:1 256:1 
1.726099079913265 1:0.16666667 2:0.16666667 3:0.41193535 4:0.54133065 5:0.48389831 88:1 95:1 192:1 208:1 255:1 
1.398447929620589 1:0.5 2:0.5 3:0.52894046 4:0.43548387 5:0.55508475 19:1 51:1 65:1 93:1 112:1 257:1 
1.309521331112612 1:0.33333333 2:0.33333333 3:0.50704111 4:0.29435484 5:0.59172483 19:1 40:1 53:1 64:1 88:1 93:1 255:1 
2 1:0.33333333 2:0.33333333 3:0.50704111 4:0.29435484 5:0.59172483 20:1 75:1 160:1 208:1 
0.9060062436690508 1:0.41666667 2:0.41666667 3:0.43439088 4:0.35080645 5:0.63747646 20:1 87:1 93:1 244:1 265:1 
1.066299015745903 1:0.25 2:0.25 3:0.46246028 4:0.375 5:0.65889831 20:1 76:1 160:1 192:1 255:1 
1.167105196991607 1:0.33333333 2:0.33333333 3:0.44760001 4:0.43548387 5:0.55508475 20:1 52:1 75:1 93:1 192:1 256:1 
2 1:0.66666667 2:0.66666667 3:0.54666851 4:0.012096774 5:0.56497175 20:1 52:1 128:1 225:1 257:1 
2 1:0.5 2:0.5 3:0.52894046 4:0.22379032 5:0.57694023 20:1 41:1 88:1 93:1 172:1 225:1 256:1 
2 3:0.36529695 4:0.52016129 5:0.45241199 13:1 39:1 51:1 64:1 192:1 255:1 
0.4370047690263285 1:0.41666667 2:0.41666667 3:0.43439088 4:0.35080645 5:0.63747646 13:1 40:1 76:1 93:1 225:1 257:1 
0.7822661048159385 1:0.5 2:0.5 3:0.42257218 4:0.64717742 5:0.52074041 13:1 19:1 63:1 93:1 227:1 257:1 
1.007135907309785 1:0.5 2:0.5 3:0.42257218 4:0.22379032 5:0.58942908 13:1 19:1 75:1 93:1 128:1 256:1 
0.6098279295180788 1:0.5 2:0.5 3:0.3162039 4:0.64717742 5:0.50825156 13:1 19:1 95:1 192:1 225:1 
2 1:0.58333333 2:0.58333333 3:0.31088548 4:0.29435484 5:0.62627119 13:1 19:1 194:1 209:1 225:1 266:1 
0.6267355314419677 1:0.16666667 2:0.16666667 3:0.41193535 4:0.11794355 5:0.57881356 13:1 19:1 52:1 88:1 160:1 256:1 
0.4416491188328703 1:0.41666667 2:0.41666667 3:0.37825206 4:0.18145161 5:0.58804143 13:1 19:1 40:1 225:1 244:1 
0.1582759821230993 1:0.5 2:0.5 3:0.42257218 4:0.43548387 5:0.55508475 13:1 20:1 51:1 93:1 225:1 256:1 
2 1:0.41666667 2:0.41666667 3:0.49052969 4:0.18145161 5:0.57705587 13:1 20:1 41:1 128:1 192:1 256:1 
0.1775788939670205 1:0.16666667 2:0.16666667 3:0.41193535 4:0.22379032 5:0.59067797 13:1 18:1 88:1 183:1 256:1 
1.925533818181818 1:0.33333333 2:0.33333333 3:0.44760001 4:0.012096774 5:0.57078764 13:1 18:1 52:1 126:1 257:1 
2 1:0.16666667 2:0.16666667 3:0.34456877 4:0.43548387 5:0.55508475 13:1 18:1 40:1 93:1 192:1 207:1 255:1 
0.9374751013243198 1:0.25 2:0.25 3:0.25156471 4:0.38988834 5:0.54368934 12:1 45:1 84:1 144:1 162:1 253:1 
0.05399815188856978 1:0.25 2:0.25 3:0.45366445 4:0.45502481 5:0.55615296 12:1 75:1 180:1 236:1 252:1 
0.9283344807592588 2:2.1279275e-16 3:0.36705027 4:0.4672379 5:0.54964844 12:1 84:1 108:1 123:1 216:1 252:1 
0.7015103018126064 1:0.16666667 2:0.16666667 3:0.31893129 4:0.33870968 5:0.55242286 12:1 86:1 123:1 216:1 222:1 253:1 
1.734261127557519 1:0.58333333 2:0.58333333 3:0.36705027 4:0.42607527 5:0.55146443 12:1 86:1 92:1 164:1 
2 1:0.41666667 2:0.41666667 3:0.40313951 4:0.44318182 5:0.55324678 12:1 92:1 144:1 200:1 252:1 
2 1:0.16666667 2:0.16666667 3:0.43120892 4:0.33870968 5:0.5639577 12:1 76:1 123:1 235:1 252:1 265:1 
1.524925681241816 1:0.33333333 2:0.33333333 3:0.47203715 4:0.44959677 5:0.55777083 12:1 20:1 75:1 216:1 236:1 252:1 
1.713782593782325 1:0.33333333 2:0.33333333 3:0.28831012 4:0.30846774 5:0.55129934 12:1 20:1 37:1 84:1 223:1 253:1 
1.304136483761407 1:0.33333333 2:0.33333333 3:0.28831012 4:0.30846774 5:0.55129934 12:1 18:1 84:1 146:1 200:1 253:1 
0.9764520284000807 1:0.41666667 2:0.41666667 3:0.15051484 4:0.36620235 5:0.5351206 14:1 19:1 38:1 84:1 234:1 264:1 
1.822664627217097 1:0.5 2:0.5 3:0.26711084 4:0.35080645 5:0.54652868 14:1 20:1 38:1 216:1 236:1 253:1 
0.5484470962010023 1:0.33333333 2:0.33333333 3:0.47203715 4:0.44959677 5:0.55777083 36:1 46:1 64:1 75:1 266:1 
2 1:0.25 2:0.25 3:0.45366445 4:0.45502481 5:0.55615296 36:1 75:1 144:1 188:1 252:1 
2 1:0.33333333 2:0.33333333 3:0.56390067 4:0.44959677 5:0.56424233 47:1 65:1 75:1 222:1 264:1 
1.247003997243243 1:0.5 2:0.5 3:0.42257218 4:0.52016129 5:0.55109192 45:1 63:1 144:1 152:1 
2 1:0.33333333 2:0.33333333 3:0.1964466 4:0.44959677 5:0.53835635 45:1 84:1 146:1 180:1 253:1 
2 1:0.58333333 2:0.58333333 3:0.43922875 4:0.42607527 5:0.55691237 45:1 76:1 128:1 200:1 252:1 
2 1:0.33333333 2:0.33333333 3:0.56390067 4:0.52016129 5:0.5593887 46:1 75:1 123:1 128:1 144:1 252:1 
2 1:0.33333333 2:0.33333333 3:0.38017363 4:0.52016129 5:0.54860288 46:1 84:1 180:1 188:1 216:1 252:1 
0.04713694282479273 1:0.25 2:0.25 3:0.35261458 4:0.38988834 5:0.55225808 63:1 84:1 162:1 216:1 254:1 
0.9573519899242814 1:0.33333333 2:0.33333333 3:0.65576418 4:0.44959677 5:0.57071382 63:1 77:1 125:1 252:1 
0.953805278837127 1:0.25 2:0.25 3:0.45366445 4:0.38988834 5:0.56082681 85:1 123:1 144:1 236:1 252:1 
2 1:0.25 2:0.25 3:0.45366445 4:0.32475186 5:0.56817145 76:1 84:1 152:1 217:1 252:1 
2 1:0.083333333 2:0.083333333 3:0.52945185 4:0.35080645 5:0.57219687 64:1 75:1 180:1 216:1 253:1 
2 1:0.33333333 2:0.33333333 3:0.47203715 4:0.37903226 5:0.56343339 64:1 84:1 164:1 180:1 200:1 216:1 
1.418398147779128 1:0.16666667 2:0.16666667 3:0.43120892 4:0.27822581 5:0.57357007 13:1 18:1 36:1 123:1 222:1 252:1 
1.435319685559836 1:0.5 2:0.5 3:0.54145438 4:0.29435484 5:0.57078764 40:1 46:1 101:1 116:1 253:1 
2 1:0.58333333 2:0.58333333 3:0.51173383 4:0.5483871 5:0.57078764 29:1 45:1 65:1 116:1 264:1 
2 1:0.33333333 2:0.33333333 3:0.32633421 4:0.52101662 5:0.40819209 12:1 24:1 30:1 76:1 105:1 251:1 
2 1:0.25 2:0.25 3:0.35695538 4:0.34139785 5:0.54121726 12:1 26:1 30:1 42:1 75:1 88:1 
2 1:0.66666667 2:0.66666667 3:0.43159449 4:0.66397849 5:0.50829802 12:1 44:1 58:1 105:1 251:1 
0.337097352116708 1:0.66666667 2:0.66666667 3:0.43159449 4:0.30107527 5:0.52560028 12:1 32:1 44:1 211:1 
1.368450449063491 1:0.5 2:0.5 3:0.3503937 4:0.52956989 5:0.44067797 12:1 30:1 42:1 57:1 107:1 251:1 
2 1:0.58333333 2:0.58333333 3:0.25896763 4:0.37668011 5:0.57231638 14:1 26:1 43:1 100:1 249:1 
2 1:0.66666667 2:0.66666667 3:0.24212598 4:0.30107527 5:0.55155367 14:1 25:1 31:1 43:1 117:1 
2 1:0.58333333 2:0.58333333 3:0.39370079 4:0.37668011 5:0.54067797 57:1 105:1 210:1 232:1 
0.6279798063482975 1:0.58333333 2:0.58333333 3:0.39370079 4:0.58837366 5:0.49322034 44:1 117:1 156:1 251:1 
2 1:0.58333333 2:0.58333333 3:0.52843395 4:0.58837366 5:0.52485876 32:1 58:1 76:1 107:1 251:1 
0.8172512058363263 1:0.66666667 2:0.66666667 3:0.49475066 4:0.30107527 5:0.51694915 32:1 42:1 57:1 89:1 
1.736015957473196 1:0.33333333 2:0.33333333 3:0.41054243 4:0.59799609 5:0.49882298 13:1 100:1 107:1 119:1 251:1 
0.6848985677254569 1:0.33333333 2:0.33333333 3:0.39450277 4:0.45967742 5:0.5336629 12:1 24:1 100:1 141:1 176:1 253:1 
2 1:0.16666667 2:0.16666667 3:0.35841353 4:0.75537634 5:0.66035782 12:1 71:1 120:1 168:1 240:1 
2 1:0.16666667 2:0.16666667 3:0.35841353 4:0.5672043 5:0.75188324 12:1 69:1 84:1 100:1 156:1 241:1 
2 1:0.58333333 2:0.58333333 3:0.32802259 4:0.52016129 5:0.63747646 12:1 69:1 109:1 176:1 213:1 
0.4938702913097027 1:0.25 2:0.25 3:0.37766113 4:0.73185484 5:0.66516008 12:1 108:1 135:1 215:1 254:1 
1.13270449758494 1:0.25 2:0.25 3:0.37766113 4:0.62600806 5:0.69284369 12:1 108:1 176:1 192:1 252:1 
1.012473397304924 1:0.16666667 2:0.16666667 3:0.50277049 4:0.5672043 5:0.82815443 12:1 101:1 135:1 241:1 252:1 
1.200738815484407 1:0.33333333 2:0.33333333 3:0.39450277 4:0.7016129 5:0.67208098 12:1 101:1 141:1 156:1 240:1 
0.01336040901723246 1:0.5 2:0.5 3:0.47871099 4:0.60483871 5:0.73634652 12:1 101:1 176:1 215:1 
2 1:0.083333333 2:0.083333333 3:0.41393544 4:0.68951613 5:0.67740475 12:1 100:1 108:1 143:1 156:1 252:1 
2 1:0.16666667 2:0.16666667 3:0.43059201 4:0.5672043 5:0.79001883 12:1 100:1 109:1 120:1 143:1 
2 1:0.5 2:0.5 3:0.36643336 4:0.60483871 5:0.70338983 14:1 24:1 41:1 143:1 176:1 254:1 
0.3235293003530607 1:0.25 2:0.25 3:0.37766113 4:0.62600806 5:0.69284369 24:1 69:1 100:1 120:1 252:1 
2 1:0.41666667 2:0.41666667 3:0.34992195 4:0.37903226 5:0.60083638 24:1 110:1 121:1 176:1 
2 1:0.5 2:0.5 3:0.47871099 4:0.43548387 5:0.5386064 24:1 41:1 44:1 176:1 252:1 
2 1:0.58333333 2:0.58333333 3:0.27483845 4:0.94354839 5:0.64528199 26:1 69:1 143:1 213:1 252:1 
2 1:0.58333333 2:0.58333333 3:0.38120674 4:0.30846774 5:0.60937655 26:1 101:1 122:1 176:1 
0.7920408125464072 1:0.16666667 2:0.16666667 3:0.43059201 4:0.66129032 5:0.68832392 71:1 84:1 100:1 240:1 252:1 
2 1:0.25 2:0.25 3:0.4450277 4:0.62600806 5:0.7086629 71:1 101:1 168:1 240:1 253:1 
2 1:0.5 2:0.5 3:0.47871099 4:0.43548387 5:0.5386064 71:1 85:1 101:1 176:1 
2 1:0.41666667 2:0.41666667 3:0.34992195 4:0.52016129 5:0.63747646 69:1 84:1 101:1 122:1 241:1 
0.9480638421794446 1:0.5 2:0.5 3:0.31029455 4:0.60483871 5:0.68691149 69:1 99:1 141:1 242:1 253:1 
2 1:0.33333333 2:0.33333333 3:0.39450277 4:0.45967742 5:0.5336629 69:1 85:1 100:1 168:1 
2 1:0.5 2:0.5 3:0.42257218 4:0.60483871 5:0.71986817 70:1 86:1 101:1 122:1 136:1 142:1 252:1 
0.2860995518052137 1:0.25 2:0.25 3:0.4450277 4:0.52016129 5:0.63747646 99:1 108:1 121:1 
2 1:0.16666667 2:0.16666667 3:0.50277049 4:0.75537634 5:0.67561205 99:1 120:1 135:1 143:1 252:1 
2 1:0.25 2:0.25 3:0.37766113 4:0.62600806 5:0.69284369 99:1 120:1 141:1 156:1 253:1 
1.506080815245727 1:0.5 2:0.5 3:0.31029455 4:0.60483871 5:0.68691149 99:1 170:1 213:1 254:1 
2 1:0.083333333 2:0.083333333 3:0.33620477 4:0.60483871 5:0.69451688 108:1 120:1 192:1 240:1 253:1 
2 1:0.41666667 2:0.41666667 3:0.40936305 4:0.66129032 5:0.68458513 108:1 143:1 176:1 204:1 
0.2877743228220739 1:0.41666667 2:0.41666667 3:0.34992195 4:0.52016129 5:0.63747646 110:1 120:1 176:1 240:1 
2 1:0.5 2:0.5 3:0.31029455 4:0.77419355 5:0.6539548 141:1 156:1 214:1 228:1 254:1 
0.03422788254309619 1:0.25 2:0.25 3:0.31029455 4:0.52016129 5:0.63747646 109:1 156:1 242:1 252:1 
2 1:0.25 2:0.25 3:0.51239428 4:0.52016129 5:0.63747646 101:1 120:1 135:1 229:1 
0.5265551701168157 1:0.5 2:0.5 3:0.42257218 4:0.43548387 5:0.55508475 101:1 176:1 242:1 252:1 
0.1760031878993596 1:0.25 2:0.25 3:0.4450277 4:0.52016129 5:0.63747646 101:1 121:1 168:1 252:1 
0.5044823935439864 1:0.5 2:0.5 3:0.47871099 4:0.60483871 5:0.73634652 65:1 70:1 215:1 253:1 
2 1:0.41666667 2:0.41666667 3:0.46880414 4:0.52016129 5:0.63747646 64:1 70:1 86:1 101:1 122:1 136:1 142:1 252:1 
1.026804322741136 1:0.33333333 2:0.33333333 3:0.3313466 4:0.7016129 5:0.66342985 43:1 108:1 215:1 252:1 276:1 
2 1:0.33333333 2:0.33333333 3:0.3313466 4:0.45967742 5:0.55961629 43:1 204:1 228:1 241:1 
2 1:0.5 2:0.5 3:0.36643336 4:0.60483871 5:0.70338983 44:1 71:1 215:1 253:1 278:1 
2 1:0.66666667 2:0.66666667 3:0.34397784 4:0.37903226 5:0.60188324 44:1 141:1 158:1 214:1 253:1 
1.136589003545825 1:0.66666667 2:0.66666667 3:0.2934529 4:0.37903226 5:0.61078154 44:1 206:1 213:1 254:1 
0.3926783327357181 1:0.33333333 2:0.33333333 3:0.39450277 4:0.45967742 5:0.5336629 42:1 99:1 141:1 156:1 253:1 
0.1004330307273204 1:0.5 2:0.5 3:0.36643336 4:0.43548387 5:0.57156309 42:1 100:1 141:1 215:1 254:1 
1.946010117075721 1:0.41666667 2:0.41666667 3:0.40936305 4:0.52016129 5:0.63747646 42:1 65:1 141:1 156:1 252:1 
2 1:0.33333333 2:0.33333333 3:0.45765894 4:0.45967742 5:0.50770951 41:1 43:1 63:1 192:1 253:1 
1.519088641349242 1:0.5 2:0.5 3:0.42257218 4:0.60483871 5:0.71986817 40:1 71:1 176:1 215:1 254:1 
2 1:0.33333333 2:0.33333333 3:0.3313466 4:0.45967742 5:0.55961629 13:1 24:1 141:1 176:1 192:1 253:1 
2 1:0.5 2:0.5 3:0.31029455 4:0.43548387 5:0.58804143 13:1 69:1 176:1 206:1 252:1 
0.9289277830795238 1:0.33333333 2:0.33333333 3:0.39450277 4:0.58064516 5:0.74129002 13:1 42:1 143:1 215:1 252:1 
2 1:0.33333333 2:0.33333333 3:0.45765894 4:0.58064516 5:0.76724341 13:1 41:1 204:1 214:1 252:1 
2 1:0.33333333 2:0.33333333 3:0.51767794 4:0.36491935 5:0.55613161 25:1 40:1 53:1 100:1 249:1 
2 1:0.16666667 2:0.16666667 3:0.5511811 4:0.47076613 5:0.57180277 12:1 24:1 39:1 52:1 63:1 236:1 
2 1:0.16666667 2:0.16666667 3:0.45931759 4:0.54133065 5:0.54753467 12:1 24:1 51:1 63:1 229:1 250:1 
2 1:0.33333333 2:0.33333333 3:0.36038764 4:0.49899194 5:0.53705997 12:1 26:1 40:1 195:1 206:1 250:1 
0.9204792295004107 1:0.16666667 2:0.16666667 3:0.36745407 4:0.40020161 5:0.54753467 12:1 25:1 40:1 64:1 235:1 251:1 264:1 
2 1:0.5 2:0.5 3:0.42257218 4:0.64717742 5:0.53926554 14:1 24:1 41:1 119:1 236:1 251:1 
2 1:0.33333333 2:0.33333333 3:0.36038764 4:0.49899194 5:0.53705997 14:1 26:1 51:1 64:1 68:1 204:1 251:1 
2 1:0.16666667 2:0.16666667 3:0.45931759 4:0.54133065 5:0.54753467 14:1 26:1 40:1 51:1 63:1 195:1 251:1 
2 1:0.5 2:0.5 3:0.42257218 4:0.43548387 5:0.55508475 14:1 25:1 53:1 65:1 158:1 250:1 
2 1:0.33333333 2:0.33333333 3:0.67131032 4:0.49899194 5:0.58269231 24:1 39:1 53:1 65:1 196:1 250:1 
1.946854044194791 1:0.58333333 2:0.58333333 3:0.44783465 4:0.63205645 5:0.54173729 24:1 51:1 117:1 140:1 250:1 
2 1:0.25 2:0.25 3:0.40573053 4:0.67604472 5:0.53739799 24:1 111:1 204:1 215:1 228:1 250:1 
2 1:0.41666667 2:0.41666667 3:0.32152231 4:0.37668011 5:0.53135593 13:1 26:1 40:1 175:1 204:1 250:1 
2 1:0.33333333 2:0.33333333 3:0.28265698 4:0.58366935 5:0.52755324 13:1 25:1 119:1 132:1 213:1 251:1 
2 1:0.33333333 2:0.33333333 3:0.28265698 4:0.39314516 5:0.5375163 14:1 24:1 36:1 44:1 174:1 252:1 
2 1:0.25 2:0.25 3:0.32152231 4:0.416239 5:0.54322034 24:1 84:1 92:1 229:1 252:1 
2 1:0.25 2:0.25 3:0.32152231 4:0.416239 5:0.54322034 36:1 68:1 85:1 123:1 228:1 254:1 
2 1:0.25 2:0.25 3:0.40573053 4:0.49321848 5:0.5509887 36:1 44:1 84:1 92:1 111:1 228:1 252:1 
0.591716994002653 1:0.25 2:0.25 3:0.32152231 4:0.416239 5:0.54322034 85:1 228:1 239:1 253:1 
2 1:0.33333333 2:0.33333333 3:0.28265698 4:0.30846774 5:0.53181226 85:1 91:1 220:1 230:1 252:1 
2 1:0.25 2:0.25 3:0.32152231 4:0.416239 5:0.54322034 66:1 84:1 91:1 111:1 252:1 276:1 
2 1:0.25 2:0.25 3:0.37884868 4:0.7016129 5:0.67819698 12:1 47:1 60:1 96:1 179:1 246:1 
1.763272678513779 1:0.33333333 2:0.33333333 3:0.39550525 4:0.38172043 5:0.56783192 12:1 85:1 153:1 208:1 246:1 
2 1:0.33333333 2:0.33333333 3:0.39550525 4:0.47580645 5:0.54749294 24:1 46:1 73:1 192:1 246:1 
1.217458932322822 1:0.5 2:0.5 3:0.35941601 4:0.55645161 5:0.49452684 45:1 60:1 72:1 154:1 246:1 
1.437226997092441 1:0.58333333 2:0.58333333 3:0.37427629 4:0.61693548 5:0.5983404 46:1 73:1 153:1 167:1 
2 1:0.58333333 2:0.58333333 3:0.37427629 4:0.61693548 5:0.5983404 37:1 46:1 108:1 153:1 179:1 248:1 
2 1:0.5 2:0.5 3:0.42257218 4:0.19354839 5:0.57980226 37:1 46:1 109:1 128:1 246:1 
1.747020331331167 1:0.41666667 2:0.41666667 3:0.20784121 4:0.73790323 5:0.58103814 12:1 24:1 36:1 213:1 249:1 266:1 
2 1:0.083333333 2:0.083333333 3:0.42831365 4:0.73790323 5:0.58103814 12:1 24:1 96:1 108:1 208:1 251:1 
2 1:0.33333333 2:0.33333333 3:0.32332677 4:0.87903226 5:0.61917373 12:1 24:1 96:1 155:1 165:1 251:1 
2 1:0.41666667 2:0.41666667 3:0.34257437 4:0.63205645 5:0.5256709 12:1 38:1 72:1 153:1 244:1 250:1 
0.5438910984826972 1:0.25 2:0.25 3:0.37884868 4:0.82258065 5:0.66089472 12:1 46:1 60:1 96:1 144:1 251:1 
0.9855537491608285 1:0.16666667 2:0.16666667 3:0.27520779 4:0.77639296 5:0.6897952 12:1 60:1 96:1 120:1 153:1 276:1 
2 1:0.58333333 2:0.58333333 3:0.19595299 4:0.73790323 5:0.58103814 14:1 26:1 38:1 46:1 120:1 153:1 251:1 
0.5363483744502079 1:0.5 2:0.5 3:0.29625984 4:0.55645161 5:0.55508475 14:1 25:1 46:1 61:1 153:1 251:1 
1.366474052237034 1:0.5 2:0.5 3:0.35941601 4:0.7983871 5:0.68485169 36:1 46:1 72:1 165:1 251:1 
2 1:0.33333333 2:0.33333333 3:0.46768373 4:0.69086022 5:0.39036017 47:1 108:1 208:1 251:1 
2 1:0.5 2:0.5 3:0.35941601 4:0.91935484 5:0.61564266 45:1 60:1 84:1 179:1 215:1 250:1 
2 1:0.66666667 2:0.66666667 3:0.44362423 4:0.82258065 5:0.67990819 46:1 60:1 154:1 166:1 251:1 
2 1:0.25 2:0.25 3:0.37884868 4:0.90725806 5:0.62096643 72:1 144:1 167:1 179:1 192:1 251:1 
0.4741767363000247 1:0.58333333 2:0.58333333 3:0.37427629 4:0.73790323 5:0.58103814 37:1 46:1 108:1 153:1 179:1 250:1 
0.4409590342849276 1:0.33333333 2:0.33333333 3:0.39550525 4:0.59677419 5:0.53019068 25:1 46:1 97:1 108:1 251:1 
0.6487706640067552 1:0.58333333 2:0.58333333 3:0.51520122 4:0.57157258 5:0.54041902 34:1 112:1 190:1 251:1 
1.037487982166806 1:0.66666667 2:0.66666667 3:0.29972724 4:0.3296371 5:0.56295558 86:1 206:1 235:1 250:1 
1.071823863744122 1:0.58333333 2:0.58333333 3:0.38888889 4:0.45060484 5:0.55772128 101:1 206:1 235:1 251:1 
0.513281192749433 1:0.41666667 2:0.41666667 3:0.60542432 4:0.51780914 5:0.53483992 53:1 99:1 112:1 250:1 
1.876319470110782 1:0.5 2:0.5 3:0.55730534 4:0.54133065 5:0.53794727 53:1 112:1 191:1 250:1 
1.404604015945218 1:0.5 2:0.5 3:0.42257218 4:0.71774194 5:0.82966102 12:1 34:1 179:1 207:1 249:1 
0.9200177163483839 1:0.25 2:0.25 3:0.49475066 4:0.74126344 5:0.77881356 12:1 96:1 155:1 207:1 251:1 
2 1:0.33333333 2:0.33333333 3:0.49475066 4:0.47825024 5:0.53559322 12:1 96:1 102:1 208:1 250:1 
0.07622821596662382 1:0.41666667 2:0.41666667 3:0.41701999 4:0.41666667 5:0.55901782 14:1 25:1 34:1 208:1 
2 1:0.33333333 2:0.33333333 3:0.49475066 4:0.47825024 5:0.53559322 24:1 102:1 208:1 251:1 
0.9187034076574212 1:0.5 2:0.5 3:0.3503937 4:0.52956989 5:0.53728814 35:1 50:1 54:1 251:1 
2 1:0.66666667 2:0.66666667 3:0.49475066 4:0.36827957 5:0.55932203 34:1 56:1 208:1 250:1 
2 1:0.5 2:0.5 3:0.42257218 4:0.43548387 5:0.55508475 56:1 72:1 122:1 208:1 250:1 
2 1:0.41666667 2:0.41666667 3:0.41701999 4:0.33198925 5:0.56947523 54:1 72:1 82:1 97:1 104:1 217:1 
1.202649705683861 1:0.41666667 2:0.41666667 3:0.33928932 4:0.50134409 5:0.54951108 54:1 72:1 242:1 250:1 276:1 
2 1:0.41666667 2:0.41666667 3:0.49475066 4:0.24731183 5:0.57118644 54:1 102:1 208:1 
2 1:0.25 2:0.25 3:0.49475066 4:0.60013441 5:0.42288136 13:1 155:1 207:1 216:1 
2 1:0.5 2:0.5 3:0.3503937 4:0.52956989 5:0.53728814 13:1 56:1 129:1 144:1 251:1 
2 1:0.33333333 2:0.33333333 3:0.49475066 4:0.40127077 5:0.55423729 13:1 54:1 83:1 102:1 131:1 208:1 
2 1:0.58333333 2:0.58333333 3:0.23934989 4:0.38844086 5:0.63135593 127:1 157:1 163:1 249:1 264:1 
0.5939530901888581 1:0.66666667 2:0.66666667 3:0.41739013 4:0.43548387 5:0.55508475 128:1 142:1 162:1 249:1 264:1 
0.2027927473681757 1:0.66666667 2:0.66666667 3:0.33836395 4:0.57167832 5:0.50070621 12:1 57:1 129:1 227:1 248:1 
1.061023615079244 1:0.41666667 2:0.41666667 3:0.59098863 4:0.47270471 5:0.48587571 39:1 75:1 226:1 246:1 
0.058764148949532 1:0.5 2:0.5 3:0.42257218 4:0.38256048 5:0.58898305 26:1 221:1 223:1 256:1 
0.9127034705713091 1:0.33333333 2:0.33333333 3:0.79790026 4:0.48252688 5:0.71525424 51:1 89:1 191:1 256:1 
2 1:0.5 2:0.5 3:0.42257218 4:0.54133065 5:0.53813559 119:1 189:1 239:1 256:1 
1.233466274889293 1:0.41666667 2:0.41666667 3:0.49475066 4:0.3607685 5:0.55508475 155:1 174:1 198:1 256:1 
2 1:0.58333333 2:0.58333333 3:0.62106299 4:0.40725806 5:0.44385593 54:1 130:1 238:1 256:1 
2 1:0.66666667 2:0.66666667 3:0.55088947 4:0.375 5:0.53201507 54:1 103:1 166:1 257:1 
1.027141490488181 1:0.5 2:0.5 3:0.56692913 4:0.43548387 5:0.55508475 25:1 166:1 238:1 256:1 
1.191096612150438 1:0.66666667 2:0.66666667 3:0.42257218 4:0.53812317 5:0.31779661 11:1 58:1 176:1 
0.2710469603106824 1:0.83333333 2:0.83333333 3:0.29625984 4:0.57844575 5:0.28072034 9:1 57:1 176:1 250:1 
2 1:0.58333333 2:0.58333333 3:0.42257218 4:0.56634897 5:0.3029661 10:1 24:1 44:1 59:1 73:1 92:1 251:1 
1.093810851792434 1:0.5 2:0.5 3:0.25415573 4:0.43548387 5:0.44632768 26:1 37:1 43:1 59:1 
-2 1:0.58333333 2:0.58333333 3:0.42257218 4:0.39699413 5:0.22881356 44:1 59:1 90:1 121:1 250:1 
-0.1067243914028399 1:0.083333333 2:0.083333333 3:0.55489939 4:0.37774927 5:0.57274011 12:1 30:1 76:1 135:1 155:1 243:1 253:1 
-0.3195728297796761 1:0.083333333 2:0.083333333 3:0.42257218 4:0.44991752 5:0.46610169 24:1 42:1 84:1 109:1 192:1 205:1 251:1 
-0.6457941995468174 1:0.41666667 2:0.41666667 3:0.7057339 4:0.33198925 5:0.53896675 17:1 27:1 41:1 112:1 176:1 222:1 
-2 1:0.41666667 2:0.41666667 3:0.50524934 4:0.50604839 5:0.55616333 46:1 84:1 92:1 192:1 233:1 252:1 
-0.6461848889366537 1:0.58333333 2:0.58333333 3:0.64873141 4:0.45900538 5:0.52683616 39:1 113:1 137:1 176:1 238:1 
-1.39238976067147 1:0.5 2:0.5 3:0.24424888 4:0.43548387 5:0.52367896 12:1 28:1 45:1 127:1 146:1 206:1 
-2 1:0.41666667 2:0.41666667 3:0.49052969 4:0.18145161 5:0.57705587 19:1 41:1 111:1 126:1 184:1 
-2 1:0.58333333 2:0.58333333 3:0.29265092 4:0.3531586 5:0.57711864 13:1 55:1 83:1 102:1 249:1 
-0.4160914266041184 1:0.66666667 2:0.66666667 3:0.40067283 4:0.78830645 5:0.61358031 12:1 118:1 129:1 170:1 233:1 250:1 
-2 1:0.75 2:0.75 3:0.31029455 4:0.52016129 5:0.63747646 26:1 44:1 69:1 141:1 214:1 241:1 
-0.2281305815330599 1:0.25 2:0.25 3:0.32929538 4:0.27915633 5:0.56177749 75:1 145:1 206:1 220:1 230:1 246:1 
-2 1:0.5 2:0.5 3:0.3552056 4:0.54133065 5:0.55112994 34:1 144:1 156:1 213:1 235:1 256:1 
-1.774333660987435 1:0.41666667 2:0.41666667 3:0.41701999 4:0.41666667 5:0.55901782 12:1 97:1 102:1 153:1 208:1 226:1 
-1.787587942154379 1:0.41666667 2:0.41666667 3:0.50524934 4:0.44091191 5:0.56047766 46:1 68:1 120:1 156:1 207:1 210:1 
-2 1:0.41666667 2:0.41666667 3:0.34257437 4:0.51108871 5:0.54297316 36:1 73:1 108:1 153:1 178:1 246:1 
-0.8244209783048855 1:0.5 2:0.5 3:0.42257218 4:0.18145161 5:0.61497718 19:1 76:1 84:1 92:1 126:1 198:1 
-1.809123347087896 1:0.33333333 2:0.33333333 3:0.45031136 4:0.78830645 5:0.61940844 12:1 41:1 105:1 144:1 216:1 231:1 250:1 
-2 1:0.16666667 2:0.16666667 3:0.59098863 4:0.25073314 5:0.62146893 53:1 76:1 135:1 138:1 229:1 253:1 
-0.6585630360551097 1:0.25 2:0.25 3:0.39450277 4:0.22653959 5:0.57038606 13:1 76:1 122:1 164:1 229:1 244:1 
-0.3973807517232286 1:0.41666667 2:0.41666667 3:0.58768634 4:0.80241935 5:0.67673369 63:1 71:1 100:1 137:1 143:1 214:1 
-0.280635026742414 3:0.58792651 4:0.41196237 5:0.66671803 39:1 64:1 84:1 135:1 156:1 181:1 246:1 
-0.3331593009310533 1:0.25 2:0.25 3:0.4450277 4:0.73185484 5:0.67306968 65:1 70:1 110:1 120:1 135:1 168:1 252:1 
-0.0851364322877676 1:0.41666667 2:0.41666667 3:0.48381452 4:0.31359971 5:0.61422702 22:1 156:1 164:1 181:1 200:1 217:1 256:1 
-2 1:0.41666667 2:0.41666667 3:0.40936305 4:0.66129032 5:0.68458513 12:1 42:1 71:1 101:1 213:1 228:1 
-2 1:0.5 2:0.5 3:0.42257218 4:0.37034739 5:0.70932203 13:1 30:1 45:1 76:1 165:1 257:1 
-0.9027528734165599 1:0.58333333 2:0.58333333 3:0.27483845 4:0.096774194 5:0.62967093 14:1 44:1 69:1 109:1 174:1 213:1 253:1 
-0.8628576400351607 1:0.75 2:0.75 3:0.51001918 4:0.61693548 5:0.57238701 99:1 116:1 141:1 185:1 190:1 249:1 
-1.020045074865311 1:0.25 2:0.25 3:0.35888529 4:0.62365591 5:0.66799601 12:1 74:1 84:1 168:1 186:1 233:1 251:1 
-0.02129752238405746 1:0.33333333 2:0.33333333 3:0.39550525 4:0.87903226 5:0.63188559 36:1 47:1 126:1 155:1 179:1 192:1 251:1 
-0.4189695555498186 1:0.25 2:0.25 3:0.26509186 4:0.20026882 5:0.53717257 13:1 25:1 31:1 193:1 208:1 210:1 
-2 1:0.58333333 2:0.58333333 3:0.32802259 4:0.52016129 5:0.63747646 43:1 69:1 100:1 170:1 214:1 252:1 
-0.8422202121570402 1:0.083333333 2:0.083333333 3:0.12182852 4:0.43067265 5:0.5269774 14:1 51:1 120:1 155:1 180:1 229:1 253:1 
-2 1:0.41666667 2:0.41666667 3:0.57155596 4:0.44318182 5:0.56533089 46:1 76:1 84:1 92:1 123:1 152:1 252:1 
-2 1:0.41666667 2:0.41666667 3:0.43439088 4:0.52016129 5:0.47269303 20:1 75:1 93:1 148:1 192:1 225:1 256:1 
-2 1:0.75 2:0.75 3:0.31029455 4:0.52016129 5:0.63747646 44:1 69:1 170:1 176:1 213:1 252:1 
-1.066633911745664 1:0.5 2:0.5 3:0.49475066 4:0.43548387 5:0.54745763 34:1 72:1 82:1 104:1 208:1 241:1 
-1.648468999087841 1:0.25 2:0.25 3:0.53431001 4:0.73790323 5:0.58103814 12:1 36:1 84:1 166:1 208:1 243:1 250:1 
-2 1:0.41666667 2:0.41666667 3:0.40936305 4:0.37903226 5:0.59036779 24:1 41:1 42:1 108:1 176:1 206:1 
-1.725446291769696 1:0.66666667 2:0.66666667 3:0.49475066 4:0.30107527 5:0.51694915 32:1 44:1 118:1 158:1 232:1 
-0.5767628916115428 1:0.91666667 2:0.91666667 3:0.5067804 4:0.50604839 5:0.55409605 34:1 65:1 81:1 165:1 175:1 250:1 
-0.03428050714103414 1:0.66666667 2:0.66666667 3:0.3503937 4:0.2558651 5:0.15254237 44:1 110:1 138:1 193:1 212:1 250:1 
-0.1240337487169946 1:0.66666667 2:0.66666667 3:0.45083788 4:0.42137097 5:0.5581027 7:1 104:1 128:1 192:1 209:1 
-2 1:0.66666667 2:0.66666667 3:0.37310721 4:0.33669355 5:0.55905338 20:1 92:1 120:1 127:1 138:1 
-0.7708335371518064 1:0.41666667 2:0.41666667 3:0.34257437 4:0.4203629 5:0.56258239 13:1 86:1 97:1 122:1 154:1 233:1 
-0.2792697931714745 1:0.41666667 2:0.41666667 3:0.57155596 4:0.28922287 5:0.58949913 20:1 75:1 92:1 125:1 150:1 216:1 253:1 
-2 1:0.16666667 2:0.16666667 3:0.43120892 4:0.39919355 5:0.55819028 12:1 36:1 85:1 125:1 200:1 216:1 252:1 
-2 1:0.25 2:0.25 3:0.49475066 4:0.60013441 5:0.42288136 12:1 24:1 54:1 179:1 192:1 209:1 
-1.343027909360182 1:0.66666667 2:0.66666667 3:0.36604078 4:0.20967742 5:0.63639327 6:1 19:1 55:1 127:1 220:1 
-0.5649401753102977 1:0.41666667 2:0.41666667 3:0.49475066 4:0.56000949 5:0.55508475 26:1 53:1 71:1 87:1 155:1 175:1 255:1 
-2 1:0.5 2:0.5 3:0.48993876 4:0.3296371 5:0.5405838 112:1 141:1 160:1 165:1 176:1 196:1 
-0.2533159749215956 1:0.41666667 2:0.41666667 3:0.42257218 4:0.39699413 5:0.22881356 44:1 109:1 128:1 193:1 228:1 251:1 
-0.2021738376914776 1:0.41666667 2:0.41666667 3:0.33070866 4:0.60868768 5:0.27734977 24:1 38:1 59:1 108:1 128:1 228:1 250:1 
-1.032354826149021 1:0.16666667 2:0.16666667 3:0.36745407 4:0.68245968 5:0.53459168 12:1 111:1 119:1 171:1 206:1 228:1 251:1 
-0.3003373882214722 1:0.75 2:0.75 3:0.38976378 4:0.41196237 5:0.55422628 103:1 122:1 164:1 209:1 212:1 
-0.8480284048747289 1:0.5 2:0.5 3:0.42257218 4:0.62365591 5:0.3720339 34:1 96:1 130:1 153:1 168:1 208:1 
-2 1:0.58333333 2:0.58333333 3:0.52209099 4:0.42906891 5:0.56264481 6:1 47:1 128:1 233:1 
-2 1:0.083333333 2:0.083333333 3:0.55136123 4:0.4611437 5:0.51922012 24:1 39:1 51:1 54:1 85:1 100:1 
-0.3123030136145407 1:0.083333333 2:0.083333333 3:0.62467192 4:0.40291563 5:0.63220339 12:1 64:1 76:1 160:1 191:1 205:1 257:1 
-1.049328279883506 1:0.33333333 2:0.33333333 3:0.5417592 4:0.64717742 5:0.52740113 28:1 83:1 101:1 196:1 203:1 251:1 
-2 1:0.58333333 2:0.58333333 3:0.45204506 4:0.57157258 5:0.54907015 33:1 64:1 70:1 111:1 206:1 250:1 
-0.0756861320775026 1:0.083333333 2:0.083333333 3:0.41054243 4:0.21897911 5:0.58121469 13:1 52:1 76:1 121:1 230:1 244:1 
-2 1:0.5 2:0.5 3:0.34484151 4:0.43548387 5:0.5493807 45:1 64:1 92:1 180:1 223:1 252:1 
-0.4916378224696356 1:0.41666667 2:0.41666667 3:0.40332458 4:0.08266129 5:0.48926554 28:1 30:1 116:1 181:1 230:1 246:1 
-0.1960044223188376 1:0.58333333 2:0.58333333 3:0.70888014 4:0.26915323 5:0.45918079 16:1 65:1 77:1 214:1 222:1 236:1 257:1 
-1.036578407809877 1:0.41666667 2:0.41666667 3:0.40419948 4:0.44091191 5:0.55346687 19:1 47:1 60:1 91:1 208:1 231:1 
-0.286451263626351 1:0.58333333 2:0.58333333 3:0.44478094 4:0.32258065 5:0.57420687 19:1 64:1 128:1 144:1 164:1 228:1 248:1 
-2 1:0.25 2:0.25 3:0.46246028 4:0.49596774 5:0.45127119 76:1 93:1 123:1 127:1 160:1 183:1 255:1 
-0.4997013562969593 1:0.16666667 2:0.16666667 3:0.52783246 4:0.31451613 5:0.55632062 37:1 97:1 109:1 128:1 232:1 244:1 
-0.3725897944557179 1:0.33333333 2:0.33333333 3:0.51767794 4:0.89415323 5:0.61545364 39:1 51:1 84:1 101:1 105:1 131:1 251:1 
-0.4585606064539521 1:0.5 2:0.5 3:0.33070866 4:0.22379032 5:0.66024653 6:1 49:1 126:1 165:1 234:1 
-1.128020394827199 1:0.16666667 2:0.16666667 3:0.43059201 4:0.75537634 5:0.66798493 24:1 65:1 99:1 108:1 143:1 242:1 252:1 
-0.6594677129878611 1:0.33333333 2:0.33333333 3:0.34091572 4:0.4858871 5:0.51808338 13:1 43:1 75:1 120:1 180:1 214:1 
-1.568522607397074 1:0.16666667 2:0.16666667 3:0.47930193 4:0.43548387 5:0.55508475 12:1 88:1 94:1 126:1 159:1 208:1 255:1 
-1.134898575243126 1:0.41666667 2:0.41666667 3:0.49475066 4:0.3607685 5:0.55508475 11:1 88:1 90:1 198:1 222:1 237:1 255:1 
-0.1505854051950528 1:0.41666667 2:0.41666667 3:0.36964129 4:0.50604839 5:0.57824859 28:1 50:1 112:1 122:1 141:1 159:1 250:1 
-2 1:0.41666667 2:0.41666667 3:0.48381452 4:0.52529326 5:0.55355675 7:1 23:1 75:1 133:1 190:1 255:1 
-0.1995828971330228 1:0.5 2:0.5 3:0.48993876 4:0.64717742 5:0.53399247 33:1 65:1 120:1 143:1 172:1 214:1 
-2 1:0.41666667 2:0.41666667 3:0.38370684 4:0.55095308 5:0.55508475 12:1 21:1 64:1 142:1 198:1 228:1 251:1 
-1.395017410696858 1:0.41666667 2:0.41666667 3:0.26155865 4:0.33198925 5:0.58088331 26:1 102:1 146:1 208:1 218:1 
-2 1:0.083333333 2:0.083333333 3:0.41393544 4:0.60483871 5:0.71733304 12:1 63:1 69:1 85:1 100:1 192:1 252:1 
-0.1966652526605409 1:0.66666667 2:0.66666667 3:0.45385697 4:0.15322581 5:0.57767487 54:1 101:1 118:1 146:1 188:1 
-2 1:0.33333333 2:0.33333333 3:0.45765894 4:0.7016129 5:0.68073211 65:1 69:1 84:1 101:1 120:1 215:1 253:1 
-1.76101408992502 1:0.66666667 2:0.66666667 3:0.29180176 4:0.61189516 5:0.52873878 26:1 92:1 204:1 213:1 230:1 250:1 
-1.923560780669524 1:0.16666667 2:0.16666667 3:0.33836395 4:0.47653959 5:0.54731638 12:1 51:1 120:1 213:1 228:1 245:1 253:1 
-2 1:0.5 2:0.5 3:0.42257218 4:0.29435484 5:0.5701849 20:1 85:1 92:1 102:1 252:1 
-2 1:0.41666667 2:0.41666667 3:0.65576418 4:0.52016129 5:0.56478162 46:1 65:1 75:1 123:1 144:1 224:1 
-0.2219034953161658 1:0.58333333 2:0.58333333 3:0.56351015 4:0.85887097 5:0.54618644 14:1 77:1 95:1 161:1 226:1 245:1 
-1.22194260642407 1:0.41666667 2:0.41666667 3:0.30314961 4:0.24550248 5:0.56328197 7:1 62:1 90:1 210:1 232:1 252:1 
-2 1:0.33333333 2:0.33333333 3:0.39550525 4:0.47580645 5:0.54749294 14:1 24:1 96:1 166:1 232:1 246:1 
-2 1:0.33333333 2:0.33333333 3:0.61504812 4:0.47825024 5:0.52683616 17:1 40:1 70:1 112:1 204:1 
-1.258855979534652 1:0.5 2:0.5 3:0.6920385 4:0.43548387 5:0.52344633 113:1 137:1 142:1 196:1 245:1 
-0.3166082425159743 1:0.083333333 2:0.083333333 3:0.43788276 4:0.40642789 5:0.55829284 47:1 85:1 120:1 180:1 207:1 253:1 
-2 1:0.25 2:0.25 3:0.37766113 4:0.62600806 5:0.69284369 41:1 109:1 122:1 143:1 192:1 252:1 
-0.8401285077033388 1:0.58333333 2:0.58333333 3:0.38120674 4:0.30846774 5:0.60937655 43:1 101:1 175:1 192:1 214:1 241:1 
-2 1:0.66666667 2:0.66666667 3:0.59478749 4:0.43548387 5:0.55508475 20:1 53:1 93:1 128:1 161:1 219:1 
-1.51272281333432 1:0.5 2:0.5 3:0.5067804 4:0.3585044 5:0.58771186 21:1 44:1 76:1 101:1 242:1 256:1 
-1.011425417439611 1:0.25 2:0.25 3:0.45657935 4:0.65322581 5:0.47836538 36:1 72:1 84:1 122:1 232:1 245:1 250:1 
-1.496189111149002 1:0.41666667 2:0.41666667 3:0.41701999 4:0.67069892 5:0.60084746 12:1 74:1 120:1 178:1 209:1 251:1 
-2 1:0.33333333 2:0.33333333 3:0.41054243 4:0.52101662 5:0.46257062 12:1 32:1 118:1 157:1 192:1 243:1 
-2 1:0.25 2:0.25 3:0.40288714 4:0.45900538 5:0.55231125 24:1 54:1 98:1 192:1 208:1 
-1.20547207373782 1:0.75 2:0.75 3:0.3552056 4:0.82038123 5:0.25451977 11:1 57:1 140:1 155:1 239:1 250:1 
-0.5204910961257462 1:0.66666667 2:0.66666667 3:0.47910357 4:0.44959677 5:0.56358895 19:1 64:1 75:1 92:1 191:1 225:1 248:1 
-0.8739389877389846 1:0.25 2:0.25 3:0.35367454 4:0.33669355 5:0.55715203 20:1 30:1 60:1 121:1 156:1 192:1 
-2 1:0.58333333 2:0.58333333 3:0.37926509 4:0.56485215 5:0.54661017 47:1 71:1 224:1 237:1 253:1 
-1.178383485826882 1:0.33333333 2:0.33333333 3:0.40137291 4:0.37903226 5:0.5451286 12:1 58:1 85:1 91:1 148:1 220:1 
-0.1322764124968686 2:1.0639637e-16 3:0.40994094 4:0.77047146 5:0.81239407 12:1 36:1 121:1 144:1 192:1 243:1 251:1 
-1.256585355932001 1:0.25 2:0.25 3:0.28265698 4:0.59832506 5:0.53966102 14:1 112:1 143:1 156:1 183:1 218:1 251:1 
-2 1:0.66666667 2:0.66666667 3:0.55088947 4:0.49596774 5:0.57815443 53:1 117:1 153:1 189:1 220:1 257:1 
-2 1:0.5 2:0.5 3:0.42257218 4:0.43548387 5:0.55508475 12:1 31:1 99:1 211:1 245:1 
-0.2109122503279022 1:0.16666667 2:0.16666667 3:0.57494896 4:0.37903226 5:0.56120527 25:1 39:1 65:1 99:1 176:1 241:1 253:1 
-2 1:0.58333333 2:0.58333333 3:0.43788276 4:0.35208944 5:0.56350796 18:1 46:1 60:1 102:1 128:1 
-2 1:0.33333333 2:0.33333333 3:0.26819043 4:0.7016129 5:0.65477872 14:1 24:1 71:1 108:1 158:1 176:1 252:1 
-1.536016667409486 1:0.083333333 2:0.083333333 3:0.41054243 4:0.32482588 5:0.55861582 12:1 51:1 76:1 136:1 181:1 187:1 252:1 
-1.429635704835629 1:0.33333333 2:0.33333333 3:0.1418781 4:0.58064516 5:0.63747646 26:1 122:1 168:1 175:1 194:1 204:1 252:1 
-0.7283095354264271 1:0.25 2:0.25 3:0.4160105 4:0.60013441 5:0.52180277 28:1 95:1 136:1 189:1 204:1 216:1 
-0.1100239978952972 1:0.66666667 2:0.66666667 3:0.54286964 4:0.38416422 5:0.58418079 22:1 56:1 101:1 163:1 217:1 224:1 255:1 
-0.3002601159214138 1:0.16666667 2:0.16666667 3:0.54348655 4:0.33870968 5:0.57549254 13:1 36:1 76:1 108:1 125:1 200:1 252:1 
-0.2169485063531549 1:0.5 2:0.5 3:0.42257218 4:0.50062035 5:0.55508475 39:1 93:1 121:1 131:1 188:1 227:1 246:1 
-2 1:0.58333333 2:0.58333333 3:0.39370079 4:0.37668011 5:0.54067797 43:1 100:1 105:1 174:1 251:1 
-2 1:0.33333333 2:0.33333333 3:0.24821162 4:0.68245968 5:0.59963443 14:1 24:1 130:1 144:1 158:1 168:1 
-1.763944645805246 1:0.33333333 2:0.33333333 3:0.46768373 4:0.50268817 5:0.54290254 13:1 96:1 126:1 178:1 243:1 
-1.097508786892698 1:0.5 2:0.5 3:0.71128609 4:0.43548387 5:0.55508475 32:1 52:1 70:1 138:1 189:1 219:1 255:1 
-2 1:0.75 2:0.75 3:0.25698626 4:0.52956989 5:0.55373878 14:1 56:1 155:1 225:1 249:1 
-1.051517740300453 1:0.58333333 2:0.58333333 3:0.30042399 4:0.32258065 5:0.54878314 19:1 97:1 144:1 153:1 188:1 229:1 248:1 
-1.445550233217313 1:0.66666667 2:0.66666667 3:0.41054243 4:0.58944282 5:0.55155367 51:1 56:1 91:1 153:1 188:1 215:1 252:1 
-1.937865966946867 1:0.5 2:0.5 3:0.71128609 4:0.54133065 5:0.6059322 89:1 119:1 131:1 155:1 222:1 257:1 
-0.2133955720314293 1:0.66666667 2:0.66666667 3:0.24212598 4:0.48924731 5:0.56624294 26:1 82:1 178:1 217:1 225:1 242:1 
-1.075221941716287 1:0.33333333 2:0.33333333 3:0.35002355 4:0.49899194 5:0.56152398 13:1 33:1 86:1 100:1 112:1 191:1 
-0.9094171465351264 2:1.0639637e-16 3:0.37766113 4:0.46572581 5:0.54898776 24:1 37:1 113:1 156:1 171:1 228:1 252:1 
-2 1:0.66666667 2:0.66666667 3:0.49475066 4:0.61021505 5:0.39322034 12:1 34:1 154:1 209:1 250:1 
-0.452508245165938 1:0.41666667 2:0.41666667 3:0.18382798 4:0.41666667 5:0.58183399 13:1 50:1 102:1 144:1 225:1 242:1 
-1.073307376978565 1:0.16666667 2:0.16666667 3:0.32458443 4:0.50604839 5:0.53953518 48:1 72:1 98:1 107:1 156:1 172:1 
-0.2747379532360392 1:0.33333333 2:0.33333333 3:0.32152231 4:0.69010828 5:0.26308851 72:1 154:1 168:1 192:1 204:1 237:1 251:1 
-2 1:0.41666667 2:0.41666667 3:0.467153 4:0.63709677 5:0.69553838 26:1 40:1 53:1 106:1 119:1 216:1 
-1.279937854204636 1:0.25 2:0.25 3:0.48475671 4:0.53318859 5:0.58079096 12:1 99:1 113:1 141:1 157:1 184:1 251:1 
-2 1:0.58333333 2:0.58333333 3:0.31088548 4:0.29435484 5:0.62627119 13:1 18:1 93:1 194:1 225:1 
-0.05935984298377619 1:0.66666667 2:0.66666667 3:0.52362205 4:0.3644259 5:0.63220339 46:1 76:1 81:1 91:1 103:1 160:1 257:1 
-1.182362230357914 1:0.41666667 2:0.41666667 3:0.46880414 4:0.66129032 5:0.69505373 14:1 65:1 69:1 100:1 137:1 215:1 252:1 
-0.2582026619902678 1:0.33333333 2:0.33333333 3:0.49475066 4:0.21309873 5:0.51694915 13:1 25:1 32:1 209:1 210:1 244:1 
-0.8584715177581733 1:0.083333333 2:0.083333333 3:0.5589093 4:0.7311828 5:0.68568738 27:1 39:1 71:1 112:1 191:1 216:1 252:1 
-1.287770869655043 1:0.5 2:0.5 3:0.62467192 4:0.50062035 5:0.6579096 46:1 63:1 76:1 83:1 128:1 225:1 256:1 
-0.7498772916978214 1:0.25 2:0.25 3:0.51239428 4:0.73185484 5:0.68097928 42:1 101:1 108:1 135:1 143:1 215:1 252:1 
-0.08397202465937241 1:0.33333333 2:0.33333333 3:0.39550525 4:0.56989247 5:0.44579802 12:1 72:1 128:1 144:1 194:1 243:1 248:1 
-0.6432586151580099 1:0.41666667 2:0.41666667 3:0.65576418 4:0.28922287 5:0.60037484 65:1 75:1 123:1 164:1 188:1 222:1 253:1 
-1.612933877140823 1:0.41666667 2:0.41666667 3:0.58768634 4:0.52016129 5:0.63747646 40:1 101:1 137:1 143:1 174:1 215:1 
-2 1:0.33333333 2:0.33333333 3:0.38294478 4:0.47076613 5:0.5521768 73:1 101:1 180:1 218:1 
-1.059809454407169 1:0.41666667 2:0.41666667 3:0.6920385 4:0.4633995 5:0.70141243 127:1 160:1 185:1 221:1 239:1 255:1 
-0.4480122962357068 1:0.16666667 2:0.16666667 3:0.47930193 4:0.3296371 5:0.61045198 64:1 123:1 127:1 160:1 184:1 207:1 
-2 1:0.75 2:0.75 3:0.53412073 4:0.50604839 5:0.55785824 20:1 46:1 128:1 164:1 209:1 252:1 
-2 1:0.33333333 2:0.33333333 3:0.32152231 4:0.42956237 5:0.53728814 42:1 108:1 122:1 229:1 239:1 
-1.848594560973713 1:0.41666667 2:0.41666667 3:0.66754156 4:0.38416422 5:0.60613765 54:1 99:1 113:1 164:1 240:1 257:1 
-1.066018479783671 1:0.25 2:0.25 3:0.37884868 4:0.65322581 5:0.50118155 12:1 24:1 38:1 73:1 178:1 208:1 251:1 
-0.5290377901381002 1:0.58333333 2:0.58333333 3:0.56036745 4:0.53318859 5:0.55508475 22:1 94:1 166:1 179:1 208:1 241:1 
-2 1:0.16666667 2:0.16666667 3:0.3175853 4:0.29435484 5:0.55785824 19:1 61:1 120:1 192:1 208:1 253:1 
-2 1:0.33333333 2:0.33333333 3:0.52150212 4:0.36491935 5:0.50654854 39:1 64:1 128:1 157:1 198:1 251:1 
-0.8583784649153754 1:0.25 2:0.25 3:0.63244498 4:0.47456576 5:0.57034623 39:1 63:1 77:1 96:1 221:1 242:1 
-0.9349136973102024 1:0.41666667 2:0.41666667 3:0.31893129 4:0.44318182 5:0.54720472 14:1 45:1 63:1 75:1 126:1 187:1 252:1 
-1.869288869652555 1:0.25 2:0.25 3:0.49475066 4:0.38844086 5:0.55635593 25:1 54:1 102:1 208:1 240:1 251:1 
-0.6950479338578627 1:0.66666667 2:0.66666667 3:0.30528215 4:0.36827957 5:0.57489407 13:1 55:1 82:1 98:1 130:1 
-1.138870871409749 1:0.5 2:0.5 3:0.42257218 4:0.77419355 5:0.66494036 65:1 70:1 84:1 109:1 143:1 214:1 254:1 
-0.822185231719192 1:0.41666667 2:0.41666667 3:0.42257218 4:0.53812317 5:0.31779661 11:1 42:1 59:1 168:1 193:1 250:1 
-0.9935433173649867 1:0.25 2:0.25 3:0.46246028 4:0.375 5:0.65889831 12:1 39:1 76:1 126:1 208:1 226:1 
-0.09255863218873001 1:0.66666667 2:0.66666667 3:0.21764587 4:0.33669355 5:0.5438426 18:1 32:1 62:1 92:1 139:1 192:1 254:1 
-0.8963738273648448 1:0.5 2:0.5 3:0.42257218 4:0.71774194 5:0.62836491 26:1 129:1 204:1 233:1 243:1 250:1 
-1.569894836000157 1:0.16666667 2:0.16666667 3:0.35695538 4:0.36491935 5:0.50654854 13:1 40:1 76:1 157:1 182:1 239:1 
-2 1:0.16666667 2:0.16666667 3:0.41193535 4:0.75302419 5:0.53135593 51:1 63:1 95:1 192:1 219:1 225:1 256:1 
-1.190804611998546 1:0.5 2:0.5 3:0.48201328 4:0.43548387 5:0.56555334 12:1 45:1 77:1 89:1 103:1 161:1 253:1 
-2 2:1.0639637e-16 3:0.48993876 4:0.57157258 5:0.54865819 12:1 24:1 51:1 63:1 85:1 195:1 251:1 
-0.8058838888127656 1:0.5 2:0.5 3:0.5144357 4:0.50604839 5:0.57395994 18:1 35:1 77:1 91:1 203:1 219:1 
-2 1:0.5 2:0.5 3:0.3552056 4:0.54133065 5:0.54585687 14:1 24:1 67:1 173:1 190:1 252:1 
-0.3690067708106187 1:0.25 2:0.25 3:0.43106376 4:0.52956989 5:0.47731805 41:1 73:1 107:1 145:1 205:1 251:1 
-2 1:0.66666667 2:0.66666667 3:0.43159449 4:0.78494624 5:0.51175847 12:1 31:1 58:1 89:1 107:1 117:1 251:1 
-1.58666557712512 1:0.41666667 2:0.41666667 3:0.29048085 4:0.37903226 5:0.61130497 13:1 63:1 86:1 141:1 176:1 194:1 253:1 
-0.2205217485371781 1:0.66666667 2:0.66666667 3:0.24292797 4:0.37903226 5:0.61967985 14:1 43:1 86:1 101:1 170:1 214:1 254:1 
-2 1:0.5 2:0.5 3:0.42257218 4:0.52016129 5:0.5208605 12:1 20:1 84:1 92:1 129:1 208:1 251:1 
-0.258191400813877 1:0.33333333 2:0.33333333 3:0.39550525 4:0.69086022 5:0.42849576 61:1 73:1 84:1 155:1 166:1 179:1 
-0.2914711606140977 1:0.16666667 2:0.16666667 3:0.36745407 4:0.15322581 5:0.5270416 38:1 42:1 123:1 136:1 138:1 229:1 253:1 
-0.2270122376877976 1:0.58333333 2:0.58333333 3:0.43922875 4:0.33198925 5:0.56562907 18:1 47:1 65:1 86:1 224:1 236:1 253:1 
-2 1:0.16666667 2:0.16666667 3:0.41193535 4:0.43548387 5:0.55508475 13:1 19:1 52:1 111:1 159:1 183:1 
-2 1:0.33333333 2:0.33333333 3:0.67519685 4:0.56141439 5:0.77754237 41:1 59:1 75:1 95:1 208:1 
-2 1:0.58333333 2:0.58333333 3:0.34484151 4:0.48167155 5:0.35430248 10:1 59:1 121:1 139:1 
-0.5030468701118403 1:0.5 2:0.5 3:0.42257218 4:0.36491935 5:0.5607473 20:1 60:1 85:1 92:1 104:1 192:1 
-2 1:0.41666667 2:0.41666667 3:0.29048085 4:0.52016129 5:0.63747646 26:1 109:1 141:1 156:1 176:1 228:1 
-0.9767281272565447 1:0.66666667 2:0.66666667 3:0.1399152 4:0.42137097 5:0.53528654 20:1 45:1 62:1 120:1 138:1 211:1 254:1 
-2 1:0.16666667 2:0.16666667 3:0.27559055 4:0.43548387 5:0.53782743 12:1 24:1 38:1 136:1 229:1 238:1 252:1 
-1.289524324158625 1:0.5 2:0.5 3:0.42257218 4:0.43548387 5:0.55508475 13:1 26:1 101:1 135:1 176:1 213:1 
-0.352010994301516 1:0.58333333 2:0.58333333 3:0.59519904 4:0.58669355 5:0.55335452 64:1 77:1 82:1 143:1 167:1 176:1 
-1.971293675541209 1:0.41666667 2:0.41666667 3:0.38542149 4:0.11290323 5:0.5880899 14:1 75:1 100:1 114:1 128:1 235:1 253:1 
-0.1384097828825784 1:0.5 2:0.5 3:0.3552056 4:0.43548387 5:0.53926554 23:1 50:1 100:1 156:1 224:1 235:1 
-0.8383966827012872 3:0.31029455 4:0.40469208 5:0.60122411 26:1 40:1 108:1 121:1 228:1 241:1 253:1 
-0.9863130907684574 1:0.33333333 2:0.33333333 3:0.58321556 4:0.58366935 5:0.52920107 13:1 100:1 112:1 173:1 179:1 191:1 250:1 
-2 1:0.41666667 2:0.41666667 3:0.48734774 4:0.36620235 5:0.56619405 12:1 76:1 144:1 152:1 200:1 236:1 252:1 
-0.7315954873575952 1:0.25 2:0.25 3:0.37884868 4:0.65322581 5:0.50118155 24:1 72:1 120:1 145:1 165:1 244:1 250:1 
-0.1082811372115667 1:0.41666667 2:0.41666667 3:0.32226532 4:0.59677419 5:0.5552156 12:1 45:1 103:1 146:1 219:1 233:1 252:1 
-2 1:0.25 2:0.25 3:0.31029455 4:0.52016129 5:0.63747646 13:1 43:1 71:1 85:1 108:1 240:1 
-1.640974620360348 1:0.16666667 2:0.16666667 3:0.27520779 4:0.62243402 5:0.54478578 12:1 61:1 96:1 120:1 193:1 213:1 
-1.902624148517672 1:0.66666667 2:0.66666667 3:0.59478749 4:0.43548387 5:0.55508475 20:1 53:1 93:1 125:1 208:1 225:1 257:1 
-0.6444674834269223 1:0.41666667 2:0.41666667 3:0.56036745 4:0.39205955 5:0.57935285 7:1 88:1 166:1 195:1 220:1 236:1 252:1 
-0.6747693330545622 1:0.58333333 2:0.58333333 3:0.25836614 4:0.26915323 5:0.55730932 14:1 25:1 92:1 134:1 175:1 196:1 249:1 
-2 1:0.25 2:0.25 3:0.47998688 4:0.44959677 5:0.5581027 18:1 47:1 158:1 207:1 231:1 252:1 
-2 1:0.41666667 2:0.41666667 3:0.46880414 4:0.52016129 5:0.63747646 24:1 44:1 71:1 100:1 176:1 252:1 
-2 1:0.5 2:0.5 3:0.26711084 4:0.35080645 5:0.589309 14:1 41:1 127:1 199:1 217:1 240:1 
-1.241873185365131 1:0.25 2:0.25 3:0.47998688 4:0.50604839 5:0.55468028 47:1 68:1 84:1 120:1 192:1 207:1 
-1.191447070691288 1:0.41666667 2:0.41666667 3:0.36643336 4:0.53318859 5:0.55508475 43:1 120:1 131:1 149:1 179:1 241:1 
-2 1:0.33333333 2:0.33333333 3:0.45319335 4:0.42540323 5:0.57575758 20:1 75:1 121:1 156:1 215:1 246:1 
-0.8131064563927528 1:0.25 2:0.25 3:0.37766113 4:0.52016129 5:0.63747646 25:1 63:1 85:1 120:1 176:1 215:1 254:1 
-1.686651737559842 1:0.66666667 2:0.66666667 3:0.50704111 4:0.78830645 5:0.62606916 51:1 101:1 106:1 117:1 188:1 251:1 
-2 1:0.33333333 2:0.33333333 3:0.27229289 4:0.49899194 5:0.56912936 35:1 85:1 121:1 205:1 249:1 
-0.527745761986518 1:0.66666667 2:0.66666667 3:0.5067804 4:0.41771938 5:0.53695857 42:1 93:1 152:1 177:1 207:1 219:1 248:1 
-2 1:0.66666667 2:0.66666667 3:0.394833 4:0.36491935 5:0.56404121 17:1 50:1 106:1 199:1 246:1 
-0.6625884290398597 1:0.5 2:0.5 3:0.62467192 4:0.43548387 5:0.70932203 12:1 65:1 77:1 115:1 165:1 221:1 256:1 
-1.03170085875745 1:0.25 2:0.25 3:0.45144357 4:0.50876241 5:0.61525424 19:1 63:1 75:1 126:1 167:1 204:1 255:1 
-2 1:0.5 2:0.5 3:0.36938804 4:0.64717742 5:0.51449599 12:1 19:1 93:1 147:1 193:1 226:1 
-1.291369246334433 1:0.25 2:0.25 3:0.40573053 4:0.60868768 5:0.69053672 28:1 99:1 120:1 174:1 203:1 251:1 
-0.949116092303302 1:0.33333333 2:0.33333333 3:0.49402158 4:0.50604839 5:0.55550419 8:1 46:1 84:1 120:1 192:1 231:1 
-1.875496968162603 1:0.25 2:0.25 3:0.31102362 4:0.52956989 5:0.54422188 14:1 26:1 48:1 54:1 96:1 208:1 251:1 
-0.262620642765506 1:0.41666667 2:0.41666667 3:0.56036745 4:0.32692308 5:0.57935285 6:1 50:1 88:1 92:1 185:1 195:1 
-2 1:0.33333333 2:0.33333333 3:0.47203715 4:0.30846774 5:0.57287098 13:1 20:1 37:1 123:1 188:1 216:1 
-1.375268574611242 1:0.41666667 2:0.41666667 3:0.40399683 4:0.75806452 5:0.61767822 72:1 105:1 119:1 205:1 233:1 251:1 
-0.2312032639324278 1:0.25 2:0.25 3:0.28670681 4:0.52956989 5:0.55358923 26:1 40:1 86:1 156:1 218:1 232:1 251:1 
-0.1245523568681058 1:0.16666667 2:0.16666667 3:0.5067804 4:0.49706745 5:0.55805085 23:1 36:1 99:1 111:1 114:1 218:1 255:1 
-0.7337164402849869 1:0.66666667 2:0.66666667 3:0.28831012 4:0.46370968 5:0.53942456 50:1 88:1 91:1 119:1 201:1 223:1 
-2 1:0.33333333 2:0.33333333 3:0.20858422 4:0.40020161 5:0.4996012 12:1 47:1 103:1 146:1 205:1 253:1 
-0.06098971324756763 1:0.16666667 2:0.16666667 3:0.59405074 4:0.47076613 5:0.58726246 16:1 65:1 75:1 88:1 170:1 215:1 255:1 
-2 1:0.25 2:0.25 3:0.4450277 4:0.52016129 5:0.63747646 14:1 24:1 39:1 44:1 65:1 108:1 253:1 
-1.093298894985907 1:0.58333333 2:0.58333333 3:0.34331738 4:0.37903226 5:0.52135261 14:1 45:1 65:1 103:1 204:1 234:1 
-2 1:0.083333333 2:0.083333333 3:0.38247302 4:0.48924731 5:0.5470182 12:1 25:1 96:1 102:1 121:1 216:1 
-0.9757997712304487 1:0.75 2:0.75 3:0.29265092 4:0.27264268 5:0.5859322 31:1 138:1 153:1 165:1 175:1 222:1 256:1 
-2 1:0.41666667 2:0.41666667 3:0.39851269 4:0.49428763 5:0.51836158 12:1 29:1 38:1 51:1 101:1 223:1 254:1 
-1.013371263297256 1:0.41666667 2:0.41666667 3:0.27520779 4:0.40524194 5:0.57856638 73:1 109:1 127:1 144:1 165:1 
-0.2775466635454596 1:0.5 2:0.5 3:0.42257218 4:0.7983871 5:0.64159605 72:1 96:1 154:1 165:1 179:1 233:1 
-0.1551822622857318 1:0.41666667 2:0.41666667 3:0.48734774 4:0.44318182 5:0.55928884 38:1 47:1 75:1 125:1 128:1 150:1 252:1 
-0.2538239880927206 1:0.33333333 2:0.33333333 3:0.45031136 4:0.5766129 5:0.59172483 40:1 53:1 101:1 146:1 158:1 168:1 251:1 
-2 1:0.25 2:0.25 3:0.37766113 4:0.52016129 5:0.63747646 100:1 108:1 122:1 136:1 143:1 206:1 
-0.05173174773627641 1:0.33333333 2:0.33333333 3:0.5308399 4:0.70918866 5:0.73347458 28:1 41:1 46:1 84:1 191:1 239:1 252:1 
-0.1302640107872121 1:0.33333333 2:0.33333333 3:0.61650627 4:0.29435484 5:0.57935285 20:1 88:1 90:1 112:1 166:1 196:1 252:1 
-2 1:0.33333333 2:0.33333333 3:0.65835521 4:0.53614933 5:0.56760829 75:1 101:1 111:1 142:1 182:1 255:1 
-2 1:0.5 2:0.5 3:0.55730534 4:0.3296371 5:0.61440678 16:1 58:1 116:1 172:1 
-1.252645166484044 1:0.41666667 2:0.41666667 3:0.2924322 4:0.37774927 5:0.54192347 12:1 30:1 54:1 154:1 163:1 180:1 252:1 
-1.581788182408765 1:0.41666667 2:0.41666667 3:0.49475066 4:0.41666667 5:0.55141243 13:1 35:1 56:1 102:1 208:1 251:1 
-2 1:0.33333333 2:0.33333333 3:0.46768373 4:0.69086022 5:0.39036017 36:1 84:1 145:1 166:1 209:1 251:1 
-2 1:0.75 2:0.75 3:0.48818898 4:0.34139785 5:0.54121726 56:1 128:1 151:1 167:1 236:1 253:1 
-2 1:0.25 2:0.25 3:0.51239428 4:0.62600806 5:0.72448211 12:1 41:1 44:1 99:1 204:1 215:1 253:1 
-0.2982839442642137 1:0.41666667 2:0.41666667 3:0.467153 4:0.87903226 5:0.61248754 24:1 41:1 106:1 117:1 216:1 243:1 251:1 
-1.017909307418897 1:0.16666667 2:0.16666667 3:0.33836395 4:0.47653959 5:0.54731638 14:1 75:1 91:1 120:1 135:1 243:1 252:1 
-2 1:0.33333333 2:0.33333333 3:0.38294478 4:0.36491935 5:0.57195081 24:1 101:1 158:1 169:1 186:1 
-2 1:0.33333333 2:0.33333333 3:0.41054243 4:0.47825024 5:0.54646893 13:1 54:1 72:1 102:1 131:1 251:1 
-2 1:0.25 2:0.25 3:0.35367454 4:0.33669355 5:0.55715203 18:1 86:1 156:1 180:1 233:1 253:1 
-2 1:0.58333333 2:0.58333333 3:0.49522241 4:0.83064516 5:0.61918873 41:1 53:1 105:1 130:1 144:1 251:1 
-0.6423033158414183 1:0.25 2:0.25 3:0.48993876 4:0.60868768 5:0.63615819 64:1 76:1 120:1 167:1 203:1 221:1 
-2 1:0.33333333 2:0.33333333 3:0.49475066 4:0.3242913 5:0.5645951 54:1 73:1 102:1 207:1 
-2 1:0.5 2:0.5 3:0.3552056 4:0.54133065 5:0.53531073 41:1 84:1 91:1 204:1 230:1 250:1 
-2 1:0.33333333 2:0.33333333 3:0.43941382 4:0.32889691 5:0.56274011 78:1 135:1 140:1 162:1 180:1 252:1 
-2 1:0.33333333 2:0.33333333 3:0.4296386 4:0.22379032 5:0.54969183 13:1 40:1 42:1 65:1 162:1 242:1 
-0.9278675305802455 1:0.5 2:0.5 3:0.14698163 4:0.36491935 5:0.5364792 91:1 122:1 139:1 194:1 207:1 253:1 
-2 1:0.41666667 2:0.41666667 3:0.6631671 4:0.51019924 5:0.61111111 24:1 87:1 119:1 130:1 176:1 256:1 
-1.12904338127251 1:0.33333333 2:0.33333333 3:0.28265698 4:0.39314516 5:0.5375163 14:1 24:1 44:1 139:1 156:1 219:1 253:1 
-0.7973374441547515 1:0.58333333 2:0.58333333 3:0.57414698 4:0.39012097 5:0.63516949 51:1 63:1 68:1 92:1 197:1 235:1 
-2 1:0.33333333 2:0.33333333 3:0.52150212 4:0.5766129 5:0.57935285 12:1 41:1 111:1 191:1 200:1 241:1 251:1 
-2 1:0.25 2:0.25 3:0.28222514 4:0.4079912 5:0.54154896 12:1 52:1 75:1 139:1 187:1 228:1 252:1 
-1.139084792988781 1:0.5 2:0.5 3:0.5144357 4:0.43548387 5:0.56155624 8:1 18:1 46:1 120:1 192:1 233:1 
-2 1:0.33333333 2:0.33333333 3:0.38815891 4:0.43548387 5:0.55508475 14:1 93:1 111:1 127:1 183:1 244:1 256:1 
-1.953114162424275 1:0.5 2:0.5 3:0.31029455 4:0.26612903 5:0.62099812 14:1 24:1 41:1 43:1 176:1 194:1 253:1 
-0.8926234894283926 1:0.58333333 2:0.58333333 3:0.22269332 4:0.33198925 5:0.54274772 45:1 64:1 86:1 110:1 126:1 187:1 
-0.8575180926882827 1:0.25 2:0.25 3:0.31029455 4:0.57844575 5:0.28264281 24:1 36:1 59:1 72:1 86:1 193:1 250:1 
-0.1571800234048535 1:0.66666667 2:0.66666667 3:0.55088947 4:0.43548387 5:0.55508475 10:1 69:1 104:1 129:1 220:1 222:1 255:1 
-2 1:0.66666667 2:0.66666667 3:0.43159449 4:0.61021505 5:0.41917373 12:1 82:1 102:1 154:1 179:1 250:1 
-2 1:0.5 2:0.5 3:0.71128609 4:0.43548387 5:0.55508475 88:1 167:1 200:1 238:1 256:1 
-1.109132637731456 1:0.75 2:0.75 3:0.60629921 4:0.50604839 5:0.56209553 46:1 104:1 209:1 233:1 236:1 
-2 1:0.25 2:0.25 3:0.42257218 4:0.45747801 5:0.43644068 36:1 108:1 176:1 192:1 205:1 
-2 1:0.41666667 2:0.41666667 3:0.37815465 4:0.22849462 5:0.52835724 14:1 25:1 30:1 43:1 101:1 244:1 
-2 1:0.83333333 2:0.83333333 3:0.42257218 4:0.69941349 5:0.27033898 58:1 155:1 176:1 238:1 250:1 
-1.13660041389253 1:0.33333333 2:0.33333333 3:0.23731409 4:0.58944282 5:0.54138418 12:1 55:1 135:1 153:1 180:1 215:1 252:1 
-1.186868642622745 1:0.58333333 2:0.58333333 3:0.36705027 4:0.23790323 5:0.57325619 75:1 92:1 151:1 162:1 235:1 253:1 
-2 1:0.58333333 2:0.58333333 3:0.28717856 4:0.20967742 5:0.63670101 14:1 103:1 177:1 193:1 234:1 
-2 1:0.25 2:0.25 3:0.47998688 4:0.50604839 5:0.55468028 46:1 60:1 84:1 207:1 252:1 
-2 1:0.33333333 2:0.33333333 3:0.56648221 4:0.43548387 5:0.55508475 13:1 41:1 64:1 149:1 185:1 225:1 255:1 
-0.3912382496388375 1:0.41666667 2:0.41666667 3:0.42257218 4:0.46755865 5:0.40677966 109:1 168:1 193:1 212:1 239:1 250:1 
-0.6495388729782194 1:0.75 2:0.75 3:0.46143751 4:0.36383375 5:0.5493807 93:1 102:1 129:1 188:1 209:1 
-1.955727167184875 1:0.33333333 2:0.33333333 3:0.28831012 4:0.30846774 5:0.55129934 84:1 124:1 151:1 180:1 223:1 253:1 
-2 1:0.5 2:0.5 3:0.42257218 4:0.012096774 5:0.57863908 40:1 116:1 126:1 206:1 234:1 
-1.161358964647245 1:0.5 2:0.5 3:0.48993876 4:0.43548387 5:0.54717514 35:1 111:1 176:1 220:1 223:1 
-0.4228877584872338 1:0.58333333 2:0.58333333 3:0.52209099 4:0.35208944 5:0.57127632 20:1 32:1 140:1 192:1 232:1 236:1 252:1 
-0.01385728592908717 1:0.66666667 2:0.66666667 3:0.5137152 4:0.50604839 5:0.55618976 30:1 58:1 80:1 105:1 173:1 243:1 
-0.6634995886942011 1:0.5 2:0.5 3:0.16994751 4:0.51246334 5:0.28319209 26:1 38:1 90:1 155:1 228:1 249:1 
-1.413488582483775 1:0.58333333 2:0.58333333 3:0.44783465 4:0.40524194 5:0.5605226 12:1 56:1 66:1 189:1 208:1 238:1 
-0.3207900084084547 1:0.083333333 2:0.083333333 3:0.62467192 4:0.49700165 5:0.65889831 45:1 75:1 160:1 183:1 204:1 220:1 255:1 
-1.954221270662931 1:0.25 2:0.25 3:0.40288714 4:0.45900538 5:0.55231125 13:1 25:1 55:1 72:1 208:1 227:1 
-2 1:0.5 2:0.5 3:0.53484981 4:0.43548387 5:0.52212806 40:1 44:1 65:1 143:1 176:1 192:1 
-1.930376252360124 1:0.25 2:0.25 3:0.28670681 4:0.62365591 5:0.62986042 26:1 51:1 73:1 170:1 180:1 251:1 
-0.5968332991046942 1:0.16666667 2:0.16666667 3:0.52362205 4:0.477631 5:0.63220339 12:1 18:1 83:1 159:1 205:1 219:1 257:1 
-1.510156570876671 1:0.083333333 2:0.083333333 3:0.42637105 4:0.20026882 5:0.58559322 14:1 18:1 76:1 123:1 148:1 220:1 256:1 
