svm_type c_svc
kernel_type rbf
gamma 0.0625
nr_class 2
total_sv 542
rho 10.5118
label 1 0
probA -4.34409
probB 0.176753
nr_sv 251 291
SV
2 1:0.53846154 2:0.53846154 3:0.35367454 4:0.42207792 5:0.67061647 47:1 127:1 138:1 
0.239963661026772 1:0.53846154 2:0.53846154 3:0.52209099 4:0.42207792 5:0.68118671 46:1 128:1 233:1 253:1 
2 1:0.30769231 2:0.30769231 3:0.26946632 4:0.31632653 5:0.66989577 62:1 85:1 102:1 252:1 
2 1:0.30769231 2:0.30769231 3:0.49402158 4:0.37755102 5:0.68301248 120:1 157:1 233:1 
2 1:0.30769231 2:0.30769231 3:0.26946632 4:0.31632653 5:0.66989577 138:1 158:1 193:1 252:1 
2 1:0.46153846 2:0.46153846 3:0.5144357 4:0.28571429 5:0.69721679 128:1 162:1 233:1 253:1 
1.597241174284813 1:0.38461538 2:0.38461538 3:0.40419948 4:0.17032967 5:0.72221848 126:1 138:1 210:1 253:1 
2 1:0.53846154 2:0.53846154 3:0.43788276 4:0.42207792 5:0.67590159 92:1 122:1 233:1 
0.6795046017734386 1:0.38461538 2:0.38461538 3:0.5650784 4:0.44415584 5:0.68512288 39:1 65:1 107:1 246:1 
1.690544127363504 1:0.53846154 2:0.53846154 3:0.51695942 4:0.31428571 5:0.70241965 42:1 154:1 221:1 246:1 
2 1:0.46153846 2:0.46153846 3:0.42257218 4:0.25714286 5:0.70783676 6:1 42:1 219:1 247:1 
0.02002557195249686 1:0.38461538 2:0.38461538 3:0.45931759 4:0.45054945 5:0.68231013 34:1 48:1 77:1 253:1 
0.6441593880316989 1:0.30769231 2:0.30769231 3:0.55730534 4:0.53046953 5:0.67803311 23:1 101:1 180:1 255:1 
0.7948655553034797 1:0.38461538 2:0.38461538 3:0.57567804 4:0.51948052 5:0.68031314 22:1 75:1 191:1 256:1 
0.355410160617706 1:0.53846154 2:0.53846154 3:0.52621307 4:0.57662338 5:0.6730104 22:1 164:1 191:1 255:1 
0.07026305363046538 1:0.15384615 2:0.15384615 3:0.38046807 4:0.43376623 5:0.6694465 180:1 216:1 240:1 256:1 
2 1:0.23076923 2:0.23076923 3:0.31029455 4:0.4174397 5:0.66227384 180:1 218:1 241:1 255:1 
0.4495926815235204 1:0.38461538 2:0.38461538 3:0.48381452 4:0.44805195 5:0.67913381 79:1 112:1 191:1 255:1 
1.930088452964765 1:0.30769231 2:0.30769231 3:0.45884649 4:0.3 5:0.7202106 15:1 172:1 229:1 247:1 
2 1:0.53846154 2:0.53846154 3:0.43941382 4:0.2755102 5:0.7411663 50:1 173:1 198:1 248:1 
0.2465302825235644 1:0.46153846 2:0.46153846 3:0.42257218 4:0.53571429 5:0.66650194 106:1 171:1 230:1 
2 1:0.76923077 2:0.76923077 3:0.47930193 4:0.42857143 5:0.68040004 32:1 80:1 106:1 248:1 
0.2622866357968733 1:0.46153846 2:0.46153846 3:0.48993876 4:0.32142857 5:0.71262664 17:1 59:1 198:1 246:1 
1.452334034819155 1:0.46153846 2:0.46153846 3:0.48993876 4:0.64285714 5:0.65035829 83:1 111:1 224:1 251:1 
0.6503392953221453 1:0.69230769 2:0.69230769 3:0.54607757 4:0.21428571 5:0.65612388 142:1 176:1 222:1 250:1 
1.415289187388286 1:0.38461538 2:0.38461538 3:0.44181977 4:0.4047619 5:0.67037312 121:1 137:1 222:1 251:1 
1.147329405213965 1:0.53846154 2:0.53846154 3:0.40573053 4:0.33673469 5:0.66851989 112:1 175:1 223:1 251:1 
0.02004065696973425 1:0.46153846 2:0.46153846 3:0.42257218 4:0.32142857 5:0.66650194 65:1 121:1 175:1 
0.1808687221944085 1:0.53846154 2:0.53846154 3:0.45625547 4:0.62755102 5:0.68149246 17:1 21:1 213:1 255:1 
1.660541222772881 1:0.53846154 2:0.53846154 3:0.5825678 4:0.50510204 5:0.69662713 17:1 34:1 214:1 256:1 
1.345189058912033 1:0.46153846 2:0.46153846 3:0.48993876 4:0.53571429 5:0.68495182 16:1 21:1 35:1 257:1 
2 1:0.30769231 2:0.30769231 3:0.43941382 4:0.25474525 5:0.69026439 12:1 31:1 51:1 77:1 78:1 102:1 253:1 
2 1:0.30769231 2:0.30769231 3:0.23731409 4:0.25474525 5:0.64529281 12:1 31:1 52:1 55:1 181:1 253:1 
2 1:0.38461538 2:0.38461538 3:0.38429571 4:0.37012987 5:0.6724959 92:1 102:1 120:1 245:1 254:1 264:1 
2 1:0.53846154 2:0.53846154 3:0.45495996 4:0.32727273 5:0.68274695 32:1 56:1 75:1 78:1 153:1 253:1 
0.2703772633623281 1:0.46153846 2:0.46153846 3:0.42257218 4:0.42857143 5:0.67457376 20:1 51:1 54:1 153:1 252:1 
2 1:0.30769231 2:0.30769231 3:0.43941382 4:0.25474525 5:0.69026439 18:1 51:1 54:1 76:1 153:1 253:1 
0.7511151521052902 1:0.38461538 2:0.38461538 3:0.2924322 4:0.37012987 5:0.6630613 13:1 19:1 122:1 243:1 
0.3929744765527882 1:0.53846154 2:0.53846154 3:0.47769029 4:0.3956044 5:0.74203113 45:1 91:1 220:1 257:1 
2 1:0.46153846 2:0.46153846 3:0.32152231 4:0.36263736 5:0.87694589 81:1 91:1 205:1 256:1 
0.4728068421982601 1:0.46153846 2:0.46153846 3:0.52362205 4:0.2967033 5:0.74203113 30:1 139:1 160:1 257:1 
0.05794299410314457 1:0.53846154 2:0.53846154 3:0.47769029 4:0.32417582 5:0.75618303 19:1 76:1 127:1 257:1 
0.8646029709037488 1:0.30769231 2:0.30769231 3:0.52362205 4:0.30989011 5:0.74203113 13:1 140:1 220:1 256:1 
0.3404677946861094 1:0.38461538 2:0.38461538 3:0.68897638 4:0.45604396 5:0.72206124 41:1 75:1 137:1 
0.2833151450386388 1:0.53846154 2:0.53846154 3:0.53740157 4:0.3961039 5:0.77481636 18:1 63:1 214:1 248:1 
0.3839106923840644 1:0.53846154 2:0.53846154 3:0.39481123 4:0.56190476 5:0.57792097 120:1 130:1 237:1 
1.511222418242401 1:0.076923077 2:0.076923077 3:0.42637105 4:0.47619048 5:0.54114159 12:1 76:1 183:1 208:1 255:1 
0.2025740117693086 1:0.30769231 2:0.30769231 3:0.50704111 4:0.57142857 5:0.64252387 12:1 20:1 41:1 88:1 93:1 219:1 255:1 
0.3397720606117046 1:0.38461538 2:0.38461538 3:0.54666851 4:0.51428571 5:0.63133185 12:1 20:1 40:1 51:1 65:1 93:1 257:1 
2 1:0.15384615 2:0.15384615 3:0.47930193 4:0.53571429 5:0.62614282 12:1 20:1 40:1 87:1 243:1 255:1 
2 1:0.53846154 2:0.53846154 3:0.41193535 4:0.57142857 5:0.6278725 12:1 18:1 41:1 95:1 127:1 225:1 
1.954640738610636 1:0.23076923 2:0.23076923 3:0.39930412 4:0.48979592 5:0.56106375 14:1 75:1 111:1 126:1 255:1 
2 1:0.15384615 2:0.15384615 3:0.41193535 4:0.42857143 5:0.67457376 14:1 64:1 95:1 123:1 160:1 256:1 
1.140533616824833 1:0.38461538 2:0.38461538 3:0.37825206 4:0.51428571 5:0.58808994 14:1 41:1 160:1 192:1 225:1 
0.8076967787826829 1:0.30769231 2:0.30769231 3:0.38815891 4:0.42857143 5:0.67457376 14:1 19:1 39:1 75:1 88:1 93:1 256:1 
1.487250356457456 1:0.38461538 2:0.38461538 3:0.37825206 4:0.51428571 5:0.58808994 14:1 19:1 39:1 208:1 225:1 255:1 
1.533692252366517 1:0.69230769 2:0.69230769 3:0.39356265 5:0.6910843 14:1 19:1 76:1 93:1 128:1 225:1 
1.25044357762803 1:0.46153846 2:0.46153846 3:0.36938804 4:0.64285714 5:0.63906988 14:1 19:1 41:1 93:1 192:1 207:1 
0.8183160636737673 1:0.53846154 2:0.53846154 3:0.41193535 4:0.57142857 5:0.6278725 14:1 19:1 41:1 93:1 148:1 225:1 255:1 
2 1:0.46153846 2:0.46153846 3:0.47575632 4:0.42857143 5:0.67457376 14:1 19:1 41:1 113:1 183:1 
1.028604614470139 1:0.30769231 2:0.30769231 3:0.32871781 4:0.42857143 5:0.67457376 14:1 19:1 40:1 63:1 93:1 192:1 256:1 
1.874942842044045 1:0.38461538 2:0.38461538 3:0.37825206 4:0.34285714 5:0.76105757 14:1 18:1 39:1 93:1 111:1 126:1 
1.501673409230393 1:0.23076923 2:0.23076923 3:0.39930412 4:0.48979592 5:0.56106375 14:1 18:1 39:1 207:1 257:1 276:1 
2 1:0.23076923 2:0.23076923 3:0.39930412 4:0.6122449 5:0.63673709 14:1 18:1 111:1 219:1 227:1 255:1 
0.9954604775954752 1:0.15384615 2:0.15384615 3:0.41193535 4:0.42857143 5:0.67457376 112:1 192:1 243:1 256:1 
1.83049066058537 1:0.15384615 2:0.15384615 3:0.41193535 4:0.53571429 5:0.61230541 88:1 95:1 192:1 208:1 255:1 
2 1:0.46153846 2:0.46153846 3:0.52894046 4:0.42857143 5:0.67457376 19:1 51:1 65:1 93:1 112:1 257:1 
1.027336521655792 1:0.30769231 2:0.30769231 3:0.50704111 4:0.28571429 5:0.70662364 19:1 40:1 53:1 64:1 88:1 93:1 255:1 
1.332609919792244 1:0.30769231 2:0.30769231 3:0.50704111 4:0.28571429 5:0.70662364 20:1 75:1 160:1 208:1 
0.5945419448717632 1:0.38461538 2:0.38461538 3:0.43439088 4:0.34285714 5:0.7466436 20:1 87:1 93:1 244:1 265:1 
0.3136623167889066 1:0.23076923 2:0.23076923 3:0.46246028 4:0.36734694 5:0.76538176 20:1 76:1 160:1 192:1 255:1 
2 1:0.61538462 2:0.61538462 3:0.54666851 5:0.68322214 20:1 52:1 128:1 225:1 257:1 
2 1:0.46153846 2:0.46153846 3:0.52894046 4:0.21428571 5:0.69369123 20:1 41:1 88:1 93:1 172:1 225:1 256:1 
2 3:0.36529695 4:0.51428571 5:0.58476364 13:1 39:1 51:1 64:1 192:1 255:1 
0.1488404136330081 1:0.23076923 2:0.23076923 3:0.39930412 4:0.6122449 5:0.63673709 13:1 41:1 192:1 227:1 255:1 
0.9379160296545184 1:0.46153846 2:0.46153846 3:0.42257218 4:0.64285714 5:0.64453201 13:1 19:1 63:1 93:1 227:1 257:1 
0.3276535964508994 1:0.46153846 2:0.46153846 3:0.42257218 4:0.21428571 5:0.7046155 13:1 19:1 75:1 93:1 128:1 256:1 
2 1:0.53846154 2:0.53846154 3:0.31088548 4:0.28571429 5:0.73684211 13:1 19:1 194:1 209:1 225:1 266:1 
2 1:0.15384615 2:0.15384615 3:0.41193535 4:0.10714286 5:0.69532987 13:1 19:1 52:1 88:1 160:1 256:1 
1.197982789648751 1:0.38461538 2:0.38461538 3:0.37825206 4:0.17142857 5:0.7034017 13:1 19:1 40:1 225:1 244:1 
2 1:0.38461538 2:0.38461538 3:0.49052969 4:0.17142857 5:0.69379238 13:1 20:1 41:1 128:1 192:1 256:1 
0.1187838659597059 1:0.15384615 2:0.15384615 3:0.41193535 4:0.21428571 5:0.70570793 13:1 18:1 88:1 183:1 256:1 
1.729937100574638 1:0.30769231 2:0.30769231 3:0.44760001 5:0.68830942 13:1 18:1 52:1 126:1 257:1 
1.749173472012903 1:0.15384615 2:0.15384615 3:0.34456877 4:0.42857143 5:0.67457376 13:1 18:1 40:1 93:1 192:1 207:1 255:1 
0.3432354325682805 1:0.23076923 2:0.23076923 3:0.25156471 4:0.38241758 5:0.66460594 12:1 45:1 84:1 144:1 162:1 253:1 
0.9702594829306092 1:0.23076923 2:0.23076923 3:0.45366445 4:0.44835165 5:0.67550815 12:1 75:1 180:1 236:1 252:1 
1.189189007211449 2:1.9642407e-16 3:0.36705027 4:0.46071429 5:0.66981851 12:1 84:1 108:1 123:1 216:1 252:1 
1.913415761420436 1:0.15384615 2:0.15384615 3:0.31893129 4:0.33061224 5:0.67224535 12:1 86:1 123:1 216:1 222:1 253:1 
1.705515449479379 1:0.53846154 2:0.53846154 3:0.36705027 4:0.41904762 5:0.67140698 12:1 86:1 92:1 164:1 
2 1:0.15384615 2:0.15384615 3:0.43120892 4:0.33061224 5:0.68233513 12:1 76:1 123:1 235:1 252:1 265:1 
0.9064208425490474 1:0.30769231 2:0.30769231 3:0.47203715 4:0.44285714 5:0.67692334 12:1 20:1 75:1 216:1 236:1 252:1 
1.272410944158986 1:0.30769231 2:0.30769231 3:0.28831012 4:0.3 5:0.67126258 12:1 20:1 37:1 84:1 223:1 253:1 
1.493496583136189 1:0.30769231 2:0.30769231 3:0.28831012 4:0.3 5:0.67126258 12:1 18:1 84:1 146:1 200:1 253:1 
0.07711041655546469 1:0.15384615 2:0.15384615 3:0.20665366 4:0.39183673 5:0.66114659 14:1 38:1 84:1 124:1 252:1 264:1 
2 1:0.38461538 2:0.38461538 3:0.15051484 4:0.35844156 5:0.65711068 14:1 19:1 38:1 84:1 234:1 264:1 
2 1:0.46153846 2:0.46153846 3:0.26711084 4:0.34285714 5:0.66708958 14:1 20:1 38:1 216:1 236:1 253:1 
1.209903900921667 1:0.30769231 2:0.30769231 3:0.47203715 4:0.44285714 5:0.67692334 36:1 46:1 64:1 75:1 266:1 
2 1:0.23076923 2:0.23076923 3:0.45366445 4:0.44835165 5:0.67550815 36:1 75:1 144:1 188:1 252:1 
2 1:0.30769231 2:0.30769231 3:0.56390067 4:0.44285714 5:0.68258409 47:1 65:1 75:1 222:1 264:1 
1.868994617334371 1:0.46153846 2:0.46153846 3:0.42257218 4:0.51428571 5:0.67108114 45:1 63:1 144:1 152:1 
2 1:0.30769231 2:0.30769231 3:0.1964466 4:0.44285714 5:0.65994106 45:1 84:1 146:1 180:1 253:1 
2 1:0.53846154 2:0.53846154 3:0.43922875 4:0.41904762 5:0.67617242 45:1 76:1 128:1 200:1 252:1 
2 1:0.30769231 2:0.30769231 3:0.56390067 4:0.51428571 5:0.67833853 46:1 75:1 123:1 128:1 144:1 252:1 
1.531506502726784 1:0.23076923 2:0.23076923 3:0.35261458 4:0.44835165 5:0.66937566 46:1 84:1 180:1 216:1 253:1 
2 1:0.30769231 2:0.30769231 3:0.38017363 4:0.51428571 5:0.66890393 46:1 84:1 180:1 188:1 216:1 252:1 
2 1:0.23076923 2:0.23076923 3:0.35261458 4:0.38241758 5:0.67210121 63:1 84:1 162:1 216:1 254:1 
2 1:0.30769231 2:0.30769231 3:0.65576418 4:0.44285714 5:0.68824485 63:1 77:1 125:1 252:1 
0.264752204090268 1:0.38461538 2:0.38461538 3:0.40313951 4:0.35844156 5:0.67749615 75:1 182:1 186:1 
1.878810486923574 1:0.23076923 2:0.23076923 3:0.45366445 4:0.38241758 5:0.67959647 85:1 123:1 144:1 236:1 252:1 
2 1:0.23076923 2:0.23076923 3:0.45366445 4:0.31648352 5:0.68602098 76:1 84:1 152:1 217:1 252:1 
2 1:0.076923077 2:0.076923077 3:0.52945185 4:0.34285714 5:0.68954211 64:1 75:1 180:1 216:1 253:1 
2 1:0.30769231 2:0.30769231 3:0.47203715 4:0.37142857 5:0.6818765 64:1 84:1 164:1 180:1 200:1 216:1 
0.4650292508883545 1:0.15384615 2:0.15384615 3:0.31893129 4:0.33061224 5:0.67224535 13:1 36:1 84:1 109:1 
0.03624655951049219 1:0.15384615 2:0.15384615 3:0.43120892 4:0.26938776 5:0.69074328 13:1 18:1 36:1 123:1 222:1 252:1 
1.100464000914038 1:0.46153846 2:0.46153846 3:0.54145438 4:0.28571429 5:0.68830942 40:1 46:1 101:1 116:1 253:1 
1.746161513414169 1:0.53846154 2:0.53846154 3:0.51173383 4:0.54285714 5:0.68830942 29:1 45:1 65:1 116:1 264:1 
0.6681889312300372 1:0.30769231 2:0.30769231 3:0.32633421 4:0.51515152 5:0.54608352 12:1 24:1 30:1 76:1 105:1 251:1 
2 1:0.23076923 2:0.23076923 3:0.35695538 4:0.33333333 5:0.66244356 12:1 26:1 30:1 42:1 75:1 88:1 
2 1:0.46153846 2:0.46153846 3:0.3503937 4:0.52380952 5:0.57449963 12:1 30:1 42:1 57:1 107:1 251:1 
1.170361974171072 1:0.53846154 2:0.53846154 3:0.25896763 4:0.36904762 5:0.68964665 14:1 26:1 43:1 100:1 249:1 
2 1:0.61538462 2:0.61538462 3:0.24212598 4:0.29251701 5:0.67148505 14:1 25:1 31:1 43:1 117:1 
2 1:0.53846154 2:0.53846154 3:0.39370079 4:0.36904762 5:0.66197183 57:1 105:1 210:1 232:1 
0.9865440365592422 1:0.53846154 2:0.53846154 3:0.46106737 4:0.47619048 5:0.64121572 42:1 77:1 107:1 141:1 
1.314317311587395 1:0.53846154 2:0.53846154 3:0.52843395 4:0.58333333 5:0.64813442 32:1 58:1 76:1 107:1 251:1 
0.01682330767738092 1:0.61538462 2:0.61538462 3:0.49475066 4:0.29251701 5:0.64121572 32:1 42:1 57:1 89:1 
0.6426001132825568 1:0.53846154 2:0.53846154 3:0.32633421 4:0.36904762 5:0.67580924 25:1 31:1 42:1 57:1 251:1 
1.276490311335819 1:0.30769231 2:0.30769231 3:0.41054243 4:0.59307359 5:0.62536035 13:1 100:1 107:1 119:1 251:1 
2 1:0.15384615 2:0.15384615 3:0.35841353 4:0.75238095 5:0.76665843 12:1 71:1 120:1 168:1 240:1 
2 1:0.15384615 2:0.15384615 3:0.35841353 4:0.56190476 5:0.84671773 12:1 69:1 84:1 100:1 156:1 241:1 
2 1:0.53846154 2:0.53846154 3:0.32802259 4:0.51428571 5:0.7466436 12:1 69:1 109:1 176:1 213:1 
1.94506047872914 1:0.23076923 2:0.23076923 3:0.37766113 4:0.72857143 5:0.77085907 12:1 108:1 135:1 215:1 254:1 
2 1:0.076923077 2:0.076923077 3:0.41393544 4:0.68571429 5:0.78156976 12:1 100:1 108:1 143:1 156:1 252:1 
2 1:0.15384615 2:0.15384615 3:0.43059201 4:0.56190476 5:0.88007578 12:1 100:1 109:1 120:1 143:1 
2 1:0.46153846 2:0.46153846 3:0.36643336 4:0.6 5:0.80429948 14:1 24:1 41:1 143:1 176:1 254:1 
2 1:0.38461538 2:0.38461538 3:0.34992195 4:0.37142857 5:0.71459372 24:1 110:1 121:1 176:1 
1.455837806885958 1:0.46153846 2:0.46153846 3:0.47871099 4:0.42857143 5:0.66015979 24:1 41:1 44:1 176:1 252:1 
1.104717930853713 1:0.53846154 2:0.53846154 3:0.27483845 4:0.94285714 5:0.75347127 26:1 69:1 143:1 213:1 252:1 
2 1:0.53846154 2:0.53846154 3:0.38120674 4:0.3 5:0.72206399 26:1 101:1 122:1 176:1 
0.4094803198478888 1:0.38461538 2:0.38461538 3:0.40936305 4:0.65714286 5:0.7878506 39:1 70:1 141:1 241:1 252:1 
0.4220625079679845 1:0.15384615 2:0.15384615 3:0.43059201 4:0.65714286 5:0.79112099 71:1 84:1 100:1 240:1 252:1 
2 1:0.23076923 2:0.23076923 3:0.4450277 4:0.62142857 5:0.80891195 71:1 101:1 168:1 240:1 253:1 
2 1:0.46153846 2:0.46153846 3:0.47871099 4:0.42857143 5:0.66015979 71:1 85:1 101:1 176:1 
2 1:0.38461538 2:0.38461538 3:0.34992195 4:0.51428571 5:0.7466436 69:1 84:1 101:1 122:1 241:1 
1.270115916462268 1:0.46153846 2:0.46153846 3:0.31029455 4:0.6 5:0.78988551 69:1 99:1 141:1 242:1 253:1 
0.9126103111979478 1:0.30769231 2:0.30769231 3:0.39450277 4:0.45306122 5:0.6558356 69:1 85:1 100:1 168:1 
2 1:0.46153846 2:0.46153846 3:0.42257218 4:0.6 5:0.81871345 70:1 86:1 101:1 122:1 136:1 142:1 252:1 
2 1:0.15384615 2:0.15384615 3:0.50277049 4:0.75238095 5:0.78000165 99:1 120:1 135:1 143:1 252:1 
2 1:0.23076923 2:0.23076923 3:0.37766113 4:0.62142857 5:0.79507454 99:1 120:1 141:1 156:1 253:1 
2 1:0.46153846 2:0.46153846 3:0.31029455 4:0.6 5:0.78988551 99:1 170:1 213:1 254:1 
2 1:0.076923077 2:0.076923077 3:0.33620477 4:0.6 5:0.79653811 108:1 120:1 192:1 240:1 253:1 
1.262815791726283 1:0.38461538 2:0.38461538 3:0.40936305 4:0.65714286 5:0.7878506 108:1 143:1 176:1 204:1 
1.547979817016422 1:0.38461538 2:0.38461538 3:0.34992195 4:0.51428571 5:0.7466436 110:1 120:1 176:1 240:1 
1.602426489625974 1:0.46153846 2:0.46153846 3:0.31029455 4:0.77142857 5:0.76105757 141:1 156:1 214:1 228:1 254:1 
1.743478478058314 1:0.23076923 2:0.23076923 3:0.31029455 4:0.51428571 5:0.7466436 109:1 156:1 242:1 252:1 
2 1:0.23076923 2:0.23076923 3:0.51239428 4:0.51428571 5:0.7466436 101:1 120:1 135:1 229:1 
0.8982033508332874 1:0.23076923 2:0.23076923 3:0.4450277 4:0.51428571 5:0.7466436 101:1 121:1 168:1 252:1 
0.08546409959386922 1:0.46153846 2:0.46153846 3:0.47871099 4:0.6 5:0.83312742 65:1 70:1 215:1 253:1 
0.0338783452637219 1:0.38461538 2:0.38461538 3:0.46880414 4:0.51428571 5:0.7466436 65:1 86:1 135:1 
1.482480890787851 1:0.46153846 2:0.46153846 3:0.36643336 4:0.42857143 5:0.68898773 65:1 206:1 242:1 
2 1:0.38461538 2:0.38461538 3:0.46880414 4:0.51428571 5:0.7466436 64:1 70:1 86:1 101:1 122:1 136:1 142:1 252:1 
0.1150618353091974 1:0.23076923 2:0.23076923 3:0.4450277 4:0.19285714 5:0.72588749 64:1 109:1 174:1 253:1 
0.6771974047184259 1:0.30769231 2:0.30769231 3:0.3313466 4:0.69795918 5:0.76934561 43:1 108:1 215:1 252:1 276:1 
1.986631096091463 1:0.30769231 2:0.30769231 3:0.3313466 4:0.45306122 5:0.6785376 43:1 204:1 228:1 241:1 
1.315695809293163 1:0.46153846 2:0.46153846 3:0.36643336 4:0.6 5:0.80429948 44:1 71:1 215:1 253:1 278:1 
1.931722366375004 1:0.61538462 2:0.61538462 3:0.34397784 4:0.37142857 5:0.71550943 44:1 141:1 158:1 214:1 253:1 
0.6746858135490514 1:0.61538462 2:0.61538462 3:0.2934529 4:0.37142857 5:0.72329297 44:1 206:1 213:1 254:1 
2 1:0.30769231 2:0.30769231 3:0.39450277 4:0.45306122 5:0.6558356 42:1 99:1 141:1 156:1 253:1 
1.960420003340584 1:0.46153846 2:0.46153846 3:0.36643336 4:0.42857143 5:0.68898773 42:1 100:1 141:1 215:1 254:1 
2 1:0.38461538 2:0.38461538 3:0.40936305 4:0.51428571 5:0.7466436 42:1 65:1 141:1 156:1 252:1 
2 1:0.30769231 2:0.30769231 3:0.45765894 4:0.45306122 5:0.6331336 41:1 43:1 63:1 192:1 253:1 
0.08553282633718629 1:0.46153846 2:0.46153846 3:0.42257218 4:0.6 5:0.81871345 40:1 71:1 176:1 215:1 254:1 
2 1:0.30769231 2:0.30769231 3:0.3313466 4:0.45306122 5:0.6785376 13:1 24:1 141:1 176:1 192:1 253:1 
0.588334069131543 1:0.46153846 2:0.46153846 3:0.31029455 4:0.42857143 5:0.7034017 13:1 69:1 176:1 206:1 252:1 
1.411588037085293 1:0.30769231 2:0.30769231 3:0.39450277 4:0.5755102 5:0.83745161 13:1 42:1 143:1 215:1 252:1 
2 1:0.30769231 2:0.30769231 3:0.45765894 4:0.5755102 5:0.86015361 13:1 41:1 204:1 214:1 252:1 
1.835835166616304 1:0.30769231 2:0.30769231 3:0.51767794 4:0.35714286 5:0.67548947 25:1 40:1 53:1 100:1 249:1 
2 1:0.15384615 2:0.15384615 3:0.5511811 4:0.46428571 5:0.68919739 12:1 24:1 39:1 52:1 63:1 236:1 
2 1:0.15384615 2:0.15384615 3:0.45931759 4:0.53571429 5:0.66796954 12:1 24:1 51:1 63:1 229:1 250:1 
2 1:0.30769231 2:0.30769231 3:0.36038764 4:0.49285714 5:0.65880709 12:1 26:1 40:1 195:1 206:1 250:1 
0.2584764263846992 1:0.30769231 2:0.30769231 3:0.51584898 4:0.66428571 5:0.66629127 12:1 39:1 195:1 215:1 250:1 
1.272413503009583 1:0.15384615 2:0.15384615 3:0.36745407 4:0.39285714 5:0.66796954 12:1 25:1 40:1 64:1 235:1 251:1 264:1 
2 1:0.46153846 2:0.46153846 3:0.42257218 4:0.64285714 5:0.66073635 14:1 24:1 41:1 119:1 236:1 251:1 
2 1:0.30769231 2:0.30769231 3:0.36038764 4:0.49285714 5:0.65880709 14:1 26:1 51:1 64:1 68:1 204:1 251:1 
2 1:0.15384615 2:0.15384615 3:0.45931759 4:0.53571429 5:0.66796954 14:1 26:1 40:1 51:1 63:1 195:1 251:1 
2 1:0.46153846 2:0.46153846 3:0.42257218 4:0.42857143 5:0.67457376 14:1 25:1 53:1 65:1 158:1 250:1 
2 1:0.30769231 2:0.30769231 3:0.67131032 4:0.49285714 5:0.6987227 24:1 39:1 53:1 65:1 196:1 250:1 
2 1:0.53846154 2:0.53846154 3:0.44783465 4:0.62755102 5:0.66289844 24:1 51:1 117:1 140:1 250:1 
2 1:0.23076923 2:0.23076923 3:0.40573053 4:0.67207792 5:0.65910276 24:1 111:1 204:1 215:1 228:1 250:1 
2 1:0.38461538 2:0.38461538 3:0.32152231 4:0.36904762 5:0.65381764 13:1 26:1 40:1 175:1 204:1 250:1 
2 1:0.30769231 2:0.30769231 3:0.28265698 4:0.57857143 5:0.65049134 13:1 25:1 119:1 132:1 213:1 251:1 
2 1:0.30769231 2:0.30769231 3:0.28265698 4:0.38571429 5:0.65920625 14:1 24:1 36:1 44:1 174:1 252:1 
2 1:0.23076923 2:0.23076923 3:0.32152231 4:0.40909091 5:0.6641957 24:1 84:1 92:1 229:1 252:1 
2 1:0.23076923 2:0.23076923 3:0.32152231 4:0.40909091 5:0.6641957 36:1 68:1 85:1 123:1 228:1 254:1 
2 1:0.23076923 2:0.23076923 3:0.40573053 4:0.48701299 5:0.67099086 36:1 44:1 84:1 92:1 111:1 228:1 252:1 
2 1:0.30769231 2:0.30769231 3:0.28265698 4:0.3 5:0.6542168 85:1 91:1 220:1 230:1 252:1 
2 1:0.23076923 2:0.23076923 3:0.32152231 4:0.40909091 5:0.6641957 66:1 84:1 91:1 111:1 252:1 276:1 
0.1308545932377242 1:0.076923077 2:0.076923077 3:0.22047244 4:0.31318681 5:0.64170991 13:1 25:1 36:1 42:1 252:1 264:1 
2 1:0.23076923 2:0.23076923 3:0.37884868 4:0.69795918 5:0.78226274 12:1 47:1 60:1 96:1 179:1 246:1 
0.6605174200611813 1:0.30769231 2:0.30769231 3:0.39550525 4:0.37414966 5:0.68572399 12:1 85:1 153:1 208:1 246:1 
1.545792608349052 1:0.30769231 2:0.30769231 3:0.39550525 4:0.46938776 5:0.66793304 24:1 46:1 73:1 192:1 246:1 
1.970725700845781 1:0.46153846 2:0.46153846 3:0.35941601 4:0.55102041 5:0.62160242 45:1 60:1 72:1 154:1 246:1 
0.924581947451498 1:0.53846154 2:0.53846154 3:0.37427629 4:0.6122449 5:0.71241043 46:1 73:1 153:1 167:1 
2 1:0.53846154 2:0.53846154 3:0.37427629 4:0.6122449 5:0.71241043 37:1 46:1 108:1 153:1 179:1 248:1 
2 1:0.46153846 2:0.46153846 3:0.42257218 4:0.18367347 5:0.69619471 37:1 46:1 109:1 128:1 246:1 
1.281333209085947 1:0.38461538 2:0.38461538 3:0.34257437 4:0.29081633 5:0.69626678 13:1 25:1 46:1 122:1 246:1 
0.5055152378685074 1:0.38461538 2:0.38461538 3:0.20784121 4:0.73469388 5:0.69727576 12:1 24:1 36:1 213:1 249:1 266:1 
0.8737230489989931 1:0.076923077 2:0.076923077 3:0.33645013 4:0.73469388 5:0.69727576 12:1 24:1 60:1 72:1 120:1 
1.117521251359708 1:0.076923077 2:0.076923077 3:0.42831365 4:0.73469388 5:0.69727576 12:1 24:1 96:1 108:1 208:1 251:1 
2 1:0.30769231 2:0.30769231 3:0.32332677 4:0.87755102 5:0.7306338 12:1 24:1 96:1 155:1 165:1 251:1 
2 1:0.38461538 2:0.38461538 3:0.34257437 4:0.62755102 5:0.64884482 12:1 38:1 72:1 153:1 244:1 250:1 
1.415728435474011 1:0.15384615 2:0.15384615 3:0.27520779 4:0.77365492 5:0.79240796 12:1 60:1 96:1 120:1 153:1 276:1 
1.132761804782588 1:0.38461538 2:0.38461538 3:0.34257437 4:0.73469388 5:0.69727576 12:1 62:1 179:1 207:1 249:1 
2 1:0.53846154 2:0.53846154 3:0.19595299 4:0.73469388 5:0.69727576 14:1 26:1 38:1 46:1 120:1 153:1 251:1 
1.707535826705617 1:0.46153846 2:0.46153846 3:0.29625984 4:0.55102041 5:0.67457376 14:1 25:1 46:1 61:1 153:1 251:1 
0.832772872260511 1:0.23076923 2:0.23076923 3:0.45657935 4:0.64897959 5:0.60746564 24:1 97:1 231:1 251:1 
0.2000037975823548 1:0.46153846 2:0.46153846 3:0.35941601 4:0.79591837 5:0.78808377 36:1 46:1 72:1 165:1 251:1 
1.134063271166889 1:0.53846154 2:0.53846154 3:0.37427629 4:0.73469388 5:0.69727576 47:1 122:1 154:1 251:1 
2 1:0.46153846 2:0.46153846 3:0.35941601 4:0.91836735 5:0.7275451 45:1 60:1 84:1 179:1 215:1 250:1 
2 1:0.61538462 2:0.61538462 3:0.44362423 4:0.82040816 5:0.78375957 46:1 60:1 154:1 166:1 251:1 
2 1:0.23076923 2:0.23076923 3:0.37884868 4:0.90612245 5:0.73220192 72:1 144:1 167:1 179:1 192:1 251:1 
1.750705434632203 1:0.53846154 2:0.53846154 3:0.37427629 4:0.73469388 5:0.69727576 37:1 46:1 108:1 153:1 179:1 250:1 
0.7466948256759033 1:0.30769231 2:0.30769231 3:0.39550525 4:0.59183673 5:0.65279837 25:1 46:1 97:1 108:1 251:1 
0.8738473242380183 1:0.53846154 2:0.53846154 3:0.51520122 4:0.56632653 5:0.66174533 34:1 112:1 190:1 251:1 
2 1:0.61538462 2:0.61538462 3:0.29972724 4:0.32142857 5:0.68145855 86:1 206:1 235:1 250:1 
2 1:0.53846154 2:0.53846154 3:0.38888889 4:0.44387755 5:0.67687999 101:1 206:1 235:1 251:1 
0.8100037769851022 1:0.38461538 2:0.38461538 3:0.60542432 4:0.51190476 5:0.65686517 53:1 99:1 112:1 250:1 
0.4346261905559165 1:0.46153846 2:0.46153846 3:0.42257218 4:0.71428571 5:0.91475167 12:1 34:1 179:1 207:1 249:1 
0.1866582838032768 1:0.23076923 2:0.23076923 3:0.49475066 4:0.73809524 5:0.87027428 12:1 96:1 155:1 207:1 251:1 
2 1:0.30769231 2:0.30769231 3:0.49475066 4:0.47186147 5:0.65752409 12:1 96:1 102:1 208:1 250:1 
0.5992862689948157 1:0.30769231 2:0.30769231 3:0.49475066 4:0.47186147 5:0.65752409 24:1 102:1 208:1 251:1 
0.08246866790257713 1:0.46153846 2:0.46153846 3:0.3503937 4:0.52380952 5:0.65900667 35:1 50:1 54:1 251:1 
1.813402723106833 1:0.38461538 2:0.38461538 3:0.33928932 4:0.4952381 5:0.66969835 72:1 217:1 225:1 241:1 250:1 
2 1:0.46153846 2:0.46153846 3:0.42257218 4:0.42857143 5:0.67457376 56:1 72:1 122:1 208:1 250:1 
2 1:0.38461538 2:0.38461538 3:0.41701999 4:0.32380952 5:0.68716143 54:1 72:1 82:1 97:1 104:1 217:1 
1.697742373097201 1:0.38461538 2:0.38461538 3:0.33928932 4:0.4952381 5:0.66969835 54:1 72:1 242:1 250:1 276:1 
2 1:0.38461538 2:0.38461538 3:0.49475066 4:0.23809524 5:0.68865827 54:1 102:1 208:1 
0.2491185000203295 1:0.15384615 2:0.15384615 3:0.39370079 4:0.56776557 5:0.62466024 13:1 144:1 192:1 216:1 
2 1:0.23076923 2:0.23076923 3:0.49475066 4:0.5952381 5:0.55893254 13:1 155:1 207:1 216:1 
0.8788125434658844 1:0.46153846 2:0.46153846 3:0.49475066 4:0.33333333 5:0.68124537 13:1 104:1 208:1 250:1 
1.936541323531337 1:0.46153846 2:0.46153846 3:0.3503937 4:0.52380952 5:0.65900667 13:1 56:1 129:1 144:1 251:1 
2 1:0.30769231 2:0.30769231 3:0.49475066 4:0.39393939 5:0.67383247 13:1 54:1 83:1 102:1 131:1 208:1 
0.6169859431336265 1:0.23076923 2:0.23076923 3:0.38370684 4:0.52747253 5:0.67457376 63:1 184:1 240:1 249:1 264:1 
1.775829838278335 1:0.53846154 2:0.53846154 3:0.23934989 4:0.38095238 5:0.74128984 127:1 157:1 163:1 249:1 264:1 
0.9285724641128084 1:0.61538462 2:0.61538462 3:0.33836395 4:0.56643357 5:0.62700766 12:1 57:1 129:1 227:1 248:1 
2 1:0.46153846 2:0.46153846 3:0.42257218 4:0.53571429 5:0.65974796 119:1 189:1 239:1 256:1 
2 1:0.38461538 2:0.38461538 3:0.49475066 4:0.35294118 5:0.67457376 155:1 174:1 198:1 256:1 
2 1:0.53846154 2:0.53846154 3:0.62106299 4:0.4 5:0.57727947 54:1 130:1 238:1 256:1 
2 1:0.61538462 2:0.61538462 3:0.55088947 4:0.36734694 5:0.6543942 54:1 103:1 166:1 257:1 
1.3308314812249 1:0.46153846 2:0.46153846 3:0.56692913 4:0.42857143 5:0.67457376 25:1 166:1 238:1 256:1 
2 1:0.53846154 2:0.53846154 3:0.42257218 4:0.56103896 5:0.45404003 10:1 24:1 44:1 59:1 73:1 92:1 251:1 
0.4200424985177444 1:0.46153846 2:0.46153846 3:0.25415573 4:0.42857143 5:0.57944156 26:1 37:1 43:1 59:1 
-0.2050876011435509 1:0.15384615 2:0.15384615 3:0.46467629 4:0.41298701 5:0.67858908 12:1 53:1 54:1 135:1 155:1 181:1 252:1 
-1.548404015045095 1:0.53846154 2:0.53846154 3:0.35367454 4:0.34415584 5:0.67514657 122:1 127:1 162:1 233:1 236:1 252:1 
-2 1:0.15384615 2:0.15384615 3:0.43120892 4:0.39183673 5:0.67729024 63:1 76:1 84:1 180:1 187:1 252:1 
-2 1:0.53846154 2:0.53846154 3:0.51099081 4:0.38265306 5:0.72192365 51:1 65:1 92:1 206:1 234:1 250:1 
-0.8509042107346202 1:0.30769231 2:0.30769231 3:0.64993438 4:0.30989011 5:0.7095997 14:1 64:1 76:1 92:1 160:1 238:1 256:1 
-1.383341185952943 1:0.076923077 2:0.076923077 3:0.15051484 4:0.34285714 5:0.65711068 37:1 84:1 109:1 144:1 151:1 216:1 252:1 
-2 1:0.23076923 2:0.23076923 3:0.30774278 4:0.42857143 5:0.65688389 6:1 48:1 119:1 196:1 252:1 
-2 1:0.076923077 2:0.076923077 3:0.33620477 4:0.6 5:0.79653811 109:1 120:1 156:1 192:1 215:1 253:1 
-1.459304658434226 1:0.23076923 2:0.23076923 3:0.57414698 4:0.51623377 5:0.6823573 12:1 39:1 113:1 132:1 138:1 197:1 251:1 
-2 1:0.46153846 2:0.46153846 3:0.50030285 4:0.34285714 5:0.68704739 75:1 109:1 128:1 164:1 188:1 252:1 
-0.6559938726222346 1:0.53846154 2:0.53846154 3:0.38888889 4:0.56632653 5:0.67687999 120:1 141:1 156:1 190:1 214:1 234:1 
-2 1:0.38461538 2:0.38461538 3:0.32152231 4:0.46428571 5:0.65381764 13:1 26:1 63:1 68:1 119:1 206:1 
-2 1:0.38461538 2:0.38461538 3:0.43439088 4:0.34285714 5:0.7466436 14:1 41:1 113:1 172:1 193:1 225:1 
-0.4365821502932304 1:0.69230769 2:0.69230769 3:0.19423834 4:0.6122449 5:0.65187176 14:1 21:1 81:1 128:1 158:1 242:1 251:1 
-0.6421422835763372 1:0.53846154 2:0.53846154 3:0.4669897 4:0.75238095 5:0.63796544 20:1 41:1 59:1 86:1 131:1 239:1 251:1 
-1.817834693671566 1:0.23076923 2:0.23076923 3:0.64712744 4:0.29499072 5:0.79680422 76:1 80:1 111:1 114:1 157:1 255:1 
-0.2232396645127529 1:0.38461538 2:0.38461538 3:0.46748323 4:0.33437991 5:0.76221069 13:1 30:1 45:1 138:1 159:1 238:1 256:1 
-0.7083535484967979 1:0.30769231 2:0.30769231 3:0.44760001 4:0.14285714 5:0.69517726 14:1 20:1 51:1 127:1 160:1 184:1 256:1 
-0.4391699019396789 1:0.38461538 2:0.38461538 3:0.47069116 4:0.58333333 5:0.80924141 27:1 53:1 67:1 108:1 143:1 238:1 253:1 
-2 1:0.30769231 2:0.30769231 3:0.49475066 4:0.47186147 5:0.65752409 13:1 102:1 130:1 144:1 207:1 
-1.905431697339162 1:0.30769231 2:0.30769231 3:0.52150212 4:0.5 5:0.71702945 13:1 22:1 75:1 111:1 200:1 241:1 251:1 
-0.8800342801026532 1:0.53846154 2:0.53846154 3:0.38467848 4:0.15306122 5:0.6414937 25:1 44:1 91:1 138:1 175:1 219:1 
-2 1:0.53846154 2:0.53846154 3:0.26711084 4:0.38961039 5:0.38917717 10:1 25:1 38:1 43:1 90:1 251:1 
-1.552151821846998 3:0.36529695 4:0.25714286 5:0.71947882 13:1 18:1 75:1 148:1 192:1 220:1 256:1 
-0.2073194494893596 1:0.53846154 2:0.53846154 3:0.34484151 4:0.64675325 5:0.42576647 11:1 58:1 168:1 192:1 212:1 237:1 
-0.6737507821600474 1:0.076923077 2:0.076923077 3:1 4:0.6122449 5:0.73511243 24:1 51:1 87:1 119:1 219:1 239:1 255:1 
-1.080437009077585 1:0.30769231 2:0.30769231 3:0.4951208 4:0.49285714 5:0.68648191 34:1 48:1 99:1 144:1 186:1 257:1 
-1.187477029471844 1:0.076923077 2:0.076923077 3:0.26618548 4:0.26298701 5:0.6529528 13:1 30:1 121:1 135:1 180:1 253:1 
-2 1:0.15384615 2:0.15384615 3:0.49475066 4:0.36996337 5:0.67712709 13:1 25:1 72:1 102:1 208:1 
-2 1:0.61538462 2:0.61538462 3:0.45083788 4:0.41428571 5:0.67721363 20:1 46:1 62:1 104:1 233:1 253:1 
-0.5801155635049042 1:0.15384615 2:0.15384615 3:0.44362423 4:0.4174397 5:0.67435755 25:1 37:1 73:1 144:1 178:1 208:1 
-0.1257648538833585 1:0.38461538 2:0.38461538 3:0.47550306 4:0.26190476 5:0.78379046 30:1 78:1 134:1 173:1 192:1 245:1 
-0.6115467640745236 1:0.46153846 2:0.46153846 3:0.16994751 4:0.35064935 5:0.24647887 37:1 57:1 74:1 85:1 170:1 212:1 
-2 1:0.23076923 2:0.23076923 3:0.31029455 4:0.40714286 5:0.71205008 14:1 24:1 42:1 65:1 109:1 242:1 252:1 
-1.873006750628528 1:0.15384615 2:0.15384615 3:0.21205162 4:0.58441558 5:0.66129232 12:1 51:1 120:1 155:1 180:1 215:1 254:1 
-2 1:0.53846154 2:0.53846154 3:0.48757502 4:0.72857143 5:0.78214749 12:1 65:1 70:1 142:1 
-2 1:0.23076923 2:0.23076923 3:0.31029455 4:0.40714286 5:0.71205008 12:1 40:1 42:1 69:1 86:1 108:1 253:1 
-0.9168821108555694 1:0.46153846 2:0.46153846 3:0.60089548 4:0.57142857 5:0.69517726 29:1 41:1 46:1 63:1 75:1 115:1 
-0.5783157659010603 1:0.15384615 2:0.15384615 3:0.48031496 4:0.5018315 5:0.66093403 28:1 137:1 168:1 191:1 217:1 253:1 
-0.2721953073437341 1:0.30769231 2:0.30769231 3:0.43811831 4:0.49285714 5:0.668786 51:1 85:1 134:1 156:1 196:1 214:1 250:1 
-2 1:0.38461538 2:0.38461538 3:0.2776845 4:0.63265306 5:0.72932564 86:1 117:1 156:1 204:1 
-0.9516621738560581 1:0.46153846 2:0.46153846 3:0.32152231 4:0.42857143 5:0.69705955 12:1 121:1 152:1 167:1 187:1 240:1 248:1 
-2 1:0.15384615 2:0.15384615 3:0.43059201 4:0.65714286 5:0.79112099 26:1 65:1 71:1 100:1 108:1 192:1 252:1 
-2 1:0.15384615 2:0.15384615 3:0.49475066 4:0.43589744 5:0.66641957 12:1 54:1 72:1 97:1 208:1 241:1 250:1 
-0.05574859165078582 1:0.23076923 2:0.23076923 3:0.47998688 4:0.32857143 5:0.68719253 20:1 30:1 156:1 192:1 210:1 231:1 252:1 
-0.3018697884080912 1:0.38461538 2:0.38461538 3:0.53030917 4:0.87755102 5:0.72932564 24:1 51:1 118:1 130:1 144:1 243:1 250:1 
-2 1:0.23076923 2:0.23076923 3:0.4450277 4:0.72857143 5:0.77777778 12:1 63:1 70:1 84:1 99:1 122:1 
-2 1:0.23076923 2:0.23076923 3:0.51239428 4:0.72857143 5:0.78469648 39:1 65:1 71:1 99:1 141:1 192:1 253:1 
-1.092967957256471 1:0.38461538 2:0.38461538 3:0.52824524 4:0.37142857 5:0.68712239 42:1 101:1 137:1 205:1 215:1 
-2 1:0.23076923 2:0.23076923 3:0.4450277 4:0.72857143 5:0.77777778 12:1 41:1 99:1 143:1 213:1 229:1 252:1 
-0.06617051908741475 1:0.30769231 2:0.30769231 3:0.61650627 4:0.34693878 5:0.71598116 56:1 76:1 89:1 91:1 195:1 219:1 253:1 
-0.8410842574089868 1:0.53846154 2:0.53846154 3:0.5825678 4:0.50510204 5:0.69662713 17:1 34:1 50:1 88:1 215:1 236:1 257:1 
-1.919380416352049 1:0.38461538 2:0.38461538 3:0.23103975 4:0.8 5:0.75351144 69:1 99:1 204:1 213:1 228:1 242:1 254:1 
-1.429442115206211 1:0.53846154 2:0.53846154 3:0.42257218 4:0.73246753 5:0.4216086 10:1 24:1 59:1 154:1 204:1 238:1 
-2 1:0.30769231 2:0.30769231 3:0.59580052 4:0.47619048 5:0.72127502 52:1 119:1 129:1 191:1 220:1 256:1 
-2 1:0.30769231 2:0.30769231 3:0.39450277 4:0.45306122 5:0.6558356 42:1 101:1 122:1 168:1 240:1 
-0.4236945589042627 1:0.38461538 2:0.38461538 3:0.61134666 4:0.64761905 5:0.65618407 12:1 99:1 135:1 141:1 173:1 245:1 250:1 
-2 1:0.38461538 2:0.38461538 3:0.6824147 4:0.46428571 5:0.70941438 51:1 113:1 173:1 195:1 236:1 
-0.790483641930522 1:0.46153846 2:0.46153846 3:0.42257218 4:0.42857143 5:0.67457376 36:1 44:1 205:1 212:1 228:1 238:1 
-0.7765116884927352 1:0.38461538 2:0.38461538 3:0.31671041 4:0.60714286 5:0.68799934 121:1 143:1 206:1 213:1 232:1 251:1 
-0.5852079666841389 1:0.30769231 2:0.30769231 3:0.39450277 4:0.5755102 5:0.83745161 26:1 39:1 71:1 86:1 99:1 176:1 253:1 
-0.2465140352209867 1:0.30769231 2:0.30769231 3:0.41068396 4:0.17857143 5:0.70906554 14:1 88:1 128:1 205:1 232:1 236:1 252:1 
-2 1:0.23076923 2:0.23076923 3:0.32152231 4:0.43831169 5:0.65381764 12:1 117:1 157:1 195:1 205:1 
-0.684823699568633 1:0.61538462 2:0.61538462 3:0.3552056 4:0.27872128 5:0.77374187 14:1 19:1 103:1 115:1 140:1 219:1 256:1 
-0.3379879904172585 1:0.23076923 2:0.23076923 3:0.43955535 4:0.33333333 5:0.65495138 14:1 27:1 75:1 103:1 173:1 220:1 253:1 
-2 1:0.30769231 2:0.30769231 3:0.41054243 4:0.39393939 5:0.68062763 54:1 73:1 102:1 216:1 251:1 
-1.353211794268007 1:0.53846154 2:0.53846154 3:0.56955381 4:0.32417582 5:0.72787924 30:1 45:1 76:1 128:1 185:1 225:1 256:1 
-0.8164517998966544 1:0.46153846 2:0.46153846 3:0.42257218 4:0.42857143 5:0.67457376 13:1 57:1 76:1 100:1 106:1 117:1 
-2 1:0.30769231 2:0.30769231 3:0.65835521 4:0.26673327 5:0.92537682 8:1 76:1 78:1 112:1 143:1 256:1 
-1.221292829919287 1:0.23076923 2:0.23076923 3:0.63244498 4:0.2043956 5:0.92777176 18:1 40:1 42:1 63:1 107:1 220:1 246:1 
-0.3688168809283907 1:0.30769231 2:0.30769231 3:0.29625984 4:0.32747253 5:0.68847294 14:1 42:1 121:1 131:1 186:1 208:1 
-1.696934030069654 1:0.38461538 2:0.38461538 3:0.34257437 4:0.50510204 5:0.66397949 14:1 25:1 122:1 154:1 179:1 231:1 246:1 
-2 1:0.30769231 2:0.30769231 3:0.45031136 4:0.57142857 5:0.70662364 13:1 24:1 100:1 106:1 251:1 
-2 1:0.46153846 2:0.46153846 3:0.25415573 4:0.42857143 5:0.71781567 12:1 43:1 85:1 135:1 141:1 175:1 254:1 
-0.4055105049077851 1:0.53846154 2:0.53846154 3:0.42257218 4:0.64675325 5:0.43241908 44:1 59:1 84:1 92:1 155:1 239:1 
-1.963053907305963 1:0.23076923 2:0.23076923 3:0.35888529 4:0.52380952 5:0.63990756 40:1 73:1 107:1 146:1 205:1 251:1 
-0.853084287996885 1:0.38461538 2:0.38461538 3:0.38370684 4:0.46753247 5:0.67457376 12:1 112:1 163:1 184:1 191:1 242:1 250:1 
-0.6938978072546206 1:0.38461538 2:0.38461538 3:0.22269332 4:0.47619048 5:0.64121572 26:1 43:1 87:1 158:1 192:1 210:1 251:1 
-2 1:0.38461538 2:0.38461538 3:0.31245373 4:0.36623377 5:0.66745548 19:1 40:1 63:1 146:1 153:1 229:1 
-1.569057149682072 1:0.30769231 2:0.30769231 3:0.39730971 4:0.36703297 5:0.83932543 13:1 160:1 165:1 184:1 237:1 256:1 
-0.09027513136032105 1:0.61538462 2:0.61538462 3:0.42257218 4:0.43722944 5:0.62268347 11:1 59:1 85:1 140:1 176:1 212:1 
-1.69434008270794 1:0.61538462 2:0.61538462 3:0.42257218 4:0.25474525 5:0.67457376 42:1 81:1 103:1 149:1 186:1 
-1.261909265391702 1:0.30769231 2:0.30769231 3:0.45765894 4:0.33061224 5:0.70880694 26:1 39:1 44:1 100:1 176:1 229:1 252:1 
-0.467198961842399 1:0.30769231 2:0.30769231 3:0.32152231 4:0.68631369 5:0.41915822 11:1 59:1 72:1 155:1 192:1 230:1 
-2 1:0.23076923 2:0.23076923 3:0.40288714 4:0.38095238 5:0.68276164 13:1 72:1 102:1 194:1 208:1 
-0.3878053414786952 1:0.38461538 2:0.38461538 3:0.29949862 4:0.46753247 5:0.62700766 21:1 111:1 162:1 189:1 217:1 228:1 
-2 1:0.30769231 2:0.30769231 3:0.49475066 4:0.39393939 5:0.67383247 24:1 54:1 96:1 102:1 208:1 250:1 
-0.670982581769588 1:0.53846154 2:0.53846154 3:0.44478094 4:0.6 5:0.6690616 65:1 107:1 154:1 164:1 230:1 240:1 
-0.03700222910199454 1:0.38461538 2:0.38461538 3:0.18678915 4:0.35714286 5:0.65035829 57:1 72:1 78:1 98:1 180:1 230:1 246:1 
-0.2420266334026028 1:0.30769231 2:0.30769231 3:0.39730971 4:0.42417582 5:0.64473684 13:1 75:1 81:1 126:1 138:1 227:1 255:1 
-0.8289681728751367 1:0.23076923 2:0.23076923 3:0.31102362 4:0.66666667 5:0.71460341 26:1 74:1 155:1 208:1 216:1 240:1 251:1 
-0.7842355873317622 1:0.38461538 2:0.38461538 3:0.40994094 4:0.39795918 5:0.68127625 38:1 73:1 108:1 154:1 233:1 246:1 
-0.01642556631324172 1:0.46153846 2:0.46153846 3:0.60629921 4:0.28571429 5:0.6958016 56:1 75:1 166:1 221:1 222:1 234:1 253:1 
-1.309241510597977 1:0.53846154 2:0.53846154 3:0.27483845 4:0.3 5:0.73298827 26:1 42:1 101:1 110:1 122:1 213:1 
-0.4842419459910087 1:0.38461538 2:0.38461538 3:0.47730752 4:0.52040816 5:0.65922288 13:1 25:1 108:1 128:1 209:1 214:1 251:1 
-1.253483096889376 1:0.38461538 2:0.38461538 3:0.31893129 4:0.43636364 5:0.66768092 13:1 47:1 84:1 108:1 127:1 164:1 
-2 1:0.15384615 2:0.15384615 3:0.3175853 4:0.28571429 5:0.6769998 18:1 85:1 120:1 138:1 156:1 252:1 
-0.2225449073179921 1:0.38461538 2:0.38461538 3:0.46748323 4:0.33437991 5:0.76221069 13:1 18:1 76:1 92:1 191:1 237:1 256:1 
-0.3642038433549911 1:0.30769231 2:0.30769231 3:0.47805054 4:0.39285714 5:0.68139072 13:1 29:1 47:1 77:1 126:1 179:1 253:1 
-0.05764081290062447 1:0.61538462 2:0.61538462 3:0.52362205 4:0.43456543 5:0.74203113 46:1 64:1 81:1 116:1 138:1 165:1 255:1 
-1.083206012602981 1:0.38461538 2:0.38461538 3:0.467153 4:0.3877551 5:0.67635431 100:1 146:1 156:1 188:1 244:1 250:1 
-0.1691876445160539 1:0.46153846 2:0.46153846 3:0.42257218 4:0.21428571 5:0.68198666 31:1 54:1 174:1 199:1 219:1 222:1 256:1 
-0.1442136842204844 1:0.46153846 2:0.46153846 3:0.32152231 4:0.2967033 5:0.68421053 13:1 57:1 130:1 151:1 220:1 241:1 246:1 
-0.3498352680916448 1:0.30769231 2:0.30769231 3:0.46402853 4:0.55714286 5:0.7002528 17:1 27:1 33:1 50:1 64:1 112:1 251:1 
-0.2178453208613138 1:0.15384615 2:0.15384615 3:0.16994751 4:0.47532468 5:0.45404003 36:1 86:1 109:1 168:1 206:1 228:1 
-1.376221544939306 1:0.46153846 2:0.46153846 3:0.36313108 4:0.57142857 5:0.67686304 40:1 45:1 99:1 127:1 146:1 179:1 
-1.462954149517264 1:0.30769231 2:0.30769231 3:0.24821162 4:0.46428571 5:0.69970494 12:1 56:1 74:1 86:1 180:1 217:1 
-0.9650576150248357 1:0.46153846 2:0.46153846 3:0.29625984 4:0.55102041 5:0.67457376 46:1 62:1 73:1 146:1 166:1 192:1 
-2 1:0.30769231 2:0.30769231 3:0.56390067 4:0.44285714 5:0.68258409 47:1 75:1 123:1 144:1 200:1 236:1 253:1 
-2 1:0.076923077 2:0.076923077 3:0.41054243 4:0.31655844 5:0.67766247 12:1 51:1 121:1 136:1 153:1 244:1 253:1 
-0.4750565336793888 1:0.53846154 2:0.53846154 3:0.26257655 4:0.44387755 5:0.68596079 26:1 34:1 86:1 112:1 122:1 235:1 251:1 
-2 1:0.38461538 2:0.38461538 3:0.24934383 4:0.45238095 5:0.65752409 12:1 38:1 54:1 123:1 189:1 230:1 
-2 1:0.53846154 2:0.53846154 3:0.29949862 4:0.4987013 5:0.66528388 79:1 91:1 153:1 243:1 252:1 
-2 1:0.30769231 2:0.30769231 3:0.52081511 4:0.20816327 5:0.7194012 39:1 44:1 100:1 176:1 193:1 253:1 
-1.92947972576481 1:0.15384615 2:0.15384615 3:0.35941601 4:0.49536178 5:0.66484433 12:1 61:1 122:1 145:1 167:1 232:1 
-2 1:0.30769231 2:0.30769231 3:0.38815891 4:0.28571429 5:0.72493786 14:1 19:1 63:1 160:1 184:1 225:1 256:1 
-2 1:0.38461538 2:0.38461538 3:0.47730752 4:0.6122449 5:0.71241043 37:1 84:1 128:1 179:1 215:1 233:1 
-0.1535924950665256 1:0.53846154 2:0.53846154 3:0.32802259 4:0.51428571 5:0.7466436 43:1 109:1 137:1 141:1 213:1 228:1 
-2 1:0.23076923 2:0.23076923 3:0.51239428 4:0.51428571 5:0.7466436 24:1 39:1 43:1 100:1 135:1 
-0.297470302987578 1:0.69230769 2:0.69230769 3:0.48993876 4:0.44805195 5:0.67976279 6:1 44:1 141:1 190:1 200:1 216:1 257:1 
-0.591988855638851 1:0.15384615 2:0.15384615 3:0.45931759 4:0.35714286 5:0.68542355 42:1 84:1 124:1 136:1 191:1 228:1 
-2 1:0.23076923 2:0.23076923 3:0.37766113 4:0.72857143 5:0.77085907 24:1 41:1 84:1 142:1 192:1 242:1 252:1 
-1.65398171259206 1:0.46153846 2:0.46153846 3:0.42257218 4:0.85714286 5:0.72264859 107:1 118:1 158:1 168:1 233:1 251:1 
-1.533846194050381 1:0.46153846 2:0.46153846 3:0.32152231 4:0.42857143 5:0.60711638 12:1 45:1 139:1 160:1 206:1 238:1 256:1 
-0.8571545313082019 1:0.53846154 2:0.53846154 3:0.25539409 4:0.75510204 5:0.7353032 24:1 47:1 177:1 194:1 215:1 247:1 
-0.8475947294694114 1:0.38461538 2:0.38461538 3:0.26155865 4:0.32380952 5:0.69714033 13:1 55:1 72:1 102:1 129:1 217:1 
-0.1207225306178244 1:0.30769231 2:0.30769231 3:0.46402853 4:0.3 5:0.66283192 49:1 64:1 122:1 160:1 176:1 244:1 250:1 
-0.00895426558516995 1:0.23076923 2:0.23076923 3:0.43106376 4:0.52380952 5:0.60654951 99:1 130:1 157:1 180:1 217:1 
-0.01282033073420883 1:0.30769231 2:0.30769231 3:0.52081511 4:0.69795918 5:0.79204761 71:1 101:1 135:1 143:1 214:1 229:1 253:1 
-0.6469253382206072 1:0.30769231 2:0.30769231 3:0.38629787 4:0.55714286 5:0.7202106 27:1 64:1 81:1 111:1 121:1 141:1 
-1.572567428305864 1:0.46153846 2:0.46153846 3:0.25415573 4:0.42857143 5:0.57944156 9:1 26:1 84:1 92:1 120:1 210:1 
-1.504667140985756 1:0.30769231 2:0.30769231 3:0.3313466 4:0.69795918 5:0.76934561 14:1 24:1 135:1 142:1 215:1 230:1 253:1 
-2 1:0.30769231 2:0.30769231 3:0.41054243 4:0.54978355 5:0.63532658 14:1 24:1 54:1 82:1 120:1 208:1 251:1 
-0.3146535705750668 1:0.53846154 2:0.53846154 3:0.32152231 4:0.26020408 5:0.65381764 13:1 66:1 91:1 111:1 175:1 206:1 250:1 
-0.285963840055638 1:0.30769231 2:0.30769231 3:0.20503427 4:0.45306122 5:0.7239416 14:1 25:1 43:1 109:1 170:1 215:1 252:1 
-0.7336244643702103 1:0.30769231 2:0.30769231 3:0.46768373 4:0.68707483 5:0.53048554 46:1 72:1 177:1 192:1 232:1 244:1 251:1 
-0.913267544212517 1:0.23076923 2:0.23076923 3:0.39930412 4:0.24489796 5:0.71241043 13:1 40:1 112:1 127:1 183:1 225:1 256:1 
-2 1:0.69230769 2:0.69230769 3:0.24540682 4:0.5 5:0.662174 7:1 19:1 46:1 84:1 92:1 158:1 
-0.07584581150453674 1:0.53846154 2:0.53846154 3:0.45204506 4:0.44387755 5:0.67233959 33:1 101:1 113:1 158:1 205:1 250:1 
-2 1:0.46153846 2:0.46153846 3:0.23884514 4:0.42857143 5:0.66325224 19:1 46:1 120:1 156:1 211:1 253:1 
-1.440828378715636 1:0.53846154 2:0.53846154 3:0.43371738 4:0.73469388 5:0.69727576 109:1 154:1 178:1 207:1 213:1 251:1 
-2 1:0.46153846 2:0.46153846 3:0.42257218 4:0.32142857 5:0.66650194 101:1 122:1 136:1 174:1 201:1 
-0.4762638077977174 1:0.30769231 2:0.30769231 3:0.42775422 4:0.49285714 5:0.67355369 34:1 52:1 64:1 86:1 112:1 206:1 251:1 
-0.8350672175255511 1:0.30769231 2:0.30769231 3:0.22047244 4:0.48851149 5:0.45663454 36:1 43:1 84:1 91:1 109:1 228:1 251:1 
-0.4261870277463837 1:0.46153846 2:0.46153846 3:0.35941601 4:0.67346939 5:0.60646775 60:1 72:1 122:1 154:1 165:1 244:1 250:1 
-2 1:0.23076923 2:0.23076923 3:0.40288714 4:0.52380952 5:0.65091987 35:1 73:1 97:1 216:1 
-1.302525084158464 1:0.46153846 2:0.46153846 3:0.42257218 4:0.25714286 5:0.72262032 25:1 42:1 101:1 143:1 176:1 206:1 
-2 1:0.30769231 2:0.30769231 3:0.38815891 4:0.85714286 5:0.65778572 12:1 19:1 95:1 192:1 221:1 227:1 255:1 
-0.8038286977617644 1:0.46153846 2:0.46153846 3:0.62467192 4:0.85714286 5:0.72531093 34:1 51:1 63:1 111:1 142:1 179:1 250:1 
-0.1540195570590125 1:0.38461538 2:0.38461538 3:0.43439088 4:0.68571429 5:0.65055048 12:1 19:1 94:1 183:1 194:1 245:1 255:1 
-0.05134957207625919 1:0.23076923 2:0.23076923 3:0.63254593 4:0.33333333 5:0.61998787 76:1 137:1 210:1 231:1 244:1 
-1.459401322200015 1:0.076923077 2:0.076923077 3:0.62467192 4:0.44505495 5:0.693106 12:1 111:1 125:1 135:1 220:1 228:1 
-1.502475753627332 1:0.46153846 2:0.46153846 3:0.31029455 4:0.6 5:0.78988551 42:1 71:1 99:1 141:1 170:1 206:1 
-2 1:0.23076923 2:0.23076923 3:0.35367454 4:0.38571429 5:0.67245097 19:1 60:1 84:1 102:1 231:1 252:1 
-2 1:0.38461538 2:0.38461538 3:0.47730752 4:0.84183673 5:0.77338152 12:1 24:1 60:1 154:1 166:1 209:1 251:1 
-1.267463373149668 1:0.23076923 2:0.23076923 3:0.57542072 4:0.61904762 5:0.87341386 39:1 53:1 72:1 100:1 130:1 204:1 
-0.5043719120132168 1:0.61538462 2:0.61538462 3:0.45031136 4:0.35714286 5:0.66638323 75:1 81:1 121:1 141:1 176:1 222:1 250:1 
-1.769749343540072 1:0.46153846 2:0.46153846 3:0.42257218 4:0.19480519 5:0.33209785 109:1 128:1 176:1 193:1 210:1 
-1.432417524863943 1:0.30769231 2:0.30769231 3:0.36242345 4:0.47186147 5:0.67840376 15:1 45:1 60:1 176:1 205:1 222:1 252:1 
-0.8402230456033846 1:0.38461538 2:0.38461538 3:0.41701999 4:0.23809524 5:0.69264983 26:1 54:1 97:1 102:1 208:1 250:1 
-1.153683108330124 1:0.61538462 2:0.61538462 3:0.3313466 4:0.82040816 5:0.75493164 38:1 122:1 155:1 166:1 178:1 251:1 
-0.3162389359890249 1:0.69230769 2:0.69230769 3:0.32055068 4:0.6122449 5:0.66700642 82:1 127:1 141:1 157:1 189:1 251:1 
-0.5679817422085028 1:0.53846154 2:0.53846154 3:0.35367454 4:0.34415584 5:0.67514657 30:1 46:1 67:1 104:1 138:1 192:1 252:1 
-1.482179660706369 1:0.61538462 2:0.61538462 3:0.3552056 4:0.51248751 5:0.7103204 12:1 20:1 81:1 115:1 139:1 227:1 255:1 
-1.280926403415995 1:0.23076923 2:0.23076923 3:0.65835521 4:0.51623377 5:0.69187052 24:1 39:1 111:1 173:1 195:1 236:1 
-0.1478829018639964 1:0.61538462 2:0.61538462 3:0.45083788 4:0.32857143 5:0.68469781 20:1 46:1 104:1 120:1 128:1 210:1 253:1 
-0.0124082244547106 1:0.23076923 2:0.23076923 3:0.21452833 4:0.33333333 5:0.70662364 25:1 54:1 86:1 145:1 158:1 168:1 
-1.256223336366125 1:0.69230769 2:0.69230769 3:0.62322144 5:0.67929106 20:1 40:1 94:1 128:1 173:1 225:1 257:1 
-0.9960257061950266 1:0.46153846 2:0.46153846 3:0.3503937 4:0.71428571 5:0.88139362 35:1 49:1 72:1 82:1 153:1 227:1 
-2 1:0.53846154 2:0.53846154 3:0.42738408 4:0.3452381 5:0.68462235 14:1 24:1 56:1 82:1 104:1 208:1 
-2 1:0.15384615 2:0.15384615 3:0.54348655 4:0.33061224 5:0.6924249 46:1 75:1 124:1 180:1 217:1 253:1 
-0.5597629377000521 1:0.23076923 2:0.23076923 3:0.57414698 4:0.43831169 5:0.70138374 39:1 51:1 65:1 84:1 229:1 234:1 250:1 
-2 1:0.30769231 2:0.30769231 3:0.56648221 4:0.71428571 5:0.66312737 41:1 75:1 93:1 111:1 185:1 243:1 
-2 1:0.23076923 2:0.23076923 3:0.55471431 4:0.38241758 5:0.68709174 13:1 36:1 46:1 77:1 108:1 125:1 253:1 
-1.59598615367561 1:0.30769231 2:0.30769231 3:0.28831012 4:0.3 5:0.67126258 14:1 38:1 75:1 85:1 92:1 198:1 252:1 
-1.591241581530412 1:0.15384615 2:0.15384615 3:0.085739283 4:0.47012987 5:0.65008873 12:1 55:1 120:1 155:1 180:1 228:1 253:1 
-1.688970985133961 1:0.53846154 2:0.53846154 3:0.61204068 4:0.30612245 5:0.67133062 126:1 209:1 233:1 245:1 250:1 
-0.002181807379377651 1:0.53846154 2:0.53846154 3:0.52209099 4:0.18831169 5:0.73403793 66:1 104:1 209:1 212:1 234:1 253:1 
-2 1:0.53846154 2:0.53846154 3:0.27483845 4:0.3 5:0.73298827 44:1 110:1 122:1 242:1 
-2 1:0.38461538 2:0.38461538 3:0.2776845 4:0.63265306 5:0.72932564 14:1 24:1 180:1 188:1 218:1 251:1 
-0.6812411660419935 1:0.23076923 2:0.23076923 3:0.48993876 4:0.68181818 5:0.55522609 17:1 63:1 120:1 141:1 160:1 243:1 251:1 
-1.23248822095336 1:0.38461538 2:0.38461538 3:0.37815465 4:0.39047619 5:0.67115242 24:1 32:1 42:1 105:1 193:1 244:1 251:1 
-1.149138328587163 1:0.46153846 2:0.46153846 3:0.3503937 4:0.61904762 5:0.54781319 14:1 35:1 98:1 207:1 226:1 241:1 250:1 
-2 1:0.30769231 2:0.30769231 3:0.39550525 4:0.65986395 5:0.8458426 12:1 96:1 153:1 207:1 215:1 246:1 
-2 1:0.38461538 2:0.38461538 3:0.40936305 4:0.51428571 5:0.7466436 41:1 44:1 64:1 86:1 108:1 141:1 252:1 
-1.669530199664324 1:0.61538462 2:0.61538462 3:0.27821522 4:0.36054422 5:0.68791698 93:1 117:1 189:1 205:1 224:1 253:1 
-1.25321042301244 1:0.30769231 2:0.30769231 3:0.36604078 4:0.38571429 5:0.67209415 65:1 107:1 122:1 180:1 229:1 246:1 
-1.479014078680516 1:0.23076923 2:0.23076923 3:0.2847769 4:0.38571429 5:0.63211807 12:1 75:1 85:1 157:1 181:1 225:1 248:1 
-0.386396434100829 3:0.39450277 4:0.47532468 5:0.60394531 24:1 64:1 85:1 100:1 120:1 206:1 252:1 
-2 1:0.69230769 2:0.69230769 3:0.4160105 4:0.33333333 5:0.62908552 20:1 87:1 91:1 151:1 223:1 
-1.753444254120919 1:0.30769231 2:0.30769231 3:0.42775422 4:0.66428571 5:0.66690109 24:1 64:1 120:1 156:1 190:1 214:1 
-1.336152060671552 1:0.15384615 2:0.15384615 3:0.42257218 4:0.36103896 36:1 84:1 121:1 138:1 169:1 
-2 1:0.38461538 2:0.38461538 3:0.33928932 4:0.40952381 5:0.6846667 54:1 83:1 97:1 218:1 
-0.9465261343807067 1:0.38461538 2:0.38461538 3:0.51173383 4:0.59183673 5:0.68830942 14:1 47:1 63:1 161:1 231:1 236:1 
-2 1:0.53846154 2:0.53846154 3:0.31483519 4:0.6122449 5:0.71241043 25:1 84:1 153:1 165:1 179:1 248:1 
-2 1:0.46153846 2:0.46153846 3:0.28783902 4:0.42857143 5:0.66073635 96:1 106:1 134:1 182:1 198:1 
-2 1:0.38461538 2:0.38461538 3:0.34992195 4:0.65714286 5:0.77869349 43:1 108:1 204:1 214:1 252:1 
-0.3611754582562999 1:0.23076923 2:0.23076923 3:0.57414698 4:0.44805195 5:0.65987151 64:1 112:1 143:1 160:1 176:1 220:1 251:1 
-0.9373998278938412 1:0.30769231 2:0.30769231 3:0.32332677 4:0.85034014 5:0.73242525 84:1 144:1 155:1 165:1 192:1 215:1 
-0.2044531187133668 1:0.53846154 2:0.53846154 3:0.45204506 4:0.32142857 5:0.67363685 13:1 34:1 101:1 113:1 158:1 235:1 
-2 1:0.30769231 2:0.30769231 3:0.11636045 4:0.41836735 5:0.5715794 14:1 42:1 84:1 121:1 180:1 225:1 
-0.8925810707784904 1:0.46153846 2:0.46153846 3:0.55730534 4:0.64285714 5:0.64228647 53:1 65:1 71:1 111:1 143:1 235:1 
-1.047919676817866 1:0.46153846 2:0.46153846 3:0.59098863 4:0.42857143 5:0.63133185 41:1 64:1 101:1 142:1 156:1 176:1 
-2 1:0.46153846 2:0.46153846 3:0.3503937 4:0.42857143 5:0.68124537 16:1 45:1 95:1 170:1 174:1 
-0.424816399257494 1:0.23076923 2:0.23076923 3:0.43941382 4:0.48701299 5:0.67074376 15:1 59:1 74:1 132:1 171:1 198:1 
-0.5606240422299286 1:0.30769231 2:0.30769231 3:0.44760001 5:0.68830942 13:1 19:1 64:1 112:1 127:1 160:1 257:1 
-2 1:0.38461538 2:0.38461538 3:0.65576418 4:0.43636364 5:0.68882141 46:1 64:1 77:1 123:1 128:1 180:1 
-1.714636773761101 1:0.61538462 2:0.61538462 3:0.21764587 4:0.32857143 5:0.66474 32:1 120:1 127:1 138:1 211:1 254:1 
-1.071976951930189 1:0.53846154 2:0.53846154 3:0.56572616 4:0.2755102 5:0.7865703 17:1 105:1 140:1 172:1 244:1 248:1 
-0.3710830328303352 1:0.76923077 2:0.76923077 3:0.39049286 4:0.58095238 5:0.65908904 47:1 71:1 141:1 176:1 190:1 223:1 
-0.6623096587569404 1:0.30769231 2:0.30769231 3:0.32633421 4:0.47186147 5:0.67655053 13:1 25:1 177:1 193:1 216:1 226:1 
-0.5883374382866805 1:0.15384615 2:0.15384615 3:0.49475066 4:0.5018315 5:0.64714603 24:1 104:1 145:1 192:1 208:1 216:1 
-1.685427606264386 1:0.15384615 2:0.15384615 3:0.57494896 4:0.75238095 5:0.78667326 24:1 41:1 99:1 135:1 143:1 240:1 
-1.395423367832122 1:0.23076923 2:0.23076923 3:0.60629921 4:0.38571429 5:0.69014085 46:1 61:1 181:1 207:1 233:1 252:1 
-1.085266630175492 1:0.46153846 2:0.46153846 3:0.49475066 4:0.42857143 5:0.66790215 17:1 70:1 112:1 190:1 218:1 253:1 
-2 1:0.23076923 2:0.23076923 3:0.65576418 4:0.51428571 5:0.68305582 47:1 63:1 75:1 84:1 123:1 128:1 
-2 1:0.69230769 2:0.69230769 3:0.37766113 4:0.57857143 5:0.6586223 12:1 91:1 140:1 214:1 249:1 
-0.3443692436199507 1:0.61538462 2:0.61538462 3:0.41054243 4:0.39393939 5:0.67445021 12:1 20:1 92:1 104:1 188:1 230:1 252:1 
-2 1:0.38461538 2:0.38461538 3:0.46748323 4:0.51805338 5:0.73194136 63:1 114:1 189:1 239:1 255:1 
-0.1662889435271315 1:0.53846154 2:0.53846154 3:0.46106737 4:0.58333333 5:0.63429701 31:1 58:1 101:1 119:1 194:1 208:1 251:1 
-0.8575691713583711 1:0.53846154 2:0.53846154 3:0.54075916 4:0.3 5:0.70567759 41:1 44:1 101:1 176:1 214:1 228:1 253:1 
-0.327286645174716 1:0.46153846 2:0.46153846 3:0.25415573 4:0.50649351 5:0.45259863 9:1 24:1 59:1 85:1 91:1 126:1 251:1 
-2 1:0.30769231 2:0.30769231 3:0.34091572 4:0.60204082 5:0.63716296 12:1 39:1 84:1 156:1 202:1 237:1 
-2 1:0.38461538 2:0.38461538 3:0.32226532 4:0.46938776 5:0.66560742 14:1 46:1 144:1 232:1 235:1 252:1 
-0.9751728837620534 1:0.46153846 2:0.46153846 3:0.60089548 4:0.28571429 5:0.68830942 40:1 46:1 116:1 171:1 233:1 236:1 253:1 
-2 1:0.076923077 2:0.076923077 3:0.27682718 4:0.4 5:0.66595562 12:1 36:1 85:1 108:1 216:1 224:1 252:1 
-1.126933547614823 1:0.38461538 2:0.38461538 3:0.65576418 4:0.2025974 5:0.75224288 18:1 64:1 76:1 125:1 152:1 224:1 252:1 
-1.117801291344464 1:0.38461538 2:0.38461538 3:0.26155865 4:0.4952381 5:0.67967725 13:1 54:1 81:1 153:1 168:1 216:1 
-2 1:0.38461538 2:0.38461538 3:0.41701999 4:0.4952381 5:0.65971945 24:1 54:1 83:1 102:1 216:1 250:1 
-2 1:0.15384615 2:0.15384615 3:0.46194226 4:0.5 5:0.67329335 47:1 60:1 180:1 192:1 207:1 
-2 1:0.23076923 2:0.23076923 3:0.39930412 4:0.12244898 5:0.69727576 14:1 19:1 52:1 112:1 126:1 183:1 256:1 
-1.721525201693241 1:0.61538462 2:0.61538462 3:0.31893129 4:0.3 5:0.67440744 18:1 45:1 75:1 126:1 152:1 223:1 254:1 
-0.4005068041708292 1:0.30769231 2:0.30769231 3:0.3155782 4:0.67857143 5:0.72737976 13:1 51:1 118:1 170:1 182:1 216:1 251:1 
-0.2047930435097113 1:0.46153846 2:0.46153846 3:0.33836395 4:0.35064935 5:0.67140269 55:1 132:1 143:1 189:1 198:1 222:1 256:1 
-0.03076311770155771 1:0.38461538 2:0.38461538 3:0.40936305 4:0.37142857 5:0.70543661 41:1 44:1 108:1 158:1 169:1 176:1 252:1 
-1.049776405734563 1:0.38461538 2:0.38461538 3:0.65576418 4:0.51428571 5:0.68305582 12:1 47:1 65:1 77:1 125:1 200:1 252:1 
-1.762253134651377 1:0.69230769 2:0.69230769 3:0.3175853 4:0.4047619 5:0.66905741 19:1 30:1 45:1 68:1 120:1 140:1 
-1.064232419734991 1:0.53846154 2:0.53846154 3:0.52621307 4:0.31948052 5:0.72539963 21:1 56:1 111:1 162:1 200:1 222:1 255:1 
-1.739480919760953 1:0.30769231 2:0.30769231 3:0.5308399 4:0.54978355 5:0.64035088 15:1 28:1 60:1 93:1 137:1 238:1 253:1 
-1.564981823996067 1:0.69230769 2:0.69230769 3:0.53412073 4:0.5 5:0.6769998 20:1 46:1 84:1 92:1 128:1 209:1 
-0.09058361637294637 1:0.30769231 2:0.30769231 3:0.38017363 4:0.37142857 5:0.67480055 46:1 63:1 76:1 86:1 163:1 180:1 253:1 
-1.64771439292119 1:0.30769231 2:0.30769231 3:0.2759508 4:0.5 5:0.66409395 88:1 115:1 179:1 192:1 204:1 235:1 252:1 
-0.03202463329368823 1:0.23076923 2:0.23076923 3:0.19801691 4:0.38961039 5:0.38917717 25:1 38:1 90:1 110:1 120:1 192:1 
-0.02861976989655038 1:0.30769231 2:0.30769231 3:0.46768373 4:0.56462585 5:0.54562021 24:1 36:1 120:1 128:1 144:1 245:1 248:1 
-2 1:0.23076923 2:0.23076923 3:0.50324224 4:0.52380952 5:0.57319147 13:1 41:1 51:1 144:1 188:1 216:1 
-0.2345990528880305 1:0.15384615 2:0.15384615 3:0.61403509 4:0.42857143 5:0.67457376 41:1 75:1 113:1 124:1 183:1 256:1 
-2 1:0.69230769 2:0.69230769 3:0.24540682 4:0.4047619 5:0.66429197 20:1 31:1 62:1 127:1 
-0.7764548024624252 1:0.30769231 2:0.30769231 3:0.55730534 4:0.46453546 5:0.68445762 7:1 23:1 76:1 111:1 143:1 222:1 255:1 
-0.05099710394506825 1:0.23076923 2:0.23076923 3:0.33614795 4:0.36734694 5:0.81078577 13:1 127:1 148:1 183:1 194:1 255:1 
-0.4404279724877582 1:0.30769231 2:0.30769231 3:0.55730534 4:0.26673327 5:0.85791945 22:1 42:1 78:1 101:1 216:1 241:1 256:1 
-1.991901998895176 1:0.38461538 2:0.38461538 3:0.40419948 4:0.3021978 5:0.68367141 92:1 120:1 157:1 164:1 210:1 252:1 
-0.7699711678336618 1:0.30769231 2:0.30769231 3:0.68536441 4:0.28571429 5:0.67915231 18:1 53:1 63:1 88:1 161:1 185:1 257:1 
-2 1:0.30769231 2:0.30769231 3:0.6127837 4:0.39285714 5:0.70906554 29:1 87:1 101:1 126:1 231:1 
-2 1:0.23076923 2:0.23076923 3:0.49475066 4:0.66666667 5:0.71460341 12:1 56:1 72:1 120:1 155:1 207:1 
-2 1:0.30769231 2:0.30769231 3:0.45765894 4:0.33061224 5:0.70880694 12:1 65:1 100:1 176:1 194:1 253:1 
-2 1:0.38461538 2:0.38461538 3:0.33928932 4:0.58095238 5:0.62479329 12:1 72:1 130:1 169:1 217:1 225:1 250:1 
-1.450965130316312 1:0.23076923 2:0.23076923 3:0.52561645 4:0.36734694 5:0.74267976 12:1 64:1 94:1 126:1 183:1 208:1 257:1 
-2 1:0.46153846 2:0.46153846 3:0.53484981 4:0.25714286 5:0.71301101 101:1 137:1 174:1 214:1 241:1 
-2 1:0.23076923 2:0.23076923 3:0.15051484 4:0.31648352 5:0.65711068 14:1 38:1 85:1 110:1 123:1 234:1 252:1 
-2 1:0.84615385 2:0.84615385 3:0.53916818 4:0.6 5:0.64463705 19:1 41:1 57:1 106:1 166:1 250:1 
-1.227705200112529 1:0.38461538 2:0.38461538 3:0.52824524 4:0.65714286 5:0.80616482 65:1 137:1 143:1 176:1 204:1 240:1 
-2 1:0.38461538 2:0.38461538 3:0.59346534 4:0.3877551 5:0.66121964 26:1 52:1 101:1 233:1 245:1 
-0.6926946587011326 1:0.23076923 2:0.23076923 3:0.57414698 4:0.28246753 5:0.51111935 13:1 40:1 92:1 111:1 174:1 196:1 251:1 
-2 1:0.38461538 2:0.38461538 3:0.56802275 4:0.44155844 5:0.68546847 77:1 153:1 209:1 229:1 243:1 
-1.407834540897548 1:0.38461538 2:0.38461538 3:0.47615923 4:0.37012987 5:0.6819305 153:1 188:1 208:1 229:1 245:1 252:1 
-1.599175968274686 1:0.46153846 2:0.46153846 3:0.50030285 4:0.42857143 5:0.67457376 14:1 21:1 64:1 101:1 113:1 198:1 251:1 
-0.8820570330940607 1:0.76923077 2:0.76923077 3:0.26509186 4:0.5 5:0.60381427 26:1 31:1 69:1 117:1 166:1 175:1 255:1 
-2 1:0.23076923 2:0.23076923 3:0.49475066 4:0.45238095 5:0.66271312 13:1 102:1 168:1 192:1 208:1 250:1 
-0.9062273091972288 1:0.46153846 2:0.46153846 3:0.15310586 4:0.64285714 5:0.72531093 14:1 25:1 120:1 189:1 206:1 213:1 251:1 
-0.2302513083285833 1:0.46153846 2:0.46153846 3:0.42257218 4:0.42857143 5:0.67457376 10:1 109:1 128:1 168:1 193:1 250:1 
-0.7586281950554302 1:0.30769231 2:0.30769231 3:0.32633421 4:0.31601732 5:0.69346292 13:1 54:1 102:1 153:1 217:1 240:1 
-0.01426699370581779 1:0.23076923 2:0.23076923 3:0.43955535 4:0.23809524 5:0.72166747 13:1 99:1 128:1 204:1 221:1 234:1 253:1 
-2 1:0.30769231 2:0.30769231 3:0.47805054 4:0.28571429 5:0.68830942 40:1 116:1 219:1 232:1 235:1 252:1 
-0.2662722753166881 1:0.38461538 2:0.38461538 3:0.34084067 4:0.3877551 5:0.69148898 14:1 25:1 73:1 118:1 168:1 188:1 
-0.3510037800133813 1:0.53846154 2:0.53846154 3:0.14403728 4:0.15584416 5:0.6677786 14:1 91:1 139:1 162:1 181:1 187:1 253:1 
-2 1:0.38461538 2:0.38461538 3:0.49475066 4:0.40336134 5:0.67457376 31:1 52:1 88:1 131:1 223:1 255:1 
-2 1:0.69230769 2:0.69230769 3:0.48993876 4:0.3 5:0.70743761 43:1 68:1 92:1 221:1 
-1.352699474646546 1:0.61538462 2:0.61538462 3:0.29430454 4:0.57142857 5:0.70662364 53:1 117:1 158:1 170:1 182:1 250:1 
-1.929414464800708 1:0.076923077 2:0.076923077 3:0.61504812 4:0.28733766 5:0.80380529 6:1 36:1 76:1 111:1 181:1 256:1 
-1.257922873908616 1:0.076923077 2:0.076923077 3:0.43861184 4:0.29251701 5:0.64794223 13:1 76:1 88:1 136:1 172:1 194:1 
-2 1:0.84615385 2:0.84615385 3:0.28783902 4:0.32142857 5:0.68206902 69:1 141:1 206:1 213:1 235:1 250:1 
-1.968860029982689 1:0.46153846 2:0.46153846 3:0.42257218 4:0.25714286 5:0.72262032 41:1 86:1 101:1 176:1 194:1 253:1 
-2 1:0.46153846 2:0.46153846 3:0.3503937 4:0.42857143 5:0.68124537 95:1 169:1 176:1 218:1 
-2 1:0.38461538 2:0.38461538 3:0.45931759 4:0.38461538 5:0.67331581 90:1 148:1 183:1 201:1 
-1.334785554940626 1:0.53846154 2:0.53846154 3:0.28717856 4:0.37142857 5:0.63065355 75:1 103:1 127:1 144:1 235:1 254:1 
-1.13452605844327 1:0.23076923 2:0.23076923 3:0.35261458 4:0.25054945 5:0.68409363 13:1 75:1 85:1 186:1 199:1 216:1 
-0.4647523390043601 1:0.38461538 2:0.38461538 3:0.34992195 4:0.51428571 5:0.7466436 42:1 108:1 136:1 143:1 213:1 242:1 
-0.9809917821986801 1:0.46153846 2:0.46153846 3:0.85564304 4:0.53571429 5:0.74870274 53:1 155:1 166:1 219:1 224:1 255:1 
-2 1:0.30769231 2:0.30769231 3:0.56648221 4:0.28571429 5:0.69746653 14:1 18:1 41:1 53:1 159:1 184:1 257:1 
-0.06235627585395694 1:0.38461538 2:0.38461538 3:0.24934383 4:0.17857143 5:0.66493699 13:1 91:1 138:1 157:1 204:1 235:1 
-2 1:0.30769231 2:0.30769231 3:0.24212598 4:0.39393939 5:0.69421794 14:1 25:1 50:1 104:1 216:1 241:1 
